float W1_C[]={
-0.027594814, -0.08435618, 0.06572107, 0.04330569, -0.037082464, 0.060956027, -0.12385071, 0.030214807, -0.04862034, 0.14335378, -0.0033575224, -0.078346126, -0.09222705, -0.030721514, 0.13388556, 0.017318808, -0.10014087, 0.08878479, 0.027342526, -0.024441335, -0.09966701, -0.10179753, -0.04186523, 0.03762327, -0.0015946486, -0.020391848, -0.018918337, -0.0926759, 0.08095966, 0.04694892, -0.049031176, 0.011331759, -0.12056515, 0.13447689, -0.028095031, -0.013390492, 0.01728203, -0.098962724, 0.04927064, -0.09252041, -0.068606935, 0.028171975, -0.13487434, 0.060058516, -0.06792212, 0.07514357, 0.025230477, 0.014053691, 0.10162523, -0.13798825, -0.12774391, 0.05504061, -0.060657434, -0.07233059, -0.059383485, -0.055270597, 0.10353673, 0.037806142, -0.08932406, -0.07710271, -0.017179707, -0.0074417535, -0.009234313, 0.13264328, 0.036916018, -0.022137767, -0.0045908317, 0.03056497, -0.1074948, 0.036753405, 0.07561703, 0.06423839, -0.071667016, -0.012438539, 0.05906664, -0.056575634, 0.013911642, -0.034804273, -0.060179207, 0.017139848, 0.05168291, -0.005023897, -0.08893045, 0.050484177, 0.12419743, 0.02248418, 0.099376604, -0.055018365, -0.057764314, 0.112548396, -0.025115332, -0.06287308, 0.04736839, -0.029768744, -0.08805283, -0.077051684, -0.07996373, -0.007446041, -0.028670544, 0.09037193, 0.03689542, -0.0003742739, -0.037743144, -0.10773385, 0.034058746, 0.10825144, 0.03446296, 0.05026627, 0.09588241, 0.07658453, 0.0603324, -0.09212664, 0.06101027, 0.019294403, -0.0020001803, 0.10074142, 0.11941492, 0.009499376, 0.0807614, 0.22280511, -0.035675492, -0.046668217, -0.14011092, -0.19753398, -0.044265583, -0.0353368, -0.004437238, -0.07788024, -0.023716748, 0.027404636, 0.09434756, 0.20189764, 0.0733324, -0.017462408, -0.0834739, -0.13995571, 0.11859622, -0.10350707, -0.17278853, 0.08359858, -0.06147559, 0.04500845, -0.04436469, 0.18124153, 0.0006775128, -0.10450779, 0.09292475, 0.09587846, 0.18259192, -0.050765194, 0.029235879, 0.13348186, 0.15121037, 0.059721645, -0.09435719, 0.012608723, -0.016828958, -0.114476815, 0.02455203, -0.11118708, 0.10580749, -0.032189526, -0.12240542, 0.12932709, 0.05503593, 0.004026377, 0.06596631, 0.08143498, 0.035116024, 0.009357853, 0.07259338, -0.11446622, -0.07480037, 0.0608298, 0.017010259, -0.2094956, 0.029957088, 0.032888703, -0.13173093, 0.089825824, 0.04155578, -0.037153397, -0.0958784, 0.08113949, -0.01666044, -0.11914035, -0.050419714, -0.21084403, -0.1511063, -0.06390351, 0.046290424, -0.06756285, -0.004509807, -0.03686291, -0.08327117, 0.05888403, 0.06337467, 0.020808022, 0.13034232, 0.028943582, -0.098730184, -0.006664612, -0.067775264, 0.14638545, -0.013521919, -0.041378357, 0.103409946, -0.059388142, -0.12089878, -0.015717374, -0.06826272, -0.062094834, 0.2278408, 0.04436204, 0.12750138, 0.03110571, 0.004736969, 0.06268919, -0.049308814, 0.1554882, -0.065839924, -0.119917005, 0.10311264, 0.076318294, 0.033779252, 0.11474191, -0.016533239, -0.016106345, 0.040051226, 0.009968196, 0.07181279, 0.031984475, -0.12706847, 0.10709303, -0.069993466, 0.13702096, -0.058977466, 0.002267615, -0.15798765, 0.010821248, -0.053267278, 0.011184582, 0.053878214, 0.08272104, -0.0141092045, 0.12940659, 0.073775455, 0.025777813, 0.20203379, 0.12505415, -0.17743506, -0.13957119, 0.11875371, -0.059137255, 0.06650346, 0.10811038, -0.0032109865, 0.118127406, 0.09044629, 0.14793615, 0.18707171, -0.12398385, 0.069642216, 0.06951068, 0.06538833, -0.014790752, 0.09605943, 0.106336005, 0.03058833, -0.032491356, 0.070001334, -0.05588233, 0.014349664, -0.13413574, -0.12703483, -0.063534394, 0.1353172, -0.009751392, 0.14587966, 0.045013033, 0.0050372826, -0.008673532, 0.07185074, -0.0059502395, 0.032178108, -0.12172454, -0.058998108, -0.13000771, 0.20102979, 0.1645893, 0.09346468, -0.057946462, 0.08712885, -0.15961635, 0.019050421, 0.01672647, 0.019785216, 0.06948183, -0.04410906, 0.13469641, 0.13775131, 0.054429896, -0.049223326, -0.15606692, -0.11047815, -0.15562916, 0.0016914166, 0.16713604, 0.052674163, -0.041746274, 0.018085493, 0.039202943, 0.049271632, -0.024422072, -0.0041117184, -0.096251495, -0.021032114, 0.090496324, 0.14193673, 0.072095215, -0.05203788, -0.060050376, 0.09250456, -0.11902165, 0.114853434, 0.04303136, 0.07849028, 0.08023774, -0.1222702, 0.096603796, -0.029443722, -0.08736418, 0.08455882, -0.059017632, 0.08509738, -0.12047072, 0.10175597, -0.17067271, -0.15718949, 0.0433511, -0.022811592, -0.12002192, 0.09230761, -0.059547946, -0.027490178, -0.12958631, -0.044856727, 0.016591087, 0.10035514, 0.0456411, 0.12919658, -0.19517648, 0.1260831, 0.039044607, 0.028427184, -0.021258831, 0.122047104, -0.10990864, 0.050744835, -0.05564947, 0.014807, 0.02693195, -0.005303792, 0.021332415, -0.058816403, 0.10447334, -0.116710916, -0.042417828, -0.020379387, -0.17247912, -0.019656118, 0.09760782, -0.028251613, -0.08272573, 0.13767268, -0.07638359, 0.093164764, 0.045455955, -0.016195923, -0.028312225, 0.05188362, -0.14163566, 0.026043037, 0.023771564, -0.049936365, 0.016201409, -0.11396664, 0.020327816, 0.019901967, 0.022146262, 0.07582963, -0.10412323, 0.030128421, -0.10936192, 0.041037798, -0.13450806, 0.08212167, 0.10159037, -0.13825247, -0.03240231, -0.04775989, -0.15746984, 0.012445219, -0.108492464, 0.14669788, -0.09179046, -0.0072632832, 0.021035366, 0.1072854, -0.16437754, -0.21572651, -0.029798513, -0.006969649, -0.08972684, 0.061807193, -0.094259754, 0.0215067, 0.16380839, -0.03866051, 0.009523974, -0.001652698, -0.035551336, -0.020741232, -0.15058865, 0.08598073, -0.037417706, 0.051573314, 0.1450488, 0.009034175, 0.075711675, -0.06457795, -0.06279194, -0.05080376, -0.11865058, -0.08915551, 0.13010941, 0.05666494, 0.10713145, 0.1713273, 0.18779401, 0.16356638, 0.07826598, -0.002327289, -0.0133964475, 0.11842517, -0.0763887, 0.118902385, 0.13670175, -0.093563825, -0.10190807, 0.11317473, -0.0015824446, -0.06274134, 0.06898582, -0.07732298, -0.062489763, 0.032867678, 0.08463573, -0.07632422, 0.049823623, -0.11176096, -0.043436784, -0.0061877314, 0.053189013, -0.10820784, -0.17712036, -0.10424342, -0.18566354, -0.004773603, 0.04581116, 0.09339083, -0.11989432, 0.05111455, -0.12692705, -0.10333881, 0.074029766, 0.05803908, -0.036335424, -0.09361114, -0.10042511, -0.04607997, 0.15575585, 0.030431587, -0.14168324, 0.052032143, -0.010904713, 0.04154285, -0.15675484, 0.008550394, 0.008689732, 0.11308152, 0.03779346, -0.0468428, -0.030643074, -0.12789218, 0.10720371, 0.059717562, -0.11766364, -0.06901624, 0.10531952, -0.041569144, -0.02385969, 0.14825653, 0.11634891, -0.03915167, 0.16469954, -0.11327793, -0.07938497, -0.068964764, 0.06546647, 0.05830524, 0.1549492, 0.051140152, -0.12032401, -0.06628148, 0.036764026, 0.13088092, 0.031848382, 0.083332956, -0.044164363, -0.015240303, 0.101708494, -0.11949915, -0.017976422, -0.12923929, 0.014014119, -0.055025086, 0.1343552, 0.0067158155, -0.08250753, 0.04363477, -0.21771461, -0.03841726, -0.11327973, -0.0034477096, -0.17238815, 0.09587058, -0.1452677, -0.17850153, 0.04145631, 0.054400276, 0.002978283, 0.03386922, -0.11239596, 0.0042152675, 0.10405713, 0.009318559, 0.04046798, -0.05167425, -0.08834817, 0.0369698, -0.048684094, -0.11921653, 0.12137713, -0.06641251, 0.008173537, 0.14694943, 0.0374199, -0.11869541, 0.07411976, 0.033103265, -0.12225249, 0.079211615, -0.0007492456, -0.104918405, 0.10844828, 0.15039359, 0.008482204, 0.07700798, 0.094510905, -0.10032725, 0.051163226, 0.06673024, -0.06808683, 0.049936645, -0.0005550384, 0.022615891, -0.029075924, 0.08154124, 0.066569395, 0.08844757, 0.07723793, -0.04948237, 0.07443301, -0.03532504, -0.018329807, -0.10958904, -0.1420965, -0.016792947, 0.04308789, -0.0040465817, -0.03700916, -0.09473695, -0.16391757, -0.13001545, -0.1214156, -0.0517345, -0.110781364, -0.11673381, -0.06971568, 0.060527287, 0.020552108, -0.1594639, 0.01540923, -0.003072744, -0.036017716, 0.013324737, -0.12627767, 0.16309005, 0.12782682, 0.057577636, -0.12676603, 0.03167975, -0.0037832444, 0.11523706, -0.11891882, 0.017008815, -0.106266156, -0.085872084, 0.0058407155, 0.13196887, -0.08162311, -0.075284, -0.08679468, -0.010768008, 0.0015712257, 0.13314652, -0.02192817, 0.05934472, -0.045578133, 0.08257034, 0.0040025827, 0.16454102, -0.017069994, -0.09662918, -0.011727773, 0.1318562, -0.06163185, 0.19999638, 0.13563123, -0.03975164, -0.14709331, -0.1381917, -0.02213494, -0.0673775, 0.02804912, -0.07007983, -0.14263085, 0.07299369, -0.035856444, -0.016082337, -0.09983642, -0.02397496, -0.043800768, 0.14109775, -0.046885733, -0.093686536, -0.1543648, 0.09789587, -0.20637582, -0.04233036, 0.128403, 0.07194343, -0.1599574, 0.01060783, -0.08948024, -0.00076732785, -0.09917689, 0.03361119, 0.0032976817, 0.051568635, -0.13210073, 0.1441323, -0.027500065, -0.055207662, -0.044096533, -0.078268014, 0.013197801, 0.07702023, -0.07185273, -0.13380113, 0.05125098, 0.007923215, 0.061799936, -0.041940242, -0.16960868, 0.036301035, 0.029312275, 0.0513452, -0.07077787, 0.10094511, -0.09189492, -0.052217644, -0.07653376, 0.1709206, -0.011862919, 0.06908401, 0.06980764, -0.10860636, 0.00072541833, 0.14341557, 0.042285398, 0.12980364, 0.040723663, 0.042747665, -0.1772401, -0.0551873, 0.016304383, -0.017453779, 0.15868534, 0.10658398, 0.10132433, -0.012895054, -0.07844842, -0.08548818, -0.11084103, 0.08824136, 0.051758822, 0.10163472, 0.12079257, 0.09867612, -0.021684112, -0.10555101, -0.045350153, -0.04691118, 0.13637802, 0.04861027, -0.00125458, -0.025817392, 0.13844644, -0.13296211, -0.03813249, -0.1370044, -0.00040254043, 0.054908577, -0.15875885, 0.034334183, 0.08429254, -0.05013105, -0.24099557, 0.040546007, -0.0980437, 0.15145373, -0.22117358, -0.11988668, 0.01766291, -0.12630306, 0.04987221, 0.02327232, 0.06433814, 0.057777274, 0.109213755, -0.02009969, -0.0038081764, 0.10525833, 0.047039863, 0.020971024, 0.010297096, 0.18973763, -0.061609957, 0.08783139, -0.07054557, 0.0042395107, 0.14375262, 0.1017088, 0.13171205, -0.01240727, -0.076524846, -0.049028475, 0.02650768, -0.0069641983, 0.10267184, -0.048292525, 0.21056049, -0.050481897, 0.068691894, 0.0024760386, -0.11158758, 0.016483245, -0.18027747, 0.014701329, -0.08847514, 0.13191329, 0.047890827, -0.06829403, -0.055301063, -0.09894694, -0.11875817, -0.0053473245, 0.11251887, -0.14432918, 0.025002912, 0.08764369, 0.20358382, 0.15518896, 0.034809783, -0.020952843, 0.039068744, -0.00048345033, -0.17103459, 0.08978583, -0.06892114, 0.022143807, -0.2002409, 0.14680438, 0.009986548, 0.15580337, -0.015579249, -0.0131051745, 0.1290508, -0.13210356, 0.0014220302, -0.17458034, -0.10187495, 0.1733153, 0.037652798, 0.12900464, 0.042675897, 0.0013019547, 0.105741255, -0.14218438, 0.13339935, 0.04101264, -0.01879137, 0.03911961, -0.039755087, 0.039477825, -0.086653784, 0.1553763, -0.03907948, -0.17168643, 0.01072901, 0.05342397, -0.047411844, -0.050511874, -0.05416452, -0.12737274, 0.14091095, 0.105795786, -0.022222055, -0.09673244, 0.062958114, -0.054849718, -0.030131448, 0.17200503, 0.11036262, -0.12588878, 0.092113435, -0.07223737, -0.06570112, 0.08156707, 0.043447226, -0.13400339, 0.18946914, -0.14259788, 0.11992655, 0.065196276, 0.20678568, 0.0072206887, -0.15425482, -0.09648259, 0.13638264, -0.009551468, 0.019272953, 0.057021786, -0.009434962, -0.047420632, -0.26699996, 9.9730314e-05, 0.06981735, 0.20419642, -0.1324273, 0.07069159, 0.117589116, 0.13940619, -0.024022844, -0.17148054, 0.14580081, 0.21807477, 0.14608115, 0.076228686, 0.0827625, -0.017423002, -0.014712052, -0.1794287, 0.15330984, 0.057139263, 0.06804717, -0.15022622, 0.07792392, 0.019102834, -0.016822677, 0.10394081, -0.0662, -0.035668086, -0.03463815, 0.08525048, 0.11106025, 0.11474134, -0.13908242, 0.051137377, 0.060577363, 0.22139001, -0.045494366, -0.053220775, 0.103902206, 0.11550851, 0.12627476, -0.1056955, 0.090021096, 0.032201946, -0.15724242, 0.009700716, 0.034579936, -0.121217385, 0.0445508, -0.0053702584, -0.03529191, 0.08467782, -0.022768596, -0.06990968, 0.068645604, -0.05421679, 0.055782054, -0.1542403, 0.19130282, -0.013380322, -0.06488525, -0.086362384, 0.03938374, -0.09088915, -0.052722357, -0.11339784, 0.168919, 0.16131064, 0.05686121, -0.0008073765, 0.056371704, 0.11486555, 0.13150685, -0.06909089, 0.0369937, 0.21045445, 0.18260613, 0.0558964, -0.019009026, -0.13334219, -0.095584355, -0.1771588, 0.0445258, 0.04632831, 0.08004781, -0.06813452, 0.056515068, -0.044847146, -0.09416179, -0.016338803, 0.0684376, 0.18440661, 0.08323777, 0.121571444, -0.0701809, 0.120087795, -0.04760029, 0.04706449, 0.009531086, 0.1737995, 0.11444212, 0.06338251, -0.105635665, 0.045467857, 0.014592496, -0.11897398, -0.099837236, -0.11315099, -0.1296173, 0.051611047, -0.11352419, 0.0039402135, -0.022091188, 0.15963034, 0.031223748, 0.07057111, -0.15159443, -0.119473405, 0.020634295, -0.039897457, 0.11825683, 0.02194578, 0.0030073496, 0.03264414, 0.11933736, -0.13233459, -0.11421278, -0.06760804, -0.011239146, -0.06316613, 0.19078471, -0.027230915, -0.017162118, 0.04919382, 0.015603038, 0.08156461, 0.12622388, -0.033366363, -0.027506636, 0.16182394, 0.14412683, 0.042318985, 0.07287576, -0.03170642, 0.027890805, -0.10137432, 0.11153422, 0.15585946, -0.08336924, 0.049072217, 0.12431206, 0.0095114065, -0.24549614, -0.14931844, 0.13452883, 0.07124618, 0.07345882, 0.114533566, -0.08412933, -0.043490358, 0.07062028, -0.00091865537, -0.114968546, 0.13601397, 0.074314386, -0.08863191, 0.03874821, -0.025429653, 0.10320398, -0.024053784, -0.10197508, -0.003566619, -0.13481252, 0.18287855, 0.059546907, 0.018381024, -0.08177207, 0.18600345, 0.10924428, 0.1650972, 0.01528121, -0.015083766, 0.009881792, -0.06837205, -0.105858535, -0.07723356, 0.0718509, 0.06286159, 0.15186898, -0.029587306, -0.0805854, 0.1536739, -0.06990477, 0.0010575328, -0.07160261, -0.14328317, -0.015284177, 0.12764762, -0.12890403, -0.0043681585, 0.115306586, -0.06957102, -0.104499795, 0.029568374, -0.038425006, 0.08635673, 0.06089817, 0.03177616, -0.04483175, -0.124565355, -0.07121344, 0.043130063, -0.06505761, 0.11683357, -0.08278397, -0.13389416, -0.20664793, -0.038397875, 0.07722787, -0.071699314, 0.08920108, 0.014081222, 0.025380626, -0.053689886, 0.046244644, 0.06333674, -0.14238971, 0.08862231, -0.1415173, 0.15962207, -0.043861203, -0.13064374, 0.103221275, 0.03515547, -0.050090767, 0.15621671, -0.08065512, 0.043118805, 0.020758552, 0.07049473, 0.0800262, 0.111956194, -0.014423614, 0.06701594, -0.1223448, 0.06458146, -0.09745895, 0.05870917, 0.05090191, 0.019269852, -0.06062752, 0.024844259, 0.026622763, -0.060654823, -0.040356204, 0.12186024, -0.11159968, 0.06591884, 0.1307436, 0.014989043, 0.03306769, 0.09167674, -0.11728376, -0.15526883, -0.021433745, -0.13214117, 0.07302387, 0.068428345, -0.055365827, 0.12445179, -0.061301567, 0.18874873, 0.1348156, 0.07826333, -0.013151024, -0.0055764173, 0.12624712, 0.119330905, 0.055924118, 0.06961185, -0.13888665, 0.068970546, -0.0062727034, -0.074791126, 0.112257175, 0.1503518, 0.00994346, 0.15490875, -0.039761547, -0.014703265, -0.04368507, -0.011297124, -0.026159357, 0.13020754, -0.12521696, -0.123646654, 0.11505629, 0.1271512, 0.15368916, 0.085480705, -0.067157134, -0.03996258, -0.0014153721, 0.06632334, -0.09092407, 0.1957591, 0.059070878, -0.0065937233, -0.06663835, 0.033227988, -0.08952819, -0.035986945, -0.071389064, -0.021195775, 0.07781284, 0.061762087, -0.018254, -0.1331268, -0.025258139, -0.06977356, 0.017058786, 0.11880655, -0.11386926, -0.10211777, -0.02339869, 0.07766654, -0.11820032, -0.1135658, -0.062080026, -0.118936226, -0.044524897, 0.045428466, -0.100076646, -0.09061711, 0.04515382, 0.17772429, 0.10843897, -0.06601022, -0.10915061, -0.0075226338, -0.08211377, 0.021626187, -0.14415999, 0.048611954, -0.036675584, -0.019903071, 0.0011023062, 0.07673466, -0.041648198, 0.17321861, 0.100222446, 0.09607453, -0.10120666, -0.03662333, 0.017111223, -0.033458356, 0.08505896, 0.085224494, 0.042326782, -0.07186157, 0.15957738, 0.109445296, 0.12467555, -0.057795133, 0.06683262, 0.07017797, -0.032279894, 0.16624263, 0.0017993218, 0.1644471, -0.049779728, -0.09118209, 0.02917103, 0.011611001, 0.08021317, -0.027719041, 0.019397147, 0.0403564, -0.019026026, 0.1688368, 0.08042752, 0.10310643, 0.0651585, 0.14200625, -0.12322313, 0.07313495, 0.11101924, 0.07102846, 0.09515769, -0.07166208, -0.08616756, -0.08126747, -0.12453674, -0.035526894, -0.11145874, -0.08383426, 0.081196934, -0.10770631, -0.049471583, 0.0967709, -0.08697677, 0.04696203, 0.056551937, -0.016501706, 0.093142435, 0.09348664, 0.020055808, -0.16091843, -0.03352926, 0.014401459, -0.08112613, 0.05885069, -0.09023838, 0.040937778, 0.06737808, -0.097697355, -0.13685957, 0.07634672, 0.10878426, -0.16037023, 0.09546751, 0.14196841, -0.042643186, -0.04463933, 0.024539512, 0.12407716, 0.08628273, 0.10480878, 0.035199974, 0.024308395, -0.03651568, 0.095589936, 0.064283945, 0.020932019, 0.082018115, 0.085996956, -0.040752955, -0.063815854, -0.11362517, -0.04210428, 0.09715896, 0.0726057, 0.043901943, 0.09206074, -0.09760842, 0.13419145, -0.093769, -0.04494251, -0.10166824, 0.12979749, -0.0937012, -0.13538095, 0.0917787, 0.0912841, 0.15591264, -0.019756744, -0.16435386, -0.09056204, -0.085866496, 0.12429795, -0.00842212, 0.015608567, -0.056491967, 0.050240703, -0.070289165, 0.05538513, 0.027912395, 0.071942, -0.12023703, -0.026692457, 0.087831765, -0.09557585, -0.13895406, -0.089821845, -0.14096226, 0.14369455, -0.13416472, -0.012120996, -0.059520543, 0.038108494, -0.002483387, 0.003974027, -0.045623403, -0.15041287, -0.08098731, 0.17506616, 0.013254357, -0.075540245, 0.09909956, 0.030098513, 0.09617194, -0.021024363, 0.048066553, -0.14522415, 0.12535574, 0.007116384, 0.09265932, 0.13031021, 0.00986888, 0.048087224, 0.1237499, -0.11829748, -0.08906771, 0.18719327, -0.08534395, 0.008203276, 0.119665936, 0.08511225, 0.10468644, -0.060295213, 0.07327618, 0.079629146, -0.06880765, 0.12795071, 0.030831546, 0.10248193, -0.05870254, -0.029336885, 0.1335173, -0.0073503107, -0.079728045, 0.1386624, 0.012109953, 0.040437892, -0.005994355, -0.03258475, -0.031251717, -0.08224501, -0.072021596, 0.09634455, 0.0697489, 0.10268203, 0.037043538, 0.0242547, 0.07806766, -0.004992764, -0.031823263, 0.029349225, 0.06444379, -0.052272823, 0.0717822, 0.1505118, 0.017544419, -0.1193756, 0.053459875, 0.052839015, -0.03809215, 0.013337061, 0.10952878, 0.14442691, 0.015900806, -0.109776, 0.11863551, 0.11686791, 0.15894452, 0.16279191, 0.040443413, 0.04922609, 0.0010367936, 0.1540681, 0.06891131, 0.09190996, -0.08603479, -0.011453122, -0.025047787, -0.06169348, -0.060609624, 0.0153626455, 0.0814464, -0.043630857, 0.027627405, 0.017090652, 0.039337657, 0.14587846, 0.065954484, -0.098150186, -0.005186954, 0.20077209, 0.08011262, 0.14103737, -0.08903236, -0.13461126, 0.19951327, -0.0016640245, -0.10430429, 0.08530649, 0.12917873, -0.0039660437, -0.05428786, -0.019858148, -0.026863698, -0.059078492, -0.082930945, 0.005084669, -0.13884069, -0.07984995, 0.16458581, 0.049781907, -0.14674257, -0.006291345, -0.17069355, -0.19540742, -0.017162535, -0.01342541, -0.021096706, 0.161152, 0.08797425, -0.111914836, -0.1874807, -0.15082192, -0.00014053192, -0.168547, 0.15805122, -0.03677888, -0.016603775, -0.08035528, 0.10494335, 0.1323151, -0.01016232, 0.08734752, 0.061732315, -0.030146927, 0.17611443, 0.07315318, -0.10138954, 0.088644296, -0.1549415, -0.11040597, -0.086669646, 0.07812365, 0.033032402, 0.24234256, -0.09837606, -0.09866533, 0.07166987, -0.123743124, 0.004937133, 0.17666747, 0.06351068, -0.07148327, -0.08079697, 0.024697011, -0.0114615075, 0.014048358, -0.0017307109, -0.013249123, 0.0070340554, 0.1183376, -0.012865146, 0.2169596, 0.01913554, 0.13080281, 0.06268992, 0.10641178, 0.109082036, 0.0183546, 0.015863206, 0.15272191, -0.15194322, 0.04212894, -0.10608637, -0.059317622, -0.20161182, -0.052858178, 0.0032020675, -0.04598582, 0.14963734, -0.048061498, 0.07045363, 0.19888523, 0.1050879, -0.12198672, -0.22195473, -0.18227385, -0.0011403412, -0.051024884, 0.12625459, 0.060443897, 0.07946073, -0.0884815, -0.016274361, 0.026649391, 0.17307205, -0.017471451, -0.043626614, 0.008577106, 0.12570183, -0.03503055, -0.09485875, 0.034024205, 0.0280865, -0.093421765, 0.0272993, 0.031750042, -0.08291532, 0.06700533, -0.048293874, -0.0451599, 0.113574125, -0.12687136, 0.027144063, 0.15802254, 0.065142386, -0.066132605, 0.009622693, 0.14182061, -0.053939603, 0.06615643, 0.054330885, -0.15373234, 0.16673538, 0.093110606, -0.11489834, 0.22105798, -0.028901998, -0.03521955, -0.06034107, 0.18698825, 0.083910644, -0.040274676, -0.18256232, 0.11807225, -0.20400356, 0.019749954, -0.17971733, 0.01850468, -0.15350759, 0.0025575128, -0.06483635, -0.053924773, 0.01940244, -0.052460577, 0.21182817, 0.052764833, -0.10340536, 0.0502485, -0.12282142, -0.12764804, 0.15638915, -0.08105568, 0.21221893, -0.050464172, 0.17040996, 0.020389486, -0.07402428, 0.057337053, 0.12851597, -0.1329178, 0.0023519073, 0.019042747, 0.06468915, 0.09760623, -0.07605351, 0.07072891, -0.0074336543, -0.09252668, -0.050205633, 0.022976123, 0.06525976, 0.017624283, 0.06351688, -0.06187255, 0.1169469, 0.0557387, 0.014832328, -0.059444983, 0.07684925, 0.06893487, 0.008391643, -0.039912112, -0.01277587, -0.044478346, 0.06792819, -0.029678129, 0.00064676267, -0.054966077, -0.05710846, -0.049317464, -0.17774037, 0.08257875, 0.056458533, -0.03234316, 0.027570834, 0.06737292, -0.14460562, 0.042820267, -0.02189552, 0.036850844, -0.15370598, 0.006273694, -0.123974144, -0.14665268, 0.06500982, -0.1736516, 0.17373708, 0.13524733, 0.1499283, -0.03080247, -0.020039406, 0.10094564, -0.15543216, 0.07926284, 0.11636184, 0.06361065, 0.07773063, -0.110813305, 0.11476245, -0.0071007432, -0.0063566347, -0.02065472, 0.03690131, -0.1114236, 0.08597414, 0.2378265, 0.022651069, 0.15775186, 0.004311976, -0.028296774, 0.09517847, 0.010669103, -0.08519211, 0.03575243, -0.0713112, 0.01732509, 0.009965208, -0.16355073, 0.056780063, -0.0061741876, 0.15237415, 0.012321591, 0.15934719, -0.022217797, -0.025428558, -0.10690814, 0.12297437, -0.14230822, 0.10537706, -0.10028427, 0.09451346, 0.10780703, 0.0880147, -0.11892948, -0.25915304, 0.020403843, -0.05064563, 0.050718825, 0.08397135, 0.15378825, -0.019568881, -0.07437433, -0.06682214, -0.013139708, -0.044591762, -0.010315747, 0.13474457, 0.019784765, 0.023882987, 0.023981573, 0.04074162, 0.024539938, 0.21697873, -0.061716907, -0.010006312, -0.0345279, 0.0976013, 0.02663416, 0.026214583, -0.100373454, -0.07100699, -0.12395348, 0.0064471564, 0.11535087, -0.017869808, 0.13688676, -0.14218786, 0.06270957, 0.05633251, 0.12171017, -0.041347496, -0.09359853, 0.052680317, 0.05768171, 0.08346526, -0.08525339, 0.12583819, 0.17194262, 0.15493117, 0.18246433, 0.050614756, -0.03702644, -0.12813823, 0.007881159, 0.016717926, 0.03347515, 0.15367056, 0.086397246, -0.015781429, -0.09722872, 0.050946858, -0.0009016407, 0.01833281, 0.082931876, 0.030895429, 0.046750017, -0.025862757, -0.0650414, -0.1344813, 0.13364466, 0.021636844, -0.10488741, -0.11689595, 0.01295302, 0.055045377, -0.05722533, -0.10990783, -0.022002311, -0.15569465, -0.097086966, -0.06951396, -0.10010824, 0.14193897, -0.115753815, -0.07827009, -0.009470396, -0.086316675, 0.11966951, 0.041842315, 0.093533166, 0.104533136, -0.09915787, 0.048028063, -0.033908207, 0.06497289, 0.095755495, 0.11954197, -0.15898058, -0.04361867, 0.0074814484, 0.106149204, 0.0934142, 0.10203946, -0.06608442, -0.0900144, 0.059757404, 0.0053345384, 0.12133025, -0.013515668, -0.031991344, -0.2538119, 0.0029141002, -0.039026313, -0.14863974, -0.13911624, 0.1250987, 0.085604556, -0.03216001, -0.10294564, 0.118910536, 0.008678034, 0.037410118, -0.067994714, 0.14525141, 0.09513765, -0.09129076, -0.041964658, 0.08098112, 0.13655405, -0.07520439, -0.03952243, -0.075385176, -0.01856273, -0.048439536, 0.10446707, 0.08182841, 0.11827841, 0.0052060923, 0.013317212, 0.10194021, -0.024891235, -0.023465766, -0.034588344, -0.07070822, -0.04965061, 0.085292496, 0.09214205, -0.07712404, 0.11840883, 0.09079763, 0.031002287, -0.0054262173, 0.120964535, 0.09658308, -0.055508297, -0.07591582, 0.07180959, -0.09752826, 0.030423652, -0.098051034, 0.16352257, -0.035777725, -0.018565817, -0.0932717, 0.017428717, -0.071033925, 0.14353436, 0.048670933, -0.17631783, -0.099941276, 0.028734025, -0.07386162, -0.21188264, 0.040905543, 0.07611898, -0.09140764, 0.12771864, 0.1782067, -0.07511096, 0.07326393, -0.0020508547, -0.10417397, -0.074143715, 0.025263993, -0.0837666, 0.15572079, 0.0013413045, 0.11100238, -0.102235995, 0.067833275, 0.0055374466, 0.038341105, -0.040038485, 0.13831703, -0.054407876, -0.1232265, 0.1538704, -0.0008402174, 0.06585909, -0.2043988, 0.08449797, -0.022227522, 0.1093934, -0.06936093, 0.106337056, 0.052077986, 0.07045757, -0.097643614, -0.17785221, -0.027385565, 0.12311835, 0.16157216, 0.14017081, -0.09012054, -0.06842896, -0.058262933, 0.032027658, -0.039756328, -0.053649195, -0.015433804, 0.13524203, 0.11255961, -0.07855842, 0.12267386, -0.034940187, -0.06550874, -0.05338121, -0.30358842, -0.07855116, -0.051085517, 0.013309222, -0.102901705, 0.078879796, 0.04243914, 0.09094899, -0.017822055, 0.073955595, -0.07337415, -0.122433946, -0.10260411, 0.19188254, 0.012923025, -0.19761911, 0.06960193, -0.05690402, -0.16268551, -0.060611203, -0.09080601, -0.031828463, 0.11477643, 0.064343944, -0.08153005, -0.07358352, 0.08880102, 0.08369853, 0.08137521, -0.00034171867, 0.11248218, 0.13300613, -0.11878254, -0.0574421, -0.049232546, -0.08798152, 0.03934761, 0.09781765, -0.049866837, 0.027396249, -0.14856075, 0.10407886, -0.10294894, -0.003735246, 0.013913159, 0.10779195, -0.027073802, 0.13315292, -0.023042046, -0.051127303, 0.06231872, 0.019648718, -0.0760292, 0.06275632, 0.027428906, -0.001501802, 0.060861878, -0.1907576, -0.0630174, -0.036410052, 0.03382322, 0.12378411, 0.1178956, -0.07775734, 0.13735537, 0.06963625, 0.07899494, 0.07166988, -0.15600476, 0.04251053, 0.1919273, -0.016075812, -0.06650445, -0.042006936, 0.039715253, -0.1365486, 0.09689409, -0.05413013, -0.05464433, 0.11427699, 0.08666444, 0.0062897783, 0.18027708, -0.050536588, -0.059556093, 0.0047354614, -0.032539748, 0.14618903, 0.056577705, 0.040642533, 0.01909688, 0.09969192, -0.059949353, -0.23903896, -0.0005456147, -0.046416316, 0.07055101, -0.078045465, -0.012200979, 0.030607771, 0.022294112, -0.07971244, -0.07223223, -0.112034604, 0.0056726774, 0.07729223, 0.0429698, -0.13356456, 0.18027647, -0.016045474, 0.0023573162, -0.1551535, -0.05152003, -0.15978602, -0.13912949, 0.040115084, 0.078369, 0.103900224, 0.10991341, -0.038456455, -0.06259762, -0.16555253, -0.0048014834, 0.16580798, -0.109327696, 0.08498661, 0.079648815, 0.0395883, -0.1207548, 0.053735547, -0.088747345, -0.0996215, -0.06542264, -0.030081782, 0.082103744, 0.0025882116, 0.08214726, -0.12739672, 0.09235288, -0.15566072, -0.15807241, 0.06008997, -0.12194158, -0.078970686, 0.042654086, -0.07015325, 0.029273562, 0.06424318, -0.041358046, -0.14823677, 0.010227772, 0.02133606, -0.07970323, 0.13583826, -0.037057728, -0.047796633, -0.023717301, 0.08643212, -0.07711129, 0.08714778, 0.03678768, -0.08187372, -0.0325225, 0.058454424, -0.10326412, 0.10433889, 0.10064857, 0.05982458, 0.02358068, 0.099381715, -0.14927615, -0.15089633, 0.036244527, -0.099485375, -0.08557869, -0.085177705, -0.09426142, 0.08428085, -0.0626686, 0.033518266, -0.06105059, -0.08621786, 0.030425308, 0.021494608, -0.0025394717, 0.19500108, 0.11671999, -0.06295626, 0.055207603, 0.016063372, 0.057533067, -0.13392045, 0.039539993, -0.07185813, -0.14162557, 0.036313903, -0.09716114, 0.035020612, -0.12639047, -0.0054541845, -0.046201166, -0.06347639, 0.13935766, -0.035776105, 0.11353924, 0.10340136, -0.2026974, -0.05346874, -0.015487779, 0.049343538, 0.05021356, 0.05035587, 0.025866553, 0.12798633, -0.06690345, 0.020903757, -0.029921265, -0.120767325, -0.0050419783, 0.13559367, 0.062095795, 0.13504131, 0.036279093, -0.03690805, -0.067365736, -0.122537345, -0.11391251, -0.0634014, 0.014734527, -0.074331395, 0.1012389, 0.09352624, 0.08799402, -0.07969696, -0.1368207, 0.061325043, 0.08135157, 0.14064011, -0.00990564, 0.104026094, 0.14631897, 0.02737064, 0.09687269, -0.083476156, 0.003931669, -0.07759853, -0.06692146, -0.054241095, 0.13973926, 0.08039159, 0.09130845, 0.14028658, 0.107138135, -0.1410482, -0.061338615, -0.053565055, -0.050249238, -0.059105627, -0.15086573, -0.037332878, -0.15524773, 0.12381423, 0.022776883, -0.029817984, 0.13058548, 0.15605073, -0.04413978, -0.1519771, 0.022055797, 0.12649198, -0.20094201, -0.056619637, 0.083476156, 0.11069019, -0.11579, 0.10327001, -0.11823819, -0.091715984, -0.09867715, -0.07302276, -0.14818361, 0.01717484, 0.107460104, -0.0013623211, 0.0023795867, 0.042228453, -0.113085136, 0.005158538, -0.12919933, -0.054240093, 0.0818351, 0.06925746, -0.011147776, -0.07972745, -0.057052143, -0.03878966, -0.1242623, 0.06693609, 0.066996686, 0.108903505, 0.015213329, -0.010783756, 0.14034846, -0.071466826, -0.090301804, 0.12498888, 0.1247599, -0.09506643, -0.012490575, 0.040844545, -0.06556454, 0.041081484, 0.0072388942, -0.014371185, -0.011732401, 0.0633171, -0.03249903, -0.044280507, 0.04733696, 0.07261775, 0.11249485, -0.041485477, 0.11255925, -0.05946607, -0.09949225, -0.012592501, -0.12951867, 0.091271035, -0.0061959387, 0.04873899, 0.08136326, -0.12175204, -0.022039318, -0.13088308, -0.118406735, 0.0651376, -0.11150725, 0.10455476, 0.036701903, -0.08674357, -0.076721676, -0.0005801191, -0.016599424, -0.0200198, 0.03405645, -0.14439505, -0.019521667, -0.02210426, -0.06441234, 0.074869625, 0.09624304, -0.057810187, 0.14294624, 0.022608204, -0.114580944, 0.027416693, 0.003562948, -0.0018275725, 0.08055262, -0.119887784, 0.043406628, -0.028621333, -0.09195949, -0.048173293, 0.0096049905, -0.028273812, 0.14857064, -0.043819655, 0.06058276, 0.08415682, 0.0630645, -0.0116070565, 0.14486744, -0.10054258, 0.13765384, -0.018598957, 0.04711532, -0.008784586, 0.042993017, -0.033172134, 0.116645604, -0.04504666, 0.005922377, -0.073863745, -0.06910806, 0.16823888, -0.04024785, 0.04350811, -0.08164958, 0.08878853, -0.094751425, 0.12118883, -0.009608688, 0.089054324, 0.0061120177, -0.15340953, 0.0018083358, 0.0358788, -0.14018217, 0.07346383, -0.021388331, 0.040497594, -0.112299606, -0.049332056, 0.06762576, -0.010510006, -0.12702626, 0.089240745, -0.06620796, -0.04771413, 0.09033201, 0.12622751, -0.08487235, -0.117184184, 0.035928715, -0.06829771, -0.104943894, -0.02602837, -0.11155539, 0.10994622, -0.06831684, 0.08934507, 0.051035706, -0.0013491203, 0.10195834, -0.08384388, -0.022391737, 0.15110415, -0.10219242, -0.12871052, 0.06942761, -0.037389718, -0.049002696, -0.0014522226, -0.019816361, -0.069911644, 0.05419517, -0.03687801, 0.09005732, -0.0015193716, 0.03231578, -0.045599725, 0.20324878, -0.08050075, 0.073521726, 0.00926836, -0.121231824, -0.11472118, -0.031671677, 0.031479705, -0.001339851, -0.03620564, 0.005726383, -0.19992848, 0.054332428, 0.06176615, 0.006096555, 0.055283237, -0.12602, 0.09412246, 0.11304341, 0.08088238, 0.13789319, -0.09380517, -0.11043722, -0.06941528, -0.061380554, -0.120830186, 0.1250504, 0.08679381, 0.06627174, -0.20630579, 0.042309757, 0.08093048, 0.07739505, -0.04285293, 0.110821374, 0.09769527, 0.046695568, 0.08566372, -0.027916733, 0.17536463, 0.055878486, 0.09992154, 0.0733784, 0.061973207, -0.013689237, -0.14781561, -0.0991431, 0.0034332108, 0.14146203, -0.086504266, 0.093797594, 0.14050858, 0.07173135, 0.028570954, 0.15322812, 0.020629859, 0.07197917, 0.035973623, 0.040448423, 0.05286336, -0.060549654, 0.111925766, -0.051402584, -0.17796591, 0.08253095, -0.07000734, -0.15449244, -0.09975252, -0.082306825, -0.03444355, -0.11750211, -0.1520697, -0.026386328, 0.08329392, 0.14706407, 0.049062036, 0.054433607, 0.07449742, -0.007198025, -0.027190404, -0.04030645, 0.06823459, 0.12695448, 0.17069523, -0.06393974, 0.011951415, -0.046131767, 0.062853314, -0.07510175, 0.045775082, -0.06444262, -0.13065398, 0.046854075, -0.11291284, 0.04320301, 0.120374985, -0.057901595, -0.10206671, 0.06656308, 0.07085193, -0.033943508, -0.08090662, 0.12605286, 0.1119905, -0.0038102192, 0.06323503, -0.002893331, 0.16301171, 0.04877192, -0.10896532, -0.09582234, 0.16550855, 0.10930793, -0.21079884, 0.05603644, -0.047237515, -0.06312715, 0.062424004, 0.09875855, 0.035363138, 0.062191516, -0.0064574205, 0.16600622, 0.18288314, 0.16244797, -0.24822964, -0.055431988, 0.111480795, 0.11954432, 0.037822504, 0.016990181, -0.09259359, -0.0007812459, 0.12816618, -0.03142193, 0.1668792, 0.053356327, -0.020599002, 0.13638315, 0.14092493, 0.17666219, -0.013891124, 0.03527952, 0.07353086, -0.025031347, 0.044010185, -0.06893485, 0.09636073, -0.12074373, 0.130403, 0.14449413, -0.13348113, 0.06389974, 0.13929553, -0.12926158, -0.21975532, 0.20739, -0.05835272, 0.13493122, 0.12891187, -0.044258498, -0.0055870377, 0.117039025, -0.022770222, -0.066104144, 0.06878162, -0.0110840285, -0.051097944, 0.08545341, 0.015638826, -0.079655595, -0.0028456058, 0.044945784, 0.1183556, 0.082188554, -0.04361189, -0.024578445, -0.16050175, 0.039528105, -0.1025184, 0.012908716, -0.11101744, -0.1790218, -0.069183476, 0.08657163, -0.07078734, -0.01778461, 0.16843288, -0.046041403, -0.06314357, -0.019339936, 0.14720994, 0.02614902, -0.017460782, 0.019316176, 0.031631228, 0.05381264, -0.100279525, 0.07588206, 0.07885537, 0.15894894, 0.008078999, 0.06485591, 0.03402919, -0.07093654, 0.09187109, -0.06701732, -0.029632036, -0.006967335, 0.08548684, -0.15487844, -0.11237482, -0.038734876, 0.10157612, 0.13343741, 0.101421006, 0.13471986, 0.13378303, 0.024831258, 0.076904446, -0.078239374, -0.19538663, -0.029256321, -0.0042861216, 0.012541115, 0.020729419, 0.15430638, -0.09772892, 0.13319965, 0.04359396, 0.0062617026, -0.029909657, 0.086740516, 0.101923995, -0.07610894, 0.07439943, 0.06784735, 0.037670758, -0.10404915, 0.13114215, -0.003226886, 0.033040296, -0.07210677, -0.13270484, -0.1197109, -0.063442506, -0.064849876, -0.039912198, -0.1568338, -0.00390184, 0.09034217, 0.15453884, -0.05408055, 0.09077505, -0.051261783, -0.033102535, -0.013950184, -0.084900215, 0.09443478, 0.10242766, -0.115676485, 0.10360164, 0.023651175, -0.007315303, 0.004450175, 0.08529367, 0.0573543, -0.04836666, -0.063563414, -0.05645326, -0.096410416, -0.08804591, 0.041194923, -0.15967704, -0.02288054, -0.08887068, -0.11196734, -0.08864239, -0.026721176, -0.08992323, -0.044675976, -0.079385184, -0.15001737, -0.090062834, -0.05104488, -0.084519446, 0.00867429, -0.023322588, 0.020648984, 0.040345807, 0.1145352, -0.08176302, 0.025830558, -0.021790551, 0.11435739, -0.0828152, 0.04395341, -0.07486127, -0.06987533, 0.050510768, 0.12821114, 0.06540503, 0.13684557, 0.12354682, -0.004392933, 0.09113343, -0.07682342, 0.009444693, 0.16403964, 0.15095036, 0.012179065, -0.101627514, -0.10563549, 0.05899786, -0.04459237, 0.10364619, 0.1648745, 0.09440678, 0.011948198, -0.03696013, -0.05708913, -0.20722483, 0.25905964, 0.054535937, -0.19391525, 0.07019671, 0.1534863, 0.18698426, -0.00693869, 0.05222422, -0.03780084, -0.03881627, -0.02937156, -0.0443509, -0.058658533, 0.14657092, 0.16506612, -0.028952006, -0.030159911, -0.21400134, -0.079618074, 0.09212814, -0.034588147, 0.099553585, 0.19617672, 0.03271875, 0.036240924, 0.00064933236, 0.04996536, -0.09919047, -0.03821586, -0.16751337, -0.026588755, -0.064388946, -0.08328007, 0.016007762, -0.07307153, -0.06817331, 0.042767987, -0.14339334, 0.04610835, -0.20062824, 0.019478308, -0.14525029, 0.07024595, 0.13948739, 0.058172483, -0.19901733, 0.24133989, 0.19648023, 0.059902854, -0.18662685, -0.047613677, -0.03484799, -0.12974891, -0.023673516, 0.09581279, 0.22550043, 0.080377966, 0.017847693, 0.086778894, 0.11997767, -0.10059423, -0.014873425, 0.009570651, -0.12385046, 0.03635527, -0.027022636, 0.07736234, 0.0027422092, -0.09331729, 0.036645334, 0.009725532, 0.10457361, -0.012137822, 0.00011077912, 0.101533465, 0.027342608, -0.13858995, -0.0789771, 0.033244282, 0.068549745, 0.024254376, -0.07391589, 0.08262853, -0.10089853, -0.10155372, -0.002227575, 0.058881193, 0.09241411, -0.10225236, 0.102706626, -0.113203265, -0.0413883, -0.124854736, -0.087791786, -0.07535511, 0.030709295, 0.11691752, 0.096456714, -0.012085137, 0.021724315, -0.12841164, -0.013936624, 0.078197345, -0.09440744, 0.109998025, 0.029807135, -0.10649794, -0.0144194495, -0.085591316, -0.1186337, -0.024882529, 0.08532475, 0.07897953, -0.06125138, -0.14685868, -0.048931003, -0.11695654, -0.21110177, -0.08755705, 0.010460075, -0.08455332, -0.11092988, 0.035381224, 0.07501641, 0.08292791, 0.15957458, 0.014650816, 0.004951975, 0.027364949, -0.13484131, 0.017412787, -0.06115347, -0.11557549, 0.03880417, -0.07045133, -0.05830613, 0.08228396, 0.08628691, 0.016922474, -0.09362519, 0.12889308, 0.07574895, 0.008206681, 0.24936715, 0.1223869, 0.09726435, 0.07093569, -0.106502764, 0.10292625, 0.087304965, 0.042953998, -0.0061542373, 0.0023512975, 0.08351852, -0.0346991, -0.15131135, 0.09773436, -0.049819924, 0.10728305, 0.025379792, 0.10864394, -0.009458788, 0.0044623967, 0.011495447, -0.06295015, 0.046553615, 0.017995521, 0.066055454, 0.0014530721, -0.12865135, 0.039470293, 0.054864924, 0.021159405, -0.069259115, 0.14295655, -0.14400274, -0.028281728, 0.07013583, -0.09510308, -0.109547794, 0.06696623, 0.023956047, 0.04785414, -0.012619812, -0.10915456, 0.07978097, 0.15223135, -0.1545724, -0.17435034, -0.021134842, -0.174148, 0.12489763, 0.010975583, 0.17074138, -0.09369408, -0.006031981, -0.0065133986, 0.030658074, 0.054409638, -0.058474828, 0.041937146, -0.09435888, 0.002534725, 0.12568678, -0.15053445, 0.11684067, 0.04656775, 0.030934302, -0.1593895, 0.122997224, -0.043498997, -0.12301484, 0.08161271, 0.023948802, -0.077251956, 0.020472236, -0.18676175, 0.09950862, 0.13173397, 0.019636318, 0.081783555, 0.14687502, 0.09413076, -0.022664325, -0.043177046, -0.16686875, 0.16753107, 0.092353, 0.02691552, 0.003477159, 0.09770575, 0.012557846, 0.012100669, 0.23010449, -0.05150135, 0.02197243, -0.001501219, 0.033812016, -0.025429687, -0.069965154, -0.28211185, -0.12128706, -0.13549869, 0.16547003, -0.15141647, 0.12446416, -0.11772743, -0.1250168, 0.035557516, 0.030426707, 0.15470009, -0.03423209, 0.004386419, 0.043668214, -0.09528726, -0.049323138, 0.13024557, -0.090786755, 0.060190123, -0.10682211, 0.06385725, 0.02625876, -0.13271166, 0.04469828, 0.040282946, 0.16467842, -0.021966437, -0.086659834, 0.048150778, 0.06513587, -0.03167113, -0.12815687, -0.09365863, 0.15733883, -0.07976503, -0.091730244, -0.066054955, 0.038611382, 0.062531665, 0.115343325, 0.11045413, 0.03055272, 0.06700992, -0.13368836, -0.08484843, 0.026981015, 0.103180565, -0.07227064, 0.047378317, 0.049149606, -0.12381558, -0.09446435, 0.020445671, 0.0071076276, -0.07080219, -0.083716966, 0.06563617, 0.13103871, 0.13005145, -0.058882263, 0.01635697, -0.13187651, 0.03645683, 0.044605326, 0.056551404, 0.050114132, -0.044032644, 0.012815213, -0.069034755, -0.018741153, -0.0057641156, -0.03730521, -0.0029544253, 0.03524985, -0.060000792, -0.1694761, 0.056074146, 0.08760292, 0.041519586, -0.09211864, -0.0031908865, 0.047859594, -0.06980061, 0.09383739, 0.068686396, 0.091746554, -0.013622168, 0.07543661, 0.062454917, -0.06528411, -0.11561822, -0.007630001, -0.085854694, -0.12290596, -0.17773704, -0.031890977, 0.062332373, 0.09227747, 0.09647798, 0.03689694, 0.009004196, -0.05356926, 0.038854092, -0.0070035704, -0.09216672, -0.07299707, 0.17412098, -0.077144824, -0.032412216, -0.062135987, 0.117929764, 0.07385571, -0.0003895867, 0.09101005, 0.04492976, -0.09972507, -0.057443287, 0.15930723, 0.016359758, 0.0045403303, -0.20215999, -0.05905227, -0.10955902, 0.08027388, -0.11644354, 0.14773174, -0.09890427, 0.045496758, -0.017068263, -0.112662464, 0.019332914, 0.11338996, -0.11298384, 0.13278148, -0.07876423, -0.15369743, 0.017675316, 0.12902543, -0.040350426, -0.14756663, 0.04018584, -0.0047724983, 0.07839467, -0.015331697, 0.10781373, 0.035349324, -0.12533924, -0.093765385, 0.00720471, 0.13326825, 0.010109186, 0.05680967, -0.014099147, 0.15971377, 0.12550971, 0.10125594, 0.13641147, 0.080575764, 0.18321039, -0.20058437, -0.0374114, 0.10157936, 0.058015607, 0.057939906, 0.1363597, -0.06249509, -0.0057574147, -0.052318778, -0.014129519, -0.060514737, -0.030006621, -0.015165067, 0.027107842, -0.111419365, 0.019449532, 0.102031186, -0.07031415, 0.06880429, 0.0024639599, -0.095391355, -0.095341064, -0.07335745, -0.13234186, -0.15200652, -0.017159099, -0.04952584, 0.14861768, 0.05341748, 0.077702686, -0.04532271, -0.077241264, 0.12020556, 0.06847982, -0.11797376, -0.06912254, -0.083520874, -0.04153571, 0.13641617, 0.081893705, 0.10125447, -0.010201224, 0.007548161, 0.031261016, 0.0068824454, 0.13868049, 0.002365841, -0.036010697, -0.09673585, 0.065419, 0.102444686, -0.11461689, -0.0066846493, 0.09984815, 0.01205902, 0.014113055, -0.07612586, 0.0069226045, 0.12925719, 0.10619408, 0.081513494, -0.11853412, -0.04954008, 0.025838243, -0.17802359, 0.08451525, -0.009888859, -0.17551826, 0.07483761, 0.021008324, 0.18467735, 0.011352459, 0.0021535873, -0.009452644, -0.028828833, 0.00330085, 0.023867993, -0.11757189, 0.058937397, -0.102765016, -0.018482486, -0.11634313, 0.1059561, 0.037677955, -0.0031731958, 0.027759103, 0.0496102, 0.043183357, 0.15840274, -0.038136717, 0.032588217, -0.059219975, -0.11257294, 0.14212653, 0.10619791, -0.094372645, -0.036748152, 0.09071959, 0.020285018, -0.0095014125, 0.0070459014, -0.04162446, -0.008912729, -0.05017845, -0.045946777, -0.08938316, -0.019201675, -0.04871979, -0.09695427, 0.030987564, 0.020810742, -0.14613739, 0.08343138, -0.04575579, -0.04543863, -0.10831416, -0.114120245, -0.08156383, 0.13553916, -0.110495836, -0.11146095, -0.08354429, 0.058194, 0.051329378, -0.023833048, -0.040403154, -0.12380523, 0.057154246, -0.28693393, -0.12602921, -0.08702145, -0.21331993, 0.07067336, -0.051966492, 0.13613936, -0.052777924, 0.049020093, -0.14032198, -0.10477813, 0.08927271, 0.17663789, -0.059286818, 0.06453539, -0.1480444, 0.07961169, 0.07443438, -0.043494735, 0.039800458, -0.016455406, -0.035258688, -0.14342907, -0.088347614, -0.08370213, -0.031804368, -0.0454582, 0.07660758, 0.13193393, 0.10302341, -0.011176193, -0.11662312, -0.09104414, 0.09525877, -0.01384117, -0.081053704, -0.057826873, -0.015845872, 0.09223669, 0.0021074167, -0.10321362, 0.03535682, -0.1385396, -0.12507409, -0.03594555, -0.009752677, -0.10812103, -0.08776849, -0.12563452, 0.10460774, -0.09881334, -0.127945, 0.03517294, 0.19119976, 0.07326491, 0.0546447, 0.081327885, 0.02587213, -0.026634471, 0.0639121, 0.07658433, -0.03382276, -0.04748226, -0.08877854, 0.32940668, 0.1462271, -0.029194184, 0.15456371, 0.14174268, 0.08335664, -0.14157008, -0.031026216, -0.093749486, -0.04054446, 0.08895097, 0.05788177, -0.05196051, -0.0011829205, 0.13855109, 0.08487519, 0.024504943, 0.10027191, -0.05264003, 0.04484212, -0.1288028, -0.07161098, -0.05862875, 0.103296466, 0.06872458, -0.01111084, -0.09352365, -0.101630375, 0.123286836, -0.0047669173, -0.0018892691, -0.025368901, -0.085875764, 0.12824155, 0.021474682, -0.151495, -0.12023448, -0.056578986, 0.05329197, 0.08190279, -0.12412041, 0.086179, -0.109920084, -0.07965251, 0.09383668, 0.076295674, 0.06456551, -0.10766254, 0.0484755, 0.064250246, -0.09385941, 0.13711984, -0.07677699, 0.1474013, -0.091930196, -0.022348952, 0.04842053, 0.10532583, 0.12424167, 0.0005044008, -0.0011455753, 0.13945407, 0.120144814, -0.12042396, 0.064643405, -0.022081962, 0.06497031, 0.14445692, 0.08823193, -0.1105755, 0.078300476, -0.014333459, 0.014423348, -0.07547288, 0.12475572, -0.071541876, -0.017466996, 0.020411119, 0.0961896, -0.06164421, -0.12694845, -0.06701947, -0.13391736, 0.11138761, -0.14425008, 0.08707307, -0.087701716, 0.043440063, -0.007422715, -0.08404704, -0.076016374, -0.04261986, -0.08995355, -0.105965145, -0.104549624, 0.045661546, 0.043663315, 0.1298379, -0.014209057, -0.08912834, -0.005123386, -0.016934078, -0.14794175, 0.083034985, 0.05374938, -0.027383812, -0.0298044, -0.006107438, 0.37351304, 0.006735463, -0.029847167, -0.047548704, 0.03692602, -0.132729, -0.20223182, -0.010869156, -0.1634958, -0.023093496, -0.11779516, 0.13183796, 0.065417886, -0.11612392, 0.09866865, -0.17015901, -0.015519051, -0.0826228, 0.036274757, -0.049820837, 0.021573598, 0.1258333, -0.063394606, 0.15868841, -0.05799005, 0.13473994, 0.16022204, -0.00360713, -0.008605322, -0.044793315, 0.038590282, -0.15281224, -0.09862801, -0.102688335, -0.12066064, 0.15379176, -0.17568903, 0.022543224, 0.016068434, -0.0870077, 0.06416245, -0.14272822, -0.011930303, -0.038893737, -0.052679054, 0.15533063, -0.118824005, -0.10210744, 0.06199643, 0.1522555, 0.05786471, -0.060319938, 0.029445931, 0.022293596, 0.037170697, -0.09575956, 0.04684115, 0.20655636, 0.0990052, -0.12991227, -0.07037457, 0.07495428, -0.048650403, 0.11152652, -0.011355421, -0.08195052, 0.14129643, 0.12169758, 0.11558195, 0.040602095, -0.05903306, -0.0679795, 0.12037968, 0.14474092, -0.0071621398, 0.11400877, 0.06967607, 0.0032526809, -0.019668646, 0.115919374, 0.046316136, 0.061754562, -0.11955797, -0.08191395, 0.2863802, -0.05774014, 0.09728037, 0.23957583, 0.05040036, -0.082938075, -0.011065684, 0.03893728, -0.054404065, -0.023166474, -0.04074518, -0.08614745, 0.02329264, -0.11048318, 0.0704484, 0.07796449, 0.012824024, 0.05849811, -0.0054024733, 0.020439643, -0.12587398, -0.017004065, 0.045643367, -0.089570545, 0.04304911, 0.019833183, 0.013001583, -0.08075301, -0.004935629, -0.0006727507, -0.10018304, 0.0025940014, 0.0070823045, -0.11717635, -0.025569556, -0.05577184, 0.02597017, 0.046055403, -0.032103676, -0.0014990156, 0.12618819, 0.017187808, 0.118250735, 0.09859929, -0.100474745, 0.08664473, -0.030018022, -0.08251609, 0.041081224, 0.052125216, 0.142303, 0.009387641, -0.054433376, 0.055091687, -0.12644418, -0.016529107, 0.090101905, 0.13100818, 0.081645474, 0.12455637, -0.009230572, 0.028777396, -0.07325995, -0.07855825, 0.035173014, -0.047730796, 0.1588276, -0.011755295, 0.07016891, -0.10848402, -0.07704021, 0.0659647, -0.04514151, -0.06271357, 0.055072337, 0.07731136, -0.014721749, 0.009867674, -0.030837316, -0.07500966, 0.118177906, 0.10844907, -0.030751973, -0.079257965, -0.07158124, 0.1150054, 0.14265564, 0.12104539, 0.04356916, 0.04092821, 0.12477435, 0.043838263, 0.032987703, -0.053357735, 0.00076037156, 0.119436726, -0.07702799, 0.06843868, -0.07282081, -0.10652731, 0.011978349, -0.16089754, -0.03887895, 0.050223406, 0.15344574, 0.13513394, 0.06856849, -0.07948974, -0.06900541, 0.0041389745, -0.11621938, -0.042384073, -0.07105882, 0.13442652, -0.04399821, -0.0151229, 0.038428944, -0.15100597, -0.09757389, -0.119051844, 0.021604234, 0.05937885, -0.062991895, 0.15085219, 0.11317053, -0.032253914, -0.02467739, -0.1015662, 0.06713581, -0.13754822, -0.07900338, 0.0525771, -0.16073494, 0.1138228, 0.034526624, 0.11886468, 0.069428675, 0.16763887, -0.038171683, 0.054651964, -0.007483356, 0.06017957, -0.0044165733, 0.040121652, -0.023011021, -0.10496006, 0.07695574, -0.11672868, 0.024031643, -0.14745131, 0.066229716, 0.012645266, 0.029722603, -0.06250439, -0.07471652, -0.07598943, -0.04961121, 0.057672672, -0.04353777, 0.18339561, -0.07197115, 0.05113537, -0.085197896, 0.055172276, -0.049889125, -0.06263422, -0.08905124, 0.07101786, 0.07046297, 0.13692978, 0.11218537, 0.012219252, 0.06499225, 0.09429195, 0.029433073, -0.13337103, -0.043355048, 0.05262114, -0.00875131, -0.06705806, 0.09116315, 0.15384473, 0.052788764, -0.13556182, -0.092286825, 0.0038641165, -0.03247341, 0.10431597, -0.053871512, 0.11198761, 0.095771685, 0.10250667, -0.18894586, -0.153781, 0.063749395, -0.061170034, -0.10191575, -0.029971229, 0.024844384, -0.100611866, -0.015453416, 0.10046907, 0.07093753, 0.02745738, 0.023562014, 0.003553965, -0.034368288, -0.104189955, 0.11422934, -0.049583353, 0.11869463, 0.12805003, 0.10304099, 0.1498217, -0.086240225, 0.065302536, 0.16589403, -0.02183387, 0.04486202, 0.030826181, 0.019218707, -0.106639735, -0.054446593, -0.108648166, 0.14017622, 0.04218418, 0.07838441, -0.060019687, 0.051845383, -0.09815195, 0.1709482, -0.08796616, -0.08755154, 0.030652575, 0.05785141, 0.13617918, 0.01530774, 0.08275362, -0.061829146, -0.032145806, 0.09166837, 0.0022896768, 0.039866988, -0.071125, -0.06407559, -0.15563127, -0.0623154, -0.10884846, 0.07536657, 0.014619501, 0.1405656, -0.10380726, 0.0237278, 0.10357323, -0.08100447, -0.007379279, -0.16289736, -0.052585833, 0.057284165, 0.0697961, -0.016409216, -0.091809794, -0.04129204, -0.032576427, 0.015240777, 0.090502955, -0.14127405, 0.18366614, 0.08486438, -0.17020419, -0.0105379475, -0.13564427, 0.07869355, -0.02569176, 0.05139325, -0.132742, -0.10778907, -0.01291278, -0.1039333, 0.07311714, -0.106104314, -0.09254313, 0.0270763, 0.01057495, 0.020576285, 0.067857824, 0.08207411, 0.006137723, -0.021840887, 0.074708976, 0.03890762, -0.12936817, -0.018951567, -0.13769461, -0.14245899, 0.06750387, 0.042342752, -0.09324652, 0.04127861, -0.089341104, -0.052585296, -0.062180508, -0.020863919, 0.092924446, -0.009830259, -0.021379773, -0.030129552, -0.09926055, -0.0064520803, -0.051243883, 0.068484545, -0.09891978, -0.11580776, -0.10376469, -0.104668096, -0.13078493, 0.152596, -0.008489318, 0.079192705, -0.08239249, -0.06243916, 0.06099617, 0.16517927, 0.17246532, -0.111352995, -0.075358815, 0.1178858, -0.12376811, -0.0055362755, -0.14091945, 0.019932915, 0.17079197, -0.014339143, 0.05906041, 0.16695286, -0.07964931, -0.0062412987, -0.0032663846, 0.031446714, -0.06663038, -0.017916054, -0.14850736, 0.14686497, -0.045999978, -0.06535716, -0.07211573, 0.14269896, 0.06799851, -0.040286504, -0.12828715, -0.11050382, 0.08599287, -0.1279686, -0.17943135, 0.012777873, -0.16229866, -0.07447233, -0.10540874, 0.031180311, 0.19615534, 0.054076787, -0.07934358, -0.13774393, 0.057207745, -0.19954783, -0.012312555, -0.124887176, 0.12455758, 0.0008187404, 0.0008113513, -0.058881093, -0.11256535, -0.08058456, -0.0412034, 0.1045793, 0.03617323, -0.018205544, 0.015191627, 0.12827154, 0.114387594, -0.08342938, 0.1476119, 0.045898538, -0.07548947, 0.14347282, 0.12973079, -0.12036007, -0.12241131, 0.008236087, -0.14090055, -0.14078821, -0.07881324, -0.058482118, -0.029636687, 0.24558517, -0.14282356, -0.09693901, 0.040496185, -0.12053167, -0.00618442, 0.09867896, 0.10022314, 0.08063105, -0.07795688, -0.043690648, 0.054580335, -0.13451302, 0.12417828, -0.027842345, 0.036905147, -0.1145334, 0.07778551, 0.02889927, 0.08107972, -0.06648302, 0.15611775, 0.15255007, -0.0030524996, -0.015743466, -0.046625316, 0.034007646, 0.031929865, -0.14733805, -0.08801119, 0.028750002, -0.09176726, 0.03422824, 0.027906979, 0.058848817, -0.02089582, -0.10953014, 0.1692446, -0.08898115, 0.044999592, 0.12476218, -0.08452994, -0.14423434, -0.05072198, -0.046119962, -0.1724657, 0.079706945, 0.038907338, 0.10791594, -0.07656066, -0.13673341, -0.12333651, -0.111910954, 0.088127755, 0.046197426, 0.023756327, -0.060288586, -0.06039134, -0.11192935, 0.0401424, -0.007574605, 0.08563468, 0.10100406, -0.008965187, -0.03137897, -0.07175802, 0.10548189, 0.06261355, -0.003462805, 0.07423187, -0.118148334, -0.041306663, 0.16964857, 0.075621665, -0.040153198, 0.082312144, 0.018592274, 0.09223265, -0.13979803, 0.1182914, -0.08486387, 0.020656524, 0.09822889, -0.06535048, 0.10780578, -0.13836846, 0.12741518, 0.13715921, 0.10557747, 0.14293508, -0.02620978, -0.07914845, 0.028762247, 0.059695832, -0.023116581, -0.06867613, 0.09823281, 0.05305177, 0.003448195, -0.00887643, 0.12936614, 0.08763284, 0.025945615, -0.055518672, -0.049744897, 0.026071992, 0.09228626, -0.09952854, 0.008403027, 0.061719302, -0.08642457, 0.0017471735, -0.15707605, -0.09915903, 0.11866739, 0.16621575, -0.048020534, 0.016204784, -0.045477875, -0.050125897, -0.051500652, -0.052066594, -0.031043684, 0.112459294, 0.04921015, 0.16611862, -0.006341098, 0.07786398, -0.060502544, 0.086334825, -0.09361155, 0.16567473, -0.10568073, 0.034613308, -0.13577066, -0.10992234, 0.13001874, -0.090771124, 0.06822392, -0.018168082, 0.036646802, -0.05724776, -0.075876266, -0.027942844, 0.030488236, -0.09034955, 0.08664249, 0.05515588, -0.08478391, 0.03780207, 0.118178815, 0.14312708, -0.12176543, -0.11702679, 0.071041144, 0.003752952, -0.07967806, -0.03489984, 0.10292709, -0.15367308, -0.087236084, -0.12852989, -0.14389835, 0.09849776, -0.21298937, -0.07482232, -0.08948733, -0.18173017, 0.1445652, -0.02872575, -0.011228084, 0.10332343, -0.07418143, -0.0046943426, -0.019850519, 0.17851463, -0.13665132, -0.0036237563, 0.17968014, -0.054169845, -0.13273995, -0.16602474, 0.1699934, 0.06437597, -0.11329586, 0.022117274, -0.06951177, -0.04834459, -0.17993562, 0.09970088, 0.07517447, -0.03527962, -0.003144335, 0.122976005, -0.019607974, 0.042072095, 0.13420318, -0.036824103, 0.12918536, 0.14571452, 0.07626042, 0.07890734, 0.06471442, 0.071639314, 0.07311281, 0.04500127, -0.03313871, -0.01627205, 0.11385997, -0.123845406, -0.12913498, 0.11078873, 0.15896177, -0.014438593, -0.17403643, 0.09587585, 0.025071342, -0.12074244, -0.0037469575, -0.088607974, -0.008320572, 0.09782891, 0.020978909, -0.0017083674, -0.13830064, 0.1814527, 0.104918875, -0.12010717, 0.10336687, 0.102863155, 0.0053789755, 0.15907666, -0.025545107, -0.23108551, -0.001204192, -0.045653697, -0.03931447, 0.07519698, 0.21593271, -0.24250138, -0.011322205, -0.007569536, 0.08963298, 0.18788354, -0.105037615, 0.1942239, -0.122308, -0.09237727, 0.0620507, -0.065547146, -0.01540524, 0.08507731, -0.028308319, 0.08639587, -0.10475538, 0.049455833, 0.07264382, -0.1973441, -0.0028971916, 0.035917114, 0.0299049, 0.11554456, -0.10217806, 0.10708658, 0.07798344, -0.06634938, -0.017249461, -0.06974281, -0.16446397, 0.07113166, -0.031079408, 0.0019372628, -0.11183617, 0.06654232, 0.17583714, 0.09336441, -0.2270384, 0.1635946, 0.26541188, 0.18665579, -0.17476991, 0.09367386, -0.13956273, -0.10598146, -0.017291391, 0.038652312, 0.071878776, 0.08867761, 0.15540956, 0.09791125, 0.052403077, 0.0065979613, 0.15934856, 0.034538954, 0.1832913, -0.107625194, -0.15594935, -0.019982573, 0.06895874, 0.11263785, -0.12039171, 0.029024547, -0.13917382, 0.11163208, -0.06923349, 0.059319243, -0.055537544, 0.123538785, 0.060904033, -0.03437856, -0.032854687, -0.009494531, 0.20031051, 0.14931802, 0.072556466, -0.017812705, 0.117988504, 0.015229584, -0.15462655, 0.010465704, -0.09333192, 0.14354642, -0.027465431, -0.06037382, -0.05426633, 0.13833834, 0.041700345, -0.057344273, 0.15411437, 0.04526118, -0.022870509, -0.09624011, -0.0046890886, 0.01025358, 0.14864156, 0.14251906, 0.051192947, 0.02758517, -0.03750023, 0.09043592, 0.12276405, -0.10079525, -0.10858764, -0.00720159, -0.0087557, -0.121181846, -0.028783038, 0.027167803, 0.114234604, 0.14580728, -0.114011444, 0.0028846757, -0.1877569, -0.14896831, 0.2957323, -0.05165976, 0.162169, -0.12881343, -0.06812355, -0.02583453, -0.08330236, -0.1343271, -0.081436865, -0.030297808, -0.023855092, -0.11614715, 0.08352125, -0.1741035, -0.08295801, -0.06344903, -0.102139816, -0.083244726, 0.12533674, 0.029181449, -0.17124796, 0.07012712, -0.051538885, 0.0007512224, -0.023731796, -0.08972943, 0.11431149, -0.015259051, -0.119725086, -0.049938697, -0.025320318, -0.18576749, -0.045853242, -0.08182455, 0.07191791, 0.108501315, 0.090975285, 0.08661665, 0.1340359, 0.017101469, -0.12337899, 0.057723027, 0.004831247, -0.1877173, -0.09766903, 0.039096583, -0.0021883396, 0.0071747196, -0.09681035, 0.17403415, 0.08259704, 0.045160953, 0.056599423, 0.036701906, 0.007423844, 0.18220371, -0.060435597, 0.023413202, -0.050083533, -0.09583425, -0.08220555, 0.13103345, 0.21004108, 0.11044144, 0.03344806, -0.11482087, 0.054531552, -0.03037823, 0.11632445, -0.036037803, 0.0049032844, 0.112254374, -0.11344532, -0.12295297, -0.09255679, -0.03425707, -0.10841913, 0.025737407, 0.02755449, -0.014945483, 0.14604945, -0.10484872, -0.12788443, 0.0027436903, -0.103817135, -0.14036222, 0.19692205, -0.01426537, -0.08416586, -0.058165513, -0.01713867, -0.08966337, 0.08847986, -0.17499854, 0.018006232, 0.15497579, -0.01894929, -0.057059694, 0.02185782, -0.03802007, -0.06817752, -0.034764193, -0.06811917, 0.079469696, -0.024916263, -0.12755266, 0.050636206, 0.1867133, 0.001063451, 0.016850194, 0.15127991, 0.07989126, -0.08755814, -0.0063550165, 0.19778252, -0.035016913, -0.031790704, -0.08854941, -0.0020212652, 0.11816545, 0.099124596, -0.010804978, 0.085659385, 0.020691745, -0.22304402, -0.07611366, 0.03809393, 0.077852875, -0.06659128, 0.11479473, -0.046314172, -0.104109004, -0.092758365, -0.06090836, 0.032578193, 0.10437642, -0.09883844, -0.074648686, 0.08560276, 0.056720667, 0.100210436, 0.08393513, -0.09241084, 0.04294244, 0.12141394, 0.047832936, 0.061478835, 0.027291128, 0.076948814, -0.13660176, 0.08802431, 0.13653097, 0.008622122, -0.06555435, -0.086128585, 0.14325616, 0.0616666, -0.0045326035, -0.15518303, -0.052794136, -0.02079237, 0.13160287, -0.109192036, 0.084637865, 0.10923453, -0.10477471, -0.067426145, 0.059604097, 0.08713571, -0.027449792, -0.05050696, 0.025992613, 0.12470372, -0.059804287, 0.030437661, 0.062070917, -0.0025771, -0.12368252, 0.061354443, -0.051058106, 0.020621618, -0.006059268, -0.14156012, -0.11282524, -0.09333031, 0.031676836, 0.10712421, 0.11546102, 0.10496644, -0.018978894, 0.07321422, -0.10770037, 0.070307024, -0.011367992, -0.038332038, -0.016787937, 0.006217462, -0.01739881, -0.079428226, -0.07603203, 0.094058715, 0.021837333, 0.12621571, -0.17861716, 0.063385665, -0.22751324, -0.03205133, 0.09544153, -0.04916674, 0.004923415, 0.043425485, -0.027324498, 0.022697128, 0.022635614, -0.038877226, -0.04109312, 0.12575985, -0.12157932, 0.09911511, -0.121038854, -0.045782622, 0.096512735, 0.04918898, -0.16053924, 0.13338706, -0.04229593, -0.1268733, -0.112435974, 0.18015288, 0.034890044, 0.01640351, 0.11777327, 0.05688908, -0.0555877, -0.1980969, -0.09073012, 0.109809734, 0.05367473, 0.0029718475, 0.013775377, 0.106337905, -0.0106053455, 0.12617487, -0.07730577, 0.10773328, 0.041643847, -0.05692913, 0.14859413, -0.033409853, 0.16226614, 0.11977578, 0.07141386, -0.05528525, -0.08550014, -0.045314047, -0.18339051, -0.022272533, 0.0469309, 0.09471774, 0.068748556, -0.056879066, 0.006681881, 0.12243029, -0.013036511, -0.052676216, 0.18598853, -0.1403695, 0.04891491, -0.06441176, -0.073122546, -0.13679169, -0.08386099, 0.004412676, 0.07120454, -0.039336804, -0.10054004, 0.123815015, -0.15384486, 0.007950853, 0.0015008694, -0.013624055, 0.039730445, 0.12847018, -0.12340108, -0.047716614, 0.10750179, -0.012859179, 0.0046785376, 0.06967204, 0.009702134, 0.064883046, 0.07229096, -0.008795118, 0.045737613, 0.014833158, 0.07804279, 0.052195016, 0.1627097, 0.045137934, 0.046488523, 0.011960982, -0.12478579, -0.042657204, -0.028197033, -0.1228759, -0.04277663, 0.14588779, -0.07374656, -0.14811385, -0.09640789, 0.13479833, -0.07119624, 0.06721381, -0.06708367, 0.1449238, 0.069057494, -0.046919353, 0.049648494, -0.084859915, -0.13200468, 0.113345556, 0.13146913, 0.050454088, -0.048545837, 0.22526859, 0.043669153, -0.1119867, 0.12593344, -0.078710906, -0.05760383, -0.03548549, -0.07756945, -0.23503436, -0.062107734, -0.0882903, -0.037230548, 0.04070234, 0.027125815, 0.118246615, 0.0031481055, -0.006521846, -0.057266038, -0.09169906, -0.05021661, -0.10521219, 0.06840523, 0.21544145, -0.052988604, 0.06390647, 0.0330197, -0.06435228, 0.025315134, 0.12752566, 0.043682314, -0.11427247, 0.11221811, -0.04577972, 0.05695613, 0.12743695, 0.04575791, 0.0027686185, 0.09888894, -0.04250914, -0.027184973, 0.17969364, 0.01837123, 0.12136035, -0.0060961125, -0.14026894, -0.06322633, 0.18133959, -0.13448259, 0.053416736, 0.105756216, 0.15292132, 0.11696374, 0.121969804, 0.08839246, 0.14046147, 0.05565342, -0.10707637, -0.13750795, 0.12400911, 0.08315924, 0.012838959, 0.09491576, -0.0098087415, -0.012897658, 0.0063200323, -0.093977354, 0.004677815, -0.05207754, 0.0878469, 0.078463286, 0.057029564, -0.10881622, -0.02455038, 0.058533642, 0.0804172, -0.030156689, 0.013735179, 0.013473886, -0.1657151, -0.05425127, 0.1064205, -0.100752965, 0.06282819, 0.15889287, -0.058132026, 0.12568934, -0.03577744, -0.05534928, -0.103094466, 0.08931834, 0.022399437, -0.091317095, 0.034599908, 0.07095448, -0.13777567, 0.071247004, -0.021434972, 0.063740574, 0.10379781, 0.054011986, -0.1468912, 0.085666575, 0.009571264, -0.056545444, -0.054468174, -0.08906442, -0.11540684, -0.13284197, 0.03329936, -0.06275003, 0.038970895, -0.046377115, 0.04968432, 0.10789239, -0.09610657, 0.00022053186, 0.041061565, -0.075661376, -0.0029562782, -0.057259794, 0.022775315, -0.0054530334, 0.09384408, 0.045142308, -0.038260557, -0.007298936, -0.06587745, -0.06823577, 0.004843505, -0.073086515, -0.06571846, -0.023462554, -0.10145353, -0.08584988, -0.047040842, 0.1746301, 0.010372731, 0.03580078, -0.1994242, -0.12852623, -0.1097275, -0.12011133, -0.033645835, 0.002109573, 0.03296212, 0.13379651, -0.14352341, 0.036946397, 0.0067632087, 0.024655698, 0.022186548, 0.0948478, 0.1064068, 0.13784325, -0.12225801, 0.0913495, -0.027765164, -0.024661629, -0.04394257, -0.030349499, -0.04944136, 0.030303078, 0.0627373, -0.025849117, -0.07991494, -0.121835314, 0.101510115, 0.057359196, 0.1130542, 0.09619594, -0.111215316, -0.1652045, 0.07325886, 0.047816634, 0.13977839, 0.054748237, 0.0012183685, -0.03475263, 0.071025044, -0.04867255, 0.006936244, -0.033296693, -0.106970154, -0.071912095, -0.07787657, 0.17600934, 0.025661437, -0.020041319, 0.0537946, -0.13473411, 0.09971576, 0.16015916, -0.04896225, -0.12166358, 0.069259584, -0.07496948, -0.019393558, 0.0258533, -0.0008653472, 0.06652941, -0.118669026, -0.08596795, 0.098538555, -0.03717371, -0.15944391, -0.041484036, 0.055991236, 0.09696018, -0.010490582, 0.09065389, 0.058078114, -0.00511326, -0.13287061, 0.04070471, 0.031820234, -0.03566134, 0.011235779, -0.15948187, -0.05700079, 0.14445902, -0.12996423, 0.117978245, 0.15393354, 0.051036634, -0.04883383, -0.15967347, 0.058413304, -0.077062316, 0.11589208, -0.13363867, 0.12055038, -0.009187598, 0.1866994, -0.13950369, 0.018396886, -0.12977035, -0.001697884, -0.009448857, 0.11875059, -0.12148412, -0.088439934, 0.085877195, 0.0031625158, 0.03181229, -0.23516007, -0.010757631, 0.017781463, -0.051677432, 0.037832353, -0.02183687, -0.06854449, 0.036654916, 0.027023027, -0.052494127, 0.033821423, -0.1389181, 0.015162585, -0.05507137, 0.08785045, -0.09348869, -0.02474961, 0.056708343, 0.054743048, 0.12542437, -0.16163635, -0.028545279, -0.053058237, 0.10321309, 0.0856474, 0.12137758, -0.07463031, -0.12071161, -0.09953213, -0.08403339, -0.16537797, 0.015314308, 0.0020867204, 0.09369215, 0.06390834, 0.1493212, -0.15069143, 0.113814846, 0.037035514, 0.082080424, 0.02556209, 0.09041771, 0.064556815, 0.109833084, 0.04777516, -0.008969152, -0.040342312, -0.13198024, 0.05059974, -0.053818777, -0.052128, -0.06694188, 0.18555687, -0.0026168905, -0.101921335, 0.017787073, 0.0026640168, -0.087040946, 0.074123025, -0.064417444, 0.09044636, -0.05533738, -0.12880892, 0.048557658, -0.06302346, 0.15169086, 0.018561535, -0.072159134, 0.07559614, 0.14220543, -0.03826162, 0.10447652, 0.062189065, -0.01932671, 0.008982056, 0.08418432, 0.077069975, 0.07802091, -0.047100935, -0.1348791, -0.02263017, -0.031256966, 0.080653116, -0.08484572, -0.028448109, -0.06345314, 0.027507292, 0.12196673, 0.040097184, 0.090793386, 0.1320891, -0.10189996, -0.166144, -0.033271, 0.039618164, 0.07825063, -0.12135828, -0.10683169, 0.04190773, 0.007866926, -0.068797715, -0.09544039, 0.023766898, -0.062243745, -0.050984476, 0.0708459, -0.08807011, 0.051345, -0.067007214, 0.0033902, 0.1427549, 0.0814758, 0.14942607, 0.006927462, 0.01895778, -0.11429574, 0.05884908, 0.03575317, 0.0335964, -0.12070612, 0.033718724, 0.04737892, -0.12831984, -0.09898174, -0.041479964, 0.05957605, 0.106264904, 0.123611115, -0.04175083, -0.041088704, 0.013252569, 0.013763722, -0.12618218, -0.045653388, -0.11217488, -0.021125423, -0.0073093097, 0.0563098, -0.020295689, -0.11355806, 0.104850486, 0.02272872, 0.07402675, -0.121968456, 0.07353117, -0.028633349, 0.06867157, 0.064414434, -0.11472815, 0.061977245, -0.032562956, -0.12760755, 0.052046154, 0.005050909, -0.009322104, 0.044200793, -0.078365155, 0.06912881, 0.10920692, 0.035227746, -0.01606995, -0.03077238, 0.04710675, -0.10433327, -0.17276162, -0.065987624, 0.06513342, -0.05224662, -0.1482718, 0.17168804, 0.07817894, -0.0033557187, -0.09008243, -0.10142047, 0.14227156, 0.0072500105, 0.13675997, -0.0851251, 0.013203697, 0.026211753, 0.14039941, -0.069905184, -0.03181109, -0.07891715, -0.02203079, 0.14167373, 0.079685315, -0.1494791, -0.017131591, -0.15795544, -0.0132642845, 0.00612848, -0.08921832, 0.19374602, 0.24262735, -0.037566092, -0.095648535, 0.05257792, -0.091659695, -0.104411215, -0.14250839, -0.04406514, 0.14240867, 0.08905831, -0.00886543, 0.042082395, 0.023514746, 0.09741644, 0.118048415, 0.057437222, 0.07022085, 0.002661065, -0.07687378, 0.017384758, -0.060724914, -0.030688796, 0.05010203, 0.058601193, 0.0009861464, 0.057608385, -0.2893997, 0.059680857, -0.099122666, -0.17808573, 0.020724762, -0.0016711376, 0.17575912, 0.08319405, 0.10350816, 0.0139339855, 0.084915176, 0.028682705, -0.018165572, -0.0662477, 0.059362903, 0.081303604, -0.085836425, 0.044544097, 0.1275894, 0.11315615, 0.008417694, 0.13096684, -0.20146963, -0.07826189, 0.06546666, -0.072500415, 0.12931383, 0.18717654, 0.013419755, 0.088344, -0.07225961, -0.08412959, -0.011424748, -0.017463477, -0.005554539, 0.11729409, -0.1470608, 0.09329273, 0.14716735, 0.12432974, 0.10089952, -0.067832634, 0.090081275, 0.055091962, 0.022363685, 0.15892585, -0.021186637, -0.076168396, -0.124694966, -0.0626516, -0.081247434, 0.09577854, 0.034351435, -0.15756673, -0.052340712, 0.020041239, -0.06850379, -0.044036135, -0.07301896, 0.07932954, 0.12150605, -0.10909582, -0.09686739, 0.08368344, -0.27820703, -0.1018382, -0.028351393, -0.16429506, -0.1305291, 0.053806547, 0.12680262, 0.029865438, -0.036719743, -0.075504, 0.08879079, -0.10947275, 0.14876176, -0.10990321, 0.040456593, 0.0748864, 0.1481959, 0.12076639, -0.111772984, 0.0019715275, 0.11766854, -0.00689636, 0.0373624, 0.14488392, 0.026091203, -0.08393015, -0.009555489, 0.06772223, 0.058243096, -0.11955104, -0.037428863, -0.08636425, -0.08244703, -0.016236948, -0.067770876, 0.0048058694, 0.04305546, -0.11844706, 0.0931194, -0.050498635, -0.09022481, -0.110609144, -0.008266038, 0.10276285, -0.19163933, -0.09201934, -0.018628385, -0.17474544, -0.072651856, 0.039759915, 0.1650133, -0.0584372, 0.07908097, 0.06276048, 0.075199254, -0.08565366, 0.11889727, -0.0031624674, -0.11887146, 0.032199595, 0.10690528, 0.07350679, -0.22949296, 0.08728459, -0.051732384, -0.056800194, -0.17106086, -0.006654023, 0.017275298, -0.07159536, -0.09495195, -0.1224289, -0.049992077, 0.11252401, 0.17161936, -0.07603464, 0.094531275, 0.14933534, 0.01819888, -0.08385281, -0.12701309, 0.13364528, -0.08520774, -0.03177444, -0.16124868, 0.10235959, -0.101614885, -0.050833195, -0.18552312, -0.117725156, -0.010853222, -0.123681575, 0.11944689, 0.08809766, -0.053786933, 0.16464612, -0.024477473, -0.09746131, -0.123091675, 0.09233792, 0.09097342, -0.020775294, -0.12339895, -0.022653336, 0.02790006, 0.093214266, -0.00481525, -0.20002726, 0.14877446, -0.09278552, 0.07232294, 0.02609914, 0.04777481, 0.10865938, -0.10338571, 0.07607044, -0.0015487256, 0.026969325, 0.038455233, 0.11131584, -0.08699221, -0.019654255, -0.034649022, 0.065802336, -0.029107098, 0.0841454, 0.013757712, -0.044381827, 0.044244844, -0.11198458, -0.0124716945, 0.017181935, 0.14512712, 0.07686281, -0.07081269, -0.054718677, -0.10178776, 0.10612255, -0.18108554, 0.07506047, -0.10850359, -0.010457094, -0.0721269, 0.006784333, -0.11391958, 0.053642605, 0.04068273, 0.005110838, 0.05072549, -0.06961469, -0.03901598, -0.061159875, 0.12746377, 0.010790058, -0.120635375, 0.0049070446, 0.11178629, 0.086403854, -0.080157556, 0.013229281, 0.027912194, -0.025821256, 0.09721144, 0.054393172, 0.11610523, 0.0058953217, 0.10603525, 0.11227928, -0.12788838, 0.14006294, -0.10379055, 0.13553591, -0.088725835, 0.011027058, -0.03422438, 0.006540659, -0.09942249, 0.16876051, -0.02662935, 0.004481384, 0.096668124, -0.27735156, 0.031529307, -0.06825371, -0.029969031, -0.103756994, 0.06712345, 0.0012132912, 0.00473754, 0.034861032, -0.047611192, -0.026738165, -0.08076053, 0.070485696, -0.037167706, -0.076050006, -0.10372871, -0.12798423, -0.0700249, -0.10110777, -0.0056884475, 0.0319546, 0.12242164, -0.059847534, -0.14315915, 0.05171823, 0.13245244, 0.12093044, -0.18967994, -0.09651107, 0.06639134, -0.11368091, -0.008307591, 0.0345568, 0.07972974, -0.16069753, -0.03262148, 0.19831324, -0.056389973, -0.10922438, 0.059610877, -0.15275933, -0.15433228, -0.00881649, 0.06985244, 0.039732702, 0.10244096, -0.015057107, -0.03319836, -0.07247604, -0.094429016, -0.082560286, 0.24227633, 0.02438581, -0.07666755, -0.019944208, 0.103664294, 0.12404632, -0.01511175, 0.10255398, -0.13835025, 0.1037054, -0.041948773, 0.03195381, 0.10034459, 0.033974186, -0.107128836, -0.11869978, 0.11818186, -0.12250874, 0.11381657, -0.13099633, 0.102973655, -0.20450485, -0.10688083, 0.09099572, -0.23072748, -0.035507888, -0.11127507, -0.1859153, -0.066006914, 0.102909505, 0.12595855, 0.04063405, -0.104568034, 0.049589973, 0.1295561, -0.10192756, 0.11467993, -0.07333638, 0.061325986, -0.09811717, 0.044341214, -0.072482824, -0.10520881, -0.102981195, 0.037866466, -0.03053144, 0.018467277, 0.033285074, 0.02780751, -0.018516693, -0.0041263434, 0.12754507, -0.06480712, -0.043832213, -0.073470905, -0.13279976, 0.025843548, 0.088222, -0.021799391, 0.12624751, 0.044063855, 0.06262491, 0.028067036, -0.118013404, -0.0020738172, 0.15412977, 0.11454663, 0.10182812, 0.021881575, 0.13883936, -0.010205822, 0.08713061, 0.0978419, 0.04666868, 0.0031745697, 0.05583182, 0.10277465, -0.05299672, -0.09042665, -0.06867264, -0.07312311, 0.03292006, 0.08015758, 0.14798859, 0.05385374, 0.03192078, 0.08752172, 0.10360131, -0.24553785, -0.00916931, -0.06350193, -0.06714282, 0.10736949, -0.02260426, 0.11484829, -0.07441943, 0.1262893, -0.008161575, -0.025209356, -0.015510901, -0.05042654, -0.032967083, 0.13317043, -0.031994503, 0.14107317, -0.116669625, -0.17433059, 0.09392759, 0.03289938, -0.018874265, -0.08438531, 0.035278924, -0.03591437, -0.098429926, -0.034765992, 0.045303073, -0.028676916, -0.14774285, -0.07409156, 0.12084741, 0.027441707, -0.11472438, -0.09280733, -0.08201928, -0.142182, -0.1981899, 0.11387552, 0.09363392, -0.098398134, 0.10726986, -0.008787686, 0.053949192, 0.13662559, 0.13501766, -0.1566754, 0.03303286, 0.21276627, 0.035956692, 0.09563855, 0.15261705, 0.055097092, -0.019458845, 0.011955675, -0.09560893, -0.08572326, -0.072673276, -0.03591848, -0.08721174, -0.08367471, -0.03409922, 0.053690936, -0.080356345, -0.17940938, 0.011284588, -0.10135242, -0.13182819, 0.065364785, 0.114218615, 0.11898356, 0.019339781, -0.09788099, -0.16366412, -0.10869155, 0.04973409, 0.029458607, 0.092963785, 0.11671099, 0.034683052, 0.15756898, -0.08383053, -0.0611342, 0.048869215, 0.10061404, 0.06367757, -0.057693332, 0.037676584, 0.13131775, 0.0038677696, -0.10311034, -0.082635656, 0.0745141, 0.05506942, -0.03533638, -0.1845446, -0.118534036, 0.037939027, -0.09215608, -0.03298124, -0.04322189, -0.12282334, -0.055499587, 0.10419641, -0.0044476776, -0.036060065, -0.12311483, 0.10580609, 0.16114794, 0.014718596, -0.04188182, -0.09548221, 0.0996159, -0.013905666, 0.11796732, 0.037937086, -0.12759557, 0.05309627, -0.09974693, 0.084837474, -0.07889935, -0.16987878, 0.040940966, 0.033922356, -0.15408975, -0.058215186, 0.094383486, -0.081363656, -0.10872828, -0.10101727, -0.0809731, 0.034084205, -0.097452305, 0.14847566, -0.055080093, -0.0054202126, -0.0699054, 0.11626015, -0.027175058, 0.073845185, 0.05067605, 0.023628144, 0.020027325, -0.075959, 0.062078536, -0.014435248, 0.06677513, -0.023240445, 0.015185372, -0.00044880278, -0.16609752, 0.08350552, 0.27874237, 0.13256085, -0.07147907, 0.055615805, -0.006103581, 0.0416777, 0.10375476, 0.06948759, 0.09198909, -0.10401293, 0.11384895, 0.039861176, 0.06689398, 0.1962426, -0.02534144, -0.07123565, -0.11115025, -0.06356292, 0.0007037988, -0.14661038, 0.13309245, -0.08634835, 0.09119669, -0.11708345, 0.07129513, -0.20601554, 0.12429927, -0.00670728, -0.05339388, 0.07763198, -0.13894917, -0.03164783, 0.062463798, 0.11513361, 0.01736246, -0.16145453, -0.15382224, -0.12423384, 0.026973814, 0.0073795435, 0.32387692, 0.19322811, -0.01568468, 0.027723137, -0.057865694, -0.010641373, -0.14767009, 0.09763059, 0.020338397, 0.14156629, 0.0039956784, 0.050058555, -0.06532577, 0.07998556, -0.04736021, -0.0031346795, -0.15830797, 0.065094694, -0.07839762, -0.014918991, 0.07743638, -0.11560867, -0.012254257, 0.13939111, 0.12450431, -0.12250075, 0.074203804, -0.021448826, -0.013355145, -0.1246445, 0.042664777, 0.12542233, 0.023132246, 0.038857672, 0.031305064, -0.03168029, 0.08973136, -0.029204445, -0.11090494, -0.11511285, -0.07758562, -0.0637432, 0.061003894, 0.036614265, 0.17631358, -0.05066095, -0.12802278, -0.07130037, -0.15175457, 0.1409309, 0.04827604, -0.059649665, -0.10055577, 0.23078817, 0.07223188, -0.0063532484, -0.07198824, -0.09934634, -0.027318096, 0.17031336, 0.05239891, -0.0902888, -0.010900756, 0.0044419733, -0.0638302, -0.1298954, -0.037246365, 0.106286176, -0.029810056, 0.116663314, 0.0708509, -0.043855056, -0.0014211845, 0.008584298, 0.117646255, -0.1175279, 0.079443015, -0.011089297, -0.110632166, -0.120290644, -0.0031958094, 0.029183717, -0.1297479, 0.10119283, -0.04353531, 0.11513822, -0.16549776, -0.08566625, 0.1642344, 0.0834019, -0.066677496, 0.15774007, 0.13032727, -0.053786185, 0.113807224, 0.05311536, 0.045984183, 0.1803076, 0.06748271, -0.08341193, 0.09537284, 0.07581298, -0.06218059, 0.058483724, 0.023845427, 0.1754054, 0.069778435, -0.08230154, -0.004827022, 0.042775262, -0.09228128, -0.08621152, 0.097955145, 0.06129612, 0.04195722, -0.036255475, -0.0444793, -0.08249278, -0.12722576, -0.079284675, -0.085606985, -0.11733984, -0.045604732, -0.07374305, 0.012679671, 0.05140383, -0.14498807, -0.10138185, -0.14611457, -0.02901116, -0.14427695, 0.03222882, 0.027164992, -0.007674911, 0.081527516, 0.037149522, -0.00714353, -0.10594978, 0.069257185, -0.02674276, 0.14391674, 0.0895007, -0.06339646, -0.112350315, 0.04549661, 0.034068365, 0.07661693, 0.04884007, -0.042027146, 0.12971301, -0.09203723, -0.063653, 0.07516448, 0.00062692084, 0.086433575, 0.01345602, 0.06487305, -0.06149436, 0.02609379, 0.10454553, 0.085344374, 0.0075625074, -0.04125789, 0.10506445, -0.10614311, 0.13664779, 0.11353145, -0.09260924, 0.01080223, -0.021919085, 0.078932084, -0.015600908, -0.04931189, 0.027365357, 0.05928852, -0.04686979, -0.0045786086, 0.09377712, 0.09846868, 0.10995562, -0.08580923, -0.0842036, -0.015843011, 1.4075136e-05, 0.0812715, 0.034421492, -0.10845492, -0.086770944, 0.17868802, -0.07588425, -0.026741594, -0.026447477, -0.15955968, -0.019549567, -0.009325029, 0.0688927, 0.06097366, -0.033935748, 0.11635214, 0.09893915, 0.07320394, -0.06690897, -0.1101291, 0.13767381, 0.052781373, 0.0040066214, 0.09657854, 0.06496496, 0.17531288, 0.09141948, 0.17911872, 0.08470368, -0.12729692, -0.0088012535, 0.005218228, -0.0014159564, -0.060413852, -0.10093256, 0.019180788, 0.055351034, -0.07224973, -0.03517366, -0.04657382, 0.047133453, 0.11830348, -0.12533823, 0.13144645, 0.05048746, -0.0702372, -0.07979543, 0.17061505, 0.009112532, 0.019290667, -0.07443271, -0.090614155, 0.0236481, -0.20684233, 0.20120591, -0.014874875, 0.16651726, 0.10639848, 0.06549082, -0.06944773, 0.13398083, -0.07654152, -0.09461514, 0.022105876, -0.18568806, -0.10021793, 0.13365379, -0.037463374, 0.09633136, 0.15112053, 0.10664894, -0.043969158, 0.17245434, -0.18871978, 0.085901126, 0.13643473, -0.20028152, -0.08217935, 0.00043188536, 0.0035243095, 0.031049058, 0.13055114, 0.10194391, 0.11668415, -0.030267714, -0.1295435, -0.05085759, -0.06460131, 0.0027878988, 0.12362353, -0.11763399, 0.0077264137, 0.08493287, 0.0017197235, 0.0143449195, 0.122838855, -0.06822211, 0.01958835, 0.12326015, 0.012180801, -0.102130406, 0.16256265, -0.023030184, 0.014051393, 0.12752655, 0.0328547, 0.07408563, 0.015895559, 0.035057392, 0.04411867, -0.0020711985, -0.084435046, -0.029085701, 0.102289155};