float W1_F[]={
0.03958882, 0.044340525, -0.02398967, 0.1042603, -0.1337899, 0.08247252, -0.0481777, -0.05346846, 0.111891694, 0.006916771, 0.055748582, 0.042255085, 0.019427128, 0.046217967, 0.10497202, -0.13749884, -0.08567142, 0.060820892, -0.15689284, -0.0055351495, -0.1260497, -0.04168901, -0.070359424, -0.09237248, 0.038995493, 0.07758895, 0.045691233, 0.08901067, 0.03625312, -0.047515176, -0.14645873, -0.05265815, -0.023543198, -0.082613416, -0.1029508, -0.05800573, 0.07055166, -0.05542698, 0.004958949, 0.04818231, 0.03787144, -0.09871695, 0.010940331, -0.1076134, 0.111548886, 0.025435345, 0.06104588, 0.10999008, -0.11724179, -0.072206065, 0.010814125, -0.10726342, -0.03086019, 0.014253491, 0.010824325, -0.0152616445, -0.023328917, 0.09360824, -0.06454201, 0.04781681, 0.10932523, -0.04011261, 0.14263532, -0.07353958, -0.018051935, -0.049327478, 0.08316195, 0.13399665, 0.024127046, 0.0833501, -0.014640485, -0.146655, 0.16907445, -0.0052823755, 0.16874315, 0.025716305, -0.03037031, -0.062395424, 0.12847126, 0.018748378, 0.05921336, 0.064407445, 0.089926936, 0.014881206, 0.040811565, 0.067516476, -0.045056105, -0.008630329, 0.017987492, 0.021423828, -0.020612786, -0.028526578, -0.0059212353, -0.09819944, 0.08397979, 0.09306004, -0.1015556, 0.15996262, 0.0049759974, 0.039015602, 0.050648853, 0.13382518, -0.123356305, 0.040352467, 0.021261597, -0.0039502056, 0.022601567, 0.04780548, -0.042250153, -0.05407101, -0.049643133, 0.030949097, -0.16337037, 0.027593184, -0.058413893, -0.01807519, -0.14512984, 0.037486803, 0.108943805, 0.23649938, -0.058853637, 0.010694804, -0.017396634, 0.139785, 0.13607284, -0.08668681, 0.09160069, -0.09654803, 0.06775416, 0.027912304, -0.08222623, 0.035347987, -0.18661256, -0.005325884, 0.070111245, -0.016126886, 0.053381752, 0.12995812, 0.06629095, -0.056488406, 0.025109949, 0.06938051, 0.13323991, 0.051688664, 0.08277345, 0.08243859, -0.039279286, 0.035233334, 0.09298225, -0.0028493677, -0.053968024, -0.064419985, -0.053399544, 0.07810095, -0.01624137, -0.009791109, 0.05361945, -0.10782767, 0.007860002, -0.113392115, 0.09498607, 0.056082983, -0.09421424, -0.18507251, -0.09209933, -0.040807433, -0.19208914, -0.07505437, 0.016533079, -0.19605607, 0.13565907, 0.010044704, 0.026465058, 0.014089304, 0.03343175, -0.118606985, -0.1612378, 0.1584364, -0.0537218, 0.1820056, 0.043114267, -0.07631983, 0.119447984, 0.0998464, 0.06720609, -0.16524519, 0.25142586, 0.14802474, -0.10344486, 0.09029816, -0.018186824, -0.025030483, -0.03806669, 0.06792204, 0.04258747, -0.025992354, 0.09502433, 0.025071025, -0.007955218, 0.092536464, -0.10083759, 0.034202237, -0.033862315, -0.03003209, 0.21157648, -0.20251743, 0.043454394, 0.033235762, -0.004933251, 0.07880332, -0.07194308, -0.019152027, 0.15080939, -0.024617564, -0.045532662, -0.111498, -0.04722299, -0.124532714, 0.026123183, 0.054527353, 0.15999229, 0.22596185, -0.029781634, -0.08126238, -0.057455055, 0.15260884, 0.1058662, 0.019878332, -0.010934274, 0.05285459, -0.026191091, -0.1363271, 0.044440962, 0.0019433149, 0.109962314, 0.02516632, -0.15942939, -0.09699502, 0.034613375, -0.043011125, -0.024252046, 0.09598146, -0.07831381, 0.06401096, -0.11457926, -0.028729303, 0.16209452, 0.02370679, 0.07161222, -0.12263102, 0.19927274, 0.19897412, -0.058387082, 0.02075784, 0.021499533, 0.2265879, 0.101185635, 0.13182043, -0.03978407, -0.17025647, -0.15454945, -0.05089933, 0.079805024, -0.08417187, 0.14452079, 0.039093964, -0.05957773, 0.121722266, -0.05507003, -0.10573399, -0.1261689, 0.0042074067, 0.07275409, -0.090897806, -0.050224848, -0.07724505, 0.13033444, 0.022681918, 0.09266828, 0.07875716, -0.10416572, 0.1479378, -0.090818524, 0.035570234, 0.120623745, -0.09043928, 0.10455476, -0.14485042, 0.06732997, 0.14972487, -0.0047819978, 0.024423616, 0.07403325, 0.18856396, 0.054554004, -0.073427394, -0.09443667, 0.09640163, 0.0053417343, -0.017853199, -0.1251214, 0.00019603281, 0.22189082, 0.05265071, 0.026867403, 0.11496524, 0.15859704, 0.013469272, 0.10185571, -0.1221667, 0.06750837, -0.055195194, 0.0022835333, -0.06691243, 0.06587715, -0.06217707, -0.23402628, 0.0410485, 0.0063985083, 0.09373489, -0.05294206, -0.09969151, 0.050023682, -0.15396726, 0.10377477, 0.09729617, 0.0794167, -0.020859547, -0.003170528, 0.02985307, 0.0270946, 0.026047148, 0.10550883, 0.091694355, -0.14055638, -0.04684147, -0.0114762215, -0.078891605, -0.15125579, -0.073708564, 0.2235852, 0.14152145, 0.027386034, 0.184472, -0.13068391, 0.18279137, 0.020840371, 0.007860503, -0.12803495, 0.11957526, -0.053319752, -0.14449355, 0.09784474, 0.019855723, 0.11223796, 0.23066205, -0.012463167, 0.079158, 0.015629243, -0.2677182, 0.011365496, 0.15168826, 0.035433777, 0.065582484, -0.014423221, -0.09121012, 0.034580134, -0.11026356, -0.1355035, -0.098891184, 0.028993273, -0.02427891, 0.05893551, -0.026732234, 0.10134643, -0.10105933, -0.1364167, 0.07299269, 0.13485955, -0.08836129, -0.27994224, 0.19444387, 0.11857008, 0.100632206, 0.14831167, -0.08400473, 0.04997839, -0.028887555, -0.12266483, -0.024789887, 0.065156706, -0.049117956, 0.2214056, 0.0359657, -0.08767808, -0.0070752543, -0.06652845, 0.05273844, -0.17496319, -0.017239155, -0.0004799792, -0.008684075, 0.116811246, 0.07633142, 0.2370681, -0.07470083, -0.13972291, 0.04056905, -0.16508426, 0.1680373, 0.03728582, -0.010515047, -0.046990164, -0.079011925, -0.08267541, -0.05438331, 0.09590312, 0.1270917, -0.09236552, -0.040471736, 0.16081281, -0.046101622, -0.050169967, -0.086542286, 0.073924534, 0.15152958, -0.059563983, 0.07259222, -0.06503178, -0.18634193, 0.25980464, 0.14939806, -0.01788943, 0.036296327, 0.028680012, 0.081177175, 0.03466088, -0.122769706, 0.1520983, -0.06734212, 0.061172668, 0.10371906, 0.064862646, -0.038464483, -0.03022071, 0.081900455, 0.026950983, 0.19297779, 0.15761757, 0.074183345, 0.06497118, 0.036359277, -0.12374063, -0.08326505, 0.08819814, -0.041212905, 0.19553117, -0.03847546, -0.023320427, 0.1042809, 0.22410563, -0.05349463, -0.12040671, -0.038585816, 0.18245621, -0.0069388235, -0.07058299, 0.043662228, 0.08892422, -0.19178864, -0.07549533, 0.10128511, -0.1406917, 0.16035673, -0.014863522, -0.09024324, -0.13295504, 0.12692687, 0.0064670187, 0.03143959, -0.10853458, -0.014561772, -0.0882476, 0.07162881, 0.049386196, 0.052014872, -0.083849855, -0.18665802, 0.16135462, 0.0670738, 0.017887168, -0.0747695, -0.06890956, -0.024205782, 0.13273121, 0.017345218, 0.15216623, 0.067942984, 0.018823542, 0.0139207095, 0.057502635, 0.13474841, 0.17397167, 0.11622583, -0.047891527, -0.014450445, 0.17485829, 0.1691223, -0.0016296697, 0.06761484, -0.024442645, -0.037870597, -0.006894698, -0.009377044, 0.0037054198, 0.16102676, -0.05155147, 0.16425574, -0.09533051, 0.08696879, 0.0963134, -0.061547693, 0.15183777, -0.003992564, 0.1443885, 0.018720195, -0.21537116, 0.07888012, 0.005284981, -0.0127391, -0.072014414, -0.037975688, 0.13436137, -0.0024111166, -0.057585277, 0.20443477, 0.046632964, 0.0983156, 0.13573502, -0.0346348, 0.034664445, 0.07303442, 0.09911454, -0.00040867738, 0.030802742, 0.1393944, 0.03653174, -0.16685408, -0.11056634, 0.14764574, 0.06753525, -0.17295651, -0.011111012, -0.048876315, -0.06823378, 0.017824795, -0.019397857, -0.11857041, 0.22869742, -0.08691897, 0.12787431, 0.0451212, 0.065026075, 0.005008832, 0.12817474, 0.09320822, 0.084282875, 0.08901871, -0.00793657, 0.095060766, 0.022005087, 0.088624015, -0.07852934, -0.07039393, -0.022565247, 0.18198942, 0.13626163, 0.097281896, -0.014507913, 0.11485947, -0.03485741, -0.13303575, 0.0032072063, 0.17046924, 0.17491372, -0.0564882, 0.02824284, 0.11136797, 0.20222405, 0.16962479, -0.063961476, -0.026255107, 0.13837907, 0.027137488, 0.0569634, 0.07248346, -0.1202211, -0.09020741, -0.06862156, 0.21799168, -0.059672974, 0.10355521, -0.1459358, 0.11921367, 0.003950118, -0.030871542, 0.100850224, 0.11593159, 0.14338925, 0.06693409, -0.015634067, -0.15800743, -0.17339124, 0.20721117, 0.11388143, -0.13452792, -0.016265592, 0.13345796, -0.014869458, 0.107385255, -0.11166163, 0.07668529, 0.36931312, 0.017488735, -0.018725853, -0.03188944, 0.008630283, 0.040860426, 0.0824113, -0.04560161, 0.11937156, 0.1242178, 0.10983677, -0.062564075, 0.022164946, 0.14327888, -0.06642762, 0.10106881, -0.004232396, 0.03181798, 0.14349087, -0.014979289, -0.06501365, 0.037961505, -0.1384988, 0.010367732, -0.02601591, 0.14495264, 0.0036724056, 0.0130100995, 0.06353676, 0.14129922, -0.071954414, -0.008432461, 0.055196457, 0.06572784, 0.107120246, -0.0675206, -0.056611273, 0.24084502, 0.07091779, -0.057537593, 0.015197461, 0.15529104, -0.011353806, 0.16018532, -0.0002756313, 0.09606202, -0.11263129, 0.13201828, -0.02810709, 0.17560405, 0.07519022, -0.097781755, 0.042514544, -0.24255598, -0.029890846, 0.09553715, 0.06305016, -0.010706399, 0.013756741, 0.039606843, -0.0067931674, -0.07410249, -0.0026563548, -0.019633964, 0.017760014, -0.059623484, 0.16229427, -0.18581077, -0.13751863, 0.08910741, 0.0011258384, 0.103253424, -0.13941851, 0.17564425, -0.11876104, -0.12896901, -0.016765615, -0.06579161, -0.0844555, -0.016194595, -0.17421028, -0.12025557, -0.014247974, -0.008571832, 0.014053476, 0.064093456, 0.089175366, -0.08721459, -0.118178554, 0.076870926, 0.009510323, 0.052354928, 0.00093085633, 0.126928, 0.011642283, 0.020686025, 0.131655, -0.07955303, -0.09481326, -0.08657108, -0.15073606, 0.21902873, 0.07905378, -0.1491593, 0.11014489, -0.012823502, -0.15903398, 0.022321973, -0.13741061, -0.06868461, 0.012821524, 0.024669053, 0.07830717, 0.19896819, -0.0040219533, -0.07075089, 0.023673309, -0.16404742, -0.14084493, 0.17344226, -0.1084093, 0.11913068, 0.2156207, 0.074816264, 0.04852675, 0.086791426, -0.007755266, 0.16006882, -0.038391918, -0.15506642, -0.04898132, -0.04853526, -0.13020372, 0.06361788, -0.013885874, -0.08780007, 0.018827777, 0.05191616, -0.056178622, -0.08857657, 0.020188095, -0.019050274, -0.01695571, 0.05316698, -0.09823784, -0.055258688, -0.0423194, 0.020084476, -0.01953371, -0.16438173, -0.1344944, -0.17662954, -0.0017663887, 0.1816309, -0.08178639, 0.025747117, 0.14646111, 0.014369301, 0.028945675, -0.07516962, -0.03284267, 0.012861693, -0.114100374, -0.045683537, 0.028477881, -0.049107492, -0.09237451, -0.072361074, 0.07710798, -0.033971522, -0.02183411, 0.08251358, -0.0869831, -0.09536342, -0.09551659, -0.08895068, 0.095434435, 0.0055572293, 0.07560611, -0.011964311, 0.104257084, 0.1534377, -0.051751774, -0.042534057, 0.017276606, -0.0554038, 0.2326638, -0.04699664, -0.16395298, 0.11680831, -0.1311596, 0.20994286, -0.034743246, -0.04461358, 0.10750168, 0.005522376, -0.054829992, 0.051592276, 0.056614943, -0.006265804, -0.17520486, -0.0975402, -0.065391205, -0.03573422, 0.21832979, -0.050714277, -0.011816147, 0.1868444, 0.008671127, -0.26343563, 0.11397462, 0.04748571, -0.035817865, -0.20579529, 0.045994695, -0.13156272, -0.074109405, 0.12696786, 0.061700713, 0.031990744, 0.026792001, -0.092373036, 0.067891575, 0.09431919, -0.08630939, 0.12915745, -0.09045957, -0.0053123757, -0.026444733, -0.012437721, 0.047944322, -0.058371708, -0.18425232, -0.026117671, 0.004193063, 0.0015153891, -0.10784601, 0.092431545, 0.02734335, 0.015459003, 0.102145284, 0.03822683, 0.11231498, -0.20892945, 0.097642444, 0.1504256, 0.19895563, -0.25870606, 0.1581134, -0.06130896, 0.18730709, -0.020130709, -0.18698402, 0.13661726, -0.12013427, 0.16381674, -0.050248086, 0.0016227432, 0.023285126, -0.15237701, 0.23618364, -0.0730785, -0.14906673, -0.22263335, -0.14839691, -0.19271396, 0.016708875, 0.11224698, 0.093956724, -0.03896075, -0.057666026, 0.13611811, -0.21421866, -0.19402777, -0.010908098, 0.06670431, -0.012989288, -0.080344334, -0.092747055, -0.107820444, -0.0640043, 0.048647784, 0.01787433, -0.05096067, -0.035761632, -0.083302855, 0.03474295, 0.03129475, -0.016514761, -0.03464095, -0.29254222, 0.056775574, -0.079550184, -0.06908721, -0.21356866, -0.055827238, -0.08456376, 0.019910702, 0.13563488, 0.12954664, 0.17968112, 0.04082509, -0.011217727, -0.028128032, 0.080697596, 0.046135955, 0.17599307, -0.06454708, -0.10410458, 0.20200697, 0.18798977, -0.023614377, 0.13453765, 0.15888853, 0.04880391, -0.17338426, -0.026687173, -0.02578402, -0.09714865, 0.068105906, 0.08278973, -0.0027010143, 0.06729161, -0.16373612, 0.1391229, 0.07521685, -0.03355275, -0.21535754, 0.06647141, -0.144555, -0.078951195, 0.077629045, 0.039092656, -0.08112772, -0.16330999, -0.0018816347, 0.040629905, -0.10772907, 0.0847531, -0.03469056, 0.12210447, 0.19787839, -0.009817563, 0.057088945, -0.14626154, -0.012591878, 0.119822346, 0.045790285, 0.004222866, -0.103916876, -0.028085178, -0.03427612, -0.21568306, 0.064218454, -0.014652647, -0.021425093, -0.17394586, 0.19998476, -0.23249368, -0.03836191, 0.028378587, 0.05246535, 0.14206693, -0.13849321, 0.1917735, 0.027926287, -0.114751674, 0.03030486, 0.10348588, 0.139189, 0.10277502, 8.8759407e-07, -0.029677946, 0.03400685, 0.04659267, 0.0032957853, 0.12969545, 0.15914747, -0.037006762, 0.12419731, 0.017560787, -0.24796651, -0.005888299, -0.056290276, -0.009944441, -0.012312105, -0.15217824, -0.0674881, -0.02762609, 0.12006072, -0.22865897, -0.031700034, 0.10208679, 0.002433607, 0.08068238, 0.06912095, 0.05582909, -0.085761346, -0.11670464, -0.07240431, 0.15476112, -0.12052585, -0.11357211, 0.05889294, 0.21821687, 0.17525195, -0.14376771, 0.12584744, -0.17966391, 0.011519543, -0.14092119, 0.16737078, -0.056136247, -0.036080007, 0.0654223, 0.05984918, -0.05373477, -0.02209011, 0.03457902, 0.16015117, 0.020441381, 0.08942801, -0.1729029, -0.016717961, 0.004335718, 0.105826415, 0.11881124, -0.021562118, 0.1265583, 0.02143575, -0.0327477, 0.03525923, 0.09007428, -0.055495918, 0.15924536, -0.0043766447, -0.038832385, -0.08992477, -0.23899265, 0.02172908, -0.10199195, 0.17081013, 0.045230914, 0.16414008, 0.23749003, -0.08399508, 0.01773651, -0.12507156, 0.02674325, -0.06746324, 0.013130839, -0.04537722, 0.017834088, 0.09042819, -0.08418815, 0.12792262, 0.05898584, 0.037654564, -0.0884778, 0.04627359, 0.010379094, 0.021998467, -0.0058375765, -0.13528596, 0.057428878, 0.0054489784, -0.12487754, 0.034142133, 0.18005097, -0.03568556, -0.02783369, 0.08097064, -0.17007399, 0.12066936, -0.11440783, 0.12549828, 0.026167883, -0.14129166, -0.18878767, 0.106338724, 0.113339156, 0.04646279, 0.08191086, 0.12129698, 0.05040071, 0.06887965, -0.04439003, -0.09080553, -0.103005245, 0.06681771, -0.05288607, -0.021884095, 0.1527531, 0.098297596, 0.06386442, -0.04765192, 0.19764058, 0.103119954, 0.08113252, -0.07154694, -0.018022466, -0.032109693, -0.10308078, 0.08999219, -0.08707514, -0.018870605, -0.04655714, -0.020089442, 0.23267809, -0.064056754, -0.042263698, -0.028150704, -0.1260829, -0.049370803, -0.1381103, -0.22200482, -0.13787998, 0.1758459, -0.24213453, 0.061353754, 0.09425111, 0.05456676, -0.17244276, -0.11424474, 0.029096147, 0.038200237, 0.017507492, -0.08342074, 0.0549658, -0.041087106, 0.13920772, -0.15500127, 0.111437485, -0.010595915, -0.017078351, -0.018610315, -0.14973384, -0.021721339, -0.031677384, 0.037298117, -0.05963338, -0.046751544, -0.16728221, -0.09834907, -0.15584782, -0.016496334, -0.10633793, -0.05165891, 0.06172304, -0.085617825, 0.105732486, -0.17179528, 0.037098177, 0.056412317, 0.09267614, -0.0446513, 0.12727427, -0.057368364, -0.017944155, 0.06776854, 0.17992304, 0.029852021, -0.085256, -0.010273086, 0.050036065, 0.03853763, -0.08394545, -0.16546552, 0.067025, 0.110398255, 0.07332963, -0.032110687, 0.13506697, 0.14317274, 0.08387939, -0.09238147, 0.023589484, 0.032232508, -0.08309461, -0.09087297, -0.057922274, 0.11384138, -0.0751061, 0.116755925, -0.1237851, -0.16084778, -0.18063203, 0.009248697, 0.061948217, 0.031392347, -0.0046672593, 0.122929536, -0.050305065, -0.026016427, 0.11116911, -0.14395116, -0.12180916, -0.13288261, 0.08577208, 0.013444328, -0.21013564, -0.20479326, 0.033838086, 0.065293774, -0.08290562, -0.019550862, 0.013345015, -0.07853188, -0.19855994, 0.24324171, -0.15644582, 0.0477387, -0.18100849, -0.12849309, 0.024489347, -0.14526552, 0.04448978, 0.0979167, -0.0665231, -0.06081841, -0.0335675, -0.11111337, 0.014426118, -0.030939506, 0.08294252, 0.03116415, 0.028741645, -0.1810827, -0.1526761, -0.10147745, -0.0032062246, -0.15803091, -0.062165808, -0.11898556, -0.09819343, -0.077431194, 0.0952256, 0.09448318, -0.04638356, 0.0037720238, -0.014228534, 0.09883832, 0.14535615, 0.06552032, 0.22709979, -0.029828973, -0.20392188, 0.023920914, -0.0010693616, -0.024846625, 0.07743383, -0.16035591, 0.2899909, 0.11612989, 0.14463809, 0.07575654, 0.083693355, 0.048415575, 0.027748067, -0.13307607, -0.21949369, 0.07482378, -0.14699985, -0.07117917, 0.05165516, -0.017346667, 0.02377617, 0.012087903, 0.05628715, -0.071189106, 0.13762695, 0.104140736, -0.16134262, 0.18844049, -0.11581178, 0.037270907, -0.22650224, 0.046040602, 0.047484208, -0.12392899, 0.066137746, 0.12446401, -0.057381522, -0.083209544, 0.16390009, -0.058274318, -0.056497633, -0.103288196, -0.079754174, -0.015912743, -0.0024557514, -0.15488216, -0.22521906, -0.085896164, 0.06574755, -0.14937022, -0.16730928, 0.12244177, -0.073975205, -0.10038049, -0.26906186, -0.022146428, -0.08841291, -0.05087711, -0.12273738, 0.0796008, -0.047120795, 0.14341293, 0.24977203, 0.035163403, 0.046135504, 0.047905557, 0.025382169, -0.047435857, -0.121084794, 0.038426064, 0.0647526, 0.027134378, 0.18019189, 0.005717973, -0.0036382915, -0.16166584, 0.17293288, -0.12042065, -0.14227778, 0.112581864, 0.037198752, 0.028982582, -0.15560296, -0.1422962, -0.05935804, 0.0012563167, 0.11839173, -0.09623847, 0.08445629, 0.18549114, -0.13059434, -0.0071430802, -0.08784671, -0.1421356, -0.17233907, 0.055374492, 0.16929519, 0.03499991, 0.019344954, 0.09654037, 0.07977826, -0.025584118, -0.04091314, 0.060815454, -0.044803206, -0.077027634, 0.08086623, 0.012426861, -0.116616264, -0.09708872, -0.14337419, -0.04618074, -0.110395074, 0.02031332, -0.155651, 0.14317557, -0.041609127, -0.19973934, -0.16363621, 0.08459267, 0.1609314, 0.025447814, -0.12528035, 0.025797587, -0.023359966, -0.11529695, 0.38222733, 0.029086232, 0.0032348826, -0.14085075, 0.042949755, -0.103357986, -0.025600277, -0.09033388, -0.018965315, 0.033767536, -0.05706179, -0.13991632, -0.028306676, 0.027740933, 0.14388089, -0.14982066, -0.1313326, -0.12022744, -0.03074426, 0.11277987, 0.0091161765, -0.1595677, 0.11307303, 0.07329599, 0.11215145, -0.062470216, -0.11076734, 0.22015515, -0.026773341, -0.0430273, -0.12709235, 0.031929616, -0.02524787, 0.009957615, 0.23312224, -0.08923747, -0.0787875, 0.09590244, 0.09525861, 0.06250269, 0.08413251, -0.06302976, -0.10239327, -0.04628442, -0.13157001, -0.17705718, -0.07801014, 0.087724924, -0.11308509, -0.033351187, 0.041248426, 0.04054816, 0.006107739, 0.15042461, -0.020479038, 0.0025698734, -0.13609707, -0.14529435, 0.15293235, -0.06233555, 0.03601878, -0.03602788, 0.056514945, -0.09584782, 0.2265495, -0.111899056, -0.17859174, -0.23485652, -0.10327559, 0.1215156, 0.04858557, -0.049117923, 0.055916477, 0.22274454, -0.07558642, -0.19457257, 0.12752177, -0.09590927, 0.14969897, 0.047594693, -0.010544227, 0.06851755, 0.016423881, 0.12706165, -0.21109943, -0.16110289, -0.06571011, 0.06157823, 0.13821717, -0.14691861, 0.082173064, 0.25536847, -0.19794844, -0.09099557, -0.050427984, 0.037580922, -0.16643214, -0.120703556, 0.076791756, -0.0045821494, -0.07193883, -0.13087521, 0.006774563, 0.12802495, 0.06648824, -0.14955395, -0.034663264, 0.057710584, -0.12257794, 0.0038065657, 0.059226535, -0.08682899, -0.166232, 0.015315165, 0.017437762, -0.14356613, -0.033655316, -0.13487975, -0.115890004, -0.17365591, -0.30770537, -0.28928432, 0.023877988, 0.05707666, -0.04182068, -0.080768116, -0.13955027, -0.23596999, 0.2108599, -0.12793167, -0.011456158, -0.20813006, -0.06275841, -0.040881816, -0.13425273, 0.08741075, 0.014612578, 0.14556608, -0.023559783, -0.28788272, 0.00088067, -0.031855002, 0.1816222, 0.0037737705, 0.20251481, 0.13943978, 0.060491633, 0.33252355, -0.2031791, 0.03320232, 0.08659919, -0.09129917, 0.25057712, -0.057197038, 0.15895842, 0.16392218, -0.2256015, 0.09259692, -0.13340642, 0.04933787, -0.14402375, -0.15294683, 0.21014957, -0.015840841, -0.041949216, 0.018151797, 0.022673192, -0.08661018, 0.074840136, -0.063865885, 0.06343231, -0.08396239, -0.08933313, 0.021923251, -0.17367373, 0.015614779, -0.09572787, 0.28420758, -0.012718102, 0.035385303, -0.06600053, -0.06993911, -0.045453653, -0.094591364, -0.20577006, -0.21330427, 0.06841334, -0.117666535, 0.082097344, -0.060725, -0.15012047, -0.09286586, 0.26324853, 0.10855686, -0.047084395, -0.07211739, -0.22432505, 0.00026787724, -0.15008421, -0.055249743, 0.020702358, 0.07193892, -0.12665115, -0.15153684, 0.16082513, -0.18756993, 0.009486657, 0.027102567, 0.12354854, 0.07002182, 0.11640751, 0.2511996, 0.06166186, 0.064219676, -0.08311398, -0.04782103, 0.08733875, -0.018810341, 0.035043813, -0.0200666, -0.08251602, -0.025231646, -0.2135458, -0.12728658, -0.10815491, -0.17327687, 0.17425102, -0.011723718, -0.0730231, -0.108205624, -0.20256634, 0.0023097962, 0.06262895, -0.16004755, 0.071512155, -0.09448882, -0.10388919, -0.22204946, -0.12429887, -0.17602487, -0.19867906, 0.14589319, 0.07337473, -0.21997657, -0.008373136, -0.12607609, 0.16958545, -0.20840925, 0.0136346165, -0.20169911, 0.009383378, -0.11246416, 0.1308229, -0.06083217, -0.23269567, -0.038549226, 0.047887925, 0.23758848, 0.045993276, -0.031331174, -0.032718576, -0.20971087, 0.032414693, -0.08055339, 0.08366205, 0.08445007, -0.12143313, 0.029348496, 0.1541752, -0.042271134, -0.03841484, 0.020995066, 0.024810096, 0.0014968895, -0.01868908, 0.24334659, 0.10137903, 0.20147069, -0.04075205, 0.07716998, -0.024360808, 0.0046157907, 0.20915678, -0.24738422, -0.16470185, 0.13858853, -0.29579383, -0.09953951, -0.017094087, -0.027163245, -0.072302565, -0.08573811, -0.2190955, 0.0072311065, -0.011269253, -0.14173408, 0.08088829, -0.1035173, 0.027676899, -0.054793626, -0.021022266, -0.112002045, -0.0453107, -0.1999137, -0.028816985, -0.038699903, -0.025156038, -0.09113367, -0.11136527, 0.0020349366, -0.03301134, 0.06969754, -0.13039882, -0.18076251, 0.041528553, -0.23371467, -0.11074702, 0.058215182, -0.13435711, -0.1498098, -0.024965351, 0.19484162, -0.07250606, 0.1026157, -0.052299906, -0.12101302, -0.061727792, 0.01737759, 0.076283984, 0.075323656, -0.24838495, 0.025710467, 0.049354866, 0.043010145, 0.022621745, 0.04042302, -0.070198655, -0.07753103, -0.12801374, -0.079326235, 0.15756156, 0.14344715, 0.07630042, 0.11585704, 0.004673132, -0.052444335, 0.07048254, 0.047023393, -0.037056115, -0.09105104, -0.19355652, -0.07837375, -0.045891084, -0.10318366, 0.041585594, -0.097115435, 0.06708889, -0.10071302, -0.025225036, -0.02568539, -0.0028397958, 0.028941145, 0.03351637, -0.06964595, -0.014566729, -0.015430257, 0.0411348, -0.09926999, -0.12067827, -0.014013706, -0.031182924, -0.08061084, -0.2088806, -0.06719894, 0.12571298, 0.05297084, 0.11473377, 0.045464087, -0.057241663, 0.05378457, 0.1379533, 0.07642809, 0.01602719, 0.16719562, -0.018732736, 0.041936982, 0.05226448, 0.0027420197, -0.0013677316, -0.005822538, -0.06398436, 0.087419435, 0.03262644, 0.078527965, -0.12554775, -0.016964208, 0.027706143, -0.10781864, 0.035369564, -0.009743046, 0.13936667, 0.06904054, 0.016329596, -0.09178313, -0.06482578, -0.070357196, 0.021930568, -0.061842702, 0.12247997, -0.12194993, -0.10041553, 0.016501606, -0.04216893, 0.1432227, -0.032281715, -0.12195803, -0.08159922, -0.01993563, -0.040009115, 0.12172363, 0.024456283, -0.012899499, 0.14385572, 0.11077383, 0.045213457, 0.108378276, 0.0007743343, -0.11254589, -0.020044688, -0.12890783, -0.069086045, 0.06908451, -0.022249524, -0.10181067, 0.0075000254, -0.055481672, 0.08212214, 0.095814586, 0.093522504, 0.10905079, -0.078530826, -0.043006, 0.082571715, 0.12953639, 0.022410661, -0.04103315, -0.09935459, -0.043085035, 0.039473623, 0.107332624, -0.035401136, 0.0022754513, -0.09574872, -0.084920004, -0.099670544, -0.13475056, -0.023574073, -0.07792262, 0.08951088, 0.13606831, -0.066141754, -0.10784263, 0.06520989, 0.082953006, -0.15816405, -0.05805143, -0.06293279, -0.06384711, -0.024214795, 0.03029764, -0.049015727, -0.11669013, -0.123765916, -0.0126095535, 0.17373703, 0.015765905, -0.003334579, -0.19244483, 0.010979428, 0.16224067, 0.031003673, -0.018408958, 0.058465533, 0.03763604, -0.11677803, -0.07965705, 0.040499754, 0.14515097, 0.033730906, 0.012122153, 0.09198309, -0.10905229, -0.10390641, 0.13755788, 0.057942048, -0.18938743, 0.003311926, 0.12420785, -0.0021569245, -0.06918982, 0.15551385, -0.102546446, -0.018895872, -0.030091945, -0.16083941, 0.06972435, -0.1616094, 0.06898978, 0.04885951, 0.08488677, -0.058067627, 0.07613291, -0.09471526, -0.096565336, -0.10049306, 0.02793095, -0.06758462, -0.15236162, -0.101513125, 0.07709178, -0.026832735, 0.020216526, -0.0030472488, 0.15286948, 0.121727645, -0.09748653, -0.16824831, -0.066463955, 0.088995755, -0.22772789, 0.074348524, 0.050950676, 0.29893976, 0.19742577, -0.08042403, -0.0121987015, -0.07364918, -0.017138062, -0.021737367, -0.039509784, 0.0880855, 0.09163653, -0.16661981, 0.07709661, 0.018916361, 0.02727514, 0.06836382, 0.107203186, 0.12779714, 0.15020707, 0.10015751, -0.19130877, 0.20312378, 0.11153448, 0.09821541, 0.056705914, -0.05296144, -0.08593307, 0.19425054, -0.08855522, -0.10613529, 0.04979841, -0.10614363, 0.029461758, -0.0013029283, -0.080478586, -0.10144976, 0.10351767, 0.17199406, 0.073787525, 0.15223995, 0.07716611, -0.18818597, -0.13674086, 0.110757455, 0.15074126, -0.018351605, 0.031998996, 0.12230189, 0.034700908, 0.13874051, -0.15286955, 0.053085867, 0.06782101, 0.109952055, -0.1325899, -0.055675462, 0.057341218, 0.06666567, -0.01682418, -0.048917275, 0.021417702, 0.021880668, 0.20221083, 0.09656237, -0.1928789, 0.009492864, 0.025410678, 0.025694901, 0.03735614, -0.008845704, 0.058558885, -0.18126377, 0.07409044, 0.21004657, 0.23971978, 0.008166906, -0.03153545, -0.034884118, -0.02450727, 0.06477326, 0.014374331, 0.06650681, -0.12942414, -0.14546958, 0.102963544, 0.026916513, 0.05892331, -0.10876483, -0.14291795, -0.023329014, -0.12972285, -0.044979546, 0.13152744, 0.14940827, -0.064189434, 0.18235937, 0.13509767, -0.124830045, -0.087917894, 0.045160305, 0.14201854, 0.06203171, 0.020977952, -0.05215852, -0.04187767, 0.08247388, 0.008287295, 0.007629911, 0.033713315, -0.0070629884, -0.12855677, -0.046382103, 0.19518505, 0.32935277, -0.21194647, -0.008507377, 0.19987237, -0.011648335, 0.20009024, 0.09996976, -0.2374073, 0.18468088, 0.36090198, -0.10936316, 0.007213284, 0.05775378, -0.08466279, 0.06968826, 0.15174754, -0.097276576, -0.10492014, 0.0053131464, 0.09087442, 0.090625964, -0.11004781, 0.060664088, -0.0540484, 0.041081, -0.03329787, 0.026832374, -0.034979284, -0.003916213, -0.065851375, 0.045125138, -0.081237726, -0.050168827, 0.05418075, 0.0941276, -0.013267839, 0.17458214, -0.08602465, -0.019562408, 0.003014738, 0.062102728, 0.16524853, -0.042765796, 0.022053653, 0.030752191, 0.031180002, 0.15847196, 0.0053572576, -0.0011939598, 0.1124705, -0.095863916, -0.13533956, -0.021501543, -0.10426337, 0.07901778, -0.090516225, 0.11215944, 0.13069387, -0.0045484453, -0.09273013, 0.07724406, 0.012434419, 0.018078629, 0.09804072, 0.13268842, -0.19255176, -0.11916649, -0.096460916, 0.06374531, -0.161961, -0.028229417, -0.0022084166, 0.046048135, 0.01085587, -0.0784832, -0.0061650886, -0.02155414, 0.1900507, 0.040741093, -0.026413321, -0.15066901, -0.042277053, 0.10047634, 0.1492221, -0.027746333, 0.040693667, -0.13535877, -0.0036688023, 0.00010828031, 0.14263397, -0.03224031, -0.12356356, 0.04716466, -0.12832987, 0.022381699, 0.09376102, 0.017461993, 0.10037024, -0.07684186, -0.13958168, -0.031325363, 0.13246581, -0.03166741, 0.013563745, -0.031329013, 0.09927586, -0.015135679, -0.00034598957, 0.035812914, -0.11565862, 0.04903892, -0.14935791, -0.10482383, -0.016866954, -0.122398086, -0.1511511, -0.07861016, 0.1216136, -0.06121996, -0.0010431431, -0.14300583, -0.09428902, -0.05414356, 0.11962577, 0.092238024, 0.07815501, 0.15724401, -0.13128896, -0.084645696, 0.035014056, -0.104111, -0.0068892976, 0.015746579, -0.008796357, -0.07608547, -0.0011891404, -0.063898504, 0.080737375, 0.08676347, -0.01887949, 0.09735669, -0.39075318, 0.049215164, -0.055620585, -0.11871243, -0.06776521, 0.098951034, -0.0360299, -0.08704689, -0.09830145, -0.072794795, 0.0040116264, 0.15232298, 0.06581728, -0.057427485, -0.10556532, -0.08777634, -0.124367945, -0.08168219, -0.06515882, -0.006250518, 0.10556382, -0.16015722, 0.023109509, 0.086670704, 0.14310914, 0.010684767, 0.08540209, 0.15447862, -0.027833303, 0.110729545, -0.0050665033, -0.068809316, -0.055318072, -0.08909962, -0.111281745, -0.10404771, 0.084199615, 0.015438341, 0.050819956, 0.13419786, 0.00023144615, -0.09407674, 0.23883826, -0.06842454, 0.03555869, -0.11267507, 0.13285467, 0.19626375, 0.0634106, -0.077419065, 0.03728992, 0.08256698, 0.03188882, 0.07581935, -0.05180746, 0.17923322, 0.060416445, -0.044429313, -0.031799536, -0.027832868, -0.10926641, 0.06866791, 0.051058672, -0.21893974, 0.034607645, -0.059421964, -0.11962337, -0.064952165, -0.1360379, -0.133908, -0.07181712, 0.11428117, -0.012829922, -0.06311428, 0.11738243, -0.22545005, 0.012368268, 0.093995616, 0.11613025, -0.099547595, 0.12741727, 0.023666138, -0.15469244, 0.07870874, -0.017529942, 0.092132755, -0.12173652, -0.12358373, 0.02631682, 0.009878056, -0.0048116837, -0.07086239, -0.07265792, -0.047913067, 0.09220239, -0.09843383, -0.1272842, 0.019308347, -0.118400596, 0.052942064, 0.029015454, -0.1253063, 0.03603577, -0.22938694, 0.07748055, -0.067009516, -0.07994042, -0.006067668, -0.043123804, -0.076515004, -0.10557153, 0.041996893, -0.11911118, -0.15716772, -0.03530831, 0.08004791, 0.048680592, 0.015132382, -0.14960371, -0.05313651, -0.07194091, 0.11236287, -0.08070252, 0.014687968, -0.16842034, -0.10552937, 0.06127041, -0.04610111, 0.072567776, 0.05436247, 0.10044997, -0.017570954, 0.028132776, -0.14095731, 0.13037628, 0.12720664, 0.18820953, -0.07120476, 0.025745649, -0.050880052, -0.026554747, -0.04442067, 0.055558536, -0.003528402, 0.003380687, -0.060484104, 0.09492099, 0.09065383, 0.12649682, -0.0516243, -0.074112035, 0.09315236, -0.16012692, -0.015399309, 0.10577527, -0.12882099, 0.07952965, -0.082500264, 0.144045, 0.012369562, 0.036137946, 0.049138248, -0.0021731881, 0.06704621, -0.07395677, -0.11101554, 0.030601855, -0.03331813, 0.056733564, 0.04977189, -0.051795546, -0.0013079474, 0.052986328, 0.10456799, 0.035917617, 0.113163166, 0.019741215, -0.028821018, -0.14851257, 0.14058013, 0.008250908, -0.04853565, -0.00017299916, 0.06434171, -0.12862265, 0.09981294, -0.049301703, 0.026457133, -0.05867159, -0.07799539, 0.13204393, -0.02176012, -0.08040713, 0.06416658, 0.25759825, 0.040621143, -0.040654123, 0.118806824, 0.102947466, 0.052086897, -0.115623005, 0.037101883, 0.073789604, -0.24353667, -0.08404583, -0.11253596, 0.30206442, 0.09288524, 0.051291987, 0.1851308, 0.029499957, -0.055097114, 0.09779005, 0.062204305, 0.21094091, -0.073165566, 0.06350603, 0.06070771, 0.06467283, 0.053472947, 0.04355812, 0.04904522, -0.1391714, -0.10701282, 0.10529411, 0.19716108, -0.041372623, 0.17603984, 0.029533908, -0.013536378, 0.0043881256, -0.15648298, 0.08087665, -0.016514516, 0.096158884, 0.09570486, -0.07133664, -0.0063529494, -0.039770354, 0.004293081, 0.0072405883, 0.041523833, 0.09933848, -0.07794309, 0.15478432, 0.22193298, -0.010544697, -0.15433654, 0.19661064, -0.17872304, -0.07155487, -0.16973148, 0.10852422, 0.00050829316, -0.04952145, 0.057327475, -0.045568578, -0.100829646, 0.084497854, 0.016725723, -0.04617887, 0.08365064, -0.10032127, 0.012648977, -0.09374341, 0.030715436, -0.038149238, 0.055181373, 0.013076447, 0.08082913, -0.050055105, -0.09536813, 0.04518023, 0.08618389, -0.054360226, 0.009725004, -0.057005707, 0.069235615, 0.18853623, -0.1067393, -0.0018442621, 0.097810745, 0.08674852, -0.12663561, -0.07391237, -0.02401984, 0.0457975, -0.1415133, 0.013354268, -0.05615149, -0.0064617824, 0.02234331, 0.043544248, 0.01678777, 0.051973596, -0.00081014674, -0.08365963, -0.09652297, 0.014253066, 0.12554531, -0.0405438, 0.04661173, -0.0317137, -0.07301246, 0.07081147, 0.09232709, 0.115985006, -0.05789203, -0.025609113, -0.10468831, -0.054645736, 0.051063515, -0.13097325, 0.06262103, -0.14191312, -0.16417442, 0.069427244, 0.05829179, 0.13967504, 0.14165595, -0.14674158, -0.07977604, 0.15422715, -0.04316954, -0.07547089, -0.13093202, 0.009893611, -0.02261018, -0.05749845, 0.15862675, 0.14337201, -0.16006978, -0.011490259, -0.22581747, 0.13266106, 0.014648267, 0.22047634, -0.072213344, 0.10423524, -0.009573685, 0.11052555, 0.09321665, -0.06819124, 0.045851078, -0.1733685, 0.075230695, 0.08802372, -0.007069089, 0.023532867, 0.14793164, -0.08470457, -0.049381755, 0.046199117, -0.08379886, 0.02041237, 0.15507555, -0.0138404565, -0.19758369, -0.09522432, -0.1265175, -0.13678825, -0.11972317, -0.04457472, -0.15422487, -0.15168531, 0.10319489, 0.19934644, 0.087661974, 0.12993835, -0.20075646, -0.03290916, 0.11251734, -0.18314046, -0.000955369, -0.10605513, -0.05772458, -0.022792479, 0.06738069, -0.04020799, -0.13701443, -0.12960088, 0.04911587, -0.10303381, 0.033337377, 0.10939429, 0.14610948, -0.024327688, -0.25056073, -0.07753332, -0.10295556, -0.052908536, -0.031225294, 0.050515313, -0.112028405, -0.12933631, 0.15704109, 0.063727416, -0.065371156, 0.077013835, -0.25229055, 0.0070746196, 0.09182365, -0.030420935, 0.08354611, -0.12714653, 0.006075455, -0.044693947, -0.14066228, -0.10366812, 0.13260652, 0.034904055, -0.14658776, -0.099306986, -0.26265207, -0.15243101, 0.13029347, -0.07795114, -0.06664508, -0.17370242, 0.1348565, 0.050572205, -0.081688344, -0.04427404, 0.16096842, -0.19220398, -0.1866815, -0.1227335, -0.1396395, 0.016026245, -0.041023098, 0.070387326, 0.13724782, -0.15150225, -0.23090962, -0.035020676, -0.23737177, 0.090875424, -0.06762281, 0.01361901, -0.1684453, 0.06624337, 0.019785177, 0.18753977, 0.19302815, -0.10247221, 0.034397867, 0.14645267, 0.1319154, -0.04735717, -0.045407142, -0.10960593, -0.036723047, -0.07799958, 0.009073567, -0.113915175, 0.09777532, 0.036478702, 0.10201845, -0.072441295, -0.04301733, -0.034282178, -0.09436225, 0.19043909, -0.16312908, 0.04068216, -0.123576604, 0.009502016, -0.054686766, -0.0067630126, 0.06772568, -0.09128699, -0.011105867, -0.014284033, -0.05686731, 0.06298386, -0.019866936, -0.01285801, -0.026840938, -0.033681065, -0.13778274, -0.05038225, -0.0072675403, -0.058938645, -0.035553154, -0.1180954, -0.12455394, -0.043709222, 0.024721557, 0.038582716, -0.059236325, -0.1272341, -0.023120578, -0.092531994, 0.09882567, 0.022489373, 0.073003136, 0.041503552, 0.043637857, -0.12132363, 0.10747653, -0.06927377, -0.044823453, 0.058414616, -0.07410734, -0.06536857, -0.100935124, 0.14690061, -0.13742721, -0.13217048, 0.005571619, 0.037367065, -0.14527018, 0.1811473, 0.12551081, 0.07020234, -0.02157574, 0.13919815, 0.060141586, -0.07989036, -0.13908479, 0.0069380277, 0.065109745, -0.099748604, 0.19540349, -0.05686449, 0.017292334, -0.20233974, 0.057750463, -0.06271902, 0.13581343, -0.15141185, 0.26173404, -0.08627246, -0.16384916, -0.10783773, -0.05460761, -0.14675958, -0.05325515, 0.15146214, 0.032859914, -0.020989802, -0.07231601, -0.19742207, 0.075209476, -0.1502969, 0.019337567, -0.11474606, -0.1831827, -0.07507394, 0.008498987, 0.23887596, 0.19228002, -0.14346085, -0.17645521, -0.06674597, -0.17588863, 0.0127977, 0.10324552, -0.23556742, -0.09795349, 0.22714056, -0.1630839, -0.054771177, -0.106616005, 0.070957, -0.059204765, 0.2551619, -0.15779395, 0.08158874, -0.057015464, -0.0321588, 0.32800215, 0.118915305, 0.020595217, -0.10326975, -0.06891694, 0.18968585, 0.04071859, -0.0711204, 0.10008965, 0.11825422, -0.10884221, -0.106507204, -0.038090535, -0.048121188, -0.032468773, 0.056603085, 0.03119709, 0.10380975, -0.12678806, 0.13653955, -0.0049232724, 0.06506698, 0.04926885, 0.041162048, -0.015158683, -0.08167533, 0.057394367, -0.099692926, 0.011243803, -0.09416475, -0.018114, -0.12937294, -0.054080717, -0.07212621, 0.01792132, -0.070101485, -0.044241354, -0.031208672, 0.122348495, -0.043577623, -0.02198199, 0.0487739, -0.13365339, -0.15501647, 0.033562407, 0.08658855, 0.045107886, -0.020781063, -0.04608999, -0.14380229, -0.08971126, -0.13499321, -0.15885583, -0.026396483, 0.14719209, -0.017625017, -0.25229862, 0.011599856, 0.032245845, 0.07115979, -0.005738546, 0.14705227, -0.100320116, 0.07495981, 0.10621671, -0.11152542, -0.1090594, -0.0204885, -0.04155465, 0.0008020345, 0.052775927, 0.046637557, -0.10154247, -0.0051519056, -0.048216917, -0.03595721, 0.060275655, -0.082787275, -0.06956916, 0.034534037, 0.03355036, -0.06688205, -0.1762909, -0.059049778, -0.10208123, -0.05071452, -0.004601042, 0.0734165, -0.13867143, -0.042556148, -0.0048026443, -0.0595348, -0.14081861, -0.056164313, -0.031632982, 0.12262403, -0.1539195, -0.015067962, -0.01689259, -0.17498109, -0.11063011, -0.023035403, 0.04158694, -0.029378925, 0.04772339, 0.10988952, 0.024546133, -0.030635035, -0.1696423, -0.16703662, 0.11296508, 0.1379893, -0.09533465, 0.050072223, -0.17619845, 0.013730913, -0.016322626, -0.08375335, 0.0062271855, 0.044605404, 0.0034356546, -0.0016730378, -0.06259468, 0.10595349, -0.1700546, -0.0683636, -0.08897626, 0.11270685, 0.10841701, -0.16056703, -0.051683158, -0.041629512, 0.095699534, -0.029374998, -0.102989845, 0.011146122, -0.2585526, 0.050026618, -0.35958794, -0.08805272, -0.12155172, -0.033538487, -0.029467242, 0.0034528924, -0.018747984, 0.05137192, -0.06650432, 0.12747946, -0.21142897, 0.18947925, -0.044099163, -0.08539856, 0.0606116, -0.062761866, 0.19692853, 0.040168855, 0.018891253, -0.13184743, 0.14028946, -0.044681262, -0.117034495, 0.1038528, -0.062854655, -0.14273864, -0.014843366, 0.105251014, -0.042504717, -0.037097484, 0.15693268, 0.34481204, -0.055646226, 0.054813072, 0.1418135, -0.22397272, 0.055875223, -0.16573901, -0.2075118, -0.13590644, -0.050719205, -0.011241255, -0.0095126275, -0.13459586, -0.32153916, 0.013513493, 0.17924088, -0.15606143, -0.269459, -0.06431689, -0.10241803, -0.23397586, 0.14423981, -0.080562286, 0.15345174, -0.2221242, -0.025441362, 0.11279648, 0.14555211, -0.06404391, -0.06677119, 0.038328677, 0.10007293, -0.049560785, 0.0051043965, 0.009855324, 0.014542491, -0.067772135, 0.18300211, 0.1344817, -0.02980797, 0.16526419, 0.11197855, 0.14252251, 0.05432692, -0.06510132, 0.08662733, -0.05772189, 0.021583213, -0.08314504, -0.044773497, -0.057680678, 0.07624791, 0.06546891, 0.14967854, 0.034467507, 0.11215436, 0.08232279, -0.09332702, 0.02292389, 0.10343444, 0.0560831, -0.013165285, -0.15995292, 0.039431266, -0.107143894, 0.086606294, 0.022112349, 0.07314849, -0.09810209, -0.0865618, 0.0012037447, 0.10629059, -0.161606, -0.02747717, -0.035521097, -0.060287863, 0.052990332, 0.059954513, -0.098795675, -0.075267345, -0.051889844, 0.032869983, -0.13888541, 0.032903086, -0.13062261, 0.114416316, -0.044892337, 0.11129254, -0.03421021, 0.07273705, -0.046940017, -0.13814403, -0.1611503, 0.025491582, 0.0019458936, 0.046120986, -0.060205646, -0.15553376, -0.07522811, 0.042756967, 0.13820247, 0.038184922, 0.06643339, -0.04780074, -0.14034845, -0.25516474, 0.15781291, -0.13323042, 0.07493461, 0.005482437, -0.14932372, -0.09867463, -0.105412304, 0.118260734, -0.0060643274, -0.21147107, -0.015001375, 0.024445223, 0.009756883, -0.042509526, 0.056653462, 0.018017149, -0.05668735, 0.065594256, 0.034177184, 0.07392278, 0.0783241, 0.15352161, 0.021501977, 0.0015948381, -0.049014345, -0.08186126, -0.07004213, -0.021953411, 0.059533756, -0.05348328, 0.017074795, 0.0044532483, 0.09970028, -0.022908822, -0.13747446, -0.12570643, -0.05540345, -0.13906083, -0.16888048, -0.078879945, -0.11967942, 0.06354672, -0.13009587, -0.017634152, -0.07975955, -0.042481747, -0.030642068, -0.029610548, 0.10493475, 0.056806784, -0.048331417, 0.09975502, -0.015394142, -0.060930073, -0.010405343, 0.029135302, 0.13323905, 0.02024621, 0.0017916686, 0.08396286, 0.078020826, -0.10021428, 0.07448859, 0.018718801, -0.010926006, -0.035624567, 0.008881327, -0.11318895, -0.09402348, 0.07995584, 0.11369646, -0.06574069, -0.0074249594, 0.10246081, -0.09847895, -0.08286544, 0.12062856, 0.035311278, 0.105223596, -0.037942663, -0.07494338, -0.06392948, -0.06108089, -0.15314527, -0.051715255, 0.096544564, 0.14484948, -0.09173757, -0.06386902, -0.06469613, -0.03968622, -0.13151684, -0.10236628, -0.08062053, 0.039377205, -0.042838443, -0.16206828, 0.15849207, 0.07952924, 0.027665645, -0.050432175, 0.053521197, 0.045722377, -0.16549145, -0.07120151, -0.040308546, 0.022461122, 0.08289568, -0.0009606862, -0.089629136, 0.084431365, -0.1340532, -0.054475427, -0.06123219, 0.056973092, -0.026219957, -0.107009575, -0.015442912, 0.026260579, -0.1536222, 0.0053021945, 0.010327511, -0.09870483, 0.0042240014, 0.0024709094, 0.1736414, 0.15195824, 0.030130817, -0.111020625, -0.10659304, 0.06469417, 0.063414544, -0.009267542, 0.046783883, 0.111944206, -0.053987507, -0.07157022, 0.09553713, 0.12953728, 0.123390056, -0.08183837, -0.034724157, 0.03796316, -0.09755734, 0.0100204395, 0.1095149, -0.16535603, -0.07618893, 0.0013064499, -0.029465776, 0.122093916, 0.042485744, 0.17981417, -0.012936176, 0.0836489, 0.07190759, 0.077467434, 0.03348465, 0.087202586, -0.06555562, 0.12873743, 0.15771875, 0.13592833, -0.05566504, -0.07626894, 0.13276778, 0.07225067, 0.079978496, -0.04187383, 0.09451095, -0.011014588, 0.0385461, -0.07464239, 0.09018341, -0.004648656, 0.0647415, 0.18973714, 0.04180897, -0.116479844, -0.0011880533, -0.04647984, 0.14411616, -0.016454307, -0.026814302, 0.06501611, -0.15056603, 0.14566231, 0.027735889, 0.05510548, 0.056582455, 0.022202726, 0.047106728, 0.107696004, -0.043193538, 0.14170407, -0.036505174, 0.122676626, -0.12875105, 0.07438548, 0.06527175, 0.105969846, 0.007933652, -0.015805474, -0.011231003, -0.12079283, -0.116563156, 0.14550206, 0.09075759, 0.18145715, -0.09325921, 0.013419124, -0.13592982, 0.05027234, 0.14433502, 0.17370778, -0.11350182, -0.045453236, 0.07641913, 0.074984886, -0.016128445, 0.07078173, -0.035903595, 0.10389986, -0.111769, 0.08742246, -0.04233904, 0.038189676, 0.0062219626, -0.0075493064, 0.21553035, -0.030604852, -0.16249216, -0.049390562, -0.050652612, -0.091537304, 0.06193158, 0.062874764, 0.022890043, 0.14593792, -0.13746622, -0.09103273, -0.054225333, 0.037969124, 0.036636144, 0.046817582, -0.0061296886, 0.050356396, -0.11672311, 0.061136674, 0.010191998, -0.019752542, 0.058224097, -0.14012803, -0.048595402, -0.120484985, 0.056482926, -0.06508958, 0.12731366, -0.13396081, 0.019555574, 0.12807083, -0.0430875, -0.10065671, -0.068939246, -0.17589356, -0.019494103, -0.08398594, 0.06459827, -0.14853315, -0.093546815, -0.16350754, 0.02883131, -0.053056836, -0.040593576, -0.08495812, -0.00087746506, 0.033735123, -0.15204062, 0.029329378, -0.033799805, 0.018405171, -0.016147517, -0.11414576, -0.08674101, -0.058688663, -0.014780748, -0.07511858, 0.07600351, 0.09197952, -0.0498686, 0.0215566, -0.16346036, 0.020275278, -0.005462814, 0.08620282, -0.09204942, 0.05792408, -0.061825857, 0.0887232, -0.1532995, -0.022985792, 0.1449572, -0.0006021825, 0.11620498, -0.14099005, -0.09019965, -0.030971816, 0.16650131, -0.17513387, -0.095198676, 0.13015722, 0.04454159, -0.03643016, -0.025517145, -0.057248257, 0.04898576, -0.026782058, 0.092680536, -0.17097186, 0.084002756, -0.040201474, -0.04795671, -0.014550872, 0.14779869, -0.122859664, 0.09846449, -0.020036979, -0.112577826, -0.08215214, 0.00861824, -0.11636035, -0.09153003, 0.1287831, 0.0789792, -0.0753917, 0.012971057, 0.09807445, 0.01707307, -0.05475071, -0.039370984, -0.09904398, -0.16863804, -0.02343405, -0.024979576, -0.15818296, 0.070999175, 0.0052284272, 0.09179, 0.012647155, 0.08505916, 0.101020895, -0.15551566, 0.09113632, -0.028508736, -0.08815575, -0.052976247, 0.045973327, -0.19112508, 0.027213395, 0.002415865, 0.13230948, -0.15740556, 0.09708516, -0.04771318, -0.020240745, -0.026478374, -0.045782983, -0.09110992, -0.11470698, -0.21019037, -0.054759223, -0.07967878, -0.0074555003, -0.24644186, -0.048738886, -0.08194913, 0.068340674, 0.060724992, -0.15801601, -0.19575115, 0.08996953, 0.07601895, -0.11684812, 0.05241499, -0.19229658, 0.045257736, -0.16797814, -0.067439124, -0.075950064, 0.07350053, 0.0396666, -0.12654354, -0.124026954, 0.013001537, 0.16170286, -0.035660874, 0.01075786, 0.14173412, -0.024613064, 0.09977892, -0.16234615, 0.12001946, -0.24373893, 0.051638816, 0.09624964, -0.17017992, -0.088700235, -0.1204428, -0.09286957, 0.028933873, 0.02419631, -0.24611802, 0.2141793, 0.017764399, -0.049092554, -0.09155878, 0.10250968, -0.0066500185, -0.12757792, -0.032227606, -0.01961054, -0.14798562, -0.12888099, 0.10707109, -0.04738706, 0.24758035, -0.1379834, 0.101930685, 0.16360244, 0.096309125, 0.025129184, -0.029668462, 0.0055754017, -0.044103924, 0.18339004, 0.06948611, -0.054105833, -0.03806862, -0.075948834, 0.11469135, -0.095072314, 0.11499433, -0.076475866, 0.002882052, -0.09987283, -0.12063405, 0.053504217, -0.055672977, -0.0337597, 0.058295704, 0.074533656, 0.11853751, 0.10964766, -0.060782343, -0.17722481, -0.14083737, -0.061771564, -0.15280248, -0.052981816, -0.004382845, -0.10602401, -0.14031644, 0.015389375, -0.0072218482, -0.10024938, -0.032438893, -0.09491986, -0.14056444, -0.08121556, -0.13052453, 0.048872996, 0.05353896, -0.061723046, 0.036365647, -0.08121989, 0.050684042, 0.08100045, 0.047950685, 0.10629809, 0.060939282, 0.099114366, -0.025760366, -0.11318668, -0.10744397, 0.037567202, -0.095691286, -0.020944608, -0.0049198996, -0.039674617, -0.1539012, -0.0044587497, -0.04111938, -0.080098376, 0.11996335, -0.13267332, -0.086809926, 0.08569389, -0.1348273, 0.09330399, 0.106432185, -0.07616656, -0.14324452, 0.016578088, 0.05636548, -0.061468277, -0.01916904, -0.0012568941, 0.085402936, -0.13723347, 0.04818752, 0.077967755, -0.061679598, -0.24402022, -0.15698896, -0.027485589, -0.039711755, 0.046410553, 0.0075387247, 0.026387155, -0.06232222, 0.044346284, -0.10849983, 0.09495744, -0.035269625, -0.00806778, -0.09329324, 0.11618811, -0.07482858, -0.112187795, -0.10606177, 0.056910533, -0.02195459, -0.0354345, -0.033529185, -0.14536135, 0.03221055, -0.08856396, 0.018322516, 0.01644531, 0.061432015, -0.16603355, 0.025418943, 0.0068735024, 0.076846674, 0.012370808, -0.04406146, -0.13292094, -0.13569239, 0.033166874, -0.0770104, -0.10501381, 0.0713895, 0.028694745, -0.12853633, -0.0492308, -0.059801154, -0.021628004, -0.074122615, -0.15730259, 0.07722852, 0.2600079, 0.1298667, 0.004863025, -0.103186056, -0.016236452, 0.09001263, -0.124561265, 0.0611957, 0.08843794, -0.05746444, 0.08667998, 0.17744027, 0.09232301, 0.05989744, 0.006729002, 0.14861403, 0.0428562, 0.11007238, 0.15810102, -0.017048, -0.14533412, -0.20828511, 0.017721549, 0.07815821, 0.2217477, -0.052175023, 0.14199741, 0.107740626, -0.09247836, -0.060957868, 0.07480323, 0.17629471, 0.157491, 0.14074168, 0.0655484, -0.15456039, -0.009245889, 0.074183896, -0.10581725, 0.116473086, 0.19699171, 0.045639444, 0.10767904, -0.12625177, 0.10527892, -0.037621804, 0.1436311, 0.15037802, -0.115168735, -0.0071027335, 0.08877519, 0.24224116, 0.08414985, 0.19427767, 0.04321072, -0.03691757, -0.071278006, -0.06963035, 0.13919409, 0.029233975, -0.033383016, 0.058903556, 0.13814808, -0.057712592, 0.09240288, -0.13238958, -0.081825785, 0.061221875, -0.07148804, -0.067993805, -0.07952266, 0.10457617, -0.07521969, -0.031040374, -0.04877436, -0.12174288, 0.007151908, 0.032781404, 0.025422798, -0.058535617, 0.021766469, -0.09346099, -0.017778607, 0.093624234, -0.10326336, 0.03646807, 0.080272466, 0.09885629, 0.048011765, -0.108121045, 0.059383582, 0.012226091, 0.012266566, -0.025878232, -0.05958396, -0.056267682, 0.050030325, 0.091100216, -0.08444728, 0.076323435, -0.14529079, 0.024572644, 0.112719454, 0.029282177, -0.057578288, -0.08328888, -0.036218394, -0.06774789, 0.07366824, 0.08906157, 0.10509179, -0.025922071, -0.03932175, 0.06379594, 0.091691785, -0.008181939, -0.0012676101, 0.023661727, -0.09349447, -0.17094462, -0.045099016, 0.18895818, -0.1000637, 0.06830781, -0.024019757, -0.06589135, 0.071868904, -0.05765986, -0.016523365, 0.08258349, 0.13842086, 0.1277531, -0.22273724, 0.10943168, 0.17111325, 0.07628659, -0.013158952, -0.0957245, 0.05416147, 0.045056615, -0.009298496, 0.03556683, -0.09276321, -0.009484261, -0.13919601, -0.19632609, -0.26936647, 0.11129266, -0.06430385, 0.07275076, -0.08040758, -0.15604733, -0.07575963, 0.13694525, -0.19345823, 0.113680035, 0.02906071, -0.053663544, -0.0026944967, -0.0820819, -0.108270794, -0.009750677, -0.018860757, -0.120643064, -0.10623236, -0.18243507, -0.13123961, -0.041520774, -0.14073709, 0.064573854, -0.16396444, -0.06487241, -0.20027319, -0.2792522, -0.19460852, -0.02537409, -0.099545866, 0.025119107, 0.02911022, -0.09119283, 0.031487413, -0.23252861, 0.028085778, -0.0031204787, -0.07345351, -0.15220691, -0.105888344, -0.035598643, -0.12528953, 0.048150297, -0.020094028, 0.048750702, -0.08237098, -0.016769968, -0.13582215, -0.16588643, 0.07532689, -0.14907566, 0.08657369, -0.055122547, 0.008365335, -0.1189396, -0.09004956, 0.004209332, 0.026364073, -0.11472922, -0.099222414, -0.11993504, -0.10137989, -0.07918327, 0.1664156, -0.09988677, -0.048952404, -0.033489127, 0.05151812, -0.003520449, 0.13448937, -0.007786225, 0.057543512, 0.0011606344, -0.056639068, -0.17183991, 0.12306698, 0.093474396, 0.015606322, -0.196362, 0.013112674, -0.09424626, -0.20200282, -0.05786379, 0.13160577, -0.026834294, 0.021502491, -0.2048819, -0.2593403, 0.09885644, 0.14137313, -0.047373172, 0.12142445, -0.11829031, 0.024060702, -0.04896819, 0.10736534, -0.118466295, -0.18259588, -0.13415979, -0.024801781, 0.03510696, -0.06177887, -0.0099121025, -0.1964001, -0.064151995, -0.056763157, 0.06434182, -0.16338532, 0.05026717, 0.027137443, 0.046862118, 0.13091636, 0.0024081354, -0.10965332, 0.14575703, 0.110976435, 0.11498031, -0.008806312, -0.017563699, 0.077183135, -0.015813809, 0.11098533, 0.1164956, 0.01325118, 0.12050301, -0.06486446, 0.037923515, 0.009320132, 0.18961395, -0.111524336, -0.021277897, -0.03219684, -0.11435274, -0.059194647, -0.0730369, -0.029227385, 0.09290027, 0.0573361, 0.04088843, -0.0058963695, -0.070605926, -0.14900166, 0.19764231, 0.05074139, 0.060931757, 0.028085101, -0.17404465, 0.00028944298, 0.1574719, 0.003685471, 0.030405777, -0.057815257, 0.15321709, -0.052852172, 0.018362086, -0.052834824, 0.011023795, 0.12716228, -0.07110325, 0.058979046, 0.08227643, -0.021519072, -0.096123226, 0.071552195, -0.1741072, 0.026116317, 0.03565047, 0.03712162, -0.14711668, -0.06857795, -0.03595553, -0.018224217, -0.024677036, -0.08525699, -0.009630532, 0.18868436, -0.045968488, 0.04025951, -0.11427227, 0.007636786, -0.1499113, -0.19034253, 0.004983728, 0.013058695, -0.019974558, -0.093076654, -0.08213674, 0.12578923, 0.007231025, 0.014282558, -0.12236668, -0.1451983, 0.0033445698, 0.10769003, 0.112765424, -0.10574248, 0.019699441, 0.1651836, 0.033457264, 0.08354211, 0.032032404, -0.09154277, -0.10713538, -0.083794355, 0.013309848, -0.12879765, -0.13731821, 0.07271024, -0.049473222, -0.049266443, -0.11630775, -0.1791974, 0.03212726, 0.03414036, -0.037238367, -0.07952852, 0.01876967, -0.17137328, 0.16556758, -0.11497386, -0.05232943, 0.12546906, 0.054972254, 0.14111914, 0.12777357, -0.080542125, -0.07390552, 0.11426284, 0.007311416, 0.04565982, -0.12835707, -0.050381716, -0.23639068, 0.017990805, -0.21704458, -0.117217764, 0.12773328, 0.03288079, -0.11356561, -0.10943714, -0.017372286, 0.033868656, 0.09922669, -0.1387788, -0.014367799, -0.11714831, 0.06272804, 0.036311753, 0.24609102, 0.07345784, -0.17432842, -0.027881624, -0.12045008, -0.023399614, 0.07391267, 0.09813374, -0.08792351, -0.14257044, -0.0046814275, -0.0739098, -0.028728029, -0.13603619, -0.06853457, 0.13707867, -0.01547005, -0.14067994, -0.043093666, -0.04712942, -0.0036411567, -0.13765274, 0.028857242, 0.11508646, 0.056711268, 0.10038236, 0.07131267, -0.13390815, 0.011791933, 0.15084311, -0.10618358, -0.1838963, -0.05295867, -0.10585548, 0.08729638, 0.1887948, 0.074854456, -0.07010172, 0.025269575, 0.15233527, -0.07076368, 0.010987391, -0.037126537, -0.07290271, 0.13533977, -0.13566583, -0.14542624, -0.049658637, -0.03521414, 0.023965823, 0.04936236, -0.009425154, -0.04941778, 0.016721763, 0.097137846, -0.124485925, -0.18810375, 0.071600355, 0.014434285, -0.07367559, -0.14308, -0.13402751, -0.07437234, 0.1384784, 0.11246976, 0.11488495, -0.00022268506, 0.061722506, 0.05932649, 0.07337248, -0.09766509, 0.18603902, 0.09449042, -0.060671143, -0.14550096, -0.087077, 0.08719946, 0.18442124, 0.017556274, 0.057817858, -0.10795648, 0.07896823, -0.12107853, 0.13452937, 0.058481727, 0.0021405928, -0.09275917, 0.0019402464, -0.0103047155, 0.0926788, 0.12491871, 0.013396619, 0.027476659, 0.036863487, 0.009389978, -0.117226005, 0.06158497, -0.13072069, 0.07964011, 0.0849739, -0.091579184, 0.07888986, -0.013895996, 0.05805792, 0.0778591, 0.18919888, 0.18332404, -0.0029119477, -0.045633562, 0.15763699, -0.16548626, -0.1166035, 0.02483775, -0.029986383, -0.17364721, 0.0044628964, 0.12306333, 0.18074314, -0.004315755, 0.14496984, 0.03626205, 0.054410607, -0.06407596, -0.09457575, 0.1959091, 0.13002752, 0.02105497, -0.05040367, 0.07780757, 0.15815479, -0.022343747, -0.009599627, 0.259559, 0.062059727, -0.03121184, -0.05605954, 0.0077007236, -0.08112957, 0.1712351, 0.068524264, 0.03128202, -0.13636675, -0.0010202915, -0.16917194, 0.09214243, 0.017506339, -0.043864124, -0.07031636, -0.017208433, -0.15080479, 0.077401385, 0.11229614, -0.11277298, -0.18460347, -0.17323954, 0.09141932, -0.108968966, -0.022033598, -0.26889426, -0.043650717, -0.17144863, -0.12036156, -0.16354623, -0.1746127, 0.12335305, -0.26492944, -0.16227396, 0.14693663, 0.0788612, -0.18631946, 0.025009438, 0.2296409, -0.14749299, -0.05482746, -0.12294606, 0.21518837, -0.14175761, -0.090227, 0.08206741, -0.18345983, -0.14093477, 0.015527356, 0.026016487, -0.19867425, 0.043972723, 0.12815204, -0.19084236, 0.026616037, -0.02225679, 0.08405072, 0.07782022, -0.12783255, 0.09113248, -0.15299122, -0.08601885, -0.034862205, -0.03732269, 0.09672195, -0.007570661, 0.18855013, -0.067017056, 0.043424033, 0.011749625, -0.093599424, 0.017788919, 0.069008514, 0.08255305, 0.124598876, 0.026641028, -0.06409396, -0.028040143, 0.063259244, -0.0528421, 0.080154866, 0.0067956485, 0.114927314, -0.0298299, 0.0067100655, 0.11584936, 0.18576513, -0.07323899, 0.067592, 0.041374963, -0.12847951, -0.107265465, 0.10794715, -0.017126782, 0.063384734, -0.14856808, 0.029682651, 0.27074394, -0.0020594497, -0.15417872, -0.06752801, -0.06753459, -0.014498658, 0.15185982, -0.044621658, 0.08218875, -0.12404595, 0.12954344, 0.17586175, 0.02620486, -0.084632844, -0.014143991, -0.08232686, -0.17011012, 0.10545571, 0.00023316115, -0.16741155, -0.19111939, -0.0137166185, 0.023100905, -0.007942315, 0.008085651, -0.06374943, -0.21932209, 0.087517545, -0.0079411995, -0.059210267, -0.07131439, -0.10704416, 0.21238647, -0.15569672, -0.036422133, -0.074246764, 0.050388046, -0.16250746, 0.038794857, -0.1753949, -0.04810832, 0.004448118, -0.19753128, -0.07147067, 0.119667225, 0.0031677722, -0.05066774, -0.10392244, 0.10147723, -0.14256099, -0.05151986, -0.11455675, -0.105717696, -0.076615915, 0.079726875, -0.047709875, 0.015233316, 0.06376311, -0.06833617, 0.20347594, -0.19427848, -0.16071413, 0.008608345, 0.014260362, 0.21866965, -0.11930967, 0.10769616, 0.07152147, 0.020648021, 0.16528864, -0.09585558, 0.02781621, 0.112350814, 0.15066405, 0.016490063, 0.039127067, -0.024628447, 0.17039399, -0.07413163, -0.096557006, 0.1558869, -0.09843034, -0.16388586, 0.07163995, 0.19894277, -0.026656844, -0.22987121, -0.030126322, 0.002589547, 0.103691846, -0.07742871, -0.00030327908, -0.006140125, 0.013327, -0.031513445, 0.20380431, -0.071343936, -0.056898635, 0.046833675, 0.13065732, 0.045340475, 0.0022547874, 0.15765992, 0.10283656, -0.010030412, 0.129056, 0.045016546, -0.07802449, 0.0052573755, 0.12036056, -0.035063893, -0.07016976, -0.088642746, 0.028828042, -0.09236346, 0.06981296, 0.085544676, 0.019447053, -0.12688869, -0.0782308, 0.088540606, 0.16361679, -0.017286293, -0.14567383, -0.045343947, 0.007953477, 0.09882755, 0.17740062, 0.12613429, 0.06236136, -0.02651193, -0.04378064, 0.07613328, -0.047365755, -0.11035035, -0.038375746, 0.011931312, 0.07570151, 0.18296954, -0.09280743, -0.119997285, -0.047134552, 0.12533389, 0.0134550845, -0.004816898, -0.0944437, 0.0677795, 0.05168591, -0.010947383, -0.043246444, -0.021472381, 0.08145259, -0.047735367, -0.1388647, 0.124571845, 0.038929075, 0.033938456, 0.0107718855, -0.18699032, -2.9419069e-05, -0.07127943, -0.00437393, 0.037311167, -0.07185549, -0.17342769, 0.009463348, 0.16391924, -0.037910417, -0.07618114, -0.08456139, -0.06483406, -0.1321338, -0.014460141, -0.058195192, 0.10926442, -0.08637826, 0.016719818, 0.12159994, 0.09181429, -0.020289818, -0.10403417, -0.144766, -0.01577208, -0.18529314, 0.014169006, 0.054874852, -0.04687618, -0.03955284, -0.03875253, 0.023131305, -0.06707912, 0.04296027, 0.045078438, 0.04167286, 0.05155918, -0.0016671653, -0.12296605, 0.09270507, 0.046260327, 0.09216443, -0.1302397, -0.06282544, -0.16272835, 0.11460773, -0.06705334, 0.053856943, -0.021028899, -0.034639537, -0.015525029, 0.07233398, -0.042287625, -0.016191764, -0.09989542, -0.017395254, -0.09542042, 0.09863914, -0.11535406, 0.055851348, -0.042583033, 0.06448996, 0.024595326, 0.06267359, 0.057422392, -0.019241758, 0.1659961, -0.024073094, -0.08216216, 0.0820076, 0.10658405, 0.03358483, -0.084037706, -0.10408158, 0.046822958, 0.13197999, -0.08889212, -0.037929084, 0.051816788, 0.006786468, 0.09032725, 0.1437455, 0.12481204, -0.17606844, -0.08675362, 0.004570841, 0.0816826, -0.1738692, -0.055190384, -0.06613805, -0.2866624, -0.03905569, -0.037526585, -0.013569973, 0.104214564, 0.0984748, -0.033854462, 0.021221597, -0.01601495, -0.018404532, 0.083590485, -0.25178605, 0.082880504, 0.02626351, 0.02349499, -0.18240656, 0.06473997, 0.11087281, -0.026469529, 0.06823606, -0.07934149, -0.05409284, -0.009970948, -0.17637958, 0.0037933942, -0.11209269, -0.02544211, 0.17746209, -0.0109447995, -0.08161324, -0.114732474, -0.16862692, 0.13405977, -0.08610925, 0.059376623, 0.031208733, -0.23537472, -0.07909815, -0.058695305, 0.07818378, 0.015545656, -0.06699504, 0.05918887, -0.032387286, -0.21305034, -0.11718355, 0.036388747, 0.18200178, -0.13456732, -0.041161794, -0.09446414, -0.039088175, 0.00050615263, 0.024335107, 0.017502444, 0.1723051, -0.015335289, 0.123090915, 0.17762625, 0.11626389, 0.1266224, 0.041319676, -0.093530774, 0.07489406, -0.075157166, -0.062517315, 0.08511416, 0.11140974, 0.114413954, 0.0665718, -0.0427416, 0.01601932, 0.11187063, -0.12816562, -0.10241222, -0.13139634, -0.08407979, 0.09556798, -0.10771963, -0.013903895, 0.047252752, -0.15590982, 0.018534884, -0.014039416, -0.09820744, -0.015337459, -0.10234313, 0.066598825, -0.08157971, 0.029744461, -0.09276582, -0.012548482, -0.07717382, 0.078707814, -0.024175402, 0.12312959, 0.07228912, 0.07710626, -0.017990898, 0.03230416, 0.14769635, -0.083287716, 0.07745201, -0.06796957, 0.030132059, -0.0058842227, 0.046330065, -0.0052932664, 0.025214761, 0.12103687, -0.13808249, 0.017720267, 0.040005714, 0.09216614, -0.06593376, 0.11051221, 0.16704889, 0.070788816, 0.011683954, -0.06912777, 0.11274803, -0.02280014, 0.18281811, -0.05667636, -0.08662716, -0.092616454, 0.13100372, 0.12282986, 0.14842378, 0.10686233, 0.0657157, 0.1898926, -0.032583263, 0.12461593, 0.11064926, -0.029601106, 0.17366402, -0.031877756, -0.11241118, -0.08238238, 0.11389303, -0.12528361, 0.13121551, 0.083306625, 0.011925298, -0.046541154, 0.05547053, -0.0070863585, 0.14071766, 0.05279897, -0.056542326, 0.1381526, -0.05031772, 0.10425176, -0.08278504, 0.13881512, 0.05540121, -0.15068938, 0.048541438, -0.032718275, 0.09340751, 0.049152583, 0.053067427, -0.03652244, 0.013676866, -0.13039586, 0.15014046, -0.016583273, -0.16110493, 0.067404784, 0.07381517, -0.13422392, -0.045013215, 0.074547194, 0.08069903, 0.19713084, -0.12893811, 0.0601464, 0.023274269, 0.045676894, -0.08944188, 0.15099841, 0.05489372, 0.1899888, 0.009801524, 0.043151304, -0.03420398, 0.10872161, -0.0024625815, 0.037341617, 0.03347804, 0.093331024, -0.037679482, -0.085397564, -0.01999736, -0.09074344, 0.21166928, 0.015382407, 0.010763964, 0.031394742, -0.13508528, -0.08371353, 0.19697957, 0.054615617, 0.06883183, 0.032435276, -0.05279012, 0.061074693, -0.04406946, -0.16159746, -0.033383034, -0.18683685, -0.1925897, -0.05228181, 0.017425783, -0.1580316, 0.11489935, -0.099258766, -0.11976616, -0.060096942, -0.06590457, 0.039257806, 0.035744846, -0.061642524, -0.031455155, 0.057597164, -0.05911031, 0.062379297, 0.030608125, -0.15400833, -0.11604897, 0.03883312, -0.08848397, -0.0013201158, 0.056955412, 0.0068405895, -0.10557595, 0.0059978925, 0.08974912, -0.1482179, 0.096306674, -0.09859492, 0.07773476, 0.0897793, 0.06358368, -0.05193182, 0.04732517, -0.020549685, 0.050715312, -0.027866384, 0.14273317, -0.06350833, -0.08857062, -0.061623737, -0.07338361, -0.107178286, 0.08784904, 0.017508699, 0.0767714, 0.024754087, 0.032909457, -0.02402342, -0.11602068, -0.1786682, 0.085108824, -0.067433484, -0.04823211, -0.04686155, -0.07260117, 0.092447035, 0.039669733, -0.04621654, -0.011909374, -0.0723921, 0.04369441, 0.12805983, 0.018517487, -0.1368977, 0.0073932256, -0.3381013, -0.1827815, -0.17172961, -0.044139378, 0.090188235, -0.14044134, 0.23275264, 0.104874626, 0.16943392, 0.046316106, -0.34151554, -0.02088868, -0.033916526, 0.017574517, -0.0002869556, -0.074883126, 0.030563746, -0.070645735, -0.22191471, -0.1638003, 0.042476606, 0.18143706, 0.005089277, -0.14968464, -0.028070232, 0.071198516, 0.050585076, -0.19758816, -0.07490588, 0.08896029, -0.116796605, -0.0065168133, -0.11656417, -0.13526374, -0.07597965, 0.071928, -0.024975393, -0.20289135, 0.15631898, -0.059929576, -0.10370411, 0.019950146, 0.06971367, -0.11524683, 0.081326716, -0.01654448, -0.08837636, 0.008223852, 0.088705815, 0.25454357, -0.01765986, -0.25705877, -0.12351357, -0.13202544, -0.054545984, 0.1708069, -0.059293553, 0.0036482993, -0.08977923, 0.0039249435, 0.10806777, 0.17220263, -0.1634536, 0.012625184, -0.06103852, -0.095675506, -0.12876563, 0.03763786, -0.0021460988, 0.023402715, -0.084230945, 0.15568943, -0.009217095, 0.0052159945, 0.17109309, 0.0924956, -0.08921427, -0.009388361, 0.09130372, 0.13292488, 0.06110416, 0.088955715, 0.10535639, 0.069047086, 0.06763512, -0.009274419, 0.10649589, -0.082819045, -0.041196153, -0.110636055, 0.0921483, 0.118804075, -0.012000852, -0.031138564, -0.02839479, 0.055269204, 0.089197606, 0.16093116, 0.09651183, 0.15389629, -0.06961667, 0.09094337, -0.1815924, 0.041758113, -0.1118779, -0.0589008, 0.01586169, -0.17056082, 0.005302874, 0.03718835, -0.083751194, -0.066921405, 0.008243364, 0.24305983, -0.119911574, 0.10855409, 0.05567908, -0.005020857, 0.085008845, 0.12801792, -0.030336011, 0.16425519, 0.015928233, -0.050393768, 0.012873025, 0.011706828, 0.20106179, -0.039740965, -0.16369571, 0.055014525, -0.1176028, 0.087517545, 0.13116926, -0.03223623, 0.07302024, -0.03140237, 0.055924214, -0.014439407, -0.07726928, 0.0021789847, -0.16238143, 0.10263901, 0.16260403, 0.034490086, -0.03591355, 0.18239303, 0.041046396, -0.1600165, -0.027411703, 0.010505027, -0.027168386, 0.08826525, 0.07450105, 0.050943386, 0.11624193, 0.05416083, -0.06707426, -0.00015503958, -0.102292754, -0.12319094, 0.14911315, 0.02959602, -0.045055825, -0.040265936, -0.15688872, 0.021679627, 0.0813564, 0.12609656, -0.051660642, 0.124841504, 0.16157088, 0.058989804, -0.0005556105, -0.010574849, -0.12052935, 0.08559151, 0.024606323, 0.004332649, -0.013464272, 0.008182302, 0.061786674, 0.052133396, -0.038734, 0.107373066, -0.09648617, 0.065502636, -0.11602662, 0.10494108, 0.12079821, 0.09149991, 0.024096886, -0.12451037, 0.0042819506, -0.123823196, -0.23587218, 0.045595292, 0.009448663, -0.10940266, -0.07999643, 0.0022343062, 0.035001826, 0.06741314, 0.06201089, 0.07915472, -0.1359415, 0.0015535139, -0.0322001, 0.0024921875, 0.20557943, 0.08872058, 0.056876484, 0.07080133, 0.08427213, -0.08215541, 0.1943376, 0.17177333, -0.14205539, 0.037903264, -0.027575541, -0.030869348, -0.1068758, 0.007985363, 0.035691172, -0.0015069956, -0.10830421, 0.118986025, 0.01120524, 0.09292667, -0.12493673, 0.22350034, 0.15161394, 0.02973515, -0.015562067, -0.019873546, 0.0052933656, -0.13185215, -0.011427889, -0.13612033, -0.07481622, -0.025046166, 0.104888804, -0.030316439, -0.1207875, 0.048854735, 0.14042412, 0.14248538, 0.074543834, 0.17069408, -0.02483314, 0.09272206, 0.022570763, 0.15157838, 0.11858931, -0.144914, -0.0659404, 0.08732399, -0.11477864, 0.06644581, -0.10413332, 0.017729657, 0.10932687, -0.11379413, 0.032110136, 0.057571568, 0.13142584, 0.0025973709, 0.10584324, 0.0006563745, -0.103800096, -0.15015435, 0.12339921, 0.09105668, -0.07381846, -0.11325243, 0.11571085, 0.017998261, 0.09051606, -0.07062768, 0.09505172, -0.05789154, -0.11274993, -0.0065655415, -0.0408621, 0.080030814, 0.111358225, -0.06669243, -0.015750546, -0.05327181, -0.077306055, 0.10492382, -0.102980494, -0.09947792, -0.16333035, -0.08114476, -0.013993822, 0.0311232, -0.0036815526, 0.13465892, 0.012143218, 0.061810397, -0.044314615, -0.1367924, 0.1262137, 0.11157582, -0.11118983, -0.101982065, 0.14647245, -0.06509542, -0.116274334, 0.13014783, -0.06931787, -0.042913232, -0.0061286194, 0.013246948, 0.0035300269, 0.03769817, -0.040964466, -0.018752262, 0.04566061, -0.11741075, 0.028596295, -0.010373407, -0.035303853, -0.050581418, 0.07017566, 0.0063815373, 0.18215634, 0.044657327, -0.0723075, -0.1807078, 0.06109168, -0.21195237, -0.048842918, 0.027106836, 0.00057823455, 0.03671037, -0.044945497, -0.055328198, -0.13195975, 0.047665868, 0.07615272, -0.024887955, 0.107947916, -0.012528544, -0.162969, 0.0008687732, -0.051364575, 0.062494274, -0.03923916, 0.1704359, -0.09539689, 0.019491209, 0.054118596, 0.0126189375, -0.09388069, 0.03111584, 0.0630147, 0.035019815, 0.005544108, -0.08142789, 0.09446047, 0.11119662, 0.022803636, 0.04124362, -0.09922981, 0.007164597, 0.07293054, 0.06840306, -0.012566653, -0.13212347, 0.15643947, 0.13478167, 0.13022661, 0.04321747, 0.047048174, 0.10413418, 0.10374484, -0.021279886, -0.058772594, 0.07091944, 0.012886619, -0.02398372, -0.039145563, -0.10106707, 0.24652922, 0.085708804, 0.14269736, -0.12964422, 0.065674625, 0.11658591, 0.067531, 0.0047547403, 0.023133736, -0.18481705, 0.22437732, 0.082796626, 0.21800187, -0.01954996, -0.063020125, -0.039118, 0.16009744, 0.05058782, 0.11209204, 0.070812315, -0.019349704, -0.16401361, -0.030245231, 0.1900437, 0.09264844, -0.08857987, -0.17622712, 0.14131437, -0.17757739, -0.08255629, 0.22620045, 0.071403876, -0.07192012, -0.053862568, 0.25328082, -0.08843092, 0.21498212, 0.11801993, 0.0041274214, -0.011481394, -0.129251, -0.03608675, -0.06823656, -0.07047062, -0.28753537, 0.050713986, -0.038587075, -0.024556976, 0.085224345, -0.23605524, 0.05250015, 0.20327967, 0.17710386, 0.14549893, -0.08232816, -0.043444708, -0.092751704, -0.23202616, -0.051822703, 0.11381385, -0.1930013, -0.02744711, -0.029553514, 0.044640157, -0.1342691, -0.21232289, -0.07144015, -0.09034604, -0.023110801, 0.036666814, -0.0013418695, 0.14030573, 0.05342101, 0.060813043, 0.031603407, -0.03473426, -0.09348121, 0.043347243, -0.07680136, -0.07343623, -0.045306567, 0.08471863, -0.06543877, 0.056654137, -0.06154113, 0.114493, -0.13667275, 0.039001152, 0.05681919, -0.15316641, 0.031697292, -0.023518585, 0.049350083, 0.16685364, -0.03767373, 0.13008848, -0.1049142, -0.07998696, -0.043084174, 0.1722528, -0.07015585, -0.060858373, 0.051242188, -0.058078244, -0.06886841, 0.043867126, 0.036999065, -0.072816856, 0.22548403, 0.12913354, 0.009339101, -0.08585462, -0.10911966, 0.15111084, -0.2781941, -0.05279764, 0.09344559, 0.100168444, 0.057114832, 0.1391007, -0.03448755, 0.1314575, -0.005038215, 0.016755413, 0.10629718, 0.04922887, -0.051274132, 0.035878725, 0.06086043, -0.014052222, 0.13927123, 0.06917533, -0.0047027813, 0.24260922, -0.0844294, 0.15224278, 0.16500145, 0.062855095, -0.12548165, 0.0067544035, -0.061493862, 0.015321854, -0.009017677, -0.033955738, -0.16642623, -0.013531119, -0.0714664, -0.052238416, -0.075532, 0.07477722, 0.081661254, -0.036807206, -0.17136642, 0.077257924, -0.04526425, -0.05213048, 0.006831918, 0.020705841, -0.098215126, 0.08422486, 0.06699526, 0.023779731, -0.061018266, -0.04929929, 0.040548276, -0.058419917, -0.099379584, 0.1720328, 0.12061041, 0.057355877, -0.11617964, 0.0064067724, -0.06961017, 0.10083834, -0.16836485, 0.091380015, -0.022902578, -0.13926235, 0.0054997583, 0.17500666, -0.08247953, 0.047574863, 0.11726643, 0.13703348, -0.11687103, -0.10447966, 0.16504288, -0.27251062, 0.081563435, -0.05627518, 0.015650438, 0.07841811, -0.0150558585, 0.061138693, 0.094167665, -0.032615088, -0.07692729, 0.09676379, -0.03173217, 0.09031614, 0.13577035, -0.074914955, 0.14947578, -0.12833697, -0.059963934, 0.09737685, -0.07042779, -0.055758215, -0.093813755, -0.013755154, 0.035783153, -0.07566249, 0.067454256, 0.12338174, 0.18020424, 0.15419815, -0.092669584, -0.047999244, 0.029965863, 0.026876133, 0.05756691, -0.07409713, 0.08397835, -0.13992262, -0.04899793, -0.14861962, -0.13388748, -0.03502201, 0.08412021, 0.059593614, 0.11693965, -0.16204044, -0.06634334, -0.06953287, -0.0322937, 0.12903288, 0.043142926, -0.06393254, 0.00773313, -0.08726997, 0.0089010345, -0.006823898, -0.07970761, 0.11535671, 0.08141053, 0.15774162, -0.1341289, -0.012368455, -0.082413085, 0.025724076, 0.038929608, 0.08295017, 0.015788738, -0.09786925, -0.1001044, 0.066856846, 0.053542953, 0.06943428, 0.0776621, 0.076324575, 0.037089974, 0.006045564, 0.10274196, 0.026450275, 0.15653071, 0.025556024, -0.040160213, -0.04332378, -0.14004068, 0.0020680344, 0.106904104, 0.15533535, -0.21387474, -0.07824657, -0.018880498, 0.002022577, -0.037539985, -0.02650883, 0.06681825, 0.039217032, 0.13231277, 0.02134273, -0.12206391, 0.0798058, -0.096711315, -0.03248181, -0.017781353, 0.09957617, 0.17784357, -0.0052267155, 0.043378387, 0.051088106, 0.1022737, -0.039918352, 0.038947012, 0.00019677545, 0.10635679, -0.03259152, -0.20253861, 0.08756313, -0.046109322, -0.0055264537, -0.16581458, -0.03472702, 0.1000712, 0.04982712, 0.15050682, 0.056409553, 0.03945256, -0.098453045, 0.04779969, -0.15696184, 0.10255062, 0.045215234, -0.04030787, -0.0049409093, -0.20928818, 0.1229154, -0.044290096, -0.051024854, -0.017506076, -0.101721615, -0.08613584, -0.05611351, -0.05617304, -0.10429816, -0.1923747, 0.18611987, -0.0068525043, 0.19546139, -0.15275647, -0.11032293, -0.013487568, -0.013413415, -0.041592497, 0.02921369, -0.11401567, -0.093523696, 0.07709767, 0.03194265, 0.13215585, 0.08662458, -0.05834415, -0.047738355, 0.15699634, 0.10534244, 0.17645207, -0.031169282, 0.07644358, -0.007914407, 0.006716242, -0.067075215, -0.06022639, -0.19666034, -0.15157819, 0.2034278, -0.025072843, 0.04914809, -0.1464828, 0.114046164, -0.15427291, 0.010158095, 0.1152821, -0.035855245, 0.11467034, 0.23633075, -0.06806481, 0.078446805, 0.20021203, 0.08547798, 0.0077235065, 0.05400936, -0.1337904, -0.050841425, -0.09089944, 0.018064938, -0.08983339, 0.21732138, -0.04109878, 0.0122463945, -0.0787066, -0.15465954, 0.110597186, -0.04890536, 0.03207198, 0.09364902, 0.13741663, -0.033019077, -0.08578253, 0.06598716, 0.1406106, -0.05171678, 0.12214697, -0.07070496, 0.037946984, -0.17932329, -0.04481861, 0.0030508481, 0.15285969, 0.08004998, 0.15867527, 0.0072906525, 0.082117125, 0.055281, 0.04803336, 0.07088658, 0.12482293, 0.07103573, 0.09176661, 0.012851111, 0.066864, -0.053685147, 0.04116047, 0.10369173, -0.062972955, -0.0025925043, 0.011570485, 0.08532094, 0.23611051, 0.13044938, 0.17143995, 0.13317029, -0.025562687, 0.155469, 0.16943003, 0.054055844, 0.2047524, -0.11439267, 0.045823142, 0.11513963, 0.16544008, 0.21663854, 0.12897055, 0.029111827, -0.013060922, 0.18165785, 0.009780744, 0.123199336, -0.12072397, 0.045833845, 0.16935149, 0.049295552, 0.12690671, 0.12392295, -0.11894892, 0.11403942, 0.07486837, 0.061058108, 0.049379233, -0.027710786, 0.18840666, 0.0144275855, -0.09529517, -0.033643547, 0.105924055, -0.0036964456, 0.042502545, -0.022483995, -0.031451736, -0.053074367, 0.015845457, -0.09296497, 0.06457376, 0.06649279, 0.06712287, 0.020383947, 0.040703513, 0.15237524, -0.036665723, 0.008940781, -0.04250612, -0.109822124, -0.10762746, -0.18241788, 0.08522873, -0.056954976, 0.041027572, -0.15782872, -0.13610171, -0.050038766, 0.071996994, -0.073882066, 0.12862884, -0.0037194362, -0.0024186794, -0.13385716, -0.03687615, 0.040969998, -0.054183446, 0.001332155, 0.18742384, 0.0890524, 0.06934716, 0.08672812, 0.19149786, 0.13822946, 0.01732108, -0.044154633, -0.013993191, 0.20337588, 0.0876662, 0.085113816, 0.0833673, 0.032923516, 0.21955866, -0.10568542, -0.062248554, -0.078347325, 0.04932137, 0.0020830783, 0.020311289, 0.08949209, 0.08939313, -0.10644579, 0.15158296, 0.0380567, -0.09272706, 0.039608464, 0.15726799, 0.08698114, 0.035886433, -0.03556216, 0.0796365, -0.043808576, 0.011138216, 0.08160583, 0.22526774, -0.022562835, 0.053193077, 0.055558182, 0.0040077274, 0.09622663, 0.02687643, 0.057250667, -0.089327745, 0.06993185, 0.08278977, 0.101539604, 0.0076636304, 0.11596981, 0.10251315, -0.12328488, -0.0005799609, 0.11270464, 0.121833436, 0.006645691, -0.087489575, -0.10665618, 0.03381708, 0.042043786, -0.05297701, -0.083647475, 0.02569463, 0.18460181, 0.16452037, -0.20009263, 0.058842476, 0.023755664, 0.15652063, -0.015901355, 0.017261578, 0.094927, -0.12669513, 0.124081105, 0.23204358, 0.19640379, -0.062489346, -0.052197643, 0.17529036, 0.037675302, 0.053268082, 0.029512104, 0.03664358, 0.17898044, 0.30477744, -0.0050301505, -0.05890101, -0.11244412, -0.12443176, 0.089117505, -0.116156675, -0.053401943, -0.037837338, -0.0029295469, 0.11602922, -0.121215634, -0.041574404, -0.042922944, 0.03512142, 0.05027668, -0.03739102, 0.12303452, 0.07852858, 0.02610504, 0.13931921, 0.019519363, -0.06273967, 0.107255384, -0.031723626, -0.02930583, 0.024404436, -0.08287971, -0.0968784, 0.05419202, -0.07853694, 0.12509172, -0.04367351, 0.06726828, 0.0613522, -0.03857261, -0.15566698, 0.018035544, 0.044378795, 0.046884988, -0.094761156, 0.0070488467, 0.020661606, 0.06835269, -0.020226855, -0.16422974, 0.15369047, -0.071362376, 0.15447986, -0.0028781297, -0.12167209, 0.11159877, -0.18038376, -0.06210427, 0.0053465185, 0.0657041, -0.009910984, 0.077003606, -0.09717678, 0.15933289, -0.11091353, 0.10399411, 0.009501779, -0.042956937, 0.1145672, 0.101481766, 0.051562715, -0.03795186, -0.28898764, -0.11897636, -0.10884804, 0.050866794, -0.11814995, -0.00921037, 0.049752284, -0.09266194, -0.094820574, -0.062675245, 0.13496877, -0.18449011, 0.121286385, -0.07532172, -0.094158344, 0.039453633, 0.04686176, -0.13794164, -0.0034488335, -0.16567384, 0.07339242, -0.064124234, 0.18458493, 0.048676718, 0.14773744, -0.09266207, -0.0028707823, 0.14348985, -0.083403245, 0.21235725, 0.005781831, -0.26312724, 0.008113043, 0.031737838, -0.16997625, -0.1214535, -0.10504975, -0.11520785, -0.17548093, -0.029118825, 0.09037211, 0.0061915177, -0.15458009, 0.055237655, 0.033770334, -0.042190596, 0.039471384, -0.05497367, 0.18513653, 0.057019364, -0.08253099, -0.09419836, 0.027992498, -0.1479021, -0.1930828, 0.15112318, -0.1602713, -0.039330743, 0.06625674, -0.22299542, 0.04223012, -0.045250546, -0.019208945, 0.012471454, -0.25917488, 0.08546615, 0.0040637203, 0.010885661, 0.1648934, 0.068230465, 0.04712147, 0.04170154, -0.091922805, 0.019663414, -0.08618184, -0.05046704, 0.006753315, 0.061868537, -0.1340784, -0.12767895, -0.1705465, -0.02132297, -0.08472733, 0.04962659, 0.16494203, -0.23186943, -0.05711398, 0.21232747, 0.008908315, -0.03572055, 0.034971703, -0.098865844, -0.1694321, 0.008537288, 0.08316186, -0.21858576, -0.14852037, 0.045841202, -0.019356625, 0.0710509, -0.1053441, 0.07213007, 0.022765188, -0.05338351, -0.22928035, 0.18705045, -0.08845175, -0.064516805, -0.23539108, -0.21801107, -0.10222202, -0.13303722, 0.21025664, 0.04721285, 0.0042144773, -0.035366837, 0.13929667, -0.021868816, 0.032428462, -0.02210958, 0.05744426, -0.23380423, -0.09338888, -0.03935355, 0.041037284};