float W1_I[]={
-0.04573859, -0.019843085, 0.021826986, 0.021847248, -0.13006966, 0.09397856, 0.020370616, -0.028059077, 0.071049646, -0.06081168, 0.071597464, -0.013028301, 0.12450218, -0.059115715, 0.031202782, 0.06886402, -0.0823595, 0.07550567, -0.1066841, 0.17359456, -0.05654749, 0.024098748, -0.01605826, -0.06070685, 0.03318813, 0.017315583, -0.011868492, -0.0065118796, -0.070032455, 0.05529421, -0.018655328, 0.1014344, 0.07783962, -0.12200629, 0.02034409, 0.021796903, -0.04745118, -0.10615767, 0.07102297, 0.051584564, 0.067828916, 0.119896635, 0.13003787, -0.04831689, -0.041432425, 0.05122754, -0.10007607, -0.08471783, 0.12038026, -0.10144368, -0.15870164, 0.0259376, -0.011471462, 0.0043897536, 0.053198047, -0.06546975, -0.10799907, -0.13733493, -0.02784705, 0.07141993, 0.137734, -0.07273558, 0.13287498, 0.07925688, 0.0645115, -0.05446944, 0.12325195, 0.027714562, 0.035646193, 0.0036040742, -0.08409964, 0.012654471, -0.011645897, 0.022679254, -0.0583184, -0.042566407, -0.041888278, -0.017070057, 0.034546994, -0.039366495, 0.13080716, -0.10727238, 0.039204385, 0.011476807, 0.16753913, 0.008811059, 0.056621056, -0.08751154, -0.071299, 0.047574908, 0.015490598, -0.062245056, -0.022395713, 0.049855042, 0.16011862, 0.09028314, 0.10364984, -0.00666618, -0.10856274, -0.19410092, 0.025999287, 0.019349515, -0.04354076, 0.022732697, -0.09410479, -0.07104791, -0.068761826, -0.11101035, 0.11167626, -0.1301408, 0.15144525, 0.0007690263, 0.021915305, 0.17214918, 0.09840598, 0.11342524, -0.13977154, 0.010300096, -0.101821244, 0.028491318, -0.034006234, -0.029289259, -0.040281985, 0.20789024, 0.07568218, -0.104702145, -0.010328547, -0.065135516, -0.07757752, 0.045887418, 0.018996727, -0.004028585, -0.07614919, -0.0032078256, -0.062735006, -0.083531, 0.09353823, 0.17553058, 0.15511619, 0.044243723, 0.036484916, -0.11467451, -0.07146087, -0.120352335, 0.003535052, 0.117120534, 0.11490881, -0.06998429, -0.09826925, -0.027797457, 0.01325356, -0.116937846, -0.15789412, 0.034460656, 0.045283362, 0.006754077, 0.1869262, -0.13222142, 0.04006419, 0.012005577, 0.019877007, -0.14794521, 0.016839061, 0.043199606, 0.02335279, 0.00748071, -0.010562045, -0.09504659, -0.046111185, -0.08024321, 0.11250311, 0.031091778, 0.0015810466, -0.109985955, -0.064229354, 0.09822194, -0.1293873, 0.18826076, 0.065162465, 0.15757722, -0.18004337, 0.17802712, -0.028550403, 0.21437453, -0.072394684, -0.092848, 0.017541016, 0.07634968, -0.041529845, 0.018276813, 0.055146042, 0.14889187, -0.032797176, -0.072765365, 0.115783, 0.09589271, -0.17014149, -0.15275055, 0.093340784, -0.0843813, 0.0036685392, -0.06524659, -0.02861813, 0.040529184, 0.058413066, -0.07556275, 0.12475922, -0.04774008, -0.19485769, 0.08036799, -0.07832858, 0.034134753, 0.124654606, -0.07435684, 0.031542942, -0.18293795, -0.058722705, -0.19577432, -0.050864413, 0.01505069, 0.059273634, 0.025921306, 0.004613, -0.14675653, -0.013978658, -0.07475119, 0.059859432, -0.07051177, 0.138899, 0.09623283, -0.1107869, -0.15094313, -0.05913835, -0.07843558, 0.07748614, 0.016414179, 0.029324006, -0.08785435, -0.07462912, -0.008599641, -0.20673637, 0.15634601, -0.13480681, 0.089570224, -0.1846967, 0.014882729, -0.092119806, -0.002631055, 0.09197867, 0.07088358, 0.22095191, 0.022949388, -0.1978376, 0.12761734, 0.031921975, 0.018500762, -0.20449297, 0.047156993, 0.083372146, -0.10627703, -0.1511954, 0.024882507, -0.053141657, -0.006612458, -0.11246696, -0.07420359, -0.18295816, -0.18119751, 0.07070617, -0.06806957, 0.03113518, -0.08818936, -0.15412498, -0.0036094808, -0.008173034, -0.29157686, 0.14658889, 0.024525898, 0.108010665, -0.14889081, -0.06206661, -0.05272304, -0.019297367, 0.049288616, 0.023886792, -0.03981724, 0.021777455, -0.2815674, -0.10459716, -0.115050174, 0.15355368, -0.12954344, 0.00798116, 0.009813726, -0.12710918, -0.08314667, 0.10113564, -0.016006075, 0.020089898, 0.016367259, 0.024673056, -0.18052682, -0.079146706, -0.068478845, -0.2183895, 0.10518682, -0.09351865, 0.05579207, -0.076786555, 0.05559667, -0.1811881, -0.009528395, -0.072078496, 0.023617571, 0.23087096, -0.049776867, -0.065074466, 0.012110557, 0.09407455, -0.014876711, -0.097654864, -0.1262216, -0.008520269, -0.18653865, -0.013853917, 0.107980855, 0.103738, -0.048507895, 0.018241128, -0.056017146, -0.12795189, -0.072615944, 0.11677408, 0.054942194, -0.06301164, -0.0033633374, 0.024376769, 0.119444996, -0.015009884, -0.28128368, 0.09394516, 0.015192564, -0.022614714, -0.0777849, -0.14947577, -0.042275827, 0.07044565, 0.006511171, -0.069733046, -0.042761642, 0.18847796, -0.1221032, -0.012421134, 0.0163085, -0.05591809, -0.027240023, 0.06822664, 0.03903065, -0.12573254, -0.10086728, 0.06883512, -0.0021004586, 0.10034152, 0.13551016, 0.03134755, -0.18828346, -0.06578637, -0.031598434, -0.10025805, -0.041117318, 0.004760335, 0.006023053, 0.08013466, -0.06467413, -0.18543318, -0.0022778825, 0.039501335, 0.10295308, 0.11651419, 0.03801088, -0.11911707, 0.15677272, 0.06331657, -0.043894287, -0.05858728, -0.11437299, -0.012393193, 0.016872784, -0.04402679, 0.024988038, 0.0227618, -0.19966456, 0.040796433, -0.031162672, -0.220337, -0.11372027, -0.070502155, 0.037805814, -0.006957882, -0.06965312, -0.10462772, 0.0961166, -0.02894041, -0.1500739, 0.13964865, 0.14550343, -0.033169247, 0.1335421, -0.14440411, 0.037236575, 0.15700915, -0.08883637, 0.09275004, 0.18842222, 0.14598289, -0.17820138, -0.11429451, 0.016028548, -0.12122552, -0.13456617, 0.21977708, -0.13465288, -0.19673531, -0.08893687, -0.14776145, 0.010256187, 0.047251295, 0.04869828, 0.1410355, -0.02494938, 0.04420373, -0.023037892, -0.11142813, 0.050439205, -0.09581275, 0.1592825, 0.146515, 0.06789237, -0.18569727, -0.02141309, 0.14477603, 0.08508171, 0.23625526, 0.068193294, -0.14332184, -0.055186898, -0.051364742, -0.06110265, -0.16273285, -0.019824075, -0.0777312, 0.023917953, -0.08537091, 0.13919169, 0.055692077, -0.20896967, -0.08342958, 0.05426745, -0.2620732, -0.13180798, 0.060227714, -0.13622566, -0.14805679, -0.059475783, -0.0045512095, 0.013828797, 0.10089407, -0.0827807, 0.12340544, 0.0287402, -0.06360688, -0.062733546, -0.14446874, -0.1101075, 0.10508083, -0.044393357, -0.028328778, 0.007958026, 0.13384227, -0.11180813, -0.30256948, -0.032773502, -0.06878658, 0.04051511, 0.08114712, -0.10217628, -0.38219896, -0.30285618, 0.002485786, 0.04292992, 0.070892826, -0.00801533, 0.105238736, -0.11221099, -0.08183503, 0.02337405, -0.1011954, -0.10880687, 0.06145482, 0.14010964, 0.020424651, 0.06729991, -0.19447942, 0.1258288, -0.026672661, -0.06452982, 0.12078919, -0.020025974, -0.085984044, -0.0021665103, 0.11526476, 0.16798778, 0.031972222, -0.16251867, -0.08613678, -0.14773475, 0.063476875, 0.011747302, 0.024504084, 0.026219085, -0.13212097, 0.123991996, -0.18929969, -0.28640282, 0.16289258, -0.14157046, -0.22057143, -0.14814739, -0.0689903, 0.0040254206, 0.12423947, -0.08657862, 0.119184054, 0.1428604, -0.05691858, 0.08799346, -0.025713926, 0.08068203, 0.030280389, 0.0441678, 0.08217519, 0.06792712, 0.25520536, -0.25972635, -0.268868, -0.0032966454, -0.045755964, 0.049061462, 0.07171354, -0.05101505, -0.21911101, -0.25977716, 0.05892944, -0.026606074, 0.043385275, -0.0994911, -0.012473912, -0.054151684, 0.06460524, 0.09094214, -0.2033036, -0.06666384, 0.063214324, 0.13739842, 0.06352534, -0.0023404295, -0.3611141, 0.1360287, -0.06854434, -0.009934373, 0.15045062, 0.23341756, -0.111622825, 0.1024344, 0.0230939, 0.113188386, 0.0018888768, 0.09959808, 0.15544386, 0.016899873, -0.01807128, 0.1820406, -0.011682479, 0.08364034, -0.09370061, 0.018918099, -0.13771813, -0.17496297, -0.099019386, 0.062401652, -0.17831503, 0.037547637, 0.046101388, 0.115267314, 0.019316219, -0.2605391, 0.1185016, 0.13840179, 0.038873304, -0.10442595, -0.023002403, -0.11166733, 0.06168977, -0.050846543, 0.1047966, 0.03923222, 0.045720294, -0.08550816, 0.08235395, -0.089849554, 0.054301757, -0.13678135, -0.063338295, -0.1719873, -0.36823478, -0.39919987, 0.08615307, 0.01890359, -0.10691107, -0.07245742, 0.0052206498, -0.11006922, -0.08917041, -0.014471701, -0.115750514, -0.0058999914, -0.020547085, 0.11852214, 0.08585726, 0.010489005, -0.30286732, 0.018469825, 0.02104964, 0.009443507, 0.23645988, 0.138987, -0.17104338, -0.04118678, -0.101918936, 0.13704845, 0.08908404, -0.08285691, 0.09317332, 0.14986207, 0.12481844, 0.16042596, -0.049462646, 0.14116123, 0.12661123, 0.1895516, -0.16714379, -0.08338982, 0.0068318923, -0.011445042, -0.011760631, 0.10686, 0.033157215, 0.11786569, 0.28556922, -0.15436105, 0.083098054, 0.10731748, 0.103301115, -0.025918858, -0.06904611, -0.22923894, -0.0327859, -0.12658362, 0.18169719, -0.009350745, 0.07916716, 0.009619066, -0.003404276, -0.095115624, 0.03287024, -0.06279309, -0.21411493, 0.03427641, -0.2846973, -0.21351011, 0.037679113, 0.155964, 0.11905511, 0.13448742, 0.097220615, 0.00058293226, 0.09020709, 0.044034917, -0.13422419, -0.07973927, 0.034887455, 0.13206151, 0.17522614, 0.21590786, -0.32736143, 0.049616106, -0.07339201, 0.031338558, 0.18568902, 0.1366272, -0.090595454, 0.16035008, -0.06814996, 0.118205935, -0.07510836, -0.012700789, 0.0022849692, 0.2239136, -0.02544846, 0.002410774, 0.044768278, 0.03969643, 0.13050747, -0.028190387, -0.07231597, -0.00029951625, -0.13026656, -0.11889652, 0.030078406, -0.020924177, 0.026233463, 0.21270633, 0.20588097, -0.2538762, 0.11052597, 0.04997918, 0.11783912, -0.12647101, -0.07192357, -0.21333902, 0.040697373, 0.09094932, 0.20491984, 0.119149506, 0.08742144, -0.19601825, -0.17164977, -0.0025322894, -0.06824871, 0.02514036, -0.035160378, 0.22774112, -0.21588106, -0.03843006, 0.030863643, 0.19527802, -0.023842303, 0.18951613, -0.10747208, 0.1045092, 0.021926047, -0.013639106, 0.023910401, 0.19957647, -0.030311307, -0.040376052, 0.17746557, 0.21066378, -0.21126682, 0.03703741, 0.11309022, 0.049462814, 0.17414096, 0.08841394, -0.11729896, 0.10279163, 0.20364471, 0.08675158, -0.11616672, -0.14776772, -0.13463238, 0.16499569, 0.21642505, -0.075037904, -0.025806922, -0.06286732, 0.13416809, 0.12516668, -0.032644648, -0.15916082, -0.20153157, -0.09239404, 0.113840096, -0.032512974, -0.103971116, 0.13317849, 0.27980724, -0.098531224, 0.12831712, -0.033088118, 0.2203326, -0.15048069, -0.10211493, -0.02593389, -0.123560734, 0.07951507, 0.0577427, 0.13354342, 0.316186, -0.21553168, -0.05201674, -0.16393067, 0.054129098, 0.15701093, 0.012137049, 0.27114454, -0.21616094, -0.08037804, 0.008032831, -0.035835855, 0.13817199, 0.2157567, -0.030461254, 0.1577084, 0.092722885, 0.10987963, -0.06837486, 0.20901819, 0.15644495, 0.00778737, 0.008847804, 0.23130192, -0.2666553, 0.13159727, -0.0010171141, -0.0076924595, 0.18041772, 0.0058335224, -0.18567811, 0.065877296, 0.13162972, 0.17831631, 0.0047313836, -0.09211527, -0.22550559, -0.13123573, 0.12929527, 0.037980855, 0.13946313, 0.114593476, 0.023035245, 0.09622562, -0.020775791, -0.38455784, 0.027952697, -0.08066176, 0.21801956, 0.0958975, -0.14691417, 0.19531085, 0.23473014, -0.25478148, 0.07072831, 0.16886486, -0.04647964, -0.053019866, 0.124722876, -0.019513713, -0.07867205, -0.0462037, -0.023819307, -0.06112852, 0.24002665, -0.17558105, -0.039731815, -0.19962263, 0.08901228, 0.16083291, 0.17869611, 0.22268268, -0.08440087, 0.093143344, 0.01353687, 0.103834346, 0.19306654, 0.26052243, 0.086320296, 0.013528372, 0.11058343, -0.09311226, -0.06347085, 0.08611409, 0.2329981, -0.14524868, 0.09327998, -0.0074650235, -0.41556653, 0.15752569, 0.35659274, 0.11366362, 0.119872324, 0.029917942, -0.15389773, -0.028263425, 0.12282481, 0.039607946, 0.056868106, -0.04232617, -0.19207448, -0.108522005, -0.03345951, -0.032438412, -0.014869925, 0.016450047, -0.08448216, 0.22881599, 0.14224812, -0.20353965, -0.027524425, -0.09952675, 0.07088349, 0.100890115, -0.26788652, 0.10902895, 0.032810718, -0.12175956, -0.052008986, 0.18710601, 0.042600583, -0.12897047, -0.086829916, 0.13685074, 0.013376542, 0.10156442, -0.026779382, 0.1131615, 0.25179973, -0.08057866, 0.048436906, -0.10180036, 0.05145929, 0.056516152, 0.044367462, 0.070420496, -0.10040938, 0.1005518, -0.17331026, -0.05982708, -0.031719908, 0.11979856, -0.030843724, 0.23319082, 0.0893896, 0.029792447, 0.007840536, 0.07233484, 0.16459224, -0.002600778, 0.15229762, 0.013349226, -0.23273829, 0.09533331, 0.301652, 0.05582724, 0.12781237, -0.057518277, 0.057339396, 0.18559033, 0.074513026, 0.08095511, -0.13140488, 0.1999354, 0.08813127, 0.090224914, -0.11020722, 0.10092769, 0.1307944, -0.05710817, -0.095771775, -0.041560005, -0.013857131, -0.22185136, 0.14756304, -0.17966965, 0.0028562564, -0.06275697, -0.2889936, 0.15529065, 0.021031851, 0.261426, -0.09256598, 0.024430862, -0.12021127, 0.04236274, 0.011238587, -0.041116245, 0.09995856, -0.013336788, 0.18295434, 0.046955142, 0.20662902, -0.08738991, 0.211353, -0.018329622, 0.10600609, -0.060619768, 0.044533383, 0.16409265, -0.05348748, 0.0798285, 0.038616616, -0.09862275, -0.10307787, 0.013240798, 0.0027758372, 0.104572594, 0.017594514, 0.023425119, 0.09369578, 0.21775502, 0.2142684, -0.033406693, 0.014630025, 0.00911823, -0.053635016, -0.017049888, 0.17194803, -0.015503918, 0.0901289, 0.15908918, 0.06317644, -0.0053744037, -0.0036754094, 0.08263628, 0.10596302, 0.04440039, 0.22564746, 0.22323364, 0.055106588, 0.09912241, 0.04538656, -0.00075693236, -0.15477858, -0.0444536, 0.025143798, -0.026757926, 0.21860564, -0.153053, 0.002302236, 0.07229826, -0.1532009, 0.07382475, -0.01124504, 0.0037339632, -0.007875799, 0.12254799, 0.02066342, 0.024145516, -0.07937402, 0.09566742, -0.05729559, 0.08267451, 0.12991685, 0.04319644, 0.2008666, -0.07169189, 0.11543096, 0.002520565, -0.029327063, -0.053507827, -0.023236698, 0.22753187, 0.061367277, 0.056247782, -0.07182296, 0.04010017, -0.055553466, -0.09519605, 0.04366375, -0.029543556, 0.019881332, 0.14529368, 0.036045745, 0.12560062, 0.075828, 0.0014558574, 0.059173442, 0.11565515, 0.09503299, 0.101300776, 0.22209944, -0.07439779, 0.07599709, -0.06699297, 0.010735367, -0.09718933, 0.10248048, 0.059797563, -0.05126751, 0.17350021, 0.14936605, 0.31172377, -0.0796377, 0.19921333, 0.09046462, 0.04338509, -0.01449445, 0.042267192, 0.033882767, -0.102208436, 0.34119368, 0.00277647, 0.06908167, 0.10473509, -0.17074585, 0.120339036, -0.008079497, -0.0791532, -0.015631266, -0.080872856, -0.01275224, -0.12246934, -0.12519775, 0.26788992, -0.08199333, 0.04912276, 0.3051177, 0.01971665, -0.06394245, 0.070816524, -0.048386827, 0.081228115, -0.033279072, -0.032894574, 0.02994519, 0.14976068, -0.081118196, 0.1443757, -0.11335046, 0.20567875, -0.03659227, -0.062316917, -0.100455314, -0.09583556, 0.03216612, 0.008642982, -0.0011490368, -0.09038094, 0.1296854, -0.026659025, 0.17981546, 0.17222692, -0.058105074, -0.0057142028, 0.06331023, 0.079565525, 0.04160359, -0.03162826, 0.10013137, -0.1189063, 0.17076528, -0.03838446, -0.0052410183, -0.033191152, 0.035283744, 0.30132264, -0.0054971147, -0.09051289, 0.035824765, 0.17467758, -0.05315354, 0.052683294, 0.088395625, -0.21930294, 0.14210868, 0.07832232, 0.019920021, 0.015465903, -0.09744646, 0.15894206, -0.0018977171, 0.020724347, 0.10295082, 0.05457465, -0.07489103, 0.012940763, 0.0027387145, 0.08546222, -0.13716526, -0.15076031, 0.18789789, -0.0067059477, 0.02511898, -0.0021826185, 0.008735774, -0.18402986, -0.16746852, 0.057979632, -0.0435913, 0.11016715, -0.089899875, 0.13423689, 0.0540918, -0.025591614, -0.12060078, 0.05983732, -0.12139616, 0.041481096, -0.056766905, 0.01264467, 0.00133832, -0.025570218, 0.03216041, 0.19611454, 0.16695923, 0.1584485, -0.08389012, -0.045506526, -0.060011037, -0.017302588, -0.059174065, 0.054163344, -0.041246757, -0.010145358, 0.10435703, 0.011108984, -0.10550826, 0.05614034, 0.07852939, 0.07101427, 0.112381615, 0.01727749, -0.12697722, 0.1222566, -0.10460158, 0.1166061, -0.04438904, -0.113141134, 0.047682352, -0.13877937, -0.18449298, 0.16800912, 0.015800482, 0.25670263, 0.08156209, -0.024947127, -0.034303498, -0.17625216, 0.11944378, -0.020271491, -0.12581806, 0.12551492, 0.070879735, -0.16380042, 0.02296437, -0.009854342, -0.09663216, -0.0899941, 0.080488786, -0.18283519, 0.017465368, 0.101651296, 0.013456425, 0.02288173, -0.092896745, -0.007062343, 0.0047677075, 0.022345763, 0.039033815, -0.048718292, -0.0021981744, 0.116002314, -0.07142716, -0.085617036, 0.11001851, 0.07555924, -0.014065142, 0.021996666, 0.075386204, 0.15819196, -0.050806534, -0.024386592, 0.10511076, -0.18488732, -0.13680357, -0.00049771904, 0.09585325, 0.050978947, -0.021662876, -0.039780702, 0.06876785, 0.07043822, -0.032706216, 0.039558798, 0.059286475, -0.13359085, -0.1749942, 0.09984839, -0.03696208, -0.09731744, 0.0700603, -0.06799333, 0.011796789, -0.004847283, -0.15500557, 0.0365498, -0.063204385, 0.22336558, -0.008138552, 0.021526303, 0.0434162, 0.023360195, -0.047475018, 0.025454652, 0.05578562, 0.116764, 0.03723569, -0.1633229, 0.12401145, 0.19744188, -0.033342384, 0.019263558, -0.14275415, -0.217773, -0.17784795, 0.18866189, -0.13699478, 0.028882474, -0.056741644, -0.056828618, 0.027373208, 0.0055601783, -0.035927914, -0.0607296, 0.010694375, -0.018853253, -0.296904, -0.052096434, -0.08119819, 0.102916785, 0.20273718, 0.11719537, 0.017262138, 0.1272114, 0.13894688, -0.014593535, 0.022675132, -0.07475304, -0.03846896, 0.02966966, -0.15389705, -0.045270935, 0.013103208, 0.04405403, -0.09840351, -0.01367163, -0.057997163, 0.01797545, -0.06143434, 0.0964969, -0.18580557, 0.13852918, -0.029258808, 0.09900284, 0.07073673, -0.33262843, 0.18014723, 0.036300007, -0.1505948, 0.109821215, -0.058864545, 0.18428975, -0.07721798, 0.23460627, 0.062444534, -0.06632406, -0.082563445, 0.036974877, -0.009905429, 0.023269111, 0.07679906, -0.030522546, -0.13029623, 0.12405635, -0.06427761, -0.07107678, 0.072431475, -0.04096927, 0.008569022, 0.09865724, -0.04033865, -0.10820124, -0.04607609, -0.038745157, 0.08958401, -0.072542354, -0.22212626, -0.19272289, -0.088999204, -0.078565836, -0.27198642, -0.1214717, 0.031817004, -0.11496508, 0.15495756, 0.029841399, 0.037635747, -0.12414716, 0.15120491, -0.0670183, 0.09422704, -0.26568025, -0.06608469, -0.105025746, -0.27626997, 0.06448309, 0.025913524, -0.13002738, 0.0780138, 0.13163464, -0.15745504, 0.041711204, -0.081008054, 0.212807, -0.22941576, 0.1868511, 0.0458699, 0.087415285, 0.031429272, -0.17338806, 0.013421559, -0.04366679, -0.19917493, 0.083997265, -0.027918242, 0.12511475, -0.07719202, 0.16489588, 0.010080868, -0.11941348, -0.005032627, 0.12324276, 0.073244505, 0.006257515, 0.16022588, -0.011496292, -0.17917165, 0.0333418, -0.22645755, 0.048664596, -0.037704695, 0.023090683, -0.13766462, 0.05113787, 0.027094012, -0.15512423, -0.08363239, 0.055061713, 0.040042605, -0.025622942, -0.31911093, -0.21637236, 0.030688664, -0.0437245, -0.044712353, -0.11831948, -0.07782686, -0.046276066, 0.18396483, 0.045266468, 0.050097194, -0.13237442, 0.097833075, -0.02835753, -0.024863714, -0.2295701, -0.19948165, 0.086139984, -0.17930906, 0.0042190505, -0.059846465, -0.0015342945, 0.13565916, 0.087585874, -0.14345267, 0.019009007, 0.016975282, 0.3290034, -0.02788735, -0.044464793, 0.05271362, -0.16644387, 0.21133019, -0.27675924, -0.03497644, -0.0805619, -0.005991293, -0.12980694, -0.09862291, 0.17247061, -0.10673749, 0.175661, 0.050742336, -0.13609056, 0.06642732, -0.052814607, -0.13185973, -0.067489445, 0.20260793, -0.06514375, -0.12567987, 0.12427649, -0.40198657, -0.14953908, 0.11228999, -0.06259947, -0.164943, 0.03645002, 0.0334408, -0.13622423, -0.056963794, -0.005435426, -0.101671144, -0.087380536, -0.35115793, -0.37762445, 0.1356249, 0.017908875, -0.088270776, -0.25660518, -0.113418914, 0.06803614, 0.25155115, -0.042726737, -0.0025379758, -0.090414196, 0.1172634, 0.03989095, -0.046571396, 0.066830724, -0.1682818, -0.11560867, -0.2793586, -0.19382699, 0.026320362, -0.1650748, 0.030393973, -0.030919895, -0.149585, 0.22862436, 0.03899987, 0.062745914, -0.1549045, -0.017347023, 0.09648743, -0.16186689, -0.012738499, -0.36069676, 0.17969729, 0.004078001, -0.14602579, -0.07948967, -0.04702781, 0.09027072, -0.055507556, 0.025815181, -0.078674436, 0.015879743, 0.03452635, -0.11347927, -0.039143395, 0.10833236, 0.12993965, -0.12769675, 0.13363525, 0.03472421, -0.28437275, -0.11859111, 0.062468078, 0.06374808, 0.10868242, 0.23328269, -0.067169055, -0.022948263, -0.08300818, 0.16210188, -0.08074646, -0.08625595, -0.39711943, -0.3247066, -0.027105965, 0.09663508, -0.04599876, -0.24772488, -0.055741236, -0.14674051, 0.17919931, 0.017794333, -0.005531539, -0.13952623, 0.009286292, -0.051694196, -0.07683809, 0.06506523, -0.095987335, -0.20694686, -0.1438781, -0.15410067, 0.120829985, -0.057781406, -0.08457009, -0.022736544, -0.05509353, 0.2618972, 0.044197902, 0.21938011, -0.06306406, 0.11465384, -0.0019383, -0.091517776, -0.023081258, -0.34493026, 0.21481022, -0.035385758, -0.25180185, -0.16892436, -0.34049916, 0.056023944, 0.089671895, -0.0036705947, -0.11370447, -0.01795117, 0.07689638, 0.045184202, -0.20578596, 0.096658766, 0.017632015, 0.0026949067, 0.1809404, 0.19751336, -0.2755789, -0.23555349, -0.030537002, 0.08615295, -0.11525259, 0.01810371, -0.110598855, 0.03561946, -0.043061797, -0.11611697, -0.016354596, 0.033435076, -0.17728154, -0.20247857, -0.10222909, 0.11345744, -0.15159741, -0.015080416, 0.053860128, -0.12270042, 0.07028905, -0.057304196, -0.10934268, 0.122414105, -0.006722357, 0.16630568, -0.077159494, -0.0063986704, 0.11182323, -0.2733937, -0.10206627, 0.02004796, 0.20839803, -0.06807584, -0.16383657, 0.02062769, 0.00035252277, 0.12380131, 0.0025442506, 0.31352678, -0.14198862, 0.18296072, 0.009064391, -0.01796823, -0.011942804, -0.10769129, 0.04330033, -0.21059902, -0.22035463, 0.04423349, -0.0554864, 0.02388323, 0.10732927, -0.12702829, 0.025453059, 0.033633415, 0.08999282, 0.029484536, 0.008606434, -0.010587609, -0.093355335, 0.018750036, 0.01850786, 0.25745293, -0.031969726, -0.022042014, -0.14104311, -0.02965502, -0.03282083, 0.091753885, -0.09761417, -0.18086874, -0.06061412, 0.09723056, 0.035384662, 0.028604412, 0.021615075, -0.11209773, -0.008898032, 0.11541321, 0.08560217, -0.14301908, 0.12269113, -0.13006876, -0.052152187, -0.06024708, -0.2309945, 0.09403305, 0.010309884, 0.16326757, 0.11487024, -0.049316812, -0.016259793, -0.21567217, -0.1590355, 0.11677977, 0.09817719, -0.03143786, -0.009896887, -0.048215862, -0.01649305, 0.016518751, -0.18273254, -0.0044872384, 0.01219493, -0.1162187, -0.10000204, 0.14888284, 0.025497664, -0.056020986, -0.03349253, -0.062335398, 0.06682835, 0.13892442, -0.12006734, 0.03303321, -0.0057318695, 0.04057492, -0.1008493, -0.13886832, 0.120158, 0.019682933, 0.10169932, 0.091357134, 0.045679938, 0.10296811, -0.09108576, -0.09684934, -0.15139024, 0.0066609583, -0.06433185, -0.0031238366, -0.114175595, 0.14157967, -0.08616217, 0.11420001, -0.05436909, -0.078568466, 0.07601823, 0.03213788, 0.07818093, -0.042385694, -0.056493014, -0.11548646, 0.03764156, -0.052929208, -0.07696559, -0.07486236, 0.080079965, -0.066466026, 0.039534744, -0.11103812, -0.14653644, -0.0010023485, -0.15573224, -0.0990383, -0.06508897, -0.10026302, -0.065296605, -0.019981481, -0.027930336, -0.11685787, -0.075337775, 0.072326995, 0.099430576, -0.1258354, 0.085742705, -0.0039022944, 0.14224975, 0.02640433, 0.10927314, -0.030592632, 0.1404667, -0.08991307, 0.002723621, 0.01643143, 0.17092687, 0.10220305, 0.15968333, 0.03200252, 0.073589504, 0.095690936, 0.07176203, -0.005388174, 0.050098486, 0.053922217, 0.078617215, 0.21528584, -0.069436595, 0.09394819, -0.009922137, 0.09183754, 0.087553605, -0.050396163, 0.16655718, 0.09648018, -0.024143953, 0.31096393, 0.21485434, 0.06790623, 0.14330637, -0.04986002, -0.069807254, -0.00857894, 0.08744392, -0.0110180285, 0.0758913, 0.10160277, 0.07237077, 0.15355797, -0.020065896, 0.1151429, 0.15469393, 0.007058568, -0.014891101, -0.025472477, 0.030326508, -0.03634445, 0.10140809, -0.05392785, -0.009686968, -0.009734563, 0.09995179, 0.06602452, 0.047658917, 0.100761436, 0.055612475, 0.0459839, -0.020839836, 0.12020666, 0.05906399, -0.042772457, -0.010542883, 0.12886252, 0.011063024, 0.083509, -0.18528703, -0.03146825, 0.0002050384, -0.019957371, -0.10108704, -0.18066208, 0.07337921, 0.040523037, 0.01997538, -0.15997748, -0.108629726, -0.17383415, -0.033004925, -0.008822044, 0.041870344, -0.14588985, -0.18228073, 0.15942168, -0.05027199, -0.031573426, 0.07480529, -0.13527882, 0.020287026, -0.03576608, -0.08214867, -0.05451216, -0.027769223, 0.1401742, -0.099266484, -0.07276523, -0.02141093, 0.19588232, 0.14416902, 0.03459311, -0.037305243, 0.1453246, -0.043190055, 0.05353251, 0.07997655, 0.10406342, 0.03697522, -0.13252708, 0.13245875, 0.09713324, -0.069556504, -0.11020141, -0.027973164, 0.076899685, 0.0048862444, 0.034067456, -0.06712688, 0.061783813, 0.1679047, -0.020176051, -0.030278359, 0.08893564, 0.088972405, -0.1530694, 0.025290359, -0.15037045, 0.1465591, 0.050857272, 0.06257333, 0.021301426, -0.014004193, 0.15572281, 0.13598701, -0.030659307, 0.082124755, 0.0021587447, 0.05352693, 0.11649256, 0.11329938, 0.112569965, 0.059512924, -0.06836878, 0.08515802, 0.066687286, -0.08983814, 0.04178699, 0.077322446, 0.24424443, -0.04308622, 0.12413437, -4.4828223e-05, 0.2510556, 0.15626198, 0.19581199, -0.077814616, -0.09619336, 0.0856211, 0.29394364, 0.09177583, 0.05747622, 0.12415633, 0.0826123, 0.028990496, 0.23475699, 0.17471653, -0.030556137, 0.3205615, 0.13714126, 0.042028397, 0.035558242, -0.033569146, 0.1906457, -0.15043986, 0.23110308, 0.06882126, 0.060333453, 0.20393273, -0.096108675, -0.005349273, -0.15446223, 0.05914441, 0.17835534, 0.034456342, 0.05567203, 0.1014098, 0.20248096, -0.01981099, -0.0056554493, 0.19423534, -0.000892454, 0.17782581, -0.17982912, 0.054970838, -0.03864773, 0.019594394, 0.08842985, 0.07008804, 0.025283344, 0.10923804, 0.17148975, -0.020250838, 0.027679358, 0.012293191, 0.04841676, 0.15871802, -0.057997704, -0.07130919, -0.006980181, -0.1330835, 0.22089508, 0.10284877, -0.20194013, 0.016838243, -0.14278339, -0.06276819, 0.057596125, 0.06871236, 0.19010396, 0.1803332, 0.33500063, 0.050975945, -0.039060947, 0.21813697, 0.19989753, 0.022433693, -0.050329953, -0.0046327948, -0.31652892, 0.035266124, -0.0051604514, 0.009254429, -0.03878942, -0.060269333, -0.10249167, 0.039961394, -0.20933431, -0.048851408, 0.11035743, 0.4291515, -0.18373995, -0.09585312, 0.4104728, -0.08050046, 0.23251128, -0.013986353, -0.3837858, 0.18953288, 0.016921278, 0.07608755, 0.10951731, 0.024765514, -0.12513863, 0.04436388, -0.065202005, 0.036852762, -0.06608372, 0.120171964, 0.044843808, -0.014094485, -0.1291119, 0.19242631, 0.09277259, -0.17647141, -0.026001725, -0.10344038, 0.07853164, -0.051653825, 0.12445122, -0.016990049, -0.013801478, -0.115219265, -0.031622272, 0.082506426, 0.12887678, -0.030590588, 0.11060041, 0.09615975, -0.15183875, -0.19466329, -0.010636363, 0.11408101, 0.077517964, 0.0144701, 0.068547435, 0.09910979, 0.04129979, 0.093628995, 0.1176918, -0.10114242, 0.012261461, -0.118762024, -0.012320843, 0.06971171, 0.05503201, 0.13154842, -0.04407639, -0.037206896, -0.093488134, 0.104330525, -0.06674682, 0.05103927, -0.014230568, 0.09621873, 0.045752272, 0.13209568, 0.0019677333, -0.050904416, 0.056973, -0.0687029, -0.024020597, -0.1575441, 0.0064977836, 0.036479954, -0.09970149, 0.1781757, 0.22815098, 0.035780776, -0.037139628, -0.013558652, -0.10258302, 0.07784463, 0.080531955, -0.023265556, 0.2480625, -0.25768635, -0.099844225, 0.09873298, 0.11252745, 0.11242461, 0.09405387, 0.1688681, 0.07966994, 0.16956346, -0.0023079352, 0.11197415, -0.044692576, 0.04182174, 0.13143514, 0.21553653, 0.000378699, -0.08834151, 0.06522923, 0.10467003, -0.062090084, 0.05143975, -0.019753125, -0.0230184, 0.04204858, 0.17077333, 0.16624516, 0.15644152, -0.0840358, 0.14721262, 0.0347512, 0.06070238, 0.043204196, -0.039322354, 0.09998992, -0.12189208, -0.06457927, -0.14651659, -0.111898154, -0.102572165, 0.18105865, 0.12475253, 0.13013823, 0.12299334, 0.12694968, -0.09031009, -0.037857417, -0.015347861, 0.2535364, 0.13516267, 0.074360356, 0.18828309, 0.05278997, -0.12197422, 0.04619123, -0.1766052, -0.27285108, 0.03661272, 0.11895844, -0.07482202, 0.046379603, -0.035926916, 0.13475244, 0.14788885, -0.08489823, -0.027427271, -0.16364063, 0.06080377, -0.05678922, 0.16895401, 0.12124634, 0.04267283, 0.021332866, 0.0902698, -0.005685717, 0.0577938, -0.0371453, -0.17278226, -0.008978078, -0.104064204, 0.046692222, 0.03894704, 0.062104106, 0.25384507, 0.034033425, 0.07013328, 0.035200093, -0.12065726, -0.084020935, 0.18179567, -0.031800333, 0.07220146, -0.13540918, -0.016584456, -0.08205958, 0.044795077, -0.109619714, 0.063581616, 0.18580446, 0.0039030414, 0.066833206, 0.053709444, -0.015803035, 0.23914689, -0.018219184, -0.14445928, 0.013679806, 0.22765732, 0.16072175, 0.08800808, 0.045457378, -0.0016520215, 0.08696472, 0.1324447, -0.027245456, -0.071499735, 0.2643958, 0.054086495, -0.044729423, -0.10098077, -0.055172995, 0.12552547, -0.00084394217, -0.06886055, -0.084715284, -0.06797326, -0.10453027, 0.08697872, 0.014750603, -0.07760221, -0.05919584, 0.10571534, 0.11825258, -0.040390372, -0.10077956, 0.112545624, -0.081691206, 0.16125533, -0.028636249, 0.18165934, 0.15959913, -0.038018506, 0.1964073, -0.014520279, 0.02749296, -0.0863767, 0.09808891, -0.09976859, -0.0753239, 0.1336351, -0.08663229, -0.05066687, 0.22065914, -0.034786653, 0.01607871, -0.06875023, 0.08627728, 0.030344412, 0.028812243, -0.16179834, 0.02438664, -0.025314925, -0.036842626, 0.030646725, -0.031705488, 0.14633308, -0.098344535, 0.13987455, -0.07516372, 0.06242611, -0.023294646, -0.11935435, 0.12710652, 0.11467525, 0.020488057, 0.029440004, 0.08886226, 0.12673743, -0.09397199, 0.0924311, -0.0238142, 0.12843646, 0.18199174, 0.06899211, 0.009016949, -0.106915966, 0.10663072, 0.17719267, -0.07970658, 0.10970553, 0.013553955, 0.07492388, -0.022851476, 0.16898373, -0.017014947, 0.09627558, -0.06350524, 0.010691242, 0.09767198, 0.09674389, 0.13779548, 0.08278587, -0.0627488, -0.030352717, 0.11391095, -0.026640156, 0.13491502, -0.0012878173, 0.06775062, -0.044146378, -0.010107258, 0.041298475, 0.20444871, -0.08038605, 0.19338796, 0.22548035, 0.24449678, -0.0046932246, 0.11200869, 0.11056318, 0.16082264, -0.08340207, 0.10688051, 0.114415415, 0.00013882082, -0.014700403, 0.03351919, 0.18197067, -0.039342407, 0.04583599, 0.11872327, 0.058623075, 0.09750909, 0.022538085, 0.007350818, -0.09741797, 0.045125157, 0.086087994, 0.014850143, -0.052434944, -0.10754327, 0.07704941, 0.098819755, -0.0016798978, -0.004094136, 0.078617685, -0.008073739, -0.17648059, -0.21279535, 0.025790334, 0.09585463, 0.09322403, 0.16376032, 0.05696067, -0.09591806, -0.07142802, -0.28613386, 0.10816097, -0.06394087, -0.30336466, -0.044996653, -0.09249528, -0.13616523, 0.00037592053, -0.13731246, 0.04715788, 0.15399536, -0.015531099, -0.119525254, 0.06896137, -0.20812231, 0.06571864, 0.012996832, 0.051642537, -0.008104082, 0.042204674, -0.11896649, 0.029336262, -0.06960411, -0.02247683, 0.03560277, -0.17812566, 0.021614555, -0.19251807, -0.10071238, 0.06681996, -0.042888664, -0.12926407, 0.1393523, 0.2002893, -0.058108088, -0.13943468, -0.04102077, 0.020216236, -0.03147948, -0.0033554125, -0.03141066, -0.039965045, -0.024032038, -0.011472057, 0.08093498, 0.042116772, -0.013290086, -0.062384132, -0.15842946, -0.026809124, 0.11446139, -0.008414922, -0.06922805, 0.047288004, -0.26887524, -0.14972931, -0.016713737, 0.008390087, -0.08400968, -0.06559488, -0.18213366, -0.071610965, -0.011198579, 0.030251255, -0.26419628, -0.08793442, -0.12118253, -0.00023764066, 0.039035298, -0.011047921, -0.049181484, -0.035067383, -0.18847004, 0.00741033, -0.12225591, -0.17701039, 0.031735275, 0.11822653, -0.21950088, 0.07549178, 0.02683185, 0.04585146, -0.027275203, -0.10521767, 0.034802105, 0.07519837, -0.07379654, -0.19880676, -0.16516934, -0.15305482, -0.17382416, -0.1186576, -0.04259895, 0.03832768, -0.15385766, -0.07390975, -0.0584785, -0.034740355, 0.00071562384, -0.035947744, 0.03334898, 0.04621826, -0.09685402, 0.1306977, -0.17823033, -0.14984609, -0.032915954, 0.026518513, -0.11765818, 0.07224471, -0.027820779, 0.03783837, -0.22048512, -0.14173159, -0.17681256, 0.067855716, -0.064330325, 0.036783066, 0.05490773, -0.033742677, 0.08126467, -0.0018302775, 0.16750209, 0.14651674, -0.027968686, 0.053642966, 0.27551562, -0.019931221, 0.005855134, 0.16878988, 0.0031653456, -0.028714186, -0.17580692, 0.053770117, 0.18183757, -0.06722305, -0.03835129, -0.2426068, -0.15870212, 0.06610642, 0.0014645547, 0.21864964, -0.027725702, 0.1585756, 0.21764117, 0.057163533, 0.1445009, 0.25506404, 0.21874937, 0.2274223, 0.017579593, -0.0077724843, 0.15917413, 0.074684724, -0.041440714, -0.021250686, 0.09947045, -0.052726932, -0.050481614, -0.017193064, -0.054773778, 0.0618578, 0.19468163, 0.043442667, 0.055389706, 0.06095095, 0.107103765, 0.027129458, -0.038070258, 0.11928666, 0.0068059564, -0.15249388, 0.01733018, 0.01597428, -0.2642596, -0.033560056, -0.14231254, -0.09976958, 0.019761432, -0.03681145, 0.061114904, 0.12902406, -0.16953276, 0.10822124, 0.18468022, 0.03928563, 0.03594021, -0.18459655, 0.17891446, -0.01032406, 0.19309402, -0.041112974, 0.020817088, -0.07604152, 0.09112462, 0.066863, -0.019964838, -0.070465624, -0.284413, -0.10566625, -0.45160165, 0.06852398, 0.012599591, 0.011351489, -0.15506023, -0.0018937857, -0.012981544, 0.046943054, -0.18279319, 0.20521112, 0.06618173, -0.23115297, -0.2496113, -0.2102133, -0.35556102, 0.06506935, -0.09915506, -0.016976746, -0.052583814, -0.06351993, 0.050608005, -0.08696569, 0.08005602, 0.10407497, -0.18090795, -0.15879206, -0.34929672, -0.053742986, 0.05378988, -0.17118585, -0.18431191, -0.16928415, 0.10058279, 0.12982756, -0.07200856, -0.32258037, -0.22375058, -0.031087294, 0.11318701, -0.09396476, 0.07713795, -0.29937512, 0.1677063, 0.35144088, -0.33760282, -0.08690555, -0.028636446, 0.101336196, 0.14845785, -0.09473871, -0.08478929, 0.01717954, 0.11836658, 0.051281553, 0.027532926, 0.06096944, 0.038020644, 0.012830618, 0.026216744, 0.019213596, 0.1299134, -0.10071317, 0.30146113, -0.018327376, 0.08710017, 0.13993193, 0.060071968, 0.031125449, 0.14017409, 0.12768328, 0.19685858, 0.1790927, -0.022886282, 0.024870887, 0.08096008, 0.09858675, 0.15658481, 0.09959558, 0.13968949, 0.17529856, 0.15043181, 0.07423749, 0.15997332, 0.1486945, 0.19242026, 0.057287723, -0.014442542, 0.1670346, 0.07305792, 0.103992924, -0.008239873, -0.044256136, -0.009274609, 0.09936604, 0.1488596, -0.03463176, 0.062214248, 0.07387292, 0.043315858, 0.11697477, 0.09469251, 0.029968848, -0.032623768, 0.085827, 0.019102018, 0.12662049, 0.14584179, -0.02796792, -0.10949894, -0.0071188454, 0.03575648, 0.09713703, 0.083902754, 0.03403969, 0.017408991, -0.1563923, 0.16773857, 0.006064841, 0.083515815, -0.11120896, -0.008237385, 0.01963445, 0.16973267, -0.0013974882, 0.052115463, -0.06337275, -0.24728622, 0.08478771, -0.014803799, 0.10830347, 0.015853371, 0.10757468, 0.018931046, 0.078418866, 0.080339305, 0.08203782, -0.2346127, 0.20546317, 0.21592142, -0.049458593, -0.043630715, -0.028793607, -0.085653566, 0.017905528, -0.023368903, 0.012421087, 0.050154027, 0.057244286, 0.13506606, -0.033113275, 0.22367635, -0.06856147, -0.15983275, -0.30984494, -0.12810813, -0.43443432, -0.16980545, -0.21571809, -0.029790515, -0.09305214, 0.06022802, -0.09441825, 0.16369197, -0.04041973, -0.1627099, -0.010101442, 0.286165, -0.24931157, 0.047895055, 0.064449795, 0.006732464, 0.2822459, 0.06163681, -0.16645275, -0.15424618, 0.2445906, 0.07864428, 0.13304658, -0.12320873, -0.18780653, 0.22818519, 0.010917179, -0.033758655, -0.12987086, -0.029232696, -0.12761073, 0.030313544, 0.103083536, -0.06648412, 0.04848687, 0.042885408, 0.06475653, -0.038061745, -0.09456416, -0.06753424, -0.06509864, -0.09815009, 0.12694897, -0.056434654, 0.08977295, 0.0078075603, 0.06614182, 0.026674332, 0.21764436, 0.042971373, -0.027643487, 0.06911015, 0.028629782, -0.19711122, -0.09090902, -0.10467427, 0.11420776, -0.10949824, 0.043881703, -0.0021028717, -0.03669966, 0.22294074, 0.14147195, -0.14530897, -0.118805796, 0.015176785, -0.0042695096, 0.15111324, -0.17471871, -0.04989443, -0.12269163, 0.018892054, 0.0024733604, -0.13373815, -0.01215394, 0.030504314, -0.078742094, -0.11281307, 0.07295625, 0.043982174, 0.10506966, 0.034758132, 0.007814852, -0.15542519, -0.25473297, -0.14131732, -0.04768999, -0.11958347, -0.3176674, -0.08752472, -0.15425311, 0.01325151, -0.13126536, -0.28442934, -0.10209496, 0.0006439763, -0.022419697, -0.003180891, -0.092454, -0.22883905, 0.007926293, -0.042501945, -0.15490273, -0.16314502, 0.011550544, -0.1521058, 0.014485673, -0.32966465, -0.031103026, 0.07122293, -0.111990236, -0.12669246, 0.05620657, -0.17285591, -0.14395091, -0.108164266, -0.059660204, -0.40159833, -0.07224829, 0.013780442, -0.05960674, 0.057391133, 0.0048872395, 0.11033687, -0.14783517, -0.17669033, 0.0035840822, -0.019689187, -0.084572494, -0.12226847, -0.13726495, -0.19034114, -0.05761238, 0.065513864, -0.072739586, -0.009716695, -0.014456319, -0.12500975, 0.13366574, -0.10133269, -0.13237925, -0.21564418, -0.051292732, 0.1175442, 0.036935776, 0.059797052, 0.06707499, -0.05668066, 0.13468546, 0.17450316, -0.013393724, -0.028642884, -0.017764084, 0.15636885, 0.060263656, -0.20489386, -0.028567372, -0.03265656, 0.20095141, 0.022792058, 0.010486615, -0.1338402, 0.10765432, -0.1680858, -0.21071647, 0.14338093, -0.11346854, -0.012197789, -0.1429319, 0.21229964, 0.03912958, 0.1303482, -0.0037027635, -0.0720806, -0.06310333, -0.17885582, 0.13726217, 0.16139561, 0.007255035, -0.12108094, -0.06342011, -0.011636924, 0.047904864, 0.14712426, 0.35871643, 0.12622271, -0.06492773, -0.05173227, 0.20106, 0.028571518, 0.073244505, -0.10225491, 0.2373297, 0.10361145, 0.11484889, -0.099856585, -0.085627034, -0.098927096, 0.026536245, 0.14240205, 0.12154421, 0.030895198, -0.1383758, -0.2082906, 0.06278927, -0.13004422, 0.07838602, 0.114282176, -0.114422455, -0.10520924, -0.12693168, 0.15628056, 0.03445684, -0.006972457, -0.064596206, -0.019623853, 0.10867244, -0.003970124, -0.022272041, -0.025639521, -0.008667232, 0.113774896, 0.045883052, 0.13201253, 0.077654384, -0.103413135, -0.08055429, 0.0015852014, 0.008652741, -0.12952456, -0.12788887, -0.17098378, -0.07978628, 0.10116875, -0.02158024, -0.030490054, -0.06277935, -0.10155236, -0.0073850383, -0.065831825, -0.15008967, 0.09464291, -0.024887329, 0.012545658, 0.2070124, 0.046351016, -0.054587603, 0.01744062, 0.031447485, 0.15397476, 0.050301284, 0.050681304, 0.14504158, -0.15546688, -0.112797245, -0.0446947, -0.0072310045, 0.01877739, 0.11937503, 0.13450134, -0.107120916, -0.01260709, -0.07766726, -0.042977873, -0.0058463775, 0.12535496, -0.039413076, 0.007702909, -0.16993119, -0.15748225, -0.15626834, -0.06703068, -0.08855104, 0.004445506, 0.14455423, -0.056780074, -0.17810775, -0.0038326331, -0.19303855, -0.08017318, -0.04655466, 0.15094522, -0.0453753, -0.04059152, -0.1381589, 0.14077286, -0.015264775, -0.0150337815, -0.04320156, -0.14186814, 0.00081210944, -0.18646167, 0.03434376, -0.049654227, 0.04560786, -0.1850963, 0.060154885, 0.013678579, 0.07606589, -0.07151973, -0.13826267, 0.019169813, -0.092791095, 0.017968219, 0.023024647, 0.0123869665, 0.18445884, -0.031233875, -0.0019218612, -0.19334462, -0.12552968, 0.119614966, -0.25544047, -0.10476179, 0.018467497, 0.017063012, 0.032097988, 0.13052072, 0.082870804, 0.15558034, 0.1343956, -0.05023318, 0.013001946, 0.08584927, 0.04588929, 0.049866427, 0.025013724, 0.06848977, -0.19562799, -0.042059865, -0.0020466358, -0.063910425, 0.11265479, 0.07656484, 0.02733669, 0.21836318, -0.01781995, -0.050295614, -0.114184596, 0.26723236, -0.031830326, -0.029990975, 0.10143132, 0.062501304, -0.033782557, 0.04298193, 0.101567835, 0.15267795, -0.08494653, 0.08293181, 0.30569315, -0.016551904, 0.19439757, -0.072613746, 0.15825221, 0.0042387354, 0.1561378, 0.010740404, 0.074267216, -0.06745961, -0.008457415, 0.017941553, 0.043286853, 0.020566737, -0.05197925, 0.1575141, 0.0518133, -0.02911382, 0.060203042, -0.028098147, -0.06319052, -0.02505369, 0.1916521, 0.22798182, 0.038188886, 0.097997524, 0.1488079, 0.15920578, -0.12035172, 0.12997572, -0.020540962, -0.10733404, 0.012551397, 0.08211637, -0.010346581, -0.07255572, 0.022469318, 0.0321637, -0.037445854, 0.002623082, -0.08058058, 0.005325386, 0.015333548, 0.13518986, 0.0049217492, -0.14432444, -0.044830058, -0.09137081, 0.08647828, -0.03001884, -0.0043238997, 0.11783827, -0.026632415, -0.080303036, 0.16434036, 0.08651383, 0.01575596, 0.10961589, -0.08645479, 0.06744828, -0.04708458, -0.01198477, 0.07015918, 0.01920194, -0.02297055, -0.066213675, 0.24667957, 0.08752293, 0.067104675, 0.081908405, 0.003980454, 0.012712686, 0.16859302, -0.10368237, 0.08838209, 0.112564, -0.10611158, 0.23202308, 0.032374494, -0.033949245, 0.11488182, 0.04720531, -0.032415688, -0.012506907, 0.06008271, 0.08679068, -0.016755609, 0.033995967, 0.14147493, -0.13631241, 0.028521959, 0.09091893, -0.1009877, -0.017468816, 0.16022484, 0.04877826, -0.18191656, 0.037262384, 0.010340869, -0.07537411, -0.017470159, 0.046089735, -0.0077453097, 0.017325884, -0.09447201, 0.014608466, 0.22326015, 0.10191377, -0.028443845, 0.086763, -0.05711809, 0.1579317, 0.12632947, -0.13533318, 0.17233421, -0.014557211, -0.062885195, 0.24409522, 0.048152763, -0.026779333, 0.079773016, 0.007919623, 0.23018435, 0.059793122, 0.035450842, 0.048741557, 0.11708481, 0.07744814, 0.11377743, 0.124810874, 0.02686747, 0.05926337, 0.100884795, 0.13879327, 0.11033391, 0.33954903, -0.077164836, 0.0047459924, -0.017304165, 0.081340216, 0.09000422, 0.27351364, 0.12875728, 0.12723798, -0.034800377, -0.10151739, -0.01654188, 0.11928647, 0.108558655, 0.09888083, 0.24213928, 0.26557112, -0.0059713144, 0.07536357, 0.12965518, 0.08713788, 0.059372257, 0.2355732, -0.038635265, -0.068365864, 0.063245416, 0.14497352, 0.22359817, -0.004512792, 0.13984208, 0.033289824, 0.12438298, 0.008690549, 0.014780572, -0.06071767, 0.13089982, 0.04621607, -0.08016159, -5.9425773e-05, -0.05758141, 0.0045715757, 0.09468305, -0.066313475, -0.12638251, -0.017270528, 0.03724205, -0.24068008, -0.008605835, -0.019912142, -0.0067822863, -0.20061024, -0.1853895, 0.06815924, 0.0048373463, 0.08977674, 0.03274672, -0.14578058, -0.24399735, -0.012697827, -0.10958965, 0.058950007, -0.053215582, -0.19490425, -0.039225258, -0.014328212, 0.005464334, -0.09063263, -0.030664325, -0.1928532, -0.06476407, -0.29957622, -0.027930873, -0.010373122, -0.0298281, -0.010651308, 0.0236172, -0.011947444, -0.06382704, -0.21137844, -0.03567439, -0.22491099, -0.11930305, -0.0046938537, -0.0035070083, -0.19973288, 0.04500767, 0.021798305, -0.04854591, 0.02125625, -0.015055433, -0.17541052, -0.1399516, -0.019174697, -0.13392659, -0.098127924, -0.03807142, -0.002733321, -0.13147737, -0.051870663, -0.3296565, -0.06821797, -0.14541295, 0.13891593, -0.07814092, -0.18313693, -0.10706343, 0.11979595, 0.16828686, -0.064784035, 0.08474486, -0.24897315, -0.16319358, 0.06968924, 0.060521822, -0.014988548, -0.2265377, -0.08071056, -0.15004623, -0.15164971, -0.14761215, -0.12216171, -0.15646775, -0.006449601, -0.11709033, 0.046450015, -0.08736219, -0.16924208, -0.06173975, -0.033020396, -0.0660638, -0.08001058, -0.094509155, -0.057346802, 0.08719509, -0.21303663, 0.047074925, 0.022680512, 0.104853705, 0.017729694, 0.0374183, 0.041636653, -0.043808352, -0.101657376, -0.09874127, -0.28333375, -0.0045102895, -0.10592808, 0.057493042, -0.09612793, -0.12760743, -0.10660135, 0.025029918, -0.031103047, -0.034229286, 0.036829237, -0.18051353, 0.060082234, -0.070836246, -0.033130974, -0.16914238, 0.10622179, 0.06757764, -0.15967165, -0.10420429, -0.10720604, -0.0810988, 0.16420999, 0.02361115, -0.15138666, -0.16461967, -0.017415032, -0.06379116, -0.08573698, -0.11608631, -0.28421047, -0.20944501, 0.088288344, 0.20245363, -0.11875636, -0.105396196, -0.08053817, -0.16663714, 0.06536943, 0.097502865, 0.12484388, -0.26944426, -0.04089569, 0.056672435, -0.102169774, 0.052712515, -0.23762739, 0.1594557, -0.21700859, 0.102793455, 0.024188867, 0.16606158, -0.10883835, -0.18982632, -0.043837603, -0.014789441, 0.08628592, -0.025302846, -0.22414753, 0.050631464, -0.1547406, -0.06181532, -0.024338538, -0.24899748, -0.1602864, 0.08111193, 0.15491404, 0.024472766, 0.045726426, -0.023223944, 0.1113938, -0.04809726, 0.08019878, -0.2931846, 0.09072393, -0.085460074, -0.13221066, -0.06830737, -0.14297222, 0.23334719, 0.09890826, 0.041353527, 0.072642416, 0.10585895, -0.0033372447, 0.21274127, 0.18161269, 0.031103073, 0.030885732, -0.04933478, 0.115666986, 0.25669354, 0.15513457, -0.028838623, -0.033730514, -0.15565477, 0.20527987, -0.097071946, -0.0382485, -0.23274146, 0.080836184, -0.16374055, 0.012915524, -0.10483242, 0.04704729, -0.13823868, -0.10460161, -0.08960459, 0.06900132, -0.10443664, -0.0021881775, -0.15086824, -0.0942831, -0.18854998, 0.02504632, -0.016351432, -0.06265762, -0.09552281, -0.11824931, -0.15296778, 0.062141888, 0.01192341, 0.035598814, -0.10996194, -0.018804511, -0.036027912, -0.21788006, -0.07184181, -0.17772463, -0.09838384, -0.15859658, -0.17228869, -0.15603285, 0.028923659, -0.13827258, 0.08314431, 0.06150427, -0.15037063, 0.07926398, -0.23777904, -0.13895425, -0.16406761, 0.110952355, -0.08186297, -0.07433871, -0.115780756, 0.017262893, -0.2976315, 0.008085567, -0.14307575, -0.08492084, -0.12455372, -0.19501777, -0.15835316, 0.06668778, 0.16351637, -0.0363708, -0.100729056, -0.23410724, -0.091843545, 0.053214736, 0.023203474, -0.057632495, -0.12530181, -0.103915095, 0.07021164, 0.063469335, 0.04146527, -0.21861573, -0.011811019, 0.009963316, -0.06381016, -0.049828496, -0.06563363, -0.19452846, -0.076143965, -0.26921576, -0.13124704, 0.025080184, -0.18433943, -0.005861499, -0.043792505, -0.079256706, 0.0741205, 0.07565152, -0.13507824, -0.06001668, 0.052127857, 0.07579963, -0.11935903, -0.1463951, -0.10811745, -0.18342696, -0.13905226, 0.05141928, -0.117627755, -0.025252555, -0.1490116, -0.047218896, -0.03798453, 0.019645028, 0.11600425, -0.08048151, -0.06229876, -0.06714305, -0.14121932, -0.24102168, 0.08468685, -0.11245836, 0.04774179, -0.1656903, -0.42552686, -0.03656626, -0.096305676, -0.11895752, -0.086596705, -0.23286323, -0.12367063, -0.08309397, 0.07072676, -0.28750083, -0.042840563, 0.3474291, 0.027705505, 0.11978935, -0.13849157, 0.048527718, 0.27742398, -0.01314948, 0.13841474, 0.016162045, -0.118637666, 0.037655957, 0.19786122, 0.056607608, 0.067999564, 0.04653288, -0.07623648, 0.07773649, -0.04720286, 0.2960664, -0.07315129, -0.17266189, -0.12848456, 0.23518363, 0.15175483, 0.06746123, 0.0550909, 0.08884631, -0.011737724, 0.0033283546, -0.07854649, 0.05128041, 0.2690225, 0.063438386, 0.09147515, 0.3898213, -0.20959933, 0.11147254, 0.10664844, 0.14722621, 0.0014074469, 0.20312811, 0.05583934, 0.034020368, 0.15570419, -0.0037479466, -0.026999207, 0.087468825, 0.19751875, 0.044895526, -0.14769085, -0.038643803, 0.22094646, 0.0384806, -0.00925056, -0.07434723, -0.119357295, 0.07927658, 0.057954572, 0.03303315, -0.06196396, -0.09402739, -0.029977694, 0.20055522, -0.05295055, -0.027286319, 0.105382495, 0.09074422, 0.09657885, -0.000676271, -0.012537529, -0.03379296, -0.018567434, -0.01800588, 0.09452111, 0.066458985, -0.068964064, -0.10006055, 0.14198744, 0.13196974, 0.0788588, 0.007909864, 0.041798435, -0.051470414, 0.123060666, 0.11744235, 0.08968278, 0.031904537, -0.018296469, 0.17464346, -0.124905124, -0.064493164, 0.14759491, 0.06936485, 0.010403649, 0.17896579, 0.103292495, 0.093385756, -0.0718364, 0.31698254, 0.17562228, 0.17409098, 0.14657702, -0.06964669, 0.06424144, 0.038404867, -0.0159576, -0.05248686, -0.0016223649, -0.018464198, 0.21330412, 0.070806876, -0.07511946, -0.11883617, 0.098864675, 0.055363104, 0.15107146, -0.05750049, -0.008692688, 0.1600405, 0.14851397, -0.14928032, -0.050670657, 0.05290947, 0.059206583, 0.023750758, 0.04998499, 0.00288812, 0.0075529045, -0.028143702, -0.013428827, -0.13051918, -0.05334583, 0.13759872, -0.083223104, 0.024375347, -0.13582444, 0.07511063, -0.19702923, -0.05443664, 0.09198335, 0.06255899, -0.021456469, -0.052086476, 0.062476087, 0.1309837, -0.042991474, -0.13373788, -0.1141175, -0.045323223, 0.024080554, -0.06334478, 0.069522895, -0.15358493, 0.12813458, -0.16770469, 8.4447674e-07, 0.034570225, -0.09050278, 0.12610978, -0.023047533, -0.091211274, 0.168789, 0.029311199, 0.038081594, -0.016764147, -0.12857331, -0.0801721, -0.14839311, 0.15732472, -0.07986843, -0.08816441, 0.03337635, -0.13357006, 0.010644371, -0.16723168, -0.23636556, 0.065084755, 0.03912096, -0.054106563, -0.11734632, 0.07528411, -0.0903252, -0.15347281, 0.07039402, 0.041031476, -0.27340946, -0.12753116, -0.06974093, -0.09116526, -0.00626386, 0.04060517, 0.007534578, 0.103863314, -0.22701207, -0.19794421, -0.15918805, -0.0904685, -0.2406646, -0.13426039, -0.059836715, -0.027550548, -0.08408946, -0.19474266, -0.038841132, -0.074598, -0.022007894, -0.22192028, -0.0900327, -0.10135135, -0.07882259, -0.0016743018, -0.05192647, -0.03532388, -0.077455424, -0.009061185, -0.04184224, -0.029679352, 0.0087998565, 0.07611754, -0.07173964, -0.046187192, 0.22913215, -0.13748617, 0.19825017, -0.092549086, -0.13988139, -0.24268323, -0.18052271, -0.051825907, -0.016257098, 0.019491369, -0.017517807, -0.037501737, -0.09564541, -0.24638721, 0.10601925, 0.009958564, 0.09799726, 0.015670324, -0.14729767, 0.054746166, 0.09739132, -0.010133502, -0.16417117, -0.1521297, 0.011462061, -0.040796462, 0.16634412, -0.074991405, -0.07027527, -0.040448945, 0.038841788, 0.07910802, 0.014398335, -0.16652279, -0.057246704, -0.030305117, 0.03524755, -0.04894804, 0.05829782, 0.013805229, -0.057762917, -0.06621743, -0.042676535, 0.07302528, -0.011211137, 0.13050848, -0.12279738, -0.10686589, -0.10021804, 0.23029326, -0.027730687, 0.24775197, -0.09944683, -0.06675444, -0.10616716, -0.058575276, -0.010079946, 0.019029764, -0.172959, -0.14709923, 0.010195103, -0.03396703, 0.11961462, 0.11501519, -0.07049956, -0.0154377725, -0.17858353, 0.036476802, 0.16894604, -0.05404821, -0.07513585, -0.03335742, -0.031299308, 0.19869754, 0.041247625, 0.05671287, 0.10728644, 0.15859596, -0.039374802, -0.21133044, 0.013766534, -0.05751455, 0.21696195, 0.030608933, -0.06743829, 0.11038093, -0.09630616, 0.04544237, -0.0070605734, 0.06735943, -0.11102823, -0.059078533, -0.097674, -0.09840248, 0.07310134, 0.16331466, -0.1657158, -0.17481168, -0.006630582, 0.0019167336, 0.2723111, 0.09328784, -0.083503924, -0.013217656, 0.023878634, 0.007576729, -0.07488818, -0.12711667, -0.028134268, 0.041632656, -0.16024552, -0.10743176, 0.0021894176, 0.10017135, 0.050075486, 0.14583345, -0.053286787, 0.06347264, -0.063163035, 0.09170901, -0.10351186, -0.14192604, 0.07915167, 0.018117115, 0.04619116, -0.036212817, -0.036079224, 0.12897739, 0.026530448, -0.034820087, -0.17871796, 0.11325821, 0.14439528, 0.052108344, -0.05931898, 0.0043852036, -0.10570862, -0.08629233, 0.015993575, -0.024053115, 0.07434521, 0.022073396, 0.06103816, -0.25410017, 0.016760666, 0.065889284, -0.029370392, 0.07094543, -0.11401239, 0.057774216, 0.020915005, -0.1766967, -0.008456593, 0.093584746, -0.2131099, 0.1534547, 0.014287142, -0.12763926, 0.018545888, 0.083545916, -0.15594965, -0.08815264, 0.010029461, 0.10913957, -0.13601156, 0.011046278, -0.008043803, 0.057521883, 0.0329835, 0.016372595, 0.029298706, -0.036893897, -0.06586487, -0.15001598, 0.008509106, 0.06151887, -0.05709289, -0.07577815, 0.10291035, -0.13534327, 0.03936782, -0.050685734, -0.115640104, -0.14474832, 0.016329724, 0.13314357, 0.007942433, -0.2883462, -0.043084014, -0.02935731, 0.113381825, -0.08175372, -0.15517993, 0.012358262, 0.054184735, -0.03168443, -0.10090299, 0.010753868, -0.20035657, -0.086941816, -0.06942232, 0.037299052, -0.11752622, 0.24434787, 0.01572339, -0.12853585, -0.027767397, 0.041311473, -0.07100669, 0.1775108, -0.13121448, 0.020157043, -0.07409196, 0.031902507, 0.07768639, 0.13045949, -0.025457615, 0.004114035, 0.038641814, -0.08567526, -0.12792358, -0.10462582, 0.050653856, 0.121285096, -0.12371144, -0.015060304, -0.04121532, -0.011062546, 0.025154386, -0.14500031, -0.2702706, 0.044474937, 0.07296837, 0.1215144, 0.007506035, -0.16556366, -0.108589165, 0.1066358, 0.1517344, -0.10153651, -0.27145058, -0.1205786, 0.030174239, -0.07347154, -0.15673861, 0.17595223, -0.1036621, -0.012035553, -0.04794076, -0.025926916, 0.13054322, -0.010273667, -0.05298016, -0.15214247, 0.044830117, 0.008086712, 0.012104402, 0.10688768, -0.07358053, -0.14968431, 0.09429364, 0.12230198, -0.23464458, 0.0054062153, -0.034762196, 0.043463353, 0.011188732, -0.23491931, -0.15010773, 0.009111938, 0.21146291, -0.15202978, 0.20556134, 0.048746053, 0.037396595, 0.010298668, -0.20514211, 0.038069494, 0.04594392, 0.10731097, -0.26420256, -0.20307247, 0.006564157, -0.08419893, 0.055017456, 0.031636048, 0.017578382, 0.01624554, -0.12321044, -0.16455717, 0.047058705, 0.17728022, 0.1117598, 0.116406254, -0.048604686, -0.05619379, 0.14608239, 0.11183918, -0.019586239, 0.0814113, 0.00917311, 0.036767587, -0.07338616, 0.014419224, 0.1474246, 0.012687373, 0.2525929, 0.16793345, 0.21812105, -0.07441029, -0.07716731, -0.14213534, 0.00927331, -0.02163871, 0.15043026, 0.038207527, -0.03972929, 0.10116705, 0.14596452, 0.01916851, -0.07808873, -0.14132097, 0.12353264, 0.021980077, 0.2570491, 0.016117346, -0.081884764, 0.09665622, -0.044978265, 0.043347076, 0.022290817, 0.16876487, 0.2024938, 0.020920059, -0.017046336, 0.081386834, -0.091919586, -0.09874437, -0.022888884, 0.15820208, 0.009351285, 0.022026263, 0.0034986315, 0.021845695, 0.15249811, 0.24892545, 0.06028816, -0.026884383, -0.0889495, 0.16012475, -0.11463139, 0.18604094, 0.18249966, 0.044943377, -0.098494455, -0.17825858, -0.17121542, -0.25925732, 0.060273398, -0.10918765, -0.17627175, -0.14018379, -0.078815944, 0.037979204, -0.01114906, -0.2534343, 0.087984145, -0.07406212, -0.16932298, -0.10347163, -0.07329613, -0.13755862, 0.16922133, -0.18739028, 0.06331986, -0.08890412, 0.09352545, -0.1440432, -0.08613978, -0.062393293, -0.19606625, -0.04857043, -0.0024817549, -0.08918817, 0.0448669, -0.16938475, -0.13487771, -0.19877723, -0.30865952, -0.10376334, 0.065400235, -0.12825803, -0.18240051, -0.06181447, -0.20688634, -0.20123379, -0.05315047, -0.14913689, -0.15308793, 0.15382692, 0.029953629, 0.09896651, -0.18338001, -0.14010789, 0.18263276, 0.058133002, 0.05291454, -0.13308996, -0.16630559, -0.05161427, 0.25951198, -0.1970405, 0.04094034, -0.022605196, -0.17699574, 0.037650518, -0.11404357, -0.02763536, 0.082290076, -0.14996827, 0.053005703, 0.030088069, 0.2246518, -0.21622208, -0.19418775, 0.09667584, -0.10962764, 0.048583504, 0.19667836, 0.048599586, -0.2877119, -0.0218969, 0.27662143, 0.022745196, -0.009668436, 0.10114916, 0.2424187, -0.009690953, 0.16999228, 0.17020214, 0.3341322, -0.03506089, -0.06725787, 0.31168973, -0.10404732, -0.05092393, 0.08975626, -0.075039364, 0.122105375, -0.072792955, -0.21952988, -0.089165576, -0.16641264, -0.01518421, 0.24862954, 0.14090952, -0.03148473, 0.0107446965, -0.06209746, 0.055012196, 0.09505398, 0.17349525, -0.17167632, -0.010940186, -0.13192315, -0.09858105, -0.08501939, 0.07045224, 0.15543404, 0.1671979, 0.06833124, 0.23260759, 0.03888845, 0.06573011, 0.05309169, -0.017699216, 0.059536997, 0.126403, -0.04893873, 0.122174576, 0.20603196, 0.059487958, 0.17130005, -0.077294305, 0.19445036, -0.06974805, -0.0176324, -0.053338233, 0.30242577, 0.049782537, 0.04690607, 0.027006483, -0.034681737, 0.07215704, 0.18357055, 0.088323854, 0.18357593, -0.12402601, 0.080416836, 0.09004003, 0.056711134, 0.12922457, -0.09360794, -0.04281646, 0.083959796, -0.016594246, 0.06414279, -0.016986733, 0.0993959, 0.034129694, 0.019927425, 0.067471825, -0.0073193973, 0.11434613, -0.00097586843, 0.0069245133, -0.03325292, 0.03422615, -0.036077023, 0.12209701, -0.032405205, 0.022974672, 0.043743514, 0.141639, 0.1628013, 0.1694627, 0.21067145, -0.03445902, 0.2127767, 0.19771247, 0.16426757, 0.1136704, -0.07662025, 0.10254622, 0.07546898, 0.08808045, 0.061385836, -2.5807443e-05, 0.029541267, -0.07571672, -0.13529246, -0.06344761, -0.09259063, -0.019854505, -0.070398964, -0.060880803, -0.07308088, 0.037960403, -0.16023892, -0.053667463, -0.1334634, 0.050357636, -0.26163593, 0.25961584, -0.066903695, 0.017829342, -0.062445942, -0.13547839, -0.0077860863, -0.124109365, -0.01713366, -0.098311394, -0.13919443, -0.22875586, -0.099165484, -0.15482873, -0.27412027, -0.037516285, -0.11910166, -0.051510308, -0.023324022, -0.059797056, -0.028309787, 0.13948736, 0.09208552, 0.002659557, 0.05767435, -0.012449828, 0.11524964, -0.15920728, -0.2041619, -0.14838323, 0.031850416, 0.00019234257, -0.055777073, -0.13886705, -0.17697367, 0.10107258, 0.00580147, -0.10947638, 0.057952225, 0.098352805, 0.09175734, -0.089266725, -0.083223365, -0.019285787, -0.035530247, -0.0011871482, 0.008802472, 0.09437221, -0.20481494, -0.16105573, 0.19416396, 0.098255955, -0.08459282, -0.24306138, 0.008179935, 0.013932132, 0.07871777, 0.08361811, -0.029107554, 0.041600667, 0.18344606, -0.07789309, 0.11150518, 0.07228036, 0.13824423, 0.03176207, -0.082462, 0.12411188, 0.18621758, 0.17021179, -0.06039662, -0.09595652, 0.12268061, 0.124756046, 0.205918, 0.08373029, -0.010554314, 0.08231272, 0.17089729, -0.05677401, 0.10584, -0.15354545, -0.10249076, 0.132191, 0.14553049, -0.013562314, 0.061856948, 0.09471846, 0.03436263, -0.07089242, -0.099665284, 0.09816628, 0.07188579, 0.25509065, 0.04981968, 0.1657312, 0.12976906, -0.089712, 0.002702351, -0.07671044, -0.1156457, 0.24424312, -0.097616844, 0.004751507, 0.009795366, -0.02144216, 0.13791744, 0.05690033, 0.037936434, 0.1170637, 0.10041637, -0.014790257, 0.07187786, 0.2057635, 0.08417266, 0.023745531, -0.05022033, 0.16887264, 0.023165977, -0.10258483, 0.15178382, 0.058898665, 0.10705901, -0.08562257, 0.059433803, -0.11388231, -0.19503494, 0.10536376, -0.03064158, -0.22422697, 0.0727229, -0.028954946, 0.21221668, -0.05566302, 0.009680633, 0.011378138, -0.015298262, 0.19493204, -0.025947103, -0.11836138, 0.068954915, -0.29942188, 0.033068072, 0.05897893, -0.09728577, -0.17003064, -0.06437112, 0.11870482, 0.038206093, 0.00018413841, -0.110466816, -0.005653828, -0.054729946, 0.09372162, 0.047939993, -0.14223658, -0.1850304, -0.049647238, 0.060199276, -0.0059340135, -0.07512084, -0.21006215, -0.10553744, -0.2821752, -0.12016703, 0.01704507, -0.058732197, -0.0808255, 0.10345889, -0.079759754, 0.020426782, 0.09126249, 0.025692921, -0.1912677, 0.18299048, -0.06750463, -0.11089264, 0.0063628852, -0.013488815, -0.09440004, 0.1951892, -0.020292036, -0.03589799, -0.081832826, -0.12528577, 0.033056974, -0.04013208, 0.020980813, -0.20201814, -0.09004099, 0.011374062, -0.05556963, 0.09227016, -0.24512571, 0.07747196, 0.03830068, -0.024722, 0.07164365, 0.14262305, -0.09041521, 0.17322607, -0.028640404, 0.04735987, -0.18590306, 0.081888, 0.018057048, 0.18987839, 0.076259635, 0.01205438, -0.02108055, -0.04163765, 0.25861856, -0.04412632, 0.11973563, 0.08479616, 0.052907214, -0.09279102, -0.09774299, 0.096810535, -0.0032430934, -0.15184757, 0.09629139, 0.06933613, 0.05826018, 0.08530696, 0.079119995, 0.054533966, 0.041987535, -0.114005655, -0.16741054, 0.055213325, 0.047160823, -0.015343532, 0.03546563, -0.1163145, -0.003168134, 0.15028313, -0.10999266, 0.122257054, 0.014819774, 0.14221372, 0.12967838, 0.07130593, 0.17192158, 0.16900167, 0.071973085, -0.025698183, -0.16054276, 0.20721434, 0.22407247, -0.01882536, 0.07199745, -0.028148558, -0.0472893, -0.100712195, 0.004062179, -0.021830078, -0.057077505, -0.0710481, -0.1584525, -0.055549614, 0.0005648544, -0.098536074, 0.16449997, -0.23001078, 0.030807883, 0.096306935, 0.015151069, -0.10762964, 0.038465474, -0.13275157, -0.056474224, 0.0018431868, 0.029010134, -0.060882017, -0.11569486, 0.0012947357, 0.077707805, 0.011248785, -0.12042316, -0.115404144, -0.03471621, 0.14695363, -0.0805268, -0.028010705, 0.05334735, -0.100554876, -0.09176458, -0.013911776, 0.077318035, -0.084092125, -0.2720645, 0.039417524, -0.03349352, 0.038581993, -0.04667756, -0.016706813, 0.038624298, 0.0771548, 0.061985075, -0.17254189, 0.01148631, 0.2041028, -0.09003468, -0.031276174, -0.040693577, -0.005124489, -0.059198953, 0.047142204, -0.20599137, -0.15901849, -0.1080838, -0.18089229, -0.19658995, -0.09304126, -0.17764142, -0.03739169, 0.1367488, -0.03155586, 0.05519606, -0.18377542, -0.055453725, 0.017406555, -0.1338999, 0.052352436, -0.1279114, 0.014013576, 0.0035695934, -0.053871818, 0.08826653, 0.06411094, 0.014919253, 0.010034207, -0.01922854, -0.12137982, -0.09562081, 0.08021804, -0.020201594, 0.08588067, -0.25610492, -0.04525252, 0.0034929789, 0.02515294, 0.0053991354, 0.029947996, -0.0006995922, -0.08999765, -0.008982076, -0.07873728, -0.2958832, 0.06866623, -0.021345533, -0.07313111, 0.08492843, -0.04416235, -0.1463296, -0.09788992, 0.11248779, -0.15556586, -0.07919701, -0.03032789, 0.07706438, -0.14259508, 0.024094164, 0.051724594, -0.06854339, -0.11705592, -0.06814597, -0.17842472, -0.11520129, 0.015012692, 0.1310034, 0.03974292, -0.13480861, 0.025643237, 0.20702858, -0.12350495, 0.0060740234, 0.043058164, -0.1629843, -0.2557695, -0.051734142, 0.1960904, 0.010841891, -0.20205955, -0.03166598, -0.06591359, 0.09014402, 0.08711857, -0.1258065, -0.17533074, 0.08480574, 0.080609486, -0.06737102, 0.019370677, -0.12567048, -0.009748839, -0.35402533, 0.20557477, 0.048414532, 0.14207593, -0.16180713, 0.036039554, 0.095366776, -0.18469542, 0.22144772, -0.13653862, 0.03688478, 0.31221297, -0.12296752, -0.04701221, -0.19489941, -0.26599383, -0.03927753, 0.24452676, -0.09746715, -0.11582324, -0.21928555, -0.246653, 0.008648489, -0.14416456, -0.042568963, -0.18906794, 0.0087837875, -0.10186581, 0.040501278, -0.23783247, -0.07437005, 0.17778797, 0.041098446, -0.17336799, -0.05313169, -0.0063252756, 0.11023872, 0.18515018, 0.078939654, -0.06803197, -0.036095362, -0.1348256, 0.006294984, 0.43990305, 0.112011656, -0.055561006, 0.1270925, -0.022227889, 0.030075068, 0.1798301, 0.13524772, 0.031136464, -0.19326508, -0.015740035, 0.0834208, -0.06349143, 0.09588735, -0.054205384, -0.095770895, -0.046176635, 0.13392887, 0.15334518, -0.14778256, 0.00046500473, 0.033787, 0.19018647, -0.036639042, 0.07261168, -0.14808515, -0.15733895, 0.011362403, -0.080194384, -0.05209858, -0.10484644, 0.11659386, 0.029366536, -0.00038034926, -0.07187648, -0.003573551, -0.020803494, 0.047033038, 0.008375901, -0.03527392, -0.007941646, -0.10832365, 0.0877068, -0.015508931, -0.08423664, -0.119667545, -0.16609995, 0.18938369, 0.023035558, -0.028738597, -0.02171703, -0.18891859, 0.23743528, -0.025151601, 0.006516915, -0.17056245, 0.040546432, -0.044162303, -0.008196841, 0.1810927, -0.10662084, 0.26521695, 0.06411311, 0.0036054251, 0.10408606, 0.04777705, -0.08809167, 0.021659663, 0.034314003, 0.08669886, 0.19447383, 0.055138968, 0.012093166, -0.058785375, 0.0072220666, -0.016172683, 0.11282905, -0.023690835, 0.13009088, -0.114637144, 0.06578987, 0.16513333, 0.0012926133, 0.10604943, 0.17502604, -0.029304009, 0.1042144, 0.06733708, 0.24598521, -0.027101565, 0.04078501, 0.059562057, -0.041952584, 0.022180444, 0.026565775, 0.11563545, 0.032574445, -0.10334533, -0.06684002, 0.17050722, 0.054671023, 0.14299898, 0.24327978, 0.079975, 0.011890213, -0.026422732, 0.0051296204, -0.050769012, -0.025406025, 0.08301271, -0.007882076, -0.06359985, 0.07679811, -0.09423681, -0.075004555, 0.02111682, 0.15065852, -0.052049905, 0.0011118297, -0.040986765, 0.16633792, -0.033313155, 0.07786779, 0.009488256, -0.056799162, 0.09274329, 0.10127755, 0.014076887, -0.020549757, -0.017706357, 0.105129644, 0.02732574, 0.015544214, -0.052773934, 0.09029736, -0.077898316, 0.09971763, -0.107212916, 0.12314724, -0.040585145, 0.057950523, 0.042523384, 0.014294526, 0.115667954, 0.114404954, -0.024304321, 0.0127096465, -0.024375724, 0.106643096, 0.05716953, 0.17421928, -0.03147015, 0.09469745, -0.018297428, -0.08452087, -0.049334146, 0.01943387, 0.11247581, -0.16350153, -0.12146855, 0.027803367, -0.041437842, 0.12484225, -0.073272675, -0.11463142, 0.12175474, 0.12561539, 0.07711, -0.08129332, -0.12859635, -0.112456664, 0.050756525, -0.065679826, 0.1712492, -0.08860113, 0.19174664, 0.004148513, 0.10913561, 0.063962676, -0.11206154, 0.024875559, -0.08848187, -0.033424743, -0.008681615, 0.18516307, 0.11906534, 0.08500752, -0.11462864, 0.0057013296, 0.16432099, 0.05067083, -0.08805641, 0.130543, 0.06347249, -0.048038792, 0.18261926, 0.16815023, -0.11668314, -0.039437428, 0.08810454, -0.06486279, -0.023142915, -0.014876353, 0.22720113, 0.01459905, 0.030576678, -0.029366039, 0.024681726, -0.068088345, -0.029240973, 0.07184996, 0.13433719, -0.080523476, 0.15179317, 0.03618577, 0.03881183, -0.038310334, 0.04626669, 0.12698796, 0.21908627, -0.056969825, 0.058134027, 0.04531542, -0.06559683, -0.10577517, 0.0012992317, -0.102641925, 0.06338321, -0.021505348, 0.25362697, 0.03649717, -0.02073744, 0.038940657, 0.07317494, -0.064228654, 0.17375161, 0.038731936, 0.04458746, 0.11608525, 0.15270382, 0.1889365, 0.0029959686, -0.047988296, -0.057095297, -0.08386537, 0.17938899, 0.037748136, -0.03978874, 0.052948963, 0.1563581, 0.022383772, -0.050545663, -0.084874354, 0.0151667725, 0.041442417, 0.05737606, 0.053776994, 0.02803615, 0.014079539, 0.032285374, 0.059565857, 0.10164147, 0.120427415, 0.012392837, 0.14180855, 0.18547808, -0.06944259, -0.07070835, -0.024572568, 0.10501003, 0.04608012, -0.062374316, 0.21331392, -0.058496542, 0.169609, 0.18041316, -0.030612705, 0.04588017, 0.20260684, 0.01933979, -0.027877932, 0.018212112, 0.00016353419, 0.06286854, 0.03585183, 0.059490822, 0.09395508, 0.14748992, 0.17700557, 0.02106617, 0.07883676, -0.0077780345, 0.20687619, 0.22436959, 0.039906815, 0.25131872, 0.21536459, 0.07780626, 0.051972695, 0.12539706, 0.19832678, 0.044910893, 0.19453478, 0.0974362, 0.28017148, 0.0883825, -0.1370195, 0.045533676, 0.11212203, 0.02061491, 0.12034157, -0.047090486, 0.17844151, 0.02480751, 0.16322275, 0.13587913, -0.028295372, 0.19977076, 0.20942982, 0.107511245, -0.00717274, 0.055605814, 0.1260867, 0.07647911, 0.058877986, 0.083738364, -0.18369302, 0.080188334, 0.22025788, 0.06045124, -0.09698554, -0.1779169, -0.124414444, 0.23545977, -0.0336744, 0.17663124, -0.14010389, 0.03531525, 0.09374833, 0.18335922, -0.03814833, 0.11307543, -0.27400655, 0.1263893, -0.10639033, 0.14478825, 0.22345936, 0.04277202, -0.035411473, -0.08140197, 0.09045371, 0.10417035, -0.16540399, 0.27507803, 0.01835444, 0.18759735, 0.1792878, 0.1131973, -0.20085964, 0.07357304, 0.020341896, 0.03827787, 0.07022841, -0.0095062535, -0.07076844, 0.1882569, -0.008313382, -0.13451841, -0.012929036, -0.12776269, 0.06467158, 0.2012266, -0.2855936, 0.2134121, 0.06274666, 0.18189293, 0.1505713, -0.040697474, -0.28807202, 0.06714642, -0.033361293, -0.03866291, 0.13210353, -0.031263005, -0.07722774, -0.0003316566, 0.16622925, -0.070976175, 0.017990893, -0.073394574, 0.16505349, -0.124685556, 0.029907614, -0.21125998, 0.09980549, 0.08647598, -0.05108499, -0.016516501, -0.08023582, 0.10615154, -0.08154055, -0.011794464, 0.030481532, -0.016045297, 0.145894, -0.063252084, 0.27301705, -0.10633928, -0.0062014693, -0.21799567, 0.0115469545, 0.027761312, -0.15427822, -0.059863348, -0.046922207, -0.20434074, -0.007467869, -0.16573451, -0.09418785, -0.02199114, -0.23132816, 0.012424575, -0.054209076, -0.09790926, -0.29221037, -0.0013621883, -0.12680104, -0.21925029, -0.0921976, -0.011173301, -0.18591273, 0.03629874, 0.028592302, 0.019974994, 0.04546461, -0.091002144, 0.17664297, -0.13641626, 0.120122306, 0.13318253, -0.065005615, 0.09244691, -0.07188846, -0.030167336, -0.04840484, 0.20485957, -0.07041509, -0.15314634, 0.17900881, -0.010896032, -0.015717393, -0.008061555, -0.10456651, -0.33331415, 0.10519597, 0.0039600995, 0.008580581, 0.0759179, -0.064998806, 0.07293661, 0.058513902, 0.025497077, -0.022341374, -0.012073773, -0.13991837, 0.25023875, 0.045682266, 0.2943322, -0.008905515, 0.07643019, -0.119632736, -0.022269366, -0.03902423, -0.014516611, -0.14499685, -0.0031042723, -0.007593671, 0.048990093, 0.05798855, 0.108086795, 0.008746788, 0.061358485, -0.11475554, 0.011005126, 0.008967538, -0.061426044, 0.11367771, 0.06515456, 0.17253006, 0.01639071, -0.0811781, 0.027147992, 0.08277103, -0.13023524, 0.10978464, 0.11879734, -0.19712105, -0.09827715, -0.14445198, 0.17638034, -0.0061466363, -0.004850188, -0.1309217, -0.043406367, 0.18608922, 0.14741288, 0.05883914, -0.18393478, -0.09008915, -0.09238245, 0.17587216, -0.03943192, -0.112575084, 0.1333363, 0.08321601, -0.010787823, 0.20333646, -0.07009951, -0.016199393, 0.08343702, 0.12112474, 0.091310225, -0.06405713, -0.03184416, -0.051913816, 0.20617412, -0.079336666, -0.10985282, 0.25024357, 0.028309206, -0.013207174, 0.12619095, -0.052789483, 0.17209408, -0.038285494, 0.073453896, 0.109357245, -0.060714792, 0.11966731, 0.1676581, 0.13473286, -0.015794968, 0.06556719, -0.022844004, 0.09256178, 0.1244221, 0.15913157, -0.004145646, 0.1587358, 0.13308541, 0.061447665, 0.20127535, 0.29325232, -0.038189404, -0.07218239, 0.022225132, 0.14263783, 0.10149757, 0.09025649, -0.14247644, 0.21714334, -0.07844233, 0.03274035, 0.2181233, 0.06364041, 0.082089216, -0.045566715, -0.025874477, 0.2876442, 0.13842706, -0.07654991, 0.04693009, 0.008718554, 0.057876144, 0.17108206, 0.12501429, -0.03898189, 0.15705182, 0.07336034, 0.07100053, -0.066416375, -0.079684675, -0.032066263, 0.09835177, -0.034748115, -0.061223824, -0.04514227, 0.11639142, 0.052040607, -0.018462574, 0.08205166, -0.15026101, -0.04318404, -0.038911805, -0.12432421, 0.11143474, -0.074926265, 0.10135526, -0.13666174, 0.11527998, -0.045484744, 0.013193995, -0.16755363, -0.05588548, 0.04815349, -0.1654394, 0.117085785, 0.043273203, -0.082669556, -0.009893584, 0.08052949, 0.119756535, 0.19477803, 0.10910607, 0.007433474, -0.09820695, -0.04722551, 0.034799393, 0.07787582, 0.12745161, 0.04694131, -0.16223507, 0.12616166, -0.016125325, -0.05081605, -0.06813351, -0.15209123, -0.09105104, -0.05851615, 0.08763392, -0.13229463, 0.05423839, 0.027245091, 0.14376445, -0.056957062, 0.046150222, -0.08787832, -0.15719828, -0.038351033, -0.047507904, -0.03891209, 0.06442488, -0.046255402, -0.16992937, 0.11147307, 0.05320812, 0.12762703, -0.06569599, -0.052179433, -0.23539533, 0.1859237, 0.17606093, 0.2749092, -0.16035555, -0.05810621, -0.05921966, 0.011396854, 0.15990117, 0.024648298, -0.032364726, 0.07967339, -0.094187915, 0.20075133, 0.07266418, 0.20265858, -0.0079340255, -0.09355017, 0.280491, -0.015394007, -0.077579126, 0.033968933, -0.028400943, 0.019095961, -0.06312392, 0.1204533, 0.03959984, -0.0805954, 0.021245165, 0.22230895, -0.091939434, -0.054421254, -0.090611205, -0.04591522, -0.15476668, -0.11595548, -0.18619059, 0.057169028, 0.0092533585, 0.15071993, 0.106384225, -0.13682888, -0.029565837, 0.067858055, -0.17768152, 0.045080435, -0.09175497, 0.04668286, -0.0262858, 0.013080175, -0.0011171594, -0.08553162, 0.08020952, -0.05733929, 0.03860566, 0.023079947, -0.047346722, 0.062432464, 0.047974646, 0.19258009, 0.052049875, 0.10258383, 0.072976574, 0.26544917, 0.16515695, 0.09068678, -0.20156121, 0.1297672, -0.04573661, 0.15949787, 0.026089054, 0.15344475, 0.19500555, 0.052794434, -0.037118424, 0.21520233, 0.13186379, 0.16528566, 0.053589813, -0.019172419, 0.045700815, 0.14744869, 0.16540566, -0.002170445, 0.039765336, 0.030178266, 0.1000108, -0.020396464, -0.054859847, 0.08721332, 0.071998164, 0.1720778, 0.21615088, 0.086493075, 0.09927422, -0.06860901, 0.24197666, 0.14633845, 0.07296856, 0.20182927, 0.08156991, -0.14800502, -0.0020517884, 0.24977878, -0.010755879, 0.07122401, 0.26353055, 0.16177212, 0.03549768, -0.06706157, 0.10560072, 0.35804197, 0.013455225, -0.009274085, 0.041706853, 0.05547265, 0.12964757, -0.041610587, -0.06888669, 0.1033928, 0.23162346, 0.031041907, -0.051335976, -0.10997553, 0.2247665, 0.12929371, -0.16588528, -0.10363605, 0.06753323, 0.062204275, -0.057816807, 0.04247405, -0.111012794, -0.17240973, 0.0315139, -0.20076562, 0.07292858, 0.07596288, -0.252761, -0.103879884, 0.013291115, -0.06399806, 0.028579181, -0.1480397, 0.07821642, 0.07791107, -0.2022702, 0.056419943, -0.048869688, -0.12942973, 0.08980273, -0.075154305, -0.09513489, -0.16601801, 0.11451258, -0.00030018511, -0.1560313, -0.21275817, 0.027599815, -0.21489371, 0.010347428, -0.05057881, 0.03978506, 0.018267749, 0.01089616, 0.046179812, -0.112372145, -0.2392666, -0.07166456, 0.024929991, -0.0012042874, -0.03200074, -0.004090987, -0.06955687, -0.085265405, -0.04638556, -0.14601812, -0.1788563, 0.15556024, 0.032583702, 0.10504482, -0.046340745, -0.057406615, -0.0016593137, -0.07065499, 0.10341576, 0.107102305, 0.1251964, 0.060248625, 0.16122992, 0.05678959, 0.046055175, -0.07857955, 0.008103645, -0.023714753, -0.022521146, -0.06257775, -0.13210467, -0.12807599, 0.28444833, 0.09861471, 0.07593043, 0.092673585, 0.15969996, -0.10843488, 0.27906698, -0.05488224, 0.094579674, -0.17058921, -0.022335185, 0.039821938, 0.09855365, 0.019102162, 0.067932546, -0.031461876, -0.16012609, -0.047691543, -0.07919664, 0.05396093, 0.075191684, 0.23547603, -0.076921344, -0.015534982, 0.0647454, 0.003957428, 0.04445909, 0.082411654, 0.18136705, 0.08760308, -0.11144524, 0.09003877, -0.032341093, 0.060542367, 0.08223773, -0.058947023, 0.106810436, 0.020501575, 0.016996797, 0.11675715, 0.13329284, -0.03447305, -0.08091459, 0.25278, -0.0891447, 0.15380871, -0.05934952, -0.16405198, 0.34055716, 0.26515332, 0.12203986, 0.12531985, 0.008789639, 0.015088724, -0.06250309, 0.126476, 0.012786653, 0.037942007, -0.07740668, 0.006083399, 0.034129802, 0.13208851, -0.06130038, 0.10271551, -0.043136265, 0.07809033, 0.019445995, 0.12462848, 0.08886513, 0.086417116, 0.07771885, 0.15034278, 0.17137183, 0.059255507, -0.011670836, 0.27053478, 0.021328785, -0.03127775, -0.06509723, 0.017405547, -0.021231867, 0.09703991, 0.12415225, 0.12586984, -0.10789653, 0.06189501, -0.0077216513, 0.012671566, 0.10090652, -0.08099051, 0.008645413, 0.099830054, -0.18469621, 0.014988008, -0.18587391, 0.021936035, 0.11890023, -0.016672246, 0.012462704, -0.029499792, 0.0085125575, -0.16501012, 0.13950555, 0.10515295, 0.060738854, 0.18430237, 0.031664807, 0.026193172, 0.039293803, 0.07544518, -0.042754546, 0.0009988858, 0.14705636, 0.06771538, -0.051588774, 0.08357324, -0.05284304, -0.24112447, 0.035197828, 0.04107345, 0.1933384, 0.00024950565, -0.08041451, 0.117994495, -0.0394501, -0.1467232, -0.0541337, 0.07439334, -0.00035800907, -0.021438295, 0.07789551, 0.0052312547, -0.002222877, -0.022352885, -0.094263226, 0.0031964707, 0.04452076, 0.027970536, -0.038704816, 0.08166795, -0.034732185, 0.13617371, 0.08737034, 0.09522717, -0.086264975, 0.12596272, 0.018429568, 0.024095131, -0.18511592, -0.018798511, 0.09790114, -0.038643282, -0.22967288, -0.1338695, -0.058176525, 0.07169734, 0.022097118, -0.0869564, 0.014051383, -0.014122319, 0.16468242, 0.12519272, -0.18420431, 0.059747733, 0.014695719, 0.20048678, -0.001943998, -0.038840678, -0.011096754, 0.14428428, 0.05856948, -0.2956306, -0.017106734, 0.10954802, -0.09512305, 0.09552795, -0.20271873, 0.122197114, -0.10372978, -0.07409165, -0.15282205, -0.26510486, -0.07180157, 0.11603289, -0.029841026, -0.052119922, -0.14322975, 0.16132665, 0.14523305, -0.18386532, -0.0028341885, -0.14297688, -0.018612947, -0.0641004, -0.16788675, 0.11809144, 0.012369598, -0.0052810223, -0.17674355, 0.025028147, -0.020141963, -0.0073568798, -0.17944832, 0.0065253945, 0.16145182, -0.06515313, 0.054595396, -0.010761096, 0.04795979, 0.0030797368, 0.14541686, 0.005015443, 0.09071763, 0.00957212, 0.09646375, -0.034839466, 0.06989885, -0.085474096, 0.025453221, 0.076121174, -0.2156732, -0.19587296, 0.22637941, 0.1708308, 0.10254294, -0.00045391926, -0.22813347, 0.05298182, 0.03662364, -0.020305077, -0.011018426, -0.19796346, 0.06242706, 0.10995874, 0.16887458, -0.063135006, -0.05604898, -0.116329595, 0.14982618, -0.0726241, -0.14618123, -0.057068493};