float W1_O[]={
-0.033620857, -0.10401508, 0.14022195, -0.026787257, 0.016737856, 0.061381742, 0.059862807, -0.0813606, 0.09083197, 0.075484775, -0.01882455, 0.115781255, -0.007821117, 0.0807015, 0.020131059, -0.12298227, 0.047791477, 0.12174751, -0.11509525, 0.17771678, 0.019011078, 0.05582606, 0.06909171, 0.04164367, -0.0756496, -0.08575564, 0.10399823, 0.07423369, 0.01317266, -0.047005992, 0.09064526, -0.048067275, 0.0037954275, -0.018848464, 0.08942854, 0.009304856, -0.095208205, -0.10232674, 0.101750806, 0.15032524, 0.00731351, -0.13332203, 0.06485086, -0.009000581, -0.12748125, 0.10556082, 0.12092415, 0.07382174, -0.10568222, -0.14660892, -0.11875667, 0.089242004, -0.07522723, 0.0022466257, 0.1345182, 0.08337428, 0.0875371, -0.09231541, 0.1232464, 0.020041939, 0.10523777, 0.027363872, 0.06381011, -0.1079368, 0.117777504, 0.09088266, -0.07175637, -0.014352507, -0.07285036, 0.12867156, 0.029916868, 0.032312695, -0.013836649, 0.11291507, 0.0025939934, 0.053618833, -0.11167381, 0.07944502, 0.12222105, 0.035683632, 0.058767755, 0.063007526, 0.095777765, -0.12215694, 0.1887278, -0.07930185, -0.04995043, -0.03206922, -0.08483904, -0.17161909, 0.094319314, -0.024072682, -0.058313258, 0.0076843454, 0.06656409, 0.14530456, 0.029913414, -0.019885238, 0.00417957, -0.13729315, 0.22090505, -0.11052495, -0.10224416, -0.053009797, 0.09903601, -0.031828325, 0.031191768, -0.17164576, -0.092264086, 0.08427853, -0.0146536855, -0.18679877, -0.17183444, 0.027138066, -0.12200697, -0.09646547, -0.14016888, -0.06099507, 0.13326056, -0.03735726, 0.034207813, 0.041111313, 0.17709251, 0.13183531, 0.09412145, -0.050119925, 0.13674259, -0.0257382, 0.07273891, 0.01419078, -0.056673527, -0.060216565, -0.16973779, 0.013250075, 0.08998687, -0.05841779, 0.010615843, 0.04333044, -0.00065158197, -0.105330735, -0.031050676, 0.025175381, -0.037004575, -0.11895211, -0.09094094, 0.09821989, 0.14111216, 0.09221209, 0.09057784, -0.045858987, -0.05706405, 0.039796557, -0.04235294, 0.08398846, -0.14277303, -0.0026454858, 0.13924198, -0.13933921, 0.033686757, -0.10083257, 0.18710683, 0.05265916, -0.13294968, 0.06668861, 0.095962845, -0.037223265, -0.19015037, -0.0015217869, 0.01671255, -0.03965063, 0.03860601, -0.068047, 0.049528062, -0.015286179, 0.136552, -0.0316969, -0.044585783, 0.31209436, 0.070474386, 0.015490825, -0.037955403, 0.15614383, 0.012132632, 0.031591427, -0.13086635, -0.10108768, 0.23329522, 0.18295649, -0.10837927, 0.0045328517, -0.055175535, 0.22064774, -0.1030813, -0.05761438, -0.13544574, 0.07859273, 0.040179238, -0.058235332, -0.058702588, 0.04491431, -0.15178663, -0.0437056, -0.08201906, -0.032473717, 0.0017193544, -0.03097562, -0.011796662, 0.1803398, -0.21231197, 0.017532373, -0.08052206, 0.047839534, -0.11164203, 0.0063302983, -0.043086715, 0.06249429, -0.15134321, 0.038737696, 0.0077692578, 0.20288776, 0.016965166, -0.018776288, -0.057143606, -0.2816442, 0.064841144, -0.071460344, 0.07480228, -0.03296565, 0.027119681, -0.06580798, -0.172115, 0.0575357, 0.13965887, -0.016645128, -0.029658874, 0.09331266, -0.08767831, -0.021336101, -0.069317624, -0.1602642, -0.04488385, 0.058691017, -0.06114233, 0.016791213, -0.035197444, -0.12708227, 0.0270253, -0.011661439, -0.0016983389, -0.1752108, 0.032953966, 0.13179402, -0.21106325, 0.2505525, 0.15884452, 0.08669113, -0.0097816475, 0.03158613, -0.07312465, -0.15303122, -0.11023772, 0.13840808, 0.09247117, -0.08151095, -0.09796965, 0.13096976, 0.025386905, 0.024381548, 0.22017623, -0.014796026, -0.2000158, -0.098885074, -0.12744379, 0.08995336, 0.03185747, 0.039862406, -0.08630451, 0.13686322, 0.07812355, 0.026256358, -0.010014825, -0.008608854, 0.1398117, 0.18661138, 0.17243282, -0.07199216, 0.094875515, -0.15549417, -0.022782022, 0.22272322, 0.02673065, -0.053103194, 0.0035844112, 0.05404061, -0.13439184, -0.19580227, 0.038892463, 0.06491158, 0.044011828, -0.032853633, 0.014267743, -0.11109775, 0.21238934, 0.031548742, -0.2554664, 0.22503397, 0.16208307, -0.078267686, 0.13214879, -0.044370472, 0.036466073, -0.117900394, -0.11043403, -0.10328168, 0.12289932, -0.10738809, -0.1445037, 0.13566999, 0.15489925, 0.13167483, 0.05684462, 0.16980901, 0.048550233, -0.0950892, -0.16764845, -0.040115234, -0.073794, -0.12692751, 0.008225466, 0.16311571, 0.05199939, 0.05745115, -0.05749845, -0.058977425, 0.009456371, -0.08857968, 0.06821076, 0.19169204, -0.13718979, -0.04831957, -0.056792304, 0.19897552, -0.1338889, -0.040670983, 0.028694842, -0.015845127, 0.015567292, 0.096757434, -0.08876773, 0.16636093, 0.061493337, -0.0037277823, 0.06920121, 0.04623933, 0.099943586, -0.025293073, -0.059384767, 0.08406292, -0.06669973, -0.07532666, -0.11113563, -0.116877906, -0.06069957, 0.049761217, 0.051624443, -0.005127726, -0.0045130206, 0.05105726, -0.015441262, 0.17617556, 0.045639645, 0.027760386, 0.1683001, -0.05770176, 0.17203031, -0.13355543, -0.024587348, -0.04369007, 0.050600596, -0.028029336, -0.066400856, 0.23347828, 0.15929274, 0.28080618, -0.06359912, 0.10285109, 0.08210397, -0.20738679, -0.098676614, -0.04583839, 0.12406388, 0.008610995, 0.047276437, 0.1817144, 0.06527277, 0.03753759, 0.1735423, 0.10569212, -0.04038127, -0.014372854, -0.023220295, 0.07351186, 0.09162759, -0.07293511, 0.06419751, 0.14283736, -0.16923776, -0.052214805, -0.057177432, -0.06722355, -0.1047021, 0.014416865, 0.04213848, 0.06253304, 0.11587905, -0.122206375, -0.09531605, 0.16611882, -0.0117518855, 0.18795283, -0.062120326, -0.003281972, -0.08828423, -0.031384453, 0.008878746, -0.03677801, -0.07347194, 0.07624172, 0.041590244, -0.07436267, 0.041876387, 0.038266554, 0.030869052, 0.039849073, 0.10596873, -0.039252724, -0.006599386, -0.11137368, 0.11952487, -0.04287933, 0.02087576, 0.13852353, 0.208476, 0.13554752, -0.1266505, 0.11573711, 0.16742153, 0.04072059, 0.13514976, 0.04046414, -0.031817302, -0.15923938, -0.2546829, 0.04573235, -0.10632326, 0.0064366776, 0.020310031, 0.24061248, 0.15613517, -0.041737754, 0.0577879, 0.15771009, -0.17882867, 0.03808113, -0.056235846, 0.14501573, -0.106808394, -0.098796025, -0.0007475733, -0.039076064, -0.1213742, 0.08753318, 0.04993042, 0.007820143, 0.03678194, 0.07034658, -0.037635494, 0.04604593, 0.21274418, 0.046346277, -0.12746094, -0.0048226253, 0.013671093, 0.10086736, 0.10607682, 0.08182803, -0.058310345, -0.14612186, -0.07837606, -0.07571808, 0.017335093, -0.044568084, 0.023738258, -0.12316272, 0.25337994, 0.13667136, 0.01758774, -0.101844475, 0.1198355, 0.0011941642, 0.14384373, 0.15187626, 0.20739736, -0.17460026, 0.084419645, 0.06956111, 0.06980516, 0.069553316, -0.16301805, 0.13742587, -0.033238646, 0.14576481, 0.18313743, 0.030789578, -0.08700212, 0.13087799, -0.15625781, 0.05238386, -0.038544636, 0.047603566, -0.0015573547, 0.079630665, 0.063009374, -0.110202834, 0.023445914, 0.07666964, -0.04812722, 0.0452909, 0.10632969, 0.2148875, 0.058259282, -0.11939364, 0.18954644, -0.027290134, 0.023896154, -0.118434824, -0.029859211, 0.08005704, 0.059662446, 0.10002095, 0.15739906, -0.056348328, 0.12239582, -0.07722781, -0.06705483, 0.004413101, 0.04929027, -0.028042821, -0.12548801, 0.09250716, 0.080729924, -0.16566223, -0.05045785, 0.12637322, -0.007329306, 0.067572236, -0.062236857, -0.13430606, 0.30832565, 0.11046183, -0.102012195, 0.036624726, 0.046913933, 0.016790181, 0.16279793, 0.13017918, 0.09743574, -0.019693274, -0.05996695, -0.11497332, 0.26060447, 0.053733386, 0.012597119, 0.13709033, 0.030739104, 0.08346315, 0.153091, 0.058638453, 0.03014562, 0.17312112, -0.12255129, 0.057900738, 0.09390369, 0.15929666, -0.023740606, -0.009427583, 0.020148665, -0.1201785, 0.06420579, -0.041844305, -0.13067575, 0.11095593, -0.069206305, 0.08590804, 0.05480073, 0.12295452, 0.09303845, 0.09471779, -0.042698354, -0.1354164, -0.024217742, -0.10356974, -0.03800804, 0.120844185, -0.057950124, -0.10295109, 0.25122154, 0.1331674, -0.04867373, -0.059022225, 0.010391605, 0.07891719, -0.09724389, -0.019155756, -0.030505907, -0.029553771, -0.08316807, 0.066007614, 0.03652788, 0.03845985, -0.07159536, -0.18155, 0.26191178, 0.07846618, 0.10807651, 0.10417587, 0.029159533, 0.18053885, 0.1838954, 0.14555779, 0.15745865, 0.008504057, 0.042906675, -0.036694676, 0.2158844, 0.13920398, -0.037856627, 0.1555565, -0.003080777, 0.23711333, 0.081219524, 0.02149403, -0.080708966, 0.19924565, -0.073453024, 0.14853743, 0.050198987, 0.13870567, 0.044875406, -0.012644544, -0.026705435, -0.06605383, -0.019409614, 0.15022473, 0.16982979, -0.08672688, -0.04889232, 0.07423984, 0.17427237, -0.028104147, 0.08626457, -0.0900363, -0.104367025, 0.057630118, 0.020616384, -0.12574331, -0.08364552, 0.09614827, -0.031125084, 0.074046075, 0.20596835, 0.053387713, -0.03389708, 0.086621225, -0.01754173, -0.092522986, -0.15816565, 0.08872721, -0.052070905, -0.14572974, 0.085621305, 0.030158792, 0.18642573, 0.06139548, -0.073028944, -0.16506566, 0.024399813, 0.020884195, -0.013832548, -0.056945983, 0.009329626, 0.1023956, 0.18034212, 0.13623264, 0.14495443, 0.07366127, 0.08011329, 0.12581289, 0.23925717, 0.058608472, 0.044547647, 0.11702258, -0.07431585, 0.19961803, 0.15904604, 0.06486788, -0.2020384, 0.113031514, 0.09068769, 0.0043792785, 0.1262742, 0.097098924, 0.11932403, 0.13349469, 0.19942495, 0.12681021, -0.0061821467, -0.0003287613, 0.21483204, -0.13495667, -0.08595918, 0.24100424, 0.14764047, 0.088640474, 0.082664624, -0.22191635, 0.025237795, -0.15852173, 0.05099596, -0.017572727, -0.14094085, 0.13402839, 0.21134782, -0.044244546, 0.08370186, 0.118568376, -0.030551534, -0.16590972, 0.1723154, 0.0941241, 0.18259786, 0.1611265, 0.113855235, -0.046141144, 0.14714986, 0.08959703, 0.034927916, 0.04148033, -0.0145371305, 0.0061488613, 0.1404299, -0.0883497, -0.08504899, 0.17024378, -0.0574469, 0.104200214, 0.23761052, 0.13329554, 0.16697673, 0.10077017, 0.13190177, 0.12703103, 0.22911246, 0.12562723, -0.044396024, 0.15051925, 0.1748163, -0.015693644, 0.13722092, 0.07368998, -0.089385875, 0.2174644, -0.09216893, -0.027832365, -0.057651486, 0.027558858, 0.20486833, -0.068473876, 0.11493919, -0.1460518, 0.12250937, -0.08623661, 0.092587605, 0.020783342, -0.08933249, 0.28982323, 0.17137314, -0.0023483983, 0.115281045, -0.13081832, -0.031172963, 0.011032011, 0.068169214, 0.20017979, -0.068550155, -0.10312945, 0.18177351, -0.054379705, 0.16190471, 0.024918139, 0.03633293, -0.20544767, 0.16877241, 0.009929573, 0.12434985, 0.1273846, 0.04961763, 0.1883754, 0.0660601, 0.021153886, 0.12793091, -0.022076508, -0.1123777, 0.034631453, 0.15493338, -0.111467235, 0.10370008, 0.23650537, -0.07228309, -0.107392184, -0.010723927, 0.2549318, -0.06950577, 0.048870713, 0.112513445, -0.033059325, 0.18400875, -0.13087001, -0.12190346, 0.13144934, 0.14492214, 0.10161472, 0.15665507, 0.19652162, -0.031127937, -0.01398778, 0.11104902, 0.036427908, 0.17722811, -0.018939098, -0.045096677, -0.08924464, 0.058374062, -0.21965063, 0.013794504, -0.018123778, 0.24417734, 0.05022244, -0.258388, 0.29369822, 0.08501777, 0.18975815, 0.07516065, -0.007097716, -0.0748627, 0.07955916, 0.04463331, 0.27908778, -0.010188587, 0.045859903, 0.060234986, -0.0106113, 0.093716934, -0.0047418415, -0.02742084, -0.0042205867, 0.16401616, 0.078384675, 0.14594404, 0.20928372, 0.14987607, 0.049691964, 0.09802216, -0.029139139, 0.02433021, 0.03919467, -0.14476041, -0.00049442984, 0.22425143, -0.15798926, 0.15286657, 0.28048587, 0.121927105, -0.16473264, -0.023614133, 0.12913662, -0.096274205, -0.23758046, 0.16288869, 0.17958614, 0.091983154, -0.0818068, -0.10807044, 0.053579263, -0.052420862, -0.013591218, 0.12114741, 0.25176582, -0.02834844, 0.24727276, -0.035205565, -0.010090065, 0.12825899, 0.009386182, -0.094873585, -0.027526144, -0.0074036205, -0.25700125, 0.19829012, -0.11908027, 0.1742866, -0.03445398, -0.31377774, 0.17102572, -0.054014135, 0.109055825, -0.059286352, -0.0027809846, -0.1882617, 0.0119002005, 0.10433283, 0.15820591, 0.027741123, 0.06347562, 0.1576349, -0.15218633, 0.047121532, 0.07907548, 0.13545035, 0.05024574, 0.17669228, 0.17273073, 0.2974454, 0.23192114, 0.051150266, 0.29028538, 0.09848258, -0.016754953, -0.018674366, -0.063562594, -0.12299935, 0.026151355, 0.08852725, -0.19463518, 0.12142705, 0.114562385, 0.022070589, 0.033766672, 0.14599599, -0.11411868, -0.02030525, -0.24192761, 0.2051667, 0.019422187, -0.0998773, 0.05602951, 0.15773052, -0.14794807, 0.07205266, -0.08292997, 0.019247128, 0.24406412, 0.068622865, 0.219599, -0.018074349, 0.17904224, 0.08310266, -0.043551616, -0.13113524, 0.075381465, -0.032731056, -0.1521283, 0.14836906, -0.11001573, 0.03254288, -0.075985424, -0.039527178, 0.13659006, 0.04120518, 0.27660143, -0.10798503, 0.057386044, -0.10072243, 0.06520926, 0.18127224, -0.0062729097, -0.09030831, -0.0038196903, 0.21083589, 0.024938155, -0.027879208, 0.26106325, 0.18034738, 0.039575525, -0.024541315, 0.16485204, 0.057753418, 0.023141298, 0.1943482, 0.26590288, 0.08360684, 0.0727217, 0.07190448, -0.030212833, -0.07600274, 0.01745243, 0.08322362, 0.011410519, -0.09281001, 0.11365665, 0.04688402, 0.03376123, -0.02994955, -0.053290654, -0.09047286, 0.0003637597, 0.15101635, 0.012705774, 0.11876166, 0.09549913, 0.22907756, 0.034967035, -0.00112255, 0.12112699, 0.05860149, 0.15754572, 0.243217, 0.3827042, -0.030539464, 0.2537392, 0.011933938, -0.07052, -0.13329889, 0.16097736, -0.05497437, -0.0015215639, 0.179301, -0.18015523, 0.17114499, -0.014751194, -0.072804525, 0.21161486, -0.07436574, 0.29320663, -0.21943492, 0.02113146, -0.038917985, -0.08514488, 0.1154952, 0.11579983, 0.0369812, 0.031739082, 0.0685783, 0.03184411, 0.20970261, 0.26152, 0.044960655, 0.03771724, 0.014206167, 0.02340351, 0.07306526, 0.14785416, 0.12858452, 0.09214696, -0.05095593, 0.063431025, 0.26631594, -0.14395215, -0.041928884, -0.049733493, 0.059442703, 0.16490293, -0.00016651445, 0.097343214, -0.099694185, 0.008786312, -0.07148826, 0.10175865, -0.045155335, -0.010657033, 0.14593188, 0.027650837, 0.03391172, -0.027137099, 0.37171328, -0.07269422, 0.10435112, 0.22109279, 0.12791426, 0.011406904, 0.16559395, 0.17520002, 0.03220503, 0.18207309, 0.046621192, -0.13259888, -0.026552165, 0.18991794, -0.026568139, -0.076318584, 0.2038024, -0.122950956, 0.15604226, 0.08550152, 0.030199269, 0.22148898, 0.04506015, 0.15000464, -0.09553332, -0.14637485, -0.09256166, -0.1687216, 0.06856764, 0.1112615, 0.027765727, -0.09180303, 0.03681239, 0.097394265, 0.16709127, 0.27324262, 0.08749026, 0.027511049, -0.07256615, 0.10799494, 0.04808797, 0.23698024, 0.110363655, 0.018108187, -0.06809637, 0.1335903, 0.15798396, -0.01816102, 0.09203908, -0.09707847, 0.11757628, 0.18671195, -0.06798516, -0.14023022, -0.027447348, 0.045625832, -0.07658422, 0.24077873, 0.15118255, 0.065870844, 0.01669699, -0.012112556, 0.17077667, 0.02846705, 0.12690057, 0.054241832, 0.22016649, -0.007294477, 0.0718715, 0.16519076, 0.08288386, 0.14240384, 0.028459549, 0.003307958, 0.14057194, -0.115922436, -0.12748978, 0.13304783, -0.08130276, -0.03234931, 0.0056183003, -0.006429329, -0.0036911254, 0.23092492, -0.044180688, 0.07624882, 0.13670929, 0.14968002, 0.11422866, -0.2037021, -0.09533112, 0.019575525, 0.12914528, 0.045631986, -0.022590924, 0.13530563, -0.030930683, 0.03422793, -0.013808573, -0.008561693, 0.10215495, 0.08252003, 0.029353907, 0.10919825, -0.10944935, -0.07054529, -0.045622982, 0.009291338, 0.081246644, 0.06287882, 0.06679584, 0.14593557, 0.027695341, -0.07976684, 0.083242275, 0.12886752, 0.07841498, 0.067209825, -0.11376181, -0.04753023, 0.1399088, 0.050215714, -0.0110736685, 0.01383031, 0.046248462, -0.09369605, 0.027012222, 0.03817161, 0.12596475, 0.03436319, 0.13706683, 0.036785588, 0.16327669, 0.17862928, -0.14132309, 0.11380145, -0.018894393, -0.021471268, -0.046800315, -0.08891646, -0.1797788, -0.036084794, -0.06524112, -0.10964823, -0.1186836, 0.009126526, -0.019960372, 0.07783834, 0.08028912, 0.14137714, 0.019607823, -0.012729387, -0.10058497, -0.11389149, -0.045174044, -0.08701262, 0.00082046684, 0.03582747, -0.14693472, -0.13463117, 0.17038432, 0.02200162, -0.06662093, -0.009234418, -0.08211403, -0.14336136, -0.11558121, 0.11707126, -0.08081976, 0.12390756, -0.05111757, 0.027499873, -0.09617572, -0.12846296, 0.022173448, 0.2771064, -0.10357065, -0.12828152, 0.023030072, 0.24332933, 0.08748333, 0.03179135, 0.10473588, 0.1654395, -0.008148912, 0.02683986, 0.16161321, -0.06176159, -0.005521644, -0.02852575, 0.14142169, 0.0662821, 0.05998279, -0.064773545, 0.04838541, 0.15435502, 0.14849913, 0.13295285, -0.0912189, 0.012246776, -0.078632176, 0.09058265, 0.0036908612, -0.0491441, -0.13269024, -0.052197184, 0.004482757, 0.027048845, -0.09360944, 0.033396818, -0.066926435, 0.18807752, -0.12699488, 0.11129699, -0.13035956, 0.058268722, 0.068784386, -0.15180095, -0.13417013, -0.14114329, 0.09742294, -0.021428613, -0.07123618, 0.010759692, -0.092263736, -0.05597549, -0.04349955, -0.11720302, -0.0676317, 0.031963233, -0.19435862, 0.21269234, -0.02398808, 0.009675762, -0.036965407, 0.03567504, -0.09167127, -0.0077685458, 0.003331134, 0.1380869, 0.16256307, -0.0775356, 0.021194851, -0.030428428, 0.11289785, 0.17342825, 0.053649254, 0.111526504, -0.106830016, -0.032662377, 0.076895304, 0.123328805, -0.034095682, -0.19080482, 0.027600907, 0.0077291084, 0.05861758, -0.12127489, -0.04987838, 0.1237477, 0.093711175, 0.14777042, -0.14354244, 0.1283749, -0.19274119, -0.03060699, 0.0015972564, 0.07874998, -0.16045626, 0.073520236, -0.036469545, 0.025899788, 0.12953974, -0.09396397, -0.10470965, 0.053545978, 0.074294806, 0.18806678, -0.0037448658, 0.0026353535, 0.11302018, 0.00691202, -0.1947316, 0.10587425, -0.08112558, 0.043581307, 0.034242824, -0.018783731, 0.010674095, -0.0072942674, -0.0071458025, -0.057390094, -0.045326367, -0.12371313, -0.18122678, 0.10431353, -0.02303475, 0.12078851, -0.014987783, 0.12988256, -0.030136192, -0.09545922, -0.054548353, 0.0076759513, 0.033179224, 0.105196446, -0.044048168, 0.11723461, -0.14124915, 0.00642223, 0.24907827, 0.12840381, -0.05941383, 0.015652139, 0.048806388, -0.07497163, -0.0466686, -0.1450192, 0.10319448, 0.13101998, -0.044499647, -0.03519773, -0.057815358, 0.15722683, 0.14231014, -0.028188974, -0.056452524, -0.035847317, -0.0109054055, 0.1952749, -0.12870891, -0.026377289, 0.08275813, -0.012016925, -0.08592392, -0.18112959, 0.002985905, 0.16062172, -0.06706811, 0.06547049, -0.02867441, 0.30949682, 0.039850585, -0.03461095, 0.16694233, -0.094254285, -0.013046183, -0.022351334, 0.047457047, -0.03267189, -0.0128399, 0.055680785, -0.057640623, -0.13493872, -0.18988514, -0.050680432, 0.009948049, 0.08765453, -0.24911979, 0.15871786, -0.033746254, -0.08047304, -0.09366995, 0.24050516, -0.14741002, -0.1723518, -0.11095707, -0.17245336, 0.22606826, 0.08666852, -0.07480346, 0.12724546, -0.0036354554, -0.06207138, 0.13760434, -0.064635396, 0.045678727, 0.036260467, 0.031547096, -0.15620676, 0.050388586, 0.08555761, 0.082104325, -0.0060312273, -0.18419185, -0.02663128, 0.04245715, -0.12043669, 0.24472451, 0.118097335, 0.014698464, 0.10509507, 0.06703025, 0.13608241, -0.12962788, -0.027394027, 0.090328336, -0.009888665, -0.08211, -0.28272685, -0.041461468, 0.0310445, 0.03037801, 0.14829858, -0.16070336, 0.32802877, 0.056917403, -0.0387735, -0.015862133, 0.043623045, 0.06977158, -0.110864885, -0.0859223, -0.008019527, 0.13203456, 0.069248475, -0.16490924, -0.15001573, -0.16343775, 0.042387944, -0.06974005, 0.035567142, -0.12787804, 0.25369602, 0.11453407, 0.048060462, -0.21896598, 0.14671247, -0.14244165, -0.09383141, -0.13136594, -0.2585134, -0.028320462, 0.05828266, -0.11386314, -0.039492726, -0.15327334, -0.06807451, 0.13187712, 0.042482905, 0.07654949, -0.004208155, 0.17287703, 0.021338932, -0.005293627, 0.08550641, 0.1084779, 0.054024737, -0.22552928, -0.0678813, -0.021785365, -0.06033442, 0.17261872, -0.16022223, 0.15093447, 0.020075072, 0.034096204, 0.09567996, -0.097206175, 0.014850912, -0.15933383, 0.025447555, -0.045881413, -0.13482651, -0.02498848, -0.081719495, -0.14584698, 0.016536685, -0.06585389, 0.28562623, 0.16511421, 0.00508237, 0.08090531, -0.14703779, -0.039788548, -0.0013611405, -0.15585475, 0.11129367, 0.14505982, 0.033600546, -0.032042164, -0.002879495, -0.087919734, -0.20787518, -0.10813473, 0.05249169, -0.032382883, -0.015365029, -0.109482855, -0.048743635, -0.23150583, -0.009135898, 0.0077229277, -0.22478995, -0.22596125, -0.23905133, 0.13336672, -0.06759566, -0.010837618, 0.08457563, -0.07702803, -0.012739481, 0.29240993, 0.046770636, -0.004528453, -0.15214027, 0.1290114, -0.0010110441, 0.10819756, 0.014598727, 0.0011583725, -0.05724309, -0.27736807, -0.137499, 0.16542219, -0.120104566, -0.012226664, -0.22273126, 0.12689535, 0.06667391, 0.10806631, -0.034649104, 0.03052214, -0.037848108, -0.066870786, -0.08088535, -0.07112271, -0.2668497, 0.14121258, -0.042624693, -0.13928863, 0.093631454, -0.30925223, 0.037402786, 0.16471149, -0.11291812, 0.09714289, -0.011824387, -0.13857102, 0.05223704, -0.12390122, -0.100176156, 0.24476376, -0.15815952, 0.028076742, 0.028101036, 0.0064945454, -0.13386337, -0.030006852, -0.052471712, -0.13478561, -0.052205265, -0.017495418, -0.13717087, -0.33268905, -0.026145145, -0.009304163, -0.16128623, -0.07614616, -0.23290826, 0.11957155, -0.2123591, -0.019885685, -0.06182906, -0.13566566, -0.046903796, 0.074783914, 0.14408521, 0.027127994, -0.08627529, -0.10355569, -0.14407083, -0.01393358, 0.025819883, -0.06197319, -0.12577324, -0.25716215, -0.17356947, 0.19692247, -0.1192132, -0.08049368, 0.006719978, 0.012041726, 0.054899674, -0.08126673, 0.051151544, -0.15993533, -0.028407106, -0.058700234, 0.11788395, -0.015106823, -0.23518041, -0.0708665, -0.19624837, -0.0864888, 0.02384078, -0.1727283, 0.09127183, 0.16251728, -0.18908797, 0.07440604, -0.081572235, 0.0400653, 0.13911398, -0.103095345, -0.21242006, -0.017116442, 0.030782837, 0.010526419, 0.09333562, -0.08185193, -0.21345735, -0.17106843, -0.10655579, -0.071032204, 0.16266228, -0.15103808, -0.18780637, -0.2582424, -0.115123056, 0.06156105, -0.032235224, 0.08322333, -0.102290064, 0.011937125, 0.0689303, 0.017727783, 0.028881442, -0.19464491, 0.06940342, 0.08399543, 0.24931148, -0.112954915, 0.061190378, -0.03313809, -0.06561692, -0.0066030645, -0.010000165, 0.08003497, -0.14292923, -0.08729418, 0.014916831, 0.060568165, 0.066007964, -0.08412137, -0.14551353, 0.033018235, 0.0030749144, 0.037721653, 0.12889086, -0.042655747, -0.003799486, 0.09203403, -0.06599964, 0.008968555, 0.03759899, -0.11396101, 0.0062542, 0.05541089, -0.05456887, -0.032408662, -0.024694744, -0.039431468, 0.04984836, 0.10965062, 0.036850788, -0.07470462, 0.059381768, -0.06275139, -0.12128776, -0.044778273, 0.10668232, 0.0850945, -0.039326876, 0.037951346, -0.17670925, -0.07416638, -0.0049978136, -0.024369458, 0.06348591, 0.10687778, 0.09042125, -0.19990596, -0.092317276, 0.028057415, -0.116819784, 0.040494636, -0.07523743, 0.08301948, 0.013892611, 0.031961106, -0.071082324, 0.022842435, -0.012570243, 0.103205614, 0.11781053, 0.17036627, -0.08240388, 0.1431081, -0.16156839, -0.09441418, 0.15110432, -0.03759873, 0.011095444, -0.079890445, 0.12316818, 0.14433002, 0.08338591, 0.08290965, 0.14856131, -0.029032487, -0.062415004, 0.084336676, 0.19731857, 0.15045995, 0.06490433, -0.032524448, 0.016646635, -0.02963812, -0.0481009, 0.21196908, -0.06852083, 0.00054629287, 0.06899201, -0.03069754, 0.137472, 0.041417137, -0.0438412, 0.097457506, -0.060713395, 0.013427796, -0.09849965, 0.15941472, 0.118696116, -0.1249005, -0.0479937, 0.108430214, 0.09850378, 0.07230356, 0.19969516, 0.019291598, 0.100431435, -0.006804689, 0.3043363, 0.036963094, 0.030106451, 0.090607636, 0.2120089, -0.12021241, 0.14178458, 0.070500106, -0.09009655, -0.09157233, 0.023062149, 0.10073191, -0.12850034, 0.06805218, 0.095255665, 0.00046017027, -0.06828289, 0.1681406, -0.008987178, 0.21575361, -0.001877958, 0.15180103, 0.09566365, 0.11559773, 0.014100297, 0.21436474, -0.07338897, 0.005978028, 0.10561176, -0.07082501, -0.03300599, -0.15082029, 0.053088464, 0.061236087, -0.026197452, 0.021109516, -0.021095818, -0.055643555, -0.10622679, -0.1368257, -0.16090874, 0.21175195, 0.13584118, -0.049722247, -0.08852987, 0.01860513, 0.009543693, -0.15158717, -0.008386748, 0.012003718, -0.008353326, -0.16204797, 0.089256465, 0.09418505, 0.0798807, 0.09304335, 0.039921414, 0.073622264, -0.03955088, -0.16213615, -0.13014124, 0.14010823, -0.16612747, 0.03924213, 0.07489613, 0.047196817, -0.03739069, 0.070211165, -0.11451035, 0.01901098, -0.12084647, 0.024468547, 0.025768258, -0.02348575, -0.102336526, -0.016936611, 0.13364618, -0.02164769, 0.056300417, 0.03876879, -0.17006409, -0.14352676, -0.118755236, -0.06940768, 0.034357004, -0.007974937, 0.0679203, 0.08648435, 0.026199596, 0.0071541704, 0.18618068, 0.14312273, -0.163031, 0.0025165854, 0.031199347, 0.116336726, -0.0050338604, -0.055339504, 0.0113684265, 0.22540765, 0.093444146, 0.005295835, 0.15763983, 0.01928172, -0.06858831, 0.25453928, 0.018873299, 0.23396672, 0.08122674, 0.018477755, 0.05684813, 0.09963828, 0.1763609, -0.11125459, 0.103448935, 0.1278816, 0.19276679, 0.15466079, 0.10153195, 0.17497253, 0.11478594, 0.20504653, -0.039577913, 0.09061828, 0.2079855, 0.20945041, -0.00506356, 0.0767656, 0.13170572, -0.043331727, 0.09255063, 0.05600512, 0.17035988, 0.13655622, 0.11003985, 0.11458222, 0.07631183, -0.0054744864, -0.103061944, 0.08294034, -0.030510169, 0.007007199, 0.010238035, -0.048474327, 0.08341768, 0.1810598, 0.19457893, 0.0077887205, 0.095901646, 0.2469383, -0.036896445, -0.1605014, -0.114253215, 0.191411, 0.13430727, -0.017736828, -0.027976323, -0.13467276, 0.089707136, 0.016865687, 0.080621354, 0.120733716, -0.05003227, -0.081205815, -0.060176726, 0.106652215, 0.07426962, 0.24029772, 0.104544155, -0.18203267, 0.061148614, 0.10245382, 0.076881945, 0.2139977, -0.011314749, -0.0852013, -0.10818458, 0.109672725, 0.1729838, 0.15925129, -0.03245966, 0.046786364, 0.06795978, -0.02830523, -0.09026025, 0.075316615, -0.05523394, -0.13149406, -0.084561236, -0.019783506, 0.0646786, -0.05930022, 0.11791007, 0.023879489, -0.012241399, -0.060227197, 0.022197926, -0.05698586, 0.16080217, 0.22910619, -0.15519448, -0.01082703, -0.07023938, -0.0129303085, 0.088896565, 0.045922242, -0.15058957, 0.10748013, -0.009628958, 0.16083927, 0.12116297, 0.19730702, 0.027016403, -0.007532894, 0.32108843, -0.10460017, 0.15940788, -0.06672166, 0.0266301, 0.31498733, 0.24191535, 0.038270842, 0.27647537, 0.08439868, -0.2114106, 0.07426986, 0.031143703, 0.009353146, -0.19081327, 0.070980184, 0.13008766, -0.11095805, -0.13076608, 0.17855534, 0.011093542, 0.13963242, 0.085624635, -0.16905256, 0.15555233, -2.1002561e-05, 0.07280021, -0.07219889, -0.005870028, 0.085965104, 0.08011802, -0.0961007, 0.16178246, -0.011271183, -0.11769898, -0.12813471, -0.0161329, 0.11693876, 0.17130396, 0.21769157, 0.14036061, 0.007503709, 0.029142397, 0.0033853282, -0.1462426, 0.053917147, 0.19306634, -0.10109545, -0.006580878, -0.108615436, -0.046509005, 0.19766212, 0.106486596, 0.10529715, -0.118356645, -0.12256588, -0.051632207, -0.118191145, 0.018168591, 0.0079164, -0.123318315, 0.24115661, 0.079690576, -0.021399839, 0.08309452, 0.057905484, 0.033643957, 0.12861523, -0.10153336, 0.049284883, 0.097893916, -0.0063295653, 0.010238612, 0.20675693, 0.14245468, 0.015976617, -0.0738763, 0.097969584, 0.052241255, 0.028304571, 0.074930996, 0.14417766, 0.101842895, -0.16318215, 0.07716072, 0.007561879, -0.006181929, 0.07064411, -0.15004727, 0.15128225, -0.019993123, 0.19964541, 0.008694561, 0.041905213, -0.063946486, 0.05263035, 0.06446228, 0.015694015, -0.020540994, 0.08984901, -0.05620894, 0.13944265, -0.033330463, -0.05450033, -0.05082056, 0.08268701, 0.21193878, 0.28331715, 0.066347174, 0.1945441, -0.059796568, -0.014028044, -0.025256583, -0.069625236, 0.018030642, 0.11428547, 0.12947328, 0.10389705, -0.12107485, -0.04908356, -0.09376458, 0.059537966, 0.13218823, 0.19028853, 0.0129994415, 0.08360861, -0.085202284, -0.035070598, -0.023826476, -0.060126707, 0.122889176, 0.053122357, -0.035286013, 0.18077084, -0.010927284, 0.025428466, 0.12970239, -0.034444816, -0.1892769, -0.07111338, 0.031018766, -0.018413128, 0.09283817, 0.1646059, 0.22191176, -0.06036468, -0.18352312, 0.06919914, -0.2210046, 0.21017641, 0.050253, -0.11097219, 0.06820606, 0.015929373, -0.06526768, 0.09287007, -0.062947325, 0.009993252, -0.07960545, 0.08881785, 0.2960905, 0.04915269, 0.20919925, 0.15494822, -0.15515287, 0.33030608, -0.005801881, 0.033740453, -0.014209691, 0.037556328, -0.0053878273, 0.15583162, 0.024946596, 0.049411047, 0.08784148, -0.01338191, 0.08626437, 0.040082566, -0.036218517, -0.07587492, 0.18047203, 0.15925677, -0.13091394, -0.082944214, 0.108325586, 0.12547842, 0.03582485, 0.0052614035, 0.06219678, 0.03514965, 0.188124, 0.13118854, 0.025499342, 0.0033378005, -0.07898356, 0.012623835, 0.08030165, 0.020043248, -0.030168278, 0.11276214, -0.11540905, -0.13843895, -0.14080025, -0.13170354, 0.029057242, 0.064494796, -0.22092946, 0.15048112, 0.04953866, 0.17011687, -0.06759789, -0.027881587, -0.023475574, 0.19301559, -0.088563696, 0.01422969, 0.10946332, 0.08655897, -0.07910415, 0.066070706, 0.096869044, 0.0026721437, 0.022468682, -0.12188869, 0.13117082, -0.09139862, -0.10620804, 0.07655682, 0.06897293, -0.05218785, 0.09809707, 0.072503, -0.0631496, 0.04119588, 0.097256176, 0.14659946, 0.06141527, 0.14222701, 0.06272186, 0.054389674, -0.02071563, -0.047396246, -0.10983221, 0.06577262, -0.058644455, -0.019114474, -0.014167319, 0.00584078, 0.13555165, 0.061441146, -0.1729456, -0.025610624, -0.12871286, 0.09290784, 0.1561057, -0.08528552, 0.02380323, 0.114220224, 0.027963227, -0.057147782, 0.061278254, 0.050550275, -0.1465226, -0.073487885, -0.044382814, 0.05082304, -0.024994275, -0.015809136, 0.1534803, 0.07507951, 0.10512146, -0.022625415, -0.020584654, -0.08672642, 0.18582349, 0.20255259, 0.10861134, 0.03859803, 0.121393204, 0.0860992, 0.1640536, 0.06398685, -0.012080647, 0.104661666, 0.08292431, -0.023169363, -0.13303475, -0.0031244021, -0.008654034, 0.07314572, -0.0283614, -0.081270784, 0.06992401, -0.07977973, 0.12623535, 0.16315362, -0.029740794, 0.09326028, 0.14548028, 0.09148719, -0.028717542, 0.03777614, 0.1774992, 0.08236893, 0.11387378, 0.15577528, 0.12095032, 0.07327922, -0.029960843, -0.06183332, -0.03122152, 0.08131365, 0.08560921, -0.14217947, 0.10759143, 0.10166335, 0.14008772, 0.14676006, 0.11043428, -0.039703194, -0.17037578, -0.14709187, 0.13221046, 0.13598193, -0.06263386, -0.111636095, -0.05859876, 0.06086845, -0.11675242, -0.11061047, -0.12336518, -0.092133, -0.12963717, -0.03890555, 0.07877211, 0.07488393, -0.16695635, 0.11244647, -0.2212871, 0.15737659, -0.04420693, -0.34450033, 0.1788013, -0.12848513, -0.013710841, 0.022473888, -0.11211951, 0.0018196742, 0.05713744, -0.1013478, 0.13381027, 0.1461554, -0.10820647, -0.11720004, -0.05289111, 0.045183364, -0.07979788, -0.16719349, 0.028187066, -0.05796639, 0.017643316, -0.013850711, -0.015125477, 0.13501923, -0.12607443, -0.09028706, -0.09125317, 0.0041203354, -0.18055747, -0.11043232, 0.19099969, 0.1734486, -0.08455421, 0.121477336, 0.12138812, 0.08127821, 0.1369983, 0.06522117, 0.077593856, 0.0497642, 0.075337544, -0.09513289, -0.061761886, -0.005080045, -0.092189245, -0.104973085, 0.054219272, -0.09230397, -0.07302097, -0.11326537, -0.10688502, -0.076923065, -0.06820308, -0.14153767, -0.03211585, -0.1394213, -0.0356732, -0.0261013, -0.099659994, -0.059681714, -0.23183346, 0.06842456, -0.26727387, -0.14490676, -0.08808201, -0.22366343, 0.08549011, -0.10761254, -0.091048315, -0.12404835, -0.044605717, -0.009576774, -0.11840459, 0.012220206, -0.08774762, -0.009492163, -0.14902683, -0.027310845, 0.021668246, 0.0767303, -0.11476526, -0.11090917, -0.022374874, -0.15879026, 0.047201846, -0.016493471, -0.32935724, 0.03462057, -0.06717558, -0.24254714, -0.20282346, 0.04382356, -0.15533203, -0.18254799, -0.18800454, 0.031558327, -0.058391955, 0.10658187, 0.01805181, -0.108429365, 0.086743295, 0.09947224, -0.06804018, -0.0011699406, -0.049554754, -0.184588, -0.03015119, 0.06648599, -0.04922858, 0.02686479, -0.24697228, -0.13096125, -0.14652748, -0.05655489, -0.17750323, 0.042604495, 0.10281851, 0.12959896, -0.058307048, -0.04074601, 0.21763858, -0.002816158, 0.032067757, 0.08096974, 0.15414418, -0.04417118, -0.14788698, 0.2863907, -0.07935907, 0.06610282, 0.16267116, -0.0579444, 0.04334985, -0.14818694, 0.29916432, -0.236135, 0.07126335, -0.042734608, 0.09995027, 0.03580762, 0.20259035, 0.029450567, 0.071106434, -0.07292406, 0.11531099, -0.07223311, 0.1483732, 0.180616, 0.05234258, -0.07148216, -0.002357121, -0.13520083, -0.14420453, 0.10308242, 0.106964305, -0.06705962, -0.0013848256, -0.04391687, -0.071782306, 0.060902365, 0.14282705, 0.094476245, -0.030360358, 0.061504174, 0.069237955, 0.20434725, 0.06205082, -0.16517508, 0.08042762, 0.21660195, -0.06799583, 0.19665977, -0.30033547, -0.11338788, -0.21140824, 0.20512973, 0.0064547793, 0.016617946, 0.14177333, 0.15119013, -0.21400133, -0.14609651, 0.055110566, -0.0048269085, -0.06815865, -0.1741351, 0.064406596, -0.105715305, -0.092027776, 0.06306066, 0.10159811, -0.2210671, 0.12904452, -0.0113430135, 0.20252685, 0.05838784, -0.1494432, -0.17396829, -0.2710805, 0.0149888415, -0.04055645, -0.050117448, 0.039294396, 0.020204453, -0.12284083, -0.027213914, -0.18977705, 0.040386263, -0.06986041, -0.22351015, 0.019168837, -0.22646669, -0.094681844, 0.08660826, -0.012905786, -0.04920274, 0.023263264, -0.03468139, -0.08083614, -0.10906342, 0.073231705, -0.031446375, -0.012107385, -0.20290107, -0.0242971, -0.14011578, 0.037751738, 0.16417664, -0.21873459, 0.095870346, 0.03701563, 0.02689538, -0.04226491, -0.376772, -0.14772406, -0.19275683, 0.25956473, -0.044538658, -0.12518735, -0.13800342, 0.17777193, 0.14541933, -0.15708254, 0.058242407, -0.027225686, 0.21237437, 0.015561566, 0.03867466, 0.038151406, 0.019150844, -0.047606427, 0.15426084, 0.07691649, 0.011976234, 0.09474468, 0.08461568, 0.12342435, 0.1710147, 0.019797169, 0.21219333, 0.1345376, 0.039766073, 0.21821591, 0.10441049, 0.00511227, -0.034568045, 0.11804273, 0.008390465, 0.2021486, 0.069085054, -0.10512501, -0.020499995, -0.10706066, -0.03876013, 0.14266975, 0.10238012, 0.15895306, 0.1332953, 0.18268937, 0.10252502, -0.012751871, 0.04524006, -0.00074176426, 0.10925519, -0.027917523, -0.01626212, 0.20777681, 0.008089404, -0.028395044, 0.08154848, 0.024433214, 0.062610984, 0.020818708, -0.11470141, 0.07705875, 0.010003803, 0.17756198, 0.21738833, 0.06696441, -0.09846589, 0.0059195505, -0.11493189, 0.20714335, 0.13530001, 0.17182752, 0.011034245, 0.016315263, 0.08094706, 0.005718116, -0.109877564, 0.34927657, 0.03212749, 0.15389122, 0.055951603, 0.047391035, 0.020493254, 0.14517114, -0.0009118638, 0.13144818, -0.16636683, 0.10743674, -0.01238356, -0.01691299, 0.12658669, -0.2380903, 0.0475246, -0.040225923, 0.2059373, -0.063973606, 0.25384656, -0.044921316, 0.11167236, 0.026575198, 0.060733072, 0.05788882, 0.0023378995, -0.047188368, -0.019247321, 0.15880269, -0.018178359, -0.1888815, 0.1126822, -0.0062967176, -0.08188773, -0.020286575, -0.043059286, -0.106439635, 0.13902852, 0.21157812, 0.008928358, -0.0272241, -0.08515266, -0.14857666, -0.21094586, 0.06252346, -0.04900228, -0.027050491, 0.21859092, 0.21852344, -0.09415132, 0.1413877, -0.06483308, 0.10363025, 0.06872275, 0.10763211, -0.14653967, 0.14256033, 0.11321868, 0.043885298, 0.24708384, 0.18647403, 0.10248894, -0.13642415, 0.110993385, 0.17500512, 0.015529163, 0.058443133, -0.1316831, 0.112761736, 0.046870936, 0.009454326, -0.0122939, 0.06597432, -0.28410885, -0.038542096, -0.04460337, -0.006647173, 0.06189473, -0.103609174, 0.06639071, -0.112005986, 0.13617116, 0.017902132, 0.017228235, -0.019597827, -0.109519795, -0.054229252, -0.038353655, -0.016679857, 0.045894954, 0.02111067, 0.11286245, -0.1438444, -0.067438155, -0.023967542, -0.067235015, -0.17961262, 0.0027580527, 0.0358272, -0.20853935, 0.01459903, 0.09689892, 0.047693267, 0.06148681, 0.100847594, 0.028005134, -0.15164389, -0.2420679, 0.021269124, -0.0047968333, -0.028553944, 0.055557832, 0.095524184, 0.06835354, -0.05606106, -0.07859902, -0.10842564, 0.01572032, -0.115544476, 0.008769405, -0.14004296, 0.055009548, 0.098376095, 0.017043764, 0.050225165, 0.08460629, -0.19359045, -0.15927123, 0.0005273343, 0.058426317, 0.07004175, -0.14378531, -0.14945857, -0.03690958, 0.09081526, -0.13014105, -0.21947996, -0.18216869, -0.09352365, -0.08036559, -0.08521564, -0.13497289, -0.08651963, -0.23810607, 0.022021418, -0.2825833, -0.12917142, -0.045873214, 0.1328935, 0.027079245, -0.00013384371, 0.043127835, -0.084693894, -0.10840086, -0.112845816, -0.0087079555, -0.03219448, 0.05330077, -0.06809882, -0.13527799, -0.17458792, -0.05908711, -0.13612226, -0.16550903, -0.121949784, -0.113885075, -0.0031027046, 0.003095441, -0.16320245, -0.090439975, -0.11513848, -0.08104832, -0.098910175, -0.1638902, -0.12885697, 0.16682233, -0.10866357, -0.17008486, -0.09935148, -0.1118108, 0.04758707, 0.030469693, -0.009095235, -0.020570278, -0.3029772, -0.1845364, 0.06802127, 0.030003734, -0.18195988, 0.069061704, -0.014025333, 0.006241826, 0.04059565, -0.10154748, 0.08674912, -0.17107444, 0.04233284, -0.17840312, -0.19721799, 0.018726643, 0.055244375, 0.09149896, -0.0018075219, 0.29646307, 0.03897478, -0.010173573, -0.12781745, -0.21655518, 0.061032116, -0.19208902, -0.106297456, -0.05355978, 0.14943236, 0.18087272, -0.070477165, 0.0616142, -0.064511344, -0.11535054, -0.22294553, -0.0012751981, 0.1333464, -0.09092663, 0.020280505, 0.14264593, 0.079083316, 0.012653957, 0.05538729, 0.22986113, 0.0995937, -0.12712315, -0.087710686, 0.043306474, 0.0036675637, 0.12096902, -0.1672032, -0.029654598, -0.024314344, 0.13955472, -0.081758015, 0.03518991, -0.15209979, -0.37285438, -0.09081813, 0.007723539, -0.17315911, -0.042740993, -0.013429677, -0.08874764, -0.15113886, -0.048331417, -0.0062676854, 0.089662015, -0.28100467, 0.113067865, 0.09660878, -0.013002309, 0.085409455, 0.029642195, 0.07978292, 0.08388646, 0.022167461, -0.013695438, -0.07664885, -0.100637585, -0.033363495, 0.13754256, -0.02654745, 0.09687098, -0.025423028, -0.067458875, 0.17550531, -0.028871462, 0.059258863, -0.13249995, -0.030831767, 0.045926556, 0.14464816, -0.086808585, -0.043916706, 0.03918344, -0.06230027, 0.117795214, -0.08379293, -0.003627136, 0.024387563, 0.10882582, 0.041301556, 0.26927218, 0.26646337, -0.08271164, 0.0021112529, 0.018043237, -0.0010022543, 0.04404677, -0.017283248, 0.0762607, -0.15754208, 0.115117684, 0.059782594, -0.08595351, 0.04103026, 0.07755548, 0.005572356, -0.032571882, 0.09096046, 0.05929906, -0.0008405867, 0.061301287, -0.120061524, -0.0631051, -0.13818881, 0.023394383, -0.1600551, -0.053837117, -0.19275881, 0.054071955, 0.027593864, -0.057502355, 0.009606518, 0.021313334, 0.04697726, 0.09599465, -0.09152797, 0.07939592, 0.10755192, -0.08170984, -0.15605666, -0.203681, 0.109601796, 0.022985721, -0.054307625, -0.11278808, -0.037469264, -0.11993054, -0.026592262, -0.1665274, -0.099332795, -0.033242464, -0.05494752, -0.09328983, 0.0081032375, 0.14272213, 0.1898883, -0.14040206, 0.00569859, -0.0038969954, -0.0059879827, 0.028185299, -0.17482732, 0.14390293, -0.14710362, -0.12697192, -0.121092066, -0.0094575565, -0.0005848463, 0.023075478, 0.083968215, -0.14765169, -0.0874878, 0.04317891, 0.014683207, -0.02500942, 0.08136733, -0.021024486, -0.005653245, -0.013568728, 0.24351574, -0.012601971, -0.12348272, -0.13170032, 0.04975114, -0.22535579, -0.15964931, 0.118520014, 0.043480296, -0.10085841, -0.1684079, -0.16022383, 0.15198009, 0.05339625, -0.11289791, 0.053362027, 0.19037539, -0.07004635, -0.042211834, 0.08587491, 0.3086893, 0.16130137, -0.15998021, -0.039056696, 0.036111005, 0.017706973, -0.04246261, 0.14203586, 0.0012921982, 0.11769112, -0.014506793, 0.01974634, -0.028733144, 0.038721595, 0.09673185, -0.028762171, -0.07474375, 0.1811013, -0.053259928, 0.10440368, 0.19628437, 0.058715858, 0.030170606, 0.11416672, -0.0021294246, -0.01076418, 0.03858878, 0.10673141, -0.035645865, 0.18216823, 0.23885453, -0.002303298, 0.008013171, 0.09319469, 0.035159282, 0.10358283, 0.13707529, 0.061890505, -0.08304913, 0.060201056, 0.16061166, 0.07960999, -0.09158058, 0.015894689, 0.039082523, -0.025793338, 0.10334686, 0.013495457, 0.025548944, -0.015326465, -0.030405113, 0.046486188, -0.10674148, -0.14678213, -0.086149834, 0.0466384, 0.035723835, 0.05196299, 0.008294063, 0.08028114, -0.082632676, 0.025657358, 0.09826031, 0.07998188, -0.07202886, -0.07239017, 0.093982525, 0.009878896, 0.15239508, 0.1292065, 0.16465479, 0.11129499, -0.10818979, 0.23015204, -0.078529835, -0.07617799, -0.062508315, -0.032965317, 0.07400295, 0.17966896, 0.0031860084, 0.17922148, 0.07330695, -0.029796105, 0.11636368, 0.060314983, 0.14402069, 0.1304412, 0.073561095, 0.05738456, 0.0022749049, -0.017807143, -0.0690722, 0.058316737, 0.1201021, 0.15252578, -0.029351516, 0.012750388, -0.052932303, -0.08217874, 0.074050836, 0.027155139, -0.023859996, -0.11307344, -0.043456372, 0.09489892, -0.111685045, 0.013738018, 0.023361934, -0.105663896, 0.05369908, -0.10937014, 0.14535084, 0.01829091, 0.03611784, -0.0031112249, 0.029289998, 0.02932298, 0.14261608, 0.008896512, 0.08540073, 0.08608489, 0.06695493, -0.04496915, 0.30011064, 0.22735773, 0.14646171, -0.026400836, 0.18431877, 0.11787286, -0.015951041, 0.072122484, 0.07982565, -0.07131926, 0.037580583, 0.098201066, 0.068800025, 0.24166131, 0.11883185, -0.022801176, 0.062451374, 0.06680107, 0.10735733, -0.122673556, -0.046483856, 0.04230159, 0.02169798, 0.09412944, 0.15535635, 0.15512007, 0.09741383, 0.031914674, 0.058519658, 0.107707284, 0.02766009, -0.022913601, 0.1412494, 0.10360028, 0.28789628, 0.12049963, -0.06764027, 0.11840064, 0.16929258, -0.09315552, 0.12858799, 0.048411764, 0.09643621, 0.023803754, -0.14429662, 0.09177889, -0.061509144, -0.03101517, -0.03940714, -0.17432843, 0.180865, 0.018409736, 0.070621185, 0.2988256, 0.04906573, -0.11647336, -0.13754313, -0.044138573, 0.005482439, 0.088585846, -0.14924875, -0.02400291, 0.15671808, 0.050718524, -0.24057005, -0.22049032, 0.09623045, 0.025758704, -0.05115232, -0.011464092, 0.061627876, -0.13786262, -0.13955355, -0.07360032, -0.15814897, -0.05432936, -0.13686295, 0.014396151, -0.0615151, -0.14826143, -0.03578634, -0.14907141, -0.15519927, -0.16136967, 0.11882684, -0.13165939, -0.15606073, -0.037308965, -0.082917415, -0.031148467, 0.0058390615, -0.024884436, 0.06309747, -0.15289143, -0.170047, -0.03350315, -0.2224826, -0.106949456, -0.30262128, 0.030759204, -0.013866654, -0.2044719, -0.20751028, 0.11171863, -0.17193562, -0.013144993, 0.11224577, -0.019198755, 0.010721489, -0.08424126, -0.009095142, 0.042907815, 0.046041217, -0.08492613, -0.11618666, 0.04864376, -0.040531408, -0.22719404, -0.047525987, -0.14301796, 0.13129413, 0.049769297, 0.021843795, 0.0005969242, 0.06526025, -0.10503466, -0.036159776, 0.12641086, -0.027937273, -0.11508837, 0.10002829, 0.14458106, 0.006493428, -0.08438223, 0.09208234, -0.10331561, -0.039479017, 0.04738304, -0.012644478, -0.15394682, 0.024382968, -0.10289591, -0.026018811, 0.030782664, -0.035777975, -0.09211084, -0.28044787, -0.10794036, 0.043351162, -0.034317657, 0.045654777, -0.0053519034, -0.28576362, 0.031640545, 0.071017146, -0.044904996, 0.07341989, -0.16258223, -0.23311901, -0.16548178, -0.14008139, -0.13983384, -0.30354595, -0.06103474, -0.037247732, -0.06835005, -0.016834293, -0.08860921, 0.011825121, -0.082999356, 0.058413915, -0.059229568, 0.07584282, -0.2837928, 0.012748846, -0.08750484, -0.07816351, 0.07570051, -0.033277214, -0.029308164, -0.15451384, -0.22502103, -0.15761536, 0.040904477, 0.020302521, -0.0077785067, -0.13491556, -0.14434676, -0.017222514, -0.05561306, -0.1612751, 0.036936227, -0.19409758, -0.27419683, 0.05232989, -0.00029384115, -0.13972668, -0.019243326, 0.052427776, 0.056549337, -0.0002167343, 0.17118075, 0.04964664, -0.2675093, -0.09014823, 0.06662919, -0.20606793, -0.1128961, -0.25073838, 0.13928606, -0.13934001, 0.12305644, -0.07361005, 0.21580502, -0.1966598, -0.011328948, -0.029815223, -0.07426985, 0.19397627, -0.15799774, 0.029422615, 0.31909382, -0.046412647, -0.022068026, -0.11526393, -0.08240705, -0.03355575, 0.113518104, 0.14205419, 0.08555194, -0.052838594, 0.055271942, 0.084497765, -0.077606976, 0.056932777, -0.067868516, -0.04753702, -0.08782316, 0.0068247966, -0.09521865, -0.06646131, 0.018607644, -0.008285536, -0.13903365, 0.028337814, -0.32250494, -0.064995624, 0.06123712, -0.026488844, 0.11964806, -0.07589117, -0.13793644, 0.009225372, 0.08655794, 0.16510776, -0.022039847, 0.012536287, -0.08132718, 0.13224526, 0.13781002, -0.044036195, -0.18484889, 0.061778624, -0.11610799, 0.016147852, -0.10914488, -0.041692063, -0.031435467, 0.108797, -0.13595384, 0.026329162, -0.11019691, -0.22415169, 0.046704043, -0.070382975, 0.0665757, -0.11101403, -0.14908674, -0.098257765, -0.09221012, -0.086261734, -0.042008393, 0.07397465, 0.09077264, 0.0039067226, 0.036722712, -0.14043947, -0.1833354, -0.123471625, 0.013997867, -0.11765631, -0.06292056, 0.040606067, -0.06380286, -0.02024913, -0.09999349, -0.056560688, -0.15004821, -0.09677817, 0.06143213, -0.0024323245, -0.13010842, -0.095923096, -0.08680634, -0.091135785, 0.1179069, -0.12544194, -0.060028426, 0.097821996, -0.25591198, -0.08675912, 0.04766737, 0.00811544, -0.055138562, -0.06595177, -0.1421654, 0.009626056, 0.0046190144, 0.0073535424, -0.10844477, -0.06174026, -0.17047374, -0.1374058, 0.089422345, 0.07055907, -0.10320113, -0.030320397, 0.06652108, -0.06997765, 0.079843156, 0.0056016506, -0.18366273, -0.03023867, -0.15567745, 0.10284287, -0.007947131, -0.13937078, -0.03592158, -0.2311042, -0.15863596, -0.03441373, -0.2089678, 0.084181875, -0.09358591, -0.051203284, -0.12692598, -0.15595184, 0.06317299, 0.046574906, -0.19633713, 0.016994445, 0.007644602, -0.07968559, -0.11081958, -0.076330505, -0.0333026, -0.15718405, -0.18899389, -0.040701907, -0.14161667, 0.0028062402, -0.18679927, -0.14036308, -0.07366747, -0.09401884, -0.003520741, -0.07625962, -0.10262995, -0.06387981, 0.0755132, -0.13960811, -0.11471137, -0.25204313, -0.18437546, -0.08999578, -0.18440135, 0.09991794, -0.1798788, -0.15400462, -0.20099892, 0.10420918, 0.037133846, -0.18482512, 0.107994616, 0.21562971, -0.12149178, -0.06774343, -0.07862769, 0.12315529, 0.21232533, 0.01905353, 0.09751076, -0.096885696, -0.14994225, 0.17298181, 0.20261884, -0.01693666, -0.079318896, -0.032925174, 0.12301059, -0.052474897, 0.030535854, 0.054594886, 0.088336244, 0.024522047, -0.0002491576, 0.11576001, 0.12061687, 0.035334773, -0.116740644, 0.0665583, -0.051320836, 0.018969063, -0.12603392, 0.22498289, 0.1264642, 0.11735712, -0.01642112, 0.25149503, -0.05349469, 0.06254759, 0.0749228, 0.18430051, 0.04278629, 0.17483993, -0.014414616, 0.06795296, 0.06925972, 0.060467545, 0.23346741, 0.18950206, 0.051108927, -0.007778967, -0.054585468, -0.003485438, 0.14934394, -0.032866005, 0.26006114, -0.083112665, 0.013732212, 0.055279173, 0.018839007, -0.074846074, 0.16231056, -0.0051754685, 0.111082464, 0.15934673, -0.07257298, 0.003843828, 0.14697672, 0.04669153, 0.09371602, 0.12203896, -0.014535707, -0.09570881, -0.02747997, -0.06730415, 0.08938281, 0.09646652, 0.014534349, 0.051766112, 0.023619838, 0.040335383, -0.074884385, 0.02565885, -0.03998833, -0.10028077, 0.13088025, 0.0141417645, 0.07151096, 0.08341101, 0.11157834, 0.09365172, -0.037883684, -0.062049996, 0.15201738, -0.05968899, 0.090636425, -0.028281542, 0.19419302, 0.11465192, 0.12909704, 0.099018194, 0.11313166, 0.1120535, 0.08414962, 0.17828606, 0.0515748, -0.047386747, -0.0058834236, -0.0074685034, -0.06224566, 0.055242904, 0.21114802, -0.112887815, 0.0071814787, 0.036360353, -0.09940521, 0.09237503, -0.046251576, -0.1116323, 0.016198937, -0.0050458694, -0.050365772, 0.00018620973, 0.09108725, 0.090282686, 0.13721547, 0.045768645, 0.13685106, -0.0034040918, 0.10210879, 0.07396474, 0.07608826, 0.05733453, 0.15796584, 0.07049543, -0.01631543, -0.040068842, -0.082119375, 0.03872444, -0.1844143, 0.14292003, 0.11039294, -0.14630064, 0.078355044, 0.106641114, -0.05019202, -0.007516355, -0.0921798, -0.102456436, -0.09108192, -0.12248741, 0.020141775, 0.09653735, -0.10685713, 0.07488284, 0.122254185, -0.09454822, 0.11619864, 0.020365404, 0.04194417, 0.10787998, 0.12803324, 0.015917655, 0.04198048, 0.05802873, -0.010762593, 0.084410384, 0.008495423, 0.099744976, 0.13600972, 0.08248919, 0.10667619, -0.19333766, -0.08565874, 0.01626249, -0.076023735, -0.089074574, -0.04531282, 0.0008802854, -0.011290994, 0.06583573, -0.049564544, 0.02411081, -0.039976984, -0.043295998, 0.060915217, 0.010254807, -0.04759824, -0.06481182, 0.11420638, -0.09398483, -0.012387361, -0.113810875, 0.08378239, -0.17069206, -0.16794644, -0.059673805, 0.017939873, 0.1746531, -0.09854892, 0.08686678, -0.10715926, 0.09348309, -0.064131334, -0.10437137, 0.13213494, -0.18783194, -0.123709835, 0.04281552, -0.17007813, -0.1764512, -0.01850582, 0.022460362, -0.25970232, -0.0173732, -0.0099580195, 0.010850995, 0.09989756, 0.15948352, -0.082695246, 0.043307517, -0.012220034, 0.084275104, 0.04557777, 0.060084794, 0.049798742, 0.031525332, -0.21980764, -0.120980605, -0.053896256, -0.15544716, -0.07939654, 0.043854777, -0.10045169, 0.036313277, -0.14642128, -0.011518671, -0.025949132, -0.030918054, -0.035685223, 0.10774968, -0.21140909, 0.04056292, 0.20453055, -0.08817966, -0.26022634, -0.18622619, -0.041626483, 0.025552392, 0.032021087, -0.06680933, -0.03178354, -0.059938774, -0.13706066, -0.10015745, -0.06659358, -0.020111311, -0.101851, 0.09544919, 0.13214633, 0.03192955, -0.0577836, 0.115641, 0.18827488, -0.023129001, 0.22292154, 0.032122117, 0.117239356, 0.16640852, -0.14997755, -0.047278866, 0.10455871, 0.06294086, 0.06528598, 0.24572338, 0.008198521, 0.037102498, 0.12587132, 0.045891866, -0.029305384, -0.00085473154, -0.037599377, -0.18603256, 0.15574546, -0.00229323, 0.06557257, 0.17741902, -0.0067776437, 0.13989007, 0.053213313, -0.05577254, 0.23961908, 0.16957831, -0.06282344, -0.0072388086, -0.031766374, -0.08695863, 0.20739067, -0.058113478, 0.008684614, -0.03742669, 0.050566774, -0.011442305, -0.05448371, -0.13370247, 0.23071304, 0.016572889, -0.07440752, 0.028244399, -0.024244105, 0.052237615, 0.032381017, 0.12232782, -0.16118796, 0.07344275, -0.027905691, 0.12448844, -0.08297255, 0.045420136, -0.19837052, -0.121192455, -0.0049033714, 0.0492787, 0.21084157, 0.11388766, -0.071419075, 0.030542653, -0.117236584, 0.084900014, -0.022437718, -0.041013658, -0.0008121969, -0.13108602, -0.14863656, -0.019962085, 0.013693861, 0.12492583, 0.07772251, 0.2364189, -0.0657801, -0.16322674, -0.060895707, 0.046545226, 0.02691925, -0.10428055, 0.030130334, 0.00040303846, -0.057771347, -0.1076626, -0.012801679, -0.07234772, -0.11893584, -0.028314956, -0.08086923, -0.06966183, -0.11753269, -0.14280362, 0.02178963, 0.062076036, -0.005734386, -0.13847338, -0.035712935, -0.08493688, 0.15564577, 0.089533314, 0.052680083, -0.007950605, 0.04015882, 0.07934005, 0.110888496, 0.028230991, -0.014115365, -0.034190997, 0.16459458, 0.09534322, -0.06843736, -0.01604696, -0.12378765, 0.0037602354, 0.056708455, 0.09447404, -0.16488314, -0.13886741, -0.1320386, -0.17111227, 0.16622494, 0.016031075, -0.07360378, -0.117644586, 0.026144454, 0.08122264, -0.09277001, -0.18031524, 0.032468535, 0.063913494, -0.217274, -0.12848091, 0.11745744, 0.08587578, -0.18103604, -0.12083375, -0.075378135, -0.09134709, -0.02694084, 0.1315769, -0.065855, -0.16670406, -0.09260741, 0.08893718, 0.014982045, -0.123774186, -0.0670034, 0.006111018, 0.06533627, -0.07016979, 0.064057596, 0.04278397, 0.18553253, -0.10941963, -0.0018581833, 0.10153427, -0.14516892, -0.070335485, -0.15599568, -0.020561304, -0.12910143, 0.15476896, -0.16146919, -0.12513861, -0.08427491, -0.025983611, -0.027373334, 0.13803525, -0.049629483, -0.0404972, 0.17960377, 0.025100028, -0.18709777, 0.10897142, -0.0023151836, -0.006278728, 0.04342325, -0.09091737, -0.10473508, -0.036812786, -0.0058468995, 0.029697243, 0.11283948, 0.014651764, 0.08801973, -0.034263603, -0.07738436, -0.01996706, -0.18578374, -0.06738981, -0.08830103, 0.033284344, 0.040751796, -0.24761522, -0.026750213, 0.03185182, 0.03145994, 0.0029199102, -0.12544593, 0.10172251, 0.094899885, 0.110298, -0.19638412, 0.12641272, -0.26491442, -0.0496574, -0.21003394, 0.077567525, 0.016903596, -0.08383203, -0.06332671, -0.10583075, -0.114050716, -0.11187222, -0.00033289, 0.0075249835, -0.0542487, 0.033194236, -0.05976774, 0.040485762, -0.25466478, -0.08598501, -0.083798744, -0.03120881, -0.12665133, -0.19248848, -0.1408829, -0.14436634, 0.010930798, -0.103167415, 0.039105594, 0.17658177, 0.067118466, 0.07176043, -0.22501335, -0.23926918, -0.12957837, 0.028299171, 0.1346802, -0.041130915, -0.06378395, -0.08043717, 0.08887046, -0.17138833, -0.016703466, -0.16432136, -0.06595634, -0.2009264, 0.024457924, -0.0070769964, -0.06669912, 0.13990584, -0.04111429, 0.12752806, 0.19551615, 0.007672483, 0.054964967, 0.19006686, 0.03466543, 0.1831755, 0.20137243, 0.154686, -0.04501894, 0.032787204, 0.29949057, 0.21842493, 0.03321342, -0.003226898, -0.0020327002, -0.1113499, 0.15951222, -0.069847725, 0.11752593, 0.044796426, 0.00214065, 0.11776631, 0.13348964, 0.05007885, -0.0235425, 0.118991174, 0.13706107, -0.104392506, 0.037999775, 0.13277295, -0.14259294, 0.07224321, 0.056433238, -0.0658377, 0.12492839, 0.2121645, 0.035037972, 0.015381966, 0.033205252, -0.08888775, -0.2550991, 0.022253187, 0.15687774, 0.03135949, 0.0028268269, 0.16731338, 0.08191953, 0.088175274, 0.22908907, 0.0029983695, 0.05930116, -0.22499311, -0.08749309, 0.07636182, 0.14894512, 0.1402685, 0.07217333, 0.024192275, 0.10883434, -0.17584151, -0.07481397, -0.20318602, -0.08158362, -0.01123702, -0.12787047, -0.028115034, 0.009981337, 0.03781618, -0.010948509, -0.28565452, -0.011025195, 0.045301195, -0.02032731, -0.13427489, -0.198767, -0.095724955, 0.049054, -0.0672013, 0.0110204, 0.007447348, -0.0063287634, 0.052152753, -0.052241456, 0.081452884, 0.0037266207, 0.058227632, -0.12726061, -0.15754601, -0.007942601, -0.082226284, 0.09671712, -0.1889413, -0.13759339, -0.14850123, 0.01936667, -0.11928618, 0.063312545, 0.07480399, -0.21265624, -0.13153885, 0.052305777, -0.14252496, -0.0050088307, 0.1716892, 0.13843018, 0.0017364323, -0.08943268, 0.02630715, 0.17195769, -0.16346464, -0.1522363, -0.053918026, -0.12232957, -0.13746783, 0.056244142, 0.01526036, 0.04186165, -0.012392209, -0.17706464, -0.016629826, -0.17185082, -0.08469677, -0.042703282, -0.06797767, 0.014373734, 0.10975592, 0.16883832, -0.061249297, -0.007376526, 0.18286417, 0.22473021, 0.048540372, 0.14356034, 0.10120016, -0.20858987, 0.02589184, 0.13066347, -0.024670599, 0.18279345, -0.13936831, 0.12546477, 0.0042319107, 0.30568135, 0.20548101, 0.114697374, -0.15988322, -0.007920146, 0.10393225, 0.01958232, 0.17650908, -0.13693799, -0.10683549, 0.26851767, -0.12610658, -0.20659623, -0.23899779, -0.13060626, -0.02793227, 0.21666007, 0.1025677, -0.09382222, 0.09688592, 0.059750464, -0.032016903, 0.2301456, 0.08124504, -0.17962356, 0.019078733, -0.12864178, 0.028181555, 0.14385591, 0.20168506, -0.014490882, -0.03619849, 0.06636243, 0.095969684, -0.03051916, 0.18757859, 0.15753289, -0.04283723, 0.06954754, 0.12216588, 0.058103822, 0.17566721, -0.03376836, 0.13499244, 0.076433875, 0.016653856, 0.15675944, -0.011239072, -0.011688893, 0.09487084, 0.04325068, -0.037342194, -0.115739994, 0.1029698, -0.1514526, 0.18033677, 0.014797136, -0.06848644, 0.18760513, -0.049447216, -0.11717529, 0.039262485, -0.11545654, 0.053472, -0.046776466, -0.05176585, -0.120494924, -0.066224106, 0.09046998, 0.08097111, -0.040927365, 0.086573906, 0.028849378, -0.04142409, 0.100676686, 0.04533521, 0.20069134, 0.017261304, 0.18539473, 0.1684029, 0.19010879, 0.17740963, 0.11216736, 0.08741475, -0.15993856, -0.11329127, 0.08305698, 0.1666885, 0.018169435, 0.10130513, 0.27589086, -0.099369295, -0.06393174, 0.20715769, -0.19532292, -0.14468107, -0.15141332, 0.030578285, -0.037201, -0.025031304, 0.08594848, -0.16219962, -0.0714979, 0.010057829, 0.067926615, -0.10037303, -0.00013771623, -0.1566004, -0.066984326, -0.15009749, 0.0621392, -0.002824137, -0.13602977, -0.0895345, -0.08124915, 0.16980506, -0.1546715, -0.0020731916, 0.07059712, -0.11225676, 0.13099864, 0.11294708, -0.21083209, 0.04718459, -0.11670154, 0.020646574, -0.21880262, 0.01002201, -0.17155515, -0.10625483, 0.036699243, 0.10446219, 0.107596554, -0.024086734, 0.05052201, -0.09877168, 0.09600824, 0.0794462, 0.104450785, -0.0834707, -0.12555392, 0.038881257, -0.07823222, -0.19355439, -0.14844371, -0.0840119, -0.12517148, 0.04119116, 0.017916, -0.05257258, -0.05529532, -0.06732873, 0.09117692, -0.120758794, -0.00936489, -0.055831157, -0.1387122, -0.004175615, 0.1174326, -0.14557855, -0.01991991, -0.10240303, -0.34489512, -0.17294554, -0.087398395, -0.04192478, -0.006890145, -0.25768527, 0.0014252139, 0.19471246, 0.11489814, 0.015415205, 0.07562094, -0.11534732, 0.085259706, 0.012955989, 0.07439603, 0.09941031, 0.07797021, 0.100357994, 0.17547242, -0.0035676442, 0.13870417, 0.2344138, -0.030556738, 0.07457158, 0.03874838, 0.07089746, 0.19749105, 0.0588152, 0.1479265, 0.012083153, 0.13185117, 0.1276355, 0.2097062, 0.010583479, 0.10066012, 0.10140613, 0.039395727, 0.1308945, -0.06057347, -0.12101425, 0.1709472, 0.0627874, 0.090942934, -0.019693635, -0.07794317, 0.11549218, 0.07434565, 0.013697318, 0.14829059, -0.0016237147, 0.068090096, 0.051646594, -0.002278054, 0.030865023, -0.041101146, 0.008522955, -0.018450044, -0.12592329, 0.18619132, 0.22039583, 0.08556423, -0.008447549, 0.010252199, 0.022879051, 0.14704832, -0.007883217, -0.020258583, -0.1856119, 0.08794833, 0.25367782, 0.07440642, 0.13010705, 0.09759536, 0.022757087, 0.0254961, -0.12454262, -0.10653043, -0.18860881, -0.15875916, -0.12970306, -0.13538858, -0.090285964, -0.03351906, 0.019606456, 0.048092596, -0.07041404, -0.07904268, -0.045617472, -0.1414589, -0.0783794, -0.044085614, -0.15217562, 0.10653565, -0.17623757, 0.042622175, -0.004176016, -0.047121223, 0.002583431, 0.017054124, 0.12078771, 0.09249637, -0.024494225, -0.13042328, 0.08112157, -0.057146974, -0.11195268, -0.015086493, -0.04050372, -0.12053115, -0.014130719, 0.105622895, 0.0036190422, 0.07174774, -0.19256516, -0.055588417, -0.21606022, 0.046144415, -0.043087434, 0.13415094, 0.09174079, 0.15606645, 0.02474616, 0.024499046, 0.049214818, 0.062006194, -0.09807751, 0.045745376, -0.07284674, -0.0783066, -0.006262992, -0.03115833, 0.006759091, 0.19039904, -0.039490327, -0.20595525, -0.118155584, -0.111024916, 0.059030425, -0.09673209, 0.11723932, -0.109774, -0.09343289, 0.10989885, 0.049074173, 0.014137743, -0.011554374, 0.1551654, 0.08222198, -0.008121172, 0.1420118, -0.040216625, 0.02241952, 0.08326566, 0.024606721, -0.09288263, -0.064903885, 0.21853459, 0.10118959, 0.15173335, 0.12307026, 0.16156285, -0.15689644, -0.013751128, 0.07193137, 0.102529824, 0.093682654, 0.1034785, 0.016733132, 0.18654443, -0.06197806, 0.05690697, 0.04507651, -0.04966664, 0.1987309, 0.022754412, -0.024026187, -0.031027563, -0.062947266, -0.027408259, -0.045024306, -0.13966238, -0.0491573, -0.13855259, 0.14382818, 0.16216981, -0.03681374, 0.1317045, 0.08449035, 0.17054293, -0.040040404, -0.075943395, -0.091711186, 0.11859597, 0.011101501, -0.022946784, 0.08699089, 0.19533499, 0.24168546, -0.006373251, 0.052588273, 0.2512368, 0.2026647, -0.10915671, -0.030402135, -0.096298866, -0.086239666, -0.16523819, 0.050676327, 0.019534308, -0.19724266, -0.110144146, -0.03794805, -0.106353894, -0.027219139, 0.0867752, 0.025957767, -0.062485952, -0.09013764, 0.089490004, 0.14627455, -0.1771651, 0.039817173, -0.18741682, 0.11274561, -0.24077162, -0.061862547, 0.06211333, 0.012046049, 0.1473482, 0.05898207, -0.13749106, 0.019296559, -0.03438926, 0.107431926, -0.032035258, -0.06427469, 0.11295391, -0.06267943, -0.14679903, -0.07506059, -0.021004938, -0.029703332, 0.07992666, -0.20558183, 0.07296053, -0.072688706, 0.07966151, -0.07501235, -0.045697108, -0.0061957366, -0.07273595, 0.07248644, 0.005308071, -0.012486008, 0.1616662, -0.0503943, 0.001844962, -0.08187709, -0.10009265, -0.07074149, -0.14713372, -0.19407585, -0.09494793, -0.20317072, -0.2478139, -0.20557068, -0.079862855, 0.029904334, -0.06933303, 0.09070179, -0.08343271, -0.16038895, -0.10102081, -0.066784516, -0.11125133, 0.007003716, 0.06987739, -0.15889671, 0.041814003, -0.09897583, -0.041937612, -0.06471615, -0.026625426, 0.069550894, 0.04740288, -0.19928323, -0.18070689, 0.035104617, -0.11531942, 0.007840784, -0.059104323, -0.019628746, 0.014575595, -0.020497939, 0.056785375, -0.13125676, -0.012647744, -0.11285989, 0.061269104, -0.19387583, -0.18423238, -0.2777744, -0.14189251, -0.025225958, -0.18810433, -0.11930295, -0.01770317, 0.0325522, 0.016574508, 0.022499064, 0.028223215, -0.04854867, -0.21273866, 0.15537964, -0.064631164, 0.011779901, -0.044192217, 0.0066424804, 0.06638812, -0.046402343, -0.1691841, -0.00046927747, 0.08255843, 0.005315687, 0.09341872, -0.1324109, 0.104102544, 0.13842563, -0.11613961, 0.0702222, -0.024053257, -0.11479082, 0.053246584, -0.004364751, 0.24336937, -0.096863486, -0.008720553, 0.116018414, 0.024872707, 0.24830909, 0.20969135, -0.33169872, -0.065132774, -0.20270263, 0.0903908, -0.12389441, -0.20618232, -0.2129688, 0.102019966, -0.26361045, 0.18607412, -0.100221835, 0.07791205, 0.11086154, -0.05621345, 0.070261605, 0.069087096, 0.0770996, 0.044457663, -0.13923097, 0.13452984, -0.08247827, 0.09346189, -0.31744272, -0.1327182, -0.13653933, 0.3567226, -0.023557425, 0.08557956, -0.15489775, -0.1707301, 0.014150992, 0.100210756, 0.07888507, -0.09239606, 0.17350546, 0.015348227, 0.05612036, -0.06888947, 0.17825721, 0.36189607, -0.14386249, 0.06829657, -0.058925156, -0.34210104, -0.12021892, 0.14029834, 0.21788125, 0.09020251, 0.037879784, -0.018210297, 0.2119934, 0.35470396, 0.079494715, 0.05216382, 0.00196657, -0.12188822, 0.013302276, -0.008740943, 0.047125664, 0.028699443, -0.028523616, 0.005609013, -0.079928294, 0.061032407, -0.011337866, 0.00057249836, -0.11847994, 0.07889724, -0.10078973, 0.09610554, -0.1596825, 0.16037892, -0.085872345, 0.15287194, -0.095312044, -0.007675057, -0.039540384, 0.0807165, 0.18174274, -0.020504124, 0.058202494, -0.111707605, -0.090128005, 0.060155753, -0.03821136, 0.045018468, 0.052951213, -0.07084672, 0.12036726, 0.10032012, -0.02128946, 0.111246556, -0.11924536, 0.09903012, 0.0143111255, -0.13623491, 0.07933244, -0.16218458, 0.16526471, 0.12711258, 0.017264038, 0.12993363, 0.039302707, 0.09510784, -0.13481274, 0.016347654, -0.07173211, 0.112518005, 0.10032455, 0.055567667, 0.17861035, 0.01241351, 0.11098175, -0.013275489, -0.108252384, 0.019705668, 0.20623066, -0.09921545, 0.109644115, -0.07531167, 0.017175663, -0.013560254, 0.11803313, -0.06900315, -0.02644117, 0.049969047, 0.04326546, 0.1677239, 0.12501648, -0.088528655, -0.12258793, 0.17214195, 0.055258192, 0.15500127, 0.046339236, 0.17507179, 0.034936696, 0.033614777, 0.1342452, 0.12920897, -0.07175369, -0.110463835, 0.19758293, 0.1030241, 0.085647136, 0.06135509, -0.04170794, 0.14982322, 0.09183338, -0.052272473, 0.0543559, 0.09404464, 0.110199735, 0.22718163, 0.014733789, 0.2115035, 0.018027324, -0.08662792, -0.00163357, 0.062368672, -0.074437924, -0.012029412, -0.035349168, 0.043100163, -0.10841139, -0.057320993, -0.008839154, 0.119902365, 0.10566394, 0.09800015, 0.0054143746, 0.14901502, -0.07125072, -0.0070359674, 0.007766139, 0.11742558, 0.1278843, 0.09144817, 0.111812994, 0.044073984, 0.1724211, 0.020631712, 0.009511838, 0.011255686, -0.01177687, 0.09034692, 0.058208775, 0.022000276, 0.06911955, 0.014761884, 0.12997247, 0.11815892, -0.06251396, 0.20084916, -0.08435302, 0.16088206, -0.11553485, -0.07488042, 0.12453582, 0.08936075, 0.09284071, 0.03896708, 0.022410443, -0.073262915, 0.023294965, 0.06988183, 0.060917232, 0.107917905, 0.13387246, 0.1009339, -0.13977373, 0.022064354, -0.033408135, -0.096216016, -0.099735826, 0.0989046, 0.29907063, 0.19288583, 0.12686637, 0.2589574, 0.11219394, -0.15721017, 0.015349772, -0.10448166, -0.12306064, -0.088752024, 0.21749075, 0.18080674, 0.018363355, 0.13125265, -0.010159525, 0.14811066, -0.008662329, -0.15133338, 0.004603952, -0.13147733, 0.13349482, 0.14788213, -0.18973203, 0.021728031, 0.11689924, 0.14489818, 0.08405495, 0.09575682, 0.019114966, 0.109116934, 0.1913443, 0.012266905, 0.08184631, -0.06568745, 0.07348662, -0.0664685, -0.11592702, -0.07358094, 0.20142777, 0.12398986, 0.051522188, 0.18073446, -0.105032, 0.12540974, 0.04114142, 0.03145677, 0.121746995, -0.046255365, -0.019153148, 0.08052914, -0.013959328, 0.074652635, -0.02257685, 0.018462306, 0.08684742, 0.032286085, 0.11649244, -0.04514094, 0.117248476, -0.06177227, 0.08530242, 0.043479595, 0.20533802, -0.08067304, 0.22386335, 0.023669582, -0.05192449, -0.004158353, 0.096039176, -0.077253304, 0.07289491, 0.15876515, 0.023192536, -0.057253063, -0.06869728, 0.13383625, 0.03400388, 0.08443288, 0.1303123, -0.120441474, 0.114117995, 0.09543478, -0.050500978, 0.20100118, 0.01678276, 0.048506755, -0.19470857, -0.0878384, -0.012364591, 0.15405542, 0.07649716, 0.0795307, -0.080245264, -0.0043082526, 0.09016774, 0.042063344, 0.11325746, 0.0053631566, 0.14470312, 0.0172941, 0.06874475, -0.0404486, 0.18209837, -0.0876164, 0.23709099, -0.0074503645, -0.019668395, 0.069921374, -0.00932241, 0.13039374, 0.1634541, -0.034322597, 0.16726798, 0.09236994, 0.07116277, 0.20118059, 0.12642263, -0.056339536, 0.19101378, 0.043947723, 0.15819821, 0.19569527, 0.01123647, 0.06847627, -0.013467233, -0.0746596, 0.009772826, 0.08464578, 0.27053827, 0.0793208, -0.00988636, 0.019856649, 0.19487624, 0.07320414, 0.28852352, 0.07455374, 0.009005362, -0.015329367, 0.09181556, 0.116342835, -0.07585682, -0.053120703, 0.028810946, -0.03901348, 0.13888463, 0.15727457, 0.0052573965, 0.07769077, 0.090988986, 0.04201842, 0.17760532, 0.08713683, 0.1812236, 0.08322799, 0.014398178, -0.008201937, 0.05164707, 0.041831765, 0.009331105, 0.20811649, 0.23672152, -0.19153921, 0.07582272, 0.07840981, 0.094950415, 0.08287899, -0.018749679, -0.071513325, 0.26256847, 0.13388734, 0.077301286, -0.17281833, -0.012104234, 0.27673742, 0.21441875, 0.0071701254, 0.18630283, -0.23876125, -0.050780755, -0.1352278, 0.10923978, 0.21371908, -0.029281886, 0.12215849, -0.034612305, -0.20059308, -0.024790814, -0.3252674, 0.32246676, 0.09771024, 0.22026661, -0.13907544, 0.10992615, -0.15869428, 0.048914824, -0.12652686, 0.087813385, 0.124452755, 0.11039922, 0.05005794, 0.12803556, -0.025640626, -0.2562605, 0.08504629, 0.017917737, -0.03356119, 0.19364679, -0.13503683, 0.19003358, 0.14569503, 0.081636846, 0.3335268, 0.027082939, -0.26392657, -0.007034612, -0.15622646, 0.09013779, 0.2042451, 0.03979861, -0.06284725, 0.017311776, -0.07662275, 0.0015334496, -0.079150885, 0.036256924, 0.114244945, -0.109467894, 0.028910426, -0.07683188, -0.09601081, 0.06643982, 0.19924258, -0.11466298, 0.025129732, -0.05769825, -0.0053224317, 0.05336998, 0.08607908, 0.022949925, 0.09572377, -0.13029319, 0.22386914, 0.10842995, 0.09411908, -0.25639564, 0.06624158, 0.11593698, -0.21414417, 0.009915485, 0.0700179, -0.1058164, 0.12359482, -0.077329226, -0.017958393, 0.018091308, -0.055740196, 0.08042622, 0.054713365, -0.020874536, 0.0821858, -0.050728604, 0.098193444, -0.033624984, -0.029596105, 0.14702663, -0.092416555, 0.12099193, -0.03689073, -0.091557354, 0.053416274, -0.069789305, 0.17639099, -0.15394226, -0.077487566, -0.11647153, -0.16615759, -0.16013558, -0.042799667, 0.15023683, 0.17863132, 0.004032847, -0.07703046, -0.043289173, 0.1388461, -0.09353754, -0.15834235, 0.08349868, -0.12394551, 0.0023863048, 0.0030262838, 0.20768858, -0.033089627, 0.17303789, 0.108022146, -0.08648016, 0.017658329, -0.1803584, 0.0077505196, 0.063577875, 0.059527453, 0.0021236534, 0.010162559, 0.18241327, 0.0048728767, 0.16255672, -0.024196187, -0.07010765, 0.114817716, 0.08250501, -0.029578913, -0.093054935, -0.039763145, 0.051210772, 0.017530385, 0.12825634, 0.059301805, 0.1574603, 0.13476849, -0.05268592, 0.15762325, 0.02867346, 0.009491046, -0.023093566, 0.030033197, 0.0075411373, 0.22978431, 0.11065805, 0.07575657, -0.14032367, 0.16045661, -0.07469923, -0.12781107, 0.03445893, -0.12796633, 0.08587535, 0.11892893, 0.13692647, 0.22654617, 0.09240713, -0.034967743, 0.17534436, 0.057980973, -0.12463885, -0.23378676, 0.021589726, 0.124672405, -0.0075892652, -0.055424403, -0.058517613, -0.12402641, -0.06226904, 0.018814297, 0.092194, -0.09583964, 0.16159447, 0.11940355, -0.07119554, -0.02450324, 0.028789673, 0.020753102, 0.027373828, 0.09266485, 0.11651099, 0.06745301, 0.055402018, 0.107854754, 0.23675165, 0.13344394, -0.06627001, 0.019945055, -0.062407628, 0.17662098, -0.023992078, 0.048362084, 0.06147747, 0.058590986, 0.055692013, -0.034639254, 0.0066274228, 0.14746563, 0.08057332, -0.057572354, 0.08668158, 0.1249279, 0.10259084, 0.003410751, 0.12964822, 0.22787468, 0.18441905, 0.022265615, 0.15390915, 0.10258331, 0.13342907, 0.023012135, -0.016298512, 0.19226556, 0.011436363, -0.0058759386, 0.19964373, -0.06981319, -0.067968644, 0.014641644, -0.052359935, 0.16674818, 0.15067439, -0.12342658, 0.078099005, -0.11583954, 0.03646697, -0.023157356, -0.050263852, 0.1042648, -0.06397831, -0.08929658, 0.089070424, 0.046076145, -0.042158864, 0.098817155, -0.012607535, 0.007338882, -0.18264316, 0.03347075, 0.067827985, -0.101899855, 0.058444295, 0.19131368, -0.12754376, -0.013672059, 0.1589289, -0.13848212, 0.17433915, 0.1039453, 0.16525683, 0.045993764, -0.11159907, 0.052434377, 0.13779838, 0.055245686, 0.06895659, 0.15278368, 0.05289218, 0.22395699, -0.029124174, -0.110357985, -0.001861492, 0.13226314, 0.06878439, 0.06907357, 0.09036887, -0.03961328, -0.03881688, -0.04102482, -0.09761429, 0.01888449, -0.078344874, 0.05695661, -0.22685617, 0.14967974, 0.03679823, 0.147455, -0.17821325, 0.024077088, -0.22885178, -0.10667177, 0.024578914, 0.058180675, -0.08337593, 0.25354037, 0.04675087, -0.012947642, -0.01950393, -0.15003215, -0.13255806, 0.092643656, -0.23855977, -0.09368961, 0.10049099, -0.08449682, 0.069318734, -0.053184774, -0.02133567, 0.12172409, -0.07434718, 0.0838841, -0.11342436, 0.20635761, -0.04302622, 0.20714307, -0.13915095, -0.13339238, 0.018342122, -0.10068129, 0.06866331, -0.1326062, 0.06182122, -0.05714891, 0.0187577, 0.101963915, 0.0914924, 0.18883622, -0.10161502, -0.0085586645, 0.20582998, -0.061644435, 0.053898443, 0.0058315527, 0.09051002, 0.1912761, 0.026756648, 0.12634726, 0.08657028, -0.15896378, -0.0052703647, 0.11107897, -0.029677102, -0.09877448, -0.09577417, 0.08691212, -0.043577004, -0.0088619515, -0.07608083, 0.053849164, 0.121338435, 0.19997585, -0.07227903, 0.1317147, -0.00807042, 0.12721236, -0.042737562, 0.08148107, -0.09250534, 0.028485555, 0.027780505, -0.07720943, 0.021298552, 0.032674596, 0.086445525, -0.065038, 0.055114936, -0.08099935, 0.0937093, -0.036086027, -0.023386396, 0.13908017, 0.12548983, 0.10112418, 0.064967416, 0.025238011, -0.0561341, 0.014994092, -0.0910947, -0.030029558, -0.042612117, -0.06591742, 0.09818224, 0.21747687, 0.0001057355, 0.096366525, 0.18080331, 0.17966798, 0.10692047, 0.023478227, 0.15996037, 0.19309281, -0.09072398, -0.003324865, 0.009769145, 0.11738761, 0.15150148, -0.08715532, -0.06520312, -0.08457814, 0.008587132, 0.07795464, 0.1412238, 0.017048445, 0.23323871, 0.07474395, 0.052492503, -0.037764814, 0.035073906, 0.009196186, -0.063416734, 0.124634705, 0.18598929, -0.18365644, 0.1952649, 0.15015772, 0.074793704, 0.1671782, 0.21532704, -0.12607247, -0.04973066, 0.18542942, -0.008529111, 0.23692842, 0.032453895, -0.0015473199, 0.085151985, 0.12548582, 0.18320006, 0.03564122, -0.05100429, 0.07965016, 0.04929822, 0.13310507, -0.16177489, -0.12489552, 0.009077895, 0.021152828, -0.15664609, -0.051947873, 0.026215019, -0.08270655, -0.23214585, -0.12311047, 0.11463584, -0.27646777, -0.0700448, -0.2588854, 0.09158921, 0.010676636, 0.059748538, -0.10307848, -0.2316527, 0.12215249, 0.10370444, 0.039939716, 0.08910566, -0.13473919, -0.20052874, 0.09253955, -0.12552333, -0.04236388, -0.07793125, -0.01197613, -0.19792895, -0.021476109, 0.054515652, -0.07078318, -0.2622966, -0.24211006, 0.07976176, -0.13768224, -0.08527113, -0.08699806, -0.06784336, 0.037786487, 0.016463198, -0.0116116535, 0.0093585085, -0.01772367, 0.14505395, -0.10313098, -0.13029459, -0.11866153, -0.16104634, -0.0058821347, 0.022060616, -0.025915084, -0.11610528, -0.07959712, 0.1776083, 0.05213189, -0.0448896, -0.2683267, 0.089854166, -0.12449335, -0.15796477, 0.15713592, 0.053831354, 0.09663894, -0.008717116, 0.11651481, -0.13223127, 0.21816944, -0.044373512, 0.030788805, 0.13915592, -0.055418935, 0.25399682, 0.00998643, -0.043636102, 0.15627384, -0.076156124, 0.12765665, -0.017691331, 0.09569521, 0.037403516, 0.09455423, 0.12318497, 0.042369664, -0.024652062, -0.0060926154, -0.067871064, -0.024169888, 0.06891166, 0.06787419, -0.03180879, 0.105395496, -0.038223907, -0.049241062, 0.118888326, 0.007247913, 0.23280187, 0.10518037, 0.008351478, -0.064498246, 0.09795426, -0.089497335, 0.01835201, 0.11696826, 0.08853862, -0.1287148, -0.10823756, 0.04502311, 0.054130908, -0.039099947, 0.035782628, -0.1055369, -0.08050157, 0.055938035, 0.010297817, 0.26539814, -0.05489532, -0.06659125, 0.24445279, 0.05865331, 0.031993903, 0.04397165, 0.055554803, 0.055479527, 0.23470458, 0.11553035, 0.029449852, 0.040220283, -0.028945306, 0.00041429052, 0.12319876, 0.031011356, -0.13859685, 0.12339394, 0.121212386, 0.018848125, 0.17470874, 0.20679317, 0.104726195, -0.020552978, 0.038324382, 0.08294583, -0.016909722, 0.20299777, 0.117574215, -0.07707838, 0.011093033, 0.102329046, 0.026448552, 0.01334286, 0.07312149, -0.14758392, 0.16028608, -0.11844251, 0.031466145, 0.09746837, 0.010300265, 0.0837091, 0.16211537, -0.10084088, 0.08031056, 0.2447203, 0.15550275, 0.18770422, 0.012811689, 0.08691963, 0.10361981, -0.1795114, -0.00811434, -0.08199706, -0.06950316, 0.12793568, 0.0973719, -0.0034495157, -0.014687685, 0.076222874, -0.0466784, 0.087077945, -0.107756145, 0.11544406, 0.13769305, 0.09801606, -0.09979657, 0.06629579, 0.20875067, -0.03931686, -0.104311384, 0.0098028, 0.1617895, 0.108143196, 0.19211678, -0.043269522, -0.0023996027, -0.10563455, -0.050892755, 0.000464225, -0.18500976, 0.14017835, 0.27500743, 0.004284695, -0.023532772, 0.043262713, -0.052283093, 0.104477316, 0.00070907705, -0.0021278395, 0.11748955, 0.058232926, 0.09234254, -0.028577793, -0.017855907, -0.04179358, -0.06520026, 0.015829733, 0.08415028, 0.030362265, 0.0946905, 0.060132325, -0.061524518, 0.04120854, 0.03528364, 0.11020647, 0.06643258, -0.11438239, 0.15074009, 0.15641645, 0.08963484, -0.08971607, -0.15153758, 0.015487185, -0.06449656, -0.07847879, -0.05194548, 0.12891383, -0.124491945, 0.18057111, -0.004405202, 0.038230926, 0.12856156, -0.034789063, 0.11590285, -0.006635477, 0.11231321, -0.0011895722, -0.07688631, -0.020639034, -0.2759739, 0.1047694, 0.059914853, 0.053413022, 0.05039084, -0.021004705, 0.111328006, -0.09010623, 0.242431, 0.05850878, -0.24430312, 0.022665627, 0.11389807, 0.053916603, 0.05955988, -0.0803002, 0.09785791, -0.14979124, -0.08590363, 0.20532873, -0.17022361, -0.080366634, 0.02891689, -0.14276175, 0.050724518, 0.09568019, 0.07892155, -0.18852481, 0.05738657, 0.052787185, 0.14853266, -0.15807807, -0.00353313, 0.042594425, -0.04572003, 0.16545297, 0.06852774, 0.05679387, 0.103990674, 0.046706688, 0.22579855, -0.07905063, 0.0026941937, 0.06668356, 0.100723945, -0.059757017, -0.05502087, -0.05287285, 0.08015923, -0.053726964, -0.20530458, 0.018809173, 0.12358292, 0.049494233, -0.030156441, -0.054521497, 0.003892188, 0.034671873, 0.15962113, -0.021902427, -0.01725598, -0.056857765, 0.03945144, 0.24330625, -0.108294055, -0.1153701, 0.003261005, -0.10162057, -0.09391349, -0.0049673244, -0.117131434};