float W_conv1_w[]={
0.21872847, 0.03788839, 0.10647671, -0.2813166, 0.27162024, -0.30949533, 0.24713907, -0.21128249, -0.05446344, 0.073906444, -0.23669502, 0.21758652, -0.23575674, -0.26139575, 0.020583875, 0.23522925, 0.08455899, -0.2674665, -0.020892126, 0.04108716, 0.2400951, -0.1699717, 0.075628854, -0.15015115, 0.2908197, -0.07597938, -0.0469635, 0.25599703, -0.07522288, 0.29707918, 0.2851499, 0.12036411, 0.2408118, -0.012914833, -0.19142637, -0.12042677, 0.095879614, -0.2283092, 0.24721427, -0.23029378, 0.009025899, -0.12674497, 0.18393742, 0.16522159, -0.23322707, 0.18132019, -0.04920779, -0.15732656, -0.052431382, 0.14583702, 0.13531023, -0.13624506, -0.07279492, 0.09583807, -0.19945356, 0.1803569, -0.19936076, -0.3048267, 0.03423731, 0.20119955, 0.030850366, -0.2573829, 0.1783268, 0.30422288, 0.021920247, 0.27922946, 0.057379402, -0.21696188, 0.11376432, -0.11216873, 0.04359646, 0.26564705, 0.13088517, -0.09895581, -0.1508028, 0.030776737, -0.20973596, 0.37089658, -0.03876905, -0.12394469, 0.051833324, -0.25135446, -0.06191704, 0.15102024, -0.048263196, 0.08885286, -0.2508618, -0.15687756, 0.0675755, 0.15237269, -0.10165466, -0.19957738, 0.13302103, 0.12150037, 0.1738759, -0.21024522, -0.2378537, 0.15945126, 0.13603531, 0.14319943, -0.034025144, 0.08411666, -0.2426492, -0.077788144, -0.143027, 0.14781062, -0.27842015, 0.1726117, 0.17839761, 0.18468034, -0.2189293, -0.06449144, 0.16639991, 0.051055532, -0.34270433, -0.038330812, -0.28801364, 0.14311947, 0.114034474, 0.13787189, 0.31847954, 0.09731169, -0.18671618, -0.13324581, 0.089086086, -0.0534299, 0.25053242, -0.16456793, -0.08085182, 0.07430612, 0.31869227, 0.20219344, -0.123049214, -0.06937907, -0.12480079, -0.015886394, -0.054554794, -0.018275533, -0.12111104, -0.04085694, -0.12713811, -0.29670393, -0.123280086, 0.19284499, 0.18699954, -0.20066546, 0.21995662, 0.1962015, 0.14200066, 0.02078036, 0.2553841, -0.25308484, -0.19654, -0.24933307, 0.21955124, -0.02291561, 0.31076452, 0.20387805, -0.18107532, 0.15158342, 0.108571574, 0.25961193, 0.15392348, 0.16379763, -0.14802536, -0.2294829, -0.050015092, -0.11857739, -0.027824733, -0.16593157, 0.16622102, -0.22174844, 0.10171727, -0.18849245, 0.12447727, 0.05843124, -0.12588897, -0.053649552, -0.24692854, 0.22234581, -0.26532045, 0.20118861, 0.21951939, 0.22058956, 0.048100535, -0.20314506, 0.08183059, -0.08605971, 0.036365014, 0.15543665, -0.055362143, 0.27169475, -0.14993048, 0.019392116, -0.08935265, 0.29148325, -0.09064554, 0.35006043, 0.28898087, 0.10592071, -0.30942398, 0.072422296, 0.25979003, -0.2724474, 0.13492504, -0.018415002, 0.14860402, -0.105361536, -0.16019116, 0.081217624, 0.21713482, -0.20596355, -0.025319796, 0.06742046, 0.24811716, 0.12974863, -0.27566782, 0.25125995, 0.22710612, -0.20703351, -0.3398601, 0.22688171, 0.059965886, 0.20426235, -0.21910855, 0.21445943, -0.11335698, -0.20451686, 0.15499523, 0.10182278, 0.04749818, -0.20385416, 0.077157795, 0.065424904, -0.39849275, 0.16546686, 0.03137419, 0.036745567, 0.12993516, -0.3821217, 0.24086602, 0.22956854, 0.2430676, -0.113385096, -0.1581254, -0.095235586, 0.017036477, -0.04320333, -0.19354714, -0.095983066, -0.086188495, 0.18910766, 0.12635824, 0.1882476, -0.17460094, -0.2502361, 0.11087933, 0.20509237, -0.11658108, -0.19114058, -0.1943316, 0.22886631, -0.07420378, 0.09216264, 0.20570286, -0.22018376, -0.16033794, 0.03209906, 0.17051888, 0.185259, 0.06420698, -0.043216784, 0.03205991, -0.12739511, 0.02223453, -0.08261833, -0.02814267, 0.071316205, -0.31357166, 0.07699278, -0.20888403, -0.07981149, -0.23713806, -0.19925639, 0.209125, -0.19730373, 0.16034299, 0.08895021, 0.10864563, 0.22561252, -0.19332083, 0.29341608, 0.051798098, 0.16883798, 0.062234953, -0.20617312, -0.15149193, 0.22651814, -0.21116784, -0.027513774, -0.26364806, 0.19957472, 0.15652357, 0.065836675, -0.23673677, 0.116888635, 0.19398989, 0.053870853, -0.05051057, -0.006776806, -0.13061003, 0.31633043, -0.00029074188, -0.15351476, 0.035784755, 0.12627076, 0.2788631, -0.12014453, 0.106702715, 0.013651684, -0.15531985, 0.23775144, 0.259155, 0.23925553, -0.15479748, -0.110435866, -0.20652038, 0.15562974, -0.06393757, -0.16923259, 0.23438169, -0.22586094, -0.16083038, 0.04516713, 0.13451302, -0.2940736, -0.1136634, -0.2074348, 0.24014471, 0.07492738, -0.16963758, 0.19643363, -0.16086197, -0.08827672, -0.2988799, -0.10363454, -0.17845488, 0.14814219, 0.2829007, 0.058052387, 0.01305491, -0.1497495, 0.29613537, -0.084126204, 0.22721682, -0.1192598, -0.087993704, 0.17608981, -0.1674451, 0.2549491, 0.20280175, -0.26267233, 0.10143603, 0.11981737, -0.05543688, 0.06651467, 0.15729424, -0.33546796, 0.17067751, 0.076596305, 0.2934597, -0.2340745, 0.22810428, 0.013983367, -0.32393935, -0.09568648, -0.22799756, 0.11989968, -0.23881678, 0.17473799, -0.12077875, 0.24886224, -0.15928859, -0.14426754, 0.24085642, -0.19341303, -0.20009223, 0.22823803, -0.12111062, 0.23622878, 0.09546262, -0.089337975, 0.25049797, -0.13196822, 0.023883086, -0.10199299, 0.280734, 0.03238716, -0.10359978, -0.26443172, -0.18313468, -0.1715165, 0.11957473, 0.054494433, 0.043646265, 0.10302166, -0.34521005, 0.054455623, 0.039187264, 0.06612585, 0.15801781, 0.031284153, -0.31812924, 0.16146299, -0.18108112, 0.23532566, 0.07201149, -0.24623273, 0.20774917, 0.1619054, 0.08741183, 0.2723116, -0.12734722, 0.28622955, -0.20198697, -0.1476902, -0.1975547, 0.30535793, -0.083273955, -0.09778618, 0.25795913, -0.24684346, -0.20688105, 0.25546265, 0.12776251, 0.033619527, 0.039736893, -0.10503909, -0.15379107, -0.13218471, 0.1887853, -0.25675893, 0.059862345, -0.31136274, -0.0404605, 0.124642216, -0.015578768, -0.014758473, 0.1629983, -0.11247599, -0.13038787, -0.03896791, 0.018921524, -0.029084625, 0.2576177, -0.27387565, -0.2233973, 0.15163763, -0.091288775, 0.18161532, 0.26197475, 0.25554606, -0.013268853, 0.0019310327, -0.23290439, -0.043702707, -0.019769462, -0.25206828, 0.2940071, -0.17155491, -0.27536893, -0.017912956, 0.09717649, -0.07709789, 0.093038134, -0.20931071, -0.23222096, 0.16917945, 0.09412573, 0.096751146, 0.12904209, 0.03618647, 0.23706579, 0.23855437, -0.09682543, 0.045043595, 0.1051523, -0.22995023, -0.0685505, -0.24618807, -0.21303385, 0.16223228, -0.23084165, 0.2745473, -0.19392034, 0.062436037, -0.122969195, 0.17612967, -0.11021158, 0.08362646, 0.0032882579, 0.29490986, -0.11627923, -0.16429937, -0.051616587, 0.14573434, 0.26357856, -0.08578368, -0.032839872, -0.13167405, 0.10323555, 0.08347252, 0.15449359, 0.02340329, -0.1907261, -0.18894066, 0.15695179, -0.0008567605, 0.12874463, 0.18171379, 0.104481414, 0.2690479, -0.095106795, 0.028826892, 0.12539838, 0.026022796, -0.1506289, 0.036487546, -0.12812446, -0.1295548, 0.1902897, -0.1749957, 0.21963708, -0.094773285, -0.18049559, -0.005119218, -0.21377742, 0.13239093, -0.18227158, -0.0831865, 0.060499407, -0.16259901, 0.25883594, -0.19327419, 0.04856406, -0.2177793, 0.25000992, -0.15583317, 0.33755335, -0.039320208, -0.039460447, 0.2283847, -0.17234418, 0.036949627, 0.019722033, -0.13615847, -0.1546618, -0.22331837, -0.05070095, 0.031883888, -0.04033068, 0.34506863, 0.15853007, 0.27205282, 0.1980939, -0.08230409, 0.15362565, -0.15142801, -0.18059012, -0.17551725, -0.14226384, 0.2673378, -0.023220653, -0.08746128, -0.057906486, -0.12966628, -0.07205845, 0.28069648, 0.11341827, 0.26871818, -0.284357, 0.06532203, 0.0077724815, 0.23339191, -0.20990364, 0.2266864, 0.1705099, -0.09968175, 0.19928817, -0.18927298, 0.10555883, 0.1307692, 0.024526043, 0.18275106, -0.32379705, -0.2689224, -0.26603824, 0.13246946, 0.24582991, -0.18358412, -0.20734985, 0.084832296, 0.12648076, 0.16811165, -0.222418, 0.18712217, -0.31990233, 0.0017003294, -0.03761741, 0.15049312, -0.118770115, 0.26076597, 0.02662242, -0.060568877, 0.03130749, 0.06525728, 0.1906274, -0.101165384, 0.027162613, -0.21088815, 0.2818233, 0.12352379, 0.14907609, -0.18338823, -0.06732773, -0.19642782, 0.13572119, 0.15147543, 0.27914405, -0.18357953, 0.20509778, -0.1775992, 0.1547475, 0.15636939, -0.14921153, -0.27575308, -0.2214728, 0.1800954, 0.08730404, 0.118010946};