float W_conv1_w[]={
-0.24600647, -0.082486935, -0.19142982, 0.035220016, -0.05104149, 0.28072035, 0.0037457894, 0.0151071865, 0.124894455, -0.18315737, 0.22997122, -0.16742407, -0.16474272, 0.11735317, 0.009024342, -0.06529985, 0.2635462, 0.090498, -0.14483829, 0.15752362, -0.08362773, 0.044694073, 0.12912144, 0.1670129, -0.12400172, 0.11877865, 0.01452015, -0.16307473, -0.12127838, -0.22316971, -0.3705571, -0.05040422, -0.14684151, 0.041848246, -0.0097990045, 0.16333306, 0.14351507, -0.008106065, 0.06358161, -0.13106601, 0.046006903, -0.23976177, -0.44308493, -0.2320832, 0.043230515, 0.13200137, 0.16366856, 0.004557963, 0.03281355, 0.14578722, -0.06602241, -0.2202813, 0.07933416, -0.22629471, 0.19370542, 0.09963823, 0.0896648, -0.16231908, -0.18628873, 0.14333443, 0.10946354, 0.33074433, -0.065440185, -0.037381507, 0.05767897, 0.039100282, 0.1661013, -0.08017632, 0.046016756, -0.018356172, 0.0349351, 0.081061594, -0.06679142, -0.13058794, 0.19101834, -0.22953916, -0.109868206, 0.16760388, 0.17795295, -0.051972132, -0.1675881, 0.1231767, -0.12744103, -0.09230942, 0.36667287, -0.10249497, 0.21701434, 0.18599582, -0.07668173, 0.015324182, -0.18535334, -0.286454, 0.001853839, 0.018240808, 0.055102795, -0.0046427925, -0.056151155, 0.107106045, 0.007470093, 0.078338146, -0.1544199, 0.14280993, 0.06471193, 0.094337545, -0.21301122, 0.14954756, 0.106307976, -0.21143755, 0.009282386, -0.10051831, 0.2601247, -0.08588613, 0.24052803, 0.16025908, 0.32892552, -0.025578594, -0.15960132, 0.093684256, -0.1922799, 0.18609396, 0.17822324, -0.28941107, -0.13983738, -0.19218203, 0.0014374895, 0.17172301, 0.089923374, 0.023893889, 0.048846807, -0.050158143, 0.14726704, -0.39072832, 0.08115556, 0.090142876, -0.20687537, -0.21085908, -0.23625296, -0.0624884, 0.15708458, 0.15866487, -0.009945047, -0.15315825, 0.15721405, 0.17461361, -0.21535319, 0.18110496, 0.094295576, -0.15161201, -0.021385876, -0.22089286, -0.069659844, 0.35535592, 0.12988177, -0.088163085, 0.27301377, 0.037033714, -0.17633954, -0.22060762, 0.024082651, -0.19035886, -0.18080841, 0.15373087, -0.17105617, -0.15533295, 0.15577497, 0.002688462, 0.12690741, 0.2982188, -0.2645532, 0.13125148, 0.15031533, 0.022898493, 0.13490818, 0.066631965, -0.3251186, 0.14588559, -0.2406321, 0.06826658, 0.111249596, -0.14402124, -0.13923311, -0.038431115, -0.20590547, -0.058567185, 0.15823987, -0.23861474, -0.15441942, 0.17269282, 0.07841747, 0.19347604, -0.14883085, -0.002728843, -0.21682216, 0.19821215, -0.019685583, 0.22576421, -0.22147237, 0.166821, -0.11416414, 0.20557687, 0.21235734, -0.070467785, -0.20949385, -0.26150072, 0.121382855, 0.0006701518, 0.1290444, -0.009200981, 0.083092794, 0.038500432, 0.15692489, -0.15981676, 0.17407027, -0.21330358, 0.15180688, -0.094679095, 0.13158423, 0.014867267, -0.2642156, -0.01793868, -0.14806515, 0.06674286, 0.14016362, 0.17423773, 0.0016869653, 0.1323064, -0.13323593, 0.23462918, -0.101333275, -0.025389867, 0.12927403, -0.10798393, 0.06757067, -0.0061435294, -0.080979556, 0.2666392, 0.45620772, -0.09027773, -0.029325467, -0.061946776, -0.04143007, -0.2560645, 0.117368035, 0.13586089, 0.06562378, -0.013908983, -0.13506232, -0.11154542, 0.14557935, 0.13640825, 0.28840622, -0.10475604, 0.19120735, -0.19936138, 0.22086358, 0.3958893, -0.14554256, 0.2114164, -0.116022944, 0.0030243576, 0.23718975, -0.2329843, -0.07539893, -0.030492248, 0.13807096, 0.066697806, 0.22009341, -0.21092609, -0.039331842, -0.18791696, -0.0030272321, 0.027079102, 0.017011289, -0.16986966, 0.1620072, 0.08406102, 0.23814364, 0.0081766965, -0.1944215, -0.14519848, 0.04180561, -0.1273832, 0.23079248, -0.39283305, 0.09200926, -0.22743656, 0.13392207, -0.09393574, -0.09476029, -0.0072500585, 0.12940171, -0.069955826, -0.14237349, 0.08120751, -0.22939959, -0.12095787, 0.20181154, -0.19476779, -0.091567636, -0.20037396, 0.22834672, -0.17294803, -0.13829291, -0.12091511, 0.042111505, -0.05109444, 0.08967846, 0.16573162, -0.07190051, 0.094785035, -0.23975737, -0.27595082, -0.09542133, 0.19892766, 0.045968782, -0.009811197, 0.12703732, -0.21770169, 0.18215623, 0.1019363, -0.22272499, 0.15845762, -0.25840944, 0.03835183, 0.03594892, -0.08325397, 0.19394207, -0.018776134, 0.0704917, 0.099615045, -0.07824846, -0.20986326, -0.21955994, 0.27952424, -0.116975084, 0.19058928, -0.17942399, 0.24207628, -0.1563046, 0.19456023, 0.29697856, -0.10478401, -0.14412554, 0.095775165, 0.32332635, 0.078824654, 0.05278119, -0.24533646, 0.17819369, -0.08259533, -0.012839369, 0.11195311, -0.086119294, -0.029255578, 0.27094296, 0.011947328, 0.027966524, 0.038033124, -0.15307164, -0.32910904, -0.112615526, 0.11434269, 0.06810378, 0.06959703, -0.328661, -0.24804203, 0.05067294, 0.06156346, 0.09608999, -0.034788225, -0.20093143, 0.295437, -0.012440429, -0.20839448, -0.1499993, 0.008355413, -0.06573167, -0.1613, 0.2566933, -0.043421842, 0.13081953, -0.07826731, 0.29284555, 0.0043474915, 0.038237065, 0.20115599, 0.4174383, 0.025415184, 0.04631864, -0.0065646586, -0.11658293, -0.2730645, -0.18186705, -0.24170096, 0.07807879, 0.12416991, -0.1902832, -0.32463852, 0.035983775, 0.14631686, 0.049988277, -0.25956607, -0.13564713, 0.029974254, -0.017156243, 0.12982862, 0.07768186, -0.49516284, -0.0156130195, 0.1131852, -0.15722175, -0.09260211, 0.036353875, 0.0140870465, 0.10652194, -0.26428366, 0.03284473, 0.11670052, -0.10780674, 0.0635616, 0.1271, -0.035438098, -0.002981499, -0.055893544, -0.16502732, -0.15990792, -0.26935777, 0.060453605, -0.09467816, 0.051129334, -0.25459915, 0.24363782, 0.3805473, -0.19818942, 0.35711995, -0.0320928, -0.15670182, 0.21321534, -0.2740853, 0.08676637, 0.13807894, -0.41109258, 0.07059648, -0.043783795, -0.058919743, -0.23814014, -0.043955363, 0.09880462, -0.10795569, 0.023687463, -0.18972114, -0.2945387, -0.065304294, -0.3243737, 0.09175533, 0.17606531, -0.24694496, 0.22822183, 0.04289475, 0.04529528, -0.059288133, 0.12722136, 0.0018217805, -0.13180794, 0.40344355, -0.15310925, -0.101011746, 0.20071554, -0.17212698, 0.27607426, -0.19785291, -0.06861326, 0.06636747, 0.10569513, -0.04492867, 0.050932225, -0.21645541, -0.027717276, 0.03251561, 0.06297496, -0.18910915, -0.030456709, -0.121957935, 0.1559126, 0.15338853, 0.10210058, -0.19393583, -0.0077890526, 0.11799382, 0.25082767, -0.2762999, 0.06251581, 0.19672598, 0.22953208, -0.13297053, -0.08722413, -0.24423563, 0.10647925, 0.19641559, -0.15700462, -0.14074364, 0.13928075, -0.011453046, -0.046792712, -0.113289446, -0.0770908, 0.014776332, -0.09769709, -0.048373286, -0.040025685, -0.0033292363, -0.15768246, -0.094369024, 0.36451724, 0.018559398, -0.010622712, -0.08642367, 0.4102235, -0.063736826, -0.105786696, 0.19370389, 0.11799452, 0.093942516, 0.15232278, -0.043236732, -0.16001604, -0.20110528, -0.060839668, -0.25893727, 0.24194111, 0.13525312, -0.31812602, 0.12847021, -0.02691754, 0.17141235, -0.20071024, -0.3504169, 0.15175556, -0.23697633, 0.08450295, -0.16867739, 0.35426712, 0.096717104, 0.20752917, -0.16400136, 0.2912257, -0.11982187, -0.020453604, -0.07439521, 0.18599476, -0.29929897, -0.15954664, -0.2047714, 0.12581128, -0.055887416, 0.13738334, 0.12825395, -0.120541364, -0.21369562, 0.029638274, 0.47440073, -0.047494642, -0.11213694, -0.13120444, 0.14755592, -0.047163866, 0.10037782, -0.21260591, -0.1352932, 0.13189818, 0.05679972, -0.53005904, -0.17883673, -0.08480695, 0.06772543, 0.035165988, -0.045298014, 0.06361325, -0.029943839, -0.0741837, -0.25851205, -0.048090376, -0.33036432, 0.03025128, 0.112572156, -0.0008054466, -0.29145482, -0.019108048, 0.061431944, 0.026384894, -0.17829467, 0.1908301, -0.2658541, 0.113924704, -0.19708492, -0.2700871, 0.018458579, 0.11049579, 0.04900145, 0.18618225, 0.08716769, 0.17908779, 0.24104607, -0.034015283, -0.050302252, -0.035382, 0.0020679266, 0.47142404, 0.06992121, -0.07912468, 0.26968476, -0.18250501, -0.24944614, 0.08008527, 0.21646558, 0.1859251, -0.2984067, -0.25913838, 0.039461203, 0.17666288, 0.03355875, 0.13317221, 0.12914792, 0.14928055, -0.29763782, 0.03437547, 0.08657138, -0.01772686, 0.124252975, -0.24484144, 0.29098812, -0.27003253, -0.20648098, -0.086447604, -0.030283364, 0.17630202, 0.024374846, -0.301529, 0.05983167, 0.26463792, 0.057695054, -0.18273792, 0.3791238, 0.1968862, -0.1163153, -0.13195254, -0.1570259, 0.18900871, 0.061894875, 0.008591888, 0.035407953, -0.16556759, -0.07182806, 0.11584424, 0.06858681, 0.12866484, 0.012320483, -0.40777203, 0.00023709585, 0.06443517, 0.20185116, 0.12579052, -0.19223098, -0.10725848, 0.18421091, -0.21134825, 0.2110414, -0.13406038, 0.16597721, -0.09233539, -0.13781717, 0.3494267, -0.1443446, 0.13740565, 0.003362017, 0.2046013, 0.048077244, 0.22193643, -0.12422474, 0.006770362, 0.0076632784, 0.1679767, -0.117555134, 0.13953185, -0.112438194, -0.07138406, -0.11794159, 0.15326296, -0.0012945697, 0.15639167, -0.32013744, 0.2566141, 0.18993424, 0.032893386, 0.06741995, -0.00851776, -0.16215087, -0.15280962, 0.13689202, -0.08302385, -0.0254532, -0.089072466, -0.045286752, -0.014751101, -0.35329393, -0.026853185, -0.078582875, -0.17278808, -0.0035742016, -0.030599693, 0.05753726, 0.14909208, -0.12626037, 0.03199365, -0.1439148, -0.115678824, -0.14897025, 0.32912922, -0.18001293, -0.041794818, 0.022750376, -0.29331785, -0.09908655, 0.108954474, -0.30772865, 0.21400806, -0.20158926, 0.24580133, 0.18134698, -0.20326723, -0.27475125, 0.22221617, -0.06473435, -0.0856047, 0.13762802, -0.07908852, -0.2690803, 0.08445236, 0.103916645, -0.0076774987, 0.18782373, -0.014568716, 0.19431643, 0.136629, -0.2205297, -0.27271622, -0.22018091, 0.10652174, 0.019744271, -0.18663879, 0.3170628, -0.26490733, -0.021577619, 0.3336496, 0.08167723, -0.11617659, -0.15062699, 0.33914828, -0.0032316337, 0.2176673, -0.15027449, -0.09519032, 0.16825695, 0.13436349, -0.13774501, -0.0850037, -0.20512734, 0.22799794, -0.24327694, 0.123413764, 0.10567128, 0.17790234, 0.0996178, -0.2715649, 0.009772618, -0.22710599, -0.10131909, 0.07631068, -0.20379691, 0.025527908, -0.13185933, 0.069540955, -0.08230421, 0.18687251, -0.0035641901, 0.20545118, 0.18426481, -0.08550569, -0.19155501, -0.060351457, -0.22699271, 0.34801754, -0.06100776, 0.04014467, -0.006062483, -0.14308769, 0.045042656, -0.2066432, 0.029493049, 0.05886543, -0.012482767, 0.13025406, 0.107197195, 0.13185284, -0.44837472, -0.11994466, -0.20891404, 0.2039674, 0.08757619, 0.060054675, 0.28522947, -0.05578828, 0.18929419, -0.052256905, -0.11358327, 0.00032752843, -0.19385609, 0.10882537, 0.12903129, 0.20220971, 0.37269148, 0.10941673, 0.18986496, 0.039696407, -0.10782347, -0.1168508, 0.16803153, 0.13139303, 0.13127431, -0.09660675, 0.12272707, 0.031868014, 0.09076168, -0.031233871, -0.04812295, 0.41758692, 0.055024173, 0.009863658, -0.0035010779, 0.0319434, -0.19501421, -0.06007723, 0.14465117, 0.3041415, 0.032089975, 0.22356625, 0.21875936, -0.2501047, -0.11270345, -0.204732, 0.23969969, -0.017968418, 0.15794282, 0.28812626, -0.14550045, 0.110090755, -0.11868865, -0.11397791, 0.028613975, -0.07315735, 0.06373558, -0.09110609, 0.019664805, 0.24777596, -0.20971674, 0.3090126, 0.24398597, -0.24619192, 0.1742226, -0.1425684, 0.08297402, -0.39192757, 0.03681869, 0.07036904, 0.094853766, 0.0843684, -0.0070009734, 0.059250955, 0.11517397, 0.050856706, -0.22804055, 0.21363772, 0.19673723, 0.10674905, 0.014001395, -0.40200973, 0.083044186, -0.04787761, 0.123417675, -0.101129025, -0.16302402, 0.30090138, -0.14043859, 0.2957624, -0.020379959, 0.19812647, -0.04802506, 0.034877438, 0.08138783, 0.05762803, -0.18765065, -0.1419477, -0.19235976, 0.059841797, 0.022459032, 0.19520855, -0.20552574, 0.18499857, -0.13754472, 0.28872138, -0.3857198, 0.25731865, 0.022497514, 0.08630155, -0.09383387, 0.08832843, 0.07952953, 0.12369544, -0.20514487, -0.13928519, -0.2177077, 0.14617787, -0.26330993, -0.044837866, -0.005608405, -0.1250051, 0.08755711, 0.058362756, -0.15798324, 0.28984687, -0.20309173, 0.32037434, -0.13583463, -0.075303204, -0.23096566, 0.24188957, -0.030170826, -0.23302428, 0.17475757, -0.1059382, 0.010537889, 0.2185766, -0.014641144, 0.009309219, -0.06877294, -0.058052264, -0.044640064, 0.13829681, -0.06329287, -0.031819206, 0.077209614, 0.10188733, -0.16072388, -0.051458143, -0.08297469, -0.04221438, -0.05190033, 0.26910704, -0.11126132, -0.1876105, 0.028904514, -0.23013327, -0.052165125, 0.024874188, -0.15264668, 0.0032046458, -0.35927662, 0.06741719, 0.062827885, 0.07581779, -0.11804206, 0.23638713, 0.42967483, -0.062345088, 0.3811997, -0.12070115, 0.16379279, -0.18402848, -0.15869315, -0.15284845, 0.29958782, -0.15753712, 0.12248084, -0.016494915, -0.024776727, 0.2143378, 0.36495405, -0.07029055, -0.03059418, -0.0776713, -0.035122592, 0.29678506, -0.009992133, 0.005482832, -0.13125432, -0.18039934, 0.02965162, -0.11506436, 0.24552536, -0.10991842};