float W1_w[]={
0.04937418, -0.07333839, 0.029709067, -0.0048350417, -0.012795021, 0.09703604, -0.03750527, -0.120952874, 0.14365, -0.1175401, -0.014948514, 0.11652315, 0.023365699, 0.06512023, -0.15098643, 0.04077582, -0.040867757, -0.041729603, -0.17318003, -0.018455377, 0.08050867, -0.045558017, -0.045071848, 0.12108855, -0.040501107, 0.116655566, -0.021688271, -0.046591528, -0.10816812, -0.11192999, 0.048647944, -0.18178904, -0.08103471, 0.03869542, 0.16132636, -0.07822278, 0.026282381, 0.05862853, 0.11485306, -0.01521478, 0.00014027084, 0.07384934, -0.08405643, 0.02904492, -0.07639333, -0.12485685, -0.011013435, -0.08244514, 0.13086785, 0.16413204, -0.044290293, -0.034936603, -0.010172444, 0.09309714, 0.080730975, -0.094775416, -0.21315373, -0.06358692, 0.14003764, 0.04634433, 0.06980015, 0.07527365, 0.0982017, -0.013745965, -0.16207291, -0.018486772, -0.082292646, -0.069762304, 0.052169707, -0.025868468, 0.038877483, -0.027668467, -0.08239578, 0.09668716, -0.044063963, -0.060025822, -0.14492995, 0.044156678, -0.07458961, 0.03715979, 0.17377384, 0.13084218, 0.02043794, -0.13539837, -0.044340912, 0.12671524, 0.030670626, -0.09459288, -0.00648906, -0.071437806, -0.008705766, 0.1285357, -0.015585389, 0.020264208, -0.029773762, 0.067472376, 0.0054572793, 0.039217703, -0.11176653, -0.03652694, 0.05645941, -0.030620925, 0.1347834, 0.10186601, 0.03196801, -0.025868239, -0.097989835, -0.1531883, 0.19289555, -0.015841367, 0.017068494, 0.0010246971, -0.006586337, -0.0025987555, -0.110491544, 0.012878263, 0.1308743, -0.099213906, -0.048969932, 0.029424766, -0.1621369, -0.03666395, -0.117537424, -0.0053006466, -0.06728764, 0.044554465, -0.12910943, 0.091564715, 0.09182859, -0.08449737, -0.066179596, 0.13467208, -0.0837231, -0.07747761, 0.028584307, 0.08270317, -0.10217932, -0.12728783, 0.032632537, -0.0905774, 0.024992095, -0.12767777, -0.027318869, 0.0900462, -0.04550756, 0.016170809, -0.1764237, 0.11904946, 0.047837943, 0.026444202, -0.03659403, 0.0020285905, -0.18008336, -0.06882392, -0.19375871, 0.09927427, -0.14309792, -0.10710109, -0.06743489, -0.020812698, -0.008978658, 0.14678918, 0.17713948, 0.06365514, -0.04273274, -0.16092005, 0.0027019407, 0.18850361, 0.06862338, -0.08152689, -0.03193339, 0.014066901, -0.01802022, -0.047215648, -0.05052572, -0.06915218, 0.042776477, 0.032441273, -0.20123136, 0.06540005, -0.09329005, 0.008306018, 0.042051364, -0.10453944, 0.12275331, 0.037513684, 0.06465644, -0.10719218, 0.08361655, 0.11299628, 0.040122163, -0.0076309117, -0.0045143687, 0.19783376, -0.12440198, 0.06118263, 0.08671486, -0.054120507, -0.08667293, 0.033418298, 0.09756673, -0.2580634, 0.02518922, 0.092909046, -0.112445734, -0.19281708, -0.17753483, 0.022594973, 0.029728716, 0.22971089, 0.10433913, -0.14508545, 0.05229097, -0.03852822, 0.017723158, 0.045465108, 0.13761105, -0.0008406448, -0.099825196, -0.117613316, 0.08892419, -0.09358219, 0.15919702, -0.123634055, 0.052761678, 0.106612995, -0.060320407, -0.044121873, -0.05095476, -0.14635232, -0.15645164, -0.029913003, 0.14112344, -0.309224, -0.12074835, -0.03621308, 0.06288855, 0.0019250402, -0.047661502, 0.11445267, -0.09708452, 0.087920986, -0.04995254, -0.14962879, 0.054763246, -0.106724486, -0.12959954, -0.0763794, 0.13610743, 0.15022145, 0.16076331, 0.1470596, 0.058591973, 0.12768818, 0.026260857, -0.16476113, 0.13642971, 0.11722386, -0.21796422, 0.15270862, -0.07666961, 0.015803419, -0.1926188, 0.004518175, -0.0048839855, -0.22324814, -0.09748381, -0.14588995, 0.10040897, -0.08991188, -0.18704127, -0.009790577, -0.09346202, 0.10140772, 0.075638354, 0.15617575, 0.09966131, 0.09083571, -0.09159846, 0.051204253, -0.10815737, -0.12506203, -0.12145239, -0.0008804, 0.021675248, 0.11938825, -0.17482646, -0.029065613, 0.006904536, 0.109665185, -0.04962962, -0.042309377, -0.05193985, 0.16230574, -0.16603822, -0.05117865, -0.16500674, -0.15173407, 0.09677305, 0.07493534, 0.042783152, 0.051539447, -0.17309004, 0.14423059, -0.033159234, 0.021193998, -0.07455805, 0.018878074, 0.052758973, -0.09229686, -0.020108413, -0.109169275, -0.04609663, 0.04396837, -0.028060548, 0.090511076, -0.0044450015, -0.17250505, -0.09361657, -0.08516089, -0.10602285, 0.053229343, -0.07614892, 0.13792631, 0.06953483, -0.09963084, -0.053656686, -0.055089712, -0.17463605, -0.16728695, -0.01743546, 0.1685696, -0.023951674, 0.094212525, 0.068134174, 0.006447482, 0.1148597, -0.11811789, -0.035757598, -0.1283573, -0.11725455, -0.03610272, 0.18378392, 0.014467129, 0.028277887, 0.07048329, 0.056127, 0.023407092, -0.10148284, 0.028666731, 0.04923387, -0.01208399, 0.03692249, 0.010901103, -0.11867614, 0.0036442126, -0.12050494, -0.023578241, 0.040600043, 0.153156, 0.051492695, -0.04235256, -0.12438086, -0.0059193294, -0.03383911, 0.1841919, -0.031081852, 0.17927451, -0.18684112, -0.07524262, -0.059559956, -0.09933277, 0.10751776, -0.09656827, -0.001489547, 0.12510318, -0.03744606, 0.011405308, 0.15885065, -0.04303111, -0.12779391, -0.03193892, -0.018903606, -0.069665186, 0.042344566, -0.13355912, 0.001001789, -0.012487915, 0.044754326, -0.07606779, 0.068016104, -0.0030491096, 0.06428338, -0.059706274, -0.09310485, -0.1023869, 0.08245588, -0.10717989, -0.044971533, 0.0568834, 0.04086008, -0.16306253, -0.049796853, 0.0105043575, 0.03357719, -0.11690743, -0.021852015, 0.070429645, 0.018398575, -0.077285856, -0.16477066, 0.10904165, -0.03577203, 0.099048354, 0.019580252, 0.040141296, 0.046521507, 0.040259704, -0.16919453, 0.03526973, -0.010926375, -0.13233592, -0.14518726, 0.0485885, 0.10806062, 0.06120017, -0.070652515, 0.028779035, 0.034012344, -0.07059153, -0.015759582, -0.16520612, -0.052659206, 0.055232998, -0.14494121, 0.026868563, -0.03676058, -0.057354733, 0.056716643, -0.14376712, 0.0708138, -0.044588894, -0.05023795, -0.08755103, -0.013519174, 0.0261355, -0.07108719, -0.011136724, 0.0017624239, 0.1308413, -0.0041549173, 0.116860256, 0.012067904, -0.014496894, -0.20496947, 0.0033330263, 0.01699976, 0.13126749, 0.008927747, 0.041589305, 0.026885191, -0.0052548884, 0.052866355, -0.01450605, 0.0008653004, -0.035382543, -0.051933765, 0.00412557, 0.05466128, 0.08744895, -0.08959692, -0.14952426, -0.07809091, 0.053361062, -0.0766778, 0.10924462, 0.093084686, -0.0026763084, -0.21972209, -0.016593367, 0.09862163, -0.049793027, 0.0015799527, 0.019854797, -0.1419589, 0.005492928, 0.055824358, 0.07143445, 0.17633355, 0.0005457092, 0.13189921, -0.0403774, -0.18228717, 0.06518391, -0.0028696228, 0.08974363, -0.14934671, -0.17766513, 0.17211029, -0.12763324, 0.053692315, 0.14532505, 0.076280355, -0.004287462, 6.98509e-06, -0.112639286, 0.007460681, -0.004782338, -0.033070438, 0.09851886, -0.075008176, -0.08295942, -0.080004245, -0.1129462, -0.23690379, 0.1059644, 0.026106717, 0.049567856, 0.14908516, 0.031806, -0.04303989, 0.04822458, -0.0571522, 0.010754195, 0.015812261, 0.06292149, 0.023799093, -0.11926172, -0.054828454, -0.20453645, 0.06516378, -0.08456018, 0.04372203, 0.1640392, -0.19154464, 0.009316951, -0.003978482, -0.1039705, 0.18932737, -0.12904954, -0.05032364, -0.031273484, -0.039593775, -0.041450355, 0.013888227, -0.025964256, 0.035340745, 0.0064218757, -0.028056009, -0.05388607, 0.15472265, 0.07446995, -0.06274054, 0.19069444, -0.06710755, 0.15832463, 0.12359671, 0.006438566, 0.040960982, -0.11211318, 0.04562495, -0.04554697, 0.111643516, 0.07530291, 0.1228076, -0.047971487, -0.028866772, -0.0877815, 0.11430694, 0.1505985, -0.082588576, 0.009204422, 0.055744376, 0.16383542, 0.044146806, 0.04339995, -0.016918527, -0.22868715, -0.021313827, 0.1162682, -0.053472474, -0.19070688, -0.0064059976, -0.19890493, 0.106410794, 0.06545174, 0.16253437, 0.0074144136, -0.019735944, -0.052716058, -0.066470906, -0.012128888, -0.09962118, -0.107275106, 0.120537326, 0.11721927, 0.15982352, -0.020183934, -0.04058767, -0.07125322, 0.11673837, 0.14733818, -0.055529885, 0.15038936, -0.029092314, -0.02677553, -0.040375274, 0.10412189, -0.019470844, -0.12371714, 0.16948245, 0.034322493, 0.020104062, 0.11940747, -0.10455662, 0.013079949, 0.02853892, 0.059945952, 0.09435883, -0.15790212, -0.05989928, 0.08654332, 0.050909773, -0.091983415, 0.094555415, -0.193247, 0.058224376, -0.10438513, 0.0103300065, -0.1556173, -0.08982426, 0.051302075, -0.022117013, 0.024604047, 0.03410578, -0.007435649, 0.14631622, -0.13324556, 0.018360296, -0.04206706, 0.114062704, 0.00662143, -0.17827328, -0.047000792, -0.16261959, 0.10290144, -0.08774675, -0.13705368, 0.077497065, 0.029702479, -0.03978031, -0.034249164, -0.011287598, -0.040290814, 0.15349741, 0.07097523, -0.068858296, -0.18226068, 0.077022806, -0.101505056, -0.081667855, -0.009843391, -0.02989548, 0.14370866, -0.052798472, 0.04348089, 0.02262996, -0.012386396, 0.025589354, -0.07117355, -0.1598698, -0.08687287, 0.08691894, -0.02564608, 0.008789336, -0.02926086, -0.1294316, 0.018009046, -0.0023666434, -0.14241105, 0.031769074, 0.09206925, -0.018483147, -0.024521539, 0.050428204, 0.028882504, 0.052538186, -0.16017936, -0.15226285, 0.008779521, 0.062182657, -0.022687415, -0.11271788, 0.11607497, -0.19825968, -0.07076596, -0.038984064, -0.025161633, -0.101608396, -0.0064002257, -0.19100924, -0.038192585, -0.084961124, 0.055553533, 0.13798916, -0.025486013, -0.08713808, -0.064522274, -0.008061071, -0.0005733227, 0.1837566, 0.16671528, -0.04074242, 0.024089238, -0.017794998, 0.06839381, -0.06534949, 0.22426724, 0.0023551532, 0.13394278, 0.07460969, -0.15830512, -0.05030538, 0.08481927, -0.17279445, 0.10991436, -0.07760612, -0.10290303, 0.09626189, -0.0075361533, 0.09488172, -0.155076, 0.037364237, 0.103333235, 0.011949309, 0.009515051, 0.024626698, 0.16517672, -0.010889347, 0.1270499, 0.09372468, -0.17291108, 0.15444489, -0.026507908, -0.18166058, 0.041996345, -0.08437528, -0.040470745, -0.032989893, 0.06087083, 0.114591, -0.06932098, 0.14909165, -0.0660022, -0.071116, -0.02510446, 0.07785398, -0.020598726, 0.041057047, 0.08472724, -0.0049142516, 0.1183417, 0.0024401045, 0.0029543175, 0.08688851, 0.016762089, 0.047108535, 0.17879365, 0.066844404, -0.057565153, 0.041869685, -0.06498833, 0.09072447, -0.057705555, 0.05621202, 0.10481722, -0.012195812, 0.016542915, -0.013315004, 0.010021308, -0.034477923, -0.008889504, 0.10285107, -0.0050284956, -0.052629966, 0.12612171, 0.18635449, 0.0060524195, -0.084666565, 0.06007877, 0.07590186, 0.051078405, -0.0047578, -0.071898304, 0.08616069, 0.13085875, 0.032894943, -0.037028346, -0.07341562, -0.1730125};