float W1_w[]={
0.1294025, 0.033450786, -0.09481304, 0.107710905, -0.0057548922, -0.14753109, -0.052258205, 0.08434814, 0.07278422, 0.2132888, 0.16880886, -0.07620543, -0.14179602, 0.053138033, -0.019358283, 0.03156857, -0.12523165, 0.06460259, 0.10603249, -0.05158682, -0.16221716, -0.046576925, 0.018698152, 0.17233486, -0.10189335, 0.12830389, -0.09712785, 0.03897066, 0.02977624, 0.10052224, -0.06723078, -0.0036087756, 0.016765049, -0.09704192, -0.14762424, 0.058904637, -0.135357, -0.018383851, -0.03798839, 0.06035464, 0.07698809, -0.08022056, 0.066405155, -0.07438669, -0.010108389, -0.118336216, 0.06132276, -0.011747689, -0.15198076, -0.030290622, 0.04467868, -0.12699634, -0.24850453, 0.026358811, -0.0056692604, 0.0043793363, 0.059959263, -0.06374898, -0.15709944, 0.057614204, 0.0027086984, -0.038253512, 0.07398206, -0.008770378, -0.06804615, -0.1131821, 0.037267804, 0.09779443, -0.061818335, 0.004300331, 0.12322915, 0.17864238, 0.06293236, -0.21551126, -0.13572599, -0.16431811, 0.02704432, -0.05191023, 0.08722071, 0.21366034, 0.039330207, 0.09708064, -0.11964187, -0.085075215, -0.12082409, 0.02993707, 0.091704264, 0.14410882, 0.08056676, 0.05402472, 0.15026037, 0.052536942, -0.0015198468, 0.12458728, -0.08889946, -0.097363, 0.17025837, -0.048634157, 0.11372185, 0.15528035, 0.06886321, -0.03653829, 0.17180197, 0.06520925, -0.08191903, -0.017598078, 0.056133904, 0.056068838, 0.04608602, -0.110236675, 0.14457719, 0.041803956, -0.15562184, 0.1088488, 0.102835156, -0.0876266, -0.058010258, 0.0077858106, 0.2287723, 0.07185273, 0.09146872, 0.039211772, 0.014575049, -0.0061834077, -0.16353996, -0.004105876, 0.07698475, -0.1403102, 0.075580075, -0.08596861, 0.03875234, 0.0484254, 0.12730464, -0.09527531, 0.039960902, -0.046855394, -0.037731458, 0.025732866, 0.17489398, -0.19475712, 0.058201022, -0.2243736, -0.027322736, 0.020404575, 0.021529373, 0.0062692715, 0.0220211, -0.11531393, -0.008244145, 0.022688398, 0.1262646, -0.011141738, -0.16897961, -0.13707845, -0.060554083, 0.13962877, -0.076606035, 0.0019084405, 0.038109727, 0.05722874, 0.055560578, 0.059322715, 0.005874031, -0.011310042, -0.03829412, 0.09417075, -0.096263275, -0.10682717, 0.0012043602, -0.013116734, 0.000895167, -0.07549535, -0.119737364, -0.004085708, -0.074863255, -0.013541695, 0.10833678, -0.18543625, -0.026599387, -0.0684557, 0.043322142, 0.011704355, 0.17195606, 0.036926813, -0.039777566, -0.15323468, -0.06225032, -0.0935769, 0.12830424, 0.0685564, -0.054924674, -0.035932057, 0.0675087, -0.035189554, 0.087826826, -0.061187398, 0.21140203, -0.06022456, 0.060623255, -0.020457394, 0.016654834, 0.04171499, -0.0071794023, -0.07822182, -0.03603742, 0.017342186, 0.005058487, 0.08117547, 0.10600386, 0.08040038, -0.17709109, 0.04363224, -0.16856408, 0.1366664, 0.055873487, 0.08475545, 0.09544967, 0.06854275, 0.054187063, 0.10604061, 0.045943953, -0.101454705, 0.04891841, -0.080983914, 0.06788744, -0.13089143, -0.14555806, -0.09277927, -0.057340316, 0.15160063, 0.18892841, -0.019094268, 0.13968599, -0.15214634, 0.14646426, -0.08989194, -0.10375108, -0.18712927, -0.10633819, 0.12022308, 0.1798814, -0.09795542, 0.03723297, -0.06098402, -0.113959864, 0.04871866, -0.07471513, 0.062503345, 0.04086847, -0.03638329, -0.047399532, 0.004184981, -0.06951493, -0.086879365, 0.188118, 0.02212717, 0.09298475, -0.16530876, -0.17962374, -0.032124355, 0.23150828, -0.111974366, -0.11842519, 0.057262037, -0.12603916, -0.08126677, 0.044308744, -0.067312226, -0.022588778, -0.08682816, 0.0074900747, 0.03385473, -0.020825412, -0.028065162, -0.08204159, 0.084789135, 0.0073427367, -0.048377834, -0.09630176, 0.122452036, -0.11192007, -0.00987405, 0.016922716, 0.08175573, -0.16262539, -0.1522125, 0.030058123, -0.050002642, -0.020021867, 0.071161054, -0.018469067, -0.054594047, 0.22137578, -0.00824581, -0.041079856, 0.019388814, 0.017903427, 0.17537646, 0.116374195, 0.08720711, -0.046046432, 0.06645805, -0.004634721, -0.03538194, 0.055168238, -0.09551081, -0.017037708, 0.13655317, -0.063991666, 0.017742343, -0.07378482, 0.17347711, 0.102135405, -0.09743531, 0.08599527, -0.024357487, -0.060229186, -0.14867358, -0.05962383, 0.04457998, 0.008142428, 0.06443672, -0.057883713, -0.05544501, -0.13742499, 0.08758924, 0.07876897, -0.19103564, 0.07598134, -0.09917975, -0.03758192, 0.09049369, 0.0050106123, -0.21930116, 0.13193274, 0.04529211, 0.11717476, 0.16836964, -0.14237718, 0.10368156, -0.009427808, -0.057864442, 0.05078741, 0.021511542, -0.0072165495, -0.026213942, -0.12048384, -0.056547664, -0.16463126, 0.0441151, 0.17038424, 0.20051152, 0.055556703, 0.13041207, -0.00041121474, 0.026412185, 0.14875785, -0.014879759, 0.1749297, 0.20562768, 0.19264734, -0.1847948, 0.09156247, -0.03469047, 0.1181655, -0.13609925, 0.054996446, -0.11093525, -0.16277966, 0.09360911, -0.08534787, 0.020142423, 0.2279262, -0.013793387, 0.005268669, -0.027270239, -0.14154068, 0.065366134, -0.16750012, 0.12204476, -0.011999697, -0.09332184, -0.014091914, 0.13901171, -0.001970046, 0.013005841, -0.06375288, 0.03270713, -0.084987454, 0.040001202, -0.080197565, 0.019815274, 0.055424973, -0.17582493, 0.004232536, 0.10710012, 0.067420244, -0.020677347, -0.045852225, -0.1310978, 0.13586688, 0.05099815, -0.019039022, 0.043109223, 0.058321387, 0.2051087, -0.083960705, -0.0039811875, 0.019592479, -0.032846898, 0.08248354, 0.09892748, -0.045269165, 0.14434065, 0.15820672, -0.065363854, 0.06800176, -0.10484977, 0.11045372, -0.07078434, -0.09088094, 0.060855083, -0.04879598, 0.04728289, -0.11684823, 0.030447513, 0.09343675, 0.02526097, 0.0021135556, 0.023182895, 0.1610542, -0.14986558, 0.05054765, 0.029757284, 0.040932752, 0.11552109, 0.028538994, -0.08517356, 0.08881716, 0.120078705, -0.16002963, -0.17115505, 0.18421869, 0.15039697, -0.007901118, 0.049580388, -0.051483303, 0.06568783, -0.05513077, -0.14083344, -0.11896891, -0.0389038, -0.09197711, -0.016954346, 0.06019918, -0.22230928, -0.07322769, 0.045616522, 0.08552938, -0.06566587, 0.03087635, 0.04718637, -0.13512996, -0.029561453, 0.04429772, 0.180313, -0.09288595, -0.07233364, 0.04581732, 0.05285897, -0.09899457, 0.0980244, 0.053110093, -0.025395075, -0.04049731, -0.07073932, -0.043271422, 0.08515674, -0.041063856, -0.13980013, -0.0022778448, -0.04544002, 0.056155723, 0.018758042, -0.08770095, 0.1946718, -0.06518666, -0.003607418, 0.008719416, -0.078493044, -0.17012608, 0.13731602, -0.061700042, -0.1343962, 0.037170757, -0.19551618, -0.14045995, 0.019622039, 0.0010576113, 0.1702306, 0.08460951, 0.09823731, 0.16497608, -0.08001063, 0.012919317, -0.0725087, 0.11535863, -0.12733099, -0.06959048, 0.061638057, -0.0039586215, 0.15077451, 0.046951033, 0.16499694, 0.06382733, -0.025673041, 0.0048558656, 0.04008501, 0.028793542, 0.038633417, 0.1446592, -0.07278302, -0.13671589, -0.11453581, 0.055428077, 0.059971437, 0.14535202, -0.17685126, -0.06642997, 0.026271623, 0.048489965, 0.062532626, 0.049851865, 0.008835588, 0.028431442, -0.10152433, -0.00011211581, 0.12115916, 0.13171482, -0.045068488, 0.093918666, 0.14065908, 0.04364842, -0.06362048, -0.13063233, -0.020176193, 0.057508387, 0.092976145, 0.042851556, -0.03556244, 0.09195747, 0.048713867, 0.07879862, -0.14490165, 0.15837258, 0.22880378, 0.10086908, 0.070454, 0.015718644, -0.19801521, -0.18682455, 0.02824887, -0.112405695, 0.11055037, 0.05025661, -0.09551281, 0.007621247, -0.08088448, -0.12877072, -0.1345395, -0.013683257, -0.0281231, 0.044464156, -0.017651565, 0.023569867, 0.1472338, 0.0013633695, -0.051769327, -0.04446568, -0.09181633, 0.004757956, 0.05639254, -0.04434957, -0.13813482, -0.076458834, 0.07810506, 0.13569635, 0.07250624, -0.113413475, 0.04992157, 0.07604518, -0.12432753, -0.055803355, -0.057838347, 0.04878628, 0.14040455, 0.1085258, -0.06801885, -0.08058704, -0.17204736, -0.113261856, -0.11804471, 0.11855324, -0.019643746, -0.01257554, 0.050695274, -0.08933396, -0.118232325, 0.029073056, -0.09794091, 0.029551197, 0.076954626, -0.039496608, -0.049555086, -0.14318308, -0.24200702, -0.15578891, 0.14262493, -0.074185885, 0.04490052, 0.036899533, 0.04952809, -0.14940655, -0.03009074, -0.1260647, -0.12275184, 0.043777846, 0.07308244, 0.001387805, -0.029793195, -0.012998896, 0.09183994, 0.036731828, -0.05724487, -0.068021975, 0.04294823, 0.064215004, -0.062335484, 0.026996804, -0.06252406, 0.017547844, -0.120597, 0.17635848, 0.13306662, -0.0023198517, -0.061783254, 0.024206646, 0.06290467, -0.02805917, -0.054169476, -0.053907152, 0.060558114, 0.11793038, -0.08890531, 0.06792314, 0.039093684, 0.012701922, -0.09548905, -0.041728985, 0.16921932, 0.08976741, 0.10430993, -0.16131516, -0.018364515, 0.21397871, 0.12319106, 0.0065064006, 0.12668066, -0.034746017, 0.10206948, -0.023250885, 0.063742705, -0.11603355, 0.036030706, -0.0008982892, -0.15462151, -0.046633456, -0.15556808, 0.09420968, 0.07748308, 0.19457991, -0.08346025, -0.13226733, -0.0002033891, -0.0803957, 0.18370794, -0.0034944427, 0.0035431453, -0.07069635, -0.07419902, -0.089852266, 0.06902308, 0.10965799, 0.16943495, 0.054699995, -0.20684384, -0.028697096, 0.04382956, 0.014742704, -0.0132706845, 0.01146005, 0.020987302, -0.15284413, 0.15160821, 0.009918732, 0.05817601, 0.110098265, 0.04304437, 0.054846257, -0.08673816, -0.0057954616, 0.08366562, 0.13020338, -0.14678495, 0.18682629, 0.15446495, 0.0637364, 0.15951884, -0.0119293565, 0.11511006, 0.041587804, 0.032715682, -0.08193922, 0.044899445, 0.039229874, -0.043972395, -0.12406178, -0.1709665, -0.036827188, -0.09479514, 0.11333419, -0.088793986, 0.06809925, 0.062474683, -0.13590531, 0.009633311, 0.007890241, -0.03682006, -0.03315051, 0.0446352, -0.06196681, -0.004093795, 0.061598316, -0.18796344, 0.06233062, 0.12795681, -0.16554147, 0.110851005, 0.04404942, -0.12236383, -0.14692579, 0.16464975, 0.06258336, 0.08531285, -0.15342045, 0.07801791, -0.07190455, 0.10924829, 0.04404312, -0.137175, 0.05396917, 0.028239649, 0.051194947, -0.07998865, 0.20279914, -0.18723477, -0.038432702, 0.19014207, -0.025800565, 0.0992505, 0.05548608, -0.041962713, -0.10610664, 0.08465728, -0.07126864, 0.075217575, -0.12179256, -0.025699792, -0.20074998, 0.20362839, 0.0052181124, -0.03795754, -0.10050946, -0.0052666566, -0.060292527, -0.08208494, 0.16185117, -0.13120222, -0.047460534, 0.05926765, 0.00066278514, -0.10273399, -0.17088458, -0.019247012, -0.015355503, -0.06057798, 0.1896385, -0.0543821, -0.026352424, -0.08756395};