float W2_w[]={
0.0078122136, -0.027809301, -0.16340496, -0.028314253, -0.08834068, -0.14192307, -0.06935509, -0.112942785, -0.08570448, -0.012729198, 0.030524598, -0.017936124, 0.09928675, -0.098912634, -0.054695662, -0.088070296, -0.09133375, 0.063645855, -0.040681288, -0.056014918, -0.03319004, 0.10376711, 0.14059037, -0.19361326, 0.13779332, -0.021809785, 0.017420901, 0.02981651, -0.15421331, 0.06771496, -0.15921146, -0.028191572, -0.11297033, -0.0028010914, 0.07785907, -0.04149983, 0.042748265, 0.088020064, 0.056229252, 0.14403759, 0.15071611, 0.11365216, -0.01852473, 0.060846806, -0.054726314, -0.06357797, -0.05474357, 0.08862183, 0.007855581, -0.03191202, -0.16887678, -0.050553817, 0.00617652, 0.04680102, -0.09622885, -0.06778088, -0.09614739, -0.06775199, 0.07758489, 0.026778985, -0.11651083, -0.09286009, 0.024673108, 0.021946551, -0.027963007, -0.020383002, -0.050512526, 0.037119024, -0.1301147, -0.019983793, -0.059440196, 0.010241, -0.09804423, -0.1404547, -0.07192983, -0.16121554, -0.036830585, -0.0049799928, 0.0097868135, -0.00031461255, 0.026264004, 0.15095584, 0.06222324, -0.117669486, -0.033784553, -0.04054984, 0.10906247, -0.09864571, -0.114242814, -0.04428696, -0.027647069, 0.03317285, -0.018245373, 0.07143193, -0.039518245, -0.103861965, 0.09048423, 0.009556865, 0.070955716, 0.11085615, 0.1284171, 0.17286383, 0.007118942, 0.08142071, -0.112669714, -0.14475371, -0.041411374, -0.06260771, 0.10992751, 0.08055016, 0.06964769, -0.16712119, -0.07818217, -0.058402907, -0.034272403, -0.16963392, 0.093446165, -0.05267691, -0.04736606, -0.016096465, 0.14261234, -0.13114156, 0.0033119617, -0.098752625, 0.044567537, -0.050507024, 0.026245447, 0.025598124, 0.08420637, -0.07065601, -0.07337174, 0.10360716, -0.096002355, -0.1746582, 0.15293154, -0.053659145, 0.07822135, -0.08764237, 0.118892685, 0.14496507, -0.09961427, 0.0013911526, 0.012431824, 0.1711102, 0.073839836, 0.054703366, 0.023642376, 0.09478651, 0.13349132, 0.16181499, -0.039245676, -0.05140715, 0.09486116, -0.090488, 0.062073704, 0.18513012, -0.104123645, 0.040947143, 0.048657306, -0.003183268, 0.10608982, 0.0314638, 0.14301607, -0.11653859, 0.009100838, 0.13820443, 0.055994313, 0.15308405, -0.05542187, 0.08538428, 0.07026423, -0.03052936, -0.028645914, -0.042408507, -0.14519927, 0.020262688, 0.12271081, 0.05801816, -0.063800424, -0.038764864, -0.1929971, -0.04083325, 0.025222618, 0.0925832, -0.07586795, 0.14428064, -0.12080474, 0.107299395, 0.082310095, -0.039147645, -0.10478379, 0.01905729, -0.070828184, -0.07668089, 0.007412826, 0.06997581, 0.0040963134, 0.106903955, 0.017569488, -0.049519274, 0.059452616, 0.18495062, -0.04912345, 0.105387114, -0.102804765, 0.041617926, -0.19149134, -0.010660597, -0.03515759, -0.15250693, -0.08340616, 0.108617924, 0.16752246, 0.097408496, -0.04710474, -0.12356616, 0.014031177, 0.0001084059, 0.047701847, -0.035186455, -0.05438961, 0.08188032, -0.05733851, -0.09585241, 0.07322066, -0.013454007, -0.032004356, 0.14097035, 0.12441474, 0.0052824053, 0.06625477, -0.130755, 0.0822845, -0.105708, -0.0389069, 0.04721107, 0.09407768, 0.11368559, 0.13486513, -0.018565154, -0.046781372, -0.14746413, -0.15907429, -0.012951162, -0.14166525, 0.11264955, 0.06302214, 0.07273471, 0.07417054, -0.049291853, -0.007940803, 0.107778996, 0.11737868, -0.15216398, -0.007426418, -0.0266444, -0.07841817, 0.10569593, -0.051753797, 0.008188563, -0.10381447, -0.086329676, -0.12351933, 0.06398202, -0.0045983237, 0.04218018, 0.053804595, 0.014558475, 0.027938506, 0.099389724, 0.030154558, 0.10575449, 0.026543265, -0.14143309, 0.0738946, -0.073055975, -0.16781503, -0.049463216, 0.024100486, -0.018008728, 0.15722527, -0.036584243, 0.048753906, -0.00840779, -0.047241747, 0.06769165, 0.1847987, -0.113510795, -0.1708828, 0.056398477, 0.005995063, -0.0101315025, -0.011093261, 0.047108218, 0.061248112, -0.060343627, 0.038688384, 0.15571076, -0.06374049, 0.04654137, -0.033592578, 0.056985725, -0.10561818, -0.0046243286, 0.056406558, -0.023304448, 0.089280345, -0.046271533, 0.064357854, -0.08178589, 0.10758912, -0.08183491, -0.027928324, -0.17910334, 0.038379636, 0.050816037, 0.041501917, -0.00061723724, 0.1580796, -0.06277666, -0.09300404, 0.070862316, -0.029750193, 0.029703824, -0.07495002, -0.15097354, -0.09029332, 0.04021639, -0.13426575, -0.023935271, 0.019943118, 0.06586888, -0.0350077, -0.08962245, 0.06863932, 0.07291163, 0.021089738, 0.032693576, 0.012208086, -0.11143538, 0.05637468, 0.1771413, 0.03226082, -0.07058572, 0.06339764, 0.09618698, 0.18119745, -0.16832533, -0.027719634, -0.03931888, -0.08622116, -0.014114816, 0.06622462, 0.049912687, -0.13492404, 0.011686853, -0.04127356, 0.028737862, 0.13995035, 0.0397526, -0.06589728, 0.03858042, -0.009418387, 0.023544129, -0.090514064, -0.027508754, 0.020927144, -0.025197761, 0.18892589, 0.103912205, 0.04852782, -0.046041373, 0.036737617, 0.16249974, -0.13326798, -0.16977628, -0.15059516, 0.036103986, -0.14609505, 0.15739089, -0.010211058, -0.014512165, -0.1028453, 0.073753536, 0.06333906, 0.093440525, -0.1321491, -0.03698311, 0.16329679, -0.116395585, 0.008841878, -0.14534746, -0.032026835, 0.012261956, -0.019302037, 0.16690691, 0.14060651, 0.01479359, 0.10655895, -0.082466625, -0.1612802, 0.0057813814, -0.11809434, 0.031474028, -0.13799275, 0.109176055, -0.043320112, -0.0064950623, 0.009694826, -0.14793848, -0.030779269, 0.079501234, -0.017220538, -0.054364648, -0.08397207, 0.076759696, 0.11525429, 0.09232702, 0.11414551, 0.09977369, 0.19647734, 0.055424195, 0.17825748, -0.09838884, -0.14116055, 0.009915041, 0.065538675, -0.05383392, -0.0977404, -0.16835365, -0.015228856, 0.049438562, -0.19276233, -0.13388073, -0.08310744, -0.10547095, 0.15256259, 0.060913242, 0.09191799, 0.15768656, -0.014506211, -0.074940436, -0.049092323, -0.14024656, -0.13713226, 0.03235232, 0.09989102, 0.011808957, 0.056701645, -0.056948252, 0.1385898, 0.036113728, 0.009602589, -0.12643717, 0.056088503, 0.07556228, 0.12872387, -0.010415929, -0.080962494, -0.09836073, 0.02992917, -0.047014505, 0.0048816926, 0.11889847, 0.044196587, -0.0025811822, 0.109800056, 0.09637076, -0.106685266, 0.09987466, 0.06302059, -0.114240825, 0.0024501856, -0.03428192, -0.09119255, 0.055508427, 0.09142134, 0.07470283, 0.14639157, -0.029407216, 0.05035928, -0.019162875, 0.050460625, 0.006979887, -0.05828404, 0.062071044, -0.04267071, -0.15105255, 0.06845793, -0.025023159, -0.11840754, 0.040597986, -0.054918427, 0.031784985, 0.11567137, -0.0504021, 0.120050706, -0.0698401, 0.019482523, 0.017809095, -0.07600731, 0.069963366, -0.03283105, 0.024435058, 0.037400533, -0.10629074, -0.09074783, -0.07149266, 0.012876807, 0.14763574, -0.034115396, -0.0565659, 0.00830203, 0.048126202, -0.031209035, -0.022642337, -0.14344846, -0.05436052, 0.008656194, -0.06089915, -0.08282639, -0.057332415, 0.13391657, -0.108775266, -4.3771497e-06, 0.03544038, -0.00595258, -0.04230398, -0.003346796, 0.03650907, -0.11239473, 0.04753453, 0.08003153, 0.0578318, -0.04592804, 0.19719478, -0.1379512, 0.15499054, -0.045149073, -0.07188076, -0.062882684, 0.12250068, 0.019299196, -0.16177446, 0.09437038, 0.06788486, 0.14184272, -0.123935446, 0.13291675, -0.036804456, -0.05142232, -0.08056433, -0.19448623, 0.021524582, 0.018111698, -0.10095856, -0.062065434, 0.061972413, 0.010706557, 0.05815496, -0.043833457, -0.045591734, -0.03448835, -0.1050079, 0.12295597, 0.16316035, -0.044560086, -0.10099267, 0.033274204, 0.012590073, 0.12330991, 0.079569586, -0.1226591, -0.004653253, -0.10217516, -0.042374074, 0.058632784, 0.08716203, -0.031671025, 0.011095211, 0.08897051, 0.0010530354, -0.0860084, 0.021033846, -0.1476438, 0.15344709, -0.16292885, 0.0073407707, -0.051971707, -0.009241705, 0.011431429, -0.17776397, -0.13607593, -0.08162867, 0.027182871, -0.11511635, -0.1716333, -0.110195756, -0.023134002, 0.07421168, 0.13742493, 0.10463869, -0.012593403, -0.0527039, -0.030487865, 0.124807686, -0.042408504, -0.07006338, 0.09393986, 0.09579906, 0.061911874, -0.06808989, 0.027335936, 0.06943714, 0.032742523, -0.14002861, 0.08208675, 0.1795221, 0.04089643, 0.151291, -0.15204576, -0.013377765, -0.16291694, -0.16358106, -0.033702213, -0.07173043, 0.1014081, 0.0032035129, 0.010340589, 0.04685267, -0.12540975, -0.033882603, -0.098043524, -0.0019686117, -0.08319864, -0.037971083, 0.019418286, 0.16415104, 0.057769455, -0.051637378, 0.016642012, -0.06398731, -0.050120533, 0.09630986, -0.039194196, 0.19194433, 0.03931072, -0.10431302, -0.12901065, -0.16238515, 0.19813892, -0.13790144, -0.13539998, 0.09544574, -0.079112865, 0.036025655, -0.08383582, 0.062021546, -0.071572036, 0.019128354, -0.079666704, -0.056961067, -0.034651596, 0.09448051, 0.057420764, -0.029025337, -0.10936913, -0.07093235, -0.1147894, -0.091036975, 0.16379905, -0.116196215, 0.034566518, -0.028323209, 0.023453569, -0.18453851, 0.13815607, 0.13439189, -0.127888, -0.078457884, 0.041957043, -0.18662433, 0.11707868, 0.11452843, 0.16354752, -0.1049679, -0.123509325, -0.0042202305, -0.03547835, -0.12771218, -0.13910145, -0.11583618, 0.053763963, -0.019971509, 0.028729219, -0.026568439, 0.0130614005, -0.0059687784, 0.03252974, 0.015953843, 0.074770525, -0.033039644, -0.022228455, -0.13550967, -0.11716644, -0.10122714, -0.17686339, 0.0072799753, -0.0020867377, 0.12967749, 0.14075695, 0.11347302, 0.042651024, -0.012534227, 0.096027195, 0.04116785, 0.17212124, -0.13004988, 0.086278215, 0.17103553, 0.053798433, -0.0010119001, 0.067850806, 0.13974486, 0.031326696, -0.070453174, 0.087001674, 0.15027869, -0.16323097, -0.053766478, -0.1508024, -0.00982862, -0.050476246, -0.030696161, 0.0862849, 0.040314432, 0.065618806, 0.09042159, -0.12894231, -0.009657509, -0.08713982, 0.065976776, 0.0701722, 0.17080683, 0.025538076, -0.15912844, 0.061918803, 0.11049429, 0.042784, 0.0922293, 0.10699871, 0.06619608, 0.088914424, 0.16822042, 0.10828305, -0.0073354, -0.016134372, -0.050769273, 0.089525394, -0.08897162, -0.058594346, 0.04137595, -0.0076877363, 0.14863813, -0.038838293, -0.030345095, -0.020460442, -0.1170031, 0.08368109, 0.04662823, 0.09365386, 0.08332571, 0.1019905, 0.047655128, 0.064644456, 0.053173278, -0.027823169, -0.071812235, 0.106396616, 0.08531304, -0.067392744, 0.08092773, -0.019144433, 0.01078643, -0.17071445, 0.07848835, 0.028354516, -0.16814972, 0.08645542, -0.04130545, 0.029596586, -0.11103951, -0.17687935, -0.028896967, -0.04307103, -0.16706508, -0.101836786, 0.020417754, 0.041898374, 0.014352287, -0.06515012, -0.08779834, 0.035600215, 0.06455649, -0.031404946, 0.068568215, -0.010171476, 0.16528623, 0.0005532056, 0.0005552825, 0.020510636, -0.117175184, -0.00047187353, 0.03253705, 0.060303025, 0.12012127, 0.045705725, 0.10570552, -0.039283928, 0.016306138, 0.045983914, 0.026393007, -0.081821255, 0.044611808, -0.15491372, 0.00072523224, -0.09437136, -0.029584404, -0.04409652, 0.1591531, 0.031183576, 0.09828853, -0.0020156167, -0.04557755, -0.17748198, 0.09336106, -0.0037052876, -0.07164028, -0.09526923, -0.069883175, -0.022092257, -0.013606008, 0.007940071, 0.0691566, 0.00087377767, -0.019275362, -0.028556284, -0.03323001, 0.0025735234, 0.025966665, -0.18900727, 0.008017596, 0.03222004, -0.08822257, -0.030623319, 0.033738438, -0.00023405191, 0.110526726, -0.0122557, -0.06401627, -0.1903507, -0.13195783, -0.09776903, 0.018117143, 0.087838806, 0.12797308, 0.04495039, 0.016633218, -0.001397883, 0.1841086, 0.035721418, 0.09271495, -0.033268098, -0.076960556, 0.02925759, 0.060652267, 0.1212155, 0.015226499, -0.049923882, -0.029853294, -0.023045622, 0.042751886, -0.032185245, 0.071935445, 0.0019730956, -0.06164045, 0.004041373, 0.077400446, -0.065099135, 0.16513488, -0.013696735, -0.048698507, 0.02385952, -0.0033289574, -0.00836378, 0.08091718, -0.037253175, -0.10989755, 0.076756686, -0.1317742, 0.018985964, -0.04069989, -0.031495318, 0.016762624, -0.0005616362, -0.081212826, -0.016850809, -0.10272432, 0.028078482, 0.02778169, 0.017469494, -0.10364241, 0.029248657, 0.12299043, 0.061869495, 0.051956773, 0.0052386015, 0.035149004, 0.04049641, 0.090761356, 0.06808966, -0.016728025, -0.030789033, 0.19300814, -0.034037046, 0.03166793, 0.0714632, 0.09062473, -0.16112816, -0.07766457, -0.004925384, -0.16765402, -0.06984508, -0.12887868, 0.10553883, -0.0031401156, -0.082200944, 0.052833427, -0.03689284, -0.17059506, 0.13215037, 0.1349151, 0.13618504, -0.0629626, -0.04376221, 0.0443172, -0.12903938, 0.11988346, 0.03778045, 0.026224855, 0.03163702, 0.102101326, 0.04655357, -0.08554018, -0.027805079, 0.10693491, -1.94342e-05, 0.030207913, -0.04416058, -0.03504925, 0.03355407, -0.050727747, -0.08706996, -0.14710732, 0.011319539, 0.11325017, 0.10455452, -0.009807239, -0.12824085, -0.116657935, 0.083666824, -0.024191298, -0.058206785, -0.04025895, -0.18564083, 0.085085824, -0.018354852, -0.12887368, -0.057899766, -0.08500657, 0.06343354, 0.01730556, 0.08498527, 0.12138764, 0.044719465, -0.07667434, -0.07670502, -0.123266704, 0.1367208, 0.004068368, 0.049268316, -0.119387306, 0.10926894, 0.1927327, -0.105457455, 0.036392383, 0.18219511, 0.06462023, 0.05591616, -0.06915298, -0.010999224, 0.13926347, 0.017106904, -0.064193346, 0.03308406, -0.091345124, -0.13143253, -0.16958198, -0.029760417, 0.10590414, 0.022553548, -0.07634703, -0.0463864, -0.063125476, -0.053097807, 0.025780238, 0.17757092, 0.015586097, 0.019087365, -0.17205681, 0.16265628, -0.11968787, 0.11942245, 0.13104878, -0.055301618, 0.17574969, -0.007087678, -0.14830135, -0.12150723, 0.000252887, 0.019144857, 0.010957374, 0.09760213, -0.17247693, -0.12929434, 0.17196305, -0.0033080692, -0.11147197, 0.08953987, 0.018397495, 0.013691785, -0.03326689, 0.117763646, -0.007865381, -0.12885499, 0.014056814, -0.010470611, -0.10473082, -0.06959712, -0.05612884, 0.074054785, -0.04864185, 0.12294691, 0.018459607, -0.034112584, -0.09728301, 0.09326943, -0.19025214, 0.0041252803, -0.0010059796, 0.069372274, -0.16254933, 0.07649185, -0.17992759, -0.05789901, -0.060149312, 0.051638983, 0.1566786, -0.06836925, 0.07398491, -0.0006891174, -0.07983952, -0.11830552, 0.0780363, -0.09835366, -0.04301748, 0.10227885, 0.030986056, 0.058064975, -0.1197723, 0.03280747, -0.096038006, 0.029532284, 0.014036073, 0.044005137, 0.15180083, 0.043679394, -0.0137637295, 0.024316808, -0.12403106, -0.04567919, -0.048668787, 0.04740606, -0.027832903, -0.1337457, -0.12910224, 0.008902473, -0.055980932, -0.011110962, 0.042583372, -0.06364822, -0.008319303, -0.1118642, -0.0136108175, 0.00077873096, -0.098469384, -0.19767587, -0.06600023, -0.051980104, 0.10735648, 0.23055832, -0.06476002, -0.02007434, 0.0011618796, 0.069034845, 0.024280453, 0.21881764, 0.05370536, -0.15959275, 0.055554293, -0.0190939, 0.07822459, -0.006614536, 0.11712462, -0.08485344, -0.064142585, 0.048857782, -0.0991472, -0.00504504, 0.023268854, -0.05483232, 0.09396096, -0.032199226, 0.115938395, 0.03679829, -0.07889853, 0.13579033, -0.18334782, 0.04793938, -0.015633656, 0.0069564003, -0.043150563, -0.06504649, 0.06544378, 0.035187226, -0.10036638, 0.06547441, -0.17616002, -0.07247381, -0.015946904, 0.072966404, -0.10265457, -0.09826904, -0.047997314, -0.053506404, 0.19319603, -0.07403221, 0.06449283, -0.15388417, 0.08802038, -0.038249765, 0.00034172513, 0.17031659, 0.052288525, -0.12860806, -0.022344718, -0.1507056, -0.16140208, -0.07439101, -0.034562845, -0.11349798, 0.12185453, 0.038535424, -0.055461884, -0.034073714, 0.09651888, -0.011966135, -0.15375845, -0.01659135, -0.080351084, -0.05260748, 0.031109668, 0.011511727, -0.13463798, 0.1897004, 0.119208604, 0.15553112, 0.06722943, -0.04198759, 0.025092943, -0.11139127, 0.004702435, 0.11573632, -0.13797092, -0.146369, 0.026167821, 0.2159256, -0.06382937, -0.032209013, -0.04581905, -0.017416004, -0.082303405, -0.16790378, 0.0036207337, -0.061034527, 0.13839354, -0.055268504, 0.047581524, 0.020229982, 0.025124414, -0.09426341, -0.020709, -0.075744405, 0.058247097, 0.055304173, 0.019629538, -0.041388173, -0.028276255, -0.14839604, 0.009117684, -0.06797487, -0.14288181, 0.017467815, -0.0001253769, 0.14034678, -0.14881013, 0.063978836, 0.027204204, -0.12966248, -6.563166e-05, -0.04901211, -0.05708175, 0.07453908, 0.025797872, -0.009200544, 0.03447691, -0.041967835, -0.088594444, -0.043777645, 0.16071805, 0.07734458, -0.124246225, -0.15086395, -0.11347663, -0.05530871, -0.06335394, 0.052487925, -0.18900853, -0.002051999, -0.044069543, -0.0676457, -0.08477143, 0.018280962, 0.1186311, -0.10120908, 0.008878497, -0.036421277, -0.039220393, -0.12820634, 0.09035262, 0.15640575, -0.055404212, 0.14288913, -0.19114886, -0.06381287, 0.10918406, 0.03051676, -0.067967355, -0.037409134, 0.12604387, -0.04925782, 0.12024445, -0.06729245, -0.039658267, 0.094684765, -0.17319353, -0.118543334, -0.020355294, 0.045199603, 0.015678335, -0.118490726, -0.10333378, 0.10500878, -0.048986413, -0.016257474, 0.1021711, 0.06333645, -0.014315105, -0.15562242, -0.060886893, 0.059267946, 0.111328915, 0.18143481, 0.07217836, -0.089797705, -0.04404653, 0.1432055, -0.12074744, 0.03223592, -0.030273287, -0.09556605, 0.08662844, 0.054745086, -0.12422082, 0.059954554, -0.006028798, 0.083298795, -0.099496506, -0.107841626, -0.051226113, -0.025281744, 0.18030861, -0.025821162, 0.15036546, -0.1756808, -0.07703074, 0.032036625, -0.063391015, 0.08009387, 0.028459776, -0.13271976, -0.08733578, 0.028746108, -0.1592854, 0.07433734, 0.038549576, -0.061293926, -0.06385962, -0.024606258, 0.108054526, -0.0120262345, 0.1694985, -0.071723215, 0.038612526, -0.03217595, 0.016678063, -0.08912409, 0.12075855, 0.061584942, 0.06854787, -0.112778164, 0.11614991, -0.00970333, -0.06098956, -0.051197212, -0.058801945, 0.15270537, 0.13784425, 0.09075769, 0.11065025, 0.032393437, 0.04725771, -0.09292589, -0.0033088983, 0.08128615, 0.124515794, 0.06877955, -0.06370945, 0.054861132, -0.073827974, -0.11387833, 0.053554133, -0.07415414, 0.076308005, -0.12689872, 0.069991075, 0.030103518, -0.10137939, 0.16494092, -0.08094103, -0.13969547, 0.026870212, 0.025814481, -0.09159891, -0.12013288, 0.0022370315, 0.089714415, 0.0052015297, 0.11783301, -0.060523845, -0.14120792, -0.0013732625, 0.029683704, 0.15023914, 0.07982458, 0.04553749, 0.033411402, 0.1465415, -0.025196616, 0.059394393, 0.059480023, 0.02684887, -0.09760743, -0.111590944, 0.03495387, -0.088904984, -0.030097442, -0.13846487, 0.0023339696, -0.12960762, 0.04021489, -0.050131753, -0.16719718, -0.04960867, 0.033042252, 0.009737462, -0.013795642, 0.084850095, 0.16860549, 0.14093812, -0.06365126, -0.044952143, 0.074830145, -0.06300987, 0.025213739, 0.039164927, 0.08878924, -0.10559656, -0.06643217, -0.08427029, -0.12343836, 0.012338314, -0.16853213, -0.0058644824, -0.0023892669, -0.038022604, -0.13962457, 0.14525768, -0.08556327, 0.10137242, 0.07524895, 0.048485767, 0.0074127824, 0.021554235, -0.0637456, -0.029660901, -0.0052067847, 0.17297928, -0.037914656, 0.031518772, -0.019068351, 0.06674109, -0.08272109, -0.037898477, 0.13132207, -0.07228612, 0.10369434, 0.14446412, -0.14300078, 0.15880536, 0.049264718, 0.0048967307, -0.10773573, -0.07911895, 0.027345162, 0.0053352932, 0.03747394, 0.07451207, -0.0636151, 0.0021143944, 0.0007700986, -0.027682617, -0.074753255, -0.18198645, -0.00364564, -0.012118014, -0.1182654, -0.008501478, -0.05189013, -0.043381117, -0.03644715, -0.07370089, -0.067054726, 0.12930246, 0.0026656974, 0.044380847, 0.028158942, 0.031638972, 0.014467897, 0.19149064, -0.030698877, -0.118802726, -0.07435397, -0.02139558, -0.13184516, -0.021061515, -0.0062953713, 0.19144523, -0.06312445, -0.07272686, 0.07026007, -0.027463866, -0.05537283, 0.14634821, 0.019532895, -0.07197214, 0.008548535, -0.04511384, -0.077770546, -0.009657354, 0.022524865, -0.022806372, -0.073511936, -0.09306355, -0.047548477, 0.08086148, 0.012994404, -0.13255149, -0.01791999, 0.051393997, 0.08493556, 0.17039685, -0.103921995, -0.02745775, 0.0813574, -0.042433724, -0.0043207756, -0.059793163, -0.038757917, -0.15428114, 0.13958754, -0.108710416, -0.13161154, -0.008180638, -0.06955402, 0.015623716, -0.019356076, -0.104019076, -0.090687424, 0.110304475, -0.1275738, -0.067083806, -0.032311533, 0.11776565, 0.07905047, 0.0144562945, 0.058317196, -0.051640544, -0.004086397, -0.11510135, -0.109253906, 0.017800285, 0.13529149, 0.043367628, 0.121803574, 0.15576445, -0.10028634, 0.18370664, 0.04396431, -0.15833311, -0.040077224, 0.03746471, -0.044930622, 0.045714155, 0.060487688, 0.058780506, -0.03506771, -0.06391288, -0.097401865, 0.12540838, 0.006060851, 0.052080743, 0.14193025, 0.094606474, -0.053590648, 0.027655236, 0.06338213, 0.10973887, -0.109212525, 0.090265825, 0.08197463, -0.1236471, 0.04816006, 0.057906717, 0.024757067, -0.059476167, 0.055533443, 0.014184382, 0.08293504, -0.031911932, -0.049746916, -0.12750094, -0.1155062, 0.095222645, -0.1229828, -0.07587511, 0.045491353, 0.04727708, -0.09142269, -0.071679994, 0.12706709, -0.1257272, -0.027681595, -0.17387383, -0.029171677, -0.103149556, -0.08329576, 0.13594952, -0.050803274, -0.14938414, 0.079974756, -0.12238162, -0.012446186, 0.1743399, 0.04962903, 0.0058295117, -0.07202561, 0.18385343, 0.057763446, 0.12915534, -0.1030009, -0.031476814, -0.038120605, 0.096336275, 0.0046956628, 0.040170144, -0.06533346, -0.009266556, 0.017904332, -0.04298443, 0.14466952, -0.0796216, -0.024460211, 0.051097993, -0.048095502, -0.10381087, 0.04798923, 0.050857533, -0.19599554, 0.076341026, 0.02994708, -0.023044629, 0.020981273, -0.09947965, 0.07051135, -0.07650325, 0.0551186, 0.01324808, 0.060839728, 0.14084819, 0.04022918, 0.14403784, 0.05762579, -0.045488156, 0.025319923, 0.027619272, 0.08238298, 0.084291495, -0.12135014, -0.04406176, 0.11418132, -0.08998129, -0.04835654, 0.0021785407, -0.07291323, -0.040392138, -0.17331822, -0.05829056, -0.07743301, -0.20326728, -0.17143627, 0.07257106, -0.052907377, -0.12687574, -0.15785387, 0.037297323, 0.02813806, -0.031555615, 0.048975818, 0.056450777, -0.012387387, -0.080000855, -0.0615501, 0.0036818772, 0.08169424, -0.03248024, -0.14707072, 0.010319636, -0.1432646, 0.19573097, -0.023756742, 0.040731266, 0.050794885, 0.082344785, -0.169145, -0.07796104, -0.12539782, -0.08527469, -0.025538733, 0.15298016, -0.029464135, -0.036938664, 0.021265214, 0.07554207, -0.14549413, -0.05436444, 0.12789659, -0.028203133, -0.026735665, 0.06575152, 0.060625896, 0.0067856424, 0.048969418, -0.08421747, 0.11795763, -0.05458518, -0.04201945, 0.022886483, -0.02869921, -0.051064022, 0.0063009365, -0.040396705, 0.19628736, 0.031878654, 0.07481489, 0.10278092, -0.06154797, 0.1515627, -0.026216652, 0.0110072605, -0.005015261, -0.10417473, -0.039776683, -0.005800639, 0.13788173, 0.008094501, 0.023075802, 0.023218645, -0.0039702225, -0.18547285, -0.10167616, 0.105891354, -0.019570563, 0.08972809, -0.13737553, 0.06895324, 0.13612127, -0.04097997, 0.04595133, 0.08647266, 0.029006315, 0.22172841, -0.081664674, 0.17472608, 0.0842904, 0.06922759, 0.08508816, 0.1609537, 0.101527795, -0.08133511, 0.18497518, -0.032873176, 0.09699314, -0.16418669, -0.02648968, 0.031884525, -0.037526067, -0.052234996, -0.0467292, 0.13959783, -0.011877348, 0.047921076, 0.09270611, 0.100802235, -0.07037084, 0.016808372, 0.07915386, -0.0043844855, -0.12532015, 0.15347579, 0.010635012, -0.089553736, 0.05712904, 0.03941717, 0.0068555376, 0.063250855, -0.14067249, 0.14463234, 0.077967115, -0.15411824, -0.006192086, 0.16383387, -0.09779596, 0.051711515, -0.03255415, -0.023915568, 0.013183657, 0.13058677, -0.026683649, -0.046774197, 0.0069500473, -0.07544289, 0.029568126, -0.034750704, 0.012376412, 0.09752046, -0.09813495, -0.10943183, 0.17167215, -0.07028042, -0.0489893, 0.04874848, -0.010028246, 0.1223523, -0.13760468, -0.031375155, 0.10308796, -0.069352746, 0.08875167, -0.039496455, 0.055496328, -0.019693473, 0.11548394, -0.13019663, 0.014053335, -0.081695475, 0.039755214, 0.100219905, 0.077973984, 0.13602996, -0.02776172, -0.15231043, 0.085026175, 0.056589004, 0.005668113, 0.16740246, 0.064054236, 0.10527901, -0.11180437, 0.0051041497, 0.022289738, -0.0039393837, -0.028719937, -0.16041122, 0.110157974, 0.062237374, -0.11143755, -0.030712921, 0.05872577, 0.052094392, -0.009591898, 0.08710527, -0.02054774, -0.08994577, 0.10782312, 0.02641321, 0.0035633536, -0.06835305, 0.024555858, 0.15467668, -0.16526006, -0.09215414, 0.0123093445, 0.16398917, 0.05112474, 0.026839951, 0.02961683, -0.115591906, -0.17924584, 0.0640752, 0.0024940963, 0.0018837737, 0.052494984, 0.013030552, 0.00264533, 0.02133193, -0.014720802, 0.0039917855, 0.10035543, 0.11553824, 0.12965721, -0.019437004, 0.12952809, -0.113543004, -0.14352305, -0.059984922, 0.12653641, -0.034815665, 0.025331086, 0.07034588, 0.027885253, 0.047069307, -0.017946249, -0.15532425, -0.115406044, 0.08825561, -0.15063165, 0.12532876, -0.033064056, -0.052166525, -0.0085416045, 0.08276038, -0.11268568, -0.019790016, 0.0026808225, -0.061393872, -0.1694618, 0.012172128, -0.1366351, -0.07580711, -0.013676482, -0.09656547, 0.041635893, 0.15142985, -0.027698742, -0.13105702, 0.076010294, 0.025753729, -0.0554842, 0.027105343, -0.016221754, -0.038534537, -0.053910464, 0.18133903, -0.022332361, -0.043989785, -0.08563157, -0.08958724, 0.10745595, 0.07790806, 0.19584088, 0.07366262, -0.023938728, -0.09038987, -0.046992213, -0.07985965, 0.017263664, -0.10960549, 0.06320879, -0.08464321, 0.12558877, -0.073340535, 0.1351521, 0.07918647, 0.12979244, 0.11588749, -0.07511757, -0.13590266, -0.087465234, 0.059127424, 0.04919248, -0.009750068, -0.12671444, 0.14402626, -0.007234747, -0.052495264, 0.0049257902, 0.11893224, -0.12669311, -0.11490972, 0.08131284, 0.021830458, -0.13209921, 0.16154669, -0.023520377, 0.18295792, -0.118044026, 0.06444942, -0.051400978, 0.028734788, -0.009340751, 0.0225203, -0.13641748, 0.056772653, -0.17225523, 0.006299237, 0.19287463, 0.0032997492, 0.1433064, -0.094431035, 0.17442806, 0.04885026, 0.057194147, 0.1421705, 0.00017959783, 0.18957362, -0.13598354, 0.06503476, -0.050373837, 0.16166061, -0.07512245, -0.003719425, -0.0019404925, -0.088703044, 0.0037091766, -0.08529849, -0.09223944, 0.06546727, 0.051828917, 0.042798217, 0.20710155, 0.06260725, -0.02318481, -0.19218427, -0.023321433, -0.03638378, 0.024088647, -0.0040545524, -0.13505572, -0.010696659, -0.1241598, -0.043693267, 0.009794876, -0.042098027, 0.006772131, 0.020914322, 0.057214, -0.1367829, 0.045333408, -0.20007695, -0.13541295, -0.13304816, 0.16408767, 0.0084351925, -0.019915825, -0.04834104, -0.014207138, 0.010648514, -0.03910103, -0.12891851, -0.1244521, -0.030199772, -0.08774478, 0.09841384, -0.009355717, -0.1543045, 0.12739861, -0.087848336, -0.04238417, 0.08165484, 0.056240153, 0.06241147, -0.08313945, -0.1384769, 0.15348285, -0.01798893, 0.14351282, 0.0718034, -0.028435448, 0.15143198, 0.08088953, -0.0022639062, -0.08890505, -0.08487481, -0.07228764, 0.05597902, -0.07731474, 0.032447934, 0.13327214, 0.01051179, 0.06448598, -0.01696883, -0.041020382, 0.001051594, 0.1305461, -0.11747169, -0.051969085, 0.05608747, 0.17166454, -0.13437869, -0.03903063, 0.007662687, -0.004978989, 0.12873255, 0.093148, 0.010093717, 0.10602509, 0.082904086, -0.011400288, 0.07130505, -0.059128933, 0.08254738, -0.139276, -0.13528478, 0.010342233, 0.09398827, -0.060143407, -0.08562092, 0.014809521, 0.02639412, 0.1556557, 0.15803523, 0.045218833, 0.055137616, -0.19940627, -0.016658215, -0.04485395, -0.05675004, -0.026224013, -0.030910904, -0.12486658, 0.0930519, 0.21061109, -0.01130564, 0.09485876, -0.17730826, 0.10915789, 0.12258403, -0.13264428, -0.17015252, -0.059624955, 0.010960879, -0.08023095, -0.01696569, -0.00094277546, -0.051946912, -0.090091825, 0.0049488293, 0.18062848, -0.037808295, 0.19678748, -0.097710654, -0.029170519, -0.015933653, 0.07208245, 0.08229569, -0.046446342, 0.040925212, 0.111404955, -0.12547627, 0.10328025, 0.068545155, -0.05529186, 0.058222976, 0.092519775, -0.05972457, 0.030523097, 0.10903753, -0.072078876, -0.068648696, -0.07328065, -0.024160175, 0.11406388, 0.007890622, 0.1342077, -0.030681381, -0.042081386, -0.201912, 0.14367309, -0.047106434, 0.069839835, 0.009846815, -0.12603396, -0.03342462, -0.01679196, -0.058109675, 0.07763832, -0.039989855, 0.023050785, -0.043808307, 0.13585913, -0.07391295, -0.07847868, 0.16170204, 0.063751936, -0.061686493, -0.09692723, -0.078619465, 0.07984008, -0.17906006, -0.124281354, -0.073023856, 0.0015283747, -0.059179775, -0.017199261, 0.044865847, 0.024258738, -0.08057481, -0.14719796, -0.052677024, 0.0973376, -0.07014055, 0.038828097, 0.067720994, -0.077545494, 0.045094542, -0.015883684, 0.054396432, -0.041377857, -0.049984265, 0.016670175, -0.03593755, 0.035497215, -0.01471451, -0.16984998, 0.027048556, -0.17562868, -0.043307565, 0.022817034, -0.07156675, -0.04591459, 0.11741835, 0.0035342365, -0.10395233, 0.07723591, -0.082814805, 0.08374776, 0.08343974, -0.011162714, 0.0031365394, -0.08919333, 0.111315705, -0.07561074, 0.019055612, 0.17762011, 0.015284071, -0.0050265975, 0.014416684, -0.13403618, 0.009553028, -0.12065681, -0.12378192, -0.014164372, 0.06426621, -0.0042801495, -0.12498089, 0.07024919, -0.005841986, 0.05960427, -0.030120138, -0.0083328085, 0.0317323, -0.11041279, 0.08054156, -0.0521553, 0.08616947, -0.11209268, 0.0038838405, -0.19795066, -0.09244698, 0.015464431, 0.019589797, 0.11011875, -0.13370924, -0.043682892, 0.089345016, 0.15524839, -0.014712655, -0.07465109, -0.009497089, -0.022892265, 0.1069216, -0.16720955, 0.06855094, -0.007638211, -0.05053145, -0.011977486, -0.015799133, -0.1011426, -0.15958394, -0.116027005, -0.020438906, 0.06491738, 0.1700205, 0.0056096073, -0.03218746, 0.013453755, 0.010681746, 0.05303503, 0.008061534, 0.07637253, 0.047964524, 0.08430095, 0.012702581, -0.17114273, 0.0012543132, 0.08227019, 0.03107052, -0.09661228, -0.20156088, 0.038047664, 0.12070444, -0.01777858, -0.0011218558, -0.04562232, -0.01995586, -0.018322995, 0.014000175, 0.05001705, 0.008111028, 0.07031377, 0.11777622, 0.14697342, -0.10563297, 0.07417319, 0.06340918, 0.0065808087, 0.0543191, -0.12461005, 0.1396851, -0.11034284, 0.03797128, 0.00012248688, -0.04812201, -0.057287447, -0.03914149, 0.12863779, 0.15359925, 0.010789001, 0.10326498, 0.06897344, 0.100387394, -0.05310442, 0.028363448, 0.031171964, 0.045727838, 0.14094251, 0.068284646, -0.046238355, 0.0061424184, 0.0787133, -0.08727892, -0.11011342, -0.110400215, 0.08883733, 0.19955261, -0.01064185, 0.06602422, 0.048425786, 0.11961302, 0.15300344, 0.03573715, -0.063483715, -0.19973774, -0.0773635, -0.0050011487, 0.17817278, 0.1584166, -0.05405224, -0.16156226, 0.12662539, 0.011525824, -0.09916003, 0.021634161, -0.13558817, -0.13576923, 0.030705355, -0.114083126, -0.05065088, -0.039912898, -0.0010311697, -0.14050663, -0.09867531, -0.07833176, -0.016034173, 0.035923596, -0.109061465, -0.15540677, -0.06264409, 0.034047056, 0.008726741, 0.055228144, -0.004773001, 0.07207073, 0.04743018, -0.029970516, -0.057846952, -0.040869046, -0.047731236, 0.072601005, -0.12398274, -0.011138732, -0.030118326, -0.01732057, -0.15775792, 0.01626149, 0.07082235, 0.09861007, -4.817557e-05, -0.0452224, 0.07735544, -0.018563095, 0.014611219, -0.019525142, 0.14602438, 0.05571707, -0.023536708, -0.14552836, 0.080498256, 0.08028475, -0.06926229, -0.0068264175, -0.0079918485, -0.049838886, -0.004524625, -0.021762706, 0.020025222, 0.029042816, -0.003775435, -0.14910617, -0.0028982267, 0.08659207, 0.021103572, 0.09843528, 0.040790804, -0.0056637465, -0.0172854, 0.025408246, -0.004070951, 0.06960989, 0.04408443, -0.13626808, 0.17259194, -0.1278486, -0.0017477046, 0.108183526, -0.04862109, -0.13629192, -0.0059420946, 0.025635986, 0.033635207, -0.19483745, 0.084641345, -0.11346709, -0.12500134, 0.015640425, -0.09949259, 0.020757567, -0.051907267, 0.041111052, 0.050256852, -0.110654704, 0.16652972, 0.044601206, 0.048905518, -0.07570683, -0.06434949, -0.13449809, 0.08296, -0.08444959, 0.05124557, -0.04278217, -0.041236967, -0.110290244, -0.1781367, 0.07537599, -0.028092243, -0.05004525, 0.11713012, 0.09982297, 0.14595741, 0.059847996, 0.15869841, 0.06171287, 0.07204813, 0.025939522, 0.16178809, -0.027146317, 0.109164715, -0.062675156, 0.1201042, -0.05557266, -0.0058932137, -0.05894531, -0.021618314, 0.07765505, 0.059309013, 0.10210275, 0.061690442, -0.050774146, -0.07559643, -0.027119864, -0.08398344, 0.20407441, 0.005099351, -0.09708914, -0.055629563, 0.19810143, -0.09010097, -0.04173509, -0.0191318, 0.04958521, 0.10487203, -0.020462088, 0.059247475, -0.12192145, -0.08629092, 0.12503162, 0.10797721, 0.12217363, 0.057599988, -0.0096616475, 0.05455184, 0.12001315, -0.05058994, -0.04997591, -0.070144646, -4.630686e-05, 0.07418196, -0.08703276, -0.033886783, 0.12799934, -0.12462655, 0.07081758, 0.11311291, -0.16910031, -0.03610315, 0.04958959, 0.080013186, 0.13031293, -0.050489523, -0.11255528, -0.046052177, -0.038278252, 0.007896565, -0.04550134, 0.06633555, -0.0066592135, 0.05197739, -0.08064681, 0.16611572, -0.0377018, -0.10136786, 0.0450596, -0.11166408, 0.12923084, 0.030019715, -0.023486417, -0.08306061, -0.00396822, -0.00937589, -0.083445, -0.021823112, -0.060832694, 0.037558097, 0.013517416, -0.028000161, -0.10687324, 0.017250575, 0.02335115, -0.016629376, 0.11404055, 0.065037824, -0.048853442, -0.049956366, 0.14225079, 0.10682052, 0.18085825, 0.013841235, 0.056840166, 0.028532293, 0.022933353, 0.017710082, 0.049941603, -0.12802076, 0.13262707, 0.086694285, 0.14023928, 0.04931784, 0.023566322, -0.03636718, -0.040632788, 0.02984202, 0.018706778, -0.025357109, 0.047332756, 0.010486088, -0.04953811, -0.07892695, -0.03189539, 0.0728637, 0.15306199, 0.08564283, -0.19664606, -0.17520924, 0.12920767, -0.009676191, -0.08528022, -0.09805795, -0.02594635, 0.06798984, -0.057733197, -0.15100136, -0.06484496, 0.14185297, 0.05057289, 0.009656447, -0.019494273, 0.0074832328, -0.07691718, -0.06915439, -0.1594904, 0.0023510724, 0.019536985, -0.06576148, -0.00127999, -0.0962202, 0.03589252, 0.09967413, -0.043280065, -0.07609851, 0.047651127, -0.098962024, 0.03900523, -0.06529216, -0.04006128, -0.09196151, 0.024113137, 0.04649999, -0.037203234, 0.11045295, 0.105819575, 0.01695253, 0.031463303, -0.045927208, -0.06803273, -0.0966506, -0.06421906, -0.10471142, -0.057575215, -0.048343446, -0.08164439, 0.06316108, -0.13764966, 0.06015781, -0.0659362, -0.10034795, 0.04630825, -0.088429235, 0.030604651, -0.031837463, 0.14227833, 0.0522238, -0.08662652, 0.17408927, -0.12193018, 0.12622327, 0.00023367722, -0.10719705, 0.06913583, 0.039109267, 0.014178673, -0.07735204, 0.07719402, -0.10185052, -0.06185314, 0.03996033, -0.18297613, 0.04154203, -0.11170239, -0.08864851, 0.0018970506, -0.021899961, -0.0049265553, -0.042395085, -0.024850586, -0.073501416, 0.12104006, 0.013402609, 0.0484829, -0.00016224892, -0.040473808, -0.0047068214, -0.14110556, -0.037607066, 0.041744526, -0.11308022, -0.024656277, 0.006183867, 0.008840574, -0.0076194834, -0.022321565, -0.18503669, 0.20114176, -0.04382435, 0.14210814, 0.08465222, -0.09456052, 0.0016311263, 0.010322995, 0.15891342, -0.055135436, -0.14702305, 0.121803276, 0.15029332, 0.02114999, 0.019224405, 0.11746768, 0.068093725, 0.06916787, 0.08506402, -0.1802043, -0.14491695, -0.055970084, -0.10921694, 0.16625898, 0.18262398, 0.012576034, 0.09569369, -0.056266982, -0.05023212, -0.06219534, 0.10956571, -0.050533023, 0.08655613, 0.08987262, 0.015712898, 0.050958596, 0.01898756, -0.033309676, 0.10745811, -0.04874843, -0.058525965, -0.027205551, 0.08922665, 0.03459324, -0.09142498, -0.0771719, 0.06702301, -0.028736614, -0.023194367, -0.19137907, -0.046352237, 0.073184244, -0.043138236, 0.012692841, 0.053076115, -0.07201894, 0.01085814, -0.055372015, -0.066609815, -0.065579146, 0.083680935, -0.06603167, -0.12878725, 0.12220947, 0.016961705, 0.1457713, -0.108476095, 0.00030632247, 0.067547046, 0.09640649, 0.08747384, -0.12675135, -0.16017418, 0.02628655, 0.17372976, 0.04133496, 0.058531515, 0.106360324, -0.083494686, -0.11394871, 0.13901351, 0.019409897, 0.029970625, 0.06421749, 0.06488502, 0.027914522, 0.043375168, 0.018025074, 0.031599976, 0.027239738, -0.1050748, 0.048772927, 0.13634557, 0.027898341, -0.033021737, 0.021409307, -0.1270169, 0.09263488, -0.08241421, 0.043735877, 0.030351205, 0.024703624, 0.030919058, 0.14091809, 0.021253014, 0.13766822, -0.020508662, 0.03696484, -0.04156128, -0.07078401, 0.090494566, 0.07644528, -0.08656418, 0.09236018, -0.1542275, -0.123755, -0.091401525, 0.0014481031, 0.12300201, 0.025719207, 0.017714603, 0.08481935, 0.037315816, 0.035085484, 0.01737479, -0.03640489, -0.021487828, 0.09695749, 0.033743028, -0.10257552, -0.060665876, -0.0034150674, -0.090882316, -0.02446191, -0.10460031, 0.14373617, 0.11498297, -0.0038029582, 0.02207376, -0.033840947, 0.06818682, 0.03748719, 0.06134694, 0.008880248, -0.004783709, 0.09174492, 0.034217447, 0.057005677, 0.01716831, 0.051611118, 0.048163496, -0.11120482, -0.026021648, -0.0024026511, -0.113423966, -0.116034105, -0.033625852, -0.1295802, 0.081601076, -0.07549077, 0.042210583, 0.17369422, 0.053862054, -0.10499011, -0.033118118, 0.18406367, -0.092591606, 0.10910508, 0.011369605, 0.051011927, 0.040926542, 0.01950748, 0.042044684, -0.063831605, 0.059152286, -0.03314983, -0.008226562, 0.15256871, -0.019821512, 0.033475265, -0.045886397, -0.012799273, -0.1220306, -0.105548985, 0.08614933, 0.08349389, -0.1640621, -0.037705448, -0.10149974, -0.11279415, -0.022467531, -0.0780608, 0.04460057, -0.11288668, -0.06006681, 0.0014897425, 0.030961964, -0.10261695, -0.0781924, 0.08844063, 0.05255731, -0.055438314, -0.017907014, 0.09245443, 0.0054008765, -0.07232289, 0.06366902, 0.09929067, -0.09807223, -0.11540552, 0.0053740516, 0.15143727, 0.035398997, 0.047308967, 0.0301517, 0.15404652, -0.0129872775, -0.0018321781, 0.011744865, 0.032691125, -0.08817682, 0.08054377, 0.12914374, 0.03116255, 0.06584242, -0.081213996, 0.09828068, 0.12605481, 0.11174723, 0.012677903, -0.06855029, -0.05488211, 0.08267449, 0.17545454, 0.20804803, -0.069396734, 0.080912404, 0.08025553, -0.038014144, -0.038132828, -0.1072027, 0.06060584, -0.015189933, 0.18803011, -0.16247742, -0.15256436, -0.08388967, -2.2383701e-06, -0.07535006, 0.014624801, 0.008966067, -0.0047846735, -0.020215573, 0.08730815, -0.032231733, -0.029020213, -0.01081445, -0.013287819, 0.080032654, -0.06160945, -0.009994609, 0.13232094, 0.114060625, 0.15858321, -0.003995638, 0.017921159, -0.012011267, -0.1064249, 0.054365102, -0.022892457, -0.09522862, -0.15681747, -0.11499734, -0.056539383, -0.077980764, 0.0034791662, -0.17706892, 0.08579634, 0.08040557, -0.17413406, -0.13256022, 0.13937673, 0.02229031, 0.07515864, 0.04500874, -0.015251854, -0.066238284, 0.0070831836, -0.063755296, 0.06119432, 0.040289663, -0.11580656, -0.118862934, 0.11908846, 0.07743109, -0.12873235, -0.05228367, -0.14071277, -0.088365205, 0.09183702, -0.14588985, 0.079325065, 0.02270162, 0.12704574, 0.017271843, 0.16199365, 0.03492754, -3.642602e-05, 0.07711516, 0.1876899, -0.041610565, -0.0017419736, -0.0012352836, -0.046960108, 0.0018929574, -0.16526677, -0.022965552, -0.05313211, -0.10915581, -0.13871078, -0.09974433, -0.06739926, 0.031222586, -0.16011985, -0.047984187, 0.058101274, 0.08488223, -0.118376836, -0.053532504, 0.03379934, -0.12094738, -0.01291589, -0.07891647, 0.023564922, -0.07307411, -0.104920395, 0.08767882, 0.08497195, -0.028386595, 0.009215337, -0.014052479, 0.08178089, 0.035618555, 0.045689207, -0.05712929, 0.07713642, -0.09507493, -0.09499037, -0.11380539, -0.006434487, 0.07943872, -0.04705725, -0.08380736, -0.06111507, -0.08146529, -0.08435411, 0.084940135, -0.100977674, -0.004608889, 0.05519805, -0.12957583, 0.023983832, 0.03618306, -0.017235966, 0.021040164, -0.06989918, 0.0950474, 0.07170649, -0.12823503, -0.07930584, -0.052294426, -0.040104836, -0.051104587, 0.03298136, 0.031801153, 0.10847662, -0.08759339, -0.038228936, 0.097084336, 0.1372738, -0.01563948, 0.12773356, -0.10021539, 0.067024715, -0.03565296, -0.013586069, 0.059832327, 0.09173262, -0.02386667, 0.06918468, 0.034555886, -0.013149117, 0.008647695, 0.037053056, -0.07501305, 0.031490926, 0.052577466, -0.104617454, 0.07544989, -0.045003284, -0.0006749766, 0.07240408, -0.07890438, 0.112925075, 0.19856952, 0.09464032, -0.1157374, 0.015161364, 0.030649465, -0.0055687814, -0.086990654, 0.015894465, -0.003194428, -0.05789234, 0.0021820194, -0.110657126, 0.10946571, -0.02161552, 0.003130258, 0.008468541, -0.09652909, 0.07044599, -0.0054849763, -0.031182477, -0.042347945, -0.03905453, 0.02599498, -0.020737758, 0.11386226, -0.05648548, 0.07668854, 0.181632, 0.10529869, -0.09615206, -0.020145142, -0.17336142, -0.0034708935, 0.12580043, -0.07693078, 0.15745556, -0.10613882, 0.066071466, -0.025058653, 0.046168637, -0.059825618, -0.20395605, 0.03169762, -0.0020369831, 0.0520125, 0.0365829, 0.047997855, -0.013326769, -0.12561598, -0.12775052, -0.047219083, 0.038830142, 0.032769717, 0.13043788, 0.14273317, -0.1715503, 0.035578046, -0.110134535, -0.1083629, -0.11221811, 0.10946443, -0.13770509, -0.029754633, 0.05344379, -0.1706294, -0.18419032, 0.06219398, -0.082872, 0.055114202, -0.18315546, -0.024636043, 0.0039411583, -0.11754053, -0.028383425, -0.027292395, -0.067900844, 0.008677776, -0.17068881, 0.003836818, -0.14667782, 0.13750201, 0.12144327, 0.13172302, -0.076743156, -0.05146114, -0.026238019, 0.1368564, -0.046594273, -0.053044524, -0.003171506, -0.042515174, -0.038513277, 0.17025636, 0.046297394, 0.05173928, 0.12808128, 0.024234299, 0.10040293, 0.21297574, -0.02834499, -0.031654682, -0.20326938, -0.01420085, -0.04351279, -0.12951568, -0.08794615, -0.082228795, -0.017131375, -0.0038795697, -0.13384323, -0.09895613, -0.0065850434, 0.08468762, -0.18610415, -0.026666531, -0.012212657, -0.19105166, 0.07675145, -0.06068551, -0.19188118, -0.009548232, 0.0551494, 0.014967639, -0.071119696, -0.0523016, 0.060919322, -0.023630932, -0.048761174, -0.060218155, -0.015882587, -0.050904907, -0.08800644, -0.16985889, 0.026067898, 0.008664108, -0.0035822943, 0.15283512, 0.0403848, 0.058703706, 0.09501908, -0.19263603, 0.088245794, 0.08374165, -0.014842116, -0.05412913, 0.10033389, 0.1685154, 0.012360506, 0.107585, 0.0006736596, 0.029716065, 0.12164321, 0.10312005, 0.05826667, 0.12279349, -0.01487552, 0.010434866, 0.087260425, 0.09317859, -0.15688047, -0.012310612, -0.11255373, -0.09408275, -0.014205819, -0.06890842, 0.079280294, 0.10237057, -0.026325256, 0.0108692255, 0.11717646, 0.05153993, 0.026394008, -0.060707543, 0.00295985, -0.13592628, 0.04139189, 0.07012703, -0.029305074, -0.030022157, -0.08669453, 0.05551035, 0.047806103, -0.07348853, 0.00079728855, -0.06402838, 0.026481312, 0.099984914, 0.18073286, 0.11338947, 0.06920545, 0.079340704, -0.041397557, -0.0875727, -0.043352246, 0.110056356, 0.1763304, 0.025213514, 0.047069326, 0.14131494, 0.07168734, -0.06333435, -0.059352577, -0.040024206, -0.068850555, 0.11148766, 0.16129334, 0.17181726, -0.016005794, -0.02158932, -0.009687123, -0.043666635, -0.12930398, 0.16043591, 0.09318765, 0.049769673, 0.15144596, -0.026135067, -0.10739505, -0.099072, -0.08679975, -0.0016745651, -0.030266184, 0.038049232, -0.030745655, -0.115331486, -0.05095068, 0.13127062, -0.038381517, 0.09630771, 0.057905346, -0.013913324, -0.16062249, 0.08418837, -0.13721922, -0.019212175, -0.026799051, -0.012163088, -0.082931876, -0.054589443, 0.012380883, 0.05938692, -0.032066025, -0.06394241, 0.025185045, 0.14487262, 0.08599818, -0.050072286, 0.077125974, -0.071802415, 0.096567005, 0.06728467, -0.055225592, -0.048780944, -0.08268698, 0.07277316, 0.0064811674, 0.10276347, 0.051170576, 0.11175115, 0.061281722, 0.048648737, -0.09790937, 0.07144105, -0.01973156, -0.05482427, 0.0854141, -0.019108484, -0.09933957, 0.056235116, 0.074666984, 0.05534833, -0.07530288, 0.11869894, 0.0861657, 0.059124988, -0.08828122, 0.05021638, 0.09615368, 0.015908578, -0.0704399, -0.0026455761, -0.008642387, -0.039410826, 0.016644152, -0.09944853, -0.019037982, -0.041327927, -0.05310931, -0.052203197, -0.08111432, 0.041129623, -0.16683859, 0.102984115, 0.05051341, 0.04606482, -0.09321296, -0.022837138, -0.19178005, 0.17032318, 0.08907636, -0.13038, -0.05136754, 0.04826513, 0.004179085, 0.005979982, 0.05317988, 0.05243962, -0.043874945, -0.18959214, -0.11947861, 0.011049854, -0.14821965, -0.026371248, 0.08677398, 0.088799044, 0.1087405, 0.014177394, 0.11999914, 0.087732494, 0.018372744, -0.14225504, 0.077536985, -0.083409205, 0.11870774, -0.023625085, -0.052886482, -0.12389276, 0.051211946, -0.070770405, 0.009174319, -0.018852275, -0.07080485, 0.016434453, 0.04667696, -0.051357314, 0.074192055, 0.076222405, 0.11591575, -0.11085153, 0.021232676, -0.08934513, -0.023619084, -0.058558553, -0.02526894, 0.13098063, 0.12938124, 0.01370217, -0.0043719406, 0.17522769, 0.09859, -0.124393895, -0.1780855, 0.048603028, 0.030855536, 0.18464167, -0.029853394, 0.17256851, 0.017009981, 0.17869237, -0.02333453, 0.15820724, 0.14137119, -0.02478026, -0.024572983, -0.039803788, -0.05326393, -0.071492776, 0.1598006, 0.05048872, -0.1038493, -0.15461154, 0.028987512, 0.062430657, -0.10674653, 0.061730362, 0.042694498, 0.023137907, 0.0026002761, 0.112103485, -0.048357606, 0.02575631, 0.12482259, -0.022010474, -0.03548646, 0.0626461, 0.045145296, -0.19035369, 0.032101367, -0.08079103, 0.03940622, -0.09131103, -0.044693157, 0.0024315922, 0.0040164813, 0.08646135, 0.10257418, 0.15977064, -0.0039981403, 0.008500871, -0.10996007, -0.007934418, -0.19915457, 0.03361955, -0.020796424, 0.048629753, -0.08910652, 0.112926595, 0.10814103, 0.0015578101, -0.07765171, 0.06165948, 0.010540025, -0.073472, -0.074353166, -0.14766811, -0.02566011, 0.07232988, -0.03717159, 0.05896963, 0.114556536, 0.03820678, -0.039918266, -0.015335062, -0.052731667, 0.024309777, 0.039042346, 0.08045039, -0.05376739, -0.13134049, 0.21559826, 0.038199715, 0.096295215, 0.09758576, -0.11605636, -0.05347646, 0.006885878, -0.11190821, -0.03096719, -0.11295292, 0.021603338, -0.18461886, -0.06689172, -0.08483748, 0.027012024, -0.008322617, -0.14531942, 0.15783234, -0.029800579, -0.05514403, 0.026382284, 0.06685551, 0.15166189, 0.05620445, 0.017687524, 0.04293143, -0.10785714, -0.06000693, 0.051577296, 0.14758526, 0.032109383, 0.09542674, 0.1437836, -0.05471219, -0.07512155, -0.0026617441, -0.014259535, -0.0409804, 0.09587036, 0.10515955, -0.112767056, 0.09292017, 0.039413616, 0.0024294858, -0.013575643, 0.016793212, 0.12564497, -0.05141772, -0.04248434, 0.030437106, -0.0019003119, -0.18271066, 0.14949076, 0.01155285, 0.021850519, -0.12788959, -0.14971478, 0.07464843, -0.1476033, -0.035030086, -0.18714751, 0.07109823, 0.026804706, -0.11715644, 0.013381331, 0.058283057, 0.055169895, 0.1580712, 0.063684724, 0.04896383, -0.14724334, 0.014382901, -0.12794992, 0.037589032, 0.1701208, -0.10201, -0.00034894017, 0.057249833, 0.075088814, 0.12897216, -0.10677292, -0.10890623, -0.008886588, 0.0066549038, -0.18238433, -0.06595949, 0.047854774, -0.007836755, 0.0982623, 0.08643054, 0.14465702, 0.057872724, -0.04741132, 0.042053066, -0.10206545, -0.16942619, -0.12038018, 0.06449154, -0.08703148, -0.12313446, -0.13018696, -0.08739859, 0.023774372, -0.018796977, -0.021685801, 0.0031743967, -0.0379527, -0.011028642, -0.09561777, -0.13306992, -0.03408313, 0.047523588, 0.10915524, 0.108788736, 0.08207664, -0.116487324, -0.02076868, 0.10699334, 0.1111671, -0.097584575, 0.072029985, -0.12173574, -0.18419755, -0.0782403, 0.16798633, 0.19569102, -0.054541156, -0.033176295, 0.022711415, 0.07133826, -0.038385306, -0.006940287, -0.14874531, 0.06333353, 0.033855278, 0.10104481, 0.1272474, -0.1451957, 0.036373343, 0.11747915, 0.03851915, 0.16100977, -0.012049079, 0.011607955, 0.035505645, -0.033169314, 0.018445957, -0.059812155, 0.059784967, 0.0656471, -0.079951204, -0.08986825, -0.018020764, -0.11869219, 0.054339223, -0.015495882, -0.025899602, -0.008629867, 0.09926637, 0.030299762, 0.068702236, 0.017411208, 0.08159468, 0.025918813, 0.059423782, 0.0019518497, -0.123844296, -0.07632639, 0.013423164, -0.009555574, 0.03100944, -0.06068616, 0.15086621, 0.010893862, -0.04672744, -0.026521124, -0.10215884, 0.08283286, -0.039704446, -0.13080637, -0.012282556, -0.07537497, -0.03723778, 0.031708613, -0.03969154, -0.016121894, -0.045665506, 0.0058721127, 0.072800346, 0.038183294, 0.05893398, -0.0027876564, -0.11991445, -0.089957826, -0.11385168, 0.033830725, 0.04397148, 0.03231694, 0.12851386, -0.06738971, 0.060034, -0.15978286, 0.07617956, 0.010210996, 0.009190699, 0.029698128, -0.096098654, -0.15242329, -0.045317452, 0.07902385, 0.041728392, 0.059251465, -0.05332972, 0.009511203, 0.09403797, 0.058043763, 0.06714981, -0.068703964, -0.12713075, -0.116477706, 0.06964779, 0.14948508, -0.1636601, 0.16317339, 0.08783038, 0.047085844, -0.06609129, 0.032452874, 0.063833475, 0.1018356, -0.05576125, -0.12717155, 0.10084483, 0.11781804, -0.026756238, 0.12029078, 0.10776953, -0.17741984, 0.044223342, 0.04521234, 0.06692472, 0.0053106262, -0.0986673, -0.012422946, 0.01626714, 0.026651118, -0.08916089, 0.16693956, -0.04971216, 0.012129569, 0.11965513, 0.052841306, -0.03322642, 0.09090887, 0.0177564, 0.13628718, 0.013654084, 0.036862586, 0.029775938, 0.04287543, -0.103515565, -0.01921367, -0.00944253, 0.018869948, 0.10651923, -0.18367548, -0.030713746, 0.017689988, -0.13952719, -0.0005710421, -0.07845322, 0.054480273, 0.13616855, -0.13803266, -0.029220795, -0.015985906, -0.030010063, 0.09068489, 0.051222865, -0.14243649, -0.0201069, 0.060012497, 0.032451477, 0.07846034, -0.036600523, -0.020127654, 0.16482936, 0.008625818, -0.00040438934, 0.009095217, -0.095092386, -0.034339204, 0.106588766, 0.031199535, -0.022809962, -0.055992745, 0.12128941, -0.08920888, -0.053938966, -0.17141803, 0.12972835, 0.09711368, -0.059180163, -0.17157649, 0.039736792, 0.05664236, 0.18729138, 0.008613921, 0.054931268, 0.029740749, -0.04963144, 0.0119556775, 0.029962718, -0.006526619, 0.07156738, 0.013881192, -0.015055824, -0.011908102, 0.018015264, -0.111505546, 0.12141031, -0.062412027, 0.01537227, -0.033787582, -0.17128605, -0.057317626, -0.033341795, 0.13109778, -0.079124935, 0.18031543, 0.06894209, 0.00824192, -0.051117327, 0.13495883, -0.06815142, 0.10931296, 0.14427713, 0.049404986, 0.032812636, 0.009548806, 0.062293697, -0.007889924, -0.05397718, 0.04833711, 0.11255848, 0.13596207, -0.0024746577, 0.049565054, 0.123952106, 0.11272141, -0.10593294, -0.12751387, 0.11134922, -0.019972231, 0.059706055, 0.025810566, 0.11274241, -0.027618373, 0.05936392, 0.070308626, 0.0076480196, 0.012008816, 0.0002770462, -0.063278474, -0.03885729, 0.03913596, 0.12377433, 0.008916091, -0.15406878, 0.062253013, -0.03789183, -0.12078692, -0.05531775, -0.031088857, 0.13101931, -0.18912299, 0.016055804, 0.014275463, -0.083077036, 0.0015739324, 0.16753477, 0.094644345, -0.100557044, 0.10420577, -0.10428664, -0.07096547, -0.08394047, 0.049038753, -0.09036944, 0.027859267, -0.0648965, 0.068901956, 0.048714656, -0.016012866, 0.045606803, 0.10265748, 0.11184973, 0.1590993, -0.09946469, 0.07026768, 0.037328597, -0.15410633, 0.09998171, 0.10558657, 0.0022770667, -0.090674534, 0.024978485, -0.035319883, -0.1328395, 0.12129466, -0.041349616, -0.054186225, 0.014346683, -0.16394192, -0.070921384, -0.02694457, -0.017896438, 0.20475097, 0.0135557195, 0.00831887, -0.17238688, -0.05714971, 0.1442054, -0.026467305, 0.051928524, -0.043496277, -0.04580074, -0.044646278, 0.02177414, -0.1738431, -0.10091868, -0.09063195, 0.13846804, 0.009017097, -0.013775685, -0.059376653, -0.050627436, -0.13249166, -0.076045655, 0.049957205, -0.0014571936, 0.06256295, -0.023238668, -0.041188892, -0.08728893, 0.066811584, -0.043449294, 0.050223347, -0.15740037, -0.037909687, -0.09254925, 0.0833455, 0.025090136, 0.08312635, -0.03633705, -0.021843726, 0.14339277, -0.07095691, 0.095152065, 0.043483105, 0.03678805, -0.0119754365, 0.088754006, -0.016400253, -0.0756381, -0.1766119, 0.040860083, 0.1437495, -0.09629768, 0.09123665, 0.04524115, -0.009622435, 0.0007018925, 0.045529496, -0.11085982, -0.068579234, -0.08177838, -0.13619758, 0.06894372, -0.057381064, -0.13866132, -0.096655145, -0.13714387, -0.07232696, -0.11785146, -0.07849274, -0.038872298, -0.07122707, -0.025000552, -0.09032623, 0.17960414, -0.02053106, 0.041278522, -0.13673992, -0.048200853, -0.07122833, -0.019909322, 0.08025648, 0.15078099, -0.054333683, 0.044293832, 0.07242501, -0.08244398, 0.077990234, -0.013667774, -0.12306296, -0.08120168, 0.07939623, -0.04662483, -0.0031335282, 0.10130608, -0.028519189, -0.09886339, -0.0650956, -0.07305585, 0.017006328, 0.022735056, -0.17867793, 0.15936068, -0.16454118, 0.11524795, 0.13587143, -0.11129623, -0.021118132, 0.05300812, 0.084752075, -0.08866367, 0.06695122, -0.1809079, -0.16430683, 0.019644232, -0.010527175, 0.15063971, -0.07698607, -0.13767187, -0.018370153, -0.1533595, -0.053414356, -0.073743895, -0.09288405, -0.084214374, -0.14679419, 0.071328126, -0.0009373129, -0.053858697, -0.037295863, 0.067962214, 0.04577476, -0.032168154, -0.17783903, 0.05429, -0.07908885, -0.057131916, 0.022898797, 0.06557698, -0.0246004, 0.0859142, -0.00053905416, -0.05151732, 0.089234054, -0.0088003455, -0.053508587, -0.124637686, -0.17679493, -0.039240267, 0.055233944, -0.05351455, 0.14483619, 0.034175474, 0.037161056, -0.1828865, 0.12720521, -0.06312776, -0.10295871, 0.00903627, 0.057946507, 0.12277859, -0.0491989, -0.16447718, -0.018707866, 0.0483736, -0.037145168, 0.032895714, -0.10127668, -0.09794064, -0.03129343, 0.14440517, -0.1351417, -0.04073066, -0.053075004, 0.017132277, -0.002199619, -0.17257681, 0.022772137, 0.00200751, 0.011147407, -0.064060375, -0.09171531, 0.15285136, -0.11550684, 0.114613794, 0.18758282, 0.0078033907, 0.09530249, 0.1429327, -0.0071638953, 0.039368615, 0.0058486112, 0.06157716, 0.13185772, -0.029720716, 0.00785188, 0.015837064, 0.022382142, -0.15283127, 0.037597872, -0.024901679, -0.06164537, 0.021698104, 0.09808005, -0.014346519, 0.12436742, -0.0014156682, 0.005673419, 0.09957772, 0.13445841, -0.1338174, -0.0066169836, 0.0680516, -0.023268592, -0.09927068, -0.084166534, -0.07057601, -0.004972468, -0.118016645, -0.15826847, 0.026071623, -0.06323406, -0.18157193, 0.037060056, -0.078469194, 0.09272262, -0.12560405, -0.06765875, 0.1217015, -0.017409628, -0.09215024, 0.008473431, -0.027251203, -0.098214276, -0.036708027, -0.17967924, -0.027633198, -0.07834798, -0.030098082, 0.017542502, 0.032002818, 0.07920334, 0.15591334, -0.07259902, 0.19275463, -0.115375765, 0.047635794, 0.05304641, -0.029350389, 0.0012917524, 0.06988464, -0.13066396, -0.09476418, 0.01485179, 0.015377665, 0.0065796208, 0.017875483, -0.10482994, 0.023823082, 0.020121446, -0.0016008267, -0.06337708, -0.162177, -0.012566693, -0.18560857, 0.022019353, 0.11933577, 0.14654922, -0.17278655, -0.0649853, 0.02762505, -0.16946468, -0.12500624, -0.008493122, 0.025555005, 0.09469493, -0.10008574, 0.07907452, 0.029421112, -0.031948473, -0.055181213, 0.062041655, -0.019840527, 0.060592253, 0.10468411, -0.15608616, -0.1591587, -0.052682742, -0.042625096, 0.057370555, 0.13719042, 0.0054834685, -0.06952576, 0.091330506, -0.028259188, -0.07503519, 0.057040993, -0.000589195, 0.14605846, 0.118692845, 0.01369148, 0.06867824, 0.087277986, 0.056061417, 0.04961539, -0.1406268, -0.121309265, -0.13609819, -0.076722585, -0.04319125, 0.014826254, 0.08164299, 0.029390182, 0.06851722, 0.042530723, 0.13497517, -0.06384742, 0.025013262, 0.049310848, 0.017839242, -0.124473855, -0.04057293, -0.06660342, -0.04354344, 0.10900336, -0.076220706, 0.04412346, -0.027061107, 0.102877334, -0.051591154, -0.12717016, -0.05789977, -0.060210135, 0.16915709, -0.14216524, -0.11590541, 0.20301856, -0.09079152, 0.086999364, -0.09581658, -0.067880526, 0.094649315, -0.014898148, 0.10562447, -0.09037928, 0.07258816, 0.030962374, 0.10533655, 0.038823258, -0.08269588, -0.11692743, 0.08307945, 0.06863482, -0.035240732, 0.103878684, 0.1579095, -0.056453027, 0.18173178, -0.01158324, -0.046262044, -0.1219334, -0.037588477, -0.09177601, 0.08040326, -0.12816788, 0.09981232, 0.060150016, 0.12433848, -0.060072448, -0.0054832613, -0.04274497, -0.050797965, 0.16750899, -0.05249261, 0.020384861, 0.06012559, -0.023808416, -0.102062896, 0.031014798, -0.12598366, 0.11196649, 0.10291903, 0.039424982, -0.12650895, 0.08213471, -0.15707307, -0.018990763, 0.06260472, -0.08073803, -0.18405338, 0.083627544, -0.0019060773, 0.080421336, 0.022772664, 0.02464119, 0.074919835, 0.051203612, 0.13229236, -0.0027809346, -0.081588954, 0.006617941, -0.07898513, 0.013768256, 0.04844807, 0.16736266, -0.020042859, 0.06767451, -0.123151384, -0.036608297, 0.14397658, -0.055737484, -0.0547463, 0.12873241, 0.07339714, -0.09037778, 0.13046843, -0.05090835, -0.009806375, 0.113242045, -0.08984775, 0.13803832, 0.0066356957, 0.10492761, -0.010219649, 0.067844234, 0.009776059, 0.0403887, 0.11055253, 0.104160026, 0.18027028, -0.11677947, -0.008461309, -0.031192567, -0.13896985, -0.066827364, -0.04078088, -0.18020111, 0.07889546, 0.07800914, 0.031208066, -0.06991513, -0.03900559, 0.10489294, 0.09877342, 0.10506043, 0.18233581, 0.047702108, 0.03852461, -0.059690967, -0.13974667, 0.15145831, 0.11115884, -0.1273801, -0.05874414, -0.087775074, -0.15502535, 0.14302516, 0.011142619, -0.08499948, -0.11664113, 0.056280635, 0.011390786, -0.0529906, 0.15353869, -0.015732426, -0.042168688, -0.05741773, 0.089462824, 0.07192183, 0.12920877, 0.034894343, 0.094024114, 0.14040004, -0.05682752, -0.06690346, -0.058617752, -0.056214895, -0.014988688, -0.07460863, -0.006345185, -0.13220686, 0.1427825, 0.0047869077, 0.013525316, -0.14729805, -0.13100123, 0.06962442, -0.028232856, 0.05839368, 0.028226124, 0.020118503, -0.06625343, -0.0010210586, -0.1054762, 0.061877053, -0.06892438, 0.06291577, 0.09979475, 0.063702606, 0.13879003, -0.020887135, 0.14973107, -0.04616727, -0.11567046, 0.04911034, -0.031732764, -0.10758222, -0.08235269, 0.0201138, -0.077365786, -0.1883182, -0.01957198, 0.052178428, -0.014559853, -0.033044808, 0.097952284, 0.113836, 0.014548982, -0.12348622, 0.1342919, -0.1624043, 0.04017401, 0.050312124, 0.19686405, 0.1845549, 0.10543255, 0.019711142, -0.1006699, -0.061932284, -0.07406832, -0.031940784, 0.08344824, -0.07212506, 0.022311267, 0.015609534, -0.075733244, -0.15296096, -0.16657957, -0.049665187, -0.036152698, 0.0103916265, 0.13716026, -0.042143617, 0.06552477, 0.06736907, -0.000861964, 0.013691643, -0.15879901, -0.15495747, 0.08484804, -0.009127304, 0.06439547, -0.062279, 0.0055036894, -0.15793209, 0.045684494, -0.04157415, 0.11783926, -0.089832805, -0.09941877, 0.023352208, -0.17367901, -0.12215088, -0.0985597, 0.049927052, 0.03287601, 0.20604864, -0.12828982, -0.043580323, 0.033094842, -0.18070783, 0.056582935, 0.04761592, -0.027177574, -0.049350303, -0.18645462, -0.033862833, 0.018196698, -0.020824654, -0.11611899, -0.04744142, -0.07694596, 0.18487667, 0.12890247, 0.10061302, -0.007816093, -0.03825524, 0.0641546, 0.17876574, 0.00060592056, 0.06392059, -0.08615961, -0.08413491, 0.17925659, 0.029975722, 0.03400856, 0.048063554, 0.0878589, -0.10045588, 0.014934827, 0.1373596, -0.059073582, 0.062351927, -0.09687779, -0.035062667, -0.017768437, -0.050554913, -0.05074854, 0.06293914, -0.102466896, 0.021022467, 0.047316924, 0.16630332, 0.053102694, 0.096508004, -0.13709246, 0.018873647, 0.040338032, 0.026853072, -0.061681993, -0.011963994, 0.039934635, 0.07109903, -0.008821239, 0.085544184, 0.057843957, 0.09934424, 0.06475283, 0.046130605, -0.017326454, -0.116808824, 0.024271425, 0.055782717, -0.02383414, 0.13671724, 0.05342456, -0.15188566, 0.057857092, 0.107745156, 0.049170177, 0.089677185, -0.028254535, 0.08767677, 0.03611861, -0.10819365, -0.16056167, -0.05670165, 0.11230625, -0.06399335, 0.1578939, 0.10686103, 0.073574685, -0.0314928, 0.039051823, -0.11176075, 0.050877538, 0.0027462405, -0.14283052, 0.084873095, -0.062741585, -0.1106372, -0.062390666, -0.084181115, 0.066284396, 0.07739775, 0.025297359, -0.12967771, 0.047681656, -0.077559605, 0.08843963, 0.08483293, -0.11562005, 0.12263719, -0.028607486, -0.07786646, -0.017848516, -0.18558043, 0.033493336, 0.06945666, -0.028487228, -0.009417495, 0.13130376, -0.09754939, -0.04654399, 0.012060822, -0.16117735, -0.024046747, 0.013802245, -0.024079762, -0.06875782, 0.034176636, 0.15754975, 0.14558795, 0.038541954, 0.0783947, 0.017335938, -0.07875117, -0.1142337, -0.10036354, -0.1795802, 0.14224187, -0.0052594296, 0.10281015, -0.06920891, 0.11030546, -0.049278375, 0.05814885, -0.10602363, 0.011259653, 0.09029194, 0.09983781, -0.0028240632, -0.12759557, -0.07939924, -0.039542496, 0.07538346, -0.07417288, -0.07836012, -0.001754502, 0.0013997292, -0.017933197, 0.009572341, 0.12628919, -0.023113152, 0.07735441, -0.017001688, 0.06110424, -0.02905346, -0.010276625, 0.040793363, -0.14189537, -0.060540814, 0.053449288, -0.04297441, -0.001305665, 0.04233876, 0.033251006, 0.099414214, 0.04284541, 0.021506568, -0.0050565316, 0.1590117, -0.06571788, 0.15441722, -0.086720824, 0.053084496, -0.133439, -0.12414975, -0.061884627, 0.08217747, 0.09973459, -0.12416416, 0.08309341, -0.09736085, -0.16980255, -0.020381775, 0.091297835, -0.035065535, -0.122422434, -0.12777604, -0.15872444, -0.1576138, -0.07478208, -0.058332913, 0.21416374, -0.12359046, -0.016509445, 0.00925086, 0.10277681, -0.07433354, 0.07383646, 0.0072038695, -0.0770616, 0.06033675, -0.093885414, 0.05787706, 0.0061618863, -0.09580606, 0.025982333, -0.07643596, 0.08176025, -0.056998756, -0.07366741, -0.0853638, 0.051974792, -0.06304337, 0.013129279, 0.035527233, 0.027252296, 0.12856117, 0.066621706, -0.06217222, -0.18548888, 0.047206696, -0.004601733, 0.03293291, 0.13698685, 0.0066086133, -0.029488273, -0.14640974, -0.044564586, -0.070316665, 0.077936314, -0.058610134, 0.042446125, -0.03933632, 0.040263016, -0.13250329, -0.01636272, -0.08557989, -0.05194962, 0.16193536, 0.06497031, 0.065718964, -0.1626587, 0.14490739, -0.034026798, 0.00051367504, -0.078118116, -0.10882092, 0.086050674, 0.0029274644, 0.051400527, -0.01971766, -0.0054807914, -0.046441723, -0.13573043, -0.051862027, 0.0417645, 0.14794327, -0.066840604, 0.060143992, 0.097666994, 0.011737657, 0.043546323, -0.018097812, 0.10974819, 0.15293497, 0.10102962, 0.14084476, -0.06357304, -0.021938039, -0.016148034, 0.016800819, -0.004080027, -0.18041822, -0.08197966, 0.03295902, -0.1740622, 0.028647086, 0.01116179, -0.014440601, -0.09854066, 0.06799778, -0.036356546, -0.12891178, 0.03483357, -0.010413131, 0.103307486, 0.073159836, -0.15050992, -0.0030315309, 0.036163036, 0.11360616, -0.04931738, 0.008068363, -0.050749853, 0.016751219, 0.0050056144, 0.058497157, -0.10716945, 0.20026952, -0.02087812, 0.022746198, 0.08633975, 0.015195913, -0.080127575, -0.06739469, 0.14097272, 0.08367435, -0.19779816, -0.083645545, -0.016452951, -0.14876932, 0.05086746, 0.081795685, -0.019626359, -0.06452579, 0.010404098, -0.036445785, 0.0106755495, 0.09949424, 0.058644347, 0.09611686, 0.09119134, 0.0015385255, -0.12583975, 0.17881632, 0.10053601, 0.071674585, -0.065301694, -0.00046412967, 0.009403622, 0.047291122, 0.2037271, -0.0949107, 0.01487071, 0.07353543, -0.072737776, -0.1932942, 0.05298109, 0.12762018, 0.12496761, -0.048610132, -0.018922579, -0.010183319, -0.0021719506, 0.026638087, 0.017767964, 0.0057499423, 0.15357591, -0.005185497, -0.018594611, -0.041293312, -0.004569093, -0.099831566, 0.050696585, 0.13479838, 0.060727216, -0.12753105, 0.09637031, 0.021728298, -0.17044011, 0.008270441, 0.13279355, 0.010133535, -0.17251906, -0.03888475, 0.10990765, -0.01978476, -0.09790612, -0.10384263, 0.0039027762, 0.03520797, 0.025997477, 0.1094853, -0.07295636, 0.0578927, -0.1707705, -0.091643035, -0.03699805, -0.18048453, 0.1177205, -0.099701874, 0.031527907, -0.11858695, -0.13714185, -0.042455643, -0.13486382, -0.01877889, -0.12908003, -0.02775857, -0.15950237, 0.04710965, 0.00033608676, 0.10119696, -0.11031384, -0.10892009, -0.10629338, 0.053043585, 0.078122504, 0.04506411, 0.07204212, 0.118531406, -0.026523758, 0.033199187, 0.11251359, -0.02682431, 0.009347137, -0.08172842, 0.08026342, -0.09330356, 0.060800996, -0.046177544, -0.031543043, -0.1646308, -0.021070026, 0.16525309, 0.06767814, 0.19213264, -0.03474546, -0.13530742, 0.07100345, 0.16062649, 0.01666578, 0.062294777, 0.094288625, -0.06508, 0.0044933525, 0.04063327, 0.15030943, 0.06375186, -0.035011318, -0.113213055, -0.122227356, 0.0134347705, 0.07913894, 0.059176296, 0.038859766, 0.10499729, 0.014154103, 0.08006291, 0.009734701, 0.13163652, 0.06737562, -0.061576214, 0.021917567, -0.036550175, 0.040628277, 0.09438466, 0.038992964, -0.07032408, 0.001059565, 0.061841443, 0.009435277, -0.0064119594, 0.0015022533, 0.09818452, 0.07271748, 0.14468871, -0.10989075, -0.02497898, -0.07215875, 0.0803469, 0.16303204, -0.15358457, 0.034200147, 0.069889575, 0.015002186, -0.18835942, 0.12175255, -0.1173943, -0.12209161, 0.10952306, -0.057433955, 0.11810335, -0.05984512, -0.07771975, -0.04658458, 0.066266835, 0.059478622, -0.039718963, 0.13612024, 0.061761986, -0.0121102715, -0.04098709, 0.015786149, -0.030361583, -0.017915117, -0.06780952, -0.18424718, -0.020245451, 0.111009344, -0.05874192, 0.0526885, -0.09539832, 0.04498403, -0.03589764, -0.20238897, 0.025316237, 0.01848259, 0.10716255, -0.10454917, 0.00096463435, -0.12080556, -0.052039325, 0.024082823, 0.14777228, 0.06749544, 0.03986325, -0.12196135, -0.06376073, 0.16118768, -0.042868227, -0.07861267, 0.051961612, 0.013110882, 0.14057022, -0.027486714, 0.043477233, -0.024537228, 0.03487943, 0.10210818, -0.09241373, -0.026212187, -0.05757817, 0.063081674, -0.038649414, 0.0067177853, -0.1710515, -0.0027994409, -0.06311577, 0.055162374, 0.10444422, -0.054437842, -0.111164704, -0.075992316, 0.008209325, 0.12506224, 0.14137062, 0.008104562, 0.106318206, -0.0133302035, 0.0008326367, 0.08664634, 0.124740504, 0.14981206, 0.1485878, 0.13007829, 0.12118121, -0.011596656, 0.00892713, 0.10151477, 0.03439119, -0.15582883, -0.035938315, -0.006200519, -0.16269255, 0.0488861, -0.008355324, -0.19380142, 0.07164001, 0.07833519, 0.007589562, -0.036349, 0.051244985, 0.020042965, -0.046968028, -0.09039959, -0.045269508, -0.035075784, 0.01480903, 0.04611139, 0.059740644, -0.02667228, 0.01391221, 0.15754329, -0.02219741, 0.10240521, -0.0061613624, -0.18159175, 0.055560518, 0.059311006, -0.020751197, 0.017221235, -0.09760445, -0.003744297, 0.1192793, -0.09756693, -0.00058368867, -0.0037806176, -0.025084116, 0.019190162, -0.04042368, -0.19112934, 0.0077615166, 0.15620007, 0.09564555, -0.081327654, 0.06635956, 0.10736419, 0.15579754, 0.1503104, -0.046455484, 0.18827955, -0.16502616, -0.087244585, 0.008057683, -0.16308933, -0.0054009287, -0.09244487, 0.1199012, 0.01742651, -0.009982379, -0.1011212, -0.038640905, -0.0414353, -0.104087144, 0.14632684, -0.08531658, -0.0837378, -0.08822677, -0.06303708, 0.1965796, 0.010844161, -0.04716916, -0.18347934, -0.0014736032, 0.0008125997, 0.03546189, -0.1139169, 0.13624306, -0.120882735, 0.09110139, -0.11390904, 0.09387105, -0.039343998, 0.005910995, -0.1749477, 0.041507225, -0.083801284, -0.03129054, -0.05889885, 0.09309047, -0.06211219, 0.016570987, -0.078169666, 0.015196061, 0.07122514, -0.047985427, -0.062209018, -0.18882908, -0.102788, -0.085270666, 0.14562517, 0.010953616, 0.10129334, -0.049130633, 0.028951356, 0.06143868, -0.06433627, 0.0053076004, 0.050888088, 0.058344003, -0.0024633398, -0.021671666, 0.010978502, 0.054490358, -0.023768278, 0.055348415, 0.02532679, 0.022222836, 0.045376774, -0.1734792, -0.09195787, 0.01976298, -0.17566808, 0.15645374, 0.032958955, 0.026931472, 0.008743039, -0.0050070914, 0.12600046, 0.062401496, 0.09830958, 0.058208305, -0.035015333, -0.11753237, 0.112010576, -0.027776988, 0.003392058, 0.04658037, -0.073966965, -0.058247767, 0.047832824, -0.13379316, 0.017801225, 0.028585743, -0.040472005, 0.16428559, -0.15098378, 0.059141662, -0.144226, 0.012117392, -0.15886746, 0.088256046, -0.12337639, -0.075995326, 0.16518897, -0.12359769, -0.018496864, -0.126631, -0.018830206, -0.095568866, 0.14366063, -0.031105112, -0.1500448, -0.036605686, 0.031390555, -0.057850294, -0.015658414, 0.04235153, 0.009232161, 0.0046763397, -0.18568976, -0.13303229, -0.17250478, 0.10631058, -0.119366206, -0.11571816, 0.036870714, -0.013052686, 0.03909055, 0.078472935, 0.025935836, 0.13698786, -0.121533744, 0.115137845, -0.06115934, 0.019447697, -0.057686158, -0.06369376, -0.022737423, 0.017826255, 0.07974957, -0.17150949, -0.036761157, -0.09338672, 0.11107254, 0.010103222, -0.011076025, -0.018172372, -0.067718446, 0.057476625, -0.16471623, -0.11519729, -0.103050396, 0.12512134, -0.05019318, 0.122505605, 0.058403086, 0.071887724, -0.02159032, -0.019047856, -0.10478935, 0.01900427, -0.01796575, -0.105423786, 0.17604049, -0.055978145, -0.055114593, 0.0055790255, 0.06197765, -0.09065659, 0.09496263, -0.14695667, 0.09750156, -0.10369503, 0.035244398, -0.03790687, -0.006103408, -0.0071407715, 0.034639794, -0.04992039, -0.009479317, -0.06428138, -0.15098266, -0.08944364, -0.040281955, -0.09554279, -0.096802026, -0.13349165, -0.114157826, 0.124830574, 0.007398766, 0.13080783, -0.20189843, 0.05109455, -0.045682658, -0.1071144, -0.07251491, -0.027970366, 0.049646076, -0.008100031, -0.016227301, -0.13071308, -0.04259543, -0.005153684, 0.11481549, -0.08816949, 0.082041904, -0.113223545, -0.08428223, -0.13356309, 0.06871101, -0.01373288, -0.04396243, 0.025680706, -0.02854332, -0.15766947, -0.01779626, -0.039222114, 0.14324048, 0.11272505, -0.050883587, 0.13796169, -0.01010558, -0.07950678, 0.04712778, -0.039703634, -0.13672817, 0.081570245, -0.01618466, -0.10333158, -0.07585824, 0.031963885, 0.12536357, 0.106601626, 0.06978559, -0.067264184, -0.054345496, -0.17701477, 0.0097726025, -0.0912393, -0.20606312, -0.15708476, 0.16159433, -0.06059768, 0.06934772, -0.03555322, 0.15451221, 0.1647432, -0.0069263494, 0.0016814452, 0.02994675, 0.065112054, 0.07229289, 0.13873631, -0.08945366, 0.03889125, 0.12783547, 0.18720008, -0.17036988, -0.04664203, -0.00940777, 0.011760416, -0.0009898999, -0.13966015, 0.04996823, -0.050100643, -0.0028304087, -0.08552073, 0.034249924, -0.13471004, -0.042067863, 0.044472143, -0.016920187, -0.03503776, -0.10640634, 0.020878263, 0.061035927, -0.027184473, 0.028359335, 0.15532044, 0.025278457, 0.011757722, -0.08234109, -0.056981344, 0.13323244, -0.021549642, -0.00086943427, 0.039840203, -0.08765014, 0.028828332, 0.06680104, 0.027163753, -0.019588938, 0.17712595, -0.14749952, 0.08611753, -0.01874477, -0.14192475, -0.031841137, -0.12131955, -0.046459407, 0.1072374, -0.16671768, -0.07692144, 0.13244842, -0.07677907, 0.08425794, 0.05314944, -0.089401804, 0.1227632, -0.05724446, -0.14781074, -0.07834805, 0.028418161, -0.045108065, -0.08470475, -0.12756519, 0.0017638397, -0.057787683, -0.101949394, -0.0125222355, -0.031059917, 0.03050077, 0.058622725, -0.091119945, -0.05630633, 0.11495589, 0.043920938, -0.16841426, -0.0053095864, 0.005892593, 0.18026984, -0.1038104, -0.030555433, -0.053381406, 0.039992556, -0.037359055, -0.1672183, -0.04371223, -0.035895966, 0.10295442, -0.050250184, -0.106676646, 0.074027896, -0.07368749, -0.102742285, -0.054111853, -0.10227048, -0.0022821717, -0.11733034, -0.03836004, -0.00944087, 0.072477125, -0.012995211, 0.01059608, 0.005575187, 0.047220193, -0.041746408, 0.004487907, -0.12664431, 0.11233431, -0.13316786, -0.10483011, -0.021776058, -0.019052176, 0.001090469, -0.05714201, 0.059622653, 0.039811324, 0.098056525, -0.0061564217, -0.02315796, 0.026986795, 0.10130286, 0.08082299, -0.113140374, -0.0058601797, -0.09518328, -0.02549513, -0.07919345, 0.18335699, -0.06255972, -0.1201831, -0.09521749, 0.155786, 0.05953982, -0.04637937, -0.07587329, 0.060879137, 0.023596188, 0.025952676, 0.024213133, -0.0012978854, 0.1345993, 0.06533821, -0.098888576, -0.08179024, -0.082584, 0.00068986753, -0.037191797, 0.0751016, 0.110254906, -0.030113902, -0.08801991, -0.19800362, 0.110812664, -0.03375788, -0.083895676, -0.028515792, -0.038509715, 0.085058816, 0.16069794, -0.024239078, -0.16105019, -0.044211682, 0.14556298, -0.10844443, 0.026934294, 0.111349195, -0.09157117, 0.0029748108, -0.042463038, 0.18439512, -0.0706732, -0.19539207, 0.09702109, 0.00076787255, 0.07573289, -0.05096056, 0.008454978, 0.032103613, -0.17888838, 0.13273244, -0.16234486, -0.051351953, 0.054667335, -0.021875115, 0.05569906, -0.029738002, 0.18894447, 0.043287076, 0.077567875, -0.10400557, -0.046870418, -0.01781415, -0.059705164, 0.13063596, -0.0007785977, 0.031467546, 0.021877509, -0.07388821, -0.02443012, 0.032039125, 0.05595432, -0.033240937, 0.17265205, 0.18289144, -0.044203028, -0.12060116, -0.07240059, 0.12914136, 0.04659932, -0.10688678, 0.061934423, 0.058460753, -0.06255553, 0.011453976, 0.040531516, -0.0012138241, 0.024586271, -0.13514751, -0.0061366595, 0.08905466, 0.064195566, -0.068566106, 0.062359914, -0.051636837, -0.07703283, 0.048941113, 0.032133725, 0.038352672, 0.064742886, 0.1445815, -0.022242391, -0.13781306, 0.00780143, 0.070616506, 0.18824628, -0.034453407, -0.025637148, 0.112241544, 0.051786065, -0.17193599, 0.076206595, 0.04350259, 0.04106083, -0.020662604, -0.12537324, 0.055606566, -0.13911551, -0.14663795, -0.095891714, 0.09352993, 0.071050115, 0.060787994, 0.024770759, -0.062581815, 0.0688081, -0.0052996795, -0.08580367, 0.073079206, 0.16001503, -0.10146008, -0.0896625, 0.013724175, -0.07646435, 0.05673567, -0.12538208, 0.08483574, 0.19856317, 0.10490654, 0.088378236, -0.010755234, 0.026096221, 0.025866007, -0.12214046, -0.08054576, -0.1772653, 0.10835322, -0.055359125, 0.059648614, 0.15332828, 0.01729665, -0.048077792, -0.057834137, -0.061386213, 0.12711425, -0.034563467, -0.043784764, 0.13382229, -0.11662337, -0.16938455, -0.10329571, -0.01613711, 0.00915098, 0.02414211, -0.08516788, 0.0914327, 0.00612771, 0.092087224, 0.069233805, -0.021233167, 0.03863322, -0.04463144, -0.08415703, 0.022876242, 0.029768733, 0.015494251, 0.08080591, -0.01960324, 0.0739295, -0.07058898, -0.0010694725, -0.0029467654, 0.03327763, -0.20638092, -0.0037723708, -0.045721613, -0.18901539, -0.0958929, 0.01972245, -0.0487426, 0.06614834, 0.06657661, -0.031988967, -0.16686888, -0.0003057986, 0.116327, 0.1794729, 0.09686024, 0.06166063, 0.10394623, 0.028690783, -0.01852109, -0.113666914, 0.06740214, -0.049407784, 0.07417282, -0.13784482, 0.10323665, 0.08339145, -0.083082534, 0.02371523, -0.07027153, 0.025611727, -0.08286052, -0.04141938, -0.0149568785, 0.10603944, -0.17148878, -0.1362533, -0.15592837, -0.000514999, -0.20552364, -0.073329054, -0.043382455, -0.056939088, 0.030670837, -0.0127009945, -0.06259391, -0.035477776, 0.030002693, 0.035439122, -0.15834361, -0.039212137, -0.0013002732, -0.04129656, -0.06454881, -0.17334683, -0.12902975, 0.04189596, 0.021556387, 0.010211882, -0.042308852, 0.049581088, -0.014377887, -0.03135132, 0.037404176, -0.06748975, -0.06986676, -0.044256583, 0.025498768, -0.13706788, -0.14209299, 0.10698253, 0.064327754, -0.03089056, 0.04357568, 0.07489419, 0.14603214, -0.18542138, -0.0053240014, 0.16847126, -0.045277897, -0.03421441, 0.12501359, -0.153321, 0.096741825, 0.15283486, 0.016221339, 0.11911036, 0.058001272, 0.11058511, -0.18768632, -0.013243396, -0.089087225, -0.011271169, 0.026054636, 0.103252396, 0.16766977, -0.030138424, -0.033717304, 0.10448175, 0.1513222, -0.17770597, 0.18197733, 0.04494065, -0.057437938, 0.13169026, 0.036182217, -0.018392406, 0.04997608, 0.10760478, 0.07660896, 0.045726426, 0.0029860174, -0.04697407, -0.2102218, 0.03986501, 0.07767299, 0.0046697375, -0.06340405, 0.09907599, 0.032312702, 0.06687009, -0.10120296, -0.1205747, -0.0023356904, 0.15301318, -0.120479286, -0.18307841, 0.050122734, 0.016286267, 0.17188552, -0.02767259, 0.058554262, 0.10846116, 0.12929174, -0.028792834, -0.13810433, -0.066589475, -0.104257785, -0.015393536, -0.013295526, -0.077431366, -0.057975393, -0.13830833, 0.015142829, 0.13121992, 0.13442947, -0.054895937, 0.17491435, -0.113206215, -0.12551135, 0.026322111, 0.11985582, 0.05537398, 0.13271287, -0.052015636, -0.03368478, -0.0623808, -0.106172174, 0.016695846, -0.1595022, -0.04823993, 0.011242051, -0.06264173, -0.19768777, -0.101801835, -0.15468736, 0.013946134, -0.066105425, 0.021157974, 0.13508803, 0.1269388, -0.055306595, -0.16767189, -0.076406546, -0.16880317, 0.029465294, -0.06175973, 0.06611775, -0.11284098, 0.04715176, 0.11220527, 0.02919797, -0.0783334, 0.0838286, 0.057018705, -0.038430728, -0.15745072, -0.096159145, -0.13060144, -0.0077478536, -0.07881033, 0.09149729, 0.012077628, -0.0026732646, 0.009681116, -0.036441773, 0.018872807, -0.18061712, -0.10324831, -0.013168193, -0.01695952, -0.028140225, -0.09960702, -0.016600298, 0.065874636, -0.09045898, 0.017377304, -0.09473897, -0.061176516, 0.042345036, 0.16836374, -0.08498594, 0.007944307, -0.063595794, -0.031664286, -0.0010812265, -0.06705794, 0.0025057502, -0.034039572, 0.11012513, -0.004168805, 0.00048368284, -0.1496262, -0.0074215233, 0.07850247, 0.051576518, -0.011516411, -0.11899487, -0.09377847, 0.1577174, -0.05854869, 0.04765251, 0.041794267, 0.025418498, -0.008524996, 0.0939834, 0.13285844, 0.10139042, -0.064832106, -0.03708974, 0.007986514, -0.05161853, 0.08889129, -0.11535533, 0.049042184, -0.04996316, 0.02018589, 0.09393404, -0.026144473, 0.020353181, -0.10382176, -0.1200193, -0.06972864, -0.08399945, 0.0051815724, 0.016794026, -0.16760826, -0.045748558, -0.017091986, 0.0567723, 0.061926953, -0.034047462, 0.043641157, 0.06424786, -0.035118617, 0.1075613, -0.07819765, 0.008415946, -0.058354188, -0.029635847, -0.00876308, 0.00126325, -0.08712148, 0.104131274, -0.04725438, 0.072295, -0.015336904, 0.020980347, 0.06365806, -0.029906759, 0.0033591948, -0.097089835, 0.10632967, -0.16605547, 0.046909057, 0.12004614, 0.0036597743, 0.06557684, 0.070499524, 0.040199813, -0.088872485, -0.17875953, -0.03534257, 0.0117306365, -0.02787499, -0.18477504, -0.06538256, 0.13262357, 0.19032139, -0.07812352, 0.026326932, -0.06933974, -0.111651905, 0.030647086, -0.03355282, 0.14903311, 0.09526363, 0.020510178, -0.02433555, -0.07964673, -0.081366375, 0.098451704, -0.076083064, 0.015193944, -0.03236911, -0.099383876, -0.034199867, -0.15569235, -0.06379433, 0.07846708, -0.008182801, 0.08014401, -0.06638265, 0.027249385, -0.016759269, 0.18357885, -0.02435742, 0.14867516, 0.10003899, -0.048222937, -0.12508199, -0.06040645, 0.176766, -0.08985589, -0.068732366, 0.034661952, -0.05050692, -0.00029619597, 0.003943712, -0.019890513, -0.11988461, -0.06621681, 0.08430458, 0.014636871, 0.024246708, -0.0059318445, -0.06926506, 0.07043175, -0.16358931, 0.06256587, -0.10367439, -0.03090697, 0.09268029, 0.09562331, 0.051736005, 0.10170853, -0.017379379, -0.12145387, -0.048404496, -0.13404256, 0.016336769, -0.07848463, 0.13159259, -0.024984047, 0.016280916, -0.015358252, -0.13281232, -0.036768816, 0.02542891, 0.153273, -0.0884273, -0.0067600035, -0.11439458, 0.013221965, -0.046086587, -0.057834383, -0.086636275, -0.08864625, 0.006915761, 0.031153437, -0.13400243, -0.09742527, -0.06321944, -0.17198801, 0.0013639124, 0.07799308, -0.030729758, -0.15106885, 0.05865252, 0.16828285, -0.13902512, -0.03813792, -0.06097202, -0.11876541, 0.050377756, -0.06814675, -0.02113542, -0.068466, 0.06392879, 0.061676595, -0.20277016, 0.13034925, 0.003776683, -0.18031088, 0.06816059, -0.08665, -0.012024585, -0.009752993, 0.13540938, -0.099690214, -0.019959215, -0.0916494, 0.12217256, 0.10125315, 0.10857773, 0.025546562, -0.0014376183, 0.044028357, 0.027480748, -0.11356073, -0.11772904, -0.06303851, -0.010068905, -0.014016622, -0.08121914, 0.098416984, -0.17305392, 0.10704654, -0.0028276038, -0.04988231, 0.11926268, -0.1060829, -0.11895738, -0.10929705, 0.0017827805, -0.0044588335, -0.11438052, 0.04222844, 0.010187394, 0.031226508, -0.04888557, 0.03224426, -0.18508032, -0.12713452, 0.1861273, -0.14882757, -0.07992135, -0.04879803, -0.05726705, 0.14813979, 0.15291327, 0.062111855, -0.076947525, -0.06940796, -0.04941188, -0.06567074, 0.13483304, -0.074261256, 0.029829169, -0.005320171, -0.08306963, 0.056016542, 0.026650442, -0.14679703, -0.13975269, 0.024854416, -0.0379605, -0.15154831, 0.0794281, 0.10756946, -0.181052, -0.048526656, -0.04504598, 0.014712523, 0.022343947, 0.022101965, -0.039149225, -0.03428968, 0.0864925, 0.06591769, 0.008863665, -0.12394245, -0.08728926, -0.05174981, -0.10594929, 0.017676542, -0.033010677, -0.004764617, -0.15555726, -0.025148546, -0.14857715, -0.09144196, -0.124129035, 0.023120133, -0.0355169, 0.055456348, -0.11733531, 0.030655844, 0.10610674, 0.044646777, -0.19399422, 0.06960842, -0.11969134, 0.009820031, -0.1696332, -0.023072166, -0.0093014175, 0.08901083, -7.296265e-05, 0.088436514, 0.1598771, 0.034143224, 0.10212421, -0.15287942, 0.107866846, 0.022315402, -0.09231119, -0.026186474, 0.02706048, -0.053341962, 0.115711495, 0.013098567, -0.027742056, -0.09290718, 0.08124116, 0.06748095, -0.11647974, -0.021884613, 0.022422278, -0.09984542, 0.0136553, -0.09728913, -0.12700844, -0.037875053, 0.13233614, 0.14964645, 0.007768584, -0.056482024, -0.026273713, -0.06622672, 0.1849814, 0.007374055, 0.065769546, 0.02430357, 0.12603334, 0.10064351, 0.10602578, 0.11008464, 0.16725942, 0.18221538, -0.06556992, 0.08677411, 0.061048582, -0.10092379, -0.11749121, 0.091424674, -0.0033362976, 0.0200343, 0.036618385, 0.03430374, -0.009939398, -0.11078515, -0.091076136, -0.18392485, -0.1546624, 0.00034267793, 0.012199313, -0.06932537, 0.1439362, 0.003059536, 0.18271823, 0.09182398, -0.10588513, -0.039422136, 0.09244772, -0.108605035, 0.038534228, -0.058256824, -0.013152476, -0.028406922, -0.114550635, 0.11237666, 0.12186596, -0.030794043, -0.1624202, 0.09766655, -0.12147239, -0.046147205, -0.12842323, -0.06526286, 0.07530662, 0.074237525, 0.0069485484, 0.122101046, -0.0830438, 0.07657052, -0.044871077, -0.016434066, 0.006068815, 0.09326703, -0.021275723, 0.108963504, -0.02269041, 0.092311874, 0.10651539, -0.13879445, 0.04881256, -0.0979616, -0.01873904, 0.07277114, 0.15183999, -0.044283353, -0.078419864, -0.1335649, 0.0934454, 0.10083412, -0.13121186, 0.024829088, 0.04902806, 0.023954406, 0.07775967, 0.031894073, -0.034286093, 0.01952856, 0.014552199, 0.031016685, -0.08015907, 0.023449259, 0.03333819, 0.15455632, -0.19395457, -0.064016625, 0.014531584, 0.05716291, -0.015623182, -0.11011748, 0.0069764336, -0.05025713, -0.14102447, -0.06784229, 0.06105744, -0.031375967, -0.1739188, 0.14778294, -0.09776282, 0.03177852, -0.15024072, 0.00076544064, -0.0048915646, 0.11298559, 0.02363645, -0.073017955, 0.14090846, 0.09991421, -0.18994445, 0.088067465, 0.09429728, 0.030614873, -0.08183092, 0.04027001, 0.13178883, -0.00010373229, -0.00016084473, -0.062623024, 0.017954955, 0.06807685, 0.06854345, 0.043984804, 0.09445143, -0.031347815, -0.08058641, 0.020140568, -0.0014005973, 0.050535493, -0.017326329, -0.05242314, 0.05361837, -0.012550516, 0.075634584, -0.105208434, -0.111050226, -0.040663436, -0.012165387, 0.12835892, -0.18708575, 0.08270133, 0.088688344, 0.051890194, -0.06999955, -0.16365607, 0.09975985, -0.09441413, -0.10528446, -0.17311254, -0.0051808776, 0.09190212, 0.08251478, 0.07593871, -0.041516718, -0.05980707, 0.0022481962, -0.012277521, -0.07309918, 0.060325414, -0.121920004, -0.02523786, -0.07211019, 0.061241355, -0.087662965, -0.03528512, 0.12793067, -0.15380353, -0.08424131, -0.08383268, 0.14196652, -0.062353365, -0.14660197, -0.017318387, 0.036797658, -0.054289393, 0.092000134, 0.042270686, -0.057320215, 0.020952025, -0.02980098, 0.06373777, 0.05190359, 0.019100929, -0.022389391, -0.06641963, 0.05856462, 0.1434364, 0.19253752, 0.07883582, -0.0025425744, 0.044525363, -0.06590279, 0.07648072, 0.008129835, -0.11217675, -0.03156167, -0.1571684, -0.005457678, -0.13713282, 0.03293912, 0.049385224, -0.11522853, -0.15876356, -0.02731887, 0.0908491, -0.087971, 0.077997714, 0.12670691, 0.020284083, -0.05806519, 0.029313078, 0.016975444, -0.013283479, -0.16022043, -0.025517356, -0.03500442, 0.030107565, 0.0415813, -0.13660991, 0.13940422, 0.08670647, 0.13688599, 0.10537297, -0.030916858, -0.04567041, 0.106683075, 0.007183702, 0.020223076, 0.024300111, -0.10705319, 0.026244609, 0.07738767, -0.032182466, -0.028601702, 0.027663127, -0.023006625, 0.114267446, -0.0030801573, -0.004820785, 0.15109323, -0.05677195, -0.02481562, 0.14937544, 0.06003385, -0.037940316, -0.076935165, 0.035957064, 0.077405185, -0.12560952, 0.10787519, 0.12346858, -0.076639354, 0.07335355, -0.04707462, 0.0474483, -0.009828716, -0.09398519, 0.12238176, 0.19550061, -0.0049906997, 0.040714506, 0.10078524, 0.11407843, -0.02767975, -0.12264321, -0.14742935, -0.08168202, -0.06426293, -0.07896971, -0.04998193, -0.11681632, -0.0319493, 0.07213148, 0.004900621, 0.10238438, 0.07056998, -0.011738492, 0.056635898, 0.054796062, -0.021793196, 0.040114768, -0.047022924, -0.16560015, -0.0251604, -0.11722031, -0.018842887, -0.097695775, 0.06954673, 0.08921466, 0.031067515, -0.042530008, -0.12754126, -0.04256646, -0.14332621, -0.06949613, 0.1656989, -0.0852303, -0.07581233, -0.042101942, 0.16300407, -0.0037946159, -0.110391915, 0.007771535, 0.026987366, -0.012197036, 0.10481078, 0.0706994, 0.13377577, 0.1916926, 0.051809303, -0.119588204, 0.06370741, 0.10044184, 0.024244731, -0.015166552, 0.052557882, -0.016332993, 0.0057831868, 0.07799504, -0.015297763, -0.003954189, -0.07235961, -0.06333318, 0.046515707, -0.0048216945, -0.0010496812, -0.050973784, -0.15050463, -0.066870764, 0.07973207, 0.113933414, -0.008343726, 0.13552523, -0.101562664, -0.107392535, -0.029079542, -0.077019, 0.1287502, 0.0063533746, 0.0076005613, -0.03940204, 0.16370428, 0.12589219, 0.07225648, -0.006691791, 0.12409295, 0.040160783, 0.1294662, -0.03177328, 0.098006435, 0.036911733, 0.0994395, -0.04935905, 0.14644402, 0.013617363, -0.0544108, 0.072611764, -0.16022064, -0.12113804, -0.136731, -0.039869495, -0.062098093, -0.01800437, -0.059234522, -0.068408184, 0.032526895, -0.050702907, -0.057647903, -0.106758945, -0.020453077, -0.12093041, -0.0098909475, -0.04726588, -0.035275135, 0.09131499, -0.037347488, 0.03281127, -0.118239105, -0.1107144, -0.11973493, 0.083634146, 0.017751126, 0.071825825, 0.11487154, 0.12692608, -0.00093622244, -0.031724487, 0.021303426, 0.024633959, 0.11272671, 0.09019556, 0.11370534, 0.07877408, 0.09502445, -0.025985679, 0.10468705, -0.09675603, 0.031299967, 0.06216641, 0.03671371, -0.026084552, -0.04351593, -0.037691485, -0.06360803, -0.104311585, 0.009233533, 0.036156528, -0.15200643, 0.1883715, 0.07786863, 0.0011618995, 0.0006121925, 0.014366921, -0.14015679, 0.027614044, 0.09811268, 0.053823814, 0.05402877, -0.053837717, -0.03257511, -0.07633142, 0.039283328, -0.063896164, 0.04516853, -0.0020894532, 0.14292267, -0.1796909, 0.048445027, -0.04200306, -0.053062454, -0.026879972, -0.08798977, 0.09482978, -0.15817556, -0.08699903, -0.12091562, -0.06516289, -0.08818528, 0.008975015, 0.08131438, -0.0059930515, 0.16410328, -0.0014867305, 0.124397956, -0.012947468, -0.17676175, 0.015855331, 0.14062595, -0.1013081, 0.061324492, -0.035834502, 0.008617854, 0.083904356, -0.12092989, -0.15277869, -0.050776336, 0.013144361, 0.007457448, -0.15307812, 0.19268776, -0.05852135, 0.056307305, -0.040510368, 0.12049701, 0.04044543, 0.083299875, 0.050342552, -0.11866462, -0.079895146, 0.12204193, -0.08759909, 0.11058698, -0.09286452, -0.014538422, -0.026353316, 0.0027747175, -0.1240669, 0.14813755, -0.02124349, 0.09031877, 0.15096165, -0.057167634, 0.017298168, -0.061912946, -0.015688919, 0.042656034, 0.0015657302, 0.05964297, 0.004931775, 0.18302259, 0.12085472, -0.091834895, -0.067111574, -0.10023032, -0.06559373, -0.0025371409, 0.08032695, -0.010577183, 0.13590907, 0.14973065, -0.036424424, 0.08334449, 0.03814755, 0.13328846, 0.014227466, 0.019190887, -0.077917926, -0.092750415, 0.012882487, -0.022530554, 0.05148216, -0.14721693, -0.19133422, -0.00028863526, 0.12624735, -0.14525725, 0.122672416, -0.09039065, -0.0058222753, 0.01943787, 0.08647273, -0.042410214, -0.044527773, -0.0042992453, -0.048454043, 0.034551177, 0.009140301, -0.028637871, -0.1399261, 0.078310244, -0.0825099, -0.17587669, -0.16957793, -0.1754532, -0.12304343, 0.0734398, -0.060216714, 0.12561384, -0.08199031, 0.047414176, -0.03514514, 0.00401608, 0.00018244426, -0.03402053, 0.12512825, -0.05900542, -0.180417, 0.028563036, -0.104050584, -0.056879584, -0.025948316, 0.035147157, 0.05633376, -0.101528645, 0.18450338, -0.15194546, 0.049004093, -0.053580683, 0.037653264, -0.036563057, -0.053922564, 0.044597752, -0.12434116, 0.06119256, 0.1230295, -0.047604136, -0.012136249, 0.062300794, 0.066923216, 0.011478091, -0.1208686, 0.045673516, -0.08043497, -0.05118382, -0.045391664, -0.14735755, 0.113578685, -0.03550843, -0.054795396, 0.036302663, -0.13656998, -0.15016338, 0.016071817, 0.026905332, -0.14373627, -0.11926815, 0.05564584, 0.10511001, -0.035048068, -0.09189682, 0.1453157, -0.05112709, -0.06575843, 0.042823784, 0.11698602, -0.10659742, -0.017677208, 0.054727968, -0.16176979, 0.07546323, -0.026546448, -0.009385002, 0.013328598, 0.19953668, -0.022422094, -0.07205902, 0.11140688, -0.12438747, 0.11521432, 0.10510844, 0.047040425, 0.008632804, 0.15460376, 0.04567386, 0.11206276, -0.12803982, 0.07741373, 0.097925656, 0.08386005, -0.05232654, -0.061929066, -0.056682203, 0.1362673, 0.1457157, 0.10778452, -0.15754797, 0.0074926075, -0.16758892, 0.14716534, -0.029136213, 0.012997184, 0.14611323, 0.1404247, -0.077025, 0.116849236, -0.0888167, 0.066678114, 0.16428232, 0.044888686, 0.01035234, 0.15019874, -0.15890038, 0.0081435265, -0.013101835, 0.095158674, -0.028782416, -0.2006192, 0.13903855, -0.030438162, 0.18591312, 0.068152, 0.14905705, -0.16897647, -0.035553597, 0.005462785, -0.06479352, -0.011299513, -0.08987197, -0.05638443, 0.019693516, 0.013983082, 0.0417738, 0.060287036, 0.0983457, -0.015424361, 0.078407176, -0.1327138, -0.07331633, 0.02337484, 0.031109955, 0.123012595, -0.050089072, 0.0038359538, 0.06753144, -0.15247416, 0.08815803, -0.017059693, 0.16207853, 0.025873266, 0.15628695, 0.11229103, 0.071038716, -0.15411939, -0.006219345, -0.1861624, -0.11077876, 0.087934084, -0.062626034, -0.05214604, -0.07920346, 0.01655593, 0.008269165, -0.037981458, 0.08691737, 0.09606293, 0.020353872, 0.095183685, 0.18230401, -0.034202956, -0.013635155, 0.038700428, 0.068869345, 0.037003234, -0.11960524, -0.20388411, 0.05040517, 0.102190845, 0.005876108, -0.18420331, 0.042582996, -0.038838383, 0.012463836, 0.072166674, -0.07125732, 0.008959845, -0.0070329425, -0.09728786, 0.059868254, -0.05046369, -0.030120447, 0.1057232, -0.05366669, 0.19808139, -0.034548625, 0.02338426, -0.13185415, -0.15143032, 0.080393255, 0.04208844, -0.032021113, -0.09302211, 0.023808256, -0.0025530132, -0.035369255, 0.01961587, -0.1291727, 0.02345528, 0.19328994, 0.008234815, -0.15903674, -0.124858566, -0.0008001743, -0.15261295, -0.10546812, 0.17917797, 0.16100107, -0.049477458, 0.13758987, -0.06543725, 0.017592408, -0.044391055, 0.057556886, -0.10761969, -0.054145478, -0.027301967, -0.036114853, -0.06951558, 0.08519432, -0.023421187, -0.034351442, 0.089071035, 0.15368497, -0.11987139, 0.005035255, 0.103057384, -0.03860964, 0.009958363, -0.06447564, -0.035145234, -0.11065197, -0.07864435, 0.120288044, -0.06059052, -0.19593534, 0.01986979, 0.13448323, -0.19762273, 0.0022615592, -0.07317348, -0.08529011, 0.15887211, -0.056387268, 0.055472247, 0.14542322, -0.01419749, 0.04330165, -0.08442123, 0.09572418, -0.06515335, 0.078861505, -0.17890207, 0.06848387, -0.0044988315, -0.038346656, 0.10559815, 0.14821255, 0.026904158, 0.078918576, 0.14334214, -0.018566588, -0.0976743, 0.022980604, -0.08599892, -0.012745828, -0.101505764, -0.09765641, -0.0035217735, 0.1081198, -0.18505302, -0.14645566, 0.045287874, 0.101456754, -0.003958808, 0.0822209, 0.04710277, 0.043679006, -0.06233834, 0.13563302, -0.030807674, -0.057350095, -0.01204108, 0.17146242, 0.09619146, 0.12130886, -0.17024139, 0.14388621, 0.116274916, -0.11172454, -0.10138855, 0.026980333, -0.11720186, -0.17322573, -0.16391622, -0.13028446, 0.12588875, 0.040197115, -0.081883065, -0.07718425, 0.1409432, 0.008862212, 0.054312307, 0.021943456, -0.022555955, 0.130734, 0.014698109, 0.006916196, 0.08798124, 0.07680317, -0.076894306, -0.10286962, -0.015552999, 0.06660227, -0.12623812, 0.0105299605, 0.07817645, -0.100530185, -0.099858195, 0.037425056, 0.038094856, 0.051728684, -0.1121589, 0.028617313, -0.1323836, -0.02570107, 0.14354526, -0.029432163, -0.06162574, 0.10023188, 0.087962635, 0.089794226, -0.1222105, 0.04826599, -0.0025186825, -0.007006656, 0.014675328, 0.023605205, 0.15335251, 0.18189822, 0.12930247, 0.10148508, -0.11031278, 0.11609274, 0.0026215585, 0.04234827, 0.03616724, 0.039671842, -0.08945755, 0.08072136, 0.038714454, 0.055261344, -0.04188599, 0.08090316, -0.076547265, 0.08676161, -0.0105597, -0.09977761, 0.10470733, 0.020097053, 0.033566434, -0.07872823, -0.14700887, -0.11584469, 0.072369106, -0.029020652, 0.0346158, 0.025901115, -0.13130118, -0.12288287, -0.18325634, -0.17976356, 0.10557011, 0.08707418, -0.13857733, -0.03606353, -0.1194161, 0.04381711, -0.10763723, -0.064636774, -0.08678019, 0.016262893, -0.14302155, -0.05937712, 0.12597427, -0.05234828, -0.07250816, 0.080011815, 0.07494191, 0.106788315, 0.13713033, 0.12178058, -0.13006726, 0.047883656, -0.060140494, -0.03181572, -0.15469308, 0.13671248, -0.09416871, -0.09853192, 0.08537107, 0.11603226, -0.124677286, 0.14475824, 0.043707304, 0.091039985, -0.06973645, 0.028873017, 0.06504477, 0.08942189, 0.1800839, -0.054004442, 0.00253076, 0.035340756, -0.105548956, -0.04025907, 0.1366736, 0.017606296, -0.075991325, -0.02525382, -0.036589764, 0.039279208, -0.029090788, 0.00063673797, -0.01328201, -0.058221772, 0.136802, -0.018339597, -0.05188831, 0.010772173, 0.07096083, 0.023263661, 0.007602062, 0.15776658, 0.049289446, 0.13554166, 0.03824345, 0.027822357, -0.028725518, -0.06019044, 0.17355949, -0.17455865, -0.100860305, 0.14263692, 0.056434307, 0.053311795, -0.09745066, 0.012696166, -0.071252696, -0.015728576, 0.018866975, 0.024753157, 0.0048585567, -0.16021907, -0.025211172, -0.029885586, 0.04481856, 0.008501244, -0.09628028, 0.04644068, -0.07784983, 0.048133947, 0.014107433, -0.11057358, -0.16086073, -0.039063167, 0.0052300505, 0.032274865, 0.1974632, -0.1297791, 0.10212498, 0.105374634, 0.09585968, 0.16859443, -0.17630656, 0.04713277, -0.037265107, 0.0665636, 0.0938091, -0.19332506, 0.13854674, 0.0033968855, 0.07538501, 0.15074556, -9.3934876e-05, 0.019475404, -0.011086386, 0.030555075, 0.037548967, -0.1125816, 0.14743856, -0.15500113, 0.068769686, -0.1057412, -0.06831503, -0.09194251, -0.0071723997, -0.05431566, 0.03704181, -0.080283225, -0.0063909017, -0.046240643, 0.06628446, -0.11631335, 0.106328554, -0.18535371, -0.012271676, 0.12357105, -0.11960149, 0.06617732, 0.09128697, -0.095222175, -0.039346725, -0.12443517, 0.10639906, 0.075037785, 0.048453934, -0.07776451, 0.15100355, -0.055800397, 0.05926517, 0.030498063, 0.096798405, 0.21487132, -0.005465153, -0.040146217, -0.16605017, -0.01494695, -0.073927455, 0.054006908, 0.056060977, -0.12573425, -0.046372384, -0.010627848, -0.07227903, -0.033065252, 0.037894167, 0.13728452, -0.06940519, 0.06188691, -0.07904612, -0.0034883935, 0.07702771, -0.11274343, -0.004160148, -0.20142816, -0.074554555, 0.09296483, 0.040702168, 0.021741796, 0.06700458, 0.048962004, -0.10697777, 0.014159982, 0.18024333, -0.01814757, 0.13411008, -0.13208605, 0.017450819, -0.02008255, -0.05940117, -0.04603724, -0.04184463, 0.0345722, -0.1312082, -0.08432449, -0.043533113, 0.09218941, -0.13219999, 0.063296534, -0.08853929, 0.11176276, 0.09145189, 0.06226644, 0.07796913, -0.0092099095, -0.07966053, 0.08983783, -0.13943167, 0.08741376, 0.04818591, 0.0009924418, 0.05856745, -0.122414045, -0.07130588, 0.009870273, 0.027489776, 0.02877593, 0.08857355, 0.041188665, -0.015981479, 0.00040688855, 0.14290641, -0.010889029, 0.0781924, 0.1701715, -0.038131535, 0.12872824, 0.038053513, -0.09762245, -0.04923503, -0.0070271627, -0.121659234, 0.011649624, -0.07542856, -0.17063907, -0.054964583, -0.020453019, 0.0032907822, 0.104106925, -0.15119475, 0.14914781, -0.0077002137, -0.02073213, -0.015877198, 0.0475228, -0.04884667, 0.08339545, 0.066144094, 0.11641669, -0.028578166, 0.00851814, -0.04354144, -0.08448306, 0.03636979, 0.067952245, -0.02022773, 0.11147712, 0.02028259, 0.013520956, -0.07999296, -0.009608487, -0.11802739, -0.09548383, -0.0074918247, -0.009133181, 0.056361534, -0.07970104, -0.1870485, 0.021263646, -0.07439008, -0.1097454, -0.061666265, 0.05693721, -0.04920944, -0.0724643, 0.05821986, 0.0012635493, 0.024713933, -0.040161464, 0.15631445, -0.06889439, 0.08561132, -0.013661484, -0.07884611, -0.07041012, -0.19378005, 0.1550029, -0.04334645, -0.04907638, 0.08530201, -0.04574676, -0.1600406, -0.04452103, 0.06016228, -0.03469552, 0.056078255, -0.044111375, -0.0780529, -0.11651166, 0.07166371, 0.040093653, 0.20522642, 0.045670316, 0.03869858, -0.12631778, -0.07522661, 0.092005126, 0.039314553, 0.022540817, -0.07264625, -0.17610703, -0.042195395, -0.035644934, 0.08262227, 0.090911835, -0.11271085, -0.015474693, 0.13543071, -0.021485893, 0.10260121, -0.096982084, -0.034300447, -0.09827804, 0.09355143, 0.09462137, 0.03139414, 0.04405647, 0.08937295, -0.039987393, 0.062325228, -0.03325112, 0.006925703, 0.06031681, -0.026107932, 0.09057219, 0.18494312, -0.1005585, 0.039138876, -0.057721283, -0.0043657417, 0.039246622, -0.06457715, -0.005883202, 0.06244412, -0.03672271, -0.022295417, -0.015356945, -0.0948679, -0.1103324, -0.13125889, 0.09160432, -0.024069628, 0.014147602, -0.052238666, -0.010414708, 0.019019788, -0.089181185, 0.04296315, -0.030608855, 0.0010978951, -0.039439473, -0.16489081, -0.028680865, 0.021913368, 0.0035585773, 0.014757887, 0.09797919, -0.034616202, 0.018512914, -0.0470225, -0.054482132, 0.12617022, -0.021254644, -0.000114862545, -0.028360957, -0.021935746, -0.05570653, -0.018733324, 0.044176072, -0.12003652, 0.058675457, -0.05181879, 0.050680954, 0.012504786, 0.12715061, 0.047720343, 0.016873829, -0.058721777, 0.06322032, 0.015567811, 0.045082577, 0.025513513, 0.16477923, -0.158385, -0.023545137, 0.07989985, -0.114750855, -0.027374312, 0.12570876, 0.16120039, 0.09447948, -0.08340202, 0.054925673, 0.14334035, -0.11106982, 0.03868549, -0.09391323, 0.0016378083, 0.10350504, -0.09022277, -0.014459862, 0.047227763, 0.009368276, -0.051219195, -0.14073105, 0.03514629, 0.108722106, -0.06446664, 0.03530316, -0.08274467, -0.14774475, 0.026566084, -0.10207931, -0.16944458, -0.061183546, 0.13985583, -0.18411364, -0.15361315, 0.04679341, 0.05515838, 0.09269274, -0.1681538, -0.15298639, -0.06714739, 0.18373017, 0.10094799, 0.10155837, -0.11906511, 0.031593904, -0.07875534, -0.028729817, 0.10076676, -0.00847984, 0.11286868, 0.025199134, 0.012659328, -0.0055917497, -0.1151054, 0.114847116, 0.1030813, -0.08303996, 0.0752288, 0.0013493133, -0.11471829, 0.01400697, -0.12381153, -0.15382807, 0.063071, -0.016289176, 0.019253468, 0.037579842, 0.1079647, -0.02666676, -0.1745521, -0.089634016, 0.18795714, 0.08160153, -0.11954847, 0.008147636, 0.06494397, -0.09229322, -0.051964607, -0.018369384, 0.022265198, -0.1377329, -0.048940156, 0.13337275, 0.043037295, -0.025620874, -0.122897804, -0.06265297, -0.093261905, 0.00035661226, 0.007247609, 0.057233274, 0.18301511, 0.026823089, -0.01949929, -0.051842883, 0.0038223988, -0.13578178, 0.022083627, -0.015669685, -0.03659441, -0.11281067, 0.025624052, -0.0059020203, 0.033752732, -0.013271136, -0.041676298, 0.00032344693, 0.018140756, 0.11708528, -0.09471801, 0.10331272, 0.016508127, -0.014103284, 0.01132705, -0.03297178, 0.013228877, -0.00873881, 0.0056573804, 0.03663266, 0.12979773, -0.14827442, 0.013564783, -0.09707229, -0.13143952, 0.039154142, -0.028076882, 0.11305074, 0.112234876, 0.09258591, 0.0629333, 0.09185325, 0.09205728, -0.0015519423, -0.08958743, -0.0053117294, 0.08841463, -0.20182393, 0.10141636, -0.17418061, 0.020034734, -0.053655263, 0.14082703, 0.08058478, 0.05532304, -0.0013023685, 0.16161057, 0.030690204, -0.1722384, -0.042088065, -0.040655576, 0.16467723, 0.049389087, -0.011716846, -0.050572384, -0.019547284, -0.03702175, 0.09968627, 0.0056612655, 0.03761114, -0.06501682, -0.09080563, 0.047624398, 0.03548676, -0.12797737, -0.07954582, 0.07769489, 0.059303746, -0.06718017, 0.038181063, -0.008594254, -0.13332444, -0.098064005, 0.15115196, 0.11255318, 0.18429418, 0.057587687, 0.05877653, 0.0113229435, -0.0951124, 0.16722502, 0.06403568, 0.030240254, 0.08324153, -0.047164433, 0.06364874, -0.050962154, -0.072633654, -0.07847271, -0.029214974, 0.18426387, -0.17698084, 0.007487169, -0.017104508, -0.10846683, 0.02347757, -0.013588937, 0.049884126, -0.0820817, 0.1570927, -0.11566664, -0.004254416, -0.018293932, 0.09058367, 0.14495625, -0.063784264, 0.046627834, 0.036251523, 0.03917025, 0.02153897, 0.09068741, -0.033780996, 0.15300927, 0.062607914, 0.048214663, -0.09654299, -0.16524489, 0.054979816, -0.07364335, 0.070992805, 