float W_fc2_w[]={
0.090578966, 0.012231325, -0.06601943, 0.06625374, 0.06266122, 0.041794065, -0.15739979, -0.006854096, -0.10777095, -0.1694467, -0.039319545, -0.19102275, -0.1644421, 0.0097005665, -0.046474323, -0.0035143732, -0.052785948, 0.020869011, -0.022193154, 0.012825293, -0.08221876, 0.12129812, -0.12551126, -0.117556155, 0.1376182, -0.068586625, -0.044133317, 0.08762706, 0.064396665, -0.03637414, 0.022143828, -0.09224649, 0.10280183, -0.007448139, -0.14279617, -0.004065893, -0.053359948, 0.10317447, -0.069189735, 0.10826044, 0.064030305, -0.037495207, -0.109357476, 0.05143396, 0.037244998, -0.19894601, -0.045548446, 0.055822503, 0.055682573, 0.12814762, -0.16830304, -0.045625076, 0.0889523, -0.020150047, 0.09318313, 0.012443324, -0.10220399, 0.007997591, 0.1666251, -0.051062156, -0.04531992, 0.062370833, 0.035792846, 0.14875221, 0.11965504, -0.058888737, -0.10894326, -0.038143292, -0.076848425, 0.16676337, 0.013651069, 0.045045763, -0.10720115, -0.13518165, 0.042484354, 0.039353225, -0.07428365, 0.08379878, -0.03130504, 0.055746563, 0.0730488, 0.10791732, -0.14274552, 0.019553915, 0.034606252, 0.16500868, -0.040476244, 0.09560089, -0.007232372, 0.1315303, -0.16765758, -0.002766377, -0.13578236, 0.0031026185, -0.1356849, -0.08591713, -0.07359244, 0.041726857, -0.052480906, -0.012523094, -0.04000607, -0.096487395, 0.050377585, 0.02338272, 0.020303866, -0.15478428, -0.09384709, -0.058940593, 0.07423227, 0.10599198, 0.011890388, 0.08631538, -0.078625895, 0.0013339077, 0.09807973, 0.022036402, -0.16358648, -0.06368116, 0.1283821, -0.10150495, 0.055059, 0.034756925, -0.050307482, -0.058533944, 0.09656737, -0.0039578537, 0.004252649, 0.015488234, -0.14889464, 0.0636345, -0.006637267, 0.07160867, -0.025419736, 0.1435991, 0.08481742, 0.12593578, 0.14872865, 0.08732428, 0.12463665, 0.08585595, 0.0611225, 0.07165866, 0.034915876, -0.013178315, 0.123932965, -0.08172633, -0.025417298, 0.11040395, -0.010781227, -0.19483997, 0.16239607, 0.11187747, 0.08905213, 0.15835804, -0.07771487, -0.09060855, -0.11655326, -0.16278009, 0.02601496, 0.051275443, 0.03264198, -0.03882625, 0.17884062, 0.13511194, 0.16619667, -0.11836996, 0.11438296, 0.07723178, -0.01473268, -0.15117796, 0.055661302, 0.112939425, 0.01902654, 0.093421824, 0.06525067, -0.03803143, 0.04343891, 0.030102355, 0.018570237, 0.01549677, 0.068681926, -0.061736453, -0.0250107, -0.064274035, -0.033188555, -0.01443585, -0.011055641, 0.061611947, -0.18533254, -0.15669334, 0.021630373, 0.08343974, -0.0026510109, 0.10511102, 0.10860315, -0.15688571, 0.0168014, 0.13733208, -0.15280983, -0.0017674896, -0.09439223, -0.11508691, 0.034337997, -0.025865301, 0.003766802, -0.08034779, 0.09379612, -0.028596697, -0.014765211, -0.16788572, 0.075614326, 0.03817513, 0.1840142, 0.08650045, 0.04769766, -0.06690848, -0.045646887, -0.109704345, 0.0056694048, 0.07335733, -0.11160438, -0.020713786, 0.08798428, -0.089986034, -0.09129715, -0.11457069, -0.14218144, -0.12953058, 0.061642446, 0.09423004, -0.0008664695, -0.08189148, -0.048718255, -0.010283015, -0.052180197, 0.014427282, -0.025194157, -0.023337442, -0.07494509, 0.13527316, 0.018266536, 0.012610298, 0.009282962, 0.016809892, -0.059202097, 0.044952136, 0.07608541, -0.065285005, 0.013409039, 0.10156507, 0.05285786, -0.105745055, 0.22152552, 0.03691001, 0.11810353, 0.077424444, 0.10935568, 0.10724055, -0.019559646, 0.022221632, 0.025482232, -0.08910896, -0.032197494, -0.12384078, 0.034154058, 0.17826211, -0.09541373, -0.16619925, -0.09011257, -0.051531274, 0.13167824, -0.19240089, -0.17462854, -0.09460092, -0.03286271, 0.022979505, -0.14523198, 0.08439757, 0.072888374, 0.1286822, 0.077302575, -0.17745116, -0.035802893, -0.024462944, -0.15118477, 0.0017865472, -0.012206006, -0.23652902, -0.02006598, 0.11622618, 0.11625076, -0.10432657, 0.11891485, 0.03956727, 0.11323976, -0.1310383, 0.14134206, -0.06964023, -0.04001776, 0.068866, -0.028525833, 0.17022938, 0.07823309, 0.08429619, -0.086869076, -0.089679025, 0.07334924, 0.17022699, -0.007315473, -0.06892131, 0.056244496, 0.063239105, -0.07023549, 0.025298517, 0.10708899, 0.020352572, -0.047722865, -0.045500804, -0.018828612, 0.026374886, -0.09646963, 0.08250398, -0.045841575, -0.04915828, -0.12248278, -0.1564234, 0.005841846, 0.19808729, -0.06107189, -0.00017966505, -0.08258195, -0.19299942, -0.071318135, -0.08813676, 0.080109134, 0.014850953, -0.0738614, -0.008178354, -0.01892277, 0.10401057, 0.051682338, -0.09615097, 0.05401381, -0.1538392, 0.20544448, 0.081618756, -0.0056569716, 0.069903724, -0.1221385, 0.08619106, 0.07192571, 0.0993143, 0.007757378, 0.070479624, -0.029269433, -0.0022192178, -0.15081604, -0.049754713, 0.19688156, 0.025527954, -0.15645587, 0.12125401, -0.07134073, 0.20072371, 0.060380526, -0.096839465, -0.10678219, -0.07262772, 0.05049749, 0.061352562, 0.10310306, -0.0726157, 0.042514265, -0.056665305, -0.19777556, 0.050150055, -0.055677675, 0.07094049, 0.10611609, -0.050453305, 0.0025569682, 0.089348145, -0.05212697, -0.07483361, 0.107215695, -0.033450313, -0.16698754, 0.07381084, 0.0036674745, -0.06110306, -0.097546436, -0.07951177, 0.06609661, -0.13032693, 0.10533468, -0.067098334, -0.027240347, 0.029195825, 0.00633398, -0.014052506, 0.13385849, 0.077587046, 0.1906567, -0.08414304, 0.04091114, 0.04836558, 0.13099678, -0.057834454, -0.10946646, 0.052121505, -0.027837254, 0.019179193, 0.11507335, 0.02823152, 0.002684035, -0.020309087, 0.055894524, -0.07303634, 0.010350961, -0.0045871893, -0.0873825, 0.14080429, -0.13028291, 0.03337103, 0.025150148, -0.11416222, -0.07997355, 0.022928663, 0.021032486, 0.07701686, 0.0064492617, 0.05500291, 0.018414699, -0.022233797, 0.07339147, 0.054990467, 0.116484664, -0.03678545, 0.112756, 0.008128611, 0.15034276, 0.10519034, -0.0976113, -0.097659364, 0.108253285, -0.023233077, -0.18120785, -0.057390384, -0.017591624, -0.011415051, -0.062410403, 0.0033017, 0.14595613, -0.029966787, -0.026950378, 0.16926154, 0.06434102, 0.003675071, 0.11899881, -0.06353866, 0.09148263, -0.19161874, -0.05386056, 0.017377257, 0.0016561532, 0.0375742, 0.121473335, -0.112989716, 0.06767757, -0.1501273, -0.061379068, -0.09920082, -0.022972753, -0.023602678, 0.008524482, -0.035997197, -0.06570997, 0.13257289, 0.18890093, 0.0011349781, -0.22287793, 0.09155128, -0.004766327, 0.06701094, -0.08253385, -0.06448539, 0.029639937, -0.13681456, -0.052661937, -0.095212966, -0.048431635, -0.022698492, 0.08689378, 0.14366002, 0.010109195, -0.10422272, -0.14668, 0.052687917, 0.043232642, 0.015366107, -0.091948956, -0.20960368, 0.14147894, 0.024788016, -0.059816863, -0.013294615, -0.118235, -0.057490397, 0.1428926, 0.13958097, -0.18146841, -0.18581195, -0.009815187, 0.19294137, -0.16401595, -0.015536785, -0.008426189, 0.09520481, -0.014359651, 0.09926886, -0.10720944, -0.119801596, -0.014602801, -0.04030339, -0.03953623, -0.012958495, -0.124324545, -0.063074455, -0.105507106, 0.15939477, -0.0969457, -0.200179, 0.026366731, 0.12553316, 0.08758377, 0.11384656, -0.15410797, 0.10794172, -0.03615507, 0.12074264, -0.097637616, 0.15371446, 0.11293266, -0.18620355, 0.1230055, -0.122345485, 0.10467147, 0.016863622, 0.03985954, 0.006598247, 0.1340294, -0.12101235, 0.04516634, -0.14993732, -0.17412569, -0.045968786, -0.005168407, -0.09223377, 0.11422256, -0.0070327953, -0.088036895, 0.0639111, -0.111897215, 0.012750177, 0.054956395, 0.0044127577, 0.010094728, -0.010028589, 0.06321331, -0.0520042, 0.07885358, -0.10664545, 0.06144562, -0.055710673, -0.046756692, 0.12139481, -0.084709324, 0.16292055, 0.037931915, 0.053566795, 0.086298466, 0.1534906, 0.110379696, -0.026649464, -0.07714854, 0.06316839, -0.106650844, -0.02393943, 0.10867598, 0.034463454, 0.08553173, 0.032696124, -0.062160917, 0.058655526, -0.028315742, -0.14854598, -0.07478448, -0.069839455, -0.011083919, 0.11421771, -0.051359206, -0.07050564, -0.014773652, -0.0050320365, -0.11474951, 0.006039676, -0.05593076, -0.107092954, -0.0052575367, 0.034344632, 0.06912709, 0.013863983, 0.08990976, 0.011820723, 0.0004099291, 0.13305503, 0.03713339, -0.11670547, 0.06830932, 0.055042736, 0.084108934, -0.085645325, 0.055593483, 0.04236773, -0.006297993, 0.08174554, 0.021023089, 0.03214915, -0.074474, -0.046761487, 0.04259376, -0.10252375, -0.10355109, -0.034157798, 0.0634896, 0.07724913, -0.15384379, 0.036715243, 0.089817144, 0.00027876443, 0.06012437, 0.07301425, -0.07978321, 0.07213362, -0.03845819, 0.05739371, 0.09626614, 0.024542538, 0.014780816, 0.072895035, 0.020098213, 0.0103711905, 0.17547882, -0.09508716, 0.10073042, 0.07060647, 0.011250028, 0.19343136, -0.050642088, 0.03327975, -0.06088167, -0.036019508, -0.011624794, 0.052890304, -0.0703259, -0.057497848, 0.050544497, 0.004259651, -0.03503505, -0.09043881, 0.034198843, 0.112319544, 0.049223743, -0.038048547, -0.012415185, -0.010811213, 0.09131744, -0.055979956, -0.004414019, -0.045639027, 0.117171824, 0.03622505, -0.07797972, -0.13351429, 0.029620692, -0.03958598, -0.039633658, 0.02182561, -0.14148173, -0.0097079715, 0.1647828, -0.15427455, -0.018381936, -0.170796, -0.06119407, 0.11248973, -0.08250099, -0.027168887, 0.08083749, -0.0064608357, -0.017243756, -0.094032384, 0.054490503, 0.1318373, 0.15255049, -0.005678758, -0.074437566, 0.13679643, -0.13523608, -0.13548161, -0.109387495, 0.10330578, 0.028115405, 0.14391337, 0.15927507, 0.016340708, -0.15860115, 0.025685482, -0.16496505, -0.018526958, 0.013905919, -0.1303649, 0.16099542, 0.005069233, 0.10943896, 0.14334698, -0.1495163, -0.0033564747, 0.067273125, 0.08554174, -0.21234216, -0.13705756, -0.09843179, 0.0059402096, 0.0641593, -0.033614576, -0.12167427, 0.0868512, 0.008813276, 0.031478018, -0.10656683, 0.022355717, -0.11245547, 0.05488198, 0.020933269, 0.02002933, -0.11566969, 0.17166442, -0.15172344, 0.14670444, 0.051265, -0.09755238, -0.020251766, -0.1588723, -0.110332444, -0.06213974, -0.027285019, -0.098644175, 0.063329734, 0.10302421, -0.126554, 0.006715005, 0.03050488, -0.10097866, -0.035383534, 0.07092274, 0.14522862, 0.10704013, -0.021693045, 0.0053821267, 0.022691874, -0.15114743, 0.0034621828, -0.096503876, 0.01914319, -0.03100476, -0.08477939, 0.1601442, 0.12751724, -0.11596801, -0.040486164, 0.022112511, 0.038975872, 0.046599027, 0.011753114, -0.10249951, -0.07789142, 0.058052573, -0.04754497, -0.12127267, 0.0357467, -0.13367628, 0.14515065, -0.042296465, -0.060290597, 0.008008491, 0.0026604002, 0.081890725, -0.10202035, 0.10006611, -0.022020461, 0.028413165, -0.005737485, -0.18297023, -0.024546359, 0.051311526, 0.10446621, 0.12986426, -0.0036362868, 0.07446718, 0.06870985, -0.0892014, 0.15830992, -0.0004477779, 0.14734638, 0.016766358, -0.027271446, -0.15643246, 0.04731647, 0.044892754, 0.049590264, 0.11649108, 0.06300446, -0.03728635, -0.025254043, -0.1088695, -0.07629639, 0.06824759, 0.010696276, -0.051144533, 0.02576747, -0.09977767, -0.10781651, 0.021156011, 0.0119633, 0.14328514, -0.008531052, -0.17220584, 0.054919474, -0.09275385, -0.0135141015, -0.15262346, -0.10868796, -0.18170613, 0.10280603, 0.12643945, -0.17627287, 0.048755456, -0.13844472, -0.042179786, 0.050029363, 0.048091073, -0.03185527, -0.032587964, -0.027614146, 0.086774625, -0.1232925, -0.06115916, 0.10634221, 0.019691188, -0.020930085, -0.08386468, -0.021132048, -0.14985229, -0.017387092, -0.016062472, -0.026786195, -0.08754868, 0.039740182, -0.09509813, 0.087000355, -0.07780689, -0.033137962, 0.14676376, 0.02603292, 0.13843474, -0.06567402, -0.012674432, -0.08576395, -0.09432893, 0.16518717, 0.060239963, 0.08167047, 0.043929353, -0.15628187, -0.16511638, 0.048871063, -0.029843742, 0.10902162, 0.01682144, 0.031041509, 0.07328789, -0.109042116, -0.2450824, -0.014786415, 0.08114398, 0.088486224, -0.04798653, -0.19642591, -0.11240535, 0.023275407, -0.04533537, -0.03650247, 0.11399563, -0.097721994, 0.07311514, -0.048984982, -0.10065326, -0.020713406, 0.014625565, -0.0051856707, -0.06298785, -0.005131528, 0.14789553, 0.011766392, -0.071115784, 0.12637468, -0.13651958, 0.015543369, -0.026368724, 0.08354176, -0.078147575, 0.08896245, -0.051552825, -0.08028924, -0.10556518, -0.063312486, 0.03711094, -0.02631884, -0.19623046, -0.026438868, 0.009039533, 0.06807905, -0.027657345, 0.059714694, 0.07250812, 0.064797394, 0.05026858, 0.07174002, -0.058328483, 0.05210861, 0.04142499, -0.1391938, -0.13360551, -0.1752386, -0.046442006, 0.014360272, 0.09000222, -0.024526538, -0.0510517, 0.0026426543, -0.22916263, -0.016936768, 0.040830966, -0.006458838, -0.030525645, -0.014794336, -0.12689172, -0.1313027, -0.003200189, 0.022664372, -0.10937256, -0.07280413, 0.15404066, 0.06040489, -0.077671416, 0.10552504, -0.123175584, -0.116050854, 0.011939296, -0.03564207, -0.13192564, 0.009364945, -0.1325171, -0.058889385, 0.10313015, 0.13671093, 0.055721372, 0.08646679, -0.038972393, -0.06311105, 0.15218544, -0.062308863, -0.035421558, -0.16142416, 0.073715635, -0.1224411, -0.101587154, -0.14635868, 0.078164384, 0.064209275, 0.056682266, 0.062539995, 0.019968122, -0.036669128, -0.006829699, 0.006295721, 0.12749732, 0.17754759, 0.15767244, 0.06720552, -0.010797886, -0.05633304, -0.037306774, -0.07607251, -0.056494266, 0.14281721, -0.016174909, -0.01129682, -0.014685945, -0.08892773, -0.010982188, -0.019452676, -0.0884601, -0.042342614, -0.05961678, 0.10477346, -0.023028001, 0.0048382315, -0.06606471, -0.14477149, -0.11154048, -0.07166708, 0.033472832, 0.014646876, 0.082319416, 0.11066278, -0.076598674, 0.06573368, 0.024487637, 0.024323208, -0.026055096, 0.029837565, 0.06817966, 0.025798377, -0.06982841, 0.065847374, 0.027388923, -0.004413314, 0.07317395, 0.016100183, 0.11226236, 0.07508677, -0.095843494, 0.017560337, -0.087148845, 0.02842728, 0.12194481, 0.065969355, -0.08064686, 0.06513873, 0.031242609, 0.17224753, -0.17918463, 0.046830706, -0.046916597, -0.02249509, 0.12438494, -0.0026678636, 0.06259924, -0.062008128, 0.045970317, 0.096338786, -0.06177231, 0.08277638, 0.13688764, -0.012282314, -0.0072592157, 0.1256006, 0.009595674, -0.20611939, -0.024236742, -0.014007293, -0.069446936, -0.01720065, -0.06475347, -0.026802981, -0.058676146, -0.07290537, 0.05882766, -0.019424176, 0.16500288, -0.20475523, 0.07435056, -0.0037694008, -0.04399885, -0.064476065, 0.13660073, -0.04030357, 0.116971165, -0.06848325, 0.12657067, -0.17045301, 0.024293069, -0.109027974, 0.032254092, 0.06110471, -0.14186001, -0.12771542, -0.19047084, -0.0009919235, 0.11128123, -0.04406085, 0.00825136, 0.01458341, -0.1670935, -0.112849705, 0.16767184, 0.14111812, 0.00559949, -0.0539603, 0.07457191, -0.13157557, 0.04799943, 0.08648087, 0.109157905, 0.12528269, 0.007110105, -0.1337286, -0.054060437, 0.16580336, -0.060364544, 0.074480504, 0.0044036205, -0.17183441, -0.060567748, -0.16523194, 0.010414831, -0.02857295, -0.005836727, 0.09191121, 0.0034545304, 0.07950597, -0.03734533, 0.0940087, -0.034272972, 0.0035037124, -0.14647958, 0.09268594, 0.012744492, 0.07795776, -0.07986601, 0.04792162, 0.058690246, -0.10922358, 0.064786725, -0.06365728, -0.02601659, 0.14599492, -0.06871575, 0.033096537, -0.16869226, 0.17213951, 0.1349192, -0.04297782, 0.1317129, 0.063621886, 0.13658562, 0.06884964, 0.031207394, 0.0553503, -0.07586064, -0.016054794, 0.0656485, -0.025367605, -0.087983966, -0.017916104, -0.097127095, -0.07872802, -0.06941507, -0.07642699, -0.08380829, -0.0046952073, -0.102133356, 0.11022615, -0.013824973, -0.014769454, 0.0501596, -0.03135547, -0.16409412, -0.0130919, -0.116701014, 0.101368375, -0.045452066, 0.15760371, 0.13775544, 0.039701, -0.12791646, -0.048451442, -0.13735513, -0.08419737, -0.1270744, 0.03359826, -0.0015811729, -0.085728005, 0.0011578031, -0.12364845, -0.02076484, -0.0061715613, -0.05870945, 0.11549756, -0.06833646, -0.042207897, -0.031547397, -0.043715727, 0.046419665, -0.13433728, 0.010863432, -0.15657751, -0.08307062, 0.029528158, -0.102988236, -0.16561593, 0.0057644094, -0.10475579, -0.0864155, 0.076032236, -0.06360694, -0.034787346, -0.03178703, 0.043221943, 0.012225492, -0.11598762, -0.04289339, 0.028192546, -0.104372896, 0.07535751, -0.014494865, 0.07187458, 0.0141851865, 0.09019012, 0.07544888, 0.023666091, 0.030256124, 0.09115243, 0.05110125, 0.06170781, -0.038213287, 0.11340265, -0.097016305, -0.05661827, 0.0009796695, 0.074685805, -0.07692434, -0.20820528, 0.12650411, 0.034103785, 0.061096452, 0.11586666, -0.051385064, -0.065438256, -0.0064087375, 0.05805158, 0.09404277, -0.11308506, -0.1559484, 0.04911464, 0.07944616, -0.014771665, 0.12444735, -0.10077488, 0.028646639, 0.10272448, 0.1317733, 0.10364016, 0.01750477, -0.048332267, 0.084121816, 0.015922908, 0.048355874, 0.030430531, -0.0041156393, 0.11019144, -0.039814144, 0.15609561, -0.04581728, -0.1154418, 0.1551048, 0.01611551, 0.06949385, -0.07237703, 0.011992854, 0.11827878, 0.059662364, 0.10672266, 0.03328635, -0.11424456, -0.08919288, -0.030500624, 0.005424763, 0.040391743, -0.09694619, -0.07556985, -0.050677717, -0.10332153, 0.09563136, 0.059393372, -0.06532244, 0.018736366, 0.043437004, -0.08640541, 0.030145613, -0.10511142, 0.11584834, 0.112190135, 0.13154697, 0.023976747, 0.039533213, 0.018081278, 0.13445443, -0.020025082, -0.004100489, 0.01727447, -0.1491649, 0.15583767, 0.023196908, -0.027620068, -0.047463275, -0.054739915, -0.16233414, -0.0029188588, 0.0029930836, -0.07927759, 0.08183655, -0.16221201, 0.021540258, 0.0010088717, -0.044866145, -0.17106289, -0.08089553, 0.07687351, 0.02316979, 0.16107717, 0.021291398, -0.07817662, -0.031104825, -0.07829082, -0.089328356, -0.04818479, 0.09300606, -0.014489299, 0.12680839, -0.15563159, -0.028746169, 0.070251286, -0.009545044, 0.04984952, -0.008133434, 0.059451543, -0.09305249, -0.07438935, 0.16053809, -0.18287903, -0.015514706, -0.061161805, 0.012597949, -0.037291534, -0.009174464, 0.034114964, -0.009212541, 0.070407815, 0.025514985, 0.090863325, 0.04344786, 0.16798502, 0.034760065, -0.009809135, -0.060212284, 0.13987541, 0.06781563, 0.14155091, -0.14046946, -0.052883845, 0.132256, 0.054692984, 0.05680306, -0.105254985, 0.08158441, 0.11529203, 0.114553176, -0.0049934224, -0.09857958, -0.03599043, -0.009893552, 0.085431844, -0.097909965, 0.100541145, 0.026422564, -0.042076774, 0.056818876, -0.16716269, -0.024584219, -0.1504901, 0.028368007, -0.020370934, -0.09908254, 0.008645982, 0.018910928, 0.099884585, -0.14240839, -0.07222593, 0.10989802, -0.035409894, 0.004967838, 0.08005626, -0.033555683, -0.07451115, 0.026353924, -0.036756888, -0.13311593, -0.101535134, -0.14438355, -0.12981065, -0.19063836, 0.10119321, 0.06625979, 0.0011048809, 0.07986898, 0.14199439, -0.024429275, -0.14717732, -0.16448116, 0.005216495, 0.013353573, 0.030948954, 0.092541434, -0.009946215, -0.1483617, 0.032604128, 0.049007505, 0.076119006, -0.15839861, 0.13187374, -0.09805333, 0.027083267, 0.093181305, -0.030739943, 0.014133384, -0.086808674, -0.1280462, -0.032364976, 0.13676581, 0.06426177, -0.058791727, -0.06443375, 0.039835073, 0.012385925, -0.12802349, 0.05138678, 0.054050043, -0.06251028, -0.19881609, 0.007824123, 0.018737836, 0.088688634, 0.075367786, 0.011838854, 0.024191396, 0.117555805, -0.09013131, -0.014230646, 0.108626716, 0.14986865, 0.08729926, -0.15576665, -0.19206105, 0.14688213, 0.07188707, -0.11313185, -0.098298736, -0.16452284, 0.07152507, -0.15641391, 0.119777784, 0.114149384, -0.002209636, -0.158435, -0.068798095, -0.061427236, 0.05543491, -0.00885026, -0.14983436, -0.031213935, -0.1726103, 0.0905584, 0.11885798, -0.13294795, -0.09608621, 0.09630089, -0.10135833, -0.04012439, -0.036174364, -0.0064646667, 0.04248044, 0.17182669, -0.15662907, -0.07801043, 0.05466149, 0.10856073, 0.10054713, 0.10570219, -0.12862198, 0.0106753195, 0.0062863654, 0.123455144, -0.062051732, 0.028416924, 0.06333066, 0.18785863, 0.08532127, 0.03645303, -0.008640254, 0.0127442535, -0.029568905, 0.0007342374, 0.06946563, -0.11412507, -0.018813903, -0.009282739, -0.046926532, -0.13682698, -0.030677717, 0.04120568, 0.022693694, -0.0984616, 0.1281597, -0.06324436, 0.02511025, 0.08276345, 0.06284203, 0.061047506, -0.0106833475, -0.035443332, 0.038676053, 0.012274588, -0.18568434, 0.0123223765, -0.054752044, 0.109115876, 0.1683389, 0.0672747, -0.09048485, 0.00318266, 0.048442744, -0.10178109, 0.08457675, 0.039295994, 0.044626597, 0.046438884, 0.09740326, 0.017425867, 0.12102609, -0.061591603, 0.050036266, -0.14510934, -0.10236808, -0.041982964, -0.14202741, 0.0942776, 0.0570523, -0.0117606865, 0.15269843, -0.037217356, -0.041988023, 0.17401707, -0.1084171, 0.093171306, 0.040308744, -0.16062358, -0.17511834, 0.03935982, -0.08577589, 0.016545514, 0.01584585, -0.012883599, -0.042834856, -0.031132486, -0.002018059, -0.048513547, 0.17759982, -0.06925504, 0.15807611, -0.019615328, 0.032140985, 0.065849535, 0.008823317, -0.1099683, 0.028802171, -0.2001255, -0.044304892, 0.012718673, 0.16535054, -0.1481379, -0.014552347, -0.09126571, 0.019205164, 0.08145349, -0.020041088, 0.016831469, 0.0826712, 0.12697053, -0.049179308, -0.17040114, 0.099329256, 0.027600324, 0.06690591, 0.18048078, 0.057219405, 0.012302294, -0.08322084, 0.06844419, 0.035646804, -0.072840646, -0.013058546, -0.14874573, 0.09094252, -0.06992164, 0.021466477, 0.106123306, 0.0018574086, -0.006358662, -0.08326374, 0.18406983, 0.05937032, -0.0347924, 0.012348512, 0.058963455, 0.019371219, 0.017656364, -0.027290635, -0.12682751, 0.058091722, -0.15173143, -0.027254915, 0.0316164, -0.033758212, -0.05135212, 0.13537231, 0.069534115, 0.15424246, 0.056231517, 0.09786991, 0.0048206006, -0.17972846, 0.12871042, 0.08058627, -0.037629854, -0.0052542347, -0.017684434, 0.062271357, -0.08158989, 0.09329879, 0.10927303, -0.09160336, 0.100677535, -0.019180672, 0.087516606, 0.1405128, 0.086894326, 0.079853326, -0.008988191, -0.11163835, -0.13581593, -0.054446314, -0.12177901, 0.121586405, 0.05822987, -0.057910446, 0.1014784, 0.033423115, 0.13154636, -0.0025557997, 0.03169776, 0.12728052, 0.1165675, 0.15144937, -0.080503225, -0.067376375, 0.01159495, 0.020346204, -0.06723196, -0.042517327, 0.022461688, -0.05693674, -0.028879205, -0.07915471, -0.12479271, 0.061276264, 0.045037482, 0.13638902, -0.02333393, 0.03760721, -0.062870175, 0.060372554, -0.03398208, 0.08062929, -0.03732426, -0.1098972, 0.050334837, 0.1191136, 0.042231515, 0.027602205, -0.078991085, 0.014047659, 0.10845463, 0.08676466, 0.07636581, -0.07457357, 0.10297291, 0.011550044, 0.14487706, -0.086304784, -0.0075665014, -0.0077417847, -0.054952655, 0.036665488, 0.07060228, 0.058419265, 0.13679908, 0.04958012, 0.11727862, -0.09295068, 0.18611768, -0.13298668, 0.104149096, 0.14288387, 0.089515135, -0.0065696584, -2.7497077e-05, -0.15426353, 0.044881165, 0.013105122, 0.12178259, 0.15278901, -0.10735502, 0.12510781, -0.064472266, -0.04368726, -0.047819108, -0.020624401, -0.0573693, -0.06319701, -0.14357916, -0.18713626, -0.12269412, -0.04222244, 0.024746157, -0.110409066, -0.1010237, -0.08542768, 0.1705974, 0.06482542, -0.056297217, -0.010198099, -0.032355152, 0.040654104, -0.096465655, -0.05261565, 0.10500169, 0.055548534, -0.03570561, 0.09227826, 0.025831506, -0.061549757, 0.035873335, 0.056470927, -0.019832745, 0.062125288, 0.025962807, -0.021868935, -0.03761832, -0.080201216, -0.13016692, -0.19614348, 0.09708914, 0.021700293, -0.00651288, -0.050533593, -0.10842671, 0.0653123, 0.019050224, 0.004538888, 0.051518228, 0.1517475, -0.04709552, -0.05209564, -0.029348833, 0.087375596, -0.08142111, 0.0113651175, -0.0045626825, 0.07980481, -0.0405293, 0.060137898, 0.06933952, -0.01865571, -0.051333144, -0.14467227, -0.04623831, 0.17027444, -0.11678096, 0.018445026, 0.006606536, -0.10965724, -0.090806626, -0.15924554, 0.005617571, 0.16886987, 0.030886142, 0.013088771, -0.06293984, -0.09724171, -0.09881734, -0.012549589, 0.02952325, 0.06748386, -0.14805911, 0.12255119, -0.023587452, 0.106163815, -0.08924956, 0.16425355, 0.052918207, -0.055251826, -0.030341968, 0.12934394, -0.06943311, -0.12801017, -0.21967117, 0.0018318796, -0.102731764, 0.033581834, 0.2127075, -0.032439705, 0.07552762, -0.10198013, -0.031456567, 0.0059030885, -0.036116958, -0.09953237, 0.03114293, 0.04760113, -0.08410049, -0.084994525, 0.12539634, 0.060469538, 0.09353175, -0.09746553, -0.010404918, 0.034935605, -0.078542076, -0.09218914, 0.06928003, -0.19567531, 0.0758024, 0.12158492, -0.012241176, -0.18273531, -0.082947835, 0.07885179, -0.22699042, 0.056128208, -0.11703409, 0.10450239, 0.054626133, 0.09849927, 0.098322645, 0.02121818, -0.043298353, 0.041821435, 0.031643193, -0.07460353, 0.05519227, 0.11168822, 0.021873206, 0.019479351, 0.0048281807, -0.1984747, 0.114233136, 0.0050446466, 0.003755394, 0.06022135, -0.13977809, -0.015025748, -0.1547453, 0.03282354, 0.04066399, 0.1392837, -0.009305294, -0.022124987, 0.049317762, 0.06793583, 0.03424801, -0.13333756, 0.082439974, 0.034321245, -0.022651035, -0.0044051763, 0.0544615, 0.01321236, -0.099582694, -0.019534618, -0.040037967, -0.17361166, -0.15969627, 0.14441587, 0.06959635, -0.0681982, 0.014515525, 0.008058354, -0.06896586, -0.051613234, 0.041879743, -0.13220155, -0.08706891, -0.00995557, 0.031124808, 0.048279602, 0.14768147, 0.014879264, 0.015727142, -0.02173565, -0.027561512, -0.032751076, 0.09863364, 0.06803889, -0.16767514, -0.10517731, -0.16978441, 0.15126209, 0.11687299, 0.16654831, 0.010341578, 0.018437866, 0.0874587, 0.12278615, -0.09232066, -0.028705655, 0.12743549, -0.17191587, -0.014055014, -0.08458084, 0.024143374, -0.10347393, 0.17260517, -0.052120112, -0.071418926, -0.015711568, 0.13846932, 0.0462302, 0.032933645, -0.08164766, 0.19425538, 0.030610992, 0.08085787, 0.046969756, -0.02697425, -0.057779785, -0.06525586, -0.16127762, -0.13446875, -0.009084914, -0.0001802928, -0.07711117, -0.1360123, 0.04850678, -0.04392037, -0.07601599, 0.10628707, -0.021000529, -0.04505213, -0.04852603, -0.01229977, -0.05129924, -0.043960907, -0.025923193, -0.15063481, 0.022553954, -0.069182575, 0.04337921, -0.034344252, 0.013806526, 0.047182843, -0.073885895, 0.088050395, 0.18592295, -0.097658694, 0.006884449, 0.14023815, -0.08826362, -0.20603651, 0.03129224, -0.0811607, 0.030617824, 0.10679133, -0.14575222, 0.030029165, 0.030605078, 0.12104747, 0.07637233, 0.008597504, -0.1277583, 0.07132373, 0.105424084, 0.04445219, -0.010882887, -0.0924896, 0.12255334, 0.035965797, -0.0375866, 0.15759705, 0.04153009, 0.050278205, -0.029845202, -0.10807438, 0.020822838, 0.09276579, 0.085095055, 0.019827044, 0.020917669, -0.05551954, 0.006271219, 0.014885114, 0.05923333, -0.06739706, 0.0313165, -0.0033506765, 0.058237962, -0.19153032, 0.05299091, -0.09171634, -0.12657116, 0.07261782, -0.08311788, -0.0033055958, -0.030745158, -0.040336687, 0.13321543, -0.15633023, -0.106693126, -0.037706356, 0.10764157, -0.028092725, -0.15766288, 0.115563095, 0.0456807, -0.14489697, -0.019204702, 0.08983632, -0.18626781, -0.044392724, -0.019152747, -0.0825408, 0.024697602, 0.02454906, 0.11999421, 0.06799042, -0.007744618, 0.14720501, 0.010636602, -0.037279677, 0.15353134, -0.018313017, -0.054910526, -0.034632344, -0.06974186, -0.15710877, -0.06367721, 0.02874254, -0.04974664, -0.14802882, -0.09362805, -0.16664323, -0.00024671736, -0.10482152, -0.03316323, -0.07125629, -0.0035871712, -0.012874768, 0.0895431, 0.019990375, 0.121996984, -0.12495173, 0.043614946, -0.101113275, -0.11349262, -0.0766065, -0.027878474, -0.16211826, 0.019841012, -0.06868769, -0.08995317, 0.15082768, -0.18753591, -0.112881064, -0.025790062, -0.007721055, -0.07940396, -0.053733584, -0.102779195, 0.033801887, 0.10818611, 0.09905552, -0.081620455, -0.11385512, -0.014370595, -0.14207888, -0.009587843, -0.0782603, 0.028231516, -0.057547014, -0.047814835, 0.102390856, -0.11523368, 0.00817537, -0.053875465, -0.07130887, -0.03301937, 0.16050969, 0.14115843, -0.1362956, -0.0787637, 0.07175643, 0.047917295, -0.09584859, -0.08320124, -0.12463309, -0.112557605, -0.030978564, 0.027135372, 0.016115874, -0.049585667, 0.005843447, -0.18393017, -0.10547295, 0.17129986, -0.16782767, -0.101732165, -0.13682184, 0.09033367, -0.054503538, 0.09617869, 0.05299817, 0.0025028635, -0.0423146, 0.015791716, 0.01155054, 0.08788448, 0.038458545, -0.10774133, 0.031079816, 0.110692196, -0.079934016, -0.07831914, -0.14773843, 0.048432592, 0.042475715, -0.045222443, -0.005694816, 0.010190556, 0.032304432, 0.09300637, 0.07817022, 0.039296314, -0.1967652, 0.05760273, 0.0040877024, 0.13748623, -0.14373943, 0.1324703, 0.010080436, -0.021068452, 0.021695178, -0.1850451, 0.004978859, 0.012323762, 0.011636621, -0.10701799, 0.06196878, 0.08561685, 0.015306651, -0.13133076, -0.058918513, 0.09433519, -0.044231758, 0.048374217, 0.008160992, -0.104330204, -0.020782374, -0.18698026, 0.032513004, 0.08803293, -0.05038265, -0.028281987, 0.014698462, -0.0010141764, 0.13993998, 0.045410685, -0.11822654, 0.11429794, -0.002816974, -0.04275932, -0.165784, 0.006408533, -0.02733383, 0.05140486, 0.11859807, -0.024160456, 0.14685704, -0.0520007, -0.013387641, -0.13143636, 0.041670345, 0.057204567, -0.10549739, 0.044671267, 0.097780704, -0.09495229, 0.021936225, -0.12742542, -0.0084344745, 0.08073363, -0.17600356, -0.047530934, -0.053195942, 0.12422993, -0.133367, -0.027243944, 0.07851744, -0.13076219, -0.14149827, -0.12765992, 0.002697875, -0.19649698, -0.09772368, 0.006207623, -0.10576712, -0.016859075, 0.17206693, -0.12853308, -0.17078719, 0.067910954, 0.030779818, 0.008813321, 0.11835951, -0.07742418, -0.015296856, -0.13022831, -0.10143376, 0.028169505, -0.0073321504, -0.019415308, 0.07504074, -0.09180359, -0.0993745, -0.05410771, 0.10306214, 0.10662007, 0.08815708, 0.018414972, -0.03620912, 0.07571045, 0.08520378, 0.17146581, 0.053570524, 0.008297332, -0.18004335, 0.019534074, -0.14151607, 0.04233634, -0.009023653, -0.0028538632, -0.026151028, 0.07302747, 0.06513324, 0.058078863, 0.0853279, -0.1267057, -0.0024942348, -0.026494034, 0.06221538, 0.05333092, 0.19303231, -0.058051217, 0.07174248, -0.009138593, -0.11483811, 0.10422816, 0.08925572, 0.037069708, 0.05065066, -0.052634638, 0.061911285, 0.07581668, -0.05943473, -0.037251685, 0.027946679, -0.001175409, 0.07702602, -0.09285045, -0.06497498, 0.07445218, -0.06550027, 0.07563989, 0.05117393, -0.122632466, -0.07237907, -0.19434448, -0.04067836, 0.04378614, -0.09498252, 0.042350378, -0.09206629, 0.15189008, -0.10551637, -0.030040551, -0.051578313, -0.005197114, -0.15345478, 0.0015369997, -0.027807489, 0.007035771, -0.15071508, -0.013323694, -0.036702268, -0.07421448, -0.072554655, -0.16731127, -0.09641213, 0.02592979, 0.0042678807, -0.085727885, -0.08057521, -0.097828984, 0.12272092, 0.019685065, 0.0027147082, 0.04202278, 0.106953755, 0.05047758, -0.14703648, 0.09010499, -0.083711036, 0.025362622, -0.02908652, 0.15322708, 0.067665204, 0.13263558, -0.18841496, -0.005276769, 0.020242965, 0.12643266, -0.10115206, 0.083937146, -0.06625274, 0.17109007, -0.017631076, 0.05342195, -0.057668902, -0.0020023426, 0.052722692, -0.020295016, -0.11132177, -0.08964824, -0.054366067, 0.0307473, 0.17940222, 0.11354028, -0.04585769, 0.0034844705, -0.04144272, -0.020068107, 0.012159438, -0.03977307, 0.0446451, -0.17494445, -0.11961017, -0.02512937, 0.06835264, 0.19108601, -0.023212425, 0.19793442, -0.1749778, -0.0033846144, -0.036715154, -0.05464172, -0.17319222, 0.09866161, 0.09668671, 0.05715162, -0.19297598, 0.040311996, 0.029291406, -0.014913653, 0.11458807, -0.07614195, -0.16968524, -0.09739604, 0.107557796, -0.0010713211, -0.022278823, -0.13435902, -0.014880775, 0.11016511, 0.06346201, -0.00755557, 0.049967527, 0.06473823, 0.022289416, 0.08948207, -0.03452792, 0.0065377248, 0.15329985, -0.022104066, -0.07661139, -0.027139949, 0.05013562, -0.12811448, -0.0058063697, 0.18018606, -0.07402395, -0.13727322, 0.017219968, 0.09126257, 0.03614883, 0.00480991, -0.010249748, -0.16158499, 0.04077471, -0.11628143, 0.028571524, 0.043842304, 0.076982096, 0.06528251, 0.031780127, -0.045015857, -0.105298564, 0.013170626, 0.08795943, 0.077188626, 0.0019330982, 0.049924288, 0.065709025, -0.10825167, -0.053098354, -0.1657305, 0.055538498, -0.09196491, 0.018934168, -0.14022657, 0.15958834, 0.13983655, -0.021599133, -0.046865497, -0.09182144, 0.11774946, -0.022948481, 0.13969758, 0.038094066, 0.043409545, -0.14160635, 0.099905334, -0.009072328, -0.18547752, -0.06330041, 0.116579674, 0.07536851, -0.13820502, 0.114477955, 0.0993932, -0.0116360085, 0.09376483, 0.064879544, -0.103855066, 0.088908814, 0.040958878, -0.096686184, -0.14345723, -0.16069707, 0.010946583, -0.09824695, 0.040004324, 0.093155414, 0.1659243, -0.13819225, -0.073742785, 0.09826326, 0.114603125, 0.0015134664, 0.20026612, 0.15789483, -0.057743695, -0.10174525, -0.07194045, 0.14746211, 0.019545592, -0.047836095, -0.003835815, 0.0068297214, 0.12460306, 0.033332817, 0.08985568, 0.080684684, -0.0573409, 0.071414225, 0.07558417, -0.039755635, 0.1256014, -0.13335368, 0.033224635, -0.18659525, 0.075563915, 0.066407986, 0.18428919, 0.025143936, -0.046257664, 0.11729108, 0.11693839, 0.09807481, -0.07376911, 0.15703154, -0.018556213, 0.10794311, 0.11424566, -0.04457995, 0.09762289, 0.0016363757, 0.086455844, -0.16269419, 0.14901128, -0.11285071, 0.020498293, 0.06456604, 0.086989895, 0.07697436, -0.14196908, -0.082463406, 0.12071158, -0.040592752, -0.019269299, 0.003827277, 0.029315446, 0.014506832, -0.062294286, -0.10603586, 0.047520146, -0.055698372, 0.07834699, -0.01736569, -0.009298574, -0.013400462, 0.1825859, -0.12397286, 0.16297257, -0.11705801, 0.037361763, -0.07330231, -0.052897766, 0.12104159, 0.07524081, 0.018613117, 0.15648946, -0.18801263, -0.00318727, 0.016352065, 0.11950312, 0.13247243, 0.020113813, 0.07196675, -0.044608526, 0.15441419, 0.03804999, 0.0669296, 0.05048466, -0.11863896, 0.15916423, 0.15718666, 0.05630292, 0.05902051, 0.074726894, 0.030502876, -0.14111799, -0.11897306, -0.02955639, -0.08113552, 0.0076413406, 0.050436605, -0.06964299, 0.04248841, -0.18805014, 0.020670714, -0.099189386, -0.0049201986, 0.0028007077, 0.0057799965, -0.02134673, 0.030415066, -0.1266379, -0.08208337, -0.12332173, 0.09063126, -0.07314858, 0.07035472, 0.1138407, 0.018828418, -0.068638496, -0.16354942, -0.035523668, 0.06794832, 0.11946188, -0.022425583, 0.063850865, -0.055153646, -0.08531309, 0.011740036, -0.03639986, -0.08168024, -0.00016768673, -0.06847483, 0.07068981, -0.1377237, 0.054195434, -0.14850152, 0.03568056, -0.005208272, 0.046731267, -0.07503453, -0.090142615, 0.13020079, 0.09281019, -0.056077294, 0.03460142, -0.10519356, 0.113433525, -0.040413458, 0.01568126, -0.011821212, -0.16465288, -0.010581163, 0.1295499, 0.021203877, 0.00914072, -0.0003335827, -0.027107902, -0.03955736, 0.14816894, 0.15597497, 0.100508735, 0.036687423, 0.122922994, 0.059116736, -0.037779804, -0.026039075, -0.10058537, 0.1927572, 0.10196348, 0.063195005, -0.081765346, 0.16171286, 0.09060805, 0.10007573, 0.08783205, 0.002156042, 0.046135385, -0.026567912, 0.06772518, -0.07591341, 0.0033632258, 0.025860382, -0.07546261, 0.14003076, 0.1053466, -0.023602998, 0.035387766, 0.06394579, -0.022853585, -0.10561097, 0.05536996, 0.0224159, 0.060533747, -0.11781901, 0.092175156, 0.09733503, -0.053711362, -0.09189054, 0.04106304, -0.034567025, 0.039634835, -0.023470797, -0.0135135325, 0.1526565, 0.13421075, -0.051145565, 0.10267826, -0.13802302, 0.1033649, -0.043220248, -0.1504231, 0.05294579, -0.033486374, 0.0137346685, -0.025859686, 0.14659852, 0.02371173, 0.15648855, 0.05826419, -0.021466805, -0.12483919, 0.1605063, 0.026590457, 0.067518376, 0.12326662, -0.0025927688, 0.10188081, -0.16253662, 0.0033767035, 0.18077084, -0.13868321, -0.0032566004, -0.10540834, -0.13472693, 0.047602996, -0.003964154, -0.017024726, 0.10008987, 0.05924339, 0.02329222, -0.021667182, 0.097059295, 0.18727686, -0.048834883, 0.046383105, -0.13824005, -0.042234547, 0.038812984, -0.013572046, 0.07373662, -0.015130649, -0.06687393, 0.0016882721, 0.039076656, 0.10621195, 0.01241104, 0.005052164, 0.011506417, 0.07603759, 0.009645538, 0.1497299, -0.054227706, -0.039903753, 0.15368219, 0.1109723, -0.12644562, -0.22266693, 0.014813859, 0.11382035, -0.1448265, 0.062915236, -0.121812746, -0.06682205, -0.08816412, -0.016016137, 0.04790605, -0.082811445, 0.017437948, -0.049220845, 0.03508703, -0.14877293, 0.098934546, 0.05748209, -0.010459822, 0.076871574, 0.020283584, -0.11718785, -0.09667589, 0.076388925, -0.17719077, -0.013523755, -0.07342723, 0.1026814, 0.0578544, 0.05504945, 0.101421535, -0.1407617, -0.09161469, 0.093810454, 0.01731206, -0.09433834, -0.14548114, 0.06993427, 0.079636134, 0.17799446, -0.07773855, 0.004466818, -0.028979529, -0.050907165, 0.13829532, 0.03857961, 0.18375705, 0.06173656, -0.051415704, -0.03250916, -0.07688755, 0.119017474, -0.024048401, -0.07958349, 0.047759693, -0.10632684, -0.07888212, 0.09315722, -0.08032576, 0.086798824, -0.08711987, 0.007381448, 0.069003105, -0.11178779, -0.060113944, -0.08352928, -0.05260022, 0.02762544, 0.021371484, 0.03667905, -0.14000258, 0.063377604, -0.10934279, 0.12452412, -0.06561958, -0.03450099, 0.058137566, -0.16548851, -0.03694893, -0.126127, 0.09211543, 0.05975067, -0.20907465, 0.005497382, -0.021854287, -0.048268624, -0.043010864, 0.069212876, -0.0081064105, -0.12150429, 0.07175579, 0.06157493, 0.09764817, 0.12399142, -0.011448388, -0.120899945, 0.10259014, -0.06359961, -0.065647915, -0.06790476, -0.054692835, 0.11589556, -0.014295734, -0.050051145, -0.1352979, -0.032054164, -0.1634547, 0.0018109443, 0.030168843, 0.071163565, -0.0045468747, 0.08479484, -0.123125054, -0.02211445, 0.13403912, 0.0033820653, -0.14561452, -0.090294056, 0.08972743, 0.008759618, -0.11988125, 0.03975118, -0.060651332, -0.16675098, -0.010413959, -0.10333638, 0.0025194169, -0.049598727, 0.15187547, -0.010628434, 0.14247474, -0.0132394405, -0.17801596, -0.10023432, -0.1037523, 0.030663885, 0.09609915, 0.09593248, -0.13589397, 0.1289424, -0.026558919, -0.023681892, 0.0760091, -0.102377065, -0.059541993, -0.07247743, 0.026853088, 0.020400366, -0.024640348, -0.11697382, 0.081806384, 0.11319432, -0.045498576, 0.057305682, -0.14197072, -0.05225082, 0.116429314, -0.15899658, -0.111681096, 0.049657524, 0.06618725, -0.06850593, -0.06335366, 0.16424593, 0.16283853, -0.07590239, -0.0067145615, 0.060031496, 0.09039174, -0.1336109, -0.09067534, 0.16177396, 0.10112644, 0.15815185, 0.09318701, 0.093560785, -0.024549816, 0.05559092, -0.122094855, 0.023384782, 0.015595222, -0.08533354, 0.05340466, 0.08976242, -0.060259204, -0.027458895, -0.06607648, -0.023877721, 0.0334795, -0.055086777, -0.09382281, -0.023998683, -0.07333233, 0.113153845, 0.10310786, 0.07639092, 0.016259404, -0.036937267, 0.10939549, 0.0061328136, -0.0034447869, -0.20793834, -0.02883669, -7.523425e-05, -0.0973177, 0.046141062, -0.076966375, -0.0126193855, -0.024216725, -0.005103437, -0.16179484, -0.23721518, -0.03665023, 0.013121074, 0.029259238, 0.057232756, -0.1829994, 0.05003011, -0.16155209, 0.16052262, 0.18167356, 0.021571016, -0.023321548, 0.11109999, 0.029872015, -0.058595818, -0.1362794, -0.03852864, -0.03587899, 0.13454896, 0.14129499, -0.10333771, 0.09557465, 0.03770565, 0.035070084, -0.023028588, -0.17010076, 0.039079245, -0.18743126, -0.1615168, -0.12687048, 0.111265436, 0.062346175, -0.043123554, 0.086724445, 0.06925627, 0.00457662, 0.075933985, 0.035138898, 0.11920671, 0.0322882, -0.0092058275, -0.07293082, -0.057443928, -0.038635332, 0.14506419, 0.13610639, 0.12293963, -0.17503257, -0.09319139, 0.054561775, 0.13466607, 0.023041056, 0.014403348, -0.09741036, 0.015166207, -0.14095236, -0.05514685, -0.041648448, 0.108908035, -0.13220175, -0.004464223, 0.12186938, -0.017031198, 0.054426577, -0.07223315, -0.09666805, -0.08416908, -0.050090708, -0.082828395, 0.10775677, -0.10086044, 0.16623454, -0.058969013, 0.02638765, 0.0052528824, 0.018346285, -0.010634355, 0.04807042, 0.05683271, -0.04675614, 0.091708235, -0.056245126, -0.07477949, 0.108345985, -0.050601587, 0.1047844, 0.11426906, 0.04131029, 0.0925884, 0.062130686, 0.13151579, -0.12334758, 0.07472619, 0.01660931, 0.086059034, 0.09313488, -0.070535995, -0.07852515, -0.018567672, 0.0110164825, 0.16632685, 0.12099485, 0.08872221, -0.15805626, 0.016461061, 0.053504966, -0.0037161405, -0.04777498, 0.04750544, 0.025290083, 0.054820195, -0.17337932, 0.13952418, -0.13038166, -0.037207432, 0.05103549, -0.024370998, -0.11198237, -0.031357065, -0.024174526, -0.001718445, -0.08759761, 0.10433103, -0.018705297, -0.09800587, -0.056019265, 0.0002669722, -0.036429405, 0.023727117, 0.024898743, -0.11739935, -0.049206447, 0.06256731, -0.061448436, 0.12542626, 0.16970222, -0.026051346, -0.1458807, -0.14161126, -0.14726382, 0.0701651, 0.07718642, -0.18394318, 0.07671393, 0.08509951, -0.048520766, 0.025468709, -0.059971973, 0.10899873, 0.10272223, 0.116910204, -0.020987501, 0.12947719, 0.080339596, 0.08401644, -0.06473027, -0.0707988, 0.008911311, -0.170413, -0.028751202, -0.11558304, -0.14045939, 0.00748576, -0.10549086, -0.030245928, -0.117061526, -0.00656352, -0.18913595, -0.01726788, -0.18120003, 0.003543435, 0.11011752, -0.10812122, 0.017286431, -0.03056542, 0.06712927, -0.16826086, -0.043103714, -0.07747784, 0.13197245, 0.07217452, 0.05316429, -0.11959369, -0.053478602, -0.0004177653, -0.062307745, 0.08238357, 0.10885337, -0.18098967, -0.056273334, 0.03631663, -0.002672883, 0.1269131, 0.17406987, 0.05395509, 0.11056051, 0.061402913, 0.03820375, 0.084733054, -0.040942583, -0.13574477, -0.0068368684, 0.013474456, 0.10357716, 0.066762485, 0.108670056, -0.028834986, 0.08435479, -0.008360697, -0.01219938, -0.1413829, -0.109809525, 0.1332772, -0.07179248, -0.06004603, 0.15183112, 0.08017784, 0.0008091957, 0.0070819417, -0.005895611, 0.0070028026, -0.088136934, -0.033580825, -0.1414573, 0.06436634, 0.088708565, -0.102868244, 0.057352804, -0.108362325, -0.0447444, 0.050703857, -0.027853724, -0.12159748, -0.010790942, -0.018711539, -0.12355956, -0.1280815, 0.03567975, 0.13222447, -0.14527345, -0.071987964, 0.03994583, 0.017872024, -0.034884688, 0.071920246, -0.009853099, 0.018734112, 0.10635814, 0.118235774, -0.07302518, 0.034759417, 0.08256608, 0.059073888, -0.011737469, 0.050340343, -0.053310968, -0.06810721, -0.16191033, -0.042222455, -0.060992096, 0.011949604, -0.0056663826, 0.005178657, 0.0140152, 0.07652097, 0.034915715, -0.10088844, -0.08612871, 0.029415965, -0.16328138, 0.0052741775, -0.038324554, 0.0037507704, -0.0053053647, -0.16108817, -0.17580709, -0.046776723, -0.048258856, -0.02709698, -0.11435762, 0.056748677, -0.051773813, -0.07034436, -0.026421648, 0.002260449, 0.065216385, 0.020022482, 0.03482721, -0.037699662, 0.034062266, -0.10794682, 0.11584061, -0.17097421, -0.015875775, -0.09611157, 0.09638464, -0.11169445, -0.078049995, -0.057586044, 0.0068266066, -0.062322974, 0.014654698, -0.022206534, 0.10889005, 0.035383582, 0.07245137, -0.08292766, -0.004291452, -0.04472627, -0.19831468, 0.0014454911, 0.0009769999, -0.0804342, -0.22600694, -0.0023570824, -0.0052718967, -0.02338673, -0.13485566, -0.20380375, -0.19866796, 0.058363058, -0.026823038, 0.121305674, 0.06967717, -0.13298075, 0.17314778, -0.11613201, 0.03169115, -0.03735153, -0.041684404, -0.12638491, -0.0054815686, -0.02007144, -0.012196601, 0.08804669, -0.22803453, -0.12155075, -0.058807258, -0.1027175, -0.036282133, -0.16423947, -0.09584124, -0.014348809, 0.045129452, -0.06883277, 0.0070295464, 0.017561875, 0.04615809, -0.16903539, 0.13300362, -0.047915317, -0.112617575, -0.13452093, -0.08241433, -0.001345191, -0.118577324, -0.13781266, 0.07934874, 0.05901069, -0.037559055, -0.01970439, 0.038710218, 0.0043372586, 0.09819803, 0.057682734, 0.07964129, -0.024911152, 0.046921026, -0.14904937, -0.0011982085, 0.034052454, -0.008082846, -0.0544417, -0.0119801685, 0.039901763, -0.086169876, -0.012791054, 0.01492476, -0.06981558, -0.080788806, -0.04796717, 0.06734821, -0.055445526, 0.05371346, -0.051328614, -0.083506376, -0.044419397, 0.019933295, -0.03951573, -0.0132271685, -0.111989126, 0.022505578, 0.14697808, 0.040451057, 0.08559145, -0.1032328, -0.12730657, 0.13774149, -0.14788125, -0.082378395, -0.052438803, 0.06259184, -0.06384648, -0.08068053, -0.03727186, 0.026092894, 0.1395163, -0.015291372, -0.06328534, 0.027273169, 0.033815853, -0.15097333, 0.080449395, -0.00791357, -0.09179127, 0.006761526, 0.033856817, -0.113614485, 0.07287628, 0.045196485, 0.08205315, -0.109636165, -0.081667185, -0.11819586, -0.062406875, -0.00031040984, -0.16504647, 0.10967357, 0.042459752, 0.09370351, 0.0035863162, -0.045983873, 0.095137015, -0.030455796, -0.023168396, 0.18222196, 0.049386557, 0.178645, -0.035765354, 0.16532077, -0.029329114, -0.044647284, 0.07934218, 0.056331858, 0.06417168, -0.18104795, 0.060793653, -0.07728002, 0.0454156, 0.09622058, 0.14576294, -0.004868136, -0.05051976, -0.10662279, 0.0676981, 0.12840226, -0.020361394, -0.10254677, -0.12791842, -0.081819564, -0.04576068, 0.030034956, -0.010298017, 0.061971467, -0.020174459, -0.11724327, 0.023992527, -0.0905478, -0.11904818, 0.06990599, -0.0761004, 0.026335893, -0.0020676092, -0.05927465, 0.09534881, 0.00225704, 0.101619996, -0.004838235, -0.010627851, -0.024091158, 0.1098875, 0.06735117, 0.04520365, -0.09738854, 0.10939472, -0.06257789, 0.09068567, 0.10168543, -0.17073986, 0.079770334, 0.046432167, 0.09970804, 0.14975917, -0.048001397, -0.03783376, -0.05977831, -0.005220164, -0.16490555, 0.054262947, -0.0071805324, -0.17446984, 0.12554775, -0.16785666, -0.028753713, 0.047857296, 0.08392669, -0.028191658, -0.004908888, -0.07002588, -0.062065646, -0.003714481, -0.14354701, -0.044073198, -0.0061007747, -0.10169575, 0.12469223, -0.08120544, -0.034801044, 0.050030127, 0.0380225, 0.020141635, -0.0066055325, 0.14955604, 0.03484056, -0.00018310227, 0.012409623, -0.003331134, 0.011712551, -0.08669221, -0.0779486, 0.030785942, -0.03099563, 0.13547608, -0.060092326, 0.15331914, 0.08473711, -0.03377772, -0.17792155, 0.141482, 0.0067472043, 0.08902468, -0.032877654, -0.11284199, -0.029400049, -0.06346116, 0.02063201, -0.14680074, 1.0303849e-05, -0.13793892, -0.06345211, 0.00589523, -0.20182444, -0.00981292, 0.054463852, -0.072615825, 0.060092214, -0.027703738, -0.07406573, 0.04791409, -0.028977038, -0.07000918, -0.008819744, 0.08297963, -0.09938233, -0.0435437, 0.12901723, 0.0067150975, -0.06707139, 0.038546674, 0.10330176, -0.056713067, -0.07753267, -0.12613297, -0.109299794, 0.015739, -0.08900872, -0.05709177, -0.06532571, 0.14298323, 0.030762095, -0.02473221, -0.068799876, -0.13680165, 0.030940711, 0.1102492, 0.09568888, -0.06254438, 0.07847053, 0.016674072, 0.073104456, 0.06716087, 0.050334487, 0.018618451, -0.11241476, -0.15741624, -0.021044211, -0.0049097924, -0.043621983, 0.1268064, -0.04401285, -0.04557446, 0.06839368, -0.09796756, 0.13520962, 0.15585352, -0.008343869, 0.009282726, 0.1949423, 0.14715394, 0.10905981, 0.07529905, -0.0011121351, -0.110652655, -0.07531611, 0.040875845, 0.13309726, -0.06235113, 0.050042525, 0.02884764, 0.036596943, 0.016982341, -0.09673393, -0.116921395, 0.050178546, 0.039144006, -0.19728076, -0.0608392, 0.097819164, -0.03217715, -0.04321942, 0.042302877, -0.0033436732, -0.052069716, 0.09346154, -0.116560966, 0.042722, -0.06132702, -0.08150484, -0.023923898, 0.09019936, 0.06325455, 0.068865694, -0.061036993, -0.06603066, -0.11352009, -0.2181326, -0.08974552, 0.10174206, -0.017704923, -0.05114149, 0.09435066, -0.009779233, -0.057292227, 0.08779476, -0.02116142, -0.08876419, 0.017545909, -0.06037891, 0.012693177, -0.15082185, 0.14213948, -0.19584432, 0.1435835, -0.04433951, -0.031799443, -0.1717436, 0.03397124, -0.006255649, -0.08728367, 0.11715475, 0.09707411, -0.065646, -0.110744044, 0.012831082, -0.006812347, 0.086207844, -0.03343948, 0.03792252, 0.14083655, 0.011830977, 0.11238461, 0.031134475, -0.08837493, -0.03894026, 0.120980486, 0.021161182, -0.121091016, -0.16797905, 0.023252683, -0.08669222, -0.08653867, 0.17104983, -0.12718375, -0.07194614, -0.06545602, -0.14790244, 0.035244867, -0.04683986, -0.04358202, -0.06700485, -0.013258617, -0.08252415, -0.03637936, 0.093037695, 0.16177496, 0.03939529, -0.029815383, -0.03197487, 0.07033099, 0.1580789, -0.107272, -0.016993277, 0.01786612, 0.019898664, 0.05138527, -0.035657197, 0.00941385, -0.050813306, 0.014988489, 0.028859118, -0.19563894, 0.055731673, -0.03141812, 0.037106354, 0.114531495, -0.058551077, 0.0018919252, -0.075226426, -0.05476459, -0.17249405, -0.08284984, 0.00080298766, 0.013746807, 0.03540342, -0.008156705, 0.081787854, 0.090659276, 0.068739235, -0.13178222, -0.032844782, -0.15579382, 0.09239558, -0.014835653, -0.11752219, -0.099801995, -0.07524714, 0.018146176, -0.022611342, 0.0128691085, -0.118111394, 0.13409095, 0.058807213, 0.15326755, -0.007573698, -0.08422186, 0.08010288, 0.05920877, 0.0037226153, 0.055451453, -0.14316234, 0.12512097, -0.051658187, -0.07119701, -0.15409303, -0.1637573, 0.1446026, 0.16516413, 0.07437209, 0.12136657, 0.060128085, 0.029527657, -0.047408845, 0.0099015655, 0.0016257231, -0.06356069, -0.11580599, -0.07386137, -0.11160096, 0.12915088, -0.012477423, 0.087771334, 0.111122146, -0.10635473, -0.055041347, 0.057226863, 0.03995574, 0.033422496, -0.06931683, -0.108022906, 0.04245116, -0.0011030311, -0.15290566, 0.106070496, 0.09623499, -0.08521483, -0.117699675, -0.06126594, -0.041532997, -0.15184835, -0.013637204, -0.12262087, -0.054405924, 0.013127024, 0.08712646, 0.03417044, -0.10710311, 0.16221198, -0.02183586, 0.020178476, 0.025697483, -0.105754144, -0.02890419, 0.07461262, -0.05281967, -0.09538307, -0.006225937, -0.12534903, 0.011463275, -0.16963878, 0.049771756, 0.030729564, -0.040181994, 0.08702944, -0.12485931, 0.1405954, -0.07504414, 0.06577884, -0.027702618, 0.05728505, 0.15813725, -0.041962806, 0.15476747, -0.03960528, 0.047826175, -0.025268193, 0.057293914, 0.07757891, -0.06078251, 0.05752049, -0.022359192, 0.08519, 0.060034774, -0.013656347, -0.09703681, -0.12632732, -0.08140817, 0.1851836, 0.13775449, 0.07866203, -0.033404175, -0.027402062, 0.069385886, -0.1313744, 0.028461294, 0.16937947, -0.02590075, -0.044826258, -0.034255523, -0.020907989, 0.095549606, -0.046958037, -0.023461692, -0.109196484, -0.12109777, 7.19485e-05, -0.05522554, 0.06422524, 0.057623316, -0.1214734, 0.1791465, 0.11279722, 0.050443478, 0.020134099, -0.0015857035, 0.027127808, -0.15708584, -0.013012217, -0.09161133, -0.017750615, 0.058352154, 0.07758762, -0.0280894, -0.029649436, -0.034880355, -0.13391548, -0.03072139, 0.16370355, 0.004155031, -0.07019208, 0.08038606, 0.06061194, -0.112555854, -0.08563614, 0.049263027, -0.040193006, 0.077861816, -0.08522873, 0.1512039, -0.13039637, -0.082588926, -0.15797551, 0.15666996, -0.17885135, -0.01630527, 0.07118381, -0.16298875, 0.13505372, 0.0983337, -0.10365996, -0.12584111, -0.024734532, -0.00497239, 0.050147958, 0.001534215, -0.072579704, -0.13945128, 0.04128064, 0.14729387, 0.06153074, 0.08512128, -0.11788888, 0.104440026, 0.03141204, -0.07689039, -0.024180124, 0.06985599, -0.02660523, -0.035186894, -0.074386746, 0.04745736, -0.016227994, -0.08953176, -0.11745181, 0.040219467, 0.00472033, -0.082179345, -0.13873208, 0.10387041, 0.20107293, -0.033550113, 0.019805769, -0.041179698, 0.023313759, 0.016458659, -0.15044561, 0.13223535, -0.11368832, -0.044965334, 0.021254579, -0.05242207, 0.02863604, -0.022565104, -0.052959505, -0.11315892, 0.14089312, 0.023693262, 0.0037462804, -0.18478782, 0.10897663, 0.054485295, 0.14329885, -0.08145973, -0.04464406, -0.13320144, -0.11877425, -0.060502384, -0.016592901, 0.00631826, 0.123554766, -0.05265394, -0.024787735, 0.10666873, 0.042880595, 0.11008729, -0.011025223, 0.15097101, 0.016821228, -0.016214937, 0.04963397, 0.05180365, -0.08047463, -0.020073788, -0.020889532, -0.15600383, -0.14163297, -0.103368096, 0.18067987, 0.027856175, -0.032986894, -0.04795896, -0.15603063, 0.04931401, -0.016496256, 0.06422807, -0.17873031, -0.052550327, 0.09532089, 0.07170276, -0.11090101, 0.15443516, -0.09546723, 0.12057922, 0.021184336, 0.083851054, 0.008872932, -0.034855917, -0.20650242, 0.15510729, 0.0046892078, -0.076349296, 0.022817025, -0.026103802, 0.097658604, 0.10289068, -0.050035972, -0.05697225, -0.038559496, 0.095616095, 0.007564953, -0.08824302, -2.1363621e-05, 0.12911673, 0.14025153, -0.013984674, -0.1644611, 0.13422999, 0.1477496, -0.08434824, 0.13494323, 0.0372347, 0.00884018, -0.0983554, -0.02340715, -0.1253741, 0.05837854, 0.02648913, 0.0029110978, -0.15398325, -0.03300806, 0.016294336, -0.1598773, 0.002774078, -0.026625026, -0.21487653, 0.027134513, 0.06576323, 0.09646172, -0.059265573, -0.046086907, 0.16881815, -0.14247265, 0.18383774, 0.01989738, -0.012601901, 0.049500577, 0.0053643575, 0.03686883, -0.06977239, -0.09617898, -0.06626344, -0.086845756, 0.061935518, -0.16203152, 0.032326203, -0.028900519, -0.13258496, 0.039544072, 0.18595769, 0.14248633, -0.08255309, 0.11712094, -0.054235373, 0.0047130715, -0.040604535, 0.11571448, -0.0657978, 0.024343465, 0.018322043, -0.06584286, -0.0012707316, 0.15599953, -0.069895774, 0.08442617, -0.06856484, -0.04818667, 0.2023396, 0.14928676, 0.122215524, -0.127202, 0.098976836, -0.003893411, -0.07330933, -0.02810008, -0.043832544, -0.04778894, 0.014084989, 0.022161879, -0.012559161, 0.088948116, -0.17808798, -0.053515606, -0.052230403, 0.034476504, 0.012780536, 0.047045775, -0.03951908, -0.026290487, -0.070331626, 0.06818128, 0.03653081, 0.08986517, -0.098523594, 0.082645096, 0.07625683, -0.072188616, -0.015837904, -0.07173699, -0.06302059, -0.040441245, -0.051469587, -0.042134102, 0.004731908, 0.13062786, 0.019340554, -0.17132221, -0.14366284, -0.08243574, 0.083447635, 0.11385499, 0.07396535, -0.010568434, 0.046705674, 0.017755264, 0.004304961, 0.018436175, 0.17390034, 0.08075058, 0.014587307, 0.061996296, -0.073881105, 0.109150976, 0.024973316, 0.13503683, 0.091286935, -0.1531193, -0.05989214, 0.0363045, -0.102629334, 0.010011856, -0.011449954, -0.15221445, -0.018763687, 0.049821213, -0.011705882, -0.108733706, -0.056703497, -0.041540038, -0.013189867, -0.16552892, -0.054156117, -0.0921368, -0.1546773, -0.14196171, 0.0025091732, -0.048975937, 0.12928098, -0.1382986, 0.098707795, -0.10177438, 0.003957618, -0.06642808, 0.016765788, -0.17342906, 0.07658574, 0.016965926, -0.042003695, 0.12570874, -0.07399392, 0.033516143, -0.06802819, -0.043492727, 0.10610254, -0.0032492594, 0.02358695, 0.010434066, -0.1475921, 0.100011855, 0.033079762, 0.094602935, 0.14165695, -0.1639599, -0.0148421135, -0.13473749, 0.14483705, -0.034981064, -0.07336828, 0.03913845, -0.0028154706, 0.0761503, -0.09954682, -0.13530193, 0.11629388, 0.028101122, 0.10034425, -0.06861451, -0.028055808, 0.10544114, 0.02400042, 0.027383763, 0.15350841, 0.006453889, 0.013433534, 0.0037074462, -0.16435829, -0.11693654, 0.0775679, 0.0802432, 0.15877374, 0.049253162, 0.13719614, -0.13324212, 0.12109046, 0.0076230434, 0.12910014, -0.1325422, 0.054840602, 0.11992718, -0.022223968, -0.04618515, 0.020919902, 0.08435905, -0.090436906, 0.05516385, -0.00129143, 0.06712121, 0.07459502, 0.055684157, 0.08534243, 0.13291238, 0.103074126, 0.1250748, 0.12614357, 0.0010219346, -0.06737381, 0.0716958, -0.096237585, 0.012818324, -0.05210625, -0.04078874, -0.100178696, -0.026672943, -0.16352579, 0.106096774, 0.16710939, -0.053167373, -0.0014097566, -0.03293535, -0.1162428, -0.06737399, 0.08562834, -0.044412207, -0.023195747, -0.055152725, 0.08680816, 0.0071254615, -0.077470616, -0.031032028, -0.08984129, -0.14198932, 0.03966754, -0.029590223, -0.19249132, -0.09524523, 0.0041233725, 0.005561833, -0.18435045, -0.18622608, -0.053955495, 0.016427152, -0.102047384, -0.03053637, 0.13145098, 0.05292022, -0.06825347, 0.09892388, -0.15762436, 0.05226171, 0.059892017, 0.023200056, 0.017778926, -0.03819141, 0.15796325, -0.122218885, 0.022842579, 0.17694834, 0.07481246, -0.09456182, 0.035659727, -0.12911774, -0.15549283, -0.17851363, 0.054381862, -0.15086836, -0.15403251, -0.0447051, -0.08650677, 0.07132704, -0.13177282, 0.018488476, 0.021646786, 0.12010798, -0.09880487, -0.13151664, 0.027232504, 0.036974017, -0.023404773, -0.072027765, -0.1182644, 0.1357881, 0.046667166, -0.10210868, -0.08182513, 0.09189955, -0.06364581, -0.08028244, -0.13435322, -0.06522533, -0.08184387, -0.022638455, 0.14233853, -0.1556613, -0.025659405, 0.12999104, 0.004675578, -0.045789707, 0.045260668, 0.015238531, 0.012561853, -0.17471318, 0.12060358, 0.12602301, 0.07242258, 0.05220062, -0.061043814, 0.13992776, 0.05590446, 0.10060784, 0.103495926, -0.059443776, 0.0052380734, -0.008237905, -0.058400422, -0.0636361, 0.074972324, -0.13132767, 0.111949556, -0.051309235, -0.14540492, 0.10390607, -0.0022988613, -0.11192665, -0.1278598, -0.008926082, -0.08732123, 0.077706784, -0.023649288, -0.03806927, -0.043735936, -0.10763141, 0.0124032805, -0.021709327, -0.19542836, -0.1475481, 0.057304386, -0.0011671216, -0.037495892, 0.1744802, 0.12659077, 0.06014244, -0.13829347, -0.1746871, -0.023158751, 0.06559456, 0.19454147, -0.014060083, 0.047367953, -0.028051564, -0.08995886, -0.04691061, 0.0447353, -0.15683967, 0.0797719, -0.04133429, -0.101239, -0.1612391, -0.04643896, 0.10366564, -0.062207043, -0.1212467, -0.09844938, 0.06348164, -0.13996252, -0.15599728, 0.04792371, 0.110190965, -0.04826026, 0.14021267, 0.0004675362, -0.1926937, 0.026991501, -0.04913684, 0.018854333, -0.028001415, 0.03801873, 0.018282056, -0.0057899486, -0.07575267, 0.08551574, -0.07661345, 0.036884833, 0.041554477, 0.045938008, -0.1000551, -0.06667578, 0.015571992, 0.05487532, -0.07099225, 0.14145951, -0.118413374, 0.027017632, 0.02537194, 0.05243244, 0.14312114, 0.053703427, -0.046355277, -0.074338734, 0.005836718, 0.06296087, 0.07603736, -0.18460204, -0.18427946, 0.09056376, 0.17347401, 0.077031545, 0.0270972, 0.008359605, -0.0914543, 0.057866253, 0.0077294493, -0.1886595, 0.09797022, 0.012080877, 0.093456246, 0.02195309, 0.12711056, -0.012728788, -0.17018501, -0.049297925, -0.03735651, -0.035939664, 0.034908384, 0.062116455, -0.11854936, 0.084810734, 0.07280337, -0.18540426, -0.0023773918, 0.14503929, 0.025082396, -0.026741901, 0.034916926, 0.13121505, -0.013014097, -0.08305335, 0.11831365, 0.032492444, -0.11182261, -0.13749413, 0.17116289, -0.00065640267, -0.06990096, -0.016023219, 0.026302064, -0.12190164, 0.0688311, -0.037995867, 0.07379173, -0.03719589, 0.073630065, -0.015801704, 0.167277, -0.05409054, 0.0071052024, -0.0668173, -0.016290797, -0.0531333, 0.0156001095, -0.21474496, -0.10305491, 0.0056721345, -0.0030141703, 0.010775974, -0.15401831, -0.06696386, 0.065321475, 0.09353821, -0.06921049, 0.07695315, -0.004236867, -0.035559084, -0.043677986, 0.0694894, 0.112143606, 0.056593776, -0.11250717, 0.17848592, -0.09269267, -0.17912252, -0.12478309, 0.08333441, 0.12058464, -0.06516211, -0.0054039727, -0.13377033, -0.0611694, 0.12039452, 0.13655356, -0.019638218, -0.040341053, 0.0151575105, -0.115189224, -0.16972645, -0.025073754, -0.18337789, -0.020151176, 0.015646651, 0.122138955, -0.033465236, 0.042739246, 0.1706989, 0.00011694712, 0.103352144, -0.1461564, 0.08405473, -0.064431176, -0.043592364, -0.09120251, -0.0085987095, -0.055169236, -0.03327609, -0.035107326, 0.08615891, 0.03693843, 0.0026051207, -0.022876741, 0.04221953, -0.019497648, 0.046795145, -0.06611617, 0.057487767, -0.07816586, -0.07064936, 0.07612372, 0.1528396, 0.017126516, -0.08386577, 0.16560523, -0.16644353, -0.049586855, 0.05101621, 0.08587973, 0.03827441, -0.16401708, 0.08811616, -0.056051463, -0.010940522, 0.08323297, -0.15067555, 0.18571931, -0.0064111855, -0.093085684, -0.028105088, -0.010058859, -0.02420332, -0.16367644, -0.036982514, -0.03579503, -0.06327025, 0.0453193, -0.032920025, -0.04954392, 0.108312026, -0.09208567, -0.09874578, 0.12700711, 0.004271975, -0.00087060797, 0.087618366, 0.092135735, -0.10308229, -0.02293479, 0.07178211, 0.052539557, -0.044986706, 0.10906047, -0.15618631, 0.010375188, 0.048741564, -0.004724098, 0.01203751, 0.017422901, 0.12600751, -0.027768083, 0.025307411, -0.071336746, -0.006271986, 0.04164839, 0.06510537, 0.011751576, 0.07832392, -0.035115454, -0.05042853, -0.05944033, -0.026527738, 0.023708148, 0.17707317, -0.06025256, 0.03644754, 0.13780366, -0.1711706, -0.04001099, -0.020033564, 0.08549675, -0.015614106, 0.040993996, -0.023559194, -0.018258026, -0.1044303, 0.10408744, 0.07649111, 0.11000524, -0.07111618, 0.030196391, -0.014391777, 0.022352021, -0.07530256, 0.07161996, 0.14893956, -0.1967951, -0.07886292, 0.14011213, -0.0022060198, -0.19771034, 0.072343715, -0.06904781, 0.1777306, 0.09383804, 0.018764753, -0.07026007, -0.111157954, -0.02270784, -0.0257466, -0.056342978, -0.11535539, 0.10171268, -0.005062327, -0.08147642, 0.0802354, 0.047811124, -0.095376916, 0.066530935, -0.008217921, 0.09126477, 0.006301073, -0.05511998, 0.07974749, 0.08206235, 0.12876357, 0.107141756, -0.09920159, 0.097166725, -0.009224684, 0.0029497053, 0.06240733, 0.13478081, 0.013693999, -0.041781705, 0.09153431, -0.047940053, 0.1201998, -0.13657048, -0.060977355, 0.05910187, -0.18380104, 0.058212794, -0.013045479, 0.018944938, -0.05101284, -0.030451493, -0.15915357, 0.11905241, -0.032628816, 0.07513244, 0.100629784, 0.054989956, 0.040516894, 0.091295294, 0.014199672, -0.17155984, -0.06556734, -0.12546863, -0.033035614, -0.08804287, 0.075032875, -0.12369753, 0.011749824, 0.11372215, 0.0664945, 0.043617368, 0.11465119, 0.058189895, 0.040304564, -0.08477731, 0.01340931, -0.06409063, 0.039124828, -0.14652464, -0.15971863, -0.005639761, -0.10221378, 0.013983093, 0.07040239, -0.0480316, -0.030876724, -0.04134762, 0.07168107, 0.0878263, -0.029693466, -0.08769493, 0.024628965, 0.009198144, -0.084965035, 0.0213971, 0.006975857, -0.026209846, 0.08332511, -0.17465341, 0.12383383, -0.0073855985, 0.036224972, 0.03792715, -0.102325924, 0.011889144, -0.13499275, 0.06497218, 0.12789786, -0.21175031, -0.08506742, -0.07158331, 0.12311643, 0.07980602, -0.13050829, -0.04103112, 0.037631664, -0.040233973, 0.0673506, 0.102530286, -0.021606402, 0.14896421, 0.07331133, 0.02090024, -0.006518147, 0.08460599, 0.04188119, 0.11532355, 0.009563862, -0.047296803, -0.14706221, -0.067269385, -0.06704696, 0.015384845, -0.07628987, -0.0069708223, -0.12293202, 0.024153268, -0.0016343816, 0.061819725, 0.064167455, -0.02972815, 0.09921461, -0.11820056, 0.10802431, -0.052539293, -0.08217167, 0.0026119603, -0.16766937, -0.18071795, 0.09225132, -0.08136318, -0.08258681, -0.027897455, 0.043691225, 0.06891063, -0.010282565, -0.11737358, -0.07219024, -0.12852737, 0.009045581, 0.014117849, -0.07488792, 0.040878486, -0.03371979, 0.12490165, 0.07941808, -0.047776584, -0.115030035, -0.13830972, 0.09024366, -0.12893115, 0.009647487, 0.05616023, -0.026465302, 0.045959983, -0.12837598, 0.124905534, 0.013793182, -0.021881409, 0.07740588, -0.059366707, 0.022689292, 0.012868781, -0.03877095, 0.09540542, -0.060813196, 0.017858464, 0.092062324, 0.040163405, 0.07321529, -0.09519967, 0.017371628, -0.007480471, -0.010396231, 0.060790855, -0.079667285, 0.103166044, -0.16731836, 0.13843568, -0.12825648, -0.05453267, 0.13969308, -0.05906897, 0.12528919, 0.017212285, 0.059392784, 0.017827414, -0.10735791, -0.052709382, -0.04354042, 0.08279118, 0.0041696075, 0.030244388, 0.06559881, -0.013377454, 0.07748661, -0.16402264, -0.065316014, 0.11480955, -0.1251458, 0.033391163, -0.015730005, -0.026576247, -0.1035858, 0.15900894, 0.05456785, 0.070779316, -0.03036163, -0.17606045, -0.03232265, -0.007695549, -0.11632428, 0.008315018, -0.16011037, 0.12840112, 0.050991148, -0.07316558, -0.06130775, -0.04066337, 0.026904007, 0.011046994, 0.03799443, -0.011229906, -0.06849376, -0.12783474, -0.1311087, 0.056761242, -0.15727639, 0.057228465, -0.07419963, 0.12945212, 0.15162894, -0.024330901, -0.15756726, 0.11817215, 0.05863724, 0.1279991, -0.0152184265, -0.080571175, 0.0011858534, 0.118580036, -0.066417515, -0.114476845, 0.035729304, 0.04869588, -0.080663644, -0.20771867, -0.17095192, -0.009864964, 0.07720742, -0.1523779, -0.12840086, -0.17805621, 0.021046104, -0.072007164, 0.0027688376, -0.003830445, -0.04083545, -0.14725937, -0.0645014, 0.19968781, 0.076422825, 0.019704146, -0.11361641, 0.021978077, 0.03167081, 0.06628551, -0.06585422, 0.05481048, -0.10900752, -0.0815369, -0.062804334, 0.051803727, -0.16504331, -0.07040663, -0.12846586, -0.1038282, -0.04556003, -0.076438785, 0.13362615, 0.028015586, 0.12273837, -0.077271506, -0.20686105, 0.040694017, 0.11243749, -0.0522595, 0.039451983, 0.024073383, -0.0528632, 0.14435944, -0.15475789, 0.06187449, 0.17167288, 0.052290533, -0.054941505, 0.08731047, 0.17911679, -0.12057811, 0.10528836, 0.03305708, -0.020621521, -0.06914035, 0.018598406, -0.06518153, 0.055653177, -0.02551725, 0.09990124, 0.029370084, 0.09258231, -0.10731045, 0.08383442, 0.0862885, 0.1330281, 0.12076998, -0.041687597, -0.056123648, 0.0730033, -0.0076570758, -0.107340425, 0.029396705, 0.00052719825, -0.06512386, -0.011247749, -0.0051381956, 0.025630144, -0.17524162, 0.01725658, -0.11865479, -0.026175898, 0.058876134, 0.043981858, 0.17703028, 0.07657127, 0.044030122, -0.10004516, 0.023479423, -0.2004468, -0.078433536, -0.108592905, -0.051532708, -0.13375017, -0.07266156, -0.15122123, -0.00028267837, -0.053533863, 0.06670193, 0.08923395, 0.036087595, -0.032726273, -0.0815135, -0.047164153, -0.031918287, 0.11819611, -0.042721245, -0.13975336, 0.033861868, -0.008565161, -0.06419388, -0.11818593, 0.045453615, -0.086123064, 0.04423811, -0.13550986, -0.11497324, -0.16195168, 0.108842894, -0.0150466375, -0.038656, -0.019518178, -0.12010731, -0.023904093, -0.04254191, 0.075911164, -0.10041162, -0.015735595, 0.10565336, 0.07463466, -0.058248103, -0.043893714, 0.19441542, -0.037141938, -0.012325235, -0.17075197, 0.17734069, -0.09723484, -0.17480941, -0.15722291, -0.06732438, -0.04176406, -0.21693757, -0.15149051, 0.02874722, -0.13667445, -0.06461746, 0.12171907, 0.057747126, 0.08439779, 0.079852566, -0.004659437, 0.052612513, -0.13320455, 0.100981936, 0.16292167, 0.050720472, 0.0038479744, 0.03844052, -0.05408494, -0.07744706, 0.09539208, -0.12666419, 0.11708715, -0.055372503, 0.09877985, 0.028991364, -0.09711923, -0.010842803, -0.00392453, 0.055212554, -0.1262215, 0.011435577, -0.12695257, 0.012433784, -0.07718695, 0.06439204, -0.0058531426, -0.14420919, -0.05721406, 0.17465314, 0.012803008, -0.05065427, 0.054287888, -0.016770713, 0.12454583, 0.15430486, -0.017622344, 0.067530654, -0.0043935156, 0.074159905, 0.11114264, 0.12616464, -0.07843369, -0.039007593, -0.09729946, 0.058920667, 0.16224208, -0.09919457, 0.060406234, -0.015147127, -0.016422894, -0.082113095, -0.0028165723, -0.1494531, 0.052506454, -0.083491534, 0.14183572, 0.15553157, -0.1747346, -0.06173325, -0.057995055, -0.0006479698, -0.10556377, -0.09053931, -0.08930267, 0.11361146, 0.041085105, 0.051260587, 0.05986211, 0.0072650686, -0.0407499, 0.10053433, -0.024563873, -0.08814536, -0.03656185, -0.09093765, 0.011291443, -0.063190855, -0.04048293, -0.04344074, -0.0055724615, 0.020753756, 0.011569678, 0.11470877, -0.20364882, 0.073130116, -0.1320549, -0.059371218, -0.04068819, 0.07945603, 0.17746778, -0.004643735, 0.030313812, 0.05712915, -0.106639296, -0.014848355, -0.08905709, -0.03279615, 0.05595187, -0.20131512, -0.055068817, -0.034901176, -0.018916178, 0.037100233, -0.12486517, 0.0007491254, 0.072788075, 0.006662393, -0.08578093, -0.11459932, 0.07090569, -0.001395456, -0.1236189, 0.028375652, 0.024530254, -0.16773133, 0.1757531, -0.03710427, -0.046180565, 0.030575555, 0.14974092, -0.081215285, 0.14476655, 0.01404696, 0.0143681085, -0.08021681, -0.006390411, 0.14960042, 0.14494108, 0.12649271, 0.20215829, 0.016491367, -0.06599713, -0.15706865, 0.0046966467, -0.11929247, 0.112573355, -0.050743815, 0.025166517, -0.035592977, 0.03561506, -0.13536042, -0.12559988, 0.030572949, 0.015497928, 0.10208596, -0.07902831, 0.1364281, 0.042368762, -0.05586529, 0.012259798, -0.07795957, -0.19911818, -0.0142977955, -0.12139477, 0.10692563, 0.036125015, 0.032157008, -0.035190154, -0.10657384, -0.07889644, 0.052555066, 0.11325028, 0.11556164, -0.0903609, -0.025398199, 0.007205219, -0.04231108, 0.009421388, 0.10601909, -0.009248682, 0.10189987, -0.021285938, -0.085812405, -0.14293072, 0.057216156, -0.06556007, 0.14326574, -0.076815605, 0.101584986, -0.016685989, 0.11243232, -0.012712953, -0.012591386, 0.06223102, 0.051148087, 0.050628625, -0.08967806, -0.10599254, -0.11748977, -0.0049510673, 0.12406011, 0.037000366, 0.008891255, 0.011007652, 0.03566395, 0.08783654, 0.026414687, 0.07810193, 0.109708294, -0.03280609, -0.21364191, 0.19680093, 0.06093914, -0.08589584, -0.010996744, 0.026320864, 0.0014890599, 0.015694238, -0.019487837, -0.11165199, 0.02117414, 0.0003701251, 0.17096107, 0.085095674, 0.0807958, -0.015979053, -0.15612017, 0.050081246, 0.060520224, -0.06728995, 0.08662255, -0.12684064, -0.13692294, 0.08267536, -0.09875522, 0.041950744, 0.001516241, -0.043455787, -0.053461265, 0.12371911, 0.032842927, 0.047017787, 0.02801254, -0.01850141, -0.059566412, -0.03794553, -0.042241637, -0.1133351, -0.0071253157, 0.04025862, 0.073514074, 0.1295055, 0.026577104, 0.0014985512, 0.050025977, 0.031334713, -0.06513429, -0.049857005, 0.13908663, 0.056407873, 0.08953334, -0.0972508, 0.051808678, 0.18473935, 0.093519196, 0.04042652, 0.12474036, -0.1280548, 0.0052580875, -0.086963184, 0.0700399, -0.0410369, 0.08562417, 0.10805912, 0.03678549, 0.05263736, -0.029280579, -0.0133276535, -0.10600516, 0.08118371, -0.026964467, -0.020217918, 0.17502263, -0.06830666, 0.05188221, 0.087238386, -0.17354713, 0.010381762, -0.07671712, 0.19818193, 0.02840854, 0.10471236, -0.08457112, -0.012237619, -0.02270584, -0.026873099, 0.053431783, -0.10607942, 0.012317433, -0.13834149, -0.14240262, 0.05578691, 0.0074770465, 0.025268212, -0.0060898988, 0.020281857, 0.049886208, -0.02589571, -0.09091688, -0.030153055, -0.13202406, 0.020994125, 0.063839406, -0.18465196, -0.13072652, -0.12457512, 0.089458495, -0.014699417, 0.088167526, 0.09219679, 0.00011075798, -0.04821683, -0.09840223, -0.113047086, 0.024651632, -0.048219245, 0.010497663, -0.056606222, 0.061300423, -0.057218835, 0.071569316, -0.07514723, 0.060875572, 0.04306188, -0.12261938, -0.13136308, 0.047020406, 0.0077428822, -0.06573179, 0.017068783, 0.042257432, 0.111122645, -0.026841171, -0.19569542, -0.052814305, -0.16638458, 0.109641716, 0.029711297, -0.08701677, -0.02161015, -0.095605075, -0.086275116, -0.050081905, 0.070546135, 0.1025716, 0.11570707, -0.19507387, -0.11680585, -0.011555771, 0.0004102942, -0.02035556, -0.012576733, 0.14819017, -0.19181906, 0.20134403, -0.022264848, 0.023725044, -0.058771048, -0.17859219, -0.09386344, -0.08414114, -0.02268975, -0.16169693, -0.14845666, 0.049661078, 0.014487921, -0.09137816, 0.014562006, -0.09176729, -0.19284613, 0.0036120706, -0.0160474, -0.1417187, 0.05531626, -0.03983279, -0.09148292, -0.093491405, 0.106395945, -0.05349115, -0.09388683, -0.15614675, -0.046082724, -0.031960677, 0.045722995, 0.030567706, 0.11333467, 0.14825574, 0.025174156, 0.061239917, 0.14249142, -0.13087334, -0.060375214, 0.03556475, 0.13967223, 0.012288139, 0.017252795, 0.08110027, 0.03336622, 0.010288841, 0.054310814, 0.0924395, -0.13548791, 0.012706212, 0.0027962523, 0.06993873, 0.045857403, -0.0630288, -0.075037636, 0.052730426, -0.10215524, 0.10488521, 0.13388348, 0.03614, -0.05864448, -0.18697514, 0.12410584, 0.046990376, -0.02880567, -0.14413199, -0.0934254, -0.1233842, -0.04745011, -0.10776496, 0.08452688, 0.001996682, 0.08034313, -0.17600879, 0.023477076, 0.12689881, -0.03745576, 0.018425448, 0.022485483, -0.014709916, 0.028076632, -0.088116914, 0.046821345, 0.19284575, 0.14744367, -0.11635599, -0.07012118, -0.010394661, 0.020569324, 0.1010401, -0.07110475, -0.15670735, -0.031744674, 0.11197786, -0.05419661, 0.04501794, -0.117082104, -0.011694132, -0.0039840764, 0.026848175, 0.09678279, -0.0051197493, -0.015383432, 0.020160107, -0.12351047, -0.08084474, 0.117106736, -0.044627566, -0.03788721, -0.1669339, 0.06226278, -0.1428161, 0.12552486, 0.044604424, -0.10394319, -0.03824586, -0.03787434, -0.056958288, -0.0098682465, -0.020790821, -0.106743425, -0.14565925, 0.06271057, 0.079873204, -0.046028536, 0.066912256, 0.04452119, 0.018115554, 0.050610166, 0.08299649, -0.22583742, 0.047511127, 0.039566077, -0.09667283, 0.077123396, 0.08511536, 0.113101326, -0.032700326, 0.09822839, -0.07854805, 0.047655366, -0.00439636, 0.049476083, 0.12304231, -0.007449201, -0.006406181, -0.08986256, 0.045540635, -0.1839534, -0.13378944, 0.12481994, 0.011464701, -0.08009941, 0.086957715, 0.023180066, -0.16182454, 0.11564095, 0.0023621712, 0.07011441, -0.13915637, 0.044403862, -0.020442031, 0.14954463, -0.08644648, 0.08484491, -0.03063324, 0.11684316, -0.16716811, -0.19575228, -0.10701428, -0.072679654, -0.016605867, 0.00224225, 0.0066100173, -0.0548733, -0.022425706, 0.07640875, 0.013836395, -0.0071246186, -0.036208875, -0.09400469, -0.07354824, 0.04022328, 0.072185814, 0.047852587, -0.0025921266, -0.10533515, -0.107213974, 0.027367273, 0.13659431, -0.025016336, -0.007769624, 0.045720737, 0.015642792, 0.17973672, -0.114890166, 0.011862563, -0.04949452, 0.047000878, -0.025429912, -0.0046428093, 0.06065171, -0.06521716, 0.08684731, -0.059587397, -0.14132428, 0.082717575, -0.09445677, 0.037759192, 0.11967948, -0.14648439, 0.0744471, 0.141745, -0.09141725, 0.15052575, -0.020884786, 0.012497446, 0.07001322, 0.024806174, 0.0551686, 0.1157595, -0.11038174, -0.056176882, 0.015178845, -0.16353446, -0.07059802, 0.011223483, 0.13399205, 0.14250751, -0.11296484, 0.00899259, 0.15985548, 0.14471124, 0.057182353, 0.08412849, -0.10665632, 0.047210507, 0.009463032, -0.013685529, -0.090821564, -0.047544654, -0.03634904, -0.104700446, -0.03241326, -0.18034063, 0.15509127, 0.031640667, -0.102409326, 0.021871211, -0.017318413, 0.028175974, -0.102006964, 0.038580205, -0.13664357, -0.10341579, 0.03837329, 0.122362085, 0.029680267, 0.06537832, 0.13331267, -0.02308654, 0.04690873, 0.07668836, -0.05304223, -0.033126973, -0.0414814, -0.040460635, -0.08296194, 0.049579836, 0.05305702, -0.005000714, -0.15846245, 0.020704733, 0.11353245, -0.08883903, -0.07241173, -0.081472956, 0.0997017, 0.14349483, 0.03844086, -0.16174701, 0.050089937, -0.11057702, -0.20440023, 0.021108096, -0.012929539, -0.02691534, 0.030725809, 0.13037674, 0.05928842, -0.06532895, 0.1379167, 0.048242882, -0.027140798, -0.06125037, 0.06387738, -0.09936532, 0.019249797, -0.012193285, -0.108187154, 0.057131883, -0.07564996, -0.0861875, -0.003637974, -0.030919876, 0.019393886, 0.08715227, -0.015791107, 0.027333794, 0.033844493, -0.15328833, -0.09508514, -0.025638929, -0.008175849, 0.07614953, 0.088031314, 0.025832066, -0.1398365, -0.075727575, -0.020490324, 0.07466421, -0.032620013, -0.032891348, 0.17222008, -0.015970148, -0.014344614, -0.122090146, 0.0078101214, -0.06764377, 0.08149357, 0.0031328409, -0.07554237, 0.081457205, -0.031045707, 0.022974702, -0.15827283, 0.060478467, -0.0010697145, 0.017325431, 0.061165467, 0.0111209145, -0.04237039, -0.101367004, 0.11648143, -0.01729872, 0.093286, 0.027526554, -0.10208842, -0.06454488, 0.013048641, 0.08428291, 0.030473797, 0.12868978, -0.14073898, 0.03664755, -0.03504428, -0.109168835, -0.101421475, -0.060042895, -0.12974189, -0.15806605, -0.06677612, -0.023936808, 0.032119907, 0.08110574, 0.05067675, 0.0021156562, 0.06811161, -0.015285059, 0.09334189, -0.0051403055, -0.19352703, 0.1559518, 0.012453643, 0.046086032, 0.06096492, -0.010012425, -0.08239454, -0.06582611, -0.026987692, 0.07990462, -0.12806958, -0.11518373, 0.09031485, -0.09201443, 0.10469404, -0.1335004, 0.018933048, -0.046056487, 0.0858979, 0.018732334, -0.07216185, 0.102222815, 0.16974969, 0.1114676, -0.0758338, -0.04250413, -0.040112186, 0.1730803, -0.031516578, 0.07310548, -0.0073591988, -0.13296057, -0.00817214, -0.04701816, 0.0058072745, -0.05595063, 0.07802659, -0.030107707, -0.051843394, 0.07364229, -0.024599139, 0.105777696, -0.036235727, 0.1515855, 0.07158778, -0.010877609, -0.004612264, 0.07070992, -0.011672241, -0.0519935, -0.09614112, -0.22053637, -0.08054696, -0.13658306, -0.0040794862, 0.055052098, -0.13647245, -0.12071006, -0.04688643, -0.057973366, 0.04971419, -0.12057622, 0.08223431, 0.0699478, -0.057029776, -0.057805438, -0.0014233197, 0.03627131, -0.17359452, -0.025998829, 0.05374711, 0.13159701, 0.16737296, -0.019176224, -0.19954227, -0.080781564, 0.025735842, -0.073339745, 0.060638785, 0.0045735976, -0.11766141, -0.037563145, -0.06735159, 0.07568991, -0.06597982, 0.041584294, -0.1743821, 0.06828281, 0.055691287, -0.02811151, -0.17310378, 0.00024258562, 0.039363194, 0.07468155, -0.036133386, 0.21961577, -0.11178512, 0.042285923, -0.025988627, 0.027598929, -0.029977424, 0.06968656, 0.13169357, 0.12792985, 0.10399945, -0.050713524, 0.046077263, 0.05696585, -0.15127817, -0.07837126, 0.14548163, 0.015114094, 0.04547373, 0.1305179, -0.062480245, -0.039132092, -0.0065313415, -0.04011238, 0.04912104, 0.087973714, -0.0778552, 0.15408614, 0.017999703, -0.1892975, 0.15800191, 0.16442478, -0.15527798, -0.03836206, 0.009445247, 0.11599406, 0.13771021, -0.09845445, 0.16881157, 0.12833796, -0.03266479, 0.07286462, -0.011238583, 0.046542045, 0.11221245, -0.079268016, 0.0048764003, -0.09720167, 0.02836969, -0.043803904, -0.11685386, 0.15386462, 0.05631363, -0.01656137, -0.106384896, 0.06788495, 0.0193042, 0.07693426, 0.017539328, -0.08996767, -0.023934618, -0.017324265, 0.07000015, -0.1390723, 0.038354274, -0.13344364, 0.07193397, -0.02446406, -0.04587705, 0.07367004, -0.10414472, 0.005696715, -0.037525605, 0.02764779, 0.1544999, 0.15566993, -0.11466185, -0.14869744, 0.107157655, -0.18670063, 0.13449498, -0.02549969, -0.123988554, 0.013171357, -0.13511625, 0.09337596, -0.0065089203, -0.17510983, 0.05634, 0.02902281, -0.024523018, 0.14438686, -0.014606166, -0.116133764, 0.029361626, -0.08271174, 0.093039654, 0.13510327, -0.021847917, -0.12285129, 0.055797417, 0.034395527, -0.09326133, -0.062401656, 0.013191042, -0.10511966, -0.056759097, 0.039888818, -0.035858687, -0.075212575, 0.03992258, -0.13286473, 0.13225892, -0.0064842124, 0.10545199, 0.0820173, 0.035076786, 0.07472124, -0.012913849, -0.13226742, -0.06503474, 0.078439325, 0.016621688, -0.037007056, -0.102855094, -0.09442938, 0.019221831, -0.1780153, -0.07390702, 0.12455936, -0.042241257, -0.1642376, 0.08513583, -0.081720114, 0.082583584, -0.08791925, -0.0037233937, 0.065708525, -0.06328572, -0.019111728, -0.14854386, -0.056629933, -0.026560076, 0.026722962, 0.03711364, 0.13707057, 0.05721648, -0.009701428, -0.0068674856, 0.030749377, 0.015823737, -0.008860574, -0.032482, -0.035825763, 0.08985078, -0.12974016, -0.041414578, 0.06680642, -0.0017923652, -0.12408568, 0.12565534, -0.06610331, 0.16557556, -0.03309846, -0.029015107, 0.087319516, -0.13434549, -0.029114017, -0.025119135, 0.01913603, 0.065244906, 0.121040724, -0.11891949, -0.06089105, -0.0011439326, 0.0013296297, -0.038545348, -0.03399736, -0.06781878, -0.022488724, 0.089478016, -0.1195285, 0.10256366, 0.06256617, -0.15005313, 0.10035066, 0.13392435, -0.029211689, -9.0078116e-05, 0.043349475, -0.17418365, -0.069503635, -0.12557289, -0.11114707, -0.20445336, -0.06324183, 0.032495398, -0.035295315, -0.09227199, -0.029393638, -0.08145209, -0.1858063, -0.12903526, 0.050462496, -0.0045568566, 0.03217857, 0.037304834, 0.09458582, 0.058224965, -0.2028015, 0.06842204, -0.026415084, 0.17624669, -0.14154962, -0.061853725, -0.13579157, 0.012563998, 0.066133484, 0.09468117, -0.18019283, 0.020730391, 0.051396687, 0.060119808, -0.044085052, -0.032269996, -0.13878088, 0.053582434, 0.063558586, 0.05288929, -0.0065525793, -0.18144473, 0.00092463323, -0.04987878, -0.11183342, 0.1467685, 0.015693044, -0.09056282, -0.048974797, -0.009858415, -0.02553747, -0.0100204665, -0.111686096, 0.124458715, -0.11568148, -0.017950866, 0.10027133, 0.041606084, -0.028078388, -0.093929105, -0.038022537, -0.028300522, -0.07054755, -0.13187328, 0.014716792, -0.051424954, -0.08655316, 0.008855783, -0.043796036, -0.117452815, -0.04258371, -0.015388697, 0.017635008, 0.05345875, 0.08429634, -0.030027425, 0.013221765, -0.072922595, 0.017808205, -0.011333216, 0.16475962, -0.055538658, -0.07875444, -0.02214782, -0.059658885, -0.15392423, -0.029943027, 0.14043283, 0.108290486, 0.022131547, 0.09174263, 0.10274138, -0.109650366, 0.087674506, 0.1156148, 0.12402951, -0.07659203, 0.041116703, -0.09325756, -0.03603482, 0.14056517, -0.043448072, 0.07491847, -0.14059182, 0.035788555, 0.061083432, -0.17252468, 0.027657894, 0.059648354, 0.08944678, 0.09396287, -0.007670356, -0.014555201, -0.08403898, -0.07410786, 0.027323354, 0.02313354, 0.054370772, -0.15741237, 0.045193613, -0.011333047, -0.11752294, -0.052641388, -0.03183212, 0.074965924, 0.033812653, 0.043991473, -0.10343515, -4.7670706e-05, 0.05977469, 0.113149196, -0.037989955, -0.15533508, 0.05540177, -0.0077166897, -0.18538116, 0.15147913, -0.085139245, -0.07286248, -0.04095064, -0.031704064, -0.0736595, 0.08989176, 0.0978978, -0.14271134, 0.10766327, -0.069196604, -0.13417695, -0.053129993, -0.051183272, -0.09066418, -0.13474227, 0.17218447, -0.06165832, 0.0014786975, -0.0871086, 0.03725653, -0.16108899, -0.035584494, 0.09841989, 0.12051341, -0.05166204, -0.051244788, -0.031631533, 0.11445003, -0.036351983, -0.18450505, -0.1097308, 0.077493615, 0.0042318837, 0.09296907, -0.005832217, 0.0054943743, -0.15916154, 0.14764199, -0.005025667, -1.9188601e-05, 0.029648751, -0.01217596, 0.16849625, -0.119302504, 0.085062176, -0.007017104, -0.07921568, 0.06829124, -0.03661615, -0.2153869, 0.04723775, 0.13740852, 0.10904465, -0.052065656, 0.012074882, -0.020147473, 0.034203734, -0.0043973587, 0.06604137, -0.06414356, -0.0008107417, 0.00048241127, -0.10030726, -0.1349146, 0.032138027, 0.055350583, -0.057668667, -0.15106039, -0.09520947, 0.036734417, -0.059127226, 0.019604357, 0.19221705, -0.09298489, -0.09486702, 0.046038564, 0.106748454, 0.1353738, -0.08880964, 0.08527123, 0.015759462, 0.09223321, -0.050457355, -0.06587721, -0.071591906, -0.09111782, -0.18371433, -0.021552147, -0.06490475, -0.1095629, -0.18213739, -0.068373375, -0.12804979, 0.06505332, -0.010019382, -0.13152066, -0.1226963, -0.10455893, -0.047816556, 0.104505144, -0.10068849, -0.035867434, 0.049518626, -0.041056074, 0.052919824, 0.14320913, -0.00036258463, -0.19837402, 0.054732177, -0.052545074, 0.052336495, -0.01882611, -0.08768784, 0.10072046, -0.0329346, 0.16883455, -0.14157575, 0.018733129, -0.17446811, -0.10523117, -0.12774745, -0.05805062, -0.14148645, 0.021584686, 0.043050915, -0.021040697, -0.0041468176, 0.085077174, -0.12122685, 0.0071366034, -0.05524169, -0.12210643, 0.050760873, -0.099124864, -0.07061656, -0.10143333, 0.034467235, 0.17793146, 0.009927231, 0.03770977, -0.026008276, -0.1374069, 0.12851845, 0.20507728, -0.002408863, 0.1406229, 0.059348665, 0.12145635, 0.047812484, -0.035332073, 0.012295189, 0.072319, 0.13157809, 0.15146391, 0.056629878, -0.038474403, -0.07355076, -0.08920284, 0.038384058, -0.14542775, -0.07248968, -0.030264517, -0.088363186, -0.029592082, 0.0013800081, -0.049287226, -0.04915064, 0.046626218, 0.04308903, 0.014374337, 0.12227777, -0.0054797987, 0.14289284, -0.1303331, 0.14797397, -0.055669468, -0.014391695, 0.01699146, 0.09978566, 0.1352504, -0.06169473, 0.042831585, -0.17797713, -0.020818805, -0.008317618, -0.09021708, 0.030027576, -0.15582196, 0.08725895, 0.07057235, 0.031182004, 0.10303833, -0.1177193, 0.07763136, -0.0044694846, 0.06583885, 0.019669086, 0.15026972, 0.043117493, -0.1172117, 0.09843893, 0.013781752, 0.033758063, -0.1273149, -0.048538145, 0.10332035, 0.06215149, 0.12602432, -0.021189474, -0.13235082, -0.054720502, 0.16478439, -0.0051619266, 0.10462383, 0.10114629, -0.12426445, 0.018945094, 0.05982818, -0.0375902, 0.1337149, -0.12893498, -0.07686556, 0.014466105, 0.04345249, -0.15918757, 0.09901355, 0.04343644, 0.15209529, 0.003875459, -0.12601124, 0.057219747, 0.0020984828, 0.044256806, 0.019465758, -0.02284053, -0.13392195, -0.023772266, -0.036220264, -0.11068831, 0.0866142, 0.08408843, -0.13717139, -0.07369381, 0.02677943, 0.08693364, 0.0299169, -0.09023247, 0.116954826, 0.021895591, 0.017814904, 0.024946278, -0.09265138, 0.052329402, -0.11163287, -0.06924397, 0.06675117, 0.1616142, 0.11253078, 0.108879656, -0.0025278672, -0.032863587, 0.07945038, -0.0909121, -0.015573439, -0.08004931, -0.039916508, -0.09638886, -0.0067082904, -0.11010558, 0.17872058, 0.10467433, -0.037320025, 0.009136726, -0.031110317, -0.03689777, 0.016856628, -0.1281963, 0.068131335, 0.04364745, -0.17447121, 0.18029103, 0.03424657, 0.12796731, -0.019100426, 0.04459726, -0.047090806, -0.10204478, 0.04757041, 0.008372128, -0.07120455, -0.035508633, 0.028992271, 0.16394874, 0.113094926, -0.0038833953, -0.004894714, -0.004832188, -0.039635643, -0.1278677, -0.00049421826, 0.05418241, 0.037771825, 0.15078063, 0.101899594, 0.021862203, -0.058440603, -0.05637996, 0.1641247, -0.07649324, -0.02333633, -0.070263654, -0.11314979, 0.023382576, 0.0638121, -0.011182967, 0.13175699, -0.09447592, 0.02783495, 0.034745093, -0.08964408, 0.0092571415, -0.032101862, 0.023796417, 0.12580113, 0.09873539, 0.10207913, -0.053838044, 0.17707418, -0.044584535, -0.05047252, 0.028793203, -0.037105605, 0.10751522, 0.01620217, -0.11955991, 0.08079034, -0.017353855, 0.006396243, -0.09964438, 0.025001684, -0.107305445, 0.07290803, -0.09911218, -0.12708622, 0.124415286, 0.060787432, 0.117815346, 0.029112188, 0.027429016, 0.12816826, -0.03085136, 0.035633452, 0.043604903, -0.0704437, 0.09311821, 0.013497657, -0.044383887, 0.1857488, -0.052228626, -0.14756003, 0.103315294, -0.030364469, 0.012042387, -0.12670942, 0.100329824, -0.038016282, 0.09390376, 0.1538031, -0.14083883, 0.16220711, 0.005125713, 0.0062406887, -0.062398165, 0.024545608, 0.06955299, -0.1398009, -0.19328694, -0.0849406, -0.16816527, 0.0040962542, -0.12728044, -0.14951368, -0.09051337, 0.14418006, -0.031184765, -0.0870493, -0.018138794, 0.15207593, -0.062562615, -0.0988362, -0.16313411, 0.031921826, -0.0010167573, 0.015493685, -0.08802324, 0.07569828, -0.02803328, -0.023443425, -0.16712086, 0.09003464, -0.0075410176, 0.036074482, 0.047822066, 0.13181445, -0.09286759, 0.036598917, -0.090304226, 0.010713686, -0.013071192, -0.17893228, -0.11787554, -0.21792194, 0.059015322, -0.13125171, -0.028921025, 0.17374116, 0.019617552, 0.010112242, -0.14173988, 0.109917946, -0.014470486, 0.043625694, 0.07300025, 0.0955141, 0.026923342, -0.12389999, 0.14583346, -0.09691658, -0.017770076, -0.035731174, -0.061532225, -0.10789985, 0.083178714, -0.18212876, -0.07899885, -0.1866431, -0.015614807, -0.011536055, -0.019720228, 0.10784152, 0.13025223, 0.0041792933, 0.11451818, -0.008954749, -0.033295322, 0.018995004, -0.07176056, 0.13815303, -0.07104503, 0.097426645, 0.10743673, -0.035457928, -0.083477095, 0.10571073, -0.083029225, 0.031244932, -0.14990447, 0.00012493496, 0.19394112, -0.12622596, 0.15150043, -0.057915293, -0.05650039, -0.001158141, -0.13889632, 0.057825632, 0.1708546, -0.011081885, -0.02079489, 0.025354568, 0.03391447, -0.03999747, -0.18368673, -0.020407343, -0.0066164783, 0.012900205, 0.11586803, 0.03825896, -0.09936116, -0.14991866, -0.031542446, -0.111294374, -0.077871345, 0.10835745, 0.04639479, 0.14688565, 0.1178646, 0.044162467, -0.15365416, -0.068349056, 0.11878847, -0.13507031, -0.068990044, 0.09075018, 0.16088629, 0.13010618, 0.018071122, 0.061223365, 0.112390645, 0.0059686317, -0.010335324, -0.07323599, 0.14789547, 0.1374084, -0.14218077, 0.02371353, -0.027558278, -0.14613152, 0.04087748, -0.10306813, 0.038319908, -0.050302707, -0.0009809207, -0.17796642, 0.04673871, 0.011371694, 0.062511176, -0.10833613, -0.09487897, 0.04630559, 0.01703321, 0.07155888, -0.0038954504, -0.10477398, 0.10866464, 0.09824408, -0.080844946, -0.039701987, -0.107027434, -0.008330576, 0.07991306, 0.19704588, 0.007903758, -0.09623578, 0.09124742, -0.11395423, -0.028351411, 0.13413192, 0.04488152, 0.06140145, -0.02675292, -0.09117097, 0.036706682, -0.032559607, 0.05521207, 0.097937316, 0.067463435, 0.036258895, 0.07838452, 0.08168972, 0.15528232, -0.13924827, -0.041111402, -0.174877, -0.020478448, 0.03495146, -0.044628795, 0.11623555, -0.115562566, -0.10157109, 0.17038703, -0.01121394, -0.12906508, 0.056412138, 0.019831007, 0.01444893, 0.06003625, -0.116564535, -0.0673227, 0.01609442, 0.018398229, 0.01806528, -0.09798447, -0.05779752, 0.041794173, -0.049243283, -0.024186848, 0.096888356, -0.023350533, 0.06747715, 0.11347377, -0.034914337, 0.0026597874, -0.07396891, 0.007934361, -0.040991656, -0.11206357, -0.042293098, -0.09240797, 0.15848781, -0.09231416, 0.032127548, 0.029582331, -0.18415219, 0.05776251, -0.025436696, 0.15096925, 0.06655599, 0.06161848, 0.117094725, -0.0784306, 0.0604609, -0.03150616, -0.16274701, 0.13671443, 0.058740024, 0.06478648, 0.006631496, 0.118086696, 0.17715342, -0.16294636, -0.02723828, -0.02805824, 0.03858796, -0.048780944, -0.1521538, 0.09830873, -0.06802159, 0.06590961, -0.061116677, 0.032403357, 0.0026713575, 0.090598755, -0.1272088, 0.082527176, 0.047585282, -0.071359046, -0.03411816, -0.14123264, 0.06926524, 0.0019110866, 0.07192841, 0.050018843, 0.06352568, -0.039863274, -0.004853356, -0.012428965, -0.055825066, -0.07301843, -0.09849817, 0.06655313, -7.535296e-05, 0.005146366, -0.059748784, -0.13872854, 0.080769576, -0.038751315, 0.0017821913, 0.029008197, 0.012326483, 0.0005407724, 0.19324875, -0.1342725, 0.15927152, 0.015331839, 0.038030237, 0.054963216, -0.04878493, 0.0858826, -0.08283022, -0.095679015, 0.035542853, -0.09210165, 0.14146072, -0.08898712, -0.1561497, 0.0035084079, 0.033884775, 0.103091076, 0.026381908, 0.16051827, -0.07762694, 0.05285008, 0.023597876, -0.07964004, -0.10657291, 0.046831977, 0.09988969, 0.18984403, 0.074481405, -0.018217534, 0.12427308, 0.030850653, 0.10375376, 0.045379594, 0.16850114, -0.026018968, -0.0082144635, -0.13861491, -0.03660017, 0.09600456, 0.13801661, 0.08922026, -0.1499362, -0.021072702, 0.018023891, -0.06911612, 0.12473396, 0.06075913, 0.02777843, -0.14362697, 0.072492965, -0.11629615, 0.0566038, 0.092951596, 0.035982147, -0.052203797, 0.046934966, -0.018557664, 0.056158084, -0.017525746, 0.09684829, -0.065700285, -0.060248967, 0.09824759, -0.14910537, 0.13883239, 0.027335703, 0.19769177, -0.032283615, -0.08530718, -0.044972733, 0.047078863, -0.083973266, 0.04111712, 0.061668064, 0.064522766, -0.12439771, -0.098780625, -0.07442139, 0.12326263, -0.07107959, -0.02093634, -0.13956478, 0.050839964, 0.06970631, 0.04318052, 0.090181254, -0.093112625, 0.06903208, -0.07456886, 0.033471607, 0.04888953, -0.17951792, 0.02924766, -0.11156427, 0.041535392, -0.15843883, -0.1364202, 0.16254583, -0.033225846, -0.08953097, 0.10286553, -0.04096283, 0.04749085, 0.077350974, 0.0031968052, -0.16019122, -0.03379354, -0.08630153, -0.08423282, 0.09990583, -0.04248144, -0.09640486, 0.043548226, 0.086954795, -0.17613256, 0.018936498, -0.10172032, -0.08992162, -0.06977099, 0.083604306, 0.02495756, -0.11867498, -0.11616655, -0.040638696, 0.080124736, 0.04858689, 0.13297291, 0.058061812, -0.049315076, -0.09641112, -0.12659927, 0.015195655, -0.17473924, 0.06751032, 0.040283285, -0.023246929, 0.089977734, -0.11909452, 0.03280184, 0.0005974667, 0.059596527, -0.17971596, 0.0067678113, 0.100316904, 0.11061173, -0.049646784, -0.13122998, -0.00014847034, 0.09794565, 0.030537182, 0.06628445, -0.118508734, 0.053770233, 0.06938048, -0.083411366, -0.020959973, 0.0069774226, -0.123330645, 0.098806895, 0.11587392, 0.13973616, 0.08875987, 0.16636214, 0.06430627, 0.07126978, -0.048632197, 0.025164679, -0.014509646, -0.040204268, -0.06377587, 0.022732759, -0.12444278, -0.048019968, 0.012344993, -0.07629378, -0.12336593, -0.026157066, -0.15445356, -0.071961105, 0.0025677725, 0.02552898, 0.037915356, 0.036315467, 0.00846068, -0.16888453, 0.045726784, 0.05650739, 0.019284183, -0.006814283, 0.053485535, 0.08217845, -0.040763643, -0.13502033, -0.042990807, -0.18751538, 0.031660397, -0.008122857, -0.045393568, 0.08955278, 0.106805824, -0.09506822, 0.09052469, -0.0007166542, -0.17674083, -0.031978983, 0.085741624, -0.02405692, 0.07287404, 0.1795338, 0.15832578, 0.029430099, -0.009373407, 0.025242135, -0.082042046, 0.15040396, 0.035481013, 0.07715407, -0.009036062, 0.050723005, -0.12248381, 0.09799884, -0.05255914, -0.122761965, 0.1198489, 0.03215297, -0.076244526, 0.07980207, 0.09608699, -0.16454072, 0.11022538, 0.108703494, -0.15193357, -0.06707484, -0.10220049, 0.100610435, -0.09957452, 0.0490282, -0.12788428, 0.006211977, 0.11810181, 0.07140446, -0.07763877, 0.020758837, 0.01471218, 0.09762675, -0.10224405, 0.028838148, 0.1500065, -0.079368465, 0.112301394, -0.104665264, -0.047446232, 0.11615653, -0.10389109, 0.015818376, 0.06223199, 0.04331946, -0.05602428, 0.12029493, 0.029380003, -0.030370219, 0.17002505, 0.04951251, 0.16732153, -0.029814165, -0.016113183, -0.09591045, -0.09173325, 0.10424656, -0.13331766, -0.0129955225, -0.03938016, -0.058262285, 0.0254571, -0.07969833, -0.019463267, -0.13521065, 0.096145645, 0.019004611, -0.010370543, 0.12753834, 0.037900608, 0.028928265, -0.05178976, -0.17099012, 0.08974557, 0.10438089, -0.04615855, 0.0760749, 0.028122492, 0.060612492, 0.07450166, -0.12766354, 0.10601398, 0.063228324, 0.0073147835, -0.100876234, 0.09721459, -0.08678224, 0.1517631, -0.11708669, 0.01693675, -0.18349324, 0.116428636, -0.08325468, 0.18334864, -0.106029764, -0.12170497, -0.107796825, -0.13994464, -0.077828236, -0.015476684, -0.08341224, -0.04669993, 0.12956592, -0.11186088, -0.06044034, 0.075833425, -0.17362235, 0.122079365, 0.010188828, -0.06709096, -0.0013981052, 0.09237298, 0.12908162, 0.13723382, -0.057811514, -0.08114937, 0.19098178, -0.07941801, -0.12120099, -0.010849652, -0.04134042, 0.00053330994, 0.003255486, -0.02887211, 0.054815747, -0.06598671, 0.07012209, -0.04431969, 0.0763721, 0.08823916, -0.035970334, -0.0064073475, -0.030873936, -0.08432944, -0.096869245, 0.12918305, 0.07735875, 0.016014848, 0.17143036, -0.0582256, -0.12278699, 0.0065725865, -0.060964145, -0.015613762, -0.14837022, -0.15497395, -0.13088107, 0.14310776, 0.07509775, 0.07456344, -0.07149697, 0.032995462, 0.043356232, 0.109120615, 0.024210105, 0.10652014, 0.067343935, 0.03511513, -0.0652082, -0.10950298, -0.13273011, -0.12514597, 0.016901113, 0.033183143, 0.055180952, 0.08015117, -0.013745323, -0.13455506, 0.00032846947, 0.02259474, 0.07310023, -0.046116795, -0.035279, -0.064463004, 0.041228004, -0.055677574, 0.13842359, 0.08805146, -0.19803458, 0.01181856, 0.1405602, 0.051590443, -0.0046524657, 0.043022893, -0.046380553, -0.0027936958, 0.14540446, 0.014367483, -0.08541467, 0.03594164, -0.10145402, -0.052965827, 0.11262038, -0.04909546, -0.15924528, -0.04901636, -0.04271615, 0.014348267, 0.115436815, 0.04962952, 0.030720666, 0.06591289, 0.0037261227, 0.0987653, -0.063421324, 0.05270089, 0.10743524, 0.03925296, 0.063632846, -0.0821232, -0.103216946, -0.003275621, 0.12026117, -0.094075136, -0.06345662, -0.068391554, 0.09675114, -0.044872887, -0.10893665, -0.012574822, 0.14552462, -0.02227345, 0.1495109, 0.082095735, 0.0678213, -0.073963314, 0.07294692, -0.08825559, -0.027184116, -0.039005443, -0.050710455, -0.1869062, 0.022552134, 0.16182171, 0.024043694, 0.025008807, 0.014529013, 0.036647417, 0.13323, 0.09758838, -0.11158457, -0.16999729, -0.16414008, 0.16809766, -0.05149352, 0.08317222, -0.012472229, 0.08482365, 0.0969606, 0.014036035, 0.10548015, 0.008395973, 0.10699795, -0.023180319, 0.026816392, -0.085799575, 0.09647705, 0.14261146, 0.015382037, 0.11594254, 0.0034612867, -0.067978136, -0.0912101, 0.04669511, -0.15118577, -0.09446688, 0.100228116, 0.19005811, -0.1323875, 0.055339344, -0.009837835, -0.03443614, 0.014117892, 0.087745175, -0.021599796, 0.077214636, -0.074856274, -0.036547355, -0.057081282, 0.012065005, 0.06897393, 0.048308622, -0.16414323, -0.068093374, -0.021849874, 0.027723368, -0.113999434, -0.059882544, -0.07141297, -0.0077764466, 0.111749165, -0.07668585, -0.1557102, -0.215828, 0.017344555, 0.042689353, -0.01405305, -0.17340083, 0.13795903, 0.0076547763, 0.08201392, -0.0018134306, 0.0063657886, 0.07585276, 0.06601945, -0.12730007, 0.12942007, -0.025995638, -0.023177251, -0.1181467, -0.16790597, 0.117173694, 0.027095536, -0.04121885, 0.046575297, -0.06161506, -0.045260552, 0.12348915, 0.015653362, -0.11816623, -0.06324, 0.038970105, 0.00492724, -0.02989739, -0.027655045, 0.070313595, -0.031688094, 0.069559805, 0.116026305, 0.039567016, 0.08959848, 0.005741974, 0.089792706, 0.036226165, 0.07165811, -0.10138873, 0.006474284, -0.046666835, 0.18327953, 0.09214579, 0.014213524, -0.08860772, 0.032931987, 0.014571612, -0.062148713, 0.073522426, 0.0048272647, 0.06892596, 0.13710424, -0.051890854, -0.22126414, -0.12616096, 0.105338894, -0.07489186, 0.020662155, 0.015161609, 0.025901685, 0.04165249, 0.056454565, 0.03432015, -0.009274707, 0.07849419, 0.123753406, -0.10023344, -0.083704896, -0.17820613, 0.040431008, -0.008021231, 0.12049071, -0.07197677, -0.076023936, 0.064683765, 0.16649553, 0.02081886, -0.10344043, 0.111908816, -0.048679035, -0.1352419, 0.13634107, 0.048590004, 0.016698891, 0.051463593, 0.04396613, 0.124449104, -0.057088945, 0.13025095, -0.0010338826, 0.012498556, 0.07525444, 0.06300859, -0.04357534, 0.02218686, 0.07993502, 0.042487673, -0.13650894, 0.045341693, -0.01277855, 0.072072, -0.112590976, -0.03396283, -0.01873798, 0.09142323, -0.14952858, 0.14668459, 0.072125405, -0.05541633, 0.029613608, 0.16413464, -0.005623885, 0.07973379, 0.007869611, 0.13261223, -0.008071271, -0.033607442, 0.06900001, 0.0862024, -0.15554948, 0.12379636, 0.09178878, 0.012102499, 0.116313174, -0.024836117, -0.14645, -0.0565816, -0.05341074, -0.05512409, -0.031148428, -0.17507002, -0.0589815, 0.022367664, 0.08581398, 0.14137378, 0.07861132, 0.046537768, -0.02603937, -0.0804329, -0.06368432, -0.06543207, 0.015378957, -0.09484625, -0.112538606, 0.0066695823, -0.090214215, 0.1774384, -0.03837482, -0.042708624, 0.027644865, 0.077819504, -0.07658392, -0.023211058, 0.15302297, -2.1450247e-05, -0.073493384, 0.07192199, 0.0012762138, -0.19605668, -0.09698733, 0.042641364, 0.124684304, 0.11492137, 0.09949773, -0.06309954, 0.07937231, 0.02714675, -0.08195351, 0.16166054, -0.15242265, -0.03422138, -0.046064384, -0.15105213, 0.1723338, 0.08048475, 0.1645035, -0.05261781, -0.029214231, -0.01168159, -0.049564194, 0.06622996, -0.17840172, 0.09973986, 0.115413934, -0.16889916, -0.0417723, -0.14947447, 0.09813514, -0.13349225, 0.06522522, -0.016240455, 0.03379114, -0.16247958, -0.03043928, 0.014441083, 0.119886175, -0.014014416, 0.10874984, 0.12892377, -0.039369952, -0.030609488, -0.09417925, -0.19430126, -0.057692662, 0.094146125, 0.07013156, 0.01257522, -0.09655779, 0.00058617967, 0.07916685, 0.10878198, 0.038864035, 0.082154624, -0.16419005, -0.16109966, -0.0030474276, -0.14771408, -0.13477771, -0.014063274, -0.07363042, 0.15289603, 0.13925746, -0.0026570272, 0.034461007, -0.033538662, -0.017880186, -0.06280203, 0.097286776, -0.00025053538, 0.052803833, 0.026569258, 0.07528126, 0.08830716, 0.13897693, -0.12937324, 0.06531174, -0.17345186, -0.1416445, 0.012744639, 0.19400828, 0.067378454, -0.042055547, -0.060258504, -0.0036795055, -0.077369556, 0.023192834, 0.04573745, 0.10495301, 0.073838875, -0.12250121, 0.10831682, -0.15836813, -0.0023487753, 0.10687185, -0.20075043, 0.017348802, -0.17928395, 0.19774361, -0.009938505, -0.061207287, -0.19638576, 0.17150782, -0.06927974, -0.17525648, 0.15808682, -0.03392181, -0.008351783, 0.025417995, 0.06265241, -0.013862953, 0.036698703, -0.035730798, -0.19549246, 0.060152292, 0.01068601, 0.027332881, -0.04746843, 0.10461634, -0.009804572, 0.07250008, 0.096253045, -0.0080134785, -0.0026162122, 0.03135028, 0.090035796, -0.0033777463, -0.032259364, -0.09401525, -0.09970707, -0.04692766, 0.021256078, -0.019272596, -0.07633654, -0.050778702, -0.075885296, -0.059649378, 0.028362801, -0.0022010508, -0.0026967782, 0.07916511, -0.025812058, 0.023194663, -0.18156727, -0.0232288, 0.081797205, -0.01931719, -0.12340739, 0.06807761, 0.05063186, -0.10620303, 0.03942604, 0.048656177, 0.064697854, -0.05659849, 0.07027567, -0.17375883, 0.0030955595, -0.042770408, 0.021738304, 0.13626185, -0.013951982, -0.0051862434, -0.0880516, 0.12432263, 0.14484027, 0.008330969, 0.06820184, -0.024435623, 0.06845783, 0.10741936, -0.035057645, 0.061629087, 0.049175516, 0.02884088, 0.002938165, 0.1601484, 0.030621119, -0.08165209, -0.07089026, -0.091644794, -0.07658905, 0.056286693, 0.037510756, 0.09285557, 0.1010949, 0.11227893, -0.08059701, -0.042119034, -0.110927254, -0.086063355, -0.007457519, 0.03944171, -0.019838795, 0.011258849, -0.061365712, 0.01975405, 0.023439443, 0.10414819, -0.069038704, -0.041188, -0.014220315, -0.04342917, 0.040859323, 0.030634122, 0.039642755, 0.098980576, -0.01192686, 0.03490249, 0.058778707, 0.06512031, -0.0041904985, 0.06929563, -0.15859841, 0.008052431, 0.061031573, 0.017824396, 0.016413964, -0.005051421, 0.1329809, 0.101088226, -0.029400434, 0.08317585, -0.08786587, -0.071142614, 0.040576156, -0.12519646, 