float W_fc1_w[]={
0.06583998, 0.011938337, 0.15423423, 0.09077582, 0.05540463, 0.06733364, -0.06942644, -0.06812893, 0.12257496, -0.003828869, -0.09399931, 0.045525737, -0.021699544, -0.037552804, -0.0058974004, 0.033895887, 0.004886826, 0.0051170015, -0.11880252, 0.010148671, -0.09777789, 0.15028961, 0.040411208, 0.15833765, 0.14234523, -0.091058694, 0.069177516, 0.021661688, -0.0047727013, -0.03262707, 0.052466806, 0.05212182, -0.0027555511, -0.08205535, -0.053781748, -0.08621216, -0.1963526, 0.18682887, -0.09334122, 0.062611826, 0.03154455, -0.06880445, 0.08455131, -0.044069745, -0.11143508, 0.11040629, 0.11198184, -0.07432054, 0.027328739, 0.004316188, 0.10034467, -0.036275636, 0.11308822, -0.023077719, -0.1545917, 0.12639467, 0.05791409, 0.03559638, -0.031111388, 0.034484714, 0.019786889, 0.086455196, 0.105318405, 0.031263646, -0.19139768, 0.11815936, 0.05154249, -0.1768874, 0.06091765, -0.0009843961, 0.12558202, 0.097090416, -0.015752263, -0.031520955, -0.05661262, 0.012298903, -0.13415883, 0.030106965, 0.06676859, 0.009563607, -0.17639638, -0.16681086, -0.02160425, -0.0074079647, 0.0025983131, -0.11477677, 0.049020886, 0.058807798, -0.10434015, -0.08050989, -0.10315784, -0.122461155, -0.08459372, 0.050457485, -0.016430834, 0.029855685, 0.057182007, -0.13412178, -0.041219655, 0.06615396, -0.05605497, 0.032150373, -0.15923774, 0.07297865, 0.1261842, 0.075655155, -0.08413149, -0.03324227, 0.10491596, -0.11981872, 0.0042933873, 0.0044307187, -0.02846151, 0.11166676, -0.06634283, -0.03884946, -0.0113097485, -0.054352127, -0.029087517, 0.1292048, -0.067845054, -0.10034773, -0.07476114, 0.17478202, -0.09409155, -0.1469058, -0.020819614, -0.0101050455, 0.16636454, -0.0077152094, 0.029429443, -0.12793009, 0.034844723, -0.14859559, -0.14162204, 0.014992185, -0.077087425, 0.020155173, -0.045443587, -0.0994034, -0.18423164, 0.055905446, 0.09960628, -0.05595046, 0.0046826648, -0.11148048, -0.12467489, 0.016451426, -0.06770414, -0.005087102, 0.12155635, -0.10418422, -0.07912803, 0.09966493, 0.09198741, 0.14803502, 0.10361086, -0.10499915, -0.17717756, 0.059795804, -0.094965346, 0.055684797, -0.1153197, 0.12328221, 0.04706575, -0.15254186, 0.13937008, -0.08161453, 0.0878344, -0.07046694, -0.04045458, -0.19237754, 0.13792334, -0.17527947, -0.04307494, -0.010566067, -0.0071135582, -0.027983958, 0.047003586, 0.06952195, 0.15717441, -0.063438885, 0.03400275, 0.05118464, -0.046608966, -0.15031639, -0.020734726, 0.15290634, -0.0035367312, -0.13840182, 0.08083772, 0.16145715, 0.0043426496, 0.0353633, 0.08114122, 0.016535582, -0.06657728, 0.022512972, -0.038013425, -0.12457524, -0.0023855711, -0.102347046, -0.09051083, -0.14279436, 0.005420429, 0.08580396, -0.14388716, 0.14355144, 0.08184374, -0.19721603, -0.15432686, 0.10969756, -0.12864918, 0.062060766, -0.028236365, 0.09846113, -0.04548399, 0.06559795, -0.019315775, -0.03671588, 0.04742925, 0.03969226, 0.025136324, 0.05066996, 0.028605312, -0.02377737, 0.16925494, -0.10027074, -0.20000371, 0.0017411018, 0.064160615, 0.037836835, -0.08545543, -0.016778542, -0.08464569, -0.10523141, -0.0587599, 0.05948351, -0.13806377, 0.043196596, 0.07047766, -0.0015776865, -0.0226514, 0.0033365192, -0.017650727, -0.051655404, 0.19246653, 0.010245438, -0.02652427, -0.062693395, 0.019566808, 0.13695644, -0.1348949, -0.07561358, -0.10721175, -0.09112974, 0.043988477, 0.03371448, -0.07056465, -0.112870075, -0.20599498, 0.03895561, -0.019748952, -0.006889328, 0.04194418, 0.061665487, 0.020779116, -0.0701704, -0.06644424, 0.020537082, -0.11012723, -0.118916065, 0.13066949, 0.0018060206, 0.12584206, 0.18070348, 0.06452596, 0.07616067, 0.14075397, 0.14999104, 0.09738837, -0.021342993, 0.13827284, -0.038654972, -0.12542282, -0.15413909, -0.055366747, -0.0337727, -0.006873369, 0.105946206, 0.019823423, -0.019111454, 0.03004275, -0.05184295, 0.119973, -0.080489494, -0.06653643, 0.05816974, 0.103668794, -0.08723935, -0.13419391, -0.13243152, -0.08038879, 0.065800995, -0.12951878, 0.06995075, -0.022960506, -0.12518677, -0.014943245, -0.06965379, 0.12681569, -0.049140103, 0.02349054, 0.13629274, -0.09836783, -0.0036271978, -0.053077467, 0.077267714, -0.16622704, 0.04712996, -0.03880059, 0.094968185, 0.047266897, 0.02735411, 0.00028049675, -0.037627637, 0.07993348, 0.032406617, -0.11861102, -0.014271241, -0.013145799, -0.02827551, 0.09444159, 0.06452668, -0.0427935, -0.13726705, 0.078852564, -0.16056561, 0.057733707, 0.022747625, 0.070212215, -0.063620985, -0.15077, -0.15719491, 0.014675367, -0.122677505, -0.08559609, -0.012680253, 0.03818549, -0.016564604, -0.044285905, -0.065219864, -0.057831135, 0.08893433, 0.037161767, -0.015209173, -0.054643087, -0.0699948, 0.016230706, -0.015457564, 0.09412474, -0.16327594, -0.09340825, -0.06763943, 0.035102002, 0.078520484, -0.070163906, 0.0913809, -0.13391653, 0.024964966, -0.05839022, -0.11357759, 0.058141593, 0.047485325, -0.026177822, -0.07515558, -0.038743902, 0.10338711, 0.046410322, -0.090599395, 0.031080188, -0.1101016, 0.07585352, 0.15422396, -0.09765772, 0.00011350528, 0.10823288, -0.03320632, 0.0463584, -0.10419245, 0.015792036, 0.039863497, 0.063756734, -0.07287429, -0.06937371, 0.094427414, 0.1924271, 0.05326425, 0.08413116, -0.055228475, 0.108852044, -0.07332298, 0.17716804, -0.035598904, -0.09722852, -0.1800159, -0.0691859, 0.13490742, 0.09609008, 0.009193654, 0.09936679, -0.1340488, -0.06619009, -0.12792242, -0.048765253, -0.05006568, 0.009715637, -0.101003766, -0.15539919, 0.026342543, -0.094117515, -0.099761866, 0.030313663, -0.051145222, -0.08330127, 0.00016705765, 0.058339205, -0.109037004, 0.008661631, -0.0053183576, 0.06548906, 0.10833259, -0.09603861, 0.069586806, -0.093979456, -0.017970765, -0.057262395, -0.15977773, 0.15680104, 0.051506586, 0.13253602, 0.063648894, -0.1155028, 0.06481068, 0.045651145, -0.06929417, 0.057083223, -0.029270675, 0.026179686, 0.07549604, 0.001917804, 0.13057895, 0.0710764, -0.06297156, -0.0047533745, 0.16326074, 0.11142676, -0.0875902, -0.005618324, -0.0060289414, -0.01225241, -0.037318505, -0.06977051, 0.10007923, 0.059561174, -0.082338326, 0.009531273, -0.19757855, -0.08001092, -0.07873991, -0.06574661, -0.03649905, 0.15386194, -0.03058795, 0.014621469, 0.054937523, 0.008703969, -0.045626886, -0.07977725, 0.06689831, 0.008693049, 0.10308681, 0.07546339, 0.03445394, -0.023441141, -0.048467606, -0.029319022, -0.015109568, 0.07615944, -0.010423917, 0.10834449, 0.15683289, -0.012073503, -0.06803996, 0.053555332, 0.008388412, 0.05619345, -0.05734546, 0.13010933, -0.011591787, -0.11222756, 0.023118043, 0.17059337, -0.0021443916, 0.14570422, -0.11458962, -0.13138387, 0.00918476, 0.1209619, 0.20083074, -0.074485585, -0.10843864, 0.08403045, 0.06770852, 0.17630629, -0.13173056, 0.032387182, 0.11743364, -0.17281705, 0.07344562, 0.087563254, -0.088419445, -0.08095582, -0.03276302, 0.025544297, -0.0983702, 0.0879042, -0.083933346, -0.052527085, 0.012474895, -0.05420943, -0.029627832, -0.17560206, 0.017347254, 0.09102732, -0.05904246, 0.00599894, 0.09706867, 0.0977273, 0.0964252, -0.0327074, -0.0005665986, -0.03316383, 0.048682977, 0.07320816, 0.085725926, 0.14279358, 0.10884476, -0.061340414, -0.022677416, 0.14985554, 0.050074168, 0.060798716, 0.10085386, -0.049339466, -0.086318836, -0.08151925, -0.046086382, 0.18519112, 0.16185988, 0.014161734, 0.029273136, -0.07743713, 0.036230173, 0.10637466, 0.03813903, 0.029208729, -0.08741873, 0.02012536, -0.14997503, 0.002643013, 0.14751913, 0.09283492, -0.01938169, -0.12095096, 0.09069232, 0.011230884, -0.0853368, 0.1729818, 0.010328333, 0.20673433, 0.071741454, -0.15573172, 0.082715265, 0.054740272, 0.16784865, 0.17687383, -0.013887055, 0.21407771, -0.061193697, 0.14270844, 0.21223304, -0.08234533, 0.008203841, 0.03830624, 0.026375968, 0.14098291, -0.06120876, -0.10914471, -0.05403424, -0.08051978, 0.07605912, -0.14417565, -0.045430586, 0.10633138, -0.078704946, 0.039795075, -0.024497898, 0.100092895, 0.0951626, -0.04101496, -0.07127925, -0.08746717, 0.05452053, -0.028141214, -0.101737626, 0.09196273, 0.028382802, 0.07002341, -0.08061688, 0.106431976, -0.1945459, 0.037754804, -0.03695344, -0.11230168, 0.0034115599, 0.074230164, 0.007573657, -0.19608745, -0.035609324, -0.009862641, -0.018721964, 0.008447516, 0.006863195, 0.023434706, -0.020718498, 0.12113894, -0.07917076, 0.011937954, 0.106263794, 0.010999291, -0.12511905, -0.012864155, -0.0028893347, 0.0642825, 0.08418927, -0.09457769, 0.013232295, 0.05977187, -0.019838963, 0.10953363, -0.13393949, 0.04291229, -0.15022935, 0.15783808, 0.08704079, -0.09005397, -0.01579396, -0.13578418, -0.032569394, 0.17639361, -0.18605246, -0.035198044, 0.1971002, -0.097951196, 0.045027494, -0.05503129, 0.1895241, -0.1428842, 0.034757964, -0.017640423, 0.06432362, -0.04416552, 0.015277813, -0.024954887, -0.0073927464, -0.03269861, -0.024342233, 0.06780805, 0.18225732, 0.13653784, 0.04097204, -0.09686598, 0.038298324, 0.05235149, 0.10876877, -0.16288234, 0.13981576, 0.053583317, -0.060949717, -0.0117767695, 0.0066368924, 0.0020138067, 0.031982973, 0.07865161, 0.08016085, -0.016940594, 0.18315221, -0.040863793, 0.072478525, -0.10840917, 0.10682751, 0.06579338, -0.18397595, -0.007267388, -0.052979317, 0.0477464, 0.08112673, -0.13959673, -0.098276205, 0.084600985, -0.14265628, -0.084667966, 0.014090693, -0.14160138, -0.011904432, -0.06930418, -0.09292173, -0.01614946, 0.120802425, -0.010003986, -0.055674862, 0.0020845989, 0.1739465, -0.18529877, 0.035688568, -0.089456394, -0.0477902, -0.08860351, -0.067285076, 0.12158822, -0.05353873, -0.012295718, -0.03083068, -0.05835085, -0.020380998, 0.083518945, 0.13382317, 0.053651735, -0.17828816, 0.15933721, -0.06974771, -0.051444754, 0.008864187, 0.041545425, -0.09115688, 0.14319964, 0.00037956933, 0.020808067, 0.15867792, -0.013431958, -0.02244424, -0.021730205, 0.053030074, -0.1860875, -0.0130293155, -0.017618792, -0.1339749, -0.057025723, 0.07937054, -0.014881824, -0.006775053, -0.09471781, -0.014851335, 0.05189238, 0.12821034, 0.14537722, -0.03995404, -0.001575504, 0.02296539, -0.001178447, 0.1365918, -0.16703692, -0.14959621, 0.01099581, -0.11260915, -0.040402006, 0.10141601, 0.15121795, -0.06639966, -0.077562, 0.014692779, -0.09972903, -0.05580536, -0.024108734, 0.06804172, 0.15273793, 0.14754799, -0.06364053, 0.04748146, 0.086550005, -0.10844343, 0.026498733, 0.03490169, -0.0069578486, -0.035863817, -0.087874696, 0.050911304, 0.004600532, -0.1515333, 0.06718988, 0.010690836, -0.09457896, -0.045631308, -0.16876239, 0.048024986, 0.08297591, 0.13538836, 0.010221466, -0.03135239, -0.12403911, -0.10852927, -0.048731416, -0.014573336, -0.15646365, -0.015813865, -0.0025752592, -0.012444664, -0.008497751, -0.118377514, 0.038260873, 0.066900775, -0.011767082, -0.08480544, -0.0109534245, -0.10004672, -0.006240374, 0.19400609, 0.15408215, 0.16833122, 0.10952143, 0.005210721, -0.020073662, -0.1097308, -0.1319377, 0.06619582, 0.021919724, 0.03180107, -0.064061485, -0.1758615, -0.15037687, -0.044748507, -0.07141931, 0.13955355, -0.040420756, 0.08136844, -0.02969062, 0.09223628, -0.050888047, 0.030259307, 0.017493233, 0.061190717, -0.043767415, 0.121360995, -0.14730395, -0.008458112, -0.059415553, -0.038083136, -0.020554066, -0.00018325848, 0.15735452, 0.023342777, 0.021526415, -0.10880484, -0.0311841, 0.03634194, -0.114627756, -0.07370585, 0.07319687, -0.019424416, 0.060532685, 0.12860201, 0.1110406, 0.09506853, 0.020631086, -0.050039653, 0.14817898, 0.106174104, -0.1165332, 0.0918868, 0.15259899, 0.1655953, 0.08550814, 0.007388301, 0.0990646, 0.17149639, 0.0132083045, -0.12347878, -0.16679367, -0.08647269, 0.051952038, 0.0573062, -0.12449466, 0.16853745, 0.08069879, -0.047275245, -0.06362162, -0.07695345, -0.112586096, 0.11450054, -0.031216586, 0.05025291, -0.16462877, 0.12091731, -0.038541492, -0.0062396084, -0.043025807, 0.006266529, -0.08488475, -0.061475158, 0.08742264, -0.15523033, 0.06678413, 0.012698305, 0.026272852, 0.030613607, 0.11488851, 0.07263016, -0.016985185, 0.056851607, -0.04912924, 0.10879161, 0.067081034, 0.011864257, -0.16763309, 0.119311966, -0.09828038, -0.056529555, 0.19669814, -0.12572314, -0.09767421, 0.025947414, -0.17452434, -0.0555191, 0.056084838, 0.089708775, -0.04157549, -0.024825426, 0.09324185, -0.08602821, -0.0045561623, -0.04298046, 0.09519854, 0.03775201, -0.07975322, 0.035506707, -0.036328077, -0.20270507, -0.060997423, -0.02497051, -0.13062416, -0.16821444, 0.04763855, -0.0643064, 0.030377423, 0.17471398, -0.102942176, -0.08498068, -0.19132209, -0.008140233, 0.004953874, -0.13369502, 0.036252428, -0.03480427, 0.041458614, -0.14481297, -0.047144838, 0.04926415, -0.0369264, -0.04976621, -0.02175949, 0.1123193, 0.035559777, -0.0014821223, 0.028307004, -0.13382332, 0.0071641305, 0.10504614, -0.03735747, -0.069190644, 0.17924489, -0.056428976, 0.094620325, -0.037395906, -0.015386125, -0.07542182, -0.023945207, 0.19720393, -0.043495823, 0.093884535, -0.11649396, 0.064678624, -0.05366755, -0.050513405, 0.03691698, 0.0110105565, -0.15050948, 0.07373544, -0.19832923, -0.08926756, 0.051763974, -0.015553577, -0.10465474, -0.12723954, -0.13126087, 0.06371775, 0.02937279, 0.051272698, 0.043922074, 0.08680515, 0.039762378, 0.03251959, -0.02377636, -0.07213037, 0.043698207, 0.07346036, -0.11112447, 0.033108287, 0.023218319, 0.054341353, -0.05097969, -0.1532875, 0.064855725, 0.15982735, -0.04465931, 0.022109514, 0.121704355, -0.053297095, -0.08337892, -0.10964511, 0.038390253, 0.010346365, 0.07686763, -0.06877103, -0.08471851, -0.04718429, 0.012142469, -0.054937534, 0.042133935, -0.10004478, -0.09263936, -0.022542587, -0.088093586, 0.05113505, -0.123233326, 0.1475463, 0.011853046, 0.21520442, 0.031932585, -0.058804736, 0.0141825285, 0.17386766, -0.122759625, -0.023280555, -0.009288528, -0.055705268, 0.049424138, 0.018115258, -0.15178722, -0.12506582, 0.08851903, -0.14721185, 0.078597285, -0.035609238, 0.03575142, -0.07591153, 0.0987094, -0.09289804, 0.118367046, 0.09267031, -0.09172068, -0.2010352, 0.09362711, 0.021428507, -0.05554688, -0.06153492, 0.10452953, 0.017685749, 0.050008867, -0.1063557, 0.013823788, 0.020264339, 0.048487872, -0.040754255, -0.06487738, -0.016078504, 0.06044139, 0.06783531, 0.04357283, 0.12470394, -0.21115822, 0.16458052, 0.15823433, -0.07402866, -0.013659934, 0.0049018697, -0.08636724, -0.07137468, -0.05818859, -0.10622774, 0.06423946, 0.068885125, 0.017929256, 0.09380078, 0.09549214, 0.038898345, -0.14028771, 0.13097727, 0.029736238, 0.040311936, -0.052007873, 0.05955162, -0.121048175, 0.01064394, -0.14298066, -0.01938323, -0.15381248, -0.0181454, 0.080859534, -0.020463787, 0.03930771, -0.08035464, 0.02164535, 0.075855814, -0.01104224, 0.004888582, -0.043612156, -0.076576926, 0.028471395, 0.037618075, 0.016348846, -0.030825814, 0.06095943, -0.110910654, 0.0823837, 0.106090024, 0.04670345, 0.17140959, -0.0099129435, -0.019758178, 0.032304417, -0.12905557, -0.04257734, 0.15983486, 0.030734448, -0.016089927, -0.08701568, 0.0029568074, -0.052380476, -0.04746183, -0.060461286, -0.03624583, -0.02083322, -0.11912043, 0.061328106, 0.11164968, 0.19018297, 0.16086555, -0.06499106, 0.00046182732, -0.045584895, -0.060646363, 0.035469312, -0.09067541, 0.065971345, -0.055062972, -0.12831469, 0.2272333, -0.008187732, -0.12191458, 0.121980466, -0.020518636, -0.0389393, -0.012063778, 0.0006355639, 0.0014073702, -0.18789421, 0.01949385, -0.013315582, -0.10759392, -0.04651734, -0.13818274, -0.029146863, 0.016226009, -0.014977794, 0.047090944, 0.0740207, -0.065656014, 0.028938374, 0.112369925, -0.067887634, 0.14711387, 0.09926588, -0.0033527673, 0.041374028, -0.0022176935, 0.011530315, 0.10051353, 0.0669129, -0.08165275, 0.06335445, 0.044537462, 0.10454351, 0.02803477, -0.09132621, -0.17125396, 0.09913692, -0.04005998, 0.13255225, -0.107019536, 0.06531938, -0.075438164, 0.14223495, -0.08179463, -0.07921003, 0.013855883, -0.10377143, 0.1377364, -0.093358606, -0.019884657, -0.020452432, -0.08719363, -0.085312694, 0.035891958, -0.05169685, -0.20686455, -0.103795655, 0.04142921, -0.09068395, -0.058221046, 0.061090793, -0.053050175, -0.11789591, -0.095690005, -0.055258237, 0.0869333, 0.015347476, -0.03555974, 0.0011940865, -0.14186485, -0.010823662, 0.077288345, -0.11836461, 0.06713553, 0.045348693, -0.017353022, 0.08544081, -0.025385525, -0.02903634, -0.0763823, -0.03485486, -0.037110087, -0.02963451, -0.10842273, -0.09114013, -0.07976357, -0.0034866014, 0.1999245, 0.023054358, 0.104486145, 0.10536264, 0.09077425, 0.057482872, 0.028331174, 0.1608666, -0.10668399, 0.034111492, -0.107389495, -0.121429294, 0.18489073, 0.04173943, -0.073082924, -0.07789031, 0.056013603, 0.1793898, -0.017814895, 0.12177382, -0.1271287, -0.08296186, 0.04589724, 0.015186651, 0.12177479, 0.0053981757, 0.009597651, 0.1307652, 0.0028280823, 0.027632054, -0.017906088, 0.016450785, -0.107133664, 0.020544052, -0.13940533, 0.0390101, 0.112861305, -0.1555723, -0.115342095, -0.06507257, 0.009356233, 0.062434886, 0.030581089, -0.19493225, 0.13173485, -0.034049984, -0.018323908, -0.022169774, -0.081689335, -0.13881607, -0.030601943, 0.11058148, 0.116821766, 0.16265076, 0.120392956, 0.07299501, -0.020810377, 0.030144509, -0.09585602, -0.02352543, -0.0765603, 0.014683764, -0.14130697, -0.04782553, 0.0872276, -0.0048886323, -0.0485488, -0.043835852, 0.1434199, 0.020495746, -0.032795776, 0.024245622, 0.06898978, -0.04650348, 0.058230273, -0.06008795, 0.018414043, -0.098785, 0.07846731, -0.04022299, -0.007948025, 0.040294617, -0.08431248, -0.19137827, -0.034032974, -0.018458454, -0.115956426, 0.07089473, 0.07341724, -0.10355332, -0.026259517, -0.06562162, 0.054696105, -0.03066034, 0.13028665, 0.15651089, -0.084329225, -0.166269, -0.091716796, -0.13672915, 0.19408068, 0.015676733, -0.018820288, 0.021152133, 0.002014982, -0.06824233, -0.01930594, 0.06403791, -0.033728007, -0.106807254, 0.10691693, 0.13054468, 0.033050768, -0.11317056, -0.07668097, 0.02648871, -0.089194775, 0.023448063, 0.017470771, -0.13871141, 0.113215365, 0.071274765, -0.07711823, 0.00027147995, 0.10890988, 0.014094246, -0.001479197, 0.016232194, 0.040100068, 0.16505426, 0.07830677, 0.12272147, 0.03984648, 0.0005154378, -0.13160929, -0.010245057, -0.007536769, -0.1727262, 0.004070622, -0.064663514, -0.11294446, 0.0877697, 0.011822673, 0.03322328, 0.028881777, 0.07646733, -0.017917389, -0.13248684, -0.07169539, 0.09794678, 0.1147851, 0.17365544, -0.002457667, -0.19130614, -0.19921197, 0.04286461, 0.035812676, -0.044423833, 0.002470146, 0.017857585, -0.02025575, -0.021559598, 0.07187009, 0.10189991, -0.11223165, 0.04343534, 0.049402382, 0.005270966, 0.016135383, 0.11090985, 0.081397705, -0.20522317, -0.011963898, -0.19051732, -0.047608316, -0.1664785, -0.12721951, 0.05610532, 0.0065269563, 0.036408726, 0.101424426, -0.028100118, -0.055849314, -0.15035148, 0.18806536, -0.04961359, -0.068230934, -0.07371111, 0.04292474, 0.13668635, -0.07336257, 0.10385659, 0.14750993, -0.07272857, 0.021552129, 0.062684424, 0.1734659, -0.03962778, -0.067694545, -0.05099471, 0.15095243, -0.028673798, 0.0035648658, -0.004576247, 0.03355767, -0.033763424, 0.13215907, 0.08570885, 0.1406685, 0.18479359, 0.07987173, -0.00032802243, 0.0056770924, -0.19007516, -0.14835885, 0.090236425, -0.092528634, -0.054532025, 0.09622787, 0.017736537, -0.04479077, 0.08142669, -0.02952852, 0.06266251, -0.185938, 0.020885367, -0.057244122, 0.098958656, -0.020451708, 0.035644006, 0.016830416, 0.041334555, -0.07491973, -0.09320549, -0.02313739, 0.10161739, -0.18298103, -0.11096369, 0.041189928, -0.047894467, 0.18422796, 0.08552037, 0.078316316, -0.067359425, -0.07802183, -0.0027017726, -0.038890034, -0.041436054, -0.085729875, 0.07773342, 0.082035735, 0.000680077, -0.03942979, 0.016833026, 0.020885617, 0.00947446, -0.017774362, 0.122830674, 0.080195084, -0.10880146, 0.012304073, 0.06443687, -0.10903096, 0.045593765, -0.03952664, 0.0071908017, 0.19521298, 0.12812835, 0.02505589, -0.059545085, -0.045621887, 0.024373345, -0.10033033, 0.09592252, 0.108045004, -0.08714787, -0.17912737, 0.15828148, -0.048658747, -0.093609564, -0.12562057, 0.011966515, 0.04594909, 0.0073256516, -0.025817692, 0.16067506, -0.09722928, -0.006146464, 0.14885382, -0.013711335, -0.14150839, 0.0026130006, 0.013056506, -0.002341963, -0.1568011, -0.002397755, 0.07103101, 0.07260561, 0.014259432, -0.1233759, -0.033585917, 0.017267354, -0.08773035, 0.14936496, -0.083735496, -0.024732191, 0.109504275, 0.083789036, -0.099042535, -0.09715768, 0.16042784, -0.115821384, -0.045607597, -0.019423543, 0.15631339, -0.010126519, -0.004917681, -0.06514878, 0.037085667, 0.014813349, -0.028638637, -0.019022727, -0.06192876, -0.07328652, 0.1697425, 0.012235578, -0.0026884603, -0.073429964, 0.11258134, 0.007340841, -0.058699578, -0.23060603, 0.036446158, 0.05658017, 0.0044694864, 0.08145228, -0.020632926, 0.028535018, -0.10261285, 0.00857245, 0.057948083, 0.059401676, -0.070450716, -0.059304748, -0.08357024, 0.031357117, -0.0070929523, -0.0888079, 0.08560953, -0.046572547, -0.010359143, -0.13312352, 0.014445295, 0.034413017, 0.052313104, 0.07957914, 0.023550693, -0.11362904, 0.08658768, -0.06802928, -0.12195307, 0.100846276, -0.046084527, 0.048285574, 0.14317529, 0.12369842, 0.14597966, 0.0037403055, -0.11488275, -0.018259322, -0.11499548, -0.046618994, 0.11493361, -0.05960517, 0.0778502, -0.018358098, 0.033206567, 0.17350511, -0.04013562, 0.0005167556, 0.02039053, 0.10195386, 0.11251741, 0.012815586, 0.04802186, -0.10619464, -0.005048785, -0.05045721, -0.044126656, 0.0008613867, 0.122244835, 0.0412522, 0.008385636, 0.16872512, 0.055424616, 0.1119509, -0.0012170501, 0.0862937, 0.00943562, -0.056101892, -0.031888347, -0.0075153294, 0.15807244, -0.050793618, -0.072947435, 0.055636782, -0.14765608, -0.0767036, -0.109921776, 0.1849188, 0.024321502, 0.067130774, -0.03446022, 0.025026144, -0.014860447, -0.08246333, -0.092523344, 0.0066321976, -0.05848708, -0.0007650217, -0.14959571, -0.16806096, -0.0638647, -0.028918877, 0.18830925, -0.0031905223, -0.022666488, 0.05279919, -0.027022637, -0.04838121, -0.018406117, 0.01579101, 0.017271154, 0.08469776, 0.08592062, 0.13570595, 0.04802203, 0.019998716, -0.0023245984, 0.027012726, -0.016918976, 0.07610845, 0.11047354, -0.08584998, 0.116361395, 0.14571123, -0.10722595, 0.15683304, 0.030054832, -0.02330003, 0.18374762, -0.14279695, -0.056351952, -0.14865753, -0.17222774, 0.06704777, -0.013888356, 0.01727808, -0.08673399, -0.02777685, 0.05437812, -0.14247996, 0.056685638, 0.052199777, -0.02722672, 0.048768092, 0.07736201, -0.110073, -0.019481983, 0.021407317, -0.068670355, 0.10287756, 0.014524211, 0.092073694, -0.06830208, -0.1007142, 0.15302229, -0.15473355, -0.15536219, 0.08744938, -0.09116481, -0.19117412, 0.025476513, -0.044821072, -0.010138794, -0.023706695, 0.13613729, 0.08501566, -0.001945634, -0.024101393, -0.09628989, -0.10152628, 0.09857145, 0.09161854, -0.17381176, -0.07309648, 0.03028095, 0.10803088, -0.07853557, 0.10358949, -0.045866236, 0.07275847, -0.16019137, 0.09858448, 0.06303475, -0.17438503, 0.060815096, -0.08360407, 0.012222473, 0.030830815, -0.089208424, 0.12521076, -0.06687753, -0.04877297, 0.092742585, -0.037435543, -0.03255841, 0.06918334, 0.116898865, 0.0131592555, -0.048975382, 0.09839842, 0.07446082, 0.09926599, -0.06414944, -0.018694004, -0.0490413, -0.16733773, 0.0024585668, -0.112393506, -0.03647371, -0.12167396, 0.020229302, -0.0017731085, -0.05915377, 0.0090421075, 0.05337205, -0.005807653, 0.12563989, 0.026793545, 0.09627864, -0.01885524, -0.03109876, 0.016705457, 0.06397691, 0.06823428, 0.09636577, 0.023603318, 0.05076594, -0.092761345, 0.045603577, 0.010387701, 0.050399423, -0.09409603, -0.00012819616, 0.020343458, 0.04955193, -0.01599233, -0.16041593, -0.06623063, 0.05859364, 0.025921194, 0.005843937, -0.12157717, -0.017596375, -0.07304323, 0.00065527315, -0.054246463, -0.076351985, 0.12556794, 0.17828958, -0.07488469, -0.00017358625, 0.032935634, -0.11659914, -0.12797712, 0.01952312, -0.09826694, -0.14831679, -0.018295297, 0.10339527, -0.20092577, -0.07598228, -0.05440099, -0.06963129, -0.08775053, 0.1555526, -0.014380633, -0.14487506, 0.17019951, -0.07645543, 0.04165674, -0.08996056, -0.108276926, -0.19707356, -0.010436266, -0.11018213, -0.028208042, -0.059225466, 0.0036380999, -0.061747324, 0.003280432, -0.050136033, -0.07121047, -0.07685593, 0.02136193, 0.06728395, -0.120394506, 0.025115127, 0.07315669, -0.13434294, 0.061646167, -0.025140919, -0.14523634, 0.04047872, -0.08351661, -0.09374979, -0.018063642, 0.035490554, -0.021106297, 0.09516402, -0.024968268, -0.031968206, -0.08570841, 0.026721539, 0.11426763, -0.14183281, 0.09911825, 0.01146625, -0.0326894, -0.07725246, 0.039098036, 0.0007353106, 0.121640034, 0.14444889, 0.031587657, -0.118381634, 0.13092229, -0.039597906, 0.021343831, 0.11310578, -0.101794876, -0.0254262, -0.06680217, -0.14303033, -0.055147406, -0.007290568, -0.008801168, -0.0030218267, -0.115470834, -0.042122964, -0.029969236, 0.051770736, -0.12908296, 0.020050146, 0.16946828, -0.009025896, -0.009528049, 0.087647416, -0.0033994077, 0.06477056, 0.15322101, 0.009924048, 0.031985518, -0.028663855, -0.046359915, -0.11716455, -0.0011709384, -0.09775766, -0.01263366, 0.12303083, -0.021515187, -0.02066233, 0.0017980373, -0.1206207, 0.15144382, 0.04717282, -0.041480694, -0.025406787, 0.029310644, 0.09234223, 0.0075837416, 0.04677685, -0.039200615, -0.05361599, -0.18851475, 0.105774984, 0.13357078, -0.07507403, -0.03283495, -0.030820346, -0.09628535, 0.08952661, 0.06479061, 0.15404329, 0.12930454, 0.10040529, -0.09346216, -0.054413956, 0.0534726, 0.033776958, 0.04916591, 0.08246591, 0.027429845, 0.018519644, -0.027570028, 0.055187773, -0.116200574, -0.02413162, 0.10656754, -0.038314432, 0.015401792, 0.015511253, -0.031664897, 0.037287287, 0.07732342, 0.06066213, -0.14530855, 0.12362951, -0.13785069, -0.007919838, 0.13950565, 0.0085541755, -0.09407145, -0.17228109, 0.0036507277, 0.09069387, 0.1267399, 0.14206846, 0.083177336, -0.019597827, -0.09400995, -0.023417601, 0.024945892, -0.15422143, -0.08957355, -0.00036517787, -0.06729562, -0.15363756, 0.12604189, -0.06118558, 0.065715246, 0.14352266, 0.027499964, 0.11746353, 0.07414935, 0.021171372, -0.028326927, -0.110997744, -0.030800315, 0.076092325, -0.13438459, 0.09411062, 0.045959163, 0.05739887, 0.12408406, -0.057289016, 0.08169408, -0.0722202, 0.014842025, -0.045890745, 0.057531446, -0.0052062348, 0.031838167, 0.061367515, 0.000976427, -0.11115817, -0.122108355, 0.0065706507, -0.010581905, -0.043246105, 0.07505383, 0.09562551, 0.12191168, 0.06345463, 0.06304421, 0.0023512065, -0.0836621, -0.058829848, 0.106266335, -0.0938531, -0.03489995, 0.09611894, 0.12733436, -0.002696378, -0.002352229, -0.030477824, 0.04557019, -0.08417439, -0.021461282, 0.011476312, 0.006454101, -0.15375747, 0.05284277, 0.04222935, 0.0052827317, 0.085522234, 0.15563722, -0.1583239, 0.020609459, 0.036848795, 0.11508633, 0.06503903, -0.11187903, 0.054575857, 0.03457464, -0.06977383, 0.06451344, -0.028063677, 0.109967, -0.026175063, -0.013933903, -0.028599884, -0.0792215, -0.12386049, 0.120407246, 0.0045428346, 0.13471274, -0.012122455, 0.11558424, 0.03253358, 0.11304236, -0.07851867, 0.037914675, -0.042441558, -0.070769966, -0.1205354, 0.064711966, 0.0014163717, -0.045463804, 0.08388857, -0.10364768, -0.045687757, -0.055244543, 0.14034492, -0.08358885, 0.0049483427, -0.053119976, 0.13510945, 0.03453862, -0.034343462, 0.16866244, -0.075969145, -0.13559048, -0.09676796, 0.037905023, 0.13902849, 0.13180317, -0.046227083, 0.003027308, 0.042079646, -0.036815297, 0.08265841, -0.010780946, 0.00774122, -0.042450946, -0.07944852, -0.02588998, 0.02332925, 0.027856696, 0.05484406, -0.106619515, 0.07098803, 0.010565077, 0.04727945, 0.08975345, 0.07885623, -0.05818216, 0.052732304, 0.049714472, -0.08514373, -0.028017495, 0.027159266, -0.042210247, -0.025993662, -0.0102170585, -0.08385167, 0.08179915, -0.15803616, 0.085536666, 0.0021551405, 0.19724214, -0.10734143, -0.036731515, -0.06671124, 0.09825003, 0.04254156, -0.056654774, -0.041869763, 0.14753489, 0.0678105, 0.055163518, -0.10083392, -0.017759228, 0.04483042, 0.0180197, 0.015948977, 0.0591008, -0.17556193, -0.04506039, 0.05397882, 0.064902864, -0.10026079, -0.09894798, 0.009596283, -0.1562848, -0.12742543, -0.0008264616, 0.03930917, -0.12740475, -0.04091024, 0.017981766, 0.009962832, 0.10100368, -0.17772974, 0.008448274, -0.059566252, 0.19364701, 0.015822038, -0.019837044, -0.0056983056, 0.13788646, -0.04920359, 0.092596255, -0.025733538, 0.19368842, 0.028910702, 0.104574226, 0.01855848, 0.057401165, -0.067102484, -0.088131756, 0.11454887, 0.04652777, -0.095597036, 0.17424789, 0.003482007, 0.17739353, 0.045248747, -0.0008215207, 0.0703016, 0.17197436, 0.018560736, -0.07991036, 0.0437387, 0.00139727, 0.061978713, -0.17870405, 0.02228645, -0.021239286, -0.011746571, 0.052219022, -0.0638512, 0.082131445, 0.124931425, -0.08323629, 0.01879332, 0.017685106, 0.085999094, 0.12373393, -0.0072287847, -0.06059151, -0.12384453, 0.06648698, -0.07832062, -0.114198215, 0.10853682, 0.031831186, 0.06216428, 0.17161687, 0.070733875, 0.13246295, -0.062752016, -0.11425982, 0.032394644, 0.06573016, 0.06588535, -0.13801229, 0.017039176, -0.1635026, -0.02389979, -0.036293108, -0.035989918, -0.06430886, -0.12621658, -0.0010726027, -0.021623425, 0.18726854, -0.04041651, -0.06821745, 0.19340043, 0.0015277102, 0.11516518, -0.02650079, -0.12537383, 0.206184, 0.00888997, 0.023091814, -0.04718113, -0.021349669, 0.00088233774, -0.012716903, -0.06485592, -0.055010546, -0.07564501, -0.07069851, -0.049479548, -0.040264037, 0.07894106, 0.011325389, 0.11658103, 0.13576648, -0.16394076, 0.17163682, 0.17730202, -0.048502576, 0.021118272, -0.07587053, -0.061085075, 0.03145525, 0.14838335, 0.08168095, 0.07110597, 0.11972777, -0.16392022, 0.07833889, -0.012180501, 0.0019472841, 0.06798435, 0.022767358, -0.041119486, -0.12532358, -0.0093679745, 0.019665595, 0.14618315, 0.065796226, 0.048008014, -0.12104688, 0.09034864, 0.029870544, 0.03926642, -0.1323916, 0.10020319, 0.09637508, -0.06760864, 0.049719505, -0.1251938, 0.15534762, 0.04317486, 0.056343235, -0.18945639, -0.03131288, -0.013796867, 0.058709543, -0.05632386, 0.049923215, 0.07650164, -0.04544923, 0.01161539, 0.029549742, 0.17889914, -0.03469813, -0.109917514, 0.16050893, -0.05004671, -0.16745846, -0.008266709, -0.026005637, 0.085261196, 0.123483725, 0.03652339, 0.010958302, -0.0704118, -0.033177774, -0.0018205795, -0.14029448, -0.12696613, 0.010899401, -0.10490152, 0.13587882, 0.044666056, -0.14916554, -0.0571444, 0.06350575, 0.040271774, 0.07147281, 0.08198743, 0.1949427, -0.13019998, -0.114811145, 0.037549, 0.16095757, -0.1585659, 0.01950876, 0.02856996, 0.0009957573, 0.060013305, 0.007514702, 0.14171757, -0.14027576, -0.10649422, 0.09587837, 0.029261697, -0.02048927, 0.06757616, -0.16517904, -0.054614156, -0.010128179, -0.15756771, -0.15221332, -0.17022261, 0.019916894, -0.10023502, -0.034476765, 0.030785887, 0.09258186, -0.128412, 0.14473283, 0.007988889, 0.133898, -0.11352978, -0.02962327, -0.052188493, 0.07664732, -0.08123804, 0.08037005, -0.04616581, -0.019899715, 0.053894024, -0.19268611, 0.07469856, -0.08061627, -0.04809885, 0.03324963, -0.08004135, 0.02263374, 0.17098351, -0.10823629, -0.14032024, -0.109127924, 0.107402064, 0.031671856, 0.066813014, 0.19149505, -0.056641318, 0.07466844, -0.014504852, 0.009994836, -0.055512983, -0.019838216, -0.0059610475, -0.05580099, 0.038209323, 0.13153997, -0.030194385, 0.101740345, -0.04115774, 0.019170329, -0.044973433, 0.06047499, -0.0069718068, 0.18633477, -0.01707986, -0.07500958, -0.12940983, 0.0931229, -0.0001643927, 0.13091592, 0.024446726, 0.07279163, 0.033393987, -0.16251568, 0.1615818, 0.041251514, -0.004104222, 0.06560141, -0.0016987623, 0.05612509, -0.0477746, -0.0122800935, 0.086776875, 0.069004335, -0.047439132, 0.07106524, 0.090611026, 0.088769555, -0.15215418, -0.100415215, 0.009387943, -0.069510266, 0.15890661, -0.07838063, 0.03094401, -0.0640675, 0.071589045, 0.09787141, -0.04019263, 0.06937179, 0.048553396, -0.048698336, 0.095545515, 0.097240396, -0.12198399, -0.058949668, 0.072504126, -0.08062575, -0.06560491, -0.17849612, -0.06839696, 0.09074249, 0.04525568, -0.17345472, 0.089083485, 0.08355936, 0.12506635, 0.030878324, 0.050609477, 0.14854483, -0.06578233, 0.05604862, 0.0663964, 0.18955906, -0.013859394, -0.005537013, 0.064103425, 0.16005746, 0.023895143, -0.09675887, 0.13138212, -0.099737436, 0.09395643, -0.17134017, -0.07900851, -0.08296, 0.11006426, 0.035782974, -0.16366597, -0.022186454, 0.15749723, -0.006172443, 0.1994088, 0.12441283, 0.038780168, 0.004866658, 0.1076056, 0.1146123, -0.07290682, -0.023874104, -0.024129879, 0.09681251, 0.02563681, 0.0018882616, 0.06567732, 0.019087939, 0.08585863, -0.017894318, 0.0056754434, -0.20462012, 0.09906397, -0.07687504, 0.15327437, 0.062495157, 0.081342526, 0.019176811, -0.16991019, 0.057703357, -0.014085265, -0.019518042, 0.010728225, 0.17945415, -0.10232665, -0.006160936, 0.034414407, 0.008098349, 0.024970317, -0.07609422, 0.039659753, -0.016798945, 0.039322216, -0.1867041, 0.01233056, 0.0065682307, 0.042094868, -0.06448238, -0.061809078, -0.13546604, 0.19221647, 0.11218046, 0.0043870173, 0.13880342, 0.010114509, -0.0022412455, 0.09392942, -0.114570655, 0.05628272, -0.044443972, 0.11012916, 0.06509444, 0.19228421, 0.112603344, 0.092099756, 0.13750404, -0.065365516, -0.12624109, 0.042963613, 0.06793788, 0.1617385, 0.095482, 0.043922976, 0.15800765, -0.0089324815, 0.023710195, 0.0863485, -0.026991481, -0.08921629, 0.18280715, -0.09047562, 0.10983334, -0.13788712, 0.022907503, -0.041236736, 0.010586404, -0.16417666, 0.042360775, -0.15409596, 0.029389206, 0.08874983, -0.027590897, 0.14081235, -0.068331674, -0.096199, -0.020853592, -0.022878893, 0.062044263, -0.14595298, -0.1585292, 0.066537976, -0.04877256, 0.09775536, -0.081522934, -0.001613008, -0.0047469535, -0.06733219, -0.03581305, -0.031585984, -0.03619912, -0.023676619, -0.071451716, 0.031372763, 0.014079409, -0.09360388, -0.035120644, 0.05700399, -0.066495806, 0.10828954, 0.1866995, 0.119071715, 0.06501236, 0.11254656, 0.027216995, -0.05841421, -0.0063418006, -0.10251382, 0.056343578, 0.06776462, 0.015110834, -0.1362148, -0.054374143, -0.029767537, -0.096198365, -0.08056293, 0.075362585, 0.12930161, 0.011473871, 0.13041186, -0.036733788, 0.1679756, 0.040031042, -0.10184944, 0.09045173, -0.08975182, -0.06465435, -0.01501964, -0.01666532, 0.07727408, 0.021140229, -0.107824765, -0.026769726, 0.096479386, -0.06436179, -0.013202687, 0.0066548595, -0.1379724, 0.16942129, -0.04443504, -0.0460095, -0.10355839, -0.049891103, -0.10301875, -0.056632176, 0.04886291, -0.043988343, 0.07926328, 0.085905336, -0.069661446, 0.018122114, 0.1499937, -0.049715936, -0.027807355, -0.07979028, 0.042834513, -0.019116512, -0.07525242, 0.0043600565, -0.016782625, 0.011592506, 0.11856174, -0.049313795, -0.020043224, -0.16745949, 0.024266897, -0.010508188, 0.097484715, -0.043698568, 0.09643068, -0.069423884, 0.058721874, 0.052912664, -0.13491035, -0.12571017, -0.05379948, -0.031266715, -0.17684568, -0.041746948, 0.17219236, 0.14873749, 0.05462598, -0.011528683, -0.08418652, -0.022494355, 0.027338652, -0.07710737, 0.14904326, 0.075265996, 0.013420481, 0.0038875449, -0.15712602, 0.04245892, 0.0056306594, -0.010337159, -0.022727655, 0.082521744, 0.17208171, -0.14453427, 0.035444364, 0.012540229, -0.19188532, -0.06452613, -0.0668771, 0.04526608, 0.14854245, -0.029824244, -0.17282534, -0.04237934, -0.039677482, -0.1224957, -0.0021066223, -0.014337223, 0.018757299, 0.09155139, 0.003160114, 0.020795807, 0.029508714, -0.027797636, 0.10370798, 0.0017569069, -0.046851, 0.02683479, 0.0319313, 0.110502765, 0.18885487, -0.05998544, -0.07695781, -0.0760418, 0.02314989, 0.0415141, 0.021649515, -0.1168091, -0.04805945, -0.18263143, 0.10083393, 0.10647977, -0.1250378, 0.089879684, -0.059465308, 0.08759392, 0.0654057, 0.051146068, -0.057169102, 0.06237809, 0.040685914, 0.04826465, -0.15080413, -0.058461886, -0.110315286, 0.0092774285, -0.10142356, -0.04648383, -0.021701135, -0.18307936, 0.0074229767, -0.02925598, -0.08203662, 0.14239767, 0.129343, 0.062182613, 0.13856208, 0.11457358, -0.01740555, 0.058571085, -0.07580765, -0.015940605, -0.13186836, 0.11841846, 0.09632872, -0.18287665, -0.042176306, -0.013814211, 0.15605745, -0.10700992, -0.073242165, 0.09468904, -0.038240097, -0.07948216, 0.104288146, 0.104717866, 0.058478408, 0.09950837, -0.10665255, -0.057558905, 0.091729105, -0.023797639, -0.031289134, 0.07444141, 0.092260286, -0.047037963, 0.16803803, -0.0024341173, -0.14569062, 0.037842177, -0.023536926, -0.05193307, -0.0077369036, -0.09571264, -0.056463692, -0.061620332, 0.15949015, -0.102699645, -0.19978935, 0.044039495, -0.116121486, 0.050561342, 0.16883895, 0.044240844, -0.14027324, 0.048342116, 0.043169044, 0.033942968, 0.008423895, 0.1412133, -0.17222328, -0.013658948, 0.0039556776, -0.038373794, 0.14323494, -0.034359552, -0.01611179, 0.08564896, -0.10448085, 0.03137642, -0.09708591, -0.045254454, 0.022016805, -0.18137024, -0.0634453, -0.030454626, 0.17225794, -0.035215024, 0.09658436, 0.0038413717, -0.10492799, -0.14527275, -0.15386248, 0.012916318, 0.057693977, 0.08120666, 0.060134716, 0.07166722, -0.019742113, 0.05758045, -0.12538429, 0.15943697, -0.13867813, 0.018549556, 0.12779368, 0.034179643, -0.04014609, 0.02150887, -0.14195658, -0.100821726, -0.097704366, -0.01186545, 0.14137669, 0.13038173, 0.115488775, -0.08715753, 0.14642538, -0.07010698, -0.118334405, 0.058172725, -0.068906106, -0.07044024, 0.09920857, 0.08240013, 0.03399513, 0.042695254, -0.13602084, 0.0888628, -0.01834534, -0.025057467, 0.021987515, -0.19404714, -0.12972319, -0.13148376, -0.014383035, 0.113911636, 0.09974132, 0.08371009, 0.11532982, -0.06135922, 0.10121371, -0.026680294, -0.13211727, -0.03480588, 0.025908733, 9.89318e-06, 0.0416797, -0.21062087, -0.047302537, -0.046216674, -0.028305711, 0.08278756, -0.10938648, 0.0024030714, 0.0035701094, 0.08124221, 0.018495359, -0.02898745, -0.13763295, 0.04866823, -0.20003165, -0.006831955, -0.016668433, -0.07837435, -0.05604702, 0.026481196, -0.034789436, 0.057082314, 0.1613934, -0.0052855513, 0.057996504, 0.051463366, 0.041866053, 0.1652043, -0.058426548, 0.086311236, -0.10106674, 0.08389657, -0.04509261, -0.112018354, 0.13981494, -0.09055401, -0.20363034, -0.11625653, 0.07349783, 0.06517487, -0.033336956, -0.0013041026, 0.0029693318, -0.07359201, 0.036361612, -0.03567726, 0.009102311, 0.050324976, 0.027744628, 0.13340737, 0.06608428, -0.02514058, -0.027122226, -0.029245932, 0.026589585, -0.035018742, -0.043525834, 0.09788447, 0.1283863, 0.053723045, 0.1346767, 0.015923962, -0.12303351, -0.031432845, -0.07216124, -0.042564984, 0.10196317, -0.093390875, 0.14944096, -0.1609147, -0.14096025, 0.175345, -0.1070462, -0.052262545, -0.014688581, -0.15134007, -0.11714711, -0.054550175, 0.12358508, -0.045537233, 0.00020544397, 0.036299262, 0.004454994, 0.15019615, 0.016721085, 0.034701478, 0.05704545, -0.09444124, 0.031195706, -0.09702023, -0.059010725, -0.1210368, 0.09360131, 0.12785304, -0.031375457, 0.1150526, -0.007004856, -0.029246356, 0.003738869, 0.11527766, 0.00012860016, 0.08097761, 0.14967181, 0.0628516, 0.005218715, 0.10677416, -0.08593308, -0.033983745, 0.028700512, -0.06296646, -0.030663297, 0.03072601, -0.090241686, 0.02947584, 0.055663835, -0.015953852, 0.04473519, -0.051731564, -0.09225224, -0.16857676, 0.1260624, 0.24240296, -0.020055676, -0.012462484, 0.017413104, -0.11605532, 0.1702721, 0.14401618, 0.03111751, 0.07986502, 0.14625254, -0.17671867, -0.043440998, 0.13324985, 0.07765655, 0.048830673, 0.109915085, 0.10283087, 0.04741443, 0.05774475, -0.06756038, 0.12459884, 0.14457212, 0.1813446, -0.12915805, -0.075619735, -0.029226288, -0.02608086, -0.0699907, 0.006159573, 0.037504792, -0.12021103, -0.11306642, 0.010205106, 0.04073937, -0.15065266, -0.1954592, 0.003515188, -0.03008673, -0.044215303, -0.01513696, -0.06566796, 0.13142993, -0.017223531, 0.06745887, -0.061421443, -0.05113087, 0.02170648, -0.19877459, -0.011680662, 0.07836362, -0.029568614, 0.013788564, 0.10397606, 0.112260036, -0.036411975, -0.1412716, -0.01278167, 0.0790127, -0.100826256, 0.13783392, -0.044375457, 0.09307323, -0.020326931, 0.09071691, 0.03741754, 0.17010951, 0.077855445, 0.11092736, -0.0018277226, -0.0029870109, 0.13159794, -0.05694557, -0.02643012, -0.17280644, 0.15493774, 0.1569771, -0.03842246, -0.0064515322, -0.08363913, 0.08785813, 0.028958527, -0.048793633, -0.033748336, -0.11387015, 0.05354553, 0.14486618, -0.13270202, 0.03517658, 0.08548557, 0.099241756, -0.14836022, 0.06314756, -0.10000688, 0.0016788463, -0.15190308, -0.1222541, -0.0046075135, -0.008961456, -0.05120886, -0.14302534, -0.18686369, -0.04101518, -0.12732892, 0.01855568, -0.09308731, -0.032222737, 0.084121734, 0.11681959, -0.20395951, 0.10514424, -0.027768424, -0.037259914, -0.120970875, 0.140583, -0.13396588, -0.08040853, -0.16322339, -0.019033913, -0.006957436, -0.068803266, 0.0046771234, 0.047441453, -0.022140127, 0.046075337, -0.06320728, 0.12204218, 0.009548469, -0.092801355, -0.1332122, -0.17263496, -0.024991881, 0.11484446, -0.069943674, 0.09582413, -0.13949972, 0.027250202, 0.0023730567, 0.106224574, -0.004217341, 0.09553235, 0.11535965, -0.06751358, -0.029211558, -0.124476984, -0.0481214, -0.19595498, 0.107438445, -0.042836953, 0.15945053, -0.021578671, 0.09890585, -0.061055515, -0.029526778, -0.07376127, 0.12183263, 0.067310296, 0.03139195, 0.11816363, -0.04294257, 0.06709227, 0.066491514, -0.1056825, 0.1441564, -0.10507068, 0.16238621, 0.06749834, 0.051332295, -0.1175836, 0.032043766, 0.054736115, 0.06964431, -0.0024218406, 0.092005506, 0.02277501, 0.09890334, -0.050570287, 0.11278447, -0.027038738, 0.08678912, 0.004229652, -0.10182887, 0.2413007, -0.0024754794, -0.08416459, 0.07272428, -0.005605491, 0.07124966, 0.0950247, 0.08850063, -0.08919506, 0.030089026, 0.0017078205, -0.07815744, 0.019974368, 0.0135803465, -0.03429622, -0.01447624, -0.05364163, -0.041766606, -0.015379868, -0.02060192, -0.043224357, -0.15031227, 0.048528347, -0.11543208, 0.15605219, -0.17430961, -0.07897906, -0.15494134, 0.14057977, -0.027755372, -0.061681475, 0.19563162, 0.08715854, -0.019086637, -0.04684291, 0.03093238, 0.070858, -0.07778962, -0.027543057, 0.005480598, 0.021145344, -0.09788909, 0.1662834, 0.024967788, 0.07875329, 0.028857708, 0.037074134, -0.012297445, -0.08934213, 0.08811524, 0.07863067, 0.15732297, 0.04956543, -0.1569096, 0.014705787, -0.050248235, -0.19252886, 0.110144794, -0.10365474, 0.010926873, -0.0016898649, 0.0016072086, -0.10411858, -0.14579378, 0.0075985384, -0.16416512, -0.042235088, -0.041770607, 0.07920271, -0.110199645, -0.007270628, -0.15264674, -0.1692096, -0.041122913, -0.09602676, 0.0019852617, 0.13757536, 0.17781837, -0.022222111, 0.024879642, -0.05518368, 0.018960027, -0.09138614, 0.061380032, 0.09976854, 0.0063005053, -0.04717084, 0.048690125, -0.024148496, -0.049908187, -0.016990675, 0.08858454, 0.12489166, 0.030789142, -0.010555233, 0.023747323, -0.08241065, 0.0022579334, 0.0033463403, 0.050119758, -0.081408165, -0.14451943, 0.03379588, -0.036761355, 0.068887815, -0.1355713, 0.02902682, 0.1052014, -0.068682715, -0.040273745, 0.10365389, -0.08440667, -0.1841425, -0.039127197, 0.07412218, -0.04161654, 0.088886745, -0.12580772, -0.09998974, -0.018580785, -0.0904231, 0.028583096, 0.022142876, 0.014683774, -0.010855791, 0.07876339, 0.06237721, -0.084523894, -0.10461992, -0.019261291, -0.0971625, -0.06993017, 0.11272994, -0.10956413, -0.051908996, -0.15852225, -0.1477914, -0.08773804, -0.109718055, -0.025933336, 0.026190633, -0.011870123, -0.13425009, -0.1310797, -0.010882108, -0.026863573, -0.05401951, 0.03485255, -0.16246144, 0.029926376, -0.083163194, -0.065255545, -0.056995176, 0.06120311, 0.14227372, 0.17409313, -0.060406074, -0.047175072, 0.14692494, -0.037821103, -0.10115075, 0.06427252, -0.069001846, 0.069319904, 0.1283336, 0.15370612, -0.074405596, -0.01713845, -0.023636395, 0.005221687, 0.047772534, 0.120670356, -0.11627252, 0.17054564, -0.044437267, 0.045514207, -0.11103567, 0.065219454, -0.105599746, 0.14831117, 0.05310109, 0.111664854, 0.07612493, 0.0411894, 0.019256528, -0.041137435, -0.13142373, 0.15590699, 0.0046877847, -0.041071888, 0.0061443225, -0.06707911, 0.093252994, -0.01027688, 0.005487198, 0.11906247, 0.17697276, -0.048025787, -0.0643287, 0.08485419, -0.16011481, -0.00124278, -0.014683983, 0.01815153, -0.048922654, 0.014659301, -0.12637098, 0.08952616, 0.03108342, -0.059315003, 0.11460647, -0.008355508, 0.07519298, 0.11671751, -0.0006083176, -0.040703975, 0.116100036, 0.22282037, 0.112752125, 0.042084556, -0.13781074, 0.03238127, -0.0031634606, -0.01863915, -0.06965154, -0.044937268, 0.12719911, 0.012550801, -0.10017105, 0.18777543, 0.116775036, 0.05331202, -0.025358092, 0.08218538, -0.12894157, -0.011409789, -0.08403537, -0.0075226007, 0.122414, 0.059632424, -0.039292995, 0.12018194, -0.0075456575, -0.09629389, -0.003197112, 0.060211767, 0.081271335, 0.13710293, -0.025185104, -0.13551268, -0.045716166, -0.09528598, -0.035989814, 0.0074973297, -0.0028997993, 0.02729993, 0.111408815, -0.04253982, -0.10620611, -0.10352476, -0.101304986, -0.1340851, 0.055429574, -0.14126681, 0.10543126, -0.0024212117, 0.016999546, -0.15081872, -0.06644192, -0.037092257, -0.05507491, -0.07161511, -0.09304693, -0.016334828, 0.01540128, 0.031207424, 0.035511903, -0.062286682, 0.14300755, 0.011057512, -0.123003975, -0.02858423, -0.056404598, -0.08753767, 0.10714116, -0.136388, 0.07877437, 0.016615495, 0.13221455, 0.10575765, 0.14271064, -0.027836468, -0.059069183, 0.008388542, 0.058220122, 0.19555242, 0.07076274, -0.14071393, 0.18610324, -0.049199235, 0.03224792, 0.031018285, 0.08940017, 0.11525658, 0.019760894, -0.029669652, 0.002628684, 0.033993807, -0.041559592, -0.093436666, -0.14841744, 0.0805974, 0.10366442, -0.1674117, 0.14485165, -0.034062322, -0.006653411, -0.083748065, 0.08144403, -0.1632663, -0.055314478, 0.12181479, -0.0070348512, -0.17361754, -0.016131457, -0.011896464, -0.10915545, 0.07933069, -0.026600879, -0.13881077, -0.056929518, 0.17036423, 0.057324655, -0.034551516, -0.045734137, 0.018349502, 0.023781385, 0.040736966, 0.03300752, 0.103635274, 0.08380524, -0.014748885, 0.06155577, -0.004942887, -0.04591422, -0.0152428625, -0.098339945, -0.08733559, 0.01653358, 0.0056406953, -0.07296909, 0.057542033, -0.05125253, 0.17400888, -0.07469739, -0.05933717, 0.03607718, -0.028155498, -0.13844769, -0.037633073, -0.04323514, 0.13900392, 0.027988788, 0.13472635, -0.07247493, -0.033390325, -0.014270479, -0.016643304, -0.05932459, 0.0837519, 0.023856882, 0.16985081, 0.0039459667, 0.04915101, -0.034621645, -0.13125053, -0.028313145, 0.0695212, 0.05530104, 0.15998542, -0.03482832, -0.10703144, -0.10091939, 0.040421937, 0.0057102037, -0.1477135, 0.023159547, -0.052562065, -0.04546474, -0.100413695, 0.04095296, 0.040117778, 0.07696059, 0.027606605, -0.039355528, 0.04460062, 0.037397552, 0.1404362, -0.08481627, 0.079391934, 0.12076054, -0.089370266, -0.033138294, -0.12328653, 0.024140315, -0.067035146, 0.06159511, 0.06361039, 0.07050802, -0.13978644, 0.15793289, -0.0038745282, 0.010195654, 0.041004233, 0.1546851, 0.10231856, 0.06495365, -0.055090114, -0.118649565, 0.01296256, -0.13807607, -0.03548449, 0.035341434, -0.1088391, -0.0650939, -0.20622061, -0.02239939, 0.022191765, -0.0046748836, 0.12649663, 0.06571931, -0.16751316, -0.14013357, 0.1083717, -0.045189314, -0.108844556, -0.038203843, 0.15702096, -0.02175625, -0.006185518, -0.19401042, -0.03979979, 0.019606765, 0.074047245, 0.010392543, 0.062169388, -0.08122949, 0.0041454434, -0.08343381, -0.0015566594, -0.10993815, -0.13494694, 0.072268955, 0.08215628, 0.044265896, -0.009015488, 0.05341295, -0.13833754, 0.1658977, -0.013333725, 0.076072425, -0.13172433, 0.09414629, 0.036238644, -0.060506076, -0.04455228, -0.11442783, 0.020880684, -0.09064295, 0.061252777, -0.11015076, 0.083917886, -0.13425562, -0.022042206, 0.028873881, 0.028175352, 0.18374489, -0.02736994, 0.09595175, 0.0383547, -0.19121099, 0.073655926, 0.04072217, -0.03508839, 0.17490417, 0.028900517, 0.1354384, -0.0716666, 0.0485553, -0.028828163, -0.028126411, 0.12651981, -0.11842426, 0.114672594, -0.03972413, -0.018316094, -0.053607892, 0.010919737, 0.0387363, -0.041195102, 0.101406164, 0.12262673, -0.059645552, -0.09888299, 0.032626793, 0.05495928, 0.058774825, 0.009648838, 0.010219111, 0.101050615, -0.04955195, -0.064937785, -0.03882728, -0.07631585, 0.01810132, -0.18776594, -0.014522144, 0.14485505, 0.029969405, 0.18172254, -0.01758665, -0.016721519, 0.010383697, 0.01999529, -0.12100384, 0.14365834, 0.06917851, 0.06283212, 0.019771928, 0.019320365, 0.023050167, -0.21190965, -0.1941571, -0.032281075, 0.120713376, 0.027339812, -0.07880275, -0.103040054, 0.06936056, -0.031264268, -0.046432637, 0.022626305, 0.03988292, 0.04699562, -0.20278087, -0.08809966, -0.045835845, 0.058178797, 0.048583742, -0.047867037, -0.04600485, 0.09089083, 0.024731856, 0.04865584, 0.10052458, -0.12318478, -0.06319461, 0.050318386, -0.05225314, -0.033028413, -0.015733274, 0.15699188, -0.11447431, 0.00070399774, -0.04240467, -0.04795485, -0.14151776, -0.004391635, 0.07428736, 0.04998299, 0.008471595, 0.03822129, -0.075688474, 0.028237313, -0.10792682, -0.017428236, 0.09370993, 0.02912086, 0.13337557, 0.16437104, -0.010375979, -0.03845816, 0.018991355, -0.16713038, 0.07855803, -0.032956757, 0.053516407, 0.083565, -0.0020846396, -0.11132862, -0.03053983, -0.17846298, -0.08522182, 0.054788172, -0.12582305, -0.021262474, -0.06720224, -0.10139051, 0.15731342, -0.14581355, 0.15621038, -0.004041272, 0.010810166, 0.13248184, -0.0079793, 0.094062105, 0.055305235, -0.08056292, 0.030779079, -0.025130542, -0.02946937, -0.0052865874, 0.048255738, -0.003957947, -0.14592728, -0.029764999, 0.07946761, -0.06141683, -0.13970779, -0.18907289, -0.13770564, -0.002722472, 0.037215177, 0.08662901, 0.18051116, -0.018958295, 0.16476163, 0.021560775, -0.10822067, 0.06483258, -0.12377431, -0.023507893, 0.024054138, -0.07409219, -0.10056711, -0.11411569, -0.16573438, 0.056721862, 0.13858265, 0.03212562, 0.05242809, -0.18436037, 0.046369877, 0.03523187, -0.026294136, 0.07365586, -0.12514235, 0.1501991, -0.13880327, -0.07085841, 0.002452752, -0.122220986, -0.16925699, 0.14440115, -0.07221384, 0.014038709, -0.07584307, 0.09720931, -0.03384528, 0.18940681, 0.06668778, 0.094771445, 0.06749616, 0.02679921, -0.06889449, -0.15470962, -0.018155478, -0.060194865, 0.02435945, -0.105567686, -0.07147448, -0.13736992, -0.11508295, -0.15726185, -0.07923505, 0.03976408, 0.022257106, -0.10054338, 0.09847224, -0.00062656566, -0.10267101, -0.03937862, 0.057501066, -0.053445946, 0.034517318, 0.05505446, 0.1769364, 0.1070315, 0.05304288, -0.09138057, -0.050765794, -0.2309835, -0.016296687, 0.15678376, 0.019406982, -0.087378025, -0.00079971313, -0.06108735, 0.1431499, -0.013212042, -0.052654665, -0.14872581, -0.030265033, -0.016394453, -0.06597951, -0.10138619, 0.03502647, -0.01772704, -0.06738537, 0.04194434, 0.06332758, 0.17861082, -0.13514815, 0.0012355117, 0.089792006, -0.09344899, 0.03917288, -0.17476718, 0.1145443, 0.0036427914, 0.11229541, -0.13714646, -0.07888623, -0.005891122, -0.08241687, -0.09320926, -0.13159917, 0.014224982, -0.04826946, 0.009096446, -0.05248718, -0.060842097, 0.13577414, 0.04218584, -0.046832334, 0.097357675, -0.10567716, -0.020606728, 0.03151159, -0.01158307, -0.012701626, -0.0772651, -0.042729314, 0.08200332, -0.045963284, -0.07220609, -0.0417919, 0.11589415, 0.0711496, 0.1463613, -0.09291842, 0.107631974, -0.1934841, 0.13469912, 0.0002655984, -0.105710946, -0.06125468, 0.14700586, 0.02362727, 0.104075305, -0.18544134, 0.048518684, -0.0058004074, 0.005562797, 0.051084403, -0.1039825, -0.06760747, 0.07617702, 0.111104436, 0.070243225, -0.10049299, 0.074369356, 0.05905736, 0.18248318, 0.07403005, -0.050357204, 0.08753873, -0.03217555, 0.17037018, 0.17424375, 0.07604458, 0.076885276, -0.049929053, -0.007005451, 0.0072809234, -0.00702253, 0.09317433, -0.084919676, -0.029746339, -0.019550737, 0.06812604, 0.06476339, -0.009981434, 0.0010772753, -0.05446303, -0.07209664, -0.15458699, -0.0363759, 0.09035759, -0.10528664, 0.15608007, 0.05477345, 0.051433574, 0.084622465, 0.07229245, 0.109095335, -0.024301335, 0.07045093, -0.011964965, -0.09631993, 0.1507524, -0.04180688, -0.1276566, 0.12757379, -0.07917972, 0.09210439, -0.048981063, -0.028093405, -0.13750888, -0.13662745, -0.051114164, -0.01507787, 0.018674903, -0.074187756, 0.09525765, -0.116466805, 0.08585387, -0.00987313, 0.108414866, -0.0199153, 0.008432785, 0.14679693, -0.0070765326, 0.009190935, 0.070459835, 0.21840674, -0.08486405, -0.1798042, 0.05111664, -0.15758833, 0.13407674, -0.10367704, 0.056956165, -0.15671185, -0.021401884, 0.06751726, 0.080329165, -0.04620773, -0.09682056, -0.04173974, -0.20366073, -0.14885588, 0.16717242, -0.03386077, 0.074677505, -0.00762158, 0.042113166, 0.061777227, 0.0065200473, -0.12045935, 0.14053674, -0.05348215, 0.059149705, 0.023369394, 0.057233978, 0.05919811, 0.027868332, -0.028854303, -0.0086903935, -0.09115972, 0.1569126, -0.035511784, -0.14507592, -0.10791928, 0.16767982, -0.08366905, -0.17438568, 0.16934891, -0.00908951, 0.083763435, -0.00077434577, -0.02665039, 0.0527418, 0.008734572, 0.15285811, -0.17417182, -0.06437385, 0.048928473, 0.10005155, -0.10459043, -0.15024701, 0.09764139, 0.15670851, -0.17175946, -0.025104642, 0.029818147, -0.15788843, -0.18215795, 0.07384637, -0.03569999, -0.1954903, -0.049878303, 0.026942624, -0.109671675, -0.07052916, -0.059527583, -0.08247746, 0.19146258, -0.063981794, -0.043921128, -0.038608994, 0.06217181, -0.025348196, -0.059148364, 0.09915722, -0.11176058, 0.03659171, -0.13477051, -0.114235826, 0.056289252, -0.10408852, 0.070501246, -0.01365771, 0.072460495, 0.12911943, -0.10117518, 0.021775827, 0.021441642, -0.051447943, 0.0025953883, 0.061473068, -0.09453036, 0.035912722, 0.0048378254, 0.0642198, -0.0057052965, -0.0060269027, 0.0064111818, -0.1419336, -0.14895687, -0.096790075, -0.011540727, -0.07691367, -0.11012178, 0.08602319, -0.14081986, 0.1026862, -0.037928153, -0.07004645, 0.0051435772, -0.12107159, 0.091126814, -0.03511621, 0.18508114, 0.024117853, -0.017090164, -0.012813408, 0.047520034, -0.05594473, -0.071973644, 0.18744375, -0.10059744, -0.07900323, 0.10407128, 0.090642475, -0.057967678, -0.06329424, 0.05023601, 0.01962828, -0.08875701, -0.052611727, -0.053366806, 0.14375669, -0.05598168, -0.068609685, -0.0049356245, -0.018563345, -0.053821195, 0.060004, -0.04617845, -0.029054418, -0.0855026, -0.013110881, -0.16555187, -0.0026782483, 0.041135915, 0.07095283, 0.048631288, -0.036727216, -0.045062214, -0.08902086, -0.10691113, 0.018224666, -0.017652214, -0.037714366, 0.034268722, 0.04772158, -0.062042765, 0.007581585, -0.0619255, 0.014157549, -0.103422605, -0.18816213, -0.10927093, 0.12185728, -0.12317598, 0.04613709, -0.02887466, 0.115296215, 0.02225412, -0.16166134, -0.011319575, 0.011307421, 0.036097623, 0.049287956, 0.14131273, -0.042233206, -0.049947534, 0.0002436727, -0.057687946, 0.037427668, 0.1021431, -0.13035999, -0.01330989, -0.106722526, -0.0100761065, -0.050181337, -0.035481337, -0.17095861, -0.029506896, -0.007569674, -0.10167861, 0.0033326894, 0.09516203, -0.13446994, -0.1361457, 0.037950166, -0.008582125, -0.046644326, -0.08141114, 0.14250761, 0.07591084, 0.12296914, -0.166402, 0.046638433, 0.026099876, 0.067038305, -0.019920206, -0.03770274, -0.17771247, 0.021592787, -0.069613196, 0.15851928, 0.09169155, -0.0985196, 0.02772294, -0.15192863, -0.091366954, 0.061846994, 0.04129919, 0.15535586, -0.12601285, 0.07818536, -0.072988175, 0.071368374, -0.118397765, -0.0735074, -0.0058498783, -0.03834845, -0.084085196, 0.094124466, 0.017446581, 0.0075415843, -0.03771258, -0.08483825, 0.077949405, -0.00025396008, 0.040450502, -0.023753818, -0.08097856, 0.16211033, -0.04253654, -0.026159352, -0.020949056, -0.058669202, 0.04342581, 0.0017996954, -0.08014996, -0.036361776, -0.00537814, -0.121360175, 0.13727564, 0.10924116, -0.09910872, 0.12871963, 0.0029699637, -0.037231293, 0.019422235, -0.14031273, 0.09741693, 0.14584406, -0.020311635, 0.014868351, -0.01902292, -0.021232244, 0.0178508, 0.0015148746, 0.0053689997, -0.09055927, 0.090852, -0.009456267, -0.13455677, -0.10450743, -0.014339592, -0.029500492, -0.10481831, 0.0163298, 0.059115756, 0.09267739, 0.17947538, 0.047799803, 0.061733518, -0.011391679, -0.09213282, -0.08814962, -0.0007595301, 0.06294994, -0.0699015, -0.07064014, -0.11161649, 0.028535692, 0.04497149, 0.14751871, -0.075894594, -0.109338984, 0.049266484, -0.06434424, -0.017928978, -0.023419589, -0.021245673, -0.20636165, -0.12578253, 0.17181137, -0.03269745, -0.07495265, -0.03915298, -0.20280527, -0.027098805, -0.010723466, -0.05028833, 0.011824739, -0.086960725, -0.06121198, -0.057753157, 0.015412568, 0.10891542, -0.092746906, -0.085599326, 0.069089726, 0.028140899, -0.05775365, -0.026345452, -0.07474845, 0.19712302, -0.094701, -0.026107032, 0.010389222, 0.021967534, -0.0850956, 0.064944535, 0.028537951, -0.061819125, 0.07116894, 0.042189047, -0.11811755, 0.031143297, 0.08166967, -0.022098938, 0.07685885, 0.047883518, 0.009085934, -0.06894402, 0.007871533, 0.15647529, 0.08103123, 0.01528589, 0.10149276, 0.047442734, -0.12784429, -0.01528759, -0.044436082, 0.14356005, 0.07375101, 0.007467541, -0.1556335, -0.04104549, 0.06989022, 0.16853093, -0.07685768, 0.14555515, -0.023735473, -0.09218631, -0.034264445, -0.07461092, 0.027674878, -0.05772224, 0.01935102, -0.024699826, 0.09818751, 0.057266098, 0.04723341, 0.062227473, 0.08046555, 0.098267555, 0.062661394, 0.12743014, -0.0788237, -0.12729569, -0.046731368, 0.04384302, 0.08154435, 0.05567767, 0.18436797, 0.10335432, -0.10257427, -0.08986704, -0.06957757, 0.14942679, -0.10104025, 0.036289264, 0.039783712, -0.16965307, -0.08759988, 0.06543392, -0.07794886, 0.11887248, 0.022748614, -0.0059564305, 0.10197488, -0.20187357, -0.041523837, 0.022245923, -0.1283328, -0.0030398152, -0.20878562, -0.0016823722, 0.12108038, 0.0016578377, 0.0584792, -0.057527907, -0.110152, -0.05215517, 0.061144862, -0.037797794, 0.025629591, -0.018105196, 0.012901848, -0.13418138, -0.08496388, -0.0068238787, 0.044607017, -0.049085855, 0.08284606, 0.033853836, 0.075887986, 0.09573409, -0.14022507, -0.08343937, 0.11417761, 0.0096402895, -0.0944626, 0.08513425, -0.06897328, 0.11214932, -0.0033205717, 0.02795104, -0.014699762, -0.034398474, -0.082408726, 0.11357917, 0.09648988, 0.12693036, 0.06223878, -0.026475988, 0.08189401, -0.13589384, 0.1722665, -0.1115122, -0.15951188, 0.041791555, -0.086779855, -0.15894206, 0.11739612, 0.050508317, -0.15944079, -0.05519554, 0.0045228386, -0.047779094, -0.009745011, -0.1351352, -0.1788174, 0.042641442, -0.08738326, 0.12784478, 0.12156796, -0.16949318, -0.015486071, 0.14658938, -0.08023499, -0.049624663, 0.027157778, -0.19710791, 0.09678471, -0.11849783, 0.10937692, -0.14868367, -0.1914583, -0.013163212, -0.037166797, 0.07960995, -0.03005221, 0.12061149, 0.015217341, -0.19237518, -0.03639582, 0.15435663, -0.035540164, 0.114156336, 0.012443614, -0.0786618, 0.14083579, -0.07572514, 0.032597367, 0.08878694, 0.08837235, 0.020936305, 0.024333075, 0.05030897, 0.07168322, -0.092156224, -0.08143578, -0.0822835, -0.019302264, -0.00790512, 0.16458431, -0.14131042, -0.13206632, 0.1151342, 0.042911887, 0.08899208, -0.004155919, 0.069376156, -0.064906694, -0.044070724, -0.006805223, 0.0069181323, 0.006168157, 0.07265259, -0.024300897, 0.16324632, 0.11784479, -0.004524023, -0.01705141, -0.14381944, 0.0915222, -0.06379599, 0.11551621, 0.017148612, 0.009261411, -0.052514568, -0.030157479, 0.04325468, -0.019851258, 0.020581136, -0.030865565, -0.12670882, -0.14592823, -0.13898328, 0.122359656, -0.0699635, -0.18231583, -0.048342913, -0.083797984, -0.04065214, -0.20785248, -0.1038473, -0.07882071, -0.012070718, 0.024667019, -0.07847186, 0.12193426, -0.013213408, 0.02050369, -0.09044815, -0.08074898, 0.003905496, -0.016990209, -0.0015993817, 0.12012074, -0.0038933053, 0.081866056, -0.09730641, -0.06436168, 0.049076807, -0.15289745, 0.060171634, 0.14625134, 0.022684304, 0.12846547, -0.06933434, 0.019211594, 0.123602055, -0.1323074, 0.037192076, 0.10073073, -0.06704799, -0.16301048, 0.017994191, 0.031905856, -0.11786385, 0.07973676, -0.022405023, 0.0094344, 0.017711354, 0.041020297, -0.15335727, -0.030832965, -0.082087986, -0.1804851, 0.09015933, 0.02621479, 0.080331996, -0.07728658, -0.014821506, -0.12727082, -0.0326464, 0.0076115015, -0.048741907, -0.13982594, -0.03578796, -0.036237765, 0.016987726, -0.032358672, -0.15886751, -0.058827914, -0.12965098, -0.08524888, -0.055485822, -0.11166609, 0.21446133, -0.101625696, 0.06869662, -0.049998168, -0.02943597, -0.09652182, -0.14477071, 0.13962696, -0.15021814, 0.07998172, -0.20134977, 0.042883236, -0.124715365, -0.10414291, -0.027686771, 0.16818893, 0.044652272, 0.092474215, -0.063584596, 0.15030669, 0.07425427, 0.03848408, -0.054669313, 0.04056108, -0.052119676, 0.08023471, -0.12032849, 0.19285955, 0.14543928, 0.13488358, 0.105928525, -0.028116336, -0.040818635, -0.045632016, -0.09719447, 0.0049467357, -0.015726428, 0.016877716, -0.031584844, 0.06665632, 0.07707786, -0.13288239, -0.071908146, -0.077537216, 0.042945493, 0.011732216, -0.05336643, -0.047270406, 0.07218995, -0.10894842, -0.07692381, 0.1786534, 0.041490074, -0.061867543, 0.16440137, -0.022511138, 0.06148707, -0.05475653, 0.029727243, 0.20900631, -0.12588058, -0.12761, -0.08750999, -0.012970585, -0.17635769, 0.046918705, -0.1308713, 0.0056271176, 0.00010121863, -0.118429914, 0.002319152, -0.07739902, 0.09409964, 0.010537625, -0.08040896, -0.10250846, -0.07276934, -0.035922106, -0.07714981, 0.078369915, 0.121085934, -0.1412331, 0.02596473, -0.08696367, 0.17044601, 0.021144105, -0.17451659, 0.095768325, -0.12275564, 0.0714446, 0.0049867826, 0.108542316, -0.17270996, -0.075402, 0.06458835, -0.18697937, -0.04539222, -0.1207681, -0.04256506, -0.095165364, 0.064955555, 0.08155827, 0.08663337, 0.051569797, -0.07027852, 0.02484378, -0.17181545, -0.14366053, -0.030215098, -0.03797597, 0.1267682, -0.012076229, 0.11439614, -0.09508138, 0.050716944, 0.031485993, 0.073991776, -0.030399354, 0.0037080192, 0.12601474, 0.06395366, 0.018672861, -0.057759844, 0.1322012, 0.0653196, -0.03333978, -0.13825627, 0.13270956, -0.11766603, -0.08832886, 0.057694267, -0.053198274, 0.06887321, -0.015179504, -0.14601897, -0.021287568, -0.07704199, 0.038228385, -0.088615224, 0.085235715, 0.116845295, 0.037308034, 0.04290998, 0.033797048, -0.14237963, 0.10006507, 0.08749555, -0.17392203, -0.10429537, 0.19775842, 0.07376293, -0.11261613, 0.15073028, -0.17766172, 0.12288955, 0.027043248, -0.10439768, -0.10759214, 0.080972314, 0.07063245, 0.019126676, -0.12750335, 0.0514617, -0.12002851, 0.009405158, 0.0043111616, 0.09813127, 0.019323384, 0.045746192, 0.0058191493, 0.16420387, -0.034987744, 0.11181964, -0.12999693, 0.1336229, 0.10999778, -0.08463581, -0.027105412, 0.041796874, 0.012632098, -0.18349813, 0.13815898, -0.04158091, -0.036704034, -0.100609615, -0.039265018, 0.087819226, 0.15093052, -0.071764745, -0.010805909, 0.11553359, 0.0033854928, 0.09021683, 0.04383788, 0.13732067, -0.012941325, -0.038248938, 0.029369479, -0.07011747, 0.03748048, -0.17726867, -0.11052944, -0.039116394, -0.058145203, -0.098483525, 0.04450464, -0.067155465, 0.024987279, 0.10867456, -0.06939899, -0.07349927, 0.041532136, -0.06033458, 0.13283408, -0.002201317, 0.014674669, -0.005591102, -0.0021462238, 0.09871065, 0.05169303, 0.13465023, -0.13621514, -0.07024602, 0.01584679, -0.022682117, -0.029493818, -0.13108577, 0.061608747, 0.100709334, 0.11994703, -0.054107364, -0.031359788, -0.07838265, -0.096855454, 0.07656968, 0.17675209, -0.08630658, 0.123764694, -0.07182746, 0.027585248, 0.12652372, 0.18648028, 0.100501016, -0.032825887, -0.11215682, 0.02383209, -0.09988116, 0.030927436, 0.043149535, -0.02199279, -0.027657311, -0.006702875, -0.101340204, -0.062980704, 0.010508748, -0.03209011, -0.06911174, 0.059609775, 0.012851685, -0.029158676, -0.0402815, 0.020301111, -0.0070874467, -0.10136992, -0.021810107, 0.001204061, 0.07192374, 0.031495478, -0.08371081, 0.08340641, -0.17051362, -0.039838318, 0.13154784, 0.054115467, -0.033234943, -0.12965852, 0.14637892, -0.0060327556, 0.03565509, 0.0530351, -0.028525257, -0.09556149, -0.09703619, -0.12253338, -0.06073305, -0.01112699, -0.071547054, -0.09512627, -0.0774728, 0.09828601, -0.02390696, 0.07329511, -0.056647707, 0.06404421, -0.14574853, -0.07453564, -0.13983972, 0.006215055, -0.09256247, -0.10257231, -0.021163285, 0.11771381, -0.08539934, -0.14054915, 0.038831905, -0.010502522, 0.014040166, 0.043905012, -0.068751484, 0.01636528, -0.047428522, -0.14027424, -0.20653795, -0.20409073, -0.13778163, -0.0023889954, 0.074030034, 0.01459746, 0.06792641, 0.022345582, 0.105669, -0.017931577, 0.0907262, -0.02097869, -0.119650215, -0.12077075, -0.061593924, 0.097437665, 0.069937065, -0.07722883, -0.12300306, 0.18104336, 0.0019208736, -0.19659412, 0.05504369, 0.07419548, -0.09684457, -0.080966115, 0.066905506, -0.029623404, -0.01230846, -0.069638886, 0.12825418, 0.0125012705, 0.004621963, 0.070910044, 0.0011105173, 0.060421664, 0.05671118, -0.121348344, -0.051307853, -0.031984672, 0.026294937, 0.033099364, 0.11043463, 0.0324282, -0.022450227, -0.011006883, 0.036350653, 0.16174953, 0.051010568, 0.088799365, -0.04529859, -0.08459848, -0.1455625, -0.09683182, 0.0012544622, 0.15497342, 0.016777394, 0.014474999, -0.012887722, 0.1480974, -0.20864178, -0.007417087, -0.03336718, 0.15335554, 0.061409082, -0.030029962, -0.08090481, -0.062034883, -0.08473236, -0.11569506, 0.05502077, -0.015239512, 0.048423193, 0.19211797, 0.100033544, -0.01235902, -0.076589026, 0.03591367, -0.015377705, -0.016286943, 0.17484355, -0.067497455, -0.1276117, -0.050005496, 0.012179056, 0.082451604, 0.039605148, 0.096090354, -0.112940125, 0.012471992, -0.06448032, 0.17691924, 0.05278777, 0.081455566, 0.003438013, -0.015054907, 0.15730281, -0.037098013, -0.13245761, 0.00788042, -0.16925043, -0.051490862, -0.04236508, -0.052482784, 0.08146937, 0.07781602, 0.10592252, -0.029338334, -0.06133724, -0.12503448, 0.09405429, -0.07258369, 0.033500656, -0.085235834, -0.17367212, -0.021365728, 0.15609273, 0.11241113, 0.08859488, -0.00017518619, 0.07778656, 0.00012073634, -0.08514185, -0.14672929, -0.0065380945, -0.092899285, -0.00041382882, -0.049151074, -0.14788392, -0.06960178, 0.04104129, 0.14694366, -0.10791931, -0.011079314, 0.061783597, -0.0064758672, -0.049959145, -0.07040365, -0.013365142, -0.13408841, 0.017974705, 0.017027486, 0.18475412, -0.0020014015, -0.14833069, -0.003276707, 0.07500506, -0.0006945901, -0.100060254, 0.19633564, -0.03732619, -0.009722012, -0.14607094, -0.08883616, 0.15685835, 0.041536395, -0.040720962, 0.117729574, 0.076406844, -0.0060783164, -0.022561925, -0.06867394, 0.17856202, -0.09080486, 0.02834277, -0.042547945, -0.06771522, 0.12241944, 0.023336254, -0.0026462749, 0.055613827, -0.025229547, -0.13439582, 0.053012475, -0.078634545, -0.13053185, 0.069242135, 0.012721934, 0.035005413, 0.09031943, 0.0052000107, -0.066669166, 0.060751304, -0.17125297, -0.045317166, 0.08902778, -0.0115662245, 0.025837474, -0.0053752777, -0.08575396, -0.0005876105, 0.052661356, -0.09922932, 0.13114987, 0.11425813, -0.059953924, 0.03658089, 0.1996808, -0.0048903665, -0.14477551, 0.036394246, 0.053298004, 0.13000159, -0.15161377, -0.13156143, -0.063660815, 0.028717907, -0.0066702496, 0.096050575, 0.095664, -0.049589872, 0.05134418, -0.0075021028, -0.016418695, -0.123087354, 0.10765876, -0.009518292, -0.1267872, 0.03248396, 0.026644856, -0.099268995, -0.071942836, 0.061445575, 0.16683193, 0.18120927, -0.028455144, -0.017882738, 0.03941785, -0.022441862, -0.0342916, 0.06659723, -0.065481685, -0.07158367, 0.00506495, 0.060327463, -0.13916892, 0.0017092444, -0.12585825, -0.122534, -0.14119007, 0.0013484446, -0.047759566, 0.036283035, 0.06716736, -0.06853356, -0.048148464, -0.0872399, 0.17162259, -0.08063438, -0.05151379, -0.18733722, -0.16074407, 0.116934806, -0.096218385, -0.08983899, -0.053519033, -0.06929627, 0.17253572, -0.07864953, -0.052658353, -0.04830722, -0.002800087, 0.056789458, -0.002399654, -0.0036647161, 0.09877834, -0.12071318, -0.061654557, 0.12942691, 0.0028135981, -0.059496287, 0.0786722, -0.055206656, 0.1000301, 0.10518134, -0.016125776, 0.03016767, 0.15690827, 0.002313513, -0.17900367, -0.13038447, 0.09399367, -0.0026445766, -0.0008224972, -0.013509389, 0.02878222, -0.10283506, -0.19535853, 0.0024042693, 0.14116406, -0.024263337, -0.13421804, -0.113963746, -0.024699165, -0.010037941, 0.08674467, 0.00480462, -0.024407307, -0.048884604, -0.10802636, 0.07923899, 0.05756587, 0.14653839, 0.0030171042, 0.022445312, 0.07852938, -0.17782308, -0.006115377, -0.098308854, -0.018880662, -0.017104987, 0.058858037, -0.021504603, 0.020354861, -0.17983575, 0.01162318, 0.11210779, -0.000118131036, -0.115398385, 0.07733829, -0.03520331, 0.11727856, -0.026567964, 0.046049908, -0.08101508, -0.161622, -0.053278066, 0.048940387, -0.038836908, 0.1828366, -0.14816701, 0.02506969, -0.01818074, 0.10244993, 0.021289272, 0.047297698, 0.14651501, -0.09151912, 0.115969144, 0.069658905, 0.1604111, 0.11195067, -0.0007211907, -0.0452254, -0.05753943, 0.11051813, 0.012752629, -0.015416486, 0.071373835, 0.0986474, -0.036820333, -0.020201728, -0.121860504, -0.0031689606, 0.0012422095, -0.066307195, 0.023413641, 0.09619106, 0.05342186, -0.106113754, 0.071353234, 0.016619645, -0.06686135, -0.083547726, 0.07283221, 0.14354438, 0.081682935, -0.0628441, -0.13073531, -0.082214564, 0.08312997, 0.062151846, 0.13715427, -0.07067077, -0.08495208, -0.025108607, 0.0081747575, -0.03558182, 0.030141447, 0.14018878, -0.0014002098, -0.04489078, 0.004357313, -0.1015074, -0.024543468, -0.024668109, -0.02906924, 0.063240476, -0.022584977, -0.03074196, -0.09213192, 0.10530822, 0.15204895, -0.1332173, 0.1524693, 0.0816871, -0.04062395, 0.15775342, 0.02733289, -0.15762319, 0.055129107, 0.1399056, -0.13289599, 0.05059403, -0.048839524, -0.060174372, -0.104640916, 0.08617897, 0.14820427, 0.021372275, 0.15145354, 0.1171833, 0.002592366, -0.045708936, -0.017236428, -0.00711598, 0.001096285, -0.15189672, -0.03546133, 0.07443794, -0.14340872, 0.071878694, 0.02921923, -0.07995327, 0.0502157, 0.0530852, 0.013372716, 0.10882586, 0.052397583, -0.06480574, 0.1326144, 0.036813006, 0.03888994, 0.06650941, 0.14729136, 0.02688188, 0.077904865, 0.1930048, 0.072767615, -0.19217059, 0.0056811427, 0.030230306, -0.108607955, -0.015132131, 0.10268765, -0.0401704, 0.05905476, 0.02323231, -0.0046107466, -0.12771225, -0.11926529, -0.068336904, 0.16277899, 0.07131035, -0.17057872, 0.036296986, -0.09887265, 0.00021507758, -0.06631193, -0.012321527, 0.05535131, -0.0362266, 0.15105115, -0.1204771, -0.08563001, -0.16076657, 0.008711686, 0.018344795, 0.10897784, 0.026002388, -0.08942213, -0.13290118, -0.06496404, -0.005759743, 0.15092959, 0.121767595, -0.09865859, -0.12964642, 0.021183785, 0.035609145, 0.0060854466, -0.11730592, 0.08311594, 0.11642338, 0.12476455, 0.052240375, 0.03661128, -0.10655388, 0.069404714, 0.05190607, 0.11731831, 0.07586196, -0.09327916, 0.06178801, 0.061504588, -0.06800138, 0.024690228, -0.14400017, -0.03194269, 0.008187719, -0.078961544, -0.12915438, -0.14093691, -0.16074193, 0.12287863, 0.04553756, 0.16202955, -0.1441145, -0.019149179, -0.015609839, 0.007556324, -0.05090446, -0.14436449, 0.0029333525, -0.033968654, -0.018957727, -0.064958885, -0.010257913, 0.093596816, -0.068779305, 0.08778215, -0.058394924, -0.030882597, 0.15399161, -0.15291569, 0.14135548, 0.101233736, -0.07375194, 0.077658266, -0.1422489, 0.097288035, 0.011225818, -0.05866005, 0.052598067, 0.022013111, -0.12636, -0.011117793, -0.08437675, -0.051042676, -0.12749884, -0.06557164, -0.070777245, 0.022088053, 0.037291083, -0.17538084, 0.044529308, 0.1115156, 0.13902844, -0.00755725, -0.0775154, -0.062498845, -0.03766883, 0.12217064, -0.19942485, 0.06794714, 0.111210436, 0.12329896, -0.03307266, 0.043717366, 0.055396557, -0.19851054, -0.004422024, -0.107396685, -0.027836693, 0.014929348, 0.021191094, 0.05794799, -0.016193628, 0.17195743, -0.061080363, 0.13412727, 0.04659237, 0.16253369, 0.012995192, 0.11031532, -0.022414014, -0.0021053732, -0.0983948, 0.040792976, 0.15765126, -0.07856864, 0.0631324, 0.1660835, 0.060367543, 0.006495381, 0.078634694, 0.09613412, -0.08813073, -0.10061161, 0.1314724, 0.0062449304, -0.055344276, 0.15090667, 0.067317516, 0.0418928, -0.10932982, 0.061725885, -0.014485858, 0.10371938, -0.09597914, -0.08799051, 0.0019108822, 0.009959857, -0.030607164, -0.059845906, -0.16411155, -0.06357611, 0.08892414, 0.10779991, 0.1734096, -0.10541608, 0.06080177, -0.038049623, -0.02838859, -0.16309986, -0.04165077, -0.058091633, 0.2022394, 0.17864233, -0.06155101, -0.062392227, -0.14159967, -0.02263692, -0.017840518, -0.12285562, -0.04423289, 0.0034336362, 0.0035264427, -0.11674927, -0.055071454, -0.09456255, 0.03766026, -0.07553381, 0.072680905, 0.1587614, 0.032679114, 0.073662564, -0.027955934, 0.09888238, 0.12801597, -0.03044376, 0.12573013, 0.14537126, -0.044429068, 0.15723331, 0.08035671, 0.059828736, -0.096645534, -0.007994356, 0.06456402, 0.099637724, 0.070351, -0.08042385, -0.08008153, -0.026360475, 0.0160709, 0.13139647, 0.09960503, 0.02951566, -0.21763444, 0.13126104, -0.03357257, -0.04067534, 0.16403222, 0.13479939, 0.033657487, -0.15886271, 0.049116783, -0.030163046, -0.09716274, -0.10013725, -0.12089799, 0.053380366, -0.043501586, -0.040585466, 0.16077562, -0.0062678102, 0.14555451, 0.16219346, -0.026360914, 0.07220575, 0.02113151, -0.0866935, -0.06260968, 0.15952513, -0.052551433, -0.06818993, -0.12757498, 0.11954157, 0.17796634, -0.031972103, -0.0043516606, 0.1285927, -0.062714666, 0.07416154, -0.111508906, 0.0069366153, 0.053416327, -0.07691896, -0.05646423, -0.15996844, -0.101177715, -0.024353625, 0.14260563, -0.14192969, -0.11810725, -0.085874885, 0.19081385, -0.07868166, -0.06475941, 0.22374846, -0.031207202, -0.06410014, -0.16032988, -0.020362353, 0.06776779, 0.13372537, 0.098497525, -0.11863969, -0.13717312, 0.103252776, 0.14274175, -0.15409079, -0.0009984401, -0.032686934, -0.085792296, -0.1244445, -0.11599379, 0.04715688, -0.13825573, 0.060111195, -0.20329198, 0.019689918, -0.12655888, -0.15335794, 0.041100834, 0.032558125, -0.051396113, 0.14861551, -0.1330264, 0.02273224, 0.031720515, -0.11015266, -0.033331614, 0.14586847, 0.05801749, -0.016349493, 0.030885614, -0.0014159934, 0.0044355667, 0.010953869, 0.10524791, 0.09293561, 0.12339289, -0.028210532, 0.00027490032, -0.052437313, 0.13387342, 0.040140275, -0.08410263, 0.10411665, 0.019701585, 0.106976576, -0.086812496, -0.0020017952, 0.054347254, 0.07202033, 0.15024722, -0.04064098, 0.08358408, 0.09789082, 0.047904253, -0.15688711, 0.087390594, 0.077069856, -0.03731195, 0.0061104344, 0.04312756, -0.07591337, 0.055904493, 0.057587616, -0.10659326, -0.06812815, -0.07604926, 0.032825485, -0.034333132, 0.042497326, -0.08445715, 0.07838193, -0.05507798, -0.13957787, 0.11493192, -0.0737375, -0.015613235, -0.049192734, 0.073958725, 0.14388084, -0.06978512, 0.16390195, -0.065033324, 0.1296978, -0.08318055, 0.060749575, 0.053734854, 0.19014081, 0.068429776, -0.031974647, -0.12234111, -0.13058233, -0.061380386, 0.041123707, -0.099000864, 0.01228731, -0.14450434, -0.0020790584, 0.06839977, -0.05192922, -0.12265504, 0.09540605, -0.13858925, -0.04868533, 0.13838041, -0.026477098, 0.11567741, 0.080039434, -0.077079885, -0.031504944, -0.00033247177, 0.17646879, 0.03187587, 0.17500673, 0.06267836, -0.00874705, -0.084526114, 0.052088883, 0.124796696, 0.082281135, -0.1641597, 0.015121652, 0.06844698, -0.16727611, -0.16975124, -0.022479946, -0.011115223, -0.14374845, 0.060425732, -0.07384555, -0.03447721, 0.0808803, 0.043069232, 0.030748237, 0.014695911, -0.041439787, -0.08590171, -0.20645389, -0.13650784, 0.116634585, 0.101123504, -0.020144872, -0.09668291, 0.033478327, -0.018270425, -0.028195828, 0.019747477, 0.17061572, -0.017731242, -0.1418948, 0.051909473, -0.08397458, 0.010096116, -0.15440814, 0.07983957, -0.015421327, -0.17232096, 0.020827945, -0.03426993, 0.052609585, -0.08516261, 0.17568381, -0.049090132, 0.13219698, -0.12180105, 0.14824036, 0.008498878, -0.034218978, 0.01124346, -0.11221974, 0.09177987, 0.0064594713, 0.08007249, -0.0026866165, 0.14957865, -0.06437238, 0.119864106, -0.15866199, 0.06260299, -0.097589105, 0.08162667, 0.04753188, 0.102802604, -0.16736631, 0.06171153, 0.15477373, -0.0036592425, -0.0064895125, -0.12133359, 0.10578131, -0.07427644, 0.10211784, -0.15387034, 0.009904318, -0.09415204, -0.028957065, 0.06671131, -0.05376148, -0.013223786, -0.0048433673, 0.16621268, -0.16072962, -0.04318196, -0.04507689, 0.026627513, -0.14034261, 0.12926212, 0.08248321, -0.09925669, -0.052895915, -0.051056895, 0.053657424, 0.008454927, 0.016016899, 0.13581116, 0.07168018, -0.09572003, 0.048037805, 0.030036367, 0.08211136, 0.13284661, -0.05985813, 0.08764793, 0.011039191, 0.041623197, 0.13637672, 0.04880379, -0.09620858, 0.06416627, 0.015449423, 0.14218178, -0.063998535, 0.0604742, -0.03296737, 0.095626414, 0.07010971, -0.047050208, 0.052331414, 0.05252903, 0.15709056, -0.017254196, -0.090079844, -0.055936176, -0.14733374, -0.061053798, -0.13799673, -0.040854603, 0.16670635, -0.000112115646, 0.011767722, -0.13740736, 0.013038268, 0.045516685, 0.0036400845, 0.049418017, 0.130174, -0.062529474, 0.12285219, 0.034318957, -0.012338914, 0.08218373, 0.08290601, -0.025333006, 0.06338253, -0.05791238, 0.027883573, -0.0686812, -0.021210043, 0.10153977, -0.105623536, -0.1340955, -0.042099424, -0.04137858, -0.090625964, 0.07155149, 0.18565792, 0.10719546, -0.012391645, 0.050025117, -0.008673376, -0.040545017, 0.15760419, 0.03686979, 0.11516859, -0.07904237, 0.05333973, 0.035558365, 0.08393449, -0.17430687, -0.1227356, -0.061611723, -0.11433136, -0.02883841, -0.04821055, -0.0967063, -0.021144146, -0.017233772, -0.0642336, 0.00823197, -0.1990707, -0.15450864, -0.14182378, -0.058315676, -0.11148879, -0.09644456, -0.124885425, 0.078413256, 0.028227223, 0.040827893, 0.111274995, -0.08386045, -0.060753822, -0.16143379, -0.10602242, 0.04275019, -0.045557752, 0.05899569, 0.17219503, -0.025126137, -0.02216343, 0.014356818, 0.09600424, -0.097261086, -0.07611609, 0.10748691, 0.13515638, 0.089234605, 0.055274323, -0.03996997, -0.068331175, 0.06438697, -0.05140595, 0.0028553626, -0.10347507, -0.06208, 0.011419068, -0.08052264, 0.09196265, 0.0050660935, -0.083914556, 0.15708919, -0.0037087519, 0.09456041, 0.080242164, -0.13328525, -0.012806164, 0.02323822, -0.029619217, 0.032635517, -0.044995617, -0.010648012, -0.024738632, 0.11749035, -0.040212695, -0.062086865, -0.0013207756, -0.15476355, -0.0064939433, 0.101804115, 0.0034160824, 0.08398619, -0.041413777, 0.04775724, -0.052042387, 0.0380901, -0.09180077, -0.13188045, -0.08903637, 0.00018538101, 0.026928121, -0.00080436404, 0.003593722, 0.1676508, 0.019517845, 0.08835479, -0.19014001, 0.027920768, 0.08327785, -0.17389767, -0.16324553, 0.086869776, 0.13061753, -0.09556161, -0.030783968, 0.08705452, -0.11531986, 0.04531833, 0.049825028, 0.054497663, -0.18913515, -0.106308825, -0.13534237, -0.055094402, 0.075306945, -0.062858485, 0.05681939, -0.026020696, 0.06246398, -0.08745243, -0.04187822, -0.019260325, -0.08113113, 0.12882549, -0.102303974, 0.080592655, 0.00969196, 0.16878745, 0.019756084, -0.0487737, 0.06484109, 0.13449375, -0.11476353, 0.14563173, 0.070591666, 0.02790973, 0.035262913, 0.10457372, -0.05939207, 0.1174138, -0.011168741, -0.1671512, -0.12901278, -0.029133374, -0.08223408, -0.1508381, 0.11837388, 0.12400238, -0.037868846, -0.023560164, 0.02842825, -0.10031865, 0.010348054, -0.17368066, 0.012879013, 0.059521362, -0.13047603, 0.10283317, 0.18587437, 0.17934336, -0.12422383, -0.055852424, 0.08063248, -0.029307464, -0.005054664, -0.004975394, 0.011172296, -0.10521139, -0.006376323, -0.1553639, 0.09813614, -0.019125314, 0.1698893, 0.09102085, 0.115939364, 0.1665036, 0.007587573, -0.04582737, -0.027707042, -0.03014491, 0.006016696, 0.02807788, 0.015294905, 0.16524296, -0.11895736, 0.04006696, -0.020555124, -0.03910008, 0.13281152, -0.041335683, -0.12985699, -0.1015154, 0.15030089, -0.004770935, -0.030242499, -0.02208411, 0.08495866, -0.120437965, -0.04253342, 0.13264243, -0.03023995, -0.13506557, -0.0849058, 0.00032910332, 0.020371014, -0.06381764, -0.056535747, -0.015695773, 0.10718886, 0.008809744, 0.076955326, -0.00026521966, -0.08791441, 0.18458544, -0.07167145, -0.08377112, 0.06282401, 0.10728535, -0.108829625, -0.023299327, -0.113470934, 0.07940793, -0.14323197, 0.03122035, -0.058442388, -0.16588564, -0.085825324, -0.06121891, 0.0052971756, 0.1656233, -0.07499088, -0.034577664, 0.07723048, -0.036347613, -0.009675109, -0.0344481, 0.12996647, 0.1018025, 0.05018634, -0.06390431, 0.10007486, -0.04031705, -0.0007352786, -0.119974636, -0.14421664, 0.041426707, -0.028505713, -0.16419902, 0.11547077, 0.035390437, 0.012495126, -0.09256414, -0.06303088, 0.106772274, -0.020949898, -0.032460015, -0.04199926, -0.073730774, 0.08550686, 0.1070895, -0.05986901, 0.06402471, 0.018607536, 0.036274098, 0.0676263, -0.0844285, -0.0952188, 0.074452, 0.076848984, 0.17532398, -0.16430819, 0.18802673, -0.04699245, 0.07398353, 0.076649964, -0.07510215, -0.18160118, -0.06187359, -0.08082828, 0.036339782, 0.04243601, 0.05593348, 0.12713426, 0.20629378, 0.04991981, 0.019175945, 0.02765487, 0.041192316, -0.043453235, -0.06286298, 0.021842169, 0.017659586, -0.010103851, -0.113405235, 0.090031795, -0.15228875, -0.16229805, -0.16872774, -0.1728764, 0.0130337775, 0.0315031, -0.050062228, 0.0050200108, 0.16214104, 0.060955964, -0.001513381, 0.07608226, -0.102809325, -0.08103328, 0.13504218, -0.0573591, -0.027839104, 0.028297627, -0.05721154, 0.07412371, -0.029213956, 0.009082933, -0.0077425973, 0.13437435, 0.082660295, -0.007968346, -0.10879671, 0.08264994, 0.011314202, 0.092162944, -0.04633139, 0.030016638, -0.051258482, 0.013572585, 0.037888218, -0.06059003, 0.09851058, -0.08263418, -0.07457794, 0.042821985, 0.13946573, 0.021275828, 0.082568325, -0.16669919, 0.00032118274, -0.060529403, 0.026991025, 0.029308297, 0.0076933135, -0.0046800813, 0.0046208734, -0.0457762, -0.16938059, 0.0043181335, 0.07609117, -0.16968498, -0.19971962, 0.06102056, -0.10649113, -0.20602505, 0.05341731, 0.06815759, -0.10795074, -0.05739353, -0.099490106, -0.17000158, 0.1331724, 0.07315018, 0.026073385, -0.012033365, 0.11435838, -0.16159713, 0.015076644, -0.043355603, 0.04147647, -0.12203563, -0.1156694, 0.057232987, 0.076675765, 0.071829446, -0.034810927, -0.14760894, 0.060793653, 0.13444342, -0.048978686, -0.06850662, 0.17160109, -0.0027246217, -0.02039043, -0.11161035, 0.0053604664, 0.0012800219, 0.03304089, -0.04551734, 0.028203398, -0.049951505, 9.2937626e-05, 0.03217207, -0.047578067, -0.08089854, 0.21599236, 0.019066298, 0.18492009, -0.13639256, -0.08465321, 0.11576076, 0.12567762, 0.06465751, 0.0961544, -0.15532412, -0.15309513, 0.005192952, -0.0917128, 0.0495811, -0.09679944, 0.00903087, 0.08778419, -0.015538879, 0.04507018, -0.017221713, -0.061444886, 0.19755308, 0.06833673, 0.14510286, -0.019422919, -0.06454804, -0.017012708, -0.18568632, -0.12855427, -0.1536133, -0.07188664, 0.055578403, 0.12159111, 0.13784973, -0.043924123, 0.20595834, -0.05258265, 0.024900284, -0.09662576, 0.03905593, 0.01575096, 0.059032984, -0.06512232, -0.046574935, -0.05982351, -0.01609581, -0.18303913, 0.0012519233, -0.051669616, -0.0586692, 0.08762302, -0.002256456, 0.012734595, -0.02248922, -0.040773384, -0.17836268, 0.13021111, 0.042625677, 0.09974148, 0.1346538, -0.07090017, 0.061968427, -0.07604182, -0.0012301502, -0.10081561, 0.031048456, 0.04316074, 0.011537739, 0.008172683, 0.13929915, -0.04482602, 0.09407883, -0.1026007, 0.10107676, 0.07008061, -0.1277716, 0.014246523, 0.088537775, -0.02981893, -0.0024688714, 0.005140626, 0.046560597, -0.16468371, 0.05393917, 0.14814574, -0.032995872, -0.18404625, -0.11271226, -0.031779982, -0.032286245, -0.06999307, 0.080698326, 0.040355857, -0.09099275, -0.104780056, 0.09365237, 0.1413771, 0.07809416, -0.016174143, -0.10746503, -0.08560079, 0.032407112, 0.016223714, -0.15318553, -0.07898305, 0.17111655, 0.010361826, 0.08379202, 0.01212448, -0.07994082, 0.04896999, -0.03569442, 0.039023593, 0.07476526, -0.14710653, 0.17146838, -0.028869517, -0.0053142356, -0.118499026, -0.06208143, -9.892577e-05, -0.18274924, -0.027229652, -0.017929558, -0.030580731, 0.06297365, -0.08620872, -0.074426785, -0.13309987, 0.19317381, -0.08316008, 0.0041803974, 0.050639804, -0.05364584, -0.06620261, -0.11715152, 0.005459724, 0.030691383, 0.0456632, 0.062525444, 0.07329136, -0.17378041, -0.028696984, 0.04033971, -0.021219924, 0.10907204, -0.15080099, 0.09562533, -0.13348694, -0.006340407, 0.13686277, -0.030603832, 0.031398986, -0.049298845, 0.09140317, -0.0048700552, 0.09057599, -0.0111254435, 0.13068865, -0.09223709, -0.1811505, -0.09566807, -0.19210579, -0.11299393, 0.09360108, -0.037649527, 0.06604424, 0.118223615, 0.04834677, -0.116029315, -0.0231639, 0.015880404, -0.103562646, -0.032430224, -0.10692657, 0.010327822, 0.017415771, 0.03180767, 0.06594306, -0.15000165, -0.004653271, -0.018468095, -0.105225615, -0.17166099, 0.103331335, 0.10568482, -0.042983275, -0.17970191, -0.16363396, 0.07015978, -0.06633174, 0.11679209, -0.18325482, 0.01763514, -0.09775339, -0.056913767, -0.061871853, -0.04594345, 0.012244974, -0.02946057, 0.17273225, -0.06948435, 0.0036764257, 0.020552486, -0.10721529, 0.006795467, 0.011925304, 0.03477872, 0.14118618, 0.09270356, -0.053085968, -0.08071582, -0.04048073, 0.045198727, 0.096628994, -0.0043205256, -0.024046278, -0.065679975, -0.086602226, -0.039481863, -0.012335988, -0.16407624, -0.029173706, -0.036894195, -0.04861334, 0.13643734, -0.088097304, 0.14537735, -0.03855346, 0.05867706, 0.09160178, 0.16456237, 0.072385535, -0.1460827, -0.13617401, -0.058160182, 0.01740988, -0.020854035, -0.1809171, 0.00628165, -0.11197794, 0.043259658, -0.04098715, 0.018738493, -0.058546644, 0.02449276, 0.12755746, 0.1360538, -0.00062850304, -0.012115002, -0.04062841, 0.05470362, 0.13408725, -0.076570995, 0.17484108, -0.10544712, -0.023017315, -0.042893536, -0.08318475, -0.12699476, -0.15471211, -0.11334944, -0.075090304, 0.025458435, 0.090522274, 0.115001574, 0.06540396, 0.0781742, 0.010042791, -0.07710225, 0.09157275, -0.053619716, -0.0738418, 0.15125868, 0.1969273, 0.060174603, 0.05523288, 0.11882951, 0.0064625014, 0.017515592, 0.11087593, -0.065657295, -0.07981018, -0.026109274, -0.044096746, 0.09417516, -0.093727835, -0.026592797, 0.021445919, 0.058405623, -0.15203671, 0.044567715, 0.01436615, -0.12033214, 0.18224837, 0.028926827, -0.026178002, 0.02892688, 0.19648547, -0.12712483, -0.04531743, 0.14527608, -0.09525604, 0.03631322, 0.06705885, 0.14260267, -0.022541385, -0.19623773, 0.14223643, 0.11334357, -0.082940616, 0.01408289, 0.04292915, 0.016980803, 0.053981338, 0.12325047, 0.023981987, -0.029417768, -0.07990189, -0.10280216, -0.03229402, 0.050528053, 0.05026343, -0.018201662, -0.06836543, 0.10407221, -0.23092614, 0.07313832, -0.14755492, 0.09186781, 0.044517037, 0.12705092, -0.05799196, -0.0139722405, 0.019395208, -0.12296097, 0.03434628, -0.060040705, -0.13604921, -0.10257611, 0.044024415, -0.13153796, 0.0056679863, 0.15031375, 0.046382297, 0.20198035, -0.118317485, 0.14286618, 0.07423889, 0.022152731, -0.039475687, -0.076919764, 0.07814099, 0.0073924796, -0.07756367, -0.029002404, 0.06918752, 0.048904914, 0.088515125, -0.1176042, 0.04555758, 0.19762234, 0.08149322, -0.13323832, -0.0026877676, 0.042732734, -0.1109936, -0.15048541, 0.0043805316, -0.031506974, 0.1424358, -0.08507878, 0.108691335, -0.0012197646, 0.10403804, 0.004881808, 0.020855004, -0.089696795, 0.13297413, 0.1939602, 0.04630241, -0.1415429, -0.0014023114, 0.11579292, 0.10931254, -0.014334499, 0.10443935, 0.02092552, 0.090236075, 0.09673342, -0.045461815, 0.07356771, 0.14098948, 0.11635174, 0.021080231, 0.19549984, -0.14097978, -0.07325352, -0.043196242, -0.087931335, 0.15778613, 0.06757032, 0.006053336, -0.07143055, 0.0710955, 0.0021384107, -0.084227376, 0.09712166, -0.18653332, 0.06479471, -0.031029552, -0.19521482, 0.058409773, -0.004688456, -0.13859673, 0.07367426, -0.20783517, -0.018930752, -0.08342816, 0.11227169, 0.102507636, 0.014287221, -0.09344833, -0.022142973, 0.063338205, -0.00032797156, 0.1032117, -0.03809796, 0.104555905, 0.037143342, -0.19025551, 0.1930349, -0.023724025, 0.05054423, -0.056718435, 0.15682313, 0.07117557, -0.048015155, 0.04692569, 0.048213083, -0.07975636, 0.16403899, 0.043613676, 0.04935347, 0.032974813, 0.15750517, -0.08827478, 0.12636594, -0.07422054, -0.091432236, -0.115943626, -0.04707367, -0.013745603, -0.023564558, -0.20092063, 0.027532533, 0.09690958, -0.07056661, -0.18292336, 0.15437233, -0.093210585, -0.018529676, 0.007943385, 0.02546753, 0.198551, -0.037404153, -0.17262657, 0.08740293, 0.09672967, -0.14330015, -0.023133906, -0.07316399, -0.10930441, -0.19158241, -0.13432783, 0.09385959, -0.08974085, 0.024107093, -0.09491875, -0.058996875, -0.018432604, -0.110547766, 0.04202758, -0.09391578, 0.03476234, -0.08085328, 0.070778266, -0.17545289, -0.13712707, 0.0018747204, 0.19085777, -0.041731928, 0.076083854, 0.14022736, 0.18375318, -0.17451987, 0.017691879, 0.082877636, -0.041414086, 0.13281393, -0.018946415, 0.0057000043, 0.033669498, 0.0962933, 0.07990232, -0.10737722, 0.05976598, -0.065927446, 0.1188407, -0.13452701, 0.040582545, -0.11704297, -0.025632747, 0.14529751, -0.09186879, 0.11074318, -0.00252571, 0.117891245, 0.17596857, 0.08190278, -0.0045093885, 0.0012825885, -0.018973352, 0.047104765, -0.036764573, 0.002061278, -0.08042807, 0.12039451, -0.099422224, -0.14651485, 0.016420336, -0.023358887, 0.048698414, -0.05663384, -0.110110745, 0.08001448, 0.037944242, 0.15762812, -0.007695924, -0.014049459, -0.08646407, -0.06865589, 0.026270354, 0.04166601, -0.119217694, -0.15812884, -0.16367565, -0.06984755, -0.08567749, -0.08097021, 0.04696713, -0.022672692, 0.021941548, -0.12905775, 0.09947023, 0.12109052, 0.06697808, -0.093331665, -0.13925925, -0.09753342, 0.060944013, -0.07030505, -0.038876124, -0.010474053, -0.05192263, 0.12025208, -0.06618754, -0.063385434, 0.048976723, -0.017162453, 0.16781297, 0.030146575, -0.060708523, -0.09695842, 0.004020377, -0.17878732, -0.07196079, 0.038898453, 0.027235968, 0.19547084, 0.13036452, -0.07808882, 0.0372539, -0.09327032, -0.06455263, 0.02240765, -0.02713537, -0.08490068, -0.030456362, 0.057874676, 0.04418065, -0.10147569, 0.010180155, -0.07748114, 0.0068067317, -0.09031933, -0.054246422, 0.0052412343, 0.04431338, -0.09460546, 0.022562133, 0.043565575, -0.122507535, 0.06763023, 0.14586991, -0.07001689, 0.13156705, 0.051702917, -0.16429535, -0.010264161, 0.12539963, 0.12331751, 0.0015800882, -0.006516414, -0.092216924, 0.1034053, -0.11098161, -0.1559226, 0.013855461, 0.005714886, -0.14408149, 0.05511378, 0.16956173, -0.027481642, 0.07700507, 0.067462154, -0.093875855, 0.10817107, 0.048038345, 0.017270993, -0.01562413, -0.052307352, -0.008242167, 0.08508385, -0.02605264, 0.00626999, -0.13810433, 0.01927757, -0.118460245, -0.1005998, 0.15395783, 0.029186493, -0.009470144, -0.016260033, -0.06249496, 0.097977735, -0.012275027, 0.04192456, 0.010903497, -0.08052129, 0.13171571, -0.092091806, -0.038159046, -0.115430355, 0.025480835, -0.08823914, 0.122926034, -0.035577457, -0.09069531, -0.112303056, 0.07188634, -0.051165964, -0.01863913, 0.18527299, -0.051224638, 0.07387441, 0.05448133, -0.03941007, 0.019412875, 0.06641366, 0.060421046, -0.07962517, 0.038310725, 0.013799366, 0.13930365, 0.17340793, 0.0598331, -0.123497635, -0.12272148, 0.13112757, 0.10824857, -0.061272554, 0.021509942, 0.054462563, -0.033080496, 0.11335741, 0.14667675, -0.019988505, 0.14630537, -0.0579731, 0.10045951, 0.10468667, -0.054469246, -0.0028568597, 0.09376426, 0.03389772, 0.06875451, -0.07680453, 0.053857632, 0.07330399, 0.029352076, 0.021719847, -0.16018812, -0.024499703, 0.07411714, 0.0016917092, -0.011836662, 0.14926358, -0.17540856, -0.19747485, -0.052425303, -0.108059354, -0.01364027, -0.05676178, 0.069416836, -0.060495164, 0.15975386, -0.013834958, -0.014117424, 0.106433585, -0.10211893, 0.0685667, -0.09358921, 0.13188034, -0.17537113, 0.15255925, 0.026974069, -0.1506037, 0.005519144, -0.079427734, -0.04552804, 0.18208677, 0.0017716209, 0.11515098, -0.16240253, 0.05339861, -0.011723299, -0.058715325, 0.17799804, 0.011099596, -0.032578345, -0.17314845, 0.0010569999, -0.0063706147, 0.10339432, 0.01663246, 0.06252613, -0.069473036, -0.1687192, 0.07744986, -0.1410403, -0.025157416, 0.14007443, 0.028712736, -0.003987155, 0.14712697, -0.062870376, -0.073262006, -0.046636946, -0.068463184, 0.12802507, 0.014707739, 0.036381148, 0.0015442707, -0.04972367, 0.17615502, -0.103914425, -0.061264355, 0.026516119, -0.124076255, -0.10998426, 0.009415737, -0.16618307, 0.03264539, 0.00320652, -0.10859072, 0.050800133, 0.05080844, -0.16256759, 0.015800508, 0.048381034, -0.12527671, 0.08822458, 0.0472118, 0.019928627, -0.10895706, 0.08228096, 0.14313297, -0.04643394, 0.096365035, -0.067412235, 0.099609844, -0.1697341, 0.009451711, 0.03690652, -0.1574804, 0.044570442, 0.11621761, 0.10675548, 0.065305315, 0.10699024, -0.019788003, -0.010680955, 0.060778093, -0.0007728863, -0.19751246, 0.014355904, 0.06866279, 0.12432419, -0.09037805, 0.026675954, -0.082360305, 0.049311016, 0.084961124, -0.00039414468, -0.018987933, -0.01871571, -0.024336684, 0.18302177, -0.19135493, -0.03330883, -0.14945346, 0.054533724, 0.025940998, -0.1473703, 0.03667275, -0.071771294, 0.026674952, 0.011460789, -0.15542269, 0.118811384, -0.09855904, 0.042179327, -0.021882614, -0.012182532, 0.020650752, 0.009093763, 0.16089718, 0.08255438, 0.12539889, 0.1281926, -0.036872547, -0.034016877, -0.050389364, 0.0072623375, -0.12693071, 0.13848121, 0.0104147745, -0.058299366, 0.09013477, 0.119810216, -0.18304485, 0.015358652, 0.06701609, 0.03979049, -0.10725562, 0.0005723957, -0.04707014, 0.07007447, 0.0023889756, 0.032727603, -0.12085029, 0.122109644, -0.12403118, 0.13314825, 0.060808096, 0.07272222, 0.0063509606, 0.17489007, 0.12480676, 0.16121078, 0.11236709, 0.005266551, -0.023335062, -0.12791236, -0.04812401, 0.056470335, -0.18515328, 0.07813561, 0.13423927, -0.058213484, 0.021138791, 0.05739509, -0.033717826, 0.008265965, 0.101431794, -0.036982913, -0.04779868, 0.109485134, 0.0057579456, 0.12545401, -0.012027409, -0.007689655, 0.019842157, -0.16258536, 0.13840634, 0.030117624, 0.070383854, -0.007927486, 0.015952753, 0.17821875, 0.1580871, 0.025179261, 0.02410499, -0.11368226, 0.08169399, 0.15744244, -0.044180322, -0.07646376, 0.0008299276, -0.024286237, 0.067335166, -0.080122635, -0.0201321, 0.18165539, -0.021523919, -0.116283365, -0.057498526, 0.029388906, 0.10408864, 0.15150523, 0.13412367, 0.023489958, 0.07038307, -0.07499982, 0.058238003, 0.081545144, -0.0014136634, -0.17734565, -0.07708047, 0.058905594, -0.101007275, 0.019475391, -0.057392646, -0.037910223, 0.20266117, -0.03752749, 0.0640437, 0.1248411, -0.056417603, 0.1324071, -0.0010920627, -0.04810592, 0.04530174, -0.031675495, -0.13447385, -0.096885286, -0.024969416, 0.076852836, -0.021697711, 0.029700851, -0.023703195, -0.11068111, 0.088696614, 0.16200188, 0.086915426, -0.067274, -0.017260842, -0.11405265, -0.017424066, 0.031163173, -0.014428011, 0.088426515, 0.024154546, -0.06822693, 0.006793646, 0.042641964, 0.1338146, -0.09889906, -0.0957046, -0.18826252, 0.058905717, -0.050715134, -0.15523577, -0.09253365, -0.025776904, 0.12641495, -0.09375176, 0.038777925, -0.054571513, 0.0132548865, 0.0009140957, -0.044177976, 0.10769795, -0.0596091, -0.007010301, 0.060211316, -0.0030650334, -0.17906004, -0.062452063, 0.06729305, -0.0017871659, 0.08977196, -0.09548059, 0.13180478, 0.010330523, -0.06080595, 0.04293185, -0.06353602, 0.031886727, -0.17952411, -0.044666983, -0.045808524, -0.060201287, 0.065708965, -0.0738237, 0.0137041155, 0.01029284, -0.087824926, 0.04194855, -0.11593814, 0.11545866, -0.020491896, -0.15611482, -0.044532884, 0.13668771, 0.05188399, 0.18669084, 0.066906504, 0.04282675, -0.14645769, 0.058360104, 0.09317716, 0.107444875, -0.011856161, -0.017086385, 0.043157786, 0.03246309, 0.030955803, -0.049670476, 0.094092146, -0.11797485, 0.0961308, 0.08966457, 0.018178904, 0.06624504, -0.026806056, 0.10525548, 0.17961767, -0.0757622, -0.045866333, 0.07483489, -0.21462825, 0.0894649, 0.046292275, 0.14434558, 0.039822813, -0.0039476557, 0.03024224, -0.05946059, -0.12821008, -0.0046316055, 0.0994222, -0.0043442985, -0.03525181, -0.010807194, -0.048498355, 0.021190314, -0.21762878, 0.10022337, -0.005944433, 0.061088644, 0.02579704, 0.13139804, 0.015915599, -0.032953788, -0.017031895, 0.18922196, -0.09091833, 0.022976736, -0.06512091, -0.10231787, 0.063537896, -0.034983046, -0.12990779, 0.10663923, -0.12790887, 0.07066459, -0.1003543, -0.019259715, -0.0051390054, 0.005536088, 0.019264294, 0.0030830996, 0.06758449, -0.0366066, -0.024357777, -0.07885697, 0.11371134, -0.039254818, 0.030053167, 0.123250775, -0.012156201, 0.027371854, 0.08004342, -0.12604019, -0.00089284097, 0.13579726, 0.11670817, 0.0017095675, 0.00057136145, -0.1426854, 0.02202702, -0.0707611, -0.118906535, -0.15006231, -0.062924005, -0.071901366, -0.018584253, -0.0465448, -0.19487195, 0.015738616, -0.0062536807, 0.11492175, -0.13436452, -0.007631389, -0.04725455, -0.05486315, 0.06435929, -0.10900208, 0.18791673, -0.19496284, -0.225071, -0.043676447, 0.04380705, 0.055562418, -0.11185819, -0.061036408, -0.1415405, -0.006695868, -0.074028745, 0.051324338, -0.09618179, 0.13696666, 0.015759405, -0.022364099, -0.1483929, 0.037065197, 0.15333213, -0.11977665, -0.16604541, 0.022999758, -0.06052151, 0.15628181, -0.0017522537, -0.009855418, -0.012095232, -0.020277893, -0.07891624, 0.14243901, -0.06795862, 0.0068757934, -0.0017107371, -0.087515205, -0.045995537, 0.16245136, -0.047271084, 0.044331413, 0.009717958, 0.057976883, 0.046597723, 0.13391098, 0.08758667, -0.008089749, 0.036894705, 0.0814115, 0.058688138, -0.07295513, -0.012541714, -0.049039084, -0.017697508, -0.1309726, -0.10495129, 0.081425756, -0.047176015, -0.0019478041, -0.10040981, 0.045403015, 0.1509925, 0.063711174, -0.13751788, -0.13150273, -0.037860457, 0.04011556, -0.17620789, 0.04484877, -0.08383604, 0.03563947, 0.10694634, 0.021715576, 0.120788716, 0.18502559, -0.018528586, 0.021323884, 0.08971274, 0.06002642, -0.08073356, -0.11951404, 0.11431867, 0.17055935, -0.08122016, -0.05260019, 0.04818349, 0.033776395, 0.011242048, 0.12865983, 0.082921185, 0.02908352, -0.022820987, -0.015996851, 0.092086986, 0.13796677, 0.040354233, -0.085978284, 0.0021104217, 0.11502612, 0.08883152, -0.09949164, -0.133931, 0.12620695, -0.14713539, -0.117976345, 0.009904765, 0.030162327, -0.013356635, -0.076535836, -0.12357802, 0.0029098964, -0.039290827, -0.14119016, 0.02506275, 0.121854655, 0.03020864, 0.14946003, 0.064364165, 0.004504207, -0.104503, -0.060836673, -0.017994976, -0.10301201, -0.17034163, -0.0678269, 0.07694319, -0.043494195, 0.1102274, -0.087901056, -0.059295267, -0.19224435, 0.057681747, -0.19306335, -0.01048896, 0.021171963, -0.031146673, -0.012594325, -0.033615924, -0.04494585, 0.1541445, 0.07094609, -0.06389151, 0.0025353434, -0.0015593624, 0.0667049, -0.18197791, 0.07646709, -0.01987464, -0.041183703, 0.01735524, -0.008134542, 0.05851667, -0.06345582, 0.03172682, -0.004811336, 0.08414623, 0.17671414, -0.108882524, -0.04266667, 0.060781438, 0.024412062, -0.18704128, -0.09799128, 0.070119254, 0.09637162, -0.07764776, 0.14319493, -0.10397518, -0.04825479, -0.12457538, 0.15407011, 0.14241396, 0.023859562, 0.0426178, 0.0015972268, 0.005498277, -0.0063020033, 0.14950101, -0.072020814, 0.1552135, -0.021304257, 0.07861628, 0.11492131, 0.09657618, -0.04846537, 0.107455485, -0.00954163, -0.17012216, 0.0048587807, 0.0107923765, 0.14315219, 0.006626961, 0.0800699, 0.07643549, -0.08186879, 0.01021927, -0.027602943, -0.0013789413, 0.070230916, -0.17308368, -0.0007913438, 0.07115783, -0.03914258, -0.0547732, -0.1697613, -0.08077185, 0.16777328, -0.054861497, 0.10715633, -0.033452448, -0.024625296, -0.07238406, 0.0715348, -0.022886792, 0.16892602, -0.007780802, 0.07753819, -0.026876807, -0.07745992, -0.05067942, 0.0061365208, 0.13649088, 0.046015143, 0.037201967, 0.110003754, 0.088104695, -0.12387714, 0.10046173, -0.023990326, -0.06317366, -0.14795819, -0.13075213, 0.14618102, 0.08140398, -0.09391461, -0.031062227, 0.04235854, -0.09487702, -0.10772909, -0.04780402, -0.010870275, -0.0017650536, -0.070524946, 0.07041611, -0.14277954, -0.13885672, 0.0017974384, 