float W1_w[]={
0.14108573, -0.054539066, 0.07943688, -0.06442824, 0.14513463, -0.05125687, -0.09998144, -0.0003464378, -0.024905287, -0.03368948, -0.14413923, -0.05156969, -0.14028332, 0.1643768, 0.040178888, -0.15266381, 0.052485164, -0.08378823, 0.18820901, -0.050284725, 0.025813652, 0.14466931, -0.15431558, -0.07578997, -0.015740864, -0.08275005, -0.011751571, 0.13131908, 0.03745806, -0.1068482, 0.08510057, -0.054428417, -0.1567605, -0.09900323, -0.011893052, 0.028739985, 0.055368427, -0.030603569, 0.015983932, -0.06691455, -0.009219352, -0.016641442, 0.077902526, -0.052017022, -0.14922056, -0.1448775, 0.025435736, -0.098983735, -0.00096266443, 0.114498615, -0.055243433, -0.052341774, -0.07675635, -0.16789095, 0.01876128, -0.04982548, -0.036257084, -0.061868545, -0.031029219, -0.088348866, 0.13153154, -0.07758643, -0.21402495, 0.12907584, 0.07115601, -0.15357168, 0.011169815, 0.010616739, -0.14399305, 0.10157627, 0.1099833, -0.121274196, -0.058291495, 0.09688636, -0.015644183, 0.055912513, -0.036330126, -0.09873821, 0.031697303, -0.044478964, 0.044361006, 0.15180036, -0.101599686, 0.034406267, 0.06671188, -0.08636764, -0.07616989, -0.043441687, -0.03509886, 0.017031554, -0.034232643, 0.035724208, 0.004516065, 0.052805465, -0.08910999, -0.10377485, -0.10664757, 0.050488573, -0.019067066, -0.059831902, 0.18597603, 0.13884883, -0.0036140173, 0.035241626, -0.064556204, 0.061580215, 0.08206301, 0.017170345, -0.20789392, 0.016023893, 0.07893721, 0.103076786, 0.04038412, -0.113767974, -0.05938212, -0.12827447, -0.10408402, -0.17568791, -0.011299733, -0.021415453, -0.14610207, 0.064492546, -0.042729888, -0.029419547, -0.111544825, -0.074381284, -0.07990279, -0.036418438, 0.016097968, 0.14469334, -0.0679592, 0.0041713538, -0.012090605, 0.014172538, -0.055239845, 0.047371972, 0.065376356, 0.018753443, 0.095033675, 0.12212481, -0.077153124, -0.16888706, -0.038244843, 0.098063104, -0.024247512, 0.15842888, 0.07373008, -0.10305685, 0.060496114, -0.17847489, -0.0008954393, 0.021796223, -0.065242685, -0.17418791, 0.050121818, -0.069683135, 0.06894689, 0.09961501, 0.12532379, 0.047148246, 0.08938692, 0.021272361, 0.008533114, 0.13493563, -0.028652553, -0.049252927, 0.016726438, -0.0024704395, -0.019612724, -0.09157458, 0.11806577, 0.007375375, -0.015758103, -0.10670593, -0.10483442, -0.14477703, 0.15962777, 0.06476218, 0.016612692, -0.09488241, 0.0327355, 0.020832997, 0.12923585, -0.03962013, 0.1253668, 0.07231449, 0.13170342, -0.072763816, -0.11489644, 0.04516067, -0.1570378, -0.06531199, -0.12252906, -0.0844452, 0.02976364, 0.089443445, -0.020023745, 0.12186212, 0.169983, -0.0033234132, 0.014486568, -0.081734136, -0.01691965, -0.012100334, -0.24095298, 0.053697817, 0.013087302, -0.15578389, 0.09349049, -0.038270023, 0.117157236, -0.11238241, -0.08897405, 0.009311148, -0.12602952, -0.0013226188, 0.03271252, -0.0011831182, -0.09465711, 0.1560058, -0.10316019, 0.05315556, -0.06429864, -0.013839403, 0.05525507, -0.15710792, 0.10600706, 0.048217, 0.18096147, -0.09608636, 0.042984482, 0.0128222285, -0.0026927069, -0.09753478, -0.097765416, -0.07630525, -0.057123303, 0.1780759, -0.14355612, -0.06495763, 0.16187054, 0.009737847, -0.120581724, -0.10410213, 0.07007548, -0.07544841, -0.14985332, -0.028922768, -0.1347902, -0.11451799, 0.06032625, -0.13917585, -0.051453054, 0.061741397, -0.057684697, -0.0025025262, 0.12654313, 0.034674864, -0.025059164, -0.04276962, -0.14106263, 0.07497429, -0.16022046, 0.07182848, -0.033714894, -0.05790352, -0.05356747, -0.0019324232, -0.10318629, 0.10108463, -0.0678251, 0.04750658, 0.096940264, 0.040945627, -0.12025921, -0.09487463, -0.053295888, -0.03837127, -0.026620742, 0.028483482, -0.15181975, 0.013436123, 0.014582999, -0.09705885, 0.047908597, 0.09622754, -0.05930579, 0.17398734, -0.044804294, -0.060299758, -0.016817609, -0.06074743, 0.24661003, -0.09706171, 0.062262572, 0.013032522, 0.031442434, -0.116092, 0.0015429341, 0.01265948, 0.044414096, 0.014456405, -0.03124716, 0.18232106, 0.0612662, 0.06274077, -0.01945417, -0.018417377, -0.086902246, -0.024469024, -0.06634918, 0.022091111, -0.073869035, 0.11991353, 0.048896812, 0.042529546, -0.07254977, 0.12083584, 0.008590419, 0.054564483, -0.11328855, -0.14776428, 0.0939184, -0.07817498, 0.022682268, 0.08892746, -0.026066475, 0.047950014, -0.0071866037, 0.1476784, 0.15380763, -0.09880294, 0.17715885, 0.043372955, 0.11577084, -0.18939185, 0.07874085, 0.0015157759, -0.09662807, -0.09561248, 0.20940083, -0.018282577, 0.014478849, -0.0964618, -0.04393296, 0.090746805, 0.00395424, -0.080413885, -0.11571296, 0.04058138, 0.17048529, 0.036043476, -0.11417175, -0.03581174, -0.18848924, -0.13598207, -0.09889264, -0.05916728, -0.00438377, 0.036937986, 0.011511813, -0.041920096, -0.016559027, 0.12220644, 0.12916502, 0.0448567, -0.10398697, 0.1507947, -0.14786635, 0.14743665, 0.14766422, 0.040677194, 0.07776494, -0.028120613, 0.013458802, -0.060685553, -0.15619117, -0.009812392, 0.16008286, -0.04335705, -0.13267387, 0.0913021, 0.0042723455, -0.11538692, 0.09466743, 0.018002888, -0.17614938, 0.21188678, -0.02614992, 0.11659617, 0.0072688605, 0.10904691, 0.109863274, -0.15349454, 0.00011376578, 0.01753034, 0.040568326, -0.05030546, -0.047440574, -0.097739145, -0.09751417, 0.02369664, 0.076158226, -0.10791075, 0.06320228, -0.08735014, 0.12637804, 0.05947783, -0.09554237, 0.10666787, 0.13842015, -0.18909177, -0.057721134, -0.08251007, 0.09035999, -0.05203038, -0.09302847, -0.039545864, -0.09027616, 0.16982867, -0.016740639, -0.027417911, -0.13617902, 0.19599088, 0.066997394, 0.040435188, 0.04064483, 0.14331006, 0.16739541, 0.12601663, 0.16963522, 0.11864782, 0.115476266, -0.03521868, -0.05075146, 0.008798855, 0.011952283, -0.09129035, 0.014403543, 0.060555108, 0.116325065, -0.050029743, -0.028125593, -0.2027838, -0.0042514, -0.03952041, -0.0068150633, -0.17272706, 0.0031898136, 0.048174065, 0.12002357, -0.020472046, 0.04754875, 0.025039978, -0.11973949, 0.0039008642, 0.07410383, -0.14083536, -0.08524084, 0.04282348, -0.053704105, -0.020454397, -0.09631328, -0.01887402, -0.101162285, 0.0062748063, -0.031311616, 0.10650997, 0.0958246, 0.0063477117, -0.023091065, -0.028949143, -0.030768484, 0.06676539, 0.08491943, -0.0025629012, -0.023009416, -0.016810363, 0.11312789, 0.048739977, 0.07592982, -0.1200828, -0.07637363, -0.1299945, -0.113619916, -0.045662858, -0.060711313, 0.094224446, 0.026280828, 0.053909406, 0.15033114, 0.15294206, 0.11413907, 0.036104325, 0.016240941, -0.11397697, -0.10535406, 0.12533195, -0.097738706, -0.12980539, -0.054353602, 0.055298224, -0.06741646, -0.035469923, 0.17507003, -0.024790596, 0.047310844, 0.17555818, 0.017949503, 0.13780205, 0.04064898, -0.08754975, -0.057984035, -0.04159727, 0.06656578, -0.19179657, 0.028495392, 0.055764306, -0.078887776, 0.0858948, -0.01949354, 0.14850909, 0.021520702, 0.063360445, 0.19765274, 0.05857383, 0.07396314, -0.123121575, -0.06637, 0.049941577, -0.084591314, -0.090608515, -0.04725372, -0.03692897, -0.035017703, -0.059147492, 0.1259817, -0.060007147, 0.11713853, 0.004278795, 0.110094786, -0.030063717, 0.039546482, -0.0053867083, -0.023935612, -0.16917376, -0.15690334, -0.026763204, 0.11920515, 0.042136785, -0.08886452, -0.014767566, -0.011315293, 0.16959934, -0.031981826, -0.20141184, -0.010539533, -0.05141283, -0.017625323, 0.025159081, -0.11552686, 0.08885674, 0.007496802, 0.0874196, -0.0786549, -0.12561032, 0.14960852, 0.051703665, 0.19669421, 3.9909482e-05, 0.1217553, -0.039900072, 0.08413234, 0.097223915, -0.038771465, 0.11933009, 0.076863155, -0.13188861, 0.14339031, 0.066705085, -0.12491967, 0.01421634, -0.042496897, 0.012213648, 0.031046247, -0.00095630373, -0.080360204, -0.038913544, -0.08282449, -0.03619528, -0.05168227, 0.020871125, -0.14403163, 0.102698356, -0.01801528, -0.18352024, 0.037604038, 0.011466183, 0.039817847, 0.063581854, 0.08698881, 0.0058916216, 0.008710237, -0.076377355, 0.055353414, -0.030455623, 0.08326132, 0.022364771, -0.06351344, -0.008057466, 0.14040975, -0.0023133464, -0.037480604, 0.07773125, -0.07804822, 0.080029964, 0.038960636, 0.069448754, 0.0031828524, 0.107593566, 0.09331002, -0.15306182, 0.1207039, 0.069064684, -0.08396137, 0.093347445, -0.08108471, -0.19399123, -0.0011377296, 0.20682204, 0.050878916, 0.12343352, 0.10725809, -0.09244023, -0.17758092, 0.014365695, -0.009436627, 0.0056107487, 0.052414138, 0.16747119, 0.05086783, 0.018582061, -0.07454179, 0.09693361, -0.022264253, -0.0008262302, -0.011909874, 0.039263997, -0.0051773577, -0.14951776, 0.009984611, -0.026909167, -0.05342352, -0.0032124626, -0.05201067, -0.037421238, 0.124908715, -0.1003984, 0.13895449, 0.09135884, -0.027821679, 0.022287488, -0.06258437, -0.0170425, -0.048188172, -0.044337314, -0.07872901, 0.15666214, 0.079882406, 0.0552422, -0.060052216, -0.101636805, -0.019262113, -0.025119208, -0.15016629, -0.098200046, 0.09429483, 0.01128408, -0.01229851, 0.08276989, -0.070339575, 0.0073125213, 0.09709568, 0.1032921, 0.16307378, -0.18155009, 0.10915033, 0.051345218, 0.118824296, 0.00089607196, 0.01931339, 0.06444789, 0.09573915, -0.061927754, 0.104706176, -0.040310368, -0.11183078, 0.08920771, 0.061387874, 0.025612347, 0.0068674693, -0.013463969, -0.06826591, 0.0009361453, -0.03756441, -0.08109971, 0.15579918, -0.17749599, -0.15781021, -0.08652838, -0.060619272, -0.15510663, 0.10452838, -0.036234323, -0.0994388, 0.025064122, -0.011347524, -0.07941497, 0.18057664, 0.07960989, -0.11846404, -0.036162082, -0.0562865, -0.040459268, 0.069886476, 0.09147368, 0.009160864, -0.05543364, 0.0058319797, 0.056023918, 0.16463469, 0.025865294, 0.029738365, 0.05241476, -0.09177395, -0.05152656, -0.16265689, -0.043379482, -0.11645138, 0.020132804, -0.11456271, -0.0919826, -0.014516354, -0.07134625, 0.10889481, -0.05906254, -0.023676554, 0.18246537, -0.04568268, -0.04363715, -0.02643686, 0.056335986, 0.013512426, 0.1264493, 0.12384214, 0.10116351, 0.08674372, 0.13671926, 0.15909326, 0.043987684, -0.021200728, -0.11758418, 0.1253404, 0.16086045, 0.113375545, 0.11705469, 0.0379663, 0.020929128, -0.10024452, -0.02305008, 0.070444696, 0.0036054635, -0.16895282, -0.010727782, -0.17781873, 0.08481054, 0.105212264, 0.16832049, -0.12876272, 0.031795815, -0.13294736, 0.17999376, -0.058075998, -0.039784014, -0.07002202, 0.053115565, -0.13716678, -0.11073487, -0.022774657, 0.21289954, -0.067740664, 0.00076249125, 0.18672584, -0.007857112, 0.12230017, -0.14694245, 0.17177267, 0.037272334, 0.04328856, -0.04103618};