float W2_w[]={
-0.059859093, -0.1574028, -0.07855036, -0.04446137, 0.12319988, -0.038309336, -0.008098311, -0.060161494, 0.050403338, 0.030164497, -0.16334857, 0.099433005, -0.040295392, -0.01629995, -0.12127922, 0.00028418924, -0.08333152, -0.0073469323, 0.016637836, -0.008458661, -0.05922524, -0.096012175, -0.012123476, -0.06156182, -0.08099826, 0.019809544, -0.10874947, 0.028139386, 0.051236995, 0.008073077, -0.028731208, -0.13380541, 0.016895618, -0.004798896, -0.084160484, -0.01294971, 0.16415228, 0.10246707, -0.031848773, 0.054102775, 0.020353321, -0.015711, 0.10191351, 0.103705876, 0.036641434, 0.049633216, -0.0048333392, -0.11631154, -0.032704324, 0.09007478, 0.04429758, -0.00013460223, 0.04511037, 0.03768096, 0.07041593, 0.100347124, -0.035910252, 0.109085456, -0.009279033, -0.017903801, 0.04915284, -0.009632871, 0.019121284, -0.028457223, -0.122977674, -0.04400914, -0.11120337, -0.1282336, 0.088833354, 0.041178826, 0.04195489, -0.15764323, 0.021734929, 0.1134493, 0.17997906, 0.02334923, 0.06539677, -0.01864861, 0.09679175, -0.12867428, -0.03042003, -0.05919541, 0.09475748, -0.17413037, -0.07590345, 0.0011869326, 0.0352537, -0.04646252, 0.19263063, 0.013455084, -0.015002605, 0.073581435, 0.0734448, 0.122873574, -0.018791975, -0.13013634, -0.055538513, -0.113616355, 0.059803467, -0.09972983, 0.06344067, 0.060186055, -0.22675066, 0.036161292, -0.1289548, -0.15354599, -0.029619548, 0.01967441, -0.10789305, -0.1459021, -0.0049170135, 0.0060397447, -0.06378151, -0.020217625, 0.015142317, -0.09424236, 0.04244057, -0.13874745, -0.10781974, 0.025726868, -0.011515027, -0.0459882, 0.017851416, 0.12330207, -0.06455703, 0.14104643, 0.07976684, -0.18748881, -0.06255706, -0.123238705, 0.0066352314, -0.15305033, 0.03357772, 0.004301825, -0.1437215, 0.037771247, 0.0254394, -0.13651977, -0.07533522, 0.09424518, 0.023929304, 0.077697754, -0.16716029, 0.06660523, 0.1492079, -0.054023143, 0.004449085, -0.076365404, -0.027903024, 0.07129294, 0.069410115, 0.1612023, 0.019557852, 0.11451738, 0.118125245, -0.13124417, 0.084289044, 0.14108191, -0.0065535563, 0.10040487, 0.097602315, -0.15092078, 0.13921712, -0.10864757, -0.116574675, -0.19916175, 0.0067406134, 0.02562601, 0.20584986, -0.17088749, -0.010945277, 0.06990802, -0.010312111, -0.12232012, -0.02262248, -0.17439815, -0.1059028, -0.02993408, -0.16470529, 0.11628114, 0.044751953, -0.062016338, -0.01778688, -0.059388686, 0.06649359, -0.07429563, 0.18609425, 0.1044671, -0.11346672, 0.1927423, 0.047993835, -0.17472778, 0.014915808, 0.07508841, -0.1313946, 0.11906285, -0.016930569, -0.03387746, 0.18807894, 0.02756162, 0.11025038, -0.089304194, -0.02858966, -0.08641159, -0.09618263, -0.04545016, 0.099144705, 0.19364017, -0.061758578, -0.015574944, -0.0043224054, 0.04190808, 0.14023009, 0.105098784, 0.15494876, 0.017418055, 0.022135617, -0.07427347, -0.06797056, -0.044782832, -0.0212385, -0.12516253, -0.11250589, 0.0013137503, 0.01487329, -0.11592717, -0.01709849, -0.030184923, 0.004585102, -0.09557655, 0.11150575, -0.07897015, 0.15254772, 0.08601239, -0.08661254, 0.14437072, -0.11126989, 0.055151425, -0.09163778, 0.014136171, -0.074542545, -0.14434843, 0.072887346, -0.017733803, -0.09548227, 0.013578921, -0.09439261, 0.0017753013, -0.0028256208, 0.049679276, -0.022684844, -0.19007835, 0.007061796, -0.0041683903, 0.054026484, -0.06620253, 0.1539836, 0.051308293, -0.02262885, -0.18115021, 0.15316552, 0.0647811, -0.02436095, 0.16532382, 0.027703071, 0.07173916, 0.173212, -0.069675975, 0.052648652, -0.06826422, -0.052258022, -0.12870187, 0.18075477, 0.102724895, -0.19515288, 0.18440163, -0.010007105, -0.05104093, -0.055334326, -0.07913995, 0.014864974, 0.123671815, -0.09754533, -0.07321357, -0.09107389, 0.039605256, 0.08621774, 0.0033648908, -0.08885956, 0.17214069, 0.020514593, -0.0062693553, 0.0012530455, -0.03213543, 0.0034076301, -0.08317081, 0.07686884, -0.11182788, -0.043900743, 0.116401896, 0.070825875, -0.09763701, -0.0293588, -0.033487696, -0.033304807, 0.033018135, 0.1298722, -0.07486005, 0.021725653, 0.03777791, -0.060928427, 0.12014727, -0.020909647, -0.020342935, 0.023325354, 0.072326005, 0.051208377, -0.06720684, -0.122751564, -0.056211676, 0.016108459, -0.010489979, 0.018430917, 0.043344233, -0.033359896, -0.10904019, 0.03670618, -0.05308753, 0.12375414, -0.0246898, -0.035577744, -0.0070392285, -0.16783525, -0.12555821, 0.027739065, -0.11758844, -0.035963707, 0.022934802, 0.042524844, 0.18147433, 0.03990851, 0.015226047, -0.026142392, -0.08422226, 0.1407179, -0.1374831, -0.13140847, -0.17772196, -0.08747694, 0.02582591, -0.12398596, 0.07153388, 0.06559357, -0.012419238, 0.118210636, -0.0806855, -0.008501065, 0.12867308, 0.024437752, 0.13584866, -0.14696564, -0.05874867, -0.055543207, 0.019907707, -0.13192019, -0.101804644, 0.019815229, -0.023884535, 0.14974438, -0.073731504, -0.07874379, -0.048584472, 0.13790953, 0.041260548, 0.12460684, -0.077584855, 0.18090276, 0.01276643, 0.12365544, -0.10694886, 0.11706822, 0.15075293, 0.09958592, -0.080481514, -0.038409345, 0.05557368, 0.04262783, -0.031466883, -0.011079559, 0.05980024, 0.09330576, -0.0958134, 0.045232262, -0.08168104, -0.0863626, 0.012620454, -0.10847605, -0.0036952188, -0.06472536, 0.08833446, -0.16333626, -0.031751476, 0.080362014, 0.09870412, 0.14976552, -0.09428382, -0.054973327, 0.03754762, 0.031087749, 0.14311212, -0.19239952, -0.05210589, 0.100800894, 0.042193178, 0.013329972, 0.016139027, 0.14894542, -0.003151989, -0.024399314, 0.061076842, -0.023038968, 0.13740851, -0.031254373, 0.044156622, 0.06966017, 0.18874198, 0.08984916, -0.069221385, 0.19470023, -0.029339464, 0.049753252, -0.09498349, 0.117779024, 0.018118702, -0.09512362, 0.10824815, 0.12982294, 0.12750615, 0.11909423, -0.034924492, 0.089055635, -0.050188318, -0.02007116, -0.055458117, -0.016438454, -0.09896729, -0.014635008, -0.14096157, -0.19302899, -0.08913923, 0.0272972, -0.009421096, 0.078297816, 0.081271656, 0.061999466, -0.100601465, 0.08146567, -0.09784316, 0.010924342, 0.0033251108, -0.18700916, 0.017850833, 0.09028554, -0.055075046, 0.07012896, 0.01721972, 0.066719286, 0.04720721, 0.044234626, 0.0044018785, 0.018747354, 0.056829967, -0.07579063, -0.08123262, 0.08857035, -0.08108422, -0.10409464, 0.019694233, -0.046076205, 0.0688101, -0.040575583, -0.012897412, -0.05990999, 0.1409121, 0.05085451, -0.05314812, -0.034971897, -0.15373982, -0.039515544, 0.090685375, 0.093954526, -0.006734526, 0.14303136, 0.033693507, 0.083286546, 0.04911828, 0.03625473, 0.12993671, 0.06235748, 0.15317468, 0.045038976, 0.00022376343, -0.008551233, -0.038878568, 0.12656689, -0.06784041, 0.03161622, -0.13245848, -0.12168342, 0.10488442, 0.13306089, -0.14244324, -0.0035821993, -0.035440598, -0.03235579, 0.038244177, 0.08664066, 0.001094585, -0.18830054, -0.017459495, 0.18889757, 0.023639634, 0.081372015, -0.116598345, -0.057534415, -0.0760634, -0.03784385, 0.07376176, 0.057404943, 0.11924502, -0.15821902, 0.06993466, -0.088603534, 0.03565205, 0.12313541, 0.053854648, 0.08882482, -0.09344959, 0.013618552, 0.20364702, -0.114144765, -0.07245783, -0.086149774, -0.18845852, -0.03877814, -0.09417852, -0.04264424, -0.03140075, -0.011852261, -0.121529065, 0.08252912, -0.10239869, 0.101486556, -0.17008534, -0.07001708, 0.10136248, 0.1424585, -0.035038278, 0.124989554, 0.14721309, 0.12606116, 0.0775311, -0.012221413, -0.08000351, 0.067131825, -0.12895577, 0.07189417, -0.034903802, -0.14056537, 0.17670788, 0.046645127, 0.010329354, -0.015204055, -0.024140041, 0.1494975, 0.022358147, -0.03337758, 0.06565231, -0.10095752, 0.04215132, 0.097760335, 0.098894924, 0.15744753, 0.18047222, -0.032197062, 0.05558538, 0.10106081, -0.045413222, -0.021304656, -0.07775645, -0.02394363, -0.029795093, 0.05113826, 0.14217077, 0.09610006, -0.06482767, -0.123609334, 0.028947227, -0.03084819, 0.1125958, -0.10830777, -0.11272021, 0.026040772, -0.053028867, 0.006035823, 0.13145036, 0.15502599, 0.042604554, -0.03682982, -0.09369698, 0.024983477, -0.15331928, -0.075732574, 0.04498285, 0.05214189, -0.14398375, 0.021789448, 0.1644224, -0.016599456, -0.035737276, 0.00795653, -0.027473832, -0.13721943, 0.06431585, 0.0054096067, 0.028227856, 0.011289625, -0.07943797, -0.11738089, 0.12744881, -0.061901655, 0.0397474, -0.08044581, -0.08729001, -0.033653438, -0.12185265, -0.10345501, 0.0020360788, 0.05167371, -0.090197325, -0.15027665, -0.18720064, 0.001200478, 0.107008114, 0.12471087, 0.046794165, -0.15282573, -0.013500259, 0.079623915, -0.0805729, -0.032985337, -0.029338185, -0.0033319895, 0.014249091, -0.1146515, 0.057641186, 0.0012046695, -0.028733265, -0.17120881, 0.011439071, -0.08471099, -0.008608408, 0.11479314, -0.051435135, 0.09059541, 0.0050562085, -0.1601956, 0.033504676, 0.13112825, -0.088670835, -0.02723297, 0.19149362, -0.12901668, -0.08923423, 0.055944055, -0.006812164, -0.007749444, -0.072690636, 0.06983973, 0.11902332, -0.045836054, -0.058683217, -0.074617416, -0.035326514, -0.010442837, 0.1004091, 0.06955553, 0.038013984, 0.07946872, 0.07028299, -0.19547299, -0.18460289, -0.033203308, -0.1247583, 0.024400085, -0.12256409, -0.0038359587, 0.022766616, -0.10959084, -0.13772021, -0.017687935, 0.01143621, 0.18707378, 0.015488291, 0.105122454, -0.13108031, 0.021432957, 0.03590044, 0.035537425, 0.0416063, -0.022494752, 0.1332779, -0.050313275, -0.04025273, -0.14122249, 0.05541995, -0.05593715, 0.093387805, 0.14947814, -0.050341196, 0.09210606, -0.047385566, 0.13301675, 0.06166959, -0.13669264, -0.07110736, -0.08180768, 0.017820215, -0.14973146, -0.008403928, 0.03469395, -0.049395468, 0.018792843, 0.046574686, -0.02678296, 0.07083189, 0.10659485, -0.14534754, -0.14313035, 0.13078998, -0.11598718, 0.010622499, -0.082020655, -0.104884095, -0.023355568, -0.0022930703, 0.017671678, -0.087471984, 0.07830374, 0.016927747, -0.12732685, 0.05153755, 0.040760364, -0.04652043, 0.041897018, -0.03301431, -0.10222029, -0.013215785, 0.049334873, -0.11844721, 0.09980549, -0.14147922, 0.039402682, -0.046261013, -0.043069445, -0.1709676, 0.065390036, -0.009873159, -0.024504399, 0.033639777, -0.15746564, 0.1884427, 0.0066545177, -0.04766351, 0.0007668152, -0.022120351, 0.015027206, 0.041375935, -0.05626211, 0.067287475, -0.022200575, -0.005975585, -0.113162905, 0.13619965, 0.1398306, 0.03337363, -0.08613401, 0.064662956, -0.06316579, -0.0006432338, -0.02477693, -0.02564681, 0.09694865, -0.07792604, 0.036193732, 0.046872634, -0.07433583, 0.028376358, -0.11309467, -0.017712422, -0.0154656, 0.14014651, -0.014442161, 0.08058165, -0.01708504, 0.1020618, 0.058428675, 0.04210053, -0.055610213, -0.07913965, 0.12156028, 0.03872708, -0.05887316, -0.053616524, -0.07671193, -0.18738374, -0.044827253, -0.14399898, 0.008732898, -0.10952466, 0.094789274, -0.16409448, 0.13066193, 0.07113113, -0.056198843, 0.067532465, 0.08895948, -0.04930468, -0.021652756, -0.10834956, 0.060922056, -0.1556238, 0.17612687, 0.029675378, 0.0041276976, -0.16858594, 0.09920526, -0.077925324, 0.048695877, 0.013292066, -0.01858285, -0.09643746, 0.06984678, -0.010938302, -0.15702955, 0.05209162, 0.0753716, -0.031217556, -0.05150847, 0.078332976, -0.072107404, -0.1323602, -0.07512695, -0.07211818, -0.005721038, 0.05490309, -0.0046724607, -0.077878036, -0.02599125, 0.016254961, -0.17187747, 0.049387824, -0.11913819, 0.05420339, -0.018331777, 0.03151997, -0.021578467, -0.031761266, -0.13583948, 0.02114595, -0.15176103, 0.137239, -0.0030570591, 0.018903337, 0.085550055, 0.03207817, 0.006912599, -0.009081831, -0.020876799, -0.18377052, -0.019122256, 0.13659771, 0.06527354, -0.009489409, -0.013408307, -0.08240071, 0.06033113, 0.112191945, 0.03616119, 0.03546073, -0.15463145, 0.010344525, 0.026523778, 0.048040796, 0.07572655, -0.042824373, -0.013262591, 0.07005022, 0.09131298, 0.10792368, -0.06538143, -0.1224227, -0.0297102, -0.034283314, -0.023209892, 0.028092267, 0.062053777, -0.013809447, -0.13008764, -0.021899045, 0.017252412, -0.021747768, -0.07799069, -0.06730735, 0.06327116, -0.06385739, 0.05310012, 0.036593664, -0.087335594, -0.04589649, 0.022836305, 0.010272058, 0.07546077, -0.04787968, -0.1636763, 0.089786805, 0.07601955, 0.048779994, 0.15419024, 0.0226434, -0.021871412, 0.024733784, -0.13230465, 0.034297526, -0.014203206, 0.026591042, -0.16106458, 0.018563401, 0.088883914, 0.1479405, 0.08069913, 0.06678774, 0.021522863, -0.11889618, 0.09676084, -0.015839957, -0.14923568, -0.061033122, -0.010602601, 0.033454467, 0.034652356, -0.031488918, 0.081515804, -0.09653735, 0.007152602, 0.04883172, 0.115475945, 0.02804299, 0.081418894, 0.07532583, -0.036488764, 0.029008279, -0.05729462, 0.10279187, 0.019380104, -0.05905717, 0.035282902, 0.14521004, -0.081218146, -0.11871574, 0.112687424, -0.048712477, -0.13500592, -0.085194096, -0.1263674, -0.015603249, 0.10926835, -0.08891252, -0.115302496, 0.072892465, -0.100939065, 0.06576691, 0.06583932, 0.07478976, -0.073878676, -0.1733988, 0.08194699, -0.0014377463, 0.028475722, -0.018306335, -0.07110025, -0.12520312, -0.17178234, -0.0758607, 0.073893026, -0.021946145, 0.0075362558, 0.05200796, 0.049234416, -0.07582674, 0.13467516, -0.12874848, -0.02454783, 0.063703634, -0.08242961, 0.11893613, 0.11509681, 0.059368677, -0.06347289, 0.14564277, -0.029399628, 0.09090743, 0.007611242, 0.100574255, -0.001023049, 0.20587413, -0.18226926, -0.023758493, 0.16562262, 0.034076933, -0.15994097, 0.0070379935, 0.15424442, -0.008609465, -0.0017519557, 0.014310948, 0.015943756, -0.07475136, -0.05874639, -0.044226963, -0.1327857, 0.11523353, 0.13426581, -0.016959723, 0.020844059, -0.03535348, -0.06347725, -0.018124947, -0.022861611, 0.025896337, -0.050298665, 0.09347929, 0.04969904, -0.16784504, 0.07650292, -0.06201905, -0.013640959, -0.030531818, 0.05532281, 0.03801109, -0.0141952485, 0.041042343, 0.12563428, 0.041920226, 0.12127068, -0.06768871, 0.053897303, -0.020195888, 0.099779665, -0.11025585, -0.04362604, 0.08688662, -0.039880708, 0.013620365, -0.013861972, -0.053509988, -0.061642274, -0.11114935, -0.10257585, -0.008856245, 0.07686645, -0.05407162, 0.044014927, -0.050137326, 0.16947371, -0.09357831, 0.06263886, -0.09089197, 0.08189918, 0.08588706, -0.033850312, 0.09549792, 0.02808763, -0.094031855, 0.055782147, -0.10541855, -0.08993276, 0.023965478, -0.0139268, -0.060029283, 0.024854798, -0.008388177, -0.17481177, 0.13857521, -0.049521055, 0.036825694, 0.09043278, -0.08357103, -0.040460363, 0.07396979, 0.07644462, -0.015359129, -0.19552827, 0.052000795, 0.0545277, 0.0078108, 0.049822375, 0.056857005, -0.17371213, -0.13823792, 0.09797786, -0.15725133, -0.03492129, -0.032624397, 0.012681177, 0.036628563, -0.008536082, -0.1419404, -0.036536805, 0.009428013, 0.019317187, 0.005094929, -0.02442086, 0.17093232, -0.1634843, -0.076143496, 0.08846376, 0.0440722, -0.116821915, -0.03384264, 0.16395856, 0.051560245, 0.0014464456, 0.15782215, -0.073515095, -0.13277549, -0.04569043, 0.08985758, 0.038569953, -0.027385889, 0.04583649, 0.08920053, 0.02142653, -0.022042528, 0.08258171, -0.10873006, -0.020734753, -0.047847472, 0.0055215578, 0.06618577, 0.10826815, -0.043047655, -0.011206552, 0.048900828, -0.07373839, -0.04558258, 0.024659893, -0.16393283, 0.0931657, 0.08073852, 0.026413731, 0.11317932, -0.051892772, -0.055230334, -0.020184807, -0.15035535, -0.12057997, -0.06143019, -0.07851637, 0.15763316, -0.10195876, -0.025283255, 0.17830215, 0.045411915, -0.18433446, -0.023167202, 0.12252984, 0.005366267, 0.032969162, 0.051579323, 0.05941045, -0.02112612, -0.0010741105, 0.025264813, -0.15987018, -0.036674544, -0.06721286, -0.06090634, -0.0014920896, 0.08070945, -0.16560557, -0.047996253, -0.016241668, 0.029185683, 0.023917714, 0.13858624, 0.0047461083, -0.19329569, 0.04457147, -0.06960123, -0.18643817, -0.009242256, -3.3278775e-05, 0.117134616, -0.06730754, 0.15097527, 0.03721171, -0.13283214, -0.123129375, -0.14521678, 0.15258105, -0.019238403, -0.020644994, -0.19743653, 0.020471117, -0.14846559, 0.015155508, -0.09727191, 0.065262824, -0.20860481, -0.084117725, -0.2086979, 0.07234645, -0.04363068, -0.068219505, 0.14299317, 0.087576695, 0.025605738, 0.09540473, -0.06133755, 0.065841965, -0.08066192, -0.033731505, 0.15584666, 0.120715, 0.038894117, 0.17148434, -0.058024846, -0.03136517, 0.009427166, -0.046292506, -0.09451646, -0.05785596, 0.131259, 0.047300264, 0.014205559, -0.0715964, 0.12763, 0.014619233, -0.10959713, 0.0864075, -0.10918418, 0.06503664, 0.04632677, -0.0077414797, -0.014822172, -0.05065711, -0.029912326, -0.018764604, 0.052759044, -0.103250526, 0.043493528, 0.19625807, 0.085870236, -0.065126576, -0.13161463, -0.035562325, -0.009804061, 0.017271005, -0.023377623, -0.021234851, -0.0897509, 0.057560448, -0.030094942, 0.0025173267, 0.12955576, -0.13284008, -0.18180561, 0.04348934, -0.026089255, 0.15554056, 0.006626753, 0.17589372, -0.03715348, -0.06883595, 0.1243749, 0.030587198, -0.024579985, 0.05115493, 0.007873437, -0.07085587, 0.102716535, 0.08451311, 0.00984426, -0.067316, 0.028968552, -0.04811833, 0.06767181, 0.06716601, -0.046951275, -0.057736028, -0.046202935, -0.08577459, -0.006759222, 0.06727217, 0.060255595, 0.1348062, -0.113197654, -0.020837808, -0.035568744, 0.1938436, 0.14183189, 0.017729172, -0.058995932, 0.0013675771, -0.024097906, -0.094912656, -0.054130085, 0.04245281, -0.04101802, 0.05211623, 0.018336691, -0.03302673, 0.15460181, -0.20047678, -0.14455704, -0.087394126, 0.0904008, -0.04551298, -0.054910008, -0.10079665, -0.031702872, -0.032262474, -0.036324985, 0.1325195, -0.17410536, -0.07814749, -0.07198932, 0.04574562, 0.18848033, -0.050485425, 0.015828198, -0.07033989, -0.07852894, -0.04637452, -0.13290471, 0.035266764, 0.01549384, 0.016337499, 0.023288677, -0.07175129, 0.033025503, 0.1623675, -0.12277246, -0.16331683, 0.034784906, 0.15928999, -0.017479058, 0.057523806, -0.12450308, 0.013695122, -0.03834995, 0.030330088, -0.0011403536, 0.065067165, -0.05629301, 0.0051515475, -0.09123593, 0.04951316, -0.12642395, 0.04789943, 0.060082443, 0.10249991, -0.058490787, 0.09498907, -0.0011123506, 0.14746302, -0.15970293, 0.05998934, -0.1442272, -0.06766051, -0.1315176, 0.07544777, -0.036451925, -0.018092401, -0.09025749, -0.054109752, 0.09568104, -0.06717829, 0.073886886, -0.082108505, 0.07725783, 0.10180115, -0.10456409, 0.05412917, -0.16750526, 0.08413048, -0.01934418, -0.03175732, -0.17988446, -0.100652575, -0.009518909, -0.010983399, 0.15831421, -0.03315522, -0.16822177, -0.11484534, 0.035072174, 0.05891021, 0.14823256, 0.029897809, 0.07251776, 0.05362943, 0.14650322, 0.023799628, -0.029027937, -0.102866955, 0.05175332, -0.025315788, 0.107316494, -0.11053689, -0.033947162, -0.013931083, 0.073587514, 0.01745953, -0.17882134, -0.03738601, 0.036480594, 0.038546503, 0.03526127, 0.032318514, -0.08721008, -0.046534315, 0.0030637234, 0.044189926, -0.056361318, -0.054244965, -0.008105246, -0.06717643, 0.12615937, -0.083714835, -0.07510867, 0.04169943, -0.074866384, -0.033482086, -0.09691254, 0.09771073, -0.08114007, -0.19423337, 0.024221063, -0.027181407, 0.06778072, 0.081160575, -0.11389026, -0.01758647, -0.103584886, 0.0034635293, 0.04276459, 0.07590595, 0.0157992, 0.13728414, 0.12138715, 0.1570711, 0.12921195, -0.074094705, 0.0729684, 0.073653705, 0.102260776, 0.062334877, -0.14981064, 0.030166123, -0.13257012, 0.021272888, 0.09700517, -0.086099766, 0.011282013, -0.1925184, 0.118543565, -0.008166942, 0.14876257, 0.10845357, -0.00949653, -0.0343668, -0.06736298, -0.13706632, 0.07602416, -0.07183182, 0.07580779, -0.07236946, 0.0014502165, -0.04663139, -0.042758595, -0.06843061, 0.0277574, 0.0014118499, -0.07262562, 0.118229516, 0.06736846, -0.062872924, 0.04344962, -0.088099904, -0.006522514, -0.03035963, -0.041970484, 0.013963621, 0.16137911, 0.09264077, -0.092031874, 0.09546364, -0.050374795, -0.017598035, -0.03989798, 0.03665164, -0.15394004, 0.11671445, -0.0007643875, 0.0070644384, -0.010948695, -0.06122045, 0.055084143, 0.045575492, -0.14461611, -0.07943181, 0.19419065, -0.17033668, -0.1142334, 0.12482821, -0.17820635, 0.009184863, -0.093529634, 0.08861601, -0.08239114, -0.1332574, 0.012310648, 0.018819338, -0.051019784, 0.11917142, 0.094778284, 0.02809864, 0.018199718, -0.067879245, -0.05242826, -0.13791437, -0.009711854, -0.12500218, -0.022020161, -0.019915408, -0.026713062, 0.11960213, -0.05209874, 0.13527642, 0.094514824, -0.05450121, 0.00230863, 0.022357268, 0.075492896, 0.0330231, 0.07035412, -0.002491814, -0.01389034, 0.080473274, 0.0981469, 0.053122547, -0.082039826, -0.005898462, 0.038092494, 0.015846243, -0.19469586, -0.122422986, 0.08604027, -0.07461258, -0.021801187, -0.1462349, 0.05590391, -0.08840002, -0.033926602, 0.07789103, 0.00443247, -0.1098763, 0.052605, -0.08681949, -0.045644272, -0.024457583, -0.11087452, -0.037344724, -0.042256884, -0.058910377, 0.035834074, 0.04766017, 0.022888355, -0.044306125, 0.015055677, 0.09839528, -0.010613433, -0.11889207, -0.117302865, 0.09534351, 0.118058555, 0.034874704, 0.008464822, -0.09540435, 0.01963023, 0.09839411, 0.083031155, 0.046248086, 0.08121749, 0.010907044, 0.009505775, 0.12965025, -0.036688715, -0.14849243, -0.07993065, -0.062980115, 0.044519003, -0.030677598, -0.073868416, -0.06653397, -0.005840226, -0.06790581, 0.1665898, 0.023034737, 0.101250626, 0.078906536, -0.037570518, -0.08469549, -0.043695647, 0.03386102, -0.004069575, -0.0730968, -0.021704948, 0.032924246, 0.093246214, -0.0058977916, 0.011163238, 0.0116799185, 0.01181081, 0.060814325, -0.03400864, -0.07081305, -0.1851862, 0.052880306, -0.062974446, -0.0138022965, -0.05106223, -0.08738899, -0.085264385, 0.038197912, -0.05825811, 0.0012948671, -0.046671063, -0.041116305, 0.11665492, 0.0053264434, 0.053464636, 0.15091664, -0.064800166, -0.11588292, 0.093064636, -0.046090122, -0.011087638, 0.0028222937, -0.032524455, -0.046262644, 0.08471621, 0.102115, 0.031504862, -0.008043942, 0.17692855, -0.054702662, 0.051156614, -0.061682694, 0.06968975, 0.088556305, 0.10819719, 0.08495366, 0.10730012, 0.062000994, 0.14339471, 0.043925848, -0.01465915, -0.013602329, 0.14313185, -0.00092051376, -0.07654292, -0.0050714, -0.06897188, -0.11352104, -0.093856595, -0.034180194, 0.030524617, -0.05182961, 0.06345782, 0.12733965, -0.13859938, -0.0351457, 0.08038332, -0.08165358, 0.041267112, 0.0011266171, -0.04680441, 0.011863267, -0.19306618, -0.044737644, -0.04594067, 0.014434007, -0.036025923, -0.002505792, -0.014224762, -0.193883, 0.029931346, -0.06379639, -0.055171337, -0.13031384, 0.18685889, -0.18378393, 0.15142982, -0.01795001, 0.13107143, -0.031179849, 0.112803765, -0.13809732, 0.02396111, 0.10122214, 0.05278179, 0.09607437, 0.061269786, 0.061853223, -0.012525646, 0.056170724, 0.0028702794, -0.015684186, -0.14459962, -0.00956033, -0.06070731, -0.06930723, -0.026522318, 0.0322798, -0.13839248, 0.09006997, -0.17793849, -0.13529994, -0.11427364, 0.013004652, -0.03436742, -0.04765481, 0.03954039, 0.06953833, 0.039816443, -0.044194855, 0.0741514, 0.108580425, 0.11988327, -0.026655573, 0.0030828372, 0.07073478, -0.054486252, -0.019549632, -0.13220203, 0.09848981, -0.04865028, -0.11325013, -0.049186863, 0.09880427, 0.0026887637, -0.047773894, 0.03744915, 0.08889786, 0.12850529, -0.0697392, 0.038471695, 0.1978808, 0.10302775, 0.13574047, 0.1102931, 0.088151984, 0.039421346, -0.09810245, -0.061176706, -0.14973277, 0.0466097, 0.013501705, 0.005582695, 0.16289593, -0.04540478, 0.09182795, 0.12247179, -0.10005527, 0.03189604, 0.07135296, -0.0023580773, -0.09667751, -0.034781065, -0.1004394, -0.0373509, 0.08644688, -0.109487444, 0.03687, -0.020652829, -0.08765881, 0.03853044, 0.014403413, 0.010518827, 0.11271573, -0.067283496, -0.03391668, 0.16533132, 0.034346756, -0.027547928, -0.041976813, 0.054448128, 0.1134745, -0.004644672, 0.0777305, 0.102577806, 0.027509658, 0.002469283, -0.03508644, 0.011303532, 0.08781882, -0.11392303, -0.07142641, -0.118104294, -0.071254596, -0.052866004, 0.037331354, -0.008630077, 0.0303315, -0.049755454, -0.09664852, 0.09575414, 0.14724429, 0.1153586, 0.08552509, 0.0151910465, -0.039725617, -0.028660847, -0.15833315, -0.09655605, 0.15733768, -0.124943994, -0.11762492, -0.02083914, 0.120027244, -0.06007899, 0.072476365, 0.12471057, -0.0614045, -0.07032546, -0.15236229, -0.026964054, -0.18698993, 0.031768583, -0.08124795, 0.035475697, -0.10756013, 0.08269216, 0.01176519, 0.082496226, -0.046133287, 0.045367956, 0.060374603, 0.055911355, -0.0069859005, -0.10163411, 0.013407813, -0.060033258, 0.14530021, -0.044430982, 0.09964117, 0.020500004, 0.17380582, -0.039371084, 0.019039575, -0.073944606, -0.05079529, -0.08607585, -0.025146762, 0.021659575, -0.026832996, 0.06521191, -0.01820866, -0.04054798, 0.016195381, 0.20194645, 0.027957745, 0.12566851, 0.0043145996, 0.11351963, 0.037736036, 0.090646096, -0.13720557, 0.05989577, 0.04252686, 0.0383562, -0.1235183, 0.0019280177, 0.0059873667, 0.048708435, -0.05611754, 0.045104753, -0.11294269, 0.004276667, 0.05844565, -0.0087342, -0.17354397, -0.063077174, -0.06311785, 0.12984851, -0.028996559, -0.033451904, -0.11686276, -0.112162024, -0.009126268, -0.10442269, -0.057921942, 0.012397008, -0.121228315, 0.011070915, 0.006976226, 0.15740247, 0.020964295, 0.15437275, -0.17165619, -0.11019719, -0.08150725, -0.07542111, 0.048292685, 0.0063823867, 0.07841356, -0.18176974, -0.0039132973, -0.10461563, 0.102942176, 0.1324936, -0.030659517, -0.081597805, -0.032156464, -0.13894981, 0.0409716, 0.12730466, -0.13584161, 0.03977719, -0.16079324, -0.11715223, -0.024042958, -0.042632453, -0.01355147, -0.16238448, 0.04087736, 0.09387, 0.0674774, 0.025937539, -0.12564339, -0.020387042, 0.049700845, 0.0707238, -0.08880418, -0.083226316, -0.08124788, -0.082130775, 0.009040519, -0.01634346, 0.012251042, -0.055768996, 0.05036457, 0.16782416, -0.029364489, 0.03418182, -0.061838645, 0.07053038, 0.11212813, 0.0545777, -0.12060352, 0.09258137, 0.03623798, 0.16241021, -0.014709328, -0.07098955, -0.020726766, 0.05513525, 0.17645885, -0.0012259764, 0.031767093, -0.02186423, 0.085146494, 0.031315904, 0.12943715, 0.023072755, -0.041296583, 0.098753296, -0.15841445, 0.19491565, -0.015958255, 0.026018105, 0.05560702, -0.018201144, 0.00023442994, -0.10925168, -0.05892759, 0.11432544, -0.11391768, 0.13071841, -0.14722629, -0.07297414, -0.06391616, -0.14671598, 0.021292944, -0.069042735, -0.05847066, 0.07712781, -0.015751554, -0.05699628, 0.1515855, -0.07507777, -0.063924596, -0.010863406, -0.027629029, -0.12654552, 0.08567979, -0.06721451, 0.079331025, 0.1465865, -0.077606186, 0.040775266, 0.13442297, -0.0018193802, 0.1733753, 0.05170348, -0.009514749, 0.0018997878, -0.06319837, -0.00805152, 0.012979358, -0.03556922, -0.09776264, 0.1865086, 0.11265637, -0.059819758, 0.050741263, -0.1426346, 0.008118622, 0.06371763, 0.012809774, -0.0810988, -0.08390976, 0.051317353, 0.12695815, -0.12834644, 0.03463704, -0.14803645, -0.123863205, 0.022092663, 0.04797344, 0.11247717, 0.19776212, -0.087885275, -0.08008292, -0.04613696, 0.08195911, 0.055403367, -0.08296587, -0.10526932, 0.017248325, -0.13678254, 0.10779504, -0.119316265, 0.12462567, -0.07267952, 0.07373623, -0.17331217, 0.100794345, 0.077006094, -0.11706724, 0.16803168, 0.14722477, 0.035835896, -0.11535183, 0.065708645, 0.14065403, 0.14614333, 0.033454392, -0.07997294, 0.087997176, 0.01570924, -0.0063584535, -0.049617782, 0.106276505, -0.1304788, -0.03225831, 0.07274891, 0.17247576, -0.006885266, 0.064594716, 0.040130142, 0.013919438, -0.042162996, 0.0023888894, 0.21575467, 0.043639094, -0.009990994, -0.0013654553, -0.15108353, -0.021020085, 0.12550947, 0.007325155, 0.15307805, 0.1511147, -0.035415687, 0.023138644, 0.08141051, 0.09309518, 0.09010951, -0.038604368, -0.029056104, 0.11316712, -0.14251076, -0.008667974, 0.029977294, -0.012332614, 0.029750038, 0.14605916, -0.0443413, -0.028949685, -0.15013397, 0.18509707, 0.05890562, 0.06951879, -0.170397, -0.13181204, -0.04961261, 0.08871622, 0.04507223, -0.18246022, 0.045336768, 0.0044311867, 0.045034625, -0.1878075, -0.014247441, -0.043161444, 0.09481007, -0.18193896, -0.022724543, -0.024458041, -0.05556917, 0.02299734, -0.02077283, -0.04793542, -0.07274123, 0.04815267, 0.06269629, -0.13452446, 0.039139017, 0.10316467, -0.18328711, 0.05436268, -0.13581695, 0.10386152, 0.097880095, -0.09413885, -0.007127414, 0.05341242, 0.08850168, -0.04601461, 0.023603836, 0.114195615, 0.051126253, -0.0017156864, 0.07840994, -0.03873693, 0.02168328, -0.006238117, -0.19776268, -0.0789677, 0.051200144, -0.04112714, -0.09334998, -0.008629284, 0.09362896, -0.13038918, 0.037398532, 0.05383903, 0.09228689, -0.025676392, -0.16865249, -0.1285937, -0.051332355, -0.0346121, 0.09499842, 0.086094484, 0.0030298235, 0.11643833, 0.03351276, 0.088614136, -0.1006051, 0.13412659, 0.091915086, 0.15645346, -0.04580648, 0.066986874, 0.121427156, 0.072861634, 0.03162992, -0.07920776, -0.16022305, 0.046599794, -0.021738738, 0.06131919, -0.10422717, -0.18341978, -0.043897014, -0.008331824, -0.15998101, -1.2812214e-05, -0.04890046, 0.0831707, 0.0469866, 0.05319302, 0.09373156, 0.0422232, -0.039323367, 0.020119157, 0.03434422, -0.2008502, -0.11757496, 0.035770547, 0.045892455, -0.11299034, 0.18269825, 0.030544063, 0.048419505, 0.07034144, -0.1219324, -0.02845829, 0.024011128, -0.0018578382, 0.060775183, 0.025185809, 0.108849324, 0.070803516, 0.010150173, -0.010725726, 0.14277616, 0.10433913, -0.008122325, 0.111822434, 0.0429309, 0.19090505, 0.07331857, 0.06530836, 0.05329758, -0.04627849, 0.13545245, -0.11910988, 0.08616375, -0.1146278, 0.16616374, 0.16112521, -0.08000223, -0.004717667, -0.062128622, 0.1622003, -0.12175384, 0.02267176, -0.03345194, -0.03911432, -0.08657266, -0.027960267, 0.00063545804, 0.010755712, 0.18162681, -0.19795343, -0.033472434, -0.15232766, 0.16531102, -0.14542662, -0.059289318, 0.17385197, 0.013857666, 0.03745681, -0.0048291064, -0.10293131, 0.0035188282, 0.04099507, 0.08457999, 0.034569655, 0.10607194, -0.014204416, -0.01953998, -0.0030449932, 0.008388029, -0.1865722, -0.0118998345, 0.10873293, -0.07211213, -0.05745276, -0.022992415, -0.0071327086, -0.14977565, 0.05971717, -0.115891114, 0.026328279, 0.09020766, 0.004578581, 0.08181951, -0.06654267, -0.15562892, 0.08921207, -0.061942477, 0.04389629, 0.10080476, 0.009330162, -0.09220064, -0.06151855, 0.121369645, -0.03898107, -0.11989616, 0.077343054, 0.16234069, 0.019044297, -0.15273863, 0.033473276, 0.026591102, 0.1888497, -0.13941994, 0.09652101, 0.01858777, 0.035803232, 0.110339604, 0.015891595, 0.006651735, 0.013274099, 0.0067529585, 0.042525373, 0.12892365, -0.0019143196, 0.043676503, 0.057391077, 0.14557552, -0.07657929, -0.008615656, 0.053285368, -0.059841882, -0.08284003, -0.049103823, -0.031086328, 0.08274172, 0.046095844, 0.11160699, -0.13970955, 0.09507215, 0.010395177, 0.07916101, 0.113441, 0.09900854, 0.043932207, -0.10983601, 0.00086622353, 0.072545536, -0.10073687, 0.013837939, 0.09458843, 0.050229065, 0.19724752, 0.12524866, 0.051705383, 0.023546688, -0.053038042, -0.055531062, -0.017083324, -0.19177237, -0.0240068, -0.049314573, -0.079973094, -0.069336236, -0.047600925, -0.0071566715, -0.027802978, -0.0075334287, -0.09092829, 0.00015299211, -0.116429545, 0.17692517, 0.056422964, -0.14020078, 0.03843458, -0.029428901, 0.005329514, 0.09337201, -0.17913274, 0.011745182, 0.059402827, -0.085772105, -0.15259479, 0.0870332, 0.008895905, 0.07275725, 0.06410234, 0.038207684, 0.05922114, 0.11105702, -0.054174483, -0.12331098, -0.15445837, 0.13064866, -0.025387889, -0.07390626, 0.021357479, 0.044956233, -0.07920354, 0.06818431, -0.062428303, -0.10985536, -0.16493943, -0.075704314, 0.13514408, -0.09806976, -0.16205469, 0.11592906, -0.03966799, -0.010684459, -0.031199256, 0.0401412, 0.19252183, 0.0016182896, -0.14094661, -0.17800647, -0.095620506, -0.1853153, 0.06571371, -0.024052527, 0.17023572, -0.043232143, -0.061993215, -0.03888392, 0.038585898, 0.18447433, -0.07576394, 0.038026586, -0.09951049, -0.06481757, -0.12103562, -0.035497416, -0.17207362, 0.060680132, -0.16879588, 0.08053869, -0.082663454, 0.13194667, 0.0041852635, 0.021874325, -0.006251292, -0.119998984, -0.04489357, -0.029038126, -0.033868264, -0.08742905, 0.14222756, -0.15569745, 0.05321778, -0.04591368, 0.11328404, -0.015168766, 0.056590084, -0.013648165, -0.034633216, 0.02952254, 0.040920995, -0.1275692, -0.1664397, -0.123754054, -0.1202615, 0.013258719, 0.13714315, -0.028022364, 0.0020408533, -0.05629637, -0.039647713, -0.054645024, -0.023585659, -0.06259603, 0.061249536, 0.09565244, -0.017828787, 0.039572414, -0.06814143, 0.055116452, -0.04387658, -0.032840855, -0.007897728, -0.055605013, 0.14188947, 0.12763008, -0.13806607, -0.05711193, -0.11231451, -0.041840207, -0.11593645, -0.15799819, 0.07234076, -0.043888662, 0.038168598, -0.038369965, 0.07116081, -0.0012427934, 0.08528669, -0.034563072, -0.15557227, -0.059778772, -0.07182949, -0.06775075, 0.043637283, 0.009114992, 0.049439047, 0.07633775, 0.038187597, 0.014279548, 0.10642048, -0.051424205, -0.1306506, -0.03578578, -0.023807026, 0.061867926, 0.19509074, 0.12467688, 0.03579558, -0.04996196, -0.07632274, -0.18625364, -0.11216133, -0.14141239, -0.055549867, 0.10601321, -0.1403058, 0.1338405, 0.16633174, -0.054764196, 0.015156754, 0.012907181, 0.116948046, -0.15135461, 0.023547981, -0.09067806, -0.1469702, -0.036129788, 0.08602975, -0.07938863, -0.11758991, -0.1128041, -0.07571536, -0.06437471, -0.08048185, -0.0171764, -0.16804318, -0.09466197, 0.09279309, 0.00155874, -0.108814806, 0.17986365, 0.039669972, 0.124387704, -0.14401689, -0.009323877, 0.004948731, -0.028052486, -0.028484784, 0.024635708, -0.039754957, 0.101112604, 0.08716056, -0.15316638, -0.04810609, 0.062754154, 0.039520547, 0.11660754, -0.019919842, 0.109637395, 0.09144559, -0.09078076, 0.075826816, 0.1380358, -0.09948871, -0.086122, 0.06873738, -0.01155356, 0.107292645, -0.0374029, 0.118248746, -0.082698494, -0.03243446, 0.03139637, -0.004717572, -0.14637108, 0.03477673, -0.056280587, -0.035773467, 0.08689389, -0.104305595, 0.00988079, -0.14116313, -0.016758723, -0.17382987, -0.012094419, 0.0036040854, 0.16398545, 0.024080146, 0.049348507, 0.0006459958, 0.12070834, 0.17111667, 0.046040367, -0.14100175, 0.07515932, -0.01916474, 0.013091653, 0.09331366, -0.044924416, 0.10111308, -0.00024960455, -0.032395124, 0.11153141, -0.04321147, 0.052761633, -0.08520663, 0.025606578, -0.17019004, -0.12967496, -0.0488634, 0.16566364, 0.083415054, -0.066212595, 0.03813851, 0.11005732, 0.01767373, -0.06439241, -0.040505663, -0.029202318, -0.1272843, -0.070938796, -0.11469083, -0.09036168, 0.11535406, -0.02818254, 0.18429163, -0.1127885, -0.12263654, -0.051575743, -0.09025738, 0.0502464, -0.029631339, -0.106351204, 0.07213644, -0.009404801, 0.018660441, -0.04151171, 0.13560855, 0.05390643, -0.17168167, -0.038468312, -0.050536454, -0.08320483, 0.019852635, -0.11775956, 0.0055043963, 0.028516497, -0.036685284, -0.14519121, -0.061691042, 0.11194993, -0.137862, -0.13036723, 0.044878777, 0.17539215, -0.011073727, -0.04013838, 0.10098738, 0.10235334, -0.085941955, 0.13762558, 0.09123525, -0.054912586, 0.05309735, 0.18086137, -0.00027307126, -0.18746221, 0.00079569605, 0.12696192, 0.0047243736, 0.025127703, -0.11850068, -0.08016194, -0.051368643, 0.039082218, 0.004648926, -0.13758701, -0.031479366, -0.10749325, 0.039004672, 0.09950722, 0.056449547, -0.14525558, 0.12771769, 0.056281164, -0.16987462, -0.06586463, -0.025375374, 0.18278831, 0.1455296, 0.082997665, -0.0468031, -0.05680939, -0.020287681, 0.103613816, 0.0032110843, -0.069642395, 0.06421263, -0.16041902, -0.04092111, -0.13554041, -0.06318776, -0.009516462, 0.06947037, 0.05620764, 0.017497323, -0.042098742, 0.10517736, 0.0074265385, -0.05863241, -0.036606956, 0.13830806, -0.09682687, -0.11386615, -0.040226568, -0.07094128, -0.014857819, 0.11114439, -0.035722975, -0.09361989, -0.109664105, 0.010793695, -0.1806455, -0.13203298, -0.07802541, 0.021959241, 0.07659026, 0.020960657, -0.0508896, -0.105429016, 0.018564725, 0.04528837, 0.0131244, 0.17198811, -0.012236354, -0.12159927, -0.006404506, 0.06211974, 0.0033261133, 0.056116413, 0.010460538, 0.023290625, -0.060433306, 0.12172515, -0.11843104, -0.006014743, 0.11815968, -0.09750592, -0.0037279138, -0.06381573, 0.037391495, 0.08970199, -0.050549537, -0.09859799, -0.0077151693, -0.11105294, -0.0062168967, 0.08574113, -0.021600932, -0.03837579, 0.063412964, -0.15737015, 0.14519763, 0.16062096, -0.044972636, -0.1363227, -0.08750712, -0.04169656, 0.05624645, -0.026242733, 0.06509603, 0.10477829, -0.18466148, 0.1267698, -0.034141466, -0.16520955, -0.047634277, 0.031397082, 0.03653083, 0.09509659, -0.048476715, 0.05188858, -0.14838721, -0.10688187, -0.16802657, -0.023451433, -0.12657015, 0.05478378, -0.026731597, 0.02033899, -0.06739, -0.08328797, -0.049162358, -0.09772345, -0.15295579, -0.034281064, -0.042263962, 0.15510258, 0.15509725, 0.018287119, 0.1468769, -0.033502664, 0.14955637, -0.046825387, -0.030315015, 0.0105017135, -0.11882915, -0.13960324, 0.023280138, 0.18636222, -0.1289237, 0.010915339, -0.09124617, -0.039756592, -0.0808524, 0.004219609, 0.08401124, -0.08387032, 0.11899348, 0.005073912, 0.04903042, -0.04846761, 0.09597876, -0.050771844, -0.1138861, -0.048807744, -0.14466645, 0.048690308, 0.040483568, -0.08648371, -0.20736413, 0.08477489, 0.2182726, -0.10158901, -0.016756069, -0.057121236, -0.117616266, -0.08749923, -0.056320652, 0.10194087, 0.052603398, -0.00032952198, 0.10885671, -0.1033084, -0.0037148625, 0.08218907, -0.1798572, -0.049142968, 0.035230912, 0.13228892, 0.14814721, 0.16864257, -0.09572239, -0.12204251, -0.012562604, -0.06737662, 0.20541482, 0.053646892, -0.019651538, -0.005036762, 0.12133923, -0.108848974, 0.086047664, -0.080775306, -0.14889823, 0.014531335, 0.2023175, 0.13481025, -0.02120724, -0.08252858, 0.047118414, 0.12501845, -0.04577487, -0.09979385, -0.13860688, -0.028280644, 0.05190165, -0.0790762, -0.01994056, 0.023645649, -0.016026972, -0.1012434, -0.03420453, -0.0688593, 0.017709784, 0.08392685, 0.19151974, -0.20554587, -0.061655927, -0.02575909, 0.152764, -0.123798095, -0.15548448, -0.03400483, 0.008908208, -0.0048254905, -0.08982989, 0.039579723, -0.13176325, 0.10378512, -0.15523973, -0.104387216, -0.024490999, 0.11438008, -0.031801723, 0.07194426, 0.02245584, -0.0389509, 0.111211844, -0.0021578846, -0.18827681, -0.00926067, 0.06751858, -0.017919833, -0.0938792, -0.067439914, -0.04565586, 0.07191099, 0.17371064, -0.14170614, 0.11883428, 0.08983455, -0.030653618, -0.028813783, 0.17498238, -0.031208642, -0.034542143, -0.0029778483, -0.008282871, -0.059266236, 0.07465972, -0.12237304, -0.16127354, 0.0135976, 0.06262925, -0.02279187, 0.100920044, -0.12498358, -0.104171306, 0.008222235, -0.030720344, 0.02387021, -0.098315224, -0.00948692, 0.008019266, -0.0012431627, 0.027415244, 0.009528333, 0.11060806, 0.036050968, -0.055298895, -0.07927571, 0.13512734, -0.060427886, -0.12636669, 0.051602334, 0.01904393, 0.018494135, -0.03567038, -0.10763613, 0.016930353, -0.037868835, -0.14207144, -0.14539897, -0.08153219, 0.03169917, -0.13550653, 0.14722872, -0.19350067, 0.009947936, -0.047559105, -0.055918634, -0.078004375, -0.16734739, 0.0031784798, 0.16194029, 0.10836548, -0.011916672, -0.16510697, -0.03170098, -0.012192025, 0.045277704, -0.08409033, -0.09314271, 0.1235505, -0.074307695, -0.09860587, 0.10402382, -0.16774432, -0.025288139, -0.010887813, -0.035310403, 0.026565876, -0.10169987, 0.07385909, 0.009251484, -0.0064873383, 0.18281944, 0.020664733, 0.0469376, -0.01620482, -0.124609835, -0.1753747, 0.14151427, -0.09778646, 0.11310489, 0.06086872, 0.09265763, 0.16166513, -0.08987107, 0.022687089, -0.0072211986, 0.05120804, -0.003653149, 0.009457253, -3.6098045e-05, -0.058246553, -0.18555605, 0.0758242, 0.108641066, 0.07869808, -0.013429981, -0.14031217, 0.018061228, 0.1717934, 0.016926855, -0.1001957, 0.11018447, -0.111609146, 0.14950016, 0.077385016, 0.02477348, 0.18888302, 0.049642466, -0.14957114, -0.044558436, 0.1430974, -0.17814113, -0.06476574, -0.037658673, -0.18737723, 0.15385765, -0.08113672, -0.030466698, -0.05862331, 0.0595222, 0.008819998, -0.1730754, -0.05418509, -0.09534066, 0.07360994, -0.083626136, -0.026995244, -0.043617062, 0.016712658, 0.05796334, 0.108035944, 0.057560124, 0.09091008, -0.08557443, -0.106431894, 0.05982426, 0.06491575, -0.089958206, -0.06946071, 0.13128214, -0.042771135, -0.08453861, 0.014968833, 0.12604615, -0.077343255, -0.0481652, 0.124356836, 0.09647269, 0.007189437, 0.047632407, 0.023554478, 0.1705421, 0.10406717, -0.022009525, 0.023509031, 0.21828958, -0.02306488, 0.07882348, 0.11399935, 0.10941146, 0.2043767, 0.08200537, 0.10980118, -0.10961062, 0.16904627, 0.04355878, -0.05891186, 0.00072854804, 0.05609421, -0.016438676, -0.008590617, 0.13079825, 0.13585766, 0.040670604, -0.022192365, 0.117969185, -0.010531503, -0.019990291, 0.086594425, -0.028860496, -0.06998806, -0.07993767, -0.09639007, 0.12408883, -0.09797993, 0.008074607, 0.16976759, -0.087323315, -0.16538489, -0.13649428, 0.08243588, 0.08894271, -0.100134134, -0.036246307, 0.0062380144, -0.07116884, -0.16935608, -0.11066926, -0.024883902, 0.006603542, 0.04613636, 0.077760264, -0.0003678037, -0.026544811, -0.04414474, -0.06309382, -0.054946344, -0.04011713, -0.022644589, -0.017577708, 0.12622276, 0.040728748, 0.022296166, -0.1675053, -0.08733173, 0.16826841, 0.025419274, 0.10388696, 0.03174555, -0.06267778, -0.028937912, 0.003367, -0.16716635, 0.03138093, 0.062278274, 0.030048577, 0.032087736, 0.18558206, 0.14292157, 0.053811204, 0.16918541, -0.0032153795, 0.035353653, 0.1288003, 0.04374067, -0.06065093, 0.12332357, 0.05175186, 0.024323381, -0.10219371, -0.1042207, 0.05229341, 0.106833935, 0.027247077, -0.026479052, 0.02312581, -0.07308109, -0.033451136, -0.13678728, -0.03457958, 0.07120922, 0.030173168, 0.07417314, 0.02247986, 0.024923362, 0.01990364, 0.09649596, -0.13262165, -0.092392415, -0.035744984, 0.06451646, -0.046253476, -0.060101207, 0.15984532, 0.10496791, 0.06439618, -0.05767007, -0.023377785, 0.043724556, 0.030164065, -0.09901556, -0.05860444, 0.010371861, -0.020653792, 0.105783194, 0.108508036, 0.056139022, -0.08606962, 0.18693218, 0.046274442, 0.03446033, 0.16430768, 0.050451823, -0.20216598, 0.12681058, 0.15438198, -0.14689922, 0.044121284, -0.026902495, 0.15659866, -0.077398, -0.07334982, 0.005486301, 0.051167056, 0.04693008, -0.030138541, -0.038796835, -0.013197565, -0.05121786, -0.14655885, -0.042079184, 0.0050345054, 0.040856324, 0.004980264, -0.04086663, 0.0799092, 0.13608731, -0.07634953, 0.09607528, 0.014976876, -0.17693496, 0.10701733, 0.07917113, -0.115749925, -0.026852211, -0.04779102, -0.110838704, -0.004032221, 0.1459032, 0.027587075, 0.07653806, -0.07307068, -0.07943371, 0.0786973, -0.009034422, 0.06788269, 0.073007345, 0.058324877, -0.08088629, 0.0024750596, -0.12202163, 0.0100834565, 0.040404566, 0.053417463, 0.16946717, 0.15557685, -0.013907765, 0.027329132, -0.11887398, 0.047946867, 0.007554232, 0.14940707, 0.100957364, -0.07030914, -0.15137993, -0.039569724, -0.018335024, 0.023965474, 0.1283794, -0.03640901, 0.039053123, 0.0024303114, -0.042737424, -0.0034763853, 0.0001178318, -0.08789844, 0.06355103, -0.14963005, 0.19511308, 0.0391306, 0.17033601, 0.029790105, 0.08088429, 0.15483016, -0.050217107, 0.039945457, 0.16391098, 0.111726515, 0.07718764, -0.024837477, -0.1402686, 0.094432876, -0.035963774, -0.00091243576, 0.0030621653, 0.052703254, -0.07882173, 0.12365801, 0.08467348, -0.07901889, 0.004647017, 0.05209035, 0.060323033, -0.058955457, 0.15413587, 0.012220521, 0.027881913, -0.08230763, 0.05147279, -0.0019762411, -0.07563433, -0.06797647, -0.11297798, -0.11441531, 0.060079414, 0.010460626, -0.13221878, -0.0030745058, 0.04791062, 0.09449453, 0.13271405, -0.14341146, -0.048745908, -0.06879979, -0.06177035, -0.06353718, 0.039901733, 0.06842868, 0.18902579, 0.1147838, 0.049454864, 0.027653087, 0.03344772, -0.1621572, -0.010751779, 0.032798473, -0.039328374, 0.0655328, 0.12369199, -0.06104556, 0.07169561, -0.103328176, 0.07591523, 0.089538306, -0.13560787, -0.05561501, -0.087680005, -0.08887501, 0.07865157, 0.033325184, 0.004948392, 0.123584904, -0.08709366, -0.015503644, -0.027024055, 0.03389014, 0.111782685, 0.015874734, -0.06503452, 0.057223734, 0.016325755, 0.05753051, 0.07776174, 0.11860295, 0.13380592, -0.15020795, 0.08832266, 0.15392123, -0.0829097, 0.07771958, -0.051669378, -0.067089126, 0.1565737, 0.14734912, 0.030515123, -0.011757549, 0.022307431, -0.059378557, 0.022569457, 0.0422916, 0.08101117, 0.04802543, 0.05760186, -0.078795806, 0.0549783, 0.03884895, -0.05734404, 0.03990023, 0.020411948, 0.19132246, -0.016269479, -0.0124374, -0.07481694, 0.07018064, 0.11405061, 0.04685832, -0.08361382, 0.1002744, -0.05511033, -0.057701044, -0.16655634, 0.017206138, -0.050408177, 0.110806145, 0.1758342, -0.0250772, -0.051135138, -0.10214667, -0.0133143235, 0.10552185, -0.06369058, -0.18942377, 0.13500805, -0.17177474, -0.07260996, -0.04293421, 0.024341939, 0.022651175, -0.053026207, 0.025762552, 0.1275748, 0.046734177, -0.050544247, -0.021823993, -0.10964542, -0.004989818, -0.03356206, -0.17640382, -0.08307016, 0.16801389, 0.14324921, -0.1518485, -0.07416353, 0.021803286, 0.06586957, -0.030645212, 0.0030660916, -0.111382715, 0.17137873, -0.10690881, 0.010725967, -0.0028181705, 0.012450946, -0.08263882, -0.0048804083, 0.0981815, -0.025019992, 0.060955625, 0.068149626, -0.01949921, -0.010577958, -0.122431554, -0.08790331, -0.12966509, -0.03773086, -0.04072871, 0.0006392694, 0.029532656, -0.0043975273, -0.02425373, -0.11617284, 0.027388386, 0.040831693, 0.05993074, -0.05191814, 0.06227779, -0.06692711, 0.050624225, -0.076172985, -0.08933899, -0.1930109, 0.044685446, 0.10671978, -0.04402452, -0.17333804, -0.02591415, 0.17072941, 0.03667786, 0.0020930616, 0.060564823, 0.118070185, 0.114491425, -0.101377204, -0.16889119, -0.14895897, -0.046728056, -0.15959665, -0.014211247, 0.0870847, 0.11477179, -0.016818287, -0.16578647, 0.050539397, 0.16332987, 0.079473354, -0.13317688, -0.03364991, -0.104628265, -0.0493624, 0.061481826, -0.18167241, -0.16640472, 0.02824286, -0.055211246, -0.075653195, 0.03225247, 0.0769964, 0.032799624, -0.074307725, -0.017162437, -0.078658, 0.084469154, 0.020854302, 0.073901854, -0.10510199, -0.015260067, -0.15086383, 0.032939952, 0.03292277, 0.035781216, -0.14873402, 0.014683773, 0.10347017, 0.0026276733, 0.09785005, 0.09613702, -0.0766843, -0.05672489, 0.06651254, 0.010012139, 0.075516626, -0.06558743, -0.11769502, 0.035950564, -0.03279235, -0.03586867, -0.0383179, 0.020284008, 0.05224167, -0.090451084, 0.17941552, 0.1895602, 0.12848665, 0.04114328, 0.072096474, -0.06076981, 0.038203456, 0.06616484, 0.05662417, -0.017710162, 0.099478625, 0.056056462, 0.1268865, -0.043818418, 0.023892004, 0.08241263, 0.075619556, -0.114952505, -0.002575569, -0.020140495, -0.00010297733, -0.021399379, 0.1872352, -0.1299397, 0.078108095, 0.0042853174, 0.03076398, -0.0770031, -0.13789138, -0.06563644, 0.0005540101, 0.18607974, -0.16013207, 0.04536524, -0.11606653, -0.09225224, -0.13172609, 0.17098626, 0.045721278, -0.05131392, 0.058897667, -0.12973483, 0.016221894, 0.15301259, 0.10793376, -0.021228043, 0.1128168, -0.0616, -0.04060865, -0.045352776, -0.0528039, 0.09708076, 0.086856104, -0.05801976, 0.093366206, -0.0671015, -0.13315132, -0.015412323, -0.08976667, -0.056879606, 0.02763233, -0.099613346, 0.016721616, 0.05654072, -0.0050812485, 0.1478636, -0.0958243, -0.013064661, 0.17622124, 0.15943272, -0.03259598, -0.07331353, -0.004121176, 0.040127806, 0.056342717, -0.12550159, 0.1367179, -0.13863102, 0.06816242, -0.08534007, -0.067947306, -0.074560985, -0.12341427, 0.15061684, 0.17273657, 0.054762866, 0.118435025, -0.05682841, 0.08024033, -0.15403624, -0.0029063062, 0.017681146, 0.092548564, -0.048559744, 0.0037589644, -0.08626344, -0.0554211, 0.030258587, -0.05496775, 0.060109053, -0.08646694, 0.008057087, -0.03752389, 0.17700298, 0.012230658, 0.07823127, 0.07973224, -0.04822028, -0.012552717, 0.116702035, -0.007924633, -0.042443424, -0.08651499, -0.08223442, -0.11406794, 0.044161692, 0.14786004, -0.014270764, 0.020861318, -0.019386621, 0.088379845, 0.14568469, 0.04445763, -0.043911133, -0.082721375, 0.118882395, 0.019306675, 0.013105917, -0.118886806, 0.013087146, 0.08590427, 0.11998447, 0.016286053, 0.053802855, 0.04468755, 0.120753326, -0.16308613, 0.119670175, -0.10586311, 0.07348208, -0.016092643, 0.0043227538, -0.050272334, -0.003481903, -0.11141845, -0.051319752, 0.12845142, -0.03701831, -0.16649449, 0.041388355, -0.0029979828, 0.021695498, 0.01799515, 0.05426526, 0.20823462, -0.09775116, 0.027514927, 0.11082072, 0.02794565, -0.12800114, 0.09267203, 0.08277721, 0.049183745, -0.06214542, -0.030505853, -0.073716775, 0.08349772, 0.062056866, -0.103695944, -0.050837807, -0.19306497, 0.12110584, 0.111867644, -0.046981744, 0.037744563, 0.025642892, 0.015661366, 0.12270734, -0.059490375, -0.03092944, -0.1379959, 0.061725613, 0.11465636, 0.019051358, -0.05204262, -0.010458183, 0.13814823, 0.024894463, 0.033064492, -0.07661381, 0.16223827, 0.032910716, 0.117802806, 0.07478616, -0.058148835, -0.051015772, -0.113105275, 0.0047536804, -0.17368537, -0.04076034, 0.077120386, 0.0042537777, -0.03647378, -0.11133865, 0.011377535, 0.1596115, -0.02349023, -0.106958635, 0.13344128, -0.010873927, -0.05165385, 0.023784116, 0.1571992, 0.06719911, 0.064511456, -0.025246099, -0.046448722, -0.1370106, 0.043822814, 0.069477454, 0.039074037, 0.1470484, 0.096406855, -0.17182781, 0.100258276, -0.14831196, -0.003672953, -0.09909088, -0.035385165, 0.16171186, -0.07844998, 0.069066465, -0.10812946, 0.117560424, -0.16809241, -0.04554648, -0.07201026, -0.021978095, 0.081183545, -0.072561406, 0.035921786, -0.10282684, -0.10928704, 0.095538326, 0.026669621, 0.050028656, 0.012995853, -0.10063908, 0.023451095, 0.1037387, 0.062234744, 0.09974592, 0.10921135, 0.027641574, 0.1533494, -0.035390895, 0.10166588, 0.092545435, 0.026292924, -0.05497585, -0.019713243, -0.047763184, 0.02626541, 0.0017367852, 0.14443809, 0.1511492, 0.005891677, 0.13047934, 0.043001022, -0.13049228, 0.023531744, 0.032670155, -0.007674684, 0.103637464, -0.1490303, 0.020560026, -0.011559793, -0.077577196, 0.18691763, -0.005359965, -0.13048372, 0.12642474, -0.038573816, -0.062559135, -0.016490124, -0.0056576305, 0.14496249, -0.18384273, -0.097801045, -0.12418265, -0.11563183, 0.15675451, -0.068202704, 0.038668264, 0.006132653, 0.04019769, -0.095418595, 0.120115556, -0.071823984, -0.054760456, -0.027037203, -0.0018635842, 0.15614623, 0.14058854, -0.06691444, -0.09164799, 0.081924476, -0.13933817, 0.13070895, -0.005280928, 0.16585757, -0.037941627, 0.01879713, 0.04355754, 0.087007985, 0.10624748, 0.01041939, -0.16828015, -0.052583724, -0.016675966, 0.021418061, 0.085780464, 0.043303773, -0.117514014, -0.15925983, 0.057448544, -0.11833822, -0.16171154, 0.0034579597, -0.116441116, 0.17187731, -0.054112505, 0.09100849, 0.18507645, -0.105547875, -0.07666435, -0.019240992, 0.06634497, -0.13603675, -0.093301274, 0.08411203, 0.16455583, -0.027698506, 0.06307219, -0.109156445, -0.115547195, -0.13700421, 0.057051867, 0.03310921, -0.028813386, 0.037889518, -0.05358378, -0.05245557, 0.1346176, 0.09465759, 0.010711093, -0.16948666, 0.06879955, -0.043941367, -0.14101036, -0.086130105, 0.072705716, 0.09060107, -0.03631545, 0.060357742, -0.0017624769, -0.120988324, 0.1775746, 0.14010727, 0.14560191, -0.01654413, -0.054082543, 0.03202641, -0.14456977, -0.08757744, 0.054573428, 0.10886529, 0.057844497, -0.13363333, -0.06634346, 0.15480258, 0.050606076, -0.007487873, -0.113290645, 0.09747439, -0.18627252, 0.04549755, -0.02269067, 0.107337356, -0.091626726, 0.007414345, -0.022818107, -0.038147777, 0.08253318, 0.1296173, 0.12211353, -0.056943234, 0.10127287, -0.09452266, -0.011392165, 0.0040133083, 0.056156617, -0.11714653, 0.029097157, -0.06962603, 0.002889278, 0.0031797467, -0.029472152, 0.09455268, -0.07997077, 0.038373217, 0.026051324, -0.08917162, 0.15381306, -0.0570617, 0.04836306, -0.043187946, 0.028399058, -0.09087507, -0.12581103, -0.060573734, 0.0123724565, 0.020423187, -0.048299585, 0.032286294, 0.036271095, 0.16346972, -0.029058702, -0.07100844, -0.0937925, 0.015644383, 0.0043346616, 0.07165114, -0.060229786, -0.090974145, -0.043828115, 0.023324052, -0.11839344, -0.07496249, -0.065019034, -0.12167928, -0.07133057, 0.054825425, 0.05167982, 0.074153654, 0.11532168, -0.069313034, 0.10647934, 0.06879417, 0.01173911, -0.07586124, -0.090855576, -0.009208776, -0.031853497, 0.012779384, 0.13736032, -0.07537439, 0.14770725, -0.14695787, 0.11333417, 0.04613604, -0.07674266, -0.08912785, -0.031197917, 0.091849566, 0.10630781, -0.024282208, -0.11466196, -0.04541349, 0.058299758, -0.045843784, 0.0069525833, 0.09098512, -0.09534245, -0.09373965, 0.0043321606, 0.059127886, -0.07421645, -0.03465414, -0.004908882, -0.028866205, 0.08327514, 0.014168781, 0.0025263284, -0.08002085, -0.09482138, -0.022458367, -0.07999756, 0.04991048, 0.036447607, 0.15066925, 0.07134424, 0.109895594, 0.09690681, 0.016880115, -0.07049401, -0.12324533, -0.090516575, 0.059755202, 0.11459054, 0.06033402, 0.05817988, -0.05779787, -0.14379208, -0.16177037, -0.0595187, -0.047603067, 0.048387695, 0.10871939, 0.016353633, 0.0390113, -0.05257843, -0.09878635, 0.01726372, -0.11447191, -0.012840744, -0.08015791, -0.09742071, 0.020024419, -0.023664018, -0.05631378, 0.0653975, -0.036775302, 0.035155326, 0.018489832, -0.1236503, -0.037536073, 0.120681815, -0.053606167, 0.0077976445, 0.01351526, -0.14355838, -0.071540534, 0.013567779, -0.081347466, -0.11589299, 0.11289516, 0.049004484, -0.075834975, 0.055656128, 0.08685712, 0.08968411, -0.09204056, 0.010341439, 0.01539435, 0.12397082, 0.041905507, 0.13189486, -0.057802606, -0.08026266, 0.061629023, 0.11318255, 0.13432713, -0.0012365893, 0.075327456, 0.118780665, -0.06640277, -0.0774204, -0.031032192, -0.09938672, 0.08538016, 0.053457547, 0.0037969449, -0.0079536615, -0.034385953, -0.06020369, 0.10607108, 0.031961795, -0.028459692, 0.054616474, 0.09076654, 0.005082446, -0.17674398, -0.07316075, 0.12313132, -0.050033372, 0.044604406, 0.014238853, 0.007448938, -0.018541714, -0.084075026, 0.044375017, -0.06640601, 0.02255815, 0.049322892, 0.09415798, -0.06318462, 0.10542908, 0.038959954, -0.080492355, 0.083946265, -0.1314379, -0.16706452, 0.010778922, -0.124590375, 0.07608396, 0.07847127, 0.14585619, -0.06942849, -0.108692184, 0.15959999, 0.026095422, 0.064144075, 0.13637948, 0.025217503, -0.1263462, -0.062604494, 0.0763409, 0.09086202, 0.130892, 0.037029438, 0.13251364, 0.11478523, -0.10618817, -0.07417013, 0.07559491, 0.023516124, 0.13675639, -0.017440306, -0.003083089, 0.0949565, 0.030224524, 0.025766479, 0.044550702, 0.040026315, 0.102762364, -0.06413341, -0.093939416, 0.078152195, -0.09462621, -0.07204964, -0.052006707, -0.072196364, -0.049696814, 0.028768579, -0.15470271, -0.030345248, -0.0117756855, -0.10653825, -0.073148884, 0.00085058546, -0.0047800425, 0.012399816, 0.06285645, 0.04328401, 0.1745738, 0.061291505, -0.039650697, -0.06326277, -0.05271007, -0.05825475, -0.15875487, 0.0032549412, 0.0027619782, -0.1257829, 0.09365251, -0.07633641, 0.038897112, 0.07316268, 0.09266137, 0.010844598, 0.19608992, -0.13400112, -0.10843207, -0.0635335, -0.100777276, -0.098469794, 0.11926113, 0.036237333, -0.091948554, 0.01087124, -0.03166317, -0.16613446, -0.0010794069, -0.1105349, 0.0011341625, 0.12453166, 0.19224328, 0.17539969, 0.120578066, 0.019873198, 0.014827597, 0.18767795, -0.004906068, -0.043738436, -0.050021403, 0.050131474, -0.020044293, 0.052871477, 0.01579393, 0.07033898, -0.13792546, -0.05068391, -0.10174874, -0.022067284, 0.1153372, 0.08668344, -0.04229948, 0.11685163, 0.12228395, 0.088100344, 0.07637761, 0.053886693, -0.021928124, 0.10787418, 0.11931097, -0.08246396, -0.16043758, -0.04879664, -0.09832524, 0.045533855, -0.1042928, -0.12761833, 0.12081335, -0.019429944, 0.013725269, 0.078020394, 0.05856117, 0.059313565, -0.009896421, 0.11010231, -0.16356596, 0.02653237, 0.19276449, 0.03440828, -0.13551368, -0.061855625, -0.044784952, -0.036025256, -0.01797143, 0.112769, -0.07026374, -0.07122429, -0.13585019, 0.047613386, 0.06046582, -0.062564634, 0.12208713, 0.03375963, -0.14557502, -0.14304644, -0.0067606936, -0.1480721, 0.026906865, -0.06023213, 0.041742794, -0.023573095, -0.09470016, -0.031000143, 0.19828582, 0.013723315, -0.117891215, -0.1987511, -0.06602375, -0.117859006, -0.0025034738, 0.06347868, -0.04932052, 0.10634116, 0.0707921, -0.09517782, -0.08317275, -0.06690397, 0.0017800945, -0.0013529802, -0.08206355, 0.04405214, 0.0019588706, 0.13870682, -0.105607316, 0.035203476, 0.12525433, -0.06891194, 0.15731879, -0.0880274, -0.03788047, -0.012271003, -0.031991046, 0.076745115, 0.02271888, -0.013984902, 0.11131215, -0.042843904, 0.013355219, -0.003196188, -0.05878335, 0.056557007, -0.0042922134, -0.04752676, -0.17015073, 0.018245306, -0.04764484, -0.12002228, -0.019902058, -0.092422105, 0.045746617, 0.02115314, 0.060585886, -0.1328839, 0.120639406, 0.04691262, 0.12043668, -0.16884398, 0.18236192, 0.0027229218, 0.07892215, -0.184846, 0.14306709, 0.06963321, 0.074946, 0.009974748, 0.052798063, 0.017855484, 0.07238896, 0.018334476, 0.078610905, 0.07146397, -0.15458995, -0.16196671, -0.060620114, 0.043271683, -0.06848269, -0.08131294, -0.09404064, 0.06728137, 0.04617702, 0.07074546, 0.12028954, -0.08293768, 0.0269964, -0.16837965, -0.06830132, 0.17494035, -0.01550995, 0.004110766, 0.176878, -0.035585742, -0.017226944, 0.15651575, 0.14125657, -0.035764255, 0.15321755, -0.14448759, 0.016881058, -0.011902921, 0.080217205, 0.058505, -0.057594374, -0.047396623, -0.083523706, 0.052052144, 0.043532256, -0.05818625, -0.13144144, -0.07166371, -0.15699078, 0.11614531, 0.002421531, 0.10349956, -0.10298054, -0.19893812, 0.1198687, -0.07196083, -0.08450962, 0.18548225, 0.09311183, -0.09097805, 0.07744144, 0.049812716, 0.07675874, 0.010887307, 0.011141463, -0.17381187, 0.05004158, -0.126929, 0.07085137, -0.032127008, -0.18883796, -0.1284153, -0.06538571, 0.027550327, 0.16615082, -0.06125809, 0.10427829, -0.008135838, -0.06457117, -0.105454795, -0.17839214, 0.034240603, 0.053255722, 0.11697248, -0.04141255, -0.19888796, -0.05854337, 0.016604332, -0.005067328, 0.0074310983, -0.15559396, 0.010558607, -0.18545611, 0.12757073, 0.08831105, -0.014643556, -0.04297464, 0.099305406, -0.21027815, -0.068640284, 0.005630875, -0.11895663, 0.018495958, 0.061722163, -0.11653539, 0.14403386, -0.15929751, 0.005273544, 0.08899849, -0.14579467, 0.13996205, -0.013690095, -0.08965527, 0.067142725, -0.042982638, 0.06685465, -0.05868897, 0.04491268, 0.07882245, -0.090802245, 0.12635571, -0.013622207, 0.16846083, -0.07142763, 0.024293182, 0.030604428, -0.08052256, -0.018655023, 0.14308265, -0.16496247, 0.12691684, -0.14707354, -0.0011392357, -0.029801322, 0.111254424, -0.011711737, 0.04519318, -0.15373208, -0.03548584, -0.12637618, -0.0123738805, -0.11158562, 0.09497493, 0.19818057, 0.09539118, 0.09840338, -0.021076554, 0.018133542, -0.045213126, -0.06838633, -0.09621148, 0.03049096, -0.09429078, -0.012221669, 0.14942293, -0.03661653, 0.017487744, -0.07364798, -0.05911872, 0.06994169, 0.010007612, -0.037208166, 0.082745664, 0.08365002, 0.039599016, 0.07126169, -0.14840886, -0.0034943745, 0.021030389, -0.086517826, 0.111482464, 0.05698978, -0.10197972, -0.18570438, -0.031062528, 0.0957166, -0.022649854, 0.06108775, -0.02574202, 0.023360971, -0.00041505785, 0.08631894, 0.14260401, 0.06485274, 0.18719642, -0.17792745, -0.09626134, -0.14326742, -0.032071665, 0.08219506, -0.18988283, 0.16107304, 0.12486505, 0.048617058, -0.10090966, -0.031778876, -0.12997815, 0.09919859, -0.03386887, -0.041120723, -0.06499523, -0.09358768, -0.08409094, 0.04586339, 0.0004751774, 0.09271108, -0.0632335, -0.021214396, 0.02597574, -0.014279788, -0.016112193, 0.009854781, -0.10985404, -0.14218223, -0.016936762, 0.026889939, 0.0146908555, -0.026545558, 0.023060925, 0.059590884, 0.08239623, 0.1855659, 0.0377076, -0.120513745, -0.19349582, -0.18284906, 0.015289373, 0.051986877, -0.016127517, 0.15878478, -0.14797601, -0.005480289, 0.064880475, -0.19183742, 0.036841616, -0.0014682823, -0.07572772, 0.009709376, 0.14683644, -0.06843439, 0.016973156, 0.018155444, 0.1417784, -0.02934278, -0.015874244, 0.04732642, 0.022753412, 0.011523958, -0.06453163, -0.11961595, -0.04041649, -0.10446272, 0.11268534, 0.00019217376, -0.017390514, -0.116752766, -0.10170453, -0.16569628, -0.058984462, -0.05842506, -0.06138111, 0.059267484, 0.06897257, -0.095016085, -0.009216014, 0.13662107, 0.035767775, 0.12534158, 0.055499163, -0.03318771, -0.068815984, -0.083447285, 0.054082286, 0.0057625007, -0.0057741925, 0.06923553, -0.12194285, 0.18092011, -0.07924395, -0.013090489, -0.13273373, -0.013078168, 0.058092173, -0.032741155, -0.015884578, 0.037670877, -0.040658273, 0.0033964906, -0.105034135, -0.011139712, -0.04181153, 0.091419026, 0.054278467, -0.016568478, 0.008757623, 0.008465007, -0.07957609, 0.092991784, -0.19401218, -0.009943293, -0.15040447, -0.06301776, -0.09859967, -0.00922978, 0.072842106, -0.12569709, -0.0019276314, 0.034974344, 0.17355157, 0.006165221, 0.07609508, 0.10064593, -0.118119046, -0.101832606, 0.08326113, -0.071924224, -0.03843833, -0.18921691, -0.111875, -0.006140198, -0.0350979, 0.191662, 0.14078009, 0.059311498, -0.14785047, -0.11095532, -0.10635461, 0.08126288, -0.026353937, 0.07956154, 0.14466098, -0.06930873, -0.030843824, 0.18902032, 0.1695759, 0.124972224, -0.15792142, -0.09148579, -0.015247748, 0.15811883, -0.025193578, -0.13612036, 0.14557719, 0.02184474, -0.18796556, -0.11520162, 0.044472482, 0.11584049, -0.063604996, -0.04255983, 0.025396904, -0.16918994, 0.018303655, -0.009837616, 0.07384536, 0.09132885, -0.01065098, -0.12095736, 0.07185388, -0.0076786326, 0.008365167, -0.028299754, 0.04411122, 0.200813, 0.015110749, -0.102624156, 0.11688477, 0.06483293, -0.04046068, -0.037514508, -0.0717099, 0.14605081, -0.025190987, -0.06510856, 0.013695929, 0.14608586, 0.12734479, -0.013181661, -0.039338995, 0.057900395, 0.11530525, 0.1540923, -0.12930301, -0.050241258, 0.09848882, 0.04859625, -0.017734144, 0.035258446, -0.042245377, 0.012734224, 0.1853012, 0.03850573, 0.06622991, 0.051227376, -0.00071300735, -0.09645773, -0.014393403, 0.11753765, 0.036355898, -0.05624734, 0.021276109, 0.09180421, 0.124417834, 0.10519362, 0.09920626, 0.036645345, -0.14067024, -0.15937507, 0.0073723523, -0.054324277, -0.09544842, 0.14879505, -0.01143443, 0.2003774, -0.0313168, 0.049997482, -0.006285488, -0.008901088, 0.035471484, 0.055924095, -0.054314326, 0.013486284, 0.076655924, 0.09220761, 0.010707008, -0.117328905, -0.049543265, 0.046113, -0.088841744, 0.03083417, 0.09534892, 0.03636132, 0.104263015, -0.025573602, -0.17847165, 0.012180355, -0.048408773, 0.12092911, 0.13637789, 0.06811352, -0.06240707, -0.12235723, 0.054909557, 0.09794027, 0.086852305, 0.0408495, -0.0003431505, -0.00014934488, -0.029780997, 0.093926325, 0.08171226, -0.050595168, -0.051206674, 0.07593352, -0.14067188, 0.0052317786, 0.1378229, -0.19755912, -0.016206155, 0.08908079, -0.067560084, -0.02691387, -0.13781014, 0.17105182, -0.08785446, -0.013940252, -0.15515572, -0.106202215, -0.13790561, 0.105013706, -0.08087167, 0.0021495894, 0.02536161, -0.039691832, 0.11863543, -0.07869412, 0.06570833, -0.11319219, 0.018903429, 0.04456812, -0.095466, 0.047310337, -0.121537924, 0.071431346, 0.011704765, -0.12925604, -0.040387407, 0.012128837, -0.04259668, 0.040710818, 0.016393153, 0.06915534, 0.0516547, 0.075798266, -0.057515137, -0.11238709, -0.08578982, -0.01733598, 0.03455146, -0.10459327, -0.09679682, 0.067337684, -0.1343077, -0.09698644, -0.0072170603, -0.13790476, -0.036566522, -0.065022714, 0.0043822126, 0.13772309, 0.15504946, -0.0933093, -0.067686476, 0.027041573, -0.092445284, 0.004438566, 0.012522073, 0.035864294, -0.16244744, -0.028306188, -0.024942175, 0.060392786, 0.12388416, -0.09424167, -0.09386864, -0.086851306, 0.056883123, -0.03778668, 0.036024418, -0.060193572, -0.011963407, -0.1556128, -0.008523686, -0.10896714, 0.010719666, -0.054184854, -0.08220823, 0.012614968, -0.011365919, -0.007725128, 0.0019385008, -0.14778377, 0.17736158, -0.029530054, -0.05213273, 0.044171516, -0.07568096, -0.008479857, -0.14129323, 0.05615985, 0.15881866, -0.008001696, 0.019667074, 0.025092112, 0.035290167, 0.08928082, 0.011764474, -0.017202763, -0.017903263, -0.02837618, 0.015807955, 0.04876194, 0.018427663, -0.03800811, -0.16831823, -0.14673065, -0.059530407, 0.17018333, 0.040191256, -0.03315005, -0.13988495, 0.101444654, 0.0024897794, 0.17588459, -0.043102678, 0.1097742, -0.11792687, 0.028289653, 0.1285426, 0.07448421, 0.08281176, 0.043108158, 0.08794445, -0.012717494, 0.052701566, 0.013972398, 0.039042898, 0.083045356, -0.1481414, 0.03395933, -0.071333155, -0.08337216, 0.12267553, 0.115454376, -0.08895204, -0.12860712, 0.023399303, -0.015928922, 0.028907305, 0.07334143, -0.09934222, 0.0036841354, 0.0010499753, -0.066203915, 0.023000399, -0.14279379, -0.030825742, -0.1580381, 0.16886134, 0.09027261, 0.069803946, 0.09278217, 0.14123446, -0.1391657, 0.042307165, -0.0034047381, 0.19418338, -0.0390443, 0.012837935, -0.11494587, 0.029700557, 0.16098967, 0.0937706, -0.054906197, -0.027496299, 0.009929852, -0.17083058, 0.11114613, 0.014724934, -0.008587079, -0.11411701, -0.16244675, 0.038824674, 0.05394536, -0.076751955, -0.10744301, -0.030224934, -0.03221119, -0.033590678, -0.022154924, -0.0076218066, 0.08806084, -0.044699244, 0.09569458, -0.06606184, -0.12536125, 0.03465824, -0.053282253, -0.17504765, -0.014513526, -0.041462608, 0.108891584, 0.0634516, -0.05202226, 0.0165705, -0.031156028, 0.14461657, 0.10132334, -0.014003567, -0.15309532, -0.005645545, -0.061506413, 0.043252103, -0.10671703, 0.161775, -0.018390577, -0.0055857296, -0.010819206, -0.10919677, 0.110149555, 0.028813576, -0.029860847, -0.014904596, -0.01874366, 0.02845945, -0.09068264, -0.02078815, -0.005665845, -0.040241778, 0.031402268, -0.049172085, 0.057893254, -0.07515605, -0.060840998, -0.04401361, 0.11976668, 0.071226105, -0.04221113, 0.07815059, 0.0129104415, -0.088053785, 0.07513255, 0.141829, 0.028068027, 0.14670722, 0.09060731, 0.032349072, -0.107174546, 0.02614787, 0.1325848, -0.013455401, -0.017179962, -0.0019756411, 0.0021938337, -0.1675716, -0.2075897, -0.12820373, 0.00084653706, 0.046089534, -0.14124364, 0.09712777, -0.056808695, 0.058011115, -0.072888784, -0.12281127, 0.13384208, -0.0017515328, 0.1032632, -0.1560237, -0.016181761, 0.0906523, -0.046834663, 0.14571, 0.19956996, -0.15226755, -0.13357069, -0.0216286, 0.013411745, 0.09899908, 0.023423757, 0.07411629, 0.012978971, -0.011820052, 0.07922143, -0.09406843, 0.07974024, 0.039393473, -0.10447391, -0.0328816, 0.099626295, 0.18631491, 0.029449273, -0.12873767, -0.038420428, 0.20152067, 0.015074303, -0.20140533, 0.0684295, -0.063397564, -0.051145487, -0.09722805, -0.14185637, 0.050567195, -0.015603035, -0.027757205, -0.18205667, 0.044770572, -0.008917495, 0.09483728, -0.13632287, 0.08016069, -0.17528667, 0.0467804, -0.18255928, 0.031235795, -0.071460605, -0.107091285, -0.1584563, 0.108745135, -0.09113617, 0.06658089, -0.05333823, 0.091962606, 0.061053973, 0.17485563, 0.01238383, -0.078571446, 0.079173416, -0.059819277, 0.032589156, -0.15620373, 0.060217354, -0.079903394, -0.057923306, -0.00736946, -0.03407369, -0.1244768, -0.116215214, -0.16580297, 0.016778685, 0.11062453, -0.07884423, 0.06219894, -0.08412276, -0.11924421, 0.15260291, -0.1257637, -0.08475, 0.022578012, -0.11859861, 0.09790719, -0.09082491, 0.08497503, -0.10850737, 0.0058923364, -0.04354755, 0.1439873, 0.0011588149, -0.04005127, 0.15231715, -0.01629683, 0.09047567, 0.07565462, -0.05274453, 0.13371304, 0.09712967, -0.09289775, 0.0046402426, -0.07452069, 0.1347048, 0.080162436, 0.10743206, -0.09336652, -0.03578323, 0.10109598, -0.07968267, 0.041859232, 0.039838918, -0.10375409, -0.008419189, 0.11954955, -0.022962807, 0.1516117, 0.07820047, -0.04131277, -0.07144788, -0.057030186, -0.16785112, 0.100426115, -0.060742397, 0.12864901, 0.1111619, -0.06609438, 0.04347239, 0.047333397, -0.05873241, 0.13433021, -0.0031942485, -0.03102499, -0.11512267, 0.0371246, 0.09946927, 0.011664008, -0.076383695, 0.108050406, -0.14019145, 0.051050484, -0.032119017, -0.06289969, -0.03461292, 0.08298554, 0.10663549, 0.15067762, 0.05227366, -0.042968687, -0.011382506, -0.06691946, -0.111282274, -0.136364, -0.060412675, -0.008727357, -0.12488061, 0.014729186, -0.15382266, -0.105104476, -0.060830306, -0.010986218, 0.08010758, 0.045206986, -0.08899112, 0.04899928, -0.14812991, -0.020477613, -0.033626735, -0.011816489, -0.12024931, 0.04938661, 0.069098644, -0.051754445, -0.019503383, -0.14177638, -0.027304055, -0.10929196, -0.083262384, -0.032678697, -0.013595707, 0.14422293, -0.09917763, 0.1446303, -0.025613248, -0.05175357, -0.15560372, -0.1438274, 0.057297505, -0.06334624, 0.052450005, -0.06561098, 0.098380096, 0.07302647, -0.005599428, 0.06169147, -0.0046077985, -0.06786139, -0.05820789, -0.1593396, -0.11786256, 0.014293567, -0.0045776274, -0.031300798, 0.0017823452, 0.085247636, 0.01466904, 0.010824084, 0.047282234, -0.072202586, -0.10470203, -0.0057631116, -0.006072939, -0.08024726, 0.050073642, 0.058846682, -0.109020524, 0.014904284, 0.12782523, -0.08093802, -0.13073502, -0.095617205, -0.15330616, -0.003751042, 0.086721, -0.09220209, -0.16394289, 0.031551458, -0.030659094, -0.04897799, 0.1624222, 0.008385986, 0.034685835, 0.03965302, 0.021309135, -0.19087985, -0.19570544, -0.09027554, -0.091159426, -0.094014466, -0.018883647, -0.07603855, -0.13777116, 0.14920437, -0.057006016, -0.16908891, 0.16211179, 0.0778652, 0.052074805, 0.098252095, 0.011725599, -0.03802247, -0.1302092, -0.013020103, -0.10313317, 0.06357622, 0.12586468, 0.0610343, -0.07028026, -0.071258605, 0.03679364, 0.16853547, -0.04406628, 0.05956931, -0.129233, -0.15383415, -0.084489204, -0.06623396, 0.0027449103, -0.12770219, -0.09384133, 0.083484575, 0.1588888, -0.06584636, -0.16686183, -0.032538515, 0.10305261, -0.0057191057, 0.04277109, -0.011727099, -0.12725827, -0.12757342, 0.063058056, 0.08001984, -0.1969143, 0.06793551, 0.09934138, -0.007003138, -0.046432618, -0.03325069, 0.07278975, -0.018239671, -0.09083673, 0.033815958, -0.16906989, -0.06355819, 0.043148343, -0.13703911, 0.014218575, 0.026388597, 0.046809126, 0.086099125, 0.05210941, -0.06523116, 0.02821111, 0.07932002, 0.015790109, 0.082712315, -0.12378268, 0.11794189, 0.14573754, 0.10975695, 0.03913077, -0.02988834, 0.0077403346, -0.007223764, 0.1509853, -0.020986551, 0.16441631, -0.11040475, -0.066360004, -0.07660902, 0.1844347, -0.029280838, 0.17400259, 0.0424762, 0.018731147, -0.0036286733, -0.02171053, 0.10369598, 0.007262194, -0.023620166, 0.12002174, -0.16588452, 0.029551558, 0.0037035658, -0.124742545, 0.07365881, 0.03262666, -0.059088934, -0.095102444, -0.09883355, -0.03819629, -0.007602072, -0.112235546, -0.0332323, 0.053745557, 0.09628433, 0.06906325, -0.057908848, 0.004440171, 0.030938873, -0.05567007, -0.029486235, 0.08788709, -0.025643889, -0.14906543, 0.096156396, 0.092624865, 0.104322605, 0.04134268, 0.060465008, -0.12150008, -0.08706617, 0.08900945, -0.09960531, -0.012117143, 0.067050144, 0.08888279, 0.046599187, -0.07709605, 0.025420876, -0.0075588296, -0.062286764, 0.11417875, 0.0011457164, -0.03964892, -0.14037496, 0.15396684, -0.009455007, -0.16217954, 0.040071137, 0.09416466, 0.036575735, 0.022875316, 0.077980116, -0.06585397, 0.03019806, -0.006165646, -0.06020569, 0.09965783, 0.013557116, -0.123917185, 0.08828935, -0.10234663, 0.019729579, 0.1204006, 0.029430173, -0.016463976, -0.017043786, -0.027279755, 0.0021983325, -0.064589456, -0.07023491, -0.01653037, -0.19077171, -0.039379094, 0.027102523, -0.044676825, 0.12894034, 0.078550674, 0.13775846, 0.0155453505, 0.06391318, -0.0033332226, 0.06796958, -0.17238906, -0.09920762, 0.15346336, 0.0460987, 0.07608202, -0.089395024, 0.033070646, -0.10997131, -0.15327546, -0.013994078, -0.054061923, -0.086761445, -0.061849326, 0.019739615, 0.041331057, 0.06269684, -0.06329843, 0.109469265, -0.101546355, 0.08523493, -0.19079682, -0.07940902, -0.08378405, 0.12615755, 0.0283399, -0.04302194, -0.0074505676, 0.033716585, -0.17597206, 0.056404304, 0.17066921, -0.053287197, 0.1466993, -0.07363261, -0.07587413, -0.0057951165, -0.18382621, -0.07325229, 0.0378417, -0.13611695, -0.0064361724, 0.08845071, 0.11731732, -0.09984653, 0.07142416, -0.028302385, -0.03627345, -0.07692621, 0.023620429, -0.031904683, -0.14762056, 0.04425599, -0.13632405, -0.20076428, -0.12354697, 0.12707473, 0.0031090768, -0.058981024, -0.1556044, -0.032371894, 0.13777696, -0.11777686, 0.16782771, -0.023240054, -0.13253838, 0.05514141, 0.06444866, -0.12375944, -0.012283559, 0.012599752, 0.096936755, -0.08755768, -0.058870386, -0.13655898, 0.091618076, 0.076807775, 0.023363115, -0.066657625, 0.05018549, -0.12892365, -0.057479236, 0.038385678, 0.1880767, -0.18747377, -0.08491643, -0.01926026, -0.039850604, 0.009068768, 0.018966109, 0.023612423, 0.0894993, -0.15411322, 0.022862889, -0.046518616, 0.056220625, -0.065547146, 0.07485923, 0.06723167, 0.017311042, -0.21023124, 0.17418976, 0.1195128, 0.1422546, -0.05754436, 0.08932819, -0.12648132, 0.0829429, 0.026144706, -0.036344007, -0.11299388, 0.0760854, 0.050822794, -0.097346835, -0.043314427, 0.024393098, -0.108567186, -0.09366799, -0.07071257, -0.021702569, 0.09531367, 0.012950877, -0.090896584, -0.15408476, -0.147799, 0.029238658, 0.052853145, -0.011941738, 0.1255734, -0.016855776, 0.0639756, 0.16459322, -0.050422866, -0.02760504, -0.116106905, 0.039054304, -0.05423403, 0.03696178, -0.07016871, 0.17347556, 0.08656544, 0.06557881, -0.064755306, 0.060121905, 0.05131967, -0.07930805, -0.057290953, -0.16344523, -0.04783236, -0.013313752, -0.107483044, 0.12294469, 0.0905348, -0.05003544, 0.049233638, -0.131772, -0.031504937, -0.03389876, 0.061857484, -0.0721362, -0.08932227, -0.18230496, -0.016046327, -0.09030462, -0.06904855, 5.8796668e-05, -0.07281868, 0.029314078, 0.0052352487, -0.08992265, -0.04140244, -0.072220154, 0.0060071615, -0.08274601, 0.025836451, 0.14039673, 0.0033801722, 0.17657094, 0.008738389, -0.08131625, -0.14701395, 0.07285636, 0.002033757, 0.026186578, -0.12458426, 0.1358314, -0.022888852, 0.09147681, -0.032216944, -0.15122305, 0.061735094, -0.0399918, 0.17211132, 0.069314405, -0.0062432634, 0.02460998, -0.042083316, -0.0739891, -0.11871977, -0.08267623, -0.032656133, -0.14618741, 0.03448094, -0.030732948, -0.055970866, -0.056170624, 0.049414754, 0.14976437, 0.04673863, -0.024572913, 0.0035463287, 0.013414925, 0.15974705, 0.15542385, 0.04678273, 0.0132685285, 0.012650968, 0.003568471, -0.03912665, -0.015851812, -0.072275, -0.15495934, 0.077941276, 0.1504211, -0.020795992, -0.17413573, 0.035929315, -0.14207195, 0.11410102, -0.13877067, 0.10850071, 0.013894445, -0.105433844, -0.12492349, 0.10443698, -0.1726283, -0.06209037, 0.0674308, -0.092965685, -0.026566619, -0.15083714, 0.117195114, 0.041493442, -0.10145891, -0.009861745, -0.00064046355, 0.017131964, 0.013520044, -0.029958587, 0.120415546, -0.08825081, 0.08489522, 0.03654114, 0.079293415, -0.05962975, 0.1564558, 0.07863631, -0.054742962, -0.07294068, 0.042539228, 0.027378112, -0.12454291, 0.045688048, -0.08991255, -0.05022296, -0.0066106524, 0.09490338, 0.030422071, -0.034551483, 0.11480349, 0.029260885, -0.015842287, 0.02226572, -0.09604868, 0.012859781, -0.005834501, 0.07638037, 0.018178688, 0.014082434, -0.15327786, 0.11320167, 0.040782616, -0.1376693, -0.16106315, 0.099277474, -0.059521995, 0.07873134, -0.12073707, 0.09183572, 0.034654923, -0.09710276, 0.060853437, 0.060562376, -0.109038435, -0.045793496, 0.13650271, 0.048773978, 0.016855067, -0.1278474, 0.12711044, 0.07746987, -0.097652316, -0.0038956832, -0.059267767, -0.033455733, -0.076533034, 0.05800056, 0.001418011, 0.08755567, -0.10126385, 0.1263505, -0.05785177, 0.05716407, 0.12496784, 0.14197846, 0.0013329561, 0.20415151, 0.053266626, -0.029339468, 0.13716461, -0.07598062, 0.15474853, -0.07143979, 0.13857517, -0.017946765, -0.10737909, -0.07735531, 0.048247367, -0.17432325, 0.031058464, -0.018702554, 0.11795511, -0.16104719, -0.13875633, -0.14749345, -0.097391285, 0.06372338, -0.09350252, 0.1112578, 0.19068515, 0.10182503, -0.10088791, -0.15743347, -0.18756363, 0.0044877874, -0.13752897, 0.012123682, -0.03196489, 0.045777142, -0.14806816, -0.0988416, 0.15528515, -0.061134636, -0.09291286, 0.021323228, 0.021212887, -0.03238122, 0.16494653, -0.058048196, 0.125084, -0.04194892, 0.1530347, -0.0042313347, 0.040457, -0.041349966, 0.10892169, -0.111069635, -0.040937778, -0.09074454, 0.0880559, 0.0073651485, -0.11164852, -0.07631542, -0.08959532, 0.040816873, -0.06608495, -0.00994296, 0.11377556, 0.18856792, 0.036026828, -0.120519996, -0.19591227, -0.11874896, 0.018636236, 0.14506298, 0.0070093963, -0.14457639, -0.08470723, 0.091913596, 0.033306092, 0.10529551, -0.0829585, -0.15714626, 0.04896078, 0.04599965, -0.16213728, -0.0015021757, 0.023547985, 0.02586328, 0.13111958, -0.020109814, 0.003976521, -0.1668982, -0.028730718, 0.06393619, -0.18830894, 0.026755663, 0.03772968, -0.118455775, -0.12818976, 0.13097543, -0.01589411, -0.1154707, -0.11149823, 0.010340516, 0.13554282, -0.15389219, -0.059091415, 0.16139416, 0.0468092, 0.049492784, -0.062424175, 0.11941032, -0.051493805, -0.02874467, -0.02783471, 0.10645655, -0.12971787, 0.0033920892, 0.053730607, -0.06839297, -0.0032275228, 0.0557971, -0.018876432, -0.06926821, -0.06735003, -0.015285618, -0.03950807, -0.02355738, -0.0283548, -0.1041142, 0.048476126, 0.094626226, 0.021938834, -0.01705614, 0.048752893, -0.22028202, -0.1927347, 0.07395639, 0.103234865, 0.013355961, 0.11078632, -0.08815105, -0.16122596, 0.049046796, 0.1267954, 0.034742426, -0.16216712, 0.06991582, 0.003986424, -0.068383835, -0.04032993, 0.039737575, -0.015509023, -0.06348137, 0.08122568, -0.12473744, 0.056301534, -0.11926027, 0.06028128, -0.08099959, -0.03264893, -0.042193547, 0.16242026, -0.02943332, 0.14038716, 0.13884842, -0.019000595, 0.066742755, -0.05999296, 0.02894557, 0.06171608, -0.10306493, 0.030738676, -0.084952764, -0.16651359, -0.06662623, -0.13147716, -0.11317495, 0.0027651533, 0.1781114, 0.037836052, -0.11056433, -0.11449379, -0.18205684, -0.029881017, -0.057793178, 0.025356576, -0.10000726, -0.09730266, -0.06797815, 0.13090287, -0.14276996, -0.09765862, -0.04358225, -0.04480568, 0.11323331, -0.098738626, -0.13879831, -0.050736874, -0.16464329, -0.005197797, -0.07607322, 0.0457682, -0.1904103, -0.12484517, 0.119730905, -0.0005181034, -0.100804985, 0.013956685, 0.08522007, 0.15657055, -0.1154229, 0.16539827, 0.12999815, -0.067868, -0.0016822149, 0.18697149, -0.026220279, -0.14090599, 0.00017354947, -0.11096683, -0.1457452, 0.041582428, 0.14261061, -0.045114666, 0.08268013, 0.032517463, -0.06913012, -0.09535541, -0.105406456, -1.3212601e-05, -0.04594524, -0.16347732, -0.036597285, 0.121883795, -0.02034997, -0.15910445, -0.023292592, -0.10683384, 0.08873751, -0.08455431, -0.03988276, 0.1501683, 0.058841206, 0.015132036, 0.142339, -0.105909705, 0.059147414, 0.020482898, -0.077586055, -0.13561344, -0.073029056, -0.17784342, -0.09552836, 0.122298025, 0.06703535, 0.082864776, -0.20358694, -0.122722425, -0.022127608, 0.103677474, -0.052676935, -0.13897736, -0.06680486, 0.078599826, -0.03124934, -0.11057984, 0.13894485, 0.120382406, -0.053673632, 0.12269743, -0.0118115125, 0.050825767, 0.03314373, 0.123456, -0.09139648, -0.040941227, -0.03241239, 0.04273527, 0.111738004, -0.06096909, 0.04729554, -0.10837854, -0.15012145, -0.0032115711, -0.11151084, 0.1059175, 0.1744946, -0.18512931, -0.009110305, 0.070636064, -0.06877635, -0.11116642, 0.06555765, -0.06538989, 0.06484855, -0.035215735, 0.063595876, -0.08313867, 0.09772449, -0.13946153, -0.13500527, 0.13289934, -0.18361288, 0.13199282, 0.019410765, -0.13131998, 0.12469542, -0.04301685, 0.2069661, 0.043768547, -0.091585994, 0.013686759, 0.16267878, -0.07538329, -0.09382942, 0.049692307, 0.048531, 0.04723745, -0.09580012, 0.049727608, -0.031949326, 0.053912155, 0.15967542, 0.020099554, -0.013272917, 0.06129387, -0.104553066, -0.044845715, 0.02681574, 0.067295805, -0.13391168, 0.0085851075, -0.0693115, -0.080084644, -0.04032355, -0.0015242525, -0.07066459, -0.100330405, 0.064807124, 0.09893479, 0.108649775, 0.10193112, -0.15597337, 0.11188783, -0.037371896, -0.04882269, -0.055130314, 0.039769217, -0.025654176, 0.044304762, -0.03933481, -0.19789661, -0.06519639, -0.12819834, -0.03932963, -0.059275232, -0.07978755, -0.047037326, 0.016876698, 0.04174254, 0.034222964, 0.066912495, 0.0879983, 0.034608264, 0.059280958, -0.056163955, 0.06845315, 0.13714533, 0.039127644, -0.02456179, 0.0019309073, -0.029390527, 0.06846993, -0.012857015, -0.062406544, -0.008933567, 0.16349831, 0.13344412, 0.0646348, 0.07074739, -0.020669375, 0.0033138052, -0.045947075, 0.0053701936, -0.0035805926, -0.0024477176, -0.032773405, -0.104263194, -0.09768336, 0.14563973, -0.0012621569, -0.099295765, 0.1224945, -0.044535954, -0.11477995, -0.031088622, -0.11676555, 0.10786073, -0.0866565, -0.0011457484, -0.02199347, -0.03842202, -0.07723855, 0.036690112, -0.001029648, 0.0155589115, -0.08877187, 0.012562099, -0.022883873, -0.06710187, 0.049399342, -0.016902784, 0.018694038, -0.18347992, 0.033852633, -0.043172646, 0.0067293495, 0.1770975, -0.10930592, -0.16223565, -0.11248092, 0.120216176, 0.088706344, 0.014083359, -0.052272197, 0.12580563, 0.063878, 0.080522254, 0.10160053, -0.03246764, -0.1489391, 0.011701153, -0.03419192, 0.012664291, -0.03913186, 0.038315307, -0.13601965, -0.1026439, 0.0029632722, 0.010158229, -0.14648645, -0.1164721, 0.1683693, -0.14278096, -0.047465328, 0.09593293, -0.050457846, 0.026163474, 0.027653497, 0.17238435, -0.15143701, -0.042636886, 0.15748902, -0.07588825, 0.10064143, -0.005189479, -0.017884776, 0.082857504, -0.018684197, 0.057333484, 0.038577374, 0.025535142, -0.017860532, -0.03799523, 0.07451303, -0.18648306, 0.052388236, 0.05830219, 0.082857795, 0.13268113, -0.044674527, -0.110792235, -0.056154, -0.19419795, 0.029296862, 0.1720775, 0.10685424, 0.072801545, -0.010294804, 0.006549121, -0.108171284, -0.015746912, -0.13390054, -0.028073456, -0.053186607, 0.08946232, 0.026771383, 0.00076693774, 0.07713878, -0.050571445, -0.01893454, 0.049232557, 0.13555534, -0.0315961, -0.049031135, -0.16192646, -0.046701413, 0.050865, -0.15121743, 0.07642796, 0.030325964, -0.015262156, -0.08869082, -0.007923996, 0.11723294, 0.0652518, -0.05982523, 0.07969807, 0.12908763, -0.17274112, 0.05120201, 0.035350587, 0.15004276, 0.06475005, -0.028436683, 0.014863308, -0.19590828, -0.043729987, -0.01674998, -0.15745325, 0.09157475, 0.024179922, 0.08914179, -0.08283565, -0.15119955, 0.10137532, -0.029938923, -0.04018078, -0.0058356626, 0.14938192, 0.18284154, 0.028912773, -0.047727294, -0.097273976, -0.17842883, -0.06127558, -0.06966221, 0.039232314, -0.08424515, 0.01653481, -0.065434724, -0.01060011, -0.023346636, 0.028499426, 0.12810275, 0.14188513, 0.014742147, 0.09437233, 0.06379131, 0.010779052, -0.062283874, 0.1878007, 0.108916014, 0.010152416, -0.09049217, -0.016096948, -0.08908954, 0.018914513, -0.0073514185, 0.018759832, 0.155513, -0.10777443, -0.18025276, -0.051332142, 0.061355207, 0.019907707, 0.04771348, -0.050920185, -0.08805525, -0.08242617, 0.048044257, -0.081046484, 0.11518967, 0.08459683, -0.08670059, -0.07790423, -0.04860694, 0.062428676, -0.054631393, 0.12180084, 0.03817046, -0.11234135, 0.13950811, -0.07787201, 0.17593834, 0.005058462, -0.07602355, -0.13429621, -0.02572157, 0.057680953, -0.009698267, 0.027854607, -0.080205366, 0.1243623, 0.079375096, -0.009906235, -0.042741332, 0.051643606, -0.1044328, -0.14764969, 0.012393022, -0.11925307, 0.061399516, 0.035182413, -0.00021426493, -0.04387927, 0.013230803, -0.04557494, -0.0288482, -0.013672255, -0.041001927, 0.08475539, -0.063368626, -0.0012597782, 0.18539242, 0.035828613, -0.03446603, -0.024859129, -0.07002225, -0.12100443, 0.013539542, -0.12328744, -0.030939436, 0.0015679538, -0.014159296, -0.023407714, 0.07625229, 0.13230617, 0.13821797, 0.025347771, 0.04738773, 0.012234522, 0.12048554, -0.07843354, -0.0076172985, -0.03761848, -0.046640474, 0.15215717, 0.14354233, 0.11844617, 0.11977718, 0.0121223945, -0.10557255, -0.14072049, -0.14620206, 0.064646535, 0.13502768, -0.032636836, 0.063964106, -0.10671816, -0.12398668, -0.20071033, 0.17715257, 0.14664266, 0.0046013566, -0.17682582, 0.0032470154, -0.04871099, -0.048631337, -0.02093338, -0.084248394, -0.1276528, -0.08025023, -0.12865582, -0.045920808, 0.11821087, -0.12648422, 0.13646272, 0.058597554, -0.14298701, 0.040331956, 0.05326997, 0.07773185, 0.020973824, 0.022878813, -0.009964893, 0.12974599, -0.09256983, -0.020385912, 0.012115079, 0.13212486, -0.036922142, -0.03185613, -0.06813276, -0.065748, 0.02098378, -0.054041598, -0.06899945, 0.014131316, 0.15840803, -0.07924937, -0.046141487, -0.1936609, -0.0678135, 0.028718216, 0.0180464, 0.13647634, -0.10798635, -0.037504338, -0.14678949, -0.040156253, 0.12087074, -0.10904283, -0.009852304, 0.016194362, 0.04526066, -0.021085361, -0.044520114, -0.088177025, -0.06092021, -0.028825821, 0.08123978, -0.025593352, 0.06997357, -0.030672966, 0.009006172, 0.004262852, 0.07188246, -0.09062681, 0.072313756, 0.048925422, 0.06844614, -0.17895143, -0.03900855, 0.06326848, -0.024171146, -0.11220578, -0.12724559, -0.018807128, -0.21158276, -0.0007294361, 0.09918548, -0.15248741, 0.0289842, -0.0058952174, 0.099998675, -0.06748589, 0.092057966, -0.11434401, 0.063867465, 0.13427462, -0.027609667, -0.015741706, 0.1562106, -0.10813197, -0.044289116, 0.07696698, -0.15007757, -0.08532473, -0.0594638, -0.03041271, -0.17131206, -0.01193379, -0.06667622, -0.044639796, 0.15374225, 0.07533542, 0.09158069, 0.053923126, -0.09945102, 0.057951663, 0.049965672, 0.1788802, -0.10385297, -0.008059936, -0.031956438, 0.0014407018, -0.03245668, 0.041213866, -0.09775142, 0.045441628, 0.060977377, -0.047394823, 0.07076042, 0.1378454, -0.06974765, -0.039692745, -0.05077832, 0.06685176, 0.050619338, -0.045600582, 0.10127284, -0.05586683, 0.04313172, 0.0526634, 0.027777512, -0.0030953223, 0.075149834, -0.062077716, -0.11339358, -0.0061149043, 0.034951556, 0.07189868, 0.042391468, -0.028410004, 0.109710835, -0.09841818, 0.05965307, -0.005418373, 0.15402879, -0.112119175, -0.028026447, -0.062488265, 0.044885457, -0.022640299, 0.08462737, -0.020735709, -0.05188762, -0.019494623, -0.07884115, -0.20851716, -0.0075509464, 0.031986106, -0.045852076, -0.09321644, 0.04355395, 0.13120891, 0.04200025, 0.106903605, -0.031287517, 0.041062362, 0.03469519, 0.049009334, 0.13231389, 0.028602343, 0.15800364, -0.0018243231, -0.040415596, -0.099272296, -0.0490004, -0.044134263, -0.10135228, -0.16701286, -0.04223779, 0.08169091, 0.09889385, 0.15080771, 0.11449046, 0.07546094, 0.047243528, -0.024521446, 0.099173255, 0.14758481, 0.14855202, 0.04894964, 0.16412902, -0.059678227, 0.14208646, 0.03401386, 0.006945519, -0.03623498, 0.13396522, 0.018173818, 0.0786449, -0.023175184, 0.0305862, -0.11597077, -0.06722899, -0.031404607, -0.08307813, -0.038375873, 0.040316965, -0.0024620334, 0.030089617, -0.045771994, 0.092612885, 0.07889543, -0.10064824, -0.054004885, -0.06238112, 0.017551156, -0.07539218, -0.111979514, 0.076522276, 0.011901863, 0.15268508, -0.12979563, -0.16735268, -0.14961381, -0.03016105, 0.10848286, -0.062471237, 0.0210813, 0.11860692, 0.058030106, -0.100029625, 0.07280545, 0.11640891, 0.027315399, 0.0022465566, -0.046577293, 0.048404645, -0.022174373, 0.09839568, 0.0077699656, -0.1655975, -0.12420752, -0.03913051, -0.038563892, -0.09264, -0.04037204, -0.037380382, -0.012575503, -0.11583049, -0.059195075, 0.1266474, 0.07480124, 0.16475524, -0.18664703, -0.08179292, -0.12702124, 0.0014245105, 0.038376603, -0.08736097, -0.04251417, 0.023947295, -0.034900106, -0.06987049, -0.050462134, -0.10940738, -0.027435126, -0.045721892, -0.13333808, 0.13034871, 0.07765812, -0.16992669, -0.09879749, -0.0147701595, -0.041157193, 0.0038555479, 0.062711015, -0.047984872, -0.01996924, -0.006039424, -0.07585788, 0.14562051, -0.015372134, 0.077406526, -0.026081426, -0.14903927, -0.18405998, -0.10167859, 0.157274, -0.0062098973, 0.06324206, -0.010117598, 0.046140436, -0.034419972, 0.21685597, -0.052182984, 0.008146265, 0.0404533, -0.10959114, -0.10162455, 0.009185717, 0.056754243, -0.09060886, 0.03525091, -0.00020435869, -0.13958572, -0.08721488, 0.144103, -0.06535514, -0.022046033, -0.025256643, 0.027871521, 0.061331756, -0.14994124, 0.07534696, -0.06747742, -0.014953993, 0.032670528, -0.07749869, -0.04295965, 0.06687503, -0.14662363, 0.054030582, -0.09654061, 0.025667699, -0.009057555, -0.11331393, -0.07402757, -0.042652, 0.06314199, -0.064778835, -0.108283944, 0.07960923, -0.018066768, 0.09781529, -0.046641972, 0.03755335, -0.011487886, 0.0628268, -0.08135716, 0.07058654, 0.18889245, -0.113231, -0.10476632, 0.067279786, -0.08863421, 0.08949325, 0.15264091, 0.07698389, 0.14737599, 0.017853528, -0.12431522, -0.14637087, -0.02396853, -0.07145028, -0.08239056, 0.05154216, 0.14112641, -0.06420371, 0.04059755, 0.11909875, 0.17299001, 0.04186621, 0.019687392, 0.020371402, 0.11499577, -0.12751547, -0.054658316, 0.12910545, 0.11675126, 0.17076236, -0.10065653, -0.07630192, -0.004814879, 0.19132376, -0.029097332, 0.011378593, 0.12671313, 0.13559379, -0.014621545, -0.055925693, -0.0048013106, 0.19387798, -0.0109264795, -0.017628718, 0.056093913, -0.15241905, 0.007577507, -0.11113772, -0.0914083, -0.053658605, -0.012941049, 0.18556124, 0.1050847, -0.08859969, 0.11266854, 0.1470612, -0.09319182, 0.052433223, -0.005616064, 0.16718069, -0.05089367, -0.0710539, -0.0023197602, 0.07765633, -0.062381934, 0.07777249, 0.056145653, 0.045089174, -0.2095795, -0.046289675, -0.078282624, -0.110292815, -0.11680281, 0.03385398, 0.009584105, 0.019929264, 0.13601558, -0.106707714, 0.030075688, 0.10086975, 0.05097891, 0.07715996, 0.051407315, -0.078410864, -0.030193055, -0.067255884, 0.029014383, 0.098897055, 0.14378725, -0.036043935, -0.0016742095, 0.06717187, 0.00015870293, -0.12388889, 0.20683585, 0.11441245, -0.052707, -0.03903543, 0.09155439, -0.123887874, -0.019312736, 0.06462755, 0.020608848, 0.052709676, -0.06539772, -0.013993256, 0.03480628, -0.11707643, 0.09295259, -0.0790636, -0.061501395, -0.14179043, 0.0014693502, 0.07112017, 0.048836485, 0.026455238, 0.054815188, 0.051905908, 0.08223264, 0.077089116, -0.030975653, -0.1996762, -0.075323865, -0.043188065, 0.045986474, 0.157175, 0.14206906, -0.034336887, 0.022640364, -0.13754289, 0.051385205, -0.14490569, 0.11510346, -0.10090049, -0.035404462, -0.023745915, 0.0317263, -0.08352832, -0.14791045, 0.1759904, 0.09412212, -0.04910417, 0.030716859, 0.0811154, 0.096587636, -0.0017794315, 0.1085264, -0.16109233, 0.11639984, 0.04984644, 0.018456737, 0.039589122, 0.01927786, 0.022337606, -0.046601024, -0.009834379, 0.034566868, -0.052001193, 0.032646168, -0.13823725, -0.18817993, 0.04237319, -0.1487618, -0.16377258, -0.023867197, 0.20434658, 0.13833314, 0.08612239, 0.12913947, -0.098833956, 0.06574423, 0.105409004, -0.13334255, -0.0058505516, 0.050696317, 0.077456586, -0.050834164, 0.08021094, 0.05911372, -0.04447728, 0.064285114, 0.06942635, 0.09605119, 0.07938429, 0.15829596, -0.14048263, 0.09522344, 0.005545719, 0.04356764, -9.23248e-05, -0.011334723, -0.086125836, 0.120016225, -0.087186806, 0.11614868, 0.052855782, -0.016689384, 0.09502103, -0.140138, -0.06816527, -0.17937134, -0.030331017, -0.12500148, -0.110261336, -0.011829834, -0.054107107, -0.030727746, 0.016258823, -0.057003785, 0.038176797, 0.010797696, -0.017856669, 0.038983397, 0.16520958, 0.14326023, -0.016363326, 0.046513464, 0.09943685, 0.03359457, 0.05524051, -0.053038113, 0.06962362, 0.11904963, -0.18281189, -0.048671786, -0.019650267, -0.013091747, 0.15424904, -0.09717999, -0.15068223, 0.08633029, -0.08097893, -0.07339874, 0.03658986, 0.061930705, 0.16436759, -0.06180505, -0.04439928, -0.05265462, -0.04320567, -0.010366315, -0.10480753, 0.1395079, -0.11272261, -0.104248375, 0.1117456, 0.1554739, 0.017726379, -0.15488377, -0.10330774, 0.06910045, 0.05780661, -0.082548246, -0.08507375, -0.025896598, -0.085279964, 0.018495085, -0.10770906, -0.06942263, 0.058032732, -0.13560887, -0.025460077, 0.050870303, -0.030719617, 0.10627295, -0.00082749146, -0.08598468, 0.09807394, -0.1372972, 0.037444964, 0.081041194, 0.07062653, 0.09580185, 0.08521386, 0.1428053, 0.09084897, 0.03421263, 0.043646015, 0.05186473, -0.09436366, 0.0076868474, 0.056897804, 0.025095029, -0.07190252, -0.037698966, -0.003994384, -0.08950519, 0.05003333, 0.047747105, -0.02348995, 0.064147234, 0.024835497, 0.04042678, -0.036685944, 0.057969548, -0.100154616, -0.014084066, -0.06564178, 0.03507809, -0.094148286, -0.020901378, 0.03548924, -0.08604305, 0.066453576, 0.054828197, 0.09054605, -0.13964634, -0.10184937, -0.07567501, -0.032235757, 0.10166082, -0.04598628, -0.12865804, 0.13371027, -0.1174483, 0.0593645, 0.02508297, -0.029683316, 0.09226067, -0.042835016, 0.020459834, -0.11810318, 0.02956089, 0.019150477, -0.15988708, 0.080245204, 0.039736778, 0.1081492, 0.08547375, 0.09991648, -0.028057924, 0.043754235, 0.17891808, -0.03716174, -0.08126542, -0.012082019, 0.0044704056, -0.017732942, -0.06539386, 0.043960497, 0.012605769, -0.09791186, 0.0369429, -0.05138788, 0.18541624, -0.017799804, 0.099917136, 0.16159908, -0.07754812, -0.011103162, -0.15812288, 0.043110814, -0.10886822, -0.09547602, 0.06446368, 0.0063457154, 0.024883715, -0.07601551, -0.01840842, 0.13332984, -0.013492276, 0.03654853, 0.05982563, -0.02590532, -0.08760881, -0.08710604, -0.09920903, 0.1686906, -0.06446604, -0.024391405, 0.02399885, 0.010860686, -0.06925114, 0.04466929, -0.036397386, -0.104580715, -0.024397908, 0.069342405, -0.12742601, -0.047331717, -0.13039763, -0.0021068954, -0.02473267, -0.015700197, 0.15234813, 0.038321033, -0.0065040905, 0.052683644, -0.1225869, 0.05481038, 0.04070734, -0.13206099, -0.042657077, 0.014764414, 0.055310808, -0.027874481, -0.028329166, 0.05605651, -0.040099468, -0.06785374, -0.026703147, 0.040653273, -0.113618225, 0.10770161, -0.13291927, -0.009692304, -0.08757885, 0.0006655605, -0.04442125, 0.08626507, -0.07868967, 0.041395463, 0.17739949, -0.025029728, 0.053778782, 0.07713908, 0.1167625, 0.043468885, -0.12870707, -0.07583421, 0.1779549, -0.044814244, -0.10582516, -0.03297766, -0.14458124, -0.0055449046, 0.06348041, -0.055435643, -0.014438466, 0.0627048, -0.022066165, -0.06975299, 0.1667301, 0.08204352, -0.13964467, 0.043131832, 0.09695708, 0.029550817, -0.11441973, -0.17644466, -0.10406678, -0.072550885, 0.12597068, -0.04288399, 0.12750623, 0.0819641, 0.06341446, -0.06657094, -0.037954036, 0.004065271, -0.052378565, -0.023822479, -0.03891665, 0.09971811, -0.067918055, 0.03734268, -0.16218552, 0.10052453, 0.0041789785, -0.08522522, -0.0070651844, 0.05794302, -0.008174259, -0.10161873, -0.084103934, -0.06401635, 0.023433605, 0.062234703, -0.06401863, 0.12176431, -0.106459305, -0.11788048, 0.053281944, 0.029648263, 0.008299601, -0.005927592, -0.09985488, -0.08339583, -0.069890164, -0.05918244, -0.1307432, 0.14162157, -0.07845193, 0.032164346, -0.09237931, -0.051500704, -0.0140652675, 0.104761496, 0.09840074, -0.09761715, 0.02826192, 0.14836815, -0.018395226, -0.13575652, -0.10672887, -0.14392313, 0.0074062683, 0.007754772, 0.083623156, -0.07199402, -0.008831795, 0.049390074, -0.0794937, -0.031151827, 0.021193594, -0.012795699, 0.19495557, -0.16322327, -0.08280546, -0.07978573, 0.069343194, 0.00096988294, 0.07666495, -0.09361149, -0.09647349, -0.15515509, 0.13765007, -0.0059862547, -0.043180358, -0.04026336, -0.032637656, 0.073542744, -0.024820773, -0.03762146, -0.09737381, 0.03801189, 0.08394201, 0.05397967, 0.057305858, 0.16922474, -0.047323085, -0.021047017, -0.101879425, -0.097326376, 0.030472705, 0.005425877, -0.07050423, -0.053395297, 0.13493322, -0.10501929, 0.021541541, 0.1254833, -0.13963172, -0.0678454, 0.088932745, -0.05689117, -0.03422732, -0.12250598, 0.15073375, -0.0061389552, -0.19031656, 0.051221136, -0.21985418, 0.059253514, -0.09291489, -0.07759872, -0.03580834, 0.12333469, 0.06933528, -0.010706219, -0.07576781, 0.06526751, -0.025503002, 0.02482561, -0.028097635, -0.04402837, 0.11693005, -0.07970098, -0.038789798, -0.15549235, -0.10204104, -0.05583539, 0.06670738, 0.0651338, -0.14751904, 0.11212072, -0.08684454, -0.013187873, 0.02156989, -0.16919355, -0.063691214, -0.07270442, 0.002496897, -0.0008081613, -0.08738216, 0.120910555, -0.035710525, 0.017854279, -0.15833998, 0.028136313, 0.0060352082, 0.045696706, 0.024854697, -0.03521431, 0.016777383, 0.16948098, -0.07583666, -0.110852696, 0.0066294945, 0.080134444, -0.2032679, -0.13475703, -0.11290731, -0.07523924, 0.09019806, 0.010227124, -0.023584925, 0.008194208, 0.10575895, 0.1592473, -0.09591708, -0.033394367, -0.13678643, 0.018790754, -0.091433704, 0.12874891, -0.13851826, 0.12433401, -0.10222392, 0.1262068, -0.013851609, -0.02625759, 0.097149745, -0.12813357, -0.114585504, -0.013025048, -0.08989629, -0.07911296, 0.103558674, -0.08796952, -0.010971079, -0.051797453, -0.05111483, -0.1270981, 0.18776369, -0.16681798, 0.004987463, 0.09871883, -0.03956122, -0.07366092, 0.04535306, 0.03071545, -0.108972885, 0.0043225912, 0.008041887, -0.036153365, -0.0023639237, -0.13922454, -0.009925677, -0.11595894, -0.0999857, 0.017835204, -0.08815167, -0.06627488, -0.10790238, 0.04520059, -0.052639585, -0.004932039, -0.09927779, -0.06572574, -0.05247455, -0.0029778702, -0.061288066, 0.02774272, -0.056556005, -0.15337053, -0.038878236, 0.12945946, -0.013362635, 0.11557161, 0.08063004, 0.07763467, 0.023089437, 0.13042068, 0.09695046, 0.08388967, 0.082154796, 0.13531032, -0.07862067, 0.13618095, -0.07626422, -0.11255702, -0.113848224, -0.091332726, -0.17977054, -0.123776995, 0.04035384, -0.013977934, 0.07442452, 0.006373987, -0.1332847, -0.0068360795, 0.0745039, 0.09075577, -0.077267535, 0.16428879, 0.19379628, 0.16667086, 0.08927002, -0.043769784, -0.031821396, 0.07413332, -0.0016978239, 0.01627687, 0.07798646, 0.06601706, 0.12270181, -0.0769697, -0.05054024, 0.06022547, 0.05301763, -0.1334889, 0.15284175, 0.0865399, -0.037788514, 0.064975634, 0.08336049, -0.14104524, -0.0020458177, 0.014997937, -0.049798027, 0.01965437, -0.09369036, -0.06361012, -0.031158756, -0.086450055, 0.0076951445, 0.040754825, 0.061166823, -0.012278805, -0.13055836, 0.008811243, -0.061618283, 0.0111770425, 0.029839065, -0.14779903, 0.024626346, -0.035980057, 0.017059056, -0.19315049, -0.018868089, -0.09401453, -0.12490196, -0.13401964, 0.15368609, -0.082357, 0.045976378, 0.07357478, 0.15900554, -0.026439575, -0.1945206, 0.12956917, 0.010283208, 0.033717107, 0.084720165, -0.00010051759, -0.1571287, -0.00216882, -0.056700565, -0.16196601, -0.0050883405, 0.027498417, 0.06380882, 0.08713529, 0.09497743, -0.024934463, -0.05770715, 0.12334898, -0.022595057, -0.11214894, -0.10742021, -0.0027612487, -0.046074945, -0.19013852, 0.0885664, -0.019355187, -0.012895549, -0.08044399, 0.04593731, -0.04258521, 0.06438196, 0.020986596, 0.018709008, -0.13438366, -0.14214583, -0.15851653, -0.07921059, 0.10352442, -0.05893485, 0.09641862, -0.18013239, 0.108618595, 0.14442495, -0.18553738, -0.029859064, 0.036353454, -0.0023187124, 0.16897875, -0.09942095, -0.0012810257, 0.018446546, 0.08095085, 0.113598056, -0.11841659, -0.027890826, 0.008792091, 0.04567131, -0.14172941, -0.028930262, 0.10191707, -0.05798814, -0.109554715, -0.15651664, -0.0015180319, 0.044069786, 0.014681367, -0.0028811863, -0.033326063, 0.085405245, -0.018933555, -0.10346037, -0.026973922, 0.13620175, 0.031632233, -0.09616338, 0.09876658, -0.03871171, 0.09506454, 0.11534799, -0.008849912, -0.04962839, -0.18269262, -0.0050802813, 0.13570607, -0.0014748905, 0.062109463, 0.07238115, -0.06331018, 0.020797536, 0.07868316, 0.10947939, 0.11699775, -0.07131273, -0.053915534, 0.020553676, -0.05846233, -0.08681475, 0.058970947, 0.10748719, -0.003358863, 0.14216308, -0.052886155, -0.063992366, -0.024202053, 0.057836838, -0.072471835, -0.15303005, 0.027418809, 0.022797108, -0.027683688, -0.047703367, 0.11278911, -0.013771691, 0.072467096, 0.041425206, -0.05799006, -0.11142231, 0.07787956, 0.084378965, 0.022885537, 0.023507096, 0.0455386, -0.13814658, -0.05372122, -0.0049443585, -0.07326164, 0.058588877, -0.04146118, 0.10940419, -0.08133027, -0.023908982, -0.035038646, -0.081918165, 0.06469269, -0.050680794, -0.010614288, 0.15620536, -0.10557194, -0.13703236, 0.0011859013, -0.022078749, 0.0148432255, 0.031553537, -0.081669435, 0.00902275, -0.054882504, -0.02132216, -0.11957949, 0.046057332, -0.039573617, -0.15648283, -0.0850908, -0.14182228, 0.12685274, 0.009004146, -0.0889468, 0.04853746, -0.08446073, -0.061657533, 0.18273638, 0.005789801, -0.12735625, -0.024012603, 0.14546764, 0.083978906, -0.063543245, 0.15683526, 0.1685561, -0.10015404, 