float W_fc2_w[]={
-0.026372427, -0.055337347, -0.014115815, -0.18181908, -0.027065007, 0.1706822, -0.080209866, -0.03980478, -0.14319204, -0.08562111, -0.09950545, 0.02693768, -0.029202135, -0.06063392, 0.063655145, 0.036964875, 0.091285, 0.1647022, 0.013537292, -0.039614923, -0.12018702, 0.17191666, 0.05032075, -0.023865582, 0.17593387, 0.015024572, -0.04033588, 0.016924229, -0.12903808, 0.08117992, -0.057492852, -0.02923758, 0.00189898, -0.042551376, 0.16466144, 0.038010996, -0.010770947, 0.045873515, 0.052526496, -0.015351886, -0.13434134, -0.04564925, -0.038379695, 0.027941244, 0.071266115, -0.22153604, 0.02442898, 0.04808247, -0.011247742, 0.10084566, -0.01615975, -0.059876144, 0.07977192, 0.14512533, 0.02464153, -0.008229215, -0.029622518, -0.17283787, -0.1204253, 0.023327686, -0.1036605, 0.010701686, -0.016702466, -0.11891053, 0.03866007, -0.18553165, -0.049078397, 0.10933402, 0.021415962, -0.17185481, 0.08970128, -0.041707177, 0.05909553, 0.0018134102, 0.03925689, 0.079361424, 0.028267672, 0.04120518, -0.12998614, 0.008503293, 0.12688856, 0.078460135, 0.08933639, 0.0868503, 0.09162364, 0.00077603746, 0.12073622, -0.06321523, -0.060955547, -0.07728034, -0.08747926, -0.051330347, -0.019027187, -0.02497726, -0.07148335, 0.18258384, -0.08451241, 0.05470416, 0.06711459, 0.085582435, -0.046818662, -0.13426773, 0.056529738, 0.009108177, -0.15487163, -0.1008678, 0.009021909, -0.053610586, 0.06884096, -0.053520616, -0.14770347, 0.012054259, 0.12557472, 0.15835857, 0.010106013, 0.09880984, 0.12907758, 0.026876751, -0.14803517, -0.17282033, -0.02610376, -0.039454006, -0.047657978, 0.114863105, 0.08929624, -0.12021384, -0.053854708, 0.016076077, -0.05960956, -0.15219024, 0.09000989, -0.039449032, -0.034999676, -0.06335665, -0.118194886, 0.020707723, 0.1605067, -0.092192724, 0.08847466, -0.008269312, -0.06294104, -0.053184066, 0.12921435, -0.060482882, 0.059559077, -0.06928224, 0.029344399, -0.08503897, 0.0005901233, -0.06378644, 0.10617473, 0.14660843, -0.21523464, -0.011770398, -0.041731674, -0.10637784, 0.052686937, -0.11068023, 0.0892389, 0.17747487, -0.15290605, 0.004171419, 0.043071162, -0.049718346, -0.050916065, -0.104283236, -0.009418141, -0.0292309, 0.03320447, -0.19904093, 0.049912453, 0.01127978, -0.11845742, -0.06905661, -0.15958527, -0.08097318, -0.060057793, 0.1612393, -0.046507947, -0.046053383, 0.124382906, -0.00993461, -0.006104746, -0.14168352, 0.13475072, -0.18569818, -0.16340862, -0.027713412, 0.13425812, 0.0019094172, 0.10002766, -0.095026374, -0.116748594, 0.0182425, 0.079737134, 0.1943132, 0.14018595, -0.008265258, -0.020372897, 0.15116109, -0.17238802, -0.13957931, -0.13289243, 0.009556738, 0.15550555, -0.13702983, 0.022118494, 0.19430201, -0.023543555, -0.05921204, -0.016060138, 0.011384037, 0.06033307, 0.12439408, 0.017544765, 0.03364956, 0.016193103, 0.06889081, -0.031439345, 0.022754466, 0.18499427, -0.009460119, 0.008785266, -0.20103672, 0.101421125, 0.018771801, -0.16049236, 0.04910354, 0.007054537, -0.06799256, 0.016023695, 0.08660643, 0.15116258, -0.022784976, -0.043438062, -0.080393024, 0.0073118075, 0.09024475, -0.009416262, -0.12216691, 0.007121025, -0.09595792, -0.10303884, -0.053131737, -0.060719263, -0.18095241, 0.16873404, 0.08965761, -0.13326758, 0.12788719, -0.1674509, 0.12382742, 0.07738383, -0.02155605, -0.020605005, 0.008162249, 0.046037856, 0.1249767, -0.115485854, -0.018879253, 0.025846764, -0.0069584195, 0.0699667, 0.067195766, 0.108868964, -0.060273036, -0.14631332, 0.01578732, 0.0009043795, 0.11105035, -0.12166837, 0.08236798, 0.10006491, 0.030984215, -0.018890448, 0.047760036, 0.022035994, 0.09253749, 0.023775753, -0.069683686, 0.16894104, 0.08431685, -0.0909909, 0.056871776, 0.122991115, -0.013809784, -0.03470171, -0.037519872, -0.08802131, -0.011381823, -0.17707203, 0.03352582, -0.12965526, 0.026990019, 0.05969413, 0.017112825, -0.14022577, 0.16030473, 0.059797008, 0.017343055, 0.019189319, 0.09331885, 0.012233949, 0.048646133, 0.020092847, -0.0072872387, 0.027080163, -0.052791648, -0.006419061, 0.017817512, -0.06349038, -0.028625559, -0.08467441, 0.024806732, 0.05082307, -0.06850694, -1.04730025e-05, -0.016854556, -0.17521897, 0.0412025, -0.1754675, 0.061445598, 0.1658351, -0.014470963, 0.056666154, 0.08486314, 0.08406683, -0.0036257026, 0.021428304, -0.04778878, 0.12956926, 0.04108332, -0.099761605, -0.08512259, -0.17142275, 0.03013439, 0.007902915, -0.011709534, 0.089198455, -0.05624253, 0.12435124, -0.0016260562, -0.0824481, -0.080695145, 0.11978766, -0.1480178, -0.06514961, 0.053829685, -0.12864298, -0.05505174, -0.04152635, -0.036786582, 0.04795365, 0.12012206, -0.0426399, -0.1298958, -0.1101709, 0.105106704, -0.011741477, -0.13137351, 0.11426396, 0.017558226, 0.15573868, 0.08540166, 0.16285037, -0.015320627, 0.021577353, -0.123962805, 0.15158378, -0.14574715, -0.15213636, 0.055604637, -0.035701957, -0.14656235, -0.10299336, 0.18510723, -0.05598614, -0.10537475, 0.041129384, -0.08845923, 0.033330783, -0.058603402, -0.12038551, -0.106535256, 0.009605557, -0.09482122, -0.011997181, -0.19185455, 0.10052991, 0.01944334, -0.0060465527, 0.07782342, -0.16778047, -0.0017937524, 0.14975712, -0.021598952, -0.05780124, 0.0055862595, -0.17172821, -0.092210926, -0.04949889, -0.1813722, -0.058420375, -0.052849513, 0.06452047, -0.04802939, 0.11990151, -0.14179339, 0.08183941, 0.03565978, 0.012686501, 0.062354498, 0.056892842, -0.021585198, 0.12537868, 0.04825846, -0.08917372, 0.053828366, 0.03871277, 0.13228458, 0.10663387, -0.052410547, 0.050448913, -0.13571927, 0.14547436, 0.06434091, -0.014781899, 0.015741348, -0.051074818, 0.06850751, -0.1489409, 0.15994072, 0.14642206, 0.036998812, -0.0048272917, -0.07151048, 0.018571975, 0.0319111, -0.015375593, 0.08166059, -0.019199295, -0.14853995, -0.077325635, 0.09023105, -0.07806895, 0.027048256, 0.020166334, -0.011710944, -0.1365914, -0.053982023, -0.009191076, 0.011772717, 0.063580595, -0.07185985, 0.044380624, -0.1336263, -0.01679536, 0.18850373, -0.052085146, -0.12388899, 0.17502707, 0.100482345, -0.08676893, -0.11649211, -0.056617506, -0.13933721, 0.07882534, 0.029269625, 0.070085265, 0.066579096, 0.083219185, 0.097516194, 0.04077862, -0.00047122006, -0.08469052, -0.008377412, -0.05515066, -0.095219746, -0.11704342, 0.054355737, -0.062107306, -0.075793624, 0.1071658, 0.038952306, 0.042515196, -0.046631314, -0.050308686, 0.052593753, -0.07074964, -0.15516877, 0.03104605, -0.07728322, -0.0108220605, -0.11420804, 0.059635658, -0.071745045, -0.12484311, -0.12349907, 0.08770389, -0.060960446, -0.10002269, 0.112959206, -0.0025870143, -0.03628592, 0.051745277, -0.008922891, -0.11578818, -0.032939762, 0.13920482, 0.05965604, 0.1527711, -0.097453475, 0.021451307, -0.014776762, -0.10235834, 0.09511858, -0.10488386, -0.058668815, -0.053465035, -0.019142654, 0.1488841, 0.073978215, 0.06315505, -0.0031875686, 0.11553462, -0.15740348, 0.0073752385, -0.034036487, 0.12998149, -0.0010989616, 0.11463481, 0.004392292, -0.07549904, -0.06219375, 0.12724283, -0.004126851, -0.026805768, -0.052331995, -0.1192596, -0.039860517, -0.13970849, 0.07143716, 0.032707755, 0.08040878, 0.0733219, -0.02561091, -0.050132398, 0.13447504, -0.03340816, -0.07866161, -0.14818366, -0.1597366, 0.0708397, 0.012719844, -0.080110885, -0.10676785, 0.020725954, -0.027454864, 0.12576279, -0.0067005414, 0.0479777, -0.12153585, -0.11887861, -0.12214285, -0.042532664, -0.10856887, -0.08726932, 0.07805447, -0.09362314, 0.17057101, -0.028139088, 0.042257585, 0.17564242, -0.14730006, 0.08363451, -0.05341979, 0.005740085, 0.054899395, -0.12317317, 0.0332316, 0.005167509, -0.10552938, 0.05045508, -0.07793638, -0.1549829, -0.104786865, -0.10401054, -0.04381087, 0.093900025, -0.011834078, 0.0522359, -0.037064157, -0.015066333, 0.11486143, 0.023696499, 0.08913427, 0.14435071, 0.18144308, 0.076122, -0.20569554, -0.18348286, 0.08366481, 0.03533153, 0.17985164, -0.14933886, 0.07311506, -0.19629702, -0.04101922, 0.13478144, -0.0042483504, 0.074812844, -0.041706365, -0.011352799, -0.12174099, -0.030662147, 0.10216558, 0.05307815, -0.13185221, 0.042208422, 0.034884807, -0.01842285, -0.006131509, 0.049758974, 0.048133053, -0.0057121227, 0.05002278, -0.056130137, -0.04705009, -0.13151018, -0.12147737, 0.07923488, -0.018554369, -0.032455746, -0.053429928, 0.118656024, 0.009950592, 0.02338413, 0.050368465, -0.11129245, 0.13593827, -0.06989644, 0.0049686874, 0.03775582, 0.10589132, -0.125032, -0.05647692, 0.111996226, -0.05446558, -0.108692326, -0.019209621, 0.09352851, 0.10440714, 0.038342856, -0.024322512, -0.0523589, -0.04940855, 0.12200966, 0.009372435, -0.0034615365, -0.063689366, 0.048889387, 0.032140594, 0.0717623, 0.09144446, -0.12828824, 0.060883127, 0.09595509, 0.07173229, -0.13531701, -0.033820152, -0.020560816, 0.033099957, -0.114656776, 0.08460983, 0.09346226, -0.15805207, 0.035099205, -0.1047891, -0.012982277, -0.094086744, 0.05681617, -0.00644124, -0.027476104, -0.12551047, -0.06700014, 0.108950585, 0.06143823, 0.051171836, -0.0748104, 0.16404729, -0.01798621, 0.0006779211, -0.052838963, -0.10308854, -0.102589, -0.021039283, 0.0061294464, 0.12406546, -0.21185657, -0.0025044046, -0.056448802, -0.013784366, 0.0372579, -0.010189249, 0.026066512, -0.094293885, -0.17070608, -0.0464666, 0.1539751, 0.03263997, 0.04147204, -0.040262077, 0.048274048, 0.14585827, 0.04318752, 0.12063933, 0.002445587, 0.11449464, -0.04586787, -0.03916583, -0.08359072, 0.11327693, -0.19415176, -0.0052859033, -0.057760883, -0.008394108, -0.081469275, 0.011416311, -0.03365588, 0.12355897, 0.15541545, 0.07949297, -0.038820814, 0.07871876, -0.09815457, -0.13460492, 0.06389743, 0.18614992, 0.014212748, 0.0039654467, 0.10988313, 0.17858483, -0.03831229, 0.10355396, 0.03254673, -0.044096973, 0.08250044, -0.1032656, -0.0034861637, -0.0076161926, -0.085810624, -0.018306822, -0.08128756, 0.094385594, 0.034731563, 0.08517685, 0.1005095, -0.19419257, -0.03985083, 0.0173669, -0.015121431, -0.033704143, 0.09072231, -0.029667053, 0.08553731, 0.0075398227, -0.025768504, -0.0038847753, 0.081882626, -0.12680398, 0.16427933, -0.1105641, -0.030045088, 0.030907223, -0.1720396, 0.16368726, -0.119114466, 0.035082277, 0.020641431, 0.070606306, 0.034818962, 0.012145235, 0.113955475, -0.013742961, 0.097123705, -0.043639112, -0.0009937484, 0.10143872, 0.1328073, 0.12671244, 0.1194833, 0.12170489, -0.08784648, -0.15651102, 0.028521968, -0.08511994, -0.031120878, -0.0003113658, -0.020328997, 0.09084476, -0.11319553, -0.0668581, 0.064694524, -0.14172944, 0.06420895, 0.016507909, 0.078949414, 0.01746179, 0.10088984, -0.017423632, -0.018598223, 0.12889266, -0.04515724, 0.029088289, -0.031971365, -0.044068024, 0.16326159, -0.04526018, -0.13252921, -0.02831885, -0.084350176, -0.07478566, -0.032851927, -0.04750698, 0.18022755, 0.13209055, -0.08534873, -0.06875397, 0.04111509, 0.10610774, -0.08483295, -0.007739563, 0.09428573, 0.066901356, -0.01095145, -0.0037421081, -0.06338981, -0.019272141, 0.056261506, -0.1234111, -0.1625639, -0.07167784, -0.07029118, -0.010205086, -0.08710694, -0.17891929, 0.049093243, 0.015154123, 0.01514303, 0.0019021305, -0.0712374, 0.15599106, -0.12068919, 0.06953229, 0.05918846, -0.05076854, -0.13887472, -0.1146847, -0.0855936, 0.027442014, 0.11626418, 0.12644236, -0.14979349, -0.004018499, -0.018719578, -0.0390575, 0.08556058, -0.07783684, -0.0003871032, -0.18464595, 0.016969386, 0.05671632, 0.13655366, 0.075991474, 0.038758725, -0.1660907, 0.0074783294, 0.029122612, 0.036017925, 0.16465114, 0.17505717, 0.15569293, -0.044666994, 0.012675874, -0.10660508, -0.015169939, -0.08006004, 0.008506952, -0.051961023, 0.03423634, -0.006530358, 0.055357367, -0.045156177, -0.0011006091, 0.10179406, -0.017631851, -0.03509321, -0.041387096, -0.15625598, -0.02383219, 0.03255661, -0.0071874885, -0.010816548, -0.16229637, -0.025204215, -0.13450149, 0.004697652, -0.20396839, 0.061445795, 0.17861256, -0.009397608, 0.014511211, 0.05251308, -0.12077675, 0.17983642, -0.12439853, -0.002269825, 0.06694829, 0.002495423, -0.011576955, -0.15219863, -0.0020831088, -0.10346117, -0.07230284, 0.04047833, 0.0035472268, 0.017103361, 0.19916378, -0.08756966, -0.015888618, 0.01811082, -0.13896343, -0.0075747515, -0.16249876, -0.1704382, -0.08014148, 0.027613934, 0.015499464, 0.016588405, -0.109132916, 0.13451096, -0.03686115, 0.05121902, -0.00048592445, 0.1233109, -0.000177494, 0.028947838, -0.05359561, 0.1036351, 0.026256721, 0.06789409, 0.012703841, -0.10932513, -0.068392485, -0.059104893, 0.011646578, 0.0030978452, 0.095613554, 0.022637429, -0.088024944, 0.0362778, 0.026635526, 0.05808602, 0.01120868, -0.017824585, -0.004476464, 0.085633084, 0.014487908, -0.04005697, -0.0064826934, 0.091001056, -0.12113159, 0.04649304, -0.19445732, 0.002717528, 0.011241142, -0.028303098, -0.0066776867, -0.02874216, 0.00062125566, -0.067917906, -0.20951031, 0.17933221, -0.18441871, 0.14445636, -0.04071421, 0.09632173, 0.06759582, -0.08668539, -0.0038079384, 0.089431964, -0.08034385, -0.028335838, 0.16237426, -0.038440246, 0.034971736, 0.01999839, -0.14286453, 0.19529207, 0.15703242, -0.069086865, -0.096101716, -0.056782994, 0.18930945, -0.12418938, -0.10170412, -0.10258979, -0.007733697, -0.051839817, -0.18499751, 0.009971778, 0.13105778, -0.013929604, 0.08071017, 0.10629029, -0.07973809, 0.042271033, -0.08270014, -0.09346688, 0.020776747, -0.0057313503, 0.039001755, -0.019700041, 0.1834943, -0.017834794, -0.05127548, 0.03286615, -0.016705243, -0.0043509374, 0.0051764487, -0.018315822, 0.0085788565, -0.058582637, 0.08137229, 0.0028726298, 0.00092531973, -0.22117323, 0.07773952, -0.08524424, 0.039050665, 0.031183925, -0.17648196, -0.026753388, 0.020500027, 0.022916395, -0.09442801, 0.094790265, -0.007832492, -0.036392894, 0.077942476, 0.06906987, 0.01981118, 0.004866685, -0.04962321, -0.03672249, 0.11997294, 0.010727562, -0.03244096, -0.16002353, -0.01585549, -0.040891867, 0.06434419, -0.010536566, 0.06921629, 0.124324724, 0.020903945, 0.09838254, 0.058173396, 0.0031314685, -0.11915678, 0.10684884, 0.012323463, -0.01419684, 0.07539622, 0.071075834, 0.102356136, 0.07666175, -0.033919074, 0.023712568, -0.011098758, -0.09751374, -0.047867242, -0.13558125, -0.09726616, 0.08807138, -0.087466605, 0.022550462, -0.12587138, -0.11583875, -0.030345276, -0.12862036, 0.07694235, 0.027052468, 0.14373076, 0.053455397, 0.039064504, 0.12737435, -0.044172995, 0.103634484, -0.02220754, -0.0999044, -0.0884997, -0.06387904, -0.18081072, 0.08578984, -0.06274611, -0.1413293, -0.028559692, -0.02212265, 0.021184102, 0.0013915786, 0.020892227, 0.122844964, -0.12768945, 0.17412803, -0.1092541, 0.13729277, 0.13102844, -0.0956189, 0.008661566, -0.09242971, -0.04201956, 0.0369737, 0.08381947, -0.01510217, -0.040312663, 0.09743294, -0.051491585, 0.028323635, -0.1609066, -0.042383764, 0.12097184, 0.09885448, -0.06526568, 0.037010584, -0.037250727, 0.051630642, -0.14649452, -0.043437514, 0.07887489, -0.1542226, 0.07384296, -0.10890134, -0.16628534, 0.039225224, 0.012464702, -0.13030916, 0.13190243, -0.18323742, 0.008861567, 0.036744457, -0.046428952, -0.03137145, -0.087840416, 0.0013326358, 0.14948407, 0.112332635, -0.060503237, 0.11227065, -0.104545996, 0.054199673, 0.08751858, 0.079706095, -0.036661748, -0.09439715, -0.10427008, -0.047963433, -0.00702047, -0.026632586, -0.010774334, -0.13890277, -0.011418361, -0.014466326, 0.009339916, -0.006865573, 0.07017097, -0.071236, -0.13001998, 0.19008166, 0.1161757, -0.0033556204, -0.019244123, 0.045927636, -0.010270237, 0.051946796, 0.07732747, 0.039753757, 0.03319539, -0.028591264, -0.043802597, -0.09954144, 0.10619491, -0.043320026, -0.007618331, 0.08726494, 0.15204088, 0.048836477, -0.16940604, -0.012925395, 0.013492344, -0.04357679, 0.14794482, 0.11727583, 0.027845241, 0.066028096, 0.05993383, -0.13191833, -0.056378145, -0.007086925, 0.046277724, -0.097746976, -0.03582486, -0.17006573, 0.06176541, -0.10826565, 0.006164871, -0.17374177, 0.008608955, -0.010139289, -0.14586756, -0.05877014, 0.060769375, 0.060239047, -0.09984761, -0.100693464, -0.16295907, -0.037184253, -0.07014503, -0.006746501, -0.022749022, 0.1097301, 0.075702436, -0.06770335, -0.1466343, -0.07310927, 0.04983677, 0.18216987, -0.12292032, -0.06526403, 0.008558977, -0.16622737, -0.19788839, -0.06331779, -0.0045351083, 0.10044799, 0.07324433, 0.049316734, -0.004157916, 0.0014504633, 0.09043038, 0.05205644, 0.014481827, -0.02045854, 0.014723322, 0.11101985, 0.08732906, -0.13820046, -0.10161304, 0.16457783, 0.1496975, -0.09069185, 0.17820469, 0.16363968, -0.10023676, 0.12143233, -0.12325947, 0.09013001, 0.06628343, -0.01793659, -0.05304094, -0.09530344, -0.010116926, -0.052579038, -0.0021227913, 0.03021063, -0.10395559, 0.085750125, -0.15528622, 0.15166569, 0.0355558, 0.09562578, 0.0056121205, -0.011515132, 0.059918452, 0.1050199, -0.05858845, -0.024058579, -0.14343998, -0.15429097, 0.15866101, 0.07111626, 0.08376337, -0.18696067, -0.041932248, 0.022200273, -0.012083109, 0.061380357, -0.015772006, -0.030189574, 0.16220683, -0.19775276, 0.025710648, -0.048423897, -0.15149257, 0.077644944, 0.11449569, -0.025705658, -0.08110902, 0.010836536, -0.099226095, -0.02532206, -0.022186827, -0.1943143, -0.02590169, -0.11753527, -0.03523587, -0.068453416, 0.041962076, 0.04618196, 0.11292813, 0.009352562, -0.01264702, 0.14205475, 0.041704696, -0.16086073, 0.11635644, 0.15907222, 0.052499775, 0.12929963, 0.023620963, 0.046078417, 0.07149801, -0.053375386, -0.12041949, 0.007854704, -0.06518391, 0.019821625, 0.07178503, -0.13980189, 0.11119592, 0.05875224, 0.013536817, -0.0034465736, -0.039694782, 0.19413358, -0.023874192, -0.08946739, 0.025918823, -0.051202286, -0.01773408, -0.08981308, -0.0155267315, -0.06148825, -0.02334554, 0.023839608, -0.13105623, 0.097904034, -0.07832355, -0.0897982, -0.00583271, -0.12608735, -0.027155763, -0.12527478, 0.039850965, -0.051265735, -0.064884834, 0.034782067, -0.014294294, 0.04539005, 0.058968015, -0.022588288, 0.0469033, -0.15833616, 0.11790836, -0.10618927, -0.14144024, 0.058297794, -0.08742829, -0.044017095, 0.10173782, 0.013832858, -0.05113105, -0.06773891, -0.07239544, 0.04213995, -0.10195654, 0.07682116, -0.16627634, 0.026930487, -0.0135927405, -0.15339963, 0.13614856, -0.08896568, -0.056600753, 0.14301698, -0.16307177, 0.015367158, -0.044433698, -0.12559453, -0.035323203, 0.08909233, -0.121051796, 0.1290101, 0.11354479, -0.053075224, -0.06587097, 0.019457627, 0.061909422, 0.06779127, -0.025772676, -0.014797007, 0.004338687, -0.005426445, 0.003340829, 0.015933039, -0.16982079, -0.00044488398, -0.07368651, -0.04826169, -0.04843291, -0.08826112, -0.22271217, -0.08581168, -0.01363159, 0.15503564, -0.06815689, 0.008268043, -0.108440936, 0.03259102, 0.076398335, -0.113448374, -0.035740826, -0.0026059137, 0.087419294, 0.12869963, 0.042014413, -0.063528396, 0.0072022034, 0.038240883, 0.004893788, 0.018921595, 0.013639003, -0.14494602, -0.15986101, -0.18050745, -0.0418259, 0.13633595, -0.13807602, -0.05246257, 0.092861995, -0.05001573, 0.18319444, -0.056006018, -0.06383363, -0.12510048, 0.107434355, -0.04457056, -0.041171495, -0.174206, 0.14782089, 0.10806817, -0.013650036, 0.0086363405, -0.13804121, -0.04850897, 0.09494796, -0.13285747, 0.12692715, -0.038432162, -0.09657389, 0.02479481, -0.15170644, 0.047239404, -0.07500801, 0.11266548, 0.015516429, -0.05364126, -0.061577264, -0.08778506, 0.088924795, 0.006795087, -0.085541695, 0.0501444, 0.010260311, -0.0059648775, -0.07384245, 0.017364554, 0.08554491, -0.093453564, -0.17416951, -0.0264629, -0.033363376, 0.08457242, 0.040015146, -0.016032064, -0.041775487, -0.05341342, 0.043494683, 0.041458867, -0.1075748, 0.043206662, 0.054759298, -0.04191659, -0.08279244, 0.14195754, -0.0035665634, 0.084211454, -0.15542579, -0.01672284, 0.013981924, 0.035149794, 0.035376344, -0.10838057, -0.1710041, -0.16375646, 0.046007365, -0.0051572723, -0.18191962, -0.014763401, 0.0121456925, -0.026767273, -0.07144269, -0.11039673, 0.06700463, -0.097110026, 0.091518775, 0.04240793, 0.10596752, 0.058701787, 0.09434963, 0.12842032, 0.0011881079, 0.018107414, -0.09157923, -0.094104804, 0.024305027, 0.0015849955, 0.12747437, 0.09621534, 0.18106228, -0.09556821, 0.13357589, -0.02439033, 0.15345794, 0.122802824, 0.05119776, -0.1479869, 0.1448947, -0.13795014, 0.024182756, 0.10717653, -0.12021053, -0.026991965, -0.06466494, 0.044262495, 0.08286321, 0.13115852, 0.13541818, -0.039896175, 0.14585644, -0.036500365, 0.106327035, -0.08733911, -0.062491033, 0.054034494, -0.18983077, 0.12098836, -0.112001054, -0.029906841, -0.10839594, 0.03618235, -0.07550333, -0.15142605, -0.11457365, -0.029519219, -0.09002797, 0.072406545, -0.1671063, 0.062103216, 0.043829255, -0.113673285, 0.10494481, 0.07341637, -0.1939557, -0.02872448, -0.048581984, 0.029432448, -0.19436768, -0.0040771966, -0.09134799, 0.046406522, -0.06892793, -0.06000681, -0.008117906, -0.11888885, -0.1280199, 0.061604336, 0.06993534, -0.13169229, -0.0816263, 0.030935, -0.15875037, 0.03381119, -0.18775284, -0.1307635, 0.09940985, 0.0063981335, 0.08516897, -0.094723895, -0.072799444, 0.13802119, 0.033112686, 0.019848734, -0.14492644, -0.02541764, -0.019494887, 0.043382175, 0.18247776, 0.062334664, -0.0690148, -0.045917872, -0.012151084, -0.06055408, 0.0410871, 0.03130834, 0.05869298, 0.0635422, -0.11754197, -0.06939439, 0.16058591, -0.040161375, -0.059123367, 0.021772921, -0.017773625, 0.025031129, 0.12174014, -0.12469784, -0.09143672, -0.11085111, -0.05734584, 0.017243747, 0.08836608, -0.04976483, -0.06808086, -0.06739435, 0.03166049, 0.052045397, 0.057109434, 0.11870687, -0.033851348, 0.0054662256, -0.03764604, -0.16577512, 0.011466332, -0.08763405, 0.073473535, 0.07602348, -0.09072974, -0.046372753, 0.03949912, -0.01759672, 0.15207507, 0.12094783, -0.03920593, 0.027047383, 0.01443157, -0.16420503, 0.14141877, -0.04011052, 0.081972025, 0.010042376, -0.17559184, -0.052047648, -0.040514942, -0.059590828, -0.104510024, -0.06856799, -0.05981049, -0.10486084, -0.0009662242, -0.067927286, 0.08098062, 0.0779802, -0.01928905, 0.11265049, -0.19897918, 0.16931756, -0.06847923, 0.09249862, 0.07818136, -0.06563743, -0.009613318, 0.008848191, -0.011107637, 0.07916496, 0.09946064, -0.13789268, 0.064078584, -0.04378187, 0.07624431, 0.015285202, -0.026603663, 0.047386795, -0.004542374, 0.083475746, 0.1948613, 0.06349659, 0.18627214, -0.10759321, 0.09002493, -0.10288802, 0.18420623, -0.18231362, -0.054338478, -0.08193078, -0.17205854, 0.074260786, 0.11513223, 0.08309083, 0.09891811, -0.036995456, 0.02319743, 0.056661706, 0.027935533, -0.09425916, 0.030208537, -0.018580366, -0.04945102, -0.03989908, -0.05818702, 0.07964259, 0.18527366, -0.03135102, 0.018502196, -0.01272633, -0.11681548, -0.16693911, 0.023973951, -0.100635774, -0.10484849, -0.015025222, 0.1473105, -0.10765556, -0.16715121, 0.08850707, 0.108393334, 0.099106565, -0.13257015, -0.089792356, -0.0815821, -0.032345902, 0.09847252, -0.21577252, 0.04580849, -0.17107996, -0.089481354, 0.0614094, 0.11205407, -0.0043601054, 0.13285984, -0.07334971, -0.041880287, 0.0086060995, 0.03847151, -0.1331574, 0.11927238, -0.06864612, 0.0068984926, 0.10860763, 0.081529535, -0.08353257, -0.051897377, -0.083725125, 0.020504609, 0.030714374, -0.06219207, -0.21678981, -0.029054578, -0.017451808, 0.07905905, 0.024980815, -0.008442074, -0.0158723, -0.010435825, -0.059902117, 0.16427337, -0.06931509, 0.16294228, 0.061682146, -0.06347584, -0.105990306, 0.026365172, 0.057203945, -0.09483056, 0.001919211, 0.0056482865, 0.010960773, 0.061306007, 0.04935359, 0.016576169, 0.114402056, -0.11272035, 0.052546635, 0.007403801, -0.070940554, 0.17779249, -0.10252091, -0.08524753, 0.1406597, 0.055803247, 0.116138965, -0.0041360264, -0.02962828, -0.09416273, -0.03399537, 0.16078861, -0.12567838, -0.038669057, 0.074531116, -0.15975973, -0.11735312, -0.15490241, -0.1696627, -0.05021795, 0.10581147, 0.1785451, -0.08835205, -0.0191635, -0.008146155, -0.05120176, -0.0661054, -0.014979059, 0.060000606, 0.019747837, 0.033005055, 0.042232264, -0.12511718, -0.109285966, 0.14362535, -0.17017196, 0.13708746, -0.1881792, 0.026256684, -0.09865353, 0.058753107, -0.16898149, -0.0442722, -0.014645953, 0.012802186, 0.09707964, 0.06679733, 0.068051144, -0.03878512, 0.08449798, 0.058290042, 0.073970035, 0.038411453, 0.17965633, -0.008097112, -0.060772218, -0.050805904, -0.03586248, -0.054345753, -0.12369956, -0.049203925, -0.21116756, -0.09782899, 0.03002531, -0.018589446, 0.0534604, -0.19895737, -0.10438274, -0.032914005, -0.12343733, -0.07145151, -0.08117339, 0.14497025, -0.023069667, 0.13117805, -0.013197363, 0.016936453, 0.03921119, 0.009239537, -0.12409959, -0.16228653, 0.005322571, -0.065117806, -0.03727477, 0.06462517, -0.13972633, -0.023180751, -0.039499056, -0.015699849, 0.062468886, -0.048576158, -0.05763601, 0.016807245, 0.09535143, -0.13432677, 0.03580643, 0.0044632633, -0.1599491, 0.001304623, -0.10249481, 0.06444714, -0.009801585, -0.060137343, -0.10205955, 0.13747026, 0.043781143, -0.015460159, -0.1434295, 0.095873855, 0.12533382, -0.04539656, -0.02522123, -0.07018777, 0.112877406, 0.17873219, -0.016411696, 0.052172612, -0.015099354, -0.024422519, 0.032506127, 0.11736469, 0.016235145, -0.059791274, 0.033699825, -0.15808533, 0.016332798, -0.029109618, -0.086908154, 0.14022622, 0.12889333, -0.06149227, -0.004692451, 0.16086, -0.20146681, -0.035632182, -0.043553546, 0.17299049, 0.09318673, -0.047543067, 0.12176704, -0.0038930217, -0.1299191, -0.12389114, -0.01682864, 0.013051554, -0.058136992, 0.101124994, 0.13492282, -0.011917519, 0.08808664, 0.049312953, -0.03165732, 0.16842969, 0.119286634, -0.10315467, 0.019855084, 0.067700624, -0.058314998, -0.11247536, -0.02626399, 0.08704378, -0.110548735, -0.17795242, 0.0020213516, 0.057108678, 0.012106151, -0.16950367, 0.084037825, -0.04855614, 0.06069241, 0.013568208, 0.09782899, 0.1274746, 0.031732112, 0.030103913, 0.051891968, 0.17280757, -0.17522752, -0.15268053, 0.13610692, -0.06797247, -0.060106255, 0.048457563, 0.13344002, 0.074348144, 0.12166845, -0.15770474, 0.11481319, -0.069023915, -0.11038432, -0.030101739, 0.038012583, -0.018304138, 0.07184392, -0.060040593, 0.11354751, 0.08025029, 0.07055047, 0.0059644673, -0.0065906583, -0.068812385, 0.049010698, 0.08208018, -0.077697024, -0.0754483, -0.05524918, -0.0042413324, -0.0032825146, -0.027666185, -0.17638184, -0.0847319, 0.016256748, -0.016046895, -0.15680353, 0.038422607, -0.14751668, -0.024763899, 0.05342819, 0.09273569, -0.054399777, -0.0004807942, 0.017568141, 0.18128651, 0.0715005, -0.12868541, -0.14720176, -0.11191735, 0.1995084, 0.1443294, 0.10852966, -0.03422424, 0.002461586, 0.06267982, -0.17678937, 0.05270934, 0.016393533, -0.021758204, -0.023173496, 0.045184825, -0.017666107, 0.052664287, 0.010828949, -0.16901402, -0.09248318, -0.06694203, -0.018084016, 0.001835148, 0.037580207, -0.05820703, -0.025151297, -0.0718136, 0.051721156, 0.07848234, 0.10847649, -0.029014144, -0.17752098, 0.12948655, -0.022452286, -0.010713651, 0.020148618, -0.15914471, -0.012581274, -0.08760485, -0.074376464, 0.048196986, 0.0032082417, -0.017343389, -0.06799388, -0.0672862, -0.110942505, 0.02886697, -0.16853836, 0.09974317, -0.03013797, 0.0061661107, -0.1521988, -0.14777382, 0.13990153, 0.11387318, 0.0034119748, 0.0822179, -0.0116054965, -0.093791045, -0.0946738, 0.07703895, -0.052810144, -0.0908759, 0.06498534, 0.01715264, -0.09217398, 0.16000155, 0.04654479, 0.046931606, -0.06280684, -0.0051412596, -0.07870867, 0.025702337, -0.009834981, 0.089245476, 0.12482721, -0.054814056, -0.050525665, 0.19299753, 0.09737518, -0.1310952, 0.03812008, -0.10226636, 0.08841191, -0.033001248, 0.037558984, 0.04818479, 0.19684856, -0.032323245, 0.05237496, 0.0038896962, 0.16854441, 0.0093902815, 0.04690559, -0.017501703, 0.05283635, -0.003666137, 0.16855332, -0.10238936, 0.09911127, -0.045569804, -0.09583322, -0.0725742, -0.1004403, -0.029670054, -0.1122761, -0.055494636, -0.020935139, 0.091400616, -0.12546267, -0.047877662, 0.03616493, -0.0326855, -0.17059404, 0.031190548, 0.0022877615, 0.16582249, 0.15397403, -0.07313368, -0.16734792, 0.09848579, -0.009743177, 0.1669416, 0.11236585, -0.030030543, -0.027660854, 0.037821118, -0.006582342, 0.041317526, 0.05326723, 0.09576209, 0.10229099, -0.09528166, -0.04536774, 0.103824496, 0.034411825, -0.053968936, 0.046786923, -0.13491903, -0.0500175, 0.06740691, -0.0341186, 0.024839234, -0.021869479, -0.024302391, 0.043270346, 0.14230525, 0.13033995, 0.07566946, -0.12376785, 0.111101314, 0.09795927, 0.067577116, -0.119173855, 0.09635402, -0.042024054, -0.019439973, 0.09888835, 0.15555325, -0.12592529, 0.1008385, 0.12227381, -0.11146151, -0.047684044, 0.05438735, -0.09169817, 0.105196364, 0.016097765, -0.026720468, -0.12325781, 0.011623121, -0.08296939, -0.09309163, 0.108989, -0.030309727, -0.10410566, -0.16097139, -0.032739814, -0.12204927, -0.15798734, -0.15595427, -0.003318633, 0.025404843, 0.09349282, 0.094118185, -0.015270021, -0.103386074, 0.17408606, -0.018663472, -0.15246724, -0.030309832, 0.05168375, 0.12692414, -0.01965428, 0.0411805, -0.035574984, 0.0495763, -0.07261252, 0.010324622, 0.10782018, 0.14011335, 0.026335323, 0.05357929, -0.17187874, 0.024016285, 0.021215333, 0.073415056, -0.12805109, 0.03827692, -0.17553335, 0.03230107, -0.10897411, 0.048686642, -0.090676315, 0.041048523, 0.1188633, 0.12672964, 0.17470272, 0.035855073, 0.014012941, -0.06839037, 0.1979094, 0.08079109, -0.04780554, -0.15436406, -0.097282, 0.10308471, 0.059373934, -0.056542326, 0.028732114, 0.08650381, 0.044752292, -0.0815243, 0.07681462, 0.08138745, 0.008011288, -0.026624242, -0.0841337, 0.0046226615, -0.06903379, 0.024541404, 0.1382511, -0.15487228, 0.13263355, -0.014445654, 0.079360604, 0.007088434, 0.030488886, -0.1292128, -0.15311795, -0.05858363, -0.0486079, 0.05463966, -0.0053248643, 0.090756804, 0.020263039, 0.038568404, -0.0503919, -0.22425735, 0.05873043, -0.14296761, 0.06697453, -0.037456, -0.17428936, 0.055282284, -0.060640734, -0.06220896, -0.07697298, 0.018046258, -0.1370248, 0.05067214, -0.13625763, 0.082435966, -0.024196962, -0.07606986, -0.027519513, 0.029355438, -0.17984231, 0.13759531, 0.07727563, 0.024213627, -0.11190003, 0.07469248, 0.04481652, 0.04280969, 0.09276572, 0.046431765, 0.103390336, -0.09583187, -0.14820623, -0.038668655, 0.059903305, 0.027864182, -4.850343e-05, 0.09068505, 0.061603583, 0.09240244, 0.14782259, 0.04901749, -0.050285436, -0.10575683, -0.08416643, -0.1997101, 0.017152186, -0.06674943, -0.1255901, -0.00052735134, -0.091053195, 0.007554105, 0.1668926, -0.065235235, 0.12556328, 0.0793228, -0.07586081, -0.059503242, 0.12698656, 0.010737913, 0.084069334, 0.1318103, 0.09559063, 0.12874523, -0.07802625, -0.12741385, 0.008806363, -0.07200879, 0.12502672, -0.064435445, -0.11559842, -0.006003518, -0.04067089, 0.053193867, -0.115321174, -0.12686557, 0.18606143, 0.09000114, -0.12763822, 0.029050954, -0.07644521, 0.13828108, -0.02970788, 0.01821345, 0.18619722, 0.05602767, -0.12905759, -0.13244899, 0.06481574, 0.041927, -0.05725748, -0.07064116, -0.120549776, -0.05597962, 0.13363728, 0.02792585, -0.007695861, -0.021356516, 0.17449056, -0.034319237, -0.04281196, -0.02064967, 0.011880591, -0.06518921, 0.1009764, 0.00607025, -0.15649341, -0.020893512, -0.08389113, -0.05123246, -0.09172086, 0.046365656, -0.19639762, -0.075486325, 0.16300602, 0.044774447, 0.04409106, 0.042248107, -0.028076673, -0.015007852, 0.13569905, 0.012744788, 0.02112789, -0.052665796, -0.063672274, -0.068727806, -0.011711985, 0.05760968, 0.081903785, -0.023540314, -0.055076618, -0.13116248, -0.14063215, 0.016749127, 0.00693708, -0.11989246, -0.0070875483, 0.025546968, 0.012673759, -0.071300045, 0.04251483, 0.04131105, 0.061625637, 0.13976216, 0.039769396, -0.089158416, 0.0661261, 0.06825893, 0.14169042, -0.10579675, 0.01758797, -0.17890716, -0.11638606, -0.1387886, -0.033132788, -0.0050574695, -0.07052133, 0.10890555, 0.059972923, -0.004122727, 0.020834778, 0.0142967785, 0.0014641567, -0.07011307, -0.034604758, -0.044105362, -0.17183444, -0.09388834, -0.16167498, -0.15261719, -0.031295314, 0.07665335, 0.033738364, -0.0184318, 0.084190555, -0.069579296, 0.13690771, 0.07724686, 0.007241672, -0.0060765147, -0.0006702492, 0.021187313, 0.020773577, 0.043786902, -0.0960398, 0.14390306, -0.054207083, -0.07802951, -0.14103717, 0.08359466, -0.13063757, -0.047261834, 0.08724752, -0.21050905, 0.011565065, -0.07831261, -0.018484086, -0.016261589, -0.049266763, -0.08539121, 0.17115474, 0.06483626, 0.12747045, -0.0051276702, -0.07876888, 0.075613864, -0.05733089, -0.15470017, -0.067498736, -0.049126603, -0.15987976, -0.08394108, 0.00856999, 0.10051996, 0.05822951, -0.012873472, -0.03451614, -0.0875943, 0.042599615, 0.16119179, -0.15666386, 0.06355552, 0.03539992, 0.13932855, -0.07591159, 0.14212118, 0.112395175, 0.0017996384, -0.081919506, 0.067349195, -0.080263816, 0.07093626, -0.09791835, 0.04407729, -0.06175471, 0.055925112, -0.034639273, -0.11671326, 0.08399783, 0.12167475, -0.18001515, 0.11435171, -0.10584029, 0.030286184, -0.11147136, -0.027327675, 0.028745148, 0.045274515, -0.030766485, -0.13889399, -0.17977925, 0.011118102, 0.12955599, -0.069527104, -0.19828324, -0.016143426, -0.03246238, 0.002663811, -0.09040489, -0.015663154, -0.046799034, -0.046502665, -0.16554219, 0.20565012, -0.046938367, -0.00042332453, 0.09446484, -0.09378035, -0.011912725, 0.012371564, -0.0023479625, 0.15332277, 0.011153244, -0.11406973, -0.17223568, 0.077376135, 0.15528125, -0.11089996, -0.046842385, -0.18068725, -0.08654363, 0.054341372, -0.07621734, -0.01827919, -0.16039746, -0.07665615, 0.009635173, 0.051603414, 0.036341656, -0.1897224, -0.01989638, 0.0052582347, -0.02771622, -0.020128975, 0.09858301, 0.083154805, -0.024622042, 0.0516122, 0.04717648, 0.06341235, -0.11738927, -0.069351606, -0.019239997, -0.054944668, 0.049709555, -0.033001825, 0.11364434, -0.1182179, 0.0035985673, 0.0057027903, 0.021099433, 0.1182849, -0.046043098, 0.06289055, 0.12713653, -0.061987814, 0.06434183, -0.046684645, -0.20412907, 0.1500781, -0.16521725, -0.031761613, -0.10515171, 0.16764694, 0.056651704, 0.035322733, 0.016929103, -0.08156718, -0.17332855, 0.12771374, -0.028113762, 0.09270685, 0.043277916, 0.094723746, 0.06774523, 0.10765785, 0.0010924791, -0.14339036, 0.049651638, -0.04814687, -0.015837058, 0.040375296, -0.1297045, -0.07709476, -0.027970921, 0.00643557, 0.17832612, -0.08855885, 0.086557224, -0.12012979, -0.019239262, -0.120972864, 0.03091263, -0.15259136, -0.004991809, -0.0010077474, 0.12474786, 0.03356487, 0.034428064, -0.031591218, -0.13328871, -0.011019784, 0.03031544, 0.0077772136, -0.09558237, 0.012196181, 0.20026089, 0.15703273, -0.004306047, 0.065574095, -0.18604633, -0.067413904, -0.022639917, -0.02514809, 0.077901706, -0.05316438, 0.17650577, -0.056484964, -0.04219722, -0.1056779, 0.0030336452, -0.14212288, 0.12478509, 0.065334305, -0.14278302, -0.081935965, -0.103738315, 0.16514345, 0.04831266, -0.01365494, -0.15219197, -0.034990143, 0.1518372, -0.07085453, -0.023337098, 0.013160617, -0.03272923, 0.1377662, 0.0008892165, -0.04870874, 0.02196813, 0.09712745, 0.10169438, 0.07377876, 0.17690425, -0.08506021, 0.17875649, -0.023861052, 0.037011404, -0.09204903, 0.096942194, -0.08113618, 0.1803759, 0.039279982, -0.119940236, 0.06195156, 0.13235548, -0.069035366, 0.025170743, -0.12613748, 0.20550162, 0.18614446, -0.040801443, 0.041729167, 0.08628917, -0.11887988, 0.035308633, -0.05157847, 0.09881091, -0.20296901, 0.06741562, -0.098860644, -0.12377208, 0.12539029, -0.046168335, -0.02092003, -0.014192393, 0.035045348, -0.10252659, 0.052781183, 0.015044319, -0.04564445, -0.02190478, 0.16097122, 0.086034335, 0.06175611, 0.06477917, 0.013644265, -0.044797894, 0.1258169, 0.00024525437, 0.03233105, -0.102348335, -0.17349516, -0.035281353, -0.13001761, 0.08747404, -0.055958025, 0.016290238, -0.042883728, 0.030433068, -0.1695161, 0.113205835, -0.09239606, 0.037093535, 0.11180375, -0.1689792, -0.06381341, -0.0018228489, -0.01375052, 0.035174053, 0.0027601486, 0.062705025, -0.18743178, 0.14671305, 0.07868718, -0.0948916, 0.026575604, -0.01923155, -0.0341892, -0.005951429, -0.036829337, -0.04371081, 0.025561076, -0.115418464, 0.06656434, -0.003929659, 0.038331024, -0.12474506, -0.10701275, 0.025667036, 0.17454821, -0.017002854, 0.0423031, 0.19244246, 0.11012816, -0.01575039, 0.043193374, -0.006250306, -0.09174164, 0.08851917, 0.063747235, 0.14146595, 0.06664245, -0.10215435, 0.1360915, 0.06425115, -0.065764055, 0.13407643, -0.0136974035, 0.009660785, 0.17701806, 0.011115812, -0.12925197, 0.12932722, -0.15823883, -0.05302538, -0.00330817, 0.10847538, -0.03989439, 0.051271997, 0.04410574, 0.016110206, 0.12839702, -0.07416411, 0.0634996, -0.02764666, 0.10495436, 0.04043807, 0.052087877, -0.1264622, -0.11450401, 0.05273747, 0.060186435, -0.0043778615, -0.055041976, 0.03829511, 0.12156224, 0.05325875, 0.036222033, -0.060057092, -0.06530229, -0.089473374, 0.01699729, -0.067288935, -0.07243834, 0.044854343, 0.07687953, 0.034807768, -0.015971618, 0.14211373, 0.06869157, 0.05969519, -0.07582286, -0.08731466, -0.09984191, -0.06325243, 0.054696802, 0.011086282, -0.020292081, 0.02577153, -0.14572185, -0.07102533, 0.007935912, -0.0417592, -0.0056780437, -0.0366089, 0.037907247, 0.05807282, 0.040295284, -0.1967216, -0.1024909, -0.053002328, -0.0038211376, -0.12868612, -0.14978194, 0.019132111, -0.14474612, -0.010148582, 0.055533417, 0.016155116, -0.0404084, 0.009594608, 0.0037549278, -0.06628063, 0.12419762, -0.02460386, -0.044423897, 0.07449845, 0.052268915, -0.037480455, 0.0044055087, -0.060005832, 0.03288505, 0.14065047, -0.14178815, 0.0031630672, -0.0789963, -0.09749195, -0.0032158524, -0.13364053, -0.045024715, -0.024261931, -0.051512785, 0.110797755, 0.11367501, -0.017150057, -0.101462625, 0.11357228, -0.18055141, 0.11560668, 0.053750593, 0.13458648, 0.028600452, 0.018560633, 0.008067983, 0.024058316, -0.005495435, -0.15542558, 0.03297264, 0.0069603412, 0.007630318, -0.0021007948, 0.06901651, 0.11407754, 0.025881011, 0.010903692, -0.041081183, -0.00033167814, 0.018192451, 0.020078931, -0.11500399, 0.019832345, -0.053472817, 0.026186345, 0.08747741, 0.15772437, 0.14010483, 0.06942875, -0.029424567, -0.07378132, 0.04578778, 0.0974707, -0.124757506, -0.093679264, 0.1828235, 0.045949854, 0.11086364, -0.020343583, -0.049673397, -0.15605803, 0.120848976, 0.053346794, 0.101848386, -0.07827576, -0.15729965, 0.06285688, 0.04183493, 0.18233919, -0.023321398, -0.17529061, 0.02255352, 0.020647097, -0.058755357, -0.13774563, -0.15139082, -0.021675453, -0.020048982, -0.0053428616, -0.09483739, -0.11023217, 0.091201715, -0.08365595, 0.107264295, -0.094723605, -0.10887896, -0.15194255, -0.053544622, -0.08700016, 0.09447065, -0.14288391, -0.06852913, 0.04987011, 0.09015904, 0.06869252, 0.069976866, 0.015617003, 0.037245158, -0.025993273, 0.101125255, -0.1432047, 0.0863071, 0.10666333, -0.102615036, -0.0040758285, 0.09688048, -0.012900566, 0.023998747, 0.13405153, -0.16989447, -0.047951072, -0.023805708, 0.119084656, -0.11727574, -0.04233152, 0.117401205, 0.09176071, 0.030414397, -0.17889492, 0.040754464, -0.14681785, 0.11393681, -0.08748043, 0.10127805, -0.037826546, 0.16189021, 0.008366314, 0.08955302, 0.11992418, 0.037847534, 0.09892005, 0.06617742, -0.14812657, 0.109498195, 0.11103143, 0.10527104, -0.11900295, 0.028923102, -0.01885612, 0.02504115, -0.05757227, -0.03168266, 0.01675244, -0.014649967, 0.036072977, -0.13385615, 0.061481643, -0.111238636, -0.07124318, -0.13129285, 0.15164837, 0.06445449, -0.044920698, -0.041134346, -0.17775467, -0.11609533, 0.03342026, 0.037832145, 0.092522174, -0.007890427, -0.06056965, -0.14139721, 0.18636407, 0.06276936, -0.18738435, -0.0933581, -0.009217248, 0.06604989, -0.11324792, 0.0818644, -0.03619284, -0.0528538, 0.0032796294, -0.13816711, -0.02688575, 0.08288353, 0.080961704, 0.08211051, -0.018647894, -0.05731401, 0.1090596, -0.042417914, 0.16559361, -0.023587173, -0.1772996, 0.12049525, -0.03247312, -0.034333948, 0.048060592, -0.02570687, -0.07823382, 0.10013404, -0.030292857, -0.010696693, 0.00889886, 0.027662285, -0.047482044, 0.0056883637, -0.081145786, -0.014988382, 0.03298386, -0.0019090262, -0.04535678, -0.014239119, -0.048290364, -0.15312403, -0.08435817, -0.027571158, -0.039486445, -0.0035383117, -0.13029164, -0.11320154, -0.012600871, -0.11045331, -0.008477687, -0.05980909, 0.12516023, 0.09204416, -0.095547415, -0.035621077, 0.021693157, 0.09843623, -0.16198726, 0.007246974, -0.08226231, 0.092611976, 0.059001356, 0.14151731, 0.17294922, -0.012026912, -0.09513204, -0.060061313, -0.09431452, 0.15665363, -0.065494366, 0.030859407, 0.01372736, 0.04592838, 0.07474837, -0.061484206, -0.0465388, 0.044327743, 0.04373205, 0.07806646, -0.025911028, 0.08452718, -0.09140141, -0.05449381, -0.13136724, -0.0101434095, -9.5346164e-05, -0.06148426, -0.06356462, 0.020894181, -0.17140447, 0.1295213, -0.0027202053, 0.008486777, -0.032361373, 0.1069829, 0.14089493, -0.021992642, 0.053078182, -0.06331326, 0.08961472, -0.091287985, 0.010819539, 0.07790474, -0.043475606, 0.022249132, 0.08533731, -0.03258169, 0.17805165, -0.057055846, 0.121786475, -0.15319365, 0.017184423, -0.04791723, 0.17657001, 0.0059179845, 0.07394863, -0.15132959, 0.13733463, -0.101172544, 0.049403116, 0.17851686, -0.0681185, 0.0983942, -0.0070423232, -0.21777171, 0.04465817, 0.10664456, -0.037822384, 0.047284357, -0.10072656, 0.10931368, 0.02941978, 0.18717644, -0.1111559, -0.12172795, -0.15206952, 0.07879811, 0.014023521, -0.137056, -0.115596086, -0.050271068, -0.021896472, -0.0067707766, 0.0005825464, -0.05270514, 0.13058388, -0.046970736, 0.07530227, 0.022999246, 0.10217173, -0.094568916, 0.11727133, 0.09664829, -0.057338707, 0.018557921, 0.046024807, 0.048943933, 0.0042380146, 0.13855639, 0.037294, 0.10688238, -0.11454288, 0.16496012, 0.12980728, -0.010133881, 0.07869379, 0.14655346, 0.08905281, -0.08300549, 0.11672515, 0.07738387, -0.08251399, -0.042076815, -0.05443431, 0.059125, -0.028774416, 0.16903578, -0.042205855, 0.016585149, -0.17356052, 0.071365006, -0.08357666, 0.014257504, 0.038747117, -0.045059226, 0.08336967, -0.050539147, -0.019518653, 0.0035459718, 0.11835466, 0.068731315, 0.047845352, 0.06481605, -0.12641555, 0.037565205, -0.023670217, 0.07944981, 0.07872345, 0.035848442, 0.010737346, -0.10823413, 0.06294329, 0.051516697, 0.12580688, -0.0752426, 0.099301785, -0.20086193, -0.121257, -0.040145703, 0.006410656, 0.013948181, -0.19958097, 0.104657404, 0.1438334, -0.20548655, 0.07861409, -0.13349505, -0.00901233, 0.13367371, 0.0014592082, -0.060244046, 0.058818545, 0.025946818, 0.031751465, 0.021207249, 0.1514728, -0.11172677, -0.019859267, 0.14940235, -0.055245366, 0.019664014, -0.10048494, 0.13872425, 0.082787, -0.08759628, 0.10115108, -0.09770933, -0.035276953, 0.115304254, -0.04433116, 0.013614616, -0.08559944, -0.033244386, 0.07886917, 0.11133557, 0.039076164, -0.03775794, 0.061828718, 0.094054975, 0.032896914, 0.05764764, -0.063616395, -0.177753, -0.113492005, 0.10825896, 0.11343032, 0.04135514, -0.13731466, 0.03375278, -0.036636636, 0.12788653, 0.15509716, -0.12696993, 0.023001462, -0.08913406, -0.10853719, -0.063187785, -0.10918675, 0.050449125, 0.00289702, -0.13608333, -0.12139292, 0.058314793, 0.042825345, -0.009856049, 0.102517135, 0.05249638, -0.060642708, -0.14819029, -0.016984487, -0.09621015, -0.061067432, 0.010631039, -0.123637825, 0.13877964, -0.09421363, 0.048273474, 0.03886281, -0.040225893, 0.07784337, 0.12491666, -0.113779955, -0.04550268, -0.10627482, 0.12899952, 0.11759862, 0.15634137, 0.08375794, 0.11561533, -0.05502938, 0.060847986, -0.15564708, -0.106189296, -0.022659987, -0.0009796817, -0.08003934, -0.0048529026, -0.09866289, -0.102256745, 0.036799643, 0.09948419, 0.11090979, 0.097413085, 0.024272298, -0.005478532, -0.0225354, 0.15362632, -0.08725427, -0.032811124, -0.07255767, 0.05261189, -0.043745805, -0.12648018, 0.029184906, -0.039385837, -0.0336449, 0.029851453, -0.118164405, -0.0063384096, 0.046311025, -0.05240731, 0.028183077, -0.07096332, 0.1274868, -0.0112811355, 0.1039815, -0.17949037, 0.18187684, -0.015529778, 0.12632704, -0.19053681, 0.05957974, -0.07734076, 0.038925532, 0.11945946, 0.09616324, 0.12430515, 0.0107315, 0.10311896, -0.059878092, -0.041279517, 0.03845669, 0.1279425, -0.01617028, -0.023389667, -0.008475103, -0.05889545, -0.021653498, -0.04034766, -0.17280222, 0.053755183, 0.0936175, 0.09896304, -0.05393111, 0.016545655, 0.0008840782, -0.08995306, 0.1335246, 0.07532257, 0.03526326, 0.02406903, 0.15724573, -0.03186402, 0.0073403404, 0.14920273, 0.063735284, -0.16945876, 0.022722803, 0.15757024, -0.03749003, 0.059695084, -0.023612265, -0.06658685, -0.13793002, -0.096887365, -0.12458602, -0.06058667, -0.056420617, 0.15228604, 0.00011958217, -0.0605799, -0.09121846, -0.10375275, 0.16199528, -0.147163, -0.045703378, 0.0348765, -0.19277522, 0.034859475, 0.08324379, 0.033147547, -0.06705573, 0.04489693, 0.04679221, 0.053741902, 0.13691612, 0.043795165, 0.028410284, -0.14583181, 0.085332826, -0.07948078, -0.040528223, 0.031364772, -0.15505873, -0.048437145, 0.005681529, -0.13488682, -0.10201145, 0.02113804, 0.025208397, -0.09180025, -0.04620991, -0.04383145, 0.02334612, -0.102874115, -0.10425182, -0.06694819, -0.062643565, -0.10644536, -0.20882365, -0.080566816, -0.14167623, -0.02116014, -0.06811331, -0.15257901, 0.08391391, 0.13099095, 0.042140193, 0.14392674, 0.09192567, 0.11621369, -0.12546666, -0.19343673, 0.018562416, -0.020926332, 0.1156384, 0.016094718, -0.07582456, -0.17466271, 0.07037571, -0.15816544, 0.035875905, -0.15657602, -0.14356068, -0.08964293, 0.028421858, -0.012269394, 0.12671843, 0.055744074, 0.03332459, -0.05622548, -0.13372408, 0.12709175, 0.024882711, 0.048433058, -0.012387675, 0.019872664, -0.07673241, 0.10056581, 0.020898929, -0.09842244, -0.12758228, 0.029197728, 0.0750593, -0.019693643, 0.14859985, 0.17021601, -0.1161893, 0.089552306, 0.12236045, 0.1565198, 0.07912286, -0.06699586, -0.07963077, 0.06729878, 0.02876923, -0.05546771, 0.15022106, -0.060301647, -0.1333251, -0.021183187, 0.034242883, -0.104350545, 0.09782568, 0.01574529, 0.18481967, 0.06031081, -0.034974467, -0.04390461, -0.07689086, 0.08525309, 0.07100489, 0.0037640438, -0.03360774, 0.09676689, -0.09636089, -0.024718506, 0.07273186, -0.11734585, -0.16022485, -0.050076157, 0.07385186, 0.11810762, -0.050861873, 0.030376049, 0.04560772, -0.10223751, 0.0025552607, -0.07158915, -0.05003878, 0.17971207, -0.052828576, -0.0925023, 0.087477796, -0.0339436, 0.14645757, -0.029686714, 0.042125434, 0.10931756, -0.0046678847, -0.12513483, -0.07103892, -0.010717797, 0.09431862, -0.06387796, 0.07929703, -0.02108499, -0.05776232, 0.04916444, -0.110383764, -0.011932487, 0.047869947, 0.15432875, 0.12560913, 0.07138212, -0.054440126, 0.06791909, 0.0075690406, -0.07582781, -0.0020420952, 0.0067284834, 0.04223118, -0.11803221, -0.04870572, -0.18416077, 0.0024484892, 0.031197872, -0.024259415, -0.015721614, 0.0915564, 0.030254602, -0.08174315, -0.17454909, -0.049549, 0.027804125, 0.14730525, -0.119634405, 0.021571169, 0.032464292, -0.047803577, -0.1816097, -0.10737477, -0.10939961, 0.07399256, 0.0496394, -0.095559716, -0.008452637, -0.09370752, 0.01741259, 0.023952218, -0.051077954, 0.14231376, -0.10043684, 0.04971325, -0.1335365, 0.050617293, -0.10674852, 0.03668363, -0.023503795, 0.13478217, -0.03419077, 0.13168493, 0.0683084, 0.012669271, -0.06444586, -0.112573445, -0.18486574, -0.074715935, -0.17112409, -0.030470043, -0.15100652, -0.046960425, -0.042079378, -0.125106, 0.00044143977, -0.077245615, 0.009927572, 0.08604662, -0.13257828, 0.065200604, 0.09960452, -0.044342626, 0.17214626, -0.13351142, -0.080907255, 0.043831628, 0.03509033, -0.19551663, 0.037666623, -0.17469613, 0.10683835, -0.003707484, -0.06835677, -0.014258608, 0.057027284, -0.08453964, 0.09696542, 0.040252484, 0.052325506, -0.09008356, -0.04938069, 0.0907841, -0.14269088, 0.15397106, -0.0410638, -0.036234062, -0.15777308, 0.058422986, 0.12337735, 0.08781439, -0.009139019, 0.021829665, -0.1319023, 0.13265328, 0.134413, -0.049229976, 0.030976584, -0.12227289, 0.07694875, 0.12873316, -0.013376904, -0.09710644, 0.037892792, -0.14377555, -0.055871267, -0.030408014, -0.06586036, -0.03391406, 0.043234132, -0.17367163, 0.10889542, -0.07740892, 0.021148775, -0.16225088, 0.0573447, -0.16033559, -0.025091846, -0.064082, 0.0746571, 0.13458562, 0.09226128, -0.104987346, 0.075697124, 0.12595181, 0.12294919, 0.08224978, -0.058293957, -0.065085046, 0.17680453, -0.096241936, 0.07064165, 0.14605097, 0.04444106, 0.03194337, -0.12945561, -0.0004948069, 0.036662426, 0.07247186, 0.09638068, 0.092537455, 0.17580523, -0.105307214, 0.011537386, 0.035130344, 0.058066633, 0.04916078, 0.054146968, -0.13893574, -0.013030945, 0.15120965, 0.013037504, -0.08934097, 0.034112312, 0.052200206, 0.013945719, 0.035513822, 0.016927915, 0.08330554, 0.01332159, 0.12649933, 0.086669356, -0.04741631, -0.11503486, -0.09912299, 0.007879928, 0.06926638, -0.008419919, 0.008539314, 0.020953618, -0.0618683, 0.08097181, -0.1552059, -0.045853347, 0.0463277, -0.029968277, 0.08521866, -0.029543735, 0.16515094, 0.064223915, 0.019491944, 0.110043876, -0.17715633, -0.19522041, -0.1539764, -0.007866275, 0.096032225, -0.090926886, -0.06636333, 0.06974307, 0.06257642, -0.08729639, -0.21143357, -0.007274697, -0.07004016, -0.061615117, -0.08622132, -0.033893336, 0.124636926, 0.049882155, -0.12032441, 0.13827989, 0.13341288, 0.17008686, -0.05762821, 0.00058066804, 0.16304377, -0.0638368, 0.12860967, 0.070501134, 0.06516771, 0.06542074, -0.012789566, -0.0028369266, -0.18005243, 0.08594699, -0.08483846, 0.046438064, -0.0723919, -0.054423098, -0.10653082, -0.015642399, 0.028333886, 0.081068106, 0.038543884, 0.0046127085, -0.14215034, 0.05406165, 0.1603097, 0.076423846, 0.0575849, -0.03989865, 0.026865935, -0.116422296, -0.07950281, -0.06268514, 0.01635871, 0.06605711, -0.16643398, 0.008177782, -0.16788575, 0.12163338, -0.07716069, -0.10276887, -0.033394154, 0.038008224, 0.14243753, 0.077817924, 0.074204, -0.019176474, 0.080346644, 0.00510723, 0.032563366, 0.11303826, 0.036926523, 0.0820271, 0.09815272, 0.035661638, -0.021178883, 0.08445599, 0.046889257, -0.20082651, 0.0418782, 0.068608336, -0.124411985, 0.01766285, 0.1333464, 0.14178503, 0.07385796, 0.016663088, -0.033806358, 0.10738518, 0.02635988, -0.06865185, -0.031105496, -0.047707908, 0.050810795, -0.074899934, -0.08275344, 0.08099031, 0.042367857, 0.16544837, 0.0042872354, 0.071493514, -0.08901669, -0.011326038, -0.19458757, -0.06316788, 0.18792526, 0.084315285, -0.028103186, 0.01730052, 0.17341504, -0.14439473, -0.1671999, -0.09733117, -0.09282961, 0.058288366, 0.02959351, 0.06979713, -0.052670013, -0.01061711, 0.018001147, 0.02860199, -0.16326499, 0.1269897, 0.014918735, -0.0015699412, -0.04399376, -0.18639593, 0.09259245, 0.09308487, -0.040926646, -0.09759547, -0.008848372, -0.15569828, 0.13817397, -0.055763308, 0.07832324, -0.056072526, -0.08654406, -0.19485287, 0.042228214, 0.05348036, -0.06683789, -0.12378312, 0.08316385, -0.09196869, -0.10873633, 0.010524196, -0.06277932, 0.13537069, -0.032944396, 0.015652603, -0.01462566, -0.10386505, 0.08718076, -0.076152734, 0.14338137, 0.0019512749, -0.0020771911, -0.010055128, -0.085412845, 0.045100994, 0.009552864, -0.10158183, -0.09716155, 0.18386672, -0.15681186, 0.10755959, 0.08593225, -0.1567877, 0.039890856, 0.11114278, 0.10998361, -0.027987806, -0.08720858, -0.003015151, 0.025367083, -0.023386564, 0.09240499, 0.068096414, -0.03833611, -0.058428988, -0.02949059, -0.014571816, 0.038183726, -0.041267358, 0.13637088, 0.15820555, -0.15734464, 0.09976202, -0.026508223, -0.19351354, -0.007911032, -0.02081595, -0.097337924, 0.03403102, -0.05776604, -0.106056616, -0.1593179, -0.12964712, -0.08407052, -0.029036662, 0.043604676, 0.04329885, 0.022349916, -0.07169354, -0.032491405, 0.016371666, -0.07859545, -0.029966846, 0.062331114, 0.0030524507, -0.07765376, 0.042061903, 0.012950347, -0.095415846, -0.06632957, 0.019837324, 0.11918723, 0.003994815, -0.008599324, 0.06720943, -0.11160861, 0.14006247, 0.078927495, 0.09055603, 0.0871446, -0.10300437, 0.011406126, 0.092125505, -0.005652217, 0.077977195, -0.087077186, -0.17125104, -0.0028606916, 0.10640104, 0.042731903, 0.034581974, 0.14283583, 0.07017087, -0.051531926, -0.20589492, -0.15607628, -0.047381226, -0.007729099, 0.044801116, -0.032131523, 0.13614516, -0.009174372, 0.038864277, 0.067088984, -0.044099346, -0.030461913, -0.17356257, 0.10246731, -0.09644076, -0.09526911, -0.008568579, 0.0025224383, 0.044619337, -0.15536912, 0.06402238, -0.018698854, -0.1091883, 0.14231507, 0.07918397, -0.050934117, 0.08408752, -0.14758714, -0.12334012, 0.048085727, 0.03847116, 0.1056158, 0.1311481, 0.018628096, 0.06870951, -0.010202304, 0.07729984, -0.07426866, -0.10325306, -0.053231828, 0.036279976, 0.06054915, -0.12079945, -0.03918198, 0.049232773, 0.1424044, 0.12272852, -0.0050643925, -0.00015936777, -0.15213853, 0.11575342, -0.087301835, 0.113701284, 0.104297474, 0.008566765, 0.14870717, 0.09881432, 0.009826352, 0.011790942, 0.06869864, -0.025617052, -0.06422606, 0.020467853, 0.020392526, 0.10842051, 0.15178774, 0.06142394, -0.050082743, -0.07397144, -0.027514001, -0.031070665, -0.07000025, -0.09880892, 0.13634561, 0.01341731, -0.15777694, -0.0332413, 0.064025275, -0.02278505, 0.0578461, 0.019842854, 0.1259983, 0.0998218, 0.08231916, -0.068726614, -0.06648143, -0.066545635, -0.009299119, -0.078210115, 0.06394837, 0.14835198, 0.21108107, 0.15655378, 0.035209298, 0.054287817, -0.06807938, 0.050425343, -0.03151305, 0.0026428537, 0.13371408, -0.02832194, -0.049318083, 0.09023979, -0.13161206, -0.007982427, 0.061211284, -0.042289905, -0.030905364, -0.17846812, 0.1318022, -0.13933021, -0.12333622, 0.1442128, -0.058369335, -0.10720976, 0.04113705, -0.047273334, 0.07422122, -0.09783555, -0.13165706, 0.06565963, -0.096402414, -0.038106684, -0.09983839, 0.13346422, 0.13842669, -0.15928975, -0.056999445, 0.0086004315, 0.027776467, 0.12821917, -0.026553662, 0.010378965, -0.05499472, -0.07557637, -0.14561489, 0.013202932, 0.13636668, 0.09968023, 0.02631208, -0.074937455, -0.035424367, 0.020104136, 0.08706421, 0.008470529, 0.037877437, 0.09583492, 0.17669384, 0.09667471, -0.030057011, -0.13456666, -0.15368344, -0.17514625, 0.009705253, -0.06048197, 0.057857353, 0.029589327, -0.09959253, 0.109279074, 0.19869864, 0.08503592, 0.03740847, 0.1554131, -0.047616363, -0.03305989, 0.02891924, 0.0095815575, -0.11765375, -0.037854057, -0.16554007, -0.08800923, -0.12524897, 0.090585, -0.10236173, 0.09650212, 0.18136299, 0.060917106, -0.011167751, -0.038643714, 0.025324302, 0.035084326, -0.06865738, -0.17019744, 0.028042067, -0.012013553, 0.060793385, -0.14588982, 0.050039373, 0.000114299626, -0.10257123, 0.014707546, 0.09270115, 0.19425535, 0.090759955, 0.056107208, 0.012209488, -0.061148647, 0.0905171, -0.07947455, 0.055486947, -0.12700525, 0.0016296533, -0.05723473, 0.058818176, -0.12625182, -0.13678281, -0.017487314, 0.017294837, 0.159046, -0.08988952, 0.017222976, 0.06366773, 0.12822774, -0.16632865, -0.017093975, -0.100306414, -0.032754358, -0.051023584, 0.08186962, 0.23866947, 0.09126754, 0.0610037, 0.13100386, 0.06168035, 0.0031149844, 0.036092263, 0.012671252, -0.12900704, 0.008179865, -0.045646198, -0.034131862, 0.055290774, -0.07182649, 0.009989406, -0.07462307, 0.06235782, -0.0024464077, 0.033071972, 0.07821965, 0.0035438966, -0.04872927, 0.12008326, -0.035122026, 0.10058877, -0.08862151, -0.038359787, -0.10509691, -0.1601994, 0.020218842, 0.185809, 0.05446731, 0.093504705, 0.10163175, -0.084933616, 0.016497955, 0.069634445, 0.03138988, -0.08713117, 0.038970623, 0.121031925, 0.09901216, 0.06359322, 0.040651333, -0.015664255, -0.11196865, -0.0028098482, 0.025991708, 0.14382277, -0.14440337, -0.0838144, 0.0245344, -0.08878663, 0.09104198, -0.017652182, 0.10620616, -0.14276779, -0.045883432, 0.029814387, -0.05454316, 0.11073433, 0.068533875, -0.087672085, -0.05440573, 0.043713983, 0.16420108, -0.18758553, 0.05841195, -0.12176548, -0.068089925, -0.057169013, 0.078918174, 0.12359963, -0.004317207, 0.0713874, -0.06591127, 0.019027296, 0.076904565, -0.058429535, 0.017315723, 0.055772204, 0.02822086, 0.0012771143, 0.09863656, 0.08898501, -0.016169243, -9.400819e-05, -0.040044185, 0.08849025, -0.077858634, 0.0528217, -0.1623904, -0.045301396, 0.0134551255, 0.06217452, 0.16573736, 0.17883588, 0.09253113, -0.025060222, 0.111641936, 0.05226056, -0.050565142, 0.110513695, 0.101497546, -0.05035418, 0.023379799, -0.0117234895, -0.056138866, 0.031115204, -0.12010516, -0.19683462, -0.057029396, -0.088085696, 0.010899373, 0.0939731, 0.111796744, -0.05641869, -0.09287404, 0.10033287, 0.017597398, 0.032534547, 0.13595408, -0.045090646, 0.10365581, 0.011600323, 0.041301504, 0.047338426, 0.137383, 0.018918602, 0.13760617, 0.0069467854, -0.04062964, 0.02623454, -0.012075434, 0.059247095, -0.068624355, 0.18597446, -0.012420297, 0.029864058, 0.056753583, 0.028066525, 0.06318988, -0.0054920227, 0.02259464, -0.010036986, 0.012552703, -0.01773693, 0.043685507, 0.055057134, -0.10509432, -0.004219434, -0.16342188, 0.10500716, 0.0722505, 0.012420862, -0.011411917, -0.06927654, -0.1287366, -0.026872125, -0.04616104, 0.056129236, -0.017188318, 0.030772869, -0.08383666, 0.052753888, -0.046616513, 0.04374267, 0.027703688, 0.05031705, -0.0138436, 0.027050491, 0.16285367, 0.01716709, 0.064336844, 0.1563692, -0.01563252, 0.06867011, 0.12890589, 0.031791482, -0.17730337, 0.14075267, -0.14280945, 0.06923305, -0.07893026, 0.1375102, -0.09547306, -0.08764347, 0.036667023, -0.009514162, 0.12568259, 0.14999874, -0.09505481, -0.025928028, -0.06121021, 0.1824539, -0.07828443, 0.13024388, -0.06636598, -0.13189538, 0.06027075, 0.0047627757, 0.08029785, 0.008693469, -0.14492074, 0.05237667, 0.07579136, -0.15668948, 0.06358441, -0.13335665, 0.01611355, -0.18398638, 0.17066535, 0.029336516, -0.0820788, -0.088808924, 0.06409284, -0.035726212, 0.12692602, -0.16785261, -0.06573897, -0.052439522, 0.039671756, -0.05266472, -0.10753834, 0.081927575, -0.047689132, 0.18296815, -0.08323554, 0.09803446, -0.094964206, -0.110661544, 0.08532856, -0.09008215, 0.1126672, -0.0902843, 0.07405076, 0.022399634, -0.01459239, 0.18060198, -0.05021833, -0.040012624, 0.028424202, -0.063538864, 0.17720091, 0.16639432, -0.20926724, 0.04328335, 0.022303542, -0.0072592795, -0.017993083, 0.048032667, 0.085625894, 0.09504172, -0.0024662053, -0.046318166, -0.11781536, 0.14549355, -0.039365552, -0.06477219, 0.054241285, -0.0757853, 0.12794147, 0.12766534, -0.13128346, 0.05444378, -0.14112645, -0.07583836, -0.15238538, 0.05626141, 0.03438694, 0.17715476, -0.019090116, -0.09851525, 0.09340065, -0.027115785, 0.10820931, 0.06833782, -0.037586533, 0.05634401, -0.006406658, -0.075582445, -0.09652156, -0.033338178, 0.022252893, 0.034497533, -0.07867032, 0.016517019, 0.14085081, 0.18762039, -0.0365556, 0.033827595, 0.048571233, 0.016484573, -0.027452983, -0.13075364, -0.06277868, 0.015240838, 0.03047684, 0.017184796, 0.0296339, -0.11097944, 0.1271561, 0.13602993, 0.0293323, 0.11049343, -0.051410884, 0.08295257, -0.008822772, 0.039533474, -0.02302596, -0.057992507, 0.09027621, 0.032779127, 0.055365898, -0.16319457, 0.05596192, 0.03377949, -0.016872782, 0.06818336, 0.104858704, 0.064746514, -0.12152384, 0.0068996027, 0.027814016, 0.0060775997, 0.10735756, 0.066800155, 0.06822703, -0.06246822, 0.07676824, -0.08388608, -0.07587066, -0.059510414, 0.011550393, 0.0151164485, 0.12342251, 0.15185033, 0.025616188, 0.039614208, 0.16862354, -0.15462908, 0.07031894, 0.006227564, -0.013651987, -0.084523164, -0.18733135, 0.1919024, -0.06686687, 0.027027568, 0.12703192, -0.14410223, 0.069216624, -0.01911022, -0.02150711, -0.11755383, 0.05518267, -0.20490664, 0.07424638, -0.06681943, 0.013869647, 0.07253741, 0.038934905, 0.08753138, 0.04808268, -0.08186042, 0.04775191, -0.06628426, -0.098816246, 0.09555861, -0.110266425, -0.039410945, 0.07982631, -0.07093471, 0.0619585, -0.08415823, -0.07674184, -0.16032675, -0.016603805, 0.008562129, -0.0100498395, -0.010874847, -0.12699383, 0.04712464, 0.048669744, -0.13313808, -0.13213044, -0.03982506, 0.019248247, 0.065733075, 0.07233983, -0.12985939, 0.13701725, -0.034887873, 0.023763526, 0.09615927, -0.067096695, 0.103314266, 0.026741825, -0.016535394, 0.0133518595, -0.1095539, 0.013747584, 0.086197115, -0.16191357, 0.025727458, 0.018916419, 0.03674692, 0.07317413, -0.053328693, -0.029676564, 0.09864801, 0.021612406, -0.059592914, -0.14401832, -0.01174333, -0.015411813, -0.053286772, 0.027828943, 0.017672751, 0.04034777, -0.098215945, 0.1356854, -0.068632856, 0.1087888, -0.046798706, -0.042789537, 0.09425547, 0.0030910177, 0.082389876, 0.04270386, -0.026154801, -0.22232074, -0.1983927, -0.06959025, 0.044071663, -0.057019196, -0.009036027, -0.06308037, 0.015861865, 0.1396802, -0.06600322, 0.018046457, 0.06871494, 0.13606365, 0.06989963, 0.13726139, 0.11373984, -0.13593887, -0.18539017, 0.05413329, -0.014799594, -0.09565775, -0.14977548, 0.049052335, -0.10123452, 0.004582405, 0.14101297, 0.13154933, 0.06330931, -0.09971119, -0.16220573, 0.1713766, 0.009799924, -0.019186564, -0.12440597, -0.09556642, 0.034633745, 0.06434025, -0.067088306, 0.05489547, -0.054077923, -0.054903828, 0.06679163, 0.0025549913, 0.12950024, 0.013449407, -0.08741252, -0.007918158, 0.12334799, -0.02277382, 0.047177326, 0.04988539, -0.13149825, 0.088211164, -0.1007788, -0.20696606, 0.1501588, -0.11497901, -0.006187573, -0.057202637, -0.059933312, -0.13751891, -0.16194175, 0.049255013, 0.106730714, 0.18902062, 0.028666303, 0.015182154, -0.123296134, -0.1478648, 0.036572177, 0.11570846, 0.029430592, -0.10641609, 0.096703395, 0.0008139916, -0.08422084, 0.019796357, 0.0020803534, 0.056861266, -0.12749356, -0.10487005, -0.015543501, -0.16076648, 0.009409301, -0.18581682, -0.03438744, 0.029906115, 0.03816131, -0.12066909, 0.0011404313, -0.044354007, 0.048438624, -0.077540115, 0.054110162, 0.06278221, -0.22721434, 0.09366227, -0.15034477, 0.017978458, 0.09132842, 0.13342762, -0.09483618, 0.1525717, 0.000659752, 0.026951563, 0.012900325, -0.10429938, 0.13454635, 0.037556544, -0.07481018, -0.12893206, -0.037884407, -0.16663846, 0.027319113, 0.03425383, -0.030470114, -0.016309222, 0.036316473, -0.026871545, 0.004144665, -0.05357147, -0.18037419, -0.041496135, 0.025508637, -0.17062943, 0.05302397, 0.10451511, -0.1164884, 0.04849968, -0.20200586, -0.12168682, 0.10438907, -0.16839346, -0.08846677, 0.11025185, 0.014102076, 0.12898922, 0.065276146, -0.002784715, -0.008039609, -0.10073312, -0.03164809, -0.11051542, 0.016563594, 0.0478931, -0.14341527, 0.09092324, 0.0825833, 0.17118064, 0.13660958, 0.044159107, -0.15616655, 0.04225665, -0.109156914, -0.16930993, -0.009950231, 0.10133124, 0.10858181, 0.04455422, -0.12775825, -0.06374067, -0.18371871, -0.030678079, -0.0051464112, 0.035172094, -0.08716975, 0.07068495, -0.014767926, -0.073825136, -0.0012752778, 0.123064175, 0.030087195, 0.15406388, 0.13764001, -0.09419637, 0.001935183, 0.15810578, -0.03351755, 0.11220522, -0.13052106, -0.076512605, -0.13064298, 0.020235453, -0.12039694, -0.1059205, -0.076711945, -0.0493085, 0.010543065, 0.059319183, -0.013001662, -0.102638535, -0.027720878, 0.03803324, 0.118551426, -0.021728177, 0.065646045, -0.13068707, 0.017827103, -0.040937185, -0.18217587, 0.042875472, -0.18921816, -0.077252604, -0.06620245, -0.061953288, 0.006516545, 0.11220184, 0.1823016, -0.051464252, 0.11046134, -0.052649636, -0.049633853, -0.16246931, 0.008524187, -0.039425775, 0.058137383, -0.042841174, 0.0010887239, 0.07094878, -0.17447968, 0.054544974, -0.17381121, -0.16967277, 0.082988, -0.029915594, 0.027804568, -0.041979887, 0.1349536, -0.11858067, 0.025281848, 0.026181677, 0.00389139, -0.1716153, 0.11243179, -0.10882225, 0.13463087, -0.050071463, -0.12876233, 0.0035322472, 0.10204134, -0.052964155, -0.05346962, 0.0597467, -0.013408289, 0.07649549, -0.18251412, 0.0031392158, -0.09297693, -0.05885305, -0.00982462, 0.030691216, -0.040008668, -0.03871656, -0.15857539, -0.060051303, -0.084005065, -0.028643893, -0.086269625, -0.014943111, 0.0030699458, 0.065181285, -0.07826236, -0.06831681, 0.08939281, -0.005832486, -0.087839596, -0.09504448, 0.14110565, 0.019923577, -0.073119946, 0.10700586, 0.083832614, 0.14897823, 0.052196637, 0.07223628, -0.03872219, -0.035912484, -0.18061541, -0.0077662403, -0.0152625535, -0.13462006, 0.055017132, -0.1433983, 0.019110192, 0.011810772, -0.19084863, -0.047907766, -0.0019385848, 0.117334396, -0.079092965, 0.0476696, 0.1968243, 0.06337782, -0.004979828, -0.082873434, 0.079276785, 0.0006711798, 0.017772095, 0.041248817, -0.0073472913, 0.04567708, -0.06203521, 0.08207601, -0.036421422, 0.075160615, -0.025943972, 0.039325334, 0.12558503, -0.062178962, -0.11509597, -0.06130639, -0.088536866, -0.018754613, -0.058723856, -0.1779646, -0.018708888, 0.021363508, -0.0954712, -0.117870614, 0.06842528, -0.049410373, 0.031059468, -0.04869084, 0.0039948537, 0.16805504, 0.08486128, -0.07840104, -0.10332769, -0.068489, 0.02246775, 0.10264166, 0.042650897, -0.02110408, 0.04521129, 0.023184417, -0.18091859, 0.02073711, -0.109686375, -0.12374805, 0.072319254, 0.012613684, 0.03977927, -0.10317721, 0.08297609, 0.02657304, 0.08202757, -0.12051078, -0.04434129, -0.17063566, 0.12414772, 0.08739745, 0.055372886, 0.049497336, -0.0455976, -0.013267209, 0.15221533, 0.1047229, -0.0732138, -0.05524212, -0.020178208, -0.077104375, -0.14625871, -0.02683751, -0.047667902, 0.023745626, -0.16539697, 0.08762219, -0.13771327, -0.037284844, 0.20501855, -0.022014828, -0.060359567, 0.11917968, -0.037777305, 0.05945941, 0.09264825, -0.08875926, 0.063493714, -0.16431443, -0.087274335, 0.024072893, -0.04960504, 0.06634288, 0.08862276, 0.09887645, -0.05999768, 0.13589455, 0.0239398, -0.040732887, -0.12953809, -0.030653808, -0.015230311, -0.09357893, -0.0442663, 0.050294343, 0.15502784, 0.16939497, 0.010561853, -0.050279874, -0.055481557, -0.050215837, 0.057170294, 0.022312112, 0.049628634, -0.06898084, -0.13075219, -0.10977225, 0.04510811, -0.04411766, -0.20370531, -0.08462897, 0.04799174, 0.022990644, 0.06172503, 0.045387898, -0.030288514, -0.026060378, 0.08137283, -0.13498826, -0.13217251, 0.06229361, -0.122553356, -0.02377738, -0.043050706, -0.17222953, -0.104790494, -0.15751311, 0.20030774, 0.118382476, 0.13286726, 0.030315291, 0.09268515, -0.08697513, 0.07205579, -0.15803657, 0.040753655, 0.09150135, -0.056911066, -0.112296045, -0.0654474, -0.031158682, 0.09012917, -0.095759675, -0.004111586, -0.12120398, -0.11376808, -0.12979992, 0.058586966, -0.050852634, -0.021119764, -0.08914811, 0.16808087, 0.013288193, -0.027578017, 0.012359068, -0.0070788446, 0.1664063, 0.039718673, -0.017620027, 0.09540234, 0.059872393, -0.05087346, 0.04378586, -0.037478905, -0.15341057, -0.16203408, 0.11776474, -0.04006015, 0.062464643, -0.011735064, -0.01385547, -0.049137842, -0.05018497, -0.1295461, -0.09787585, -0.19586745, 0.09568914, 0.077254176, -0.06809405, 0.079942025, -0.0030518267, 0.09850644, 0.03878708, -0.025870321, 0.07757465, 0.058965065, -0.14382021, -0.024734972, 0.17276487, 0.14691177, 0.061389614, 0.044053275, -0.08503237, -0.06438016, 0.091103606, -0.13146773, -0.018264575, -0.1446081, -0.11839802, -0.03504656, 0.016704619, 0.020349028, 0.0149387745, 0.05963525, -0.044315837, -0.06723828, -0.14519162, -0.023847245, 0.018245414, -0.048684973, 0.06649829, -0.029962461, -0.19951038, -0.015198235, 0.21116017, 0.068825744, 0.0479604, -0.060772877, -0.14925592, 0.064175405, 0.12702855, -0.0102264555, -0.0501682, 0.057085704, -0.07568534, -0.10659928, 0.14010334, -0.010610892, 0.0010867433, 0.10858464, -0.085021935, -0.0787568, -0.055401783, -0.19251758, 0.1859448, 0.075719625, 0.13507211, -0.13821831, 0.03221294, -0.05546359, -0.08683134, -0.1715294, 0.092844844, -0.028907599, -0.12796836, -0.046872158, -0.1687807, 0.0032793598, -0.008742192, -0.074326605, -0.13815138, 0.045704886, 0.058454204, 0.13258798, -0.20456703, 0.0113415895, -0.030066088, 0.10369163, 0.11648476, -0.0153314425, -0.00027007257, 0.031391032, -0.09278949, -0.043869153, 0.053174097, -0.17001085, 0.090651184, -0.092526734, 0.008315978, 0.037722476, -0.02879349, 0.03780337, 0.053518184, -0.15180938, -0.14478903, -0.08779602, 0.07819866, -0.011509849, -0.05357037, 0.21580452, -0.10226778, -0.069003336, -0.017385323, -0.12834395, -0.078119196, 0.020911286, -0.0033263334, 0.09727115, -0.051943038, 0.13827999, 0.17090113, 0.096377544, 0.07123111, -0.096031144, 0.021402834, 0.09022529, -0.056489665, 0.15575834, 0.005714069, -0.10569413, 0.057443984, -0.03183401, 0.14260432, 0.035074, -0.047743157, -0.052663725, -0.01978904, 0.13406444, -0.12589441, 0.10641022, -0.056092612, -0.13267952, 0.13785519, -0.09774587, -0.13414493, -0.061495584, -0.0003992085, 0.06005071, -0.1179652, 0.18507561, 0.15704808, -0.016018622, -0.1653088, 0.041027896, -0.07790599, 0.10361213, 0.1313389, -0.028285272, -0.06550371, 0.025065007, 0.05094046, 0.13700658, -0.12874798, -0.1473923, -0.08505681, -0.05200712, -0.04617384, 0.04022399, 0.07520661, 0.2161618, -0.086523846, 0.15865661, -0.18482886, -0.03208289, -0.05489802, 0.028364502, 0.08428754, -0.038747896, 0.019952236, 0.059843197, 0.15683982, -0.00081036286, 0.034843616, -0.046469804, 0.092642896, 0.004271824, 0.0031508736, 0.08174378, -0.09790492, 0.027050257, 0.14309202, -0.10381161, 0.09519045, -0.013130789, 0.17064948, -0.04186608, 0.05736507, -0.007662745, -0.045600574, -0.083247215, 0.051164277, -0.06945597, -0.06694934, 0.10917754, -0.010007075, -0.070257306, -0.08325511, 0.002573056, -0.013283028, -0.12126877, -0.065638036, 0.09750641, -0.023383431, 0.11364919, 0.025264533, -0.16763498, 0.042008504, -0.18218483, 0.01292498, 0.056510776, -0.1376879, -0.18855171, 0.09928853, 0.00519809, -0.17794062, 0.023166684, 0.07222069, 0.18600005, -0.05561822, -0.007597281, -0.08188598, 0.015856156, -0.04051779, -0.019991033, 0.060754564, 0.01551441, 0.100878805, 0.11497051, 0.16125791, 0.033771135, -0.007937811, -0.06572192, -0.13030909, 0.12009296, 0.03740907, -0.0005643103, -0.02700155, -0.033842288, 0.067916945, 0.029916858, -0.15510929, 0.17172599, 0.20846052, 0.06818025, -0.02461786, -0.17220175, 0.023969797, -0.07380458, 0.15535635, -0.09470026, 0.09660655, -0.032297518, 0.08674969, 0.08415854, 0.007073156, 0.1556361, 0.06669782, -0.054870356, -0.07907799, -0.15904853, 0.041273765, -0.15798742, -0.009829782, 0.006982282, 0.040345922, 0.009756703, -0.14251044, -0.06619406, -0.086145885, 0.020599542, 0.13722989, 0.19681469, 0.115788735, -0.016542135, -0.0808779, 0.05567124, 0.006077989, 0.14394176, 0.098684505, 0.058493488, -0.12613584, 0.047854852, -0.07449982, 0.11397893, 0.07107203, -0.07399003, 0.08922968, 0.08885519, -0.18952571, -0.03715735, -0.015719702, 0.12555388, 0.029215805, -0.0015864512, -0.0043075634, 0.02737954, 0.0013201202, -0.016790006, 0.046801936, -0.031378448, -0.08113377, 0.038703315, 0.18524486, -0.10255589, 0.12594245, -0.0009133835, -0.11894759, -0.076207526, 0.03997262, 0.023732105, 0.13773878, -0.1852066, 0.111038215, 0.010561445, 0.025977869, 0.051072888, -0.04914768, -0.06239498, 0.077048644, -0.07992836, -0.01074389, 0.017759029, -0.084212676, -0.12833007, -0.11553159, 0.057587, 0.0064983387, 0.09133083, 0.06721628, 0.07709567, -0.08531982, -0.13891105, 0.019508094, -0.013564793, 0.0671401, 0.027821114, 0.041003592, 0.11077284, -0.0501326, 0.11056052, -0.05736637, 0.0034635258, 0.076835595, 0.12501718, -0.009561862, 0.0054640505, -0.012350781, 0.122078344, 0.05372708, 0.17761181, -0.055549487, -0.11589982, 0.008503504, -0.006618715, -0.16768996, 0.025812525, 0.13502532, -0.071795486, -0.12754151, -0.03805822, -0.036846258, 0.0021901175, 0.08457257, -0.20453386, -0.18453586, -0.096602455, 0.08903966, -0.10025256, 0.12692818, 0.03644443, -0.026691573, 0.055048984, 0.13618577, 0.17328735, 0.019027397, -0.14355363, -0.06720283, -0.07352417, 0.027662419, 0.02662039, -0.0424484, 0.050703604, -0.012667612, 0.08490944, -0.051994514, 0.114766546, 0.024194058, -0.123779066, 0.14790523, 0.08006922, -0.1266764, -0.15968229, -0.016139481, -0.107710704, -0.0017054331, 0.09226523, 0.0125478, 0.000648025, -0.1382442, 0.07044646, -0.05019754, -0.037124425, -0.120286435, 0.1124463, -0.027279928, -0.022766495, -0.055634648, -0.1425755, 0.03745532, -0.17028926, -0.08738766, -0.03706128, -0.083572224, -0.10070821, -0.20010687, 0.12138028, -0.066758804, -0.12743977, -0.15489867, -0.083936706, -0.10249739, -0.022861296, 0.0444873, -0.06956009, 0.099555604, 0.1782085, -0.029369699, 0.18742098, -0.13505353, 0.11566684, -0.1499732, -0.0735456, -0.14657104, -0.014805558, 0.17251514, -0.009987083, 0.056201246, 0.1467231, 0.081465766, 0.11600515, 0.033664368, -0.04664595, -0.027509158, -0.038369544, 0.016688585, -0.1617731, -0.15713336, -0.107321195, 0.0055606775, 0.067253284, -0.07697645, -0.005139944, 0.021516694, 0.055148985, 0.050522294, 0.011198297, -0.051165823, -0.01025347, 0.11936682, -0.14878094, 0.07900567, 0.028377006, -0.03580277, 0.14700046, 0.1538734, -0.04639275, -0.16386122, -0.12116822, 0.1668462, -0.027674424, -0.014410708, -0.06413154, -0.19905232, -0.04480744, 0.09069332, -0.056480307, -0.07282882, 0.13290596, -0.040314578, 0.18886194, -0.13051537, -0.027767772, 0.03180291, -0.056791928, -0.03580702, -0.14910384, 0.09002626, -0.042263936, 0.078238964, -0.15193073, -0.033511404, 0.0691526, -0.0020193928, 0.028964581, 0.050008085, -0.100928314, -0.05510796, -0.0024894334, -0.17788808, -0.060398072, -0.084910884, 0.0764278, -0.025380574, 0.1450185, -0.16087733, 0.1066442, 0.12089592, 0.06418885, -0.13881014, -0.03498831, -0.088978626, -0.14046565, -0.015078002, -0.021587573, 0.03407743, -0.15440191, 0.03988508, 0.0665601, 0.036024977, -0.15169443, -0.17144859, -0.0771368, 0.029539501, 0.031507906, 0.059510533, -0.009370731, -0.010763076, 0.037606694, 0.09234533, -0.033603124, -0.009720348, 0.17292272, -0.03483125, -0.05292523, 0.022061873, 0.060328703, 0.09548002, 0.05912909, 0.090989776, 0.042373903, 0.01223091, -0.09578568, 0.12926032, 0.08153149, -0.017961789, 0.082285404, -0.10440257, 0.20408401, -0.09298252, 0.11532129, -0.14937998, -0.023843465, -0.059553552, 0.026717206, -0.16108675, 0.06461809, 0.04568433, -0.17032138, 0.031647578, -0.062004, -0.014963578, -0.11415265, 0.0040543647, -0.09366226, -0.038897216, 0.021326603, -0.20040037, -0.043414593, 0.022936337, -0.0024007931, -0.04133915, -0.09901735, 0.0952196, 0.040145256, 0.1824732, 0.07960382, 0.16409498, -0.12422028, -0.08038855, 0.060227785, 0.08443249, 0.13012557, 0.074480414, -0.021898745, -0.11380765, -0.11299433, 0.17458113, -0.034641944, 0.07441161, 0.068985805, 0.18220375, -0.057247102, 0.04738126, 0.059459206, 0.053023595, -0.077465564, 0.17098737, -0.06607373, 0.040498454, 0.03434165, -0.024231393, -0.026550295, -0.056997746, -0.09218339, -0.06768858, -0.11036293, -0.17602807, 0.060342927, 0.116448626, -0.15079324, 0.08456099, 0.09901829, 0.09810222, -0.011926878, -0.04290119, 0.0073255873, -0.14661361, -0.07892564, -0.0021360966, -0.07518835, 0.12693028, 0.04780458, -0.029215002, -0.0034177063, 0.14952633, 0.089709066, 0.077165335, -0.12928678, 0.03316959, -0.0209806, -0.11496428, -0.04051167, -0.12950738, -0.047875263, 0.13934758, -0.068204835, 0.07616891, 0.014213059, -0.021999428, 0.07892736, 0.06312888, 0.12606141, -0.0012923258, -0.093577094, 0.01211825, 0.07264105, 0.0075007756, 0.062096987, -0.033025842, -0.15647964, 0.011172888, -0.05643705, 0.11217513, 0.10079428, -0.043642458, 0.073359065, 0.065395884, -0.0757747, -0.07046495, 0.009304965, -0.09143207, 0.113541946, -0.00849744, -0.07859872, -0.021563398, -0.0028230844, -0.058485094, -0.10245685, 0.041701484, 0.08829998, -0.1438355, -0.06027096, 0.0741103, -0.056873213, 0.02825285, -0.04002747, 0.040321276, 0.012614148, -0.08932718, 0.016617408, -0.020951113, -0.03240601, 0.059331555, 0.01914791, 0.032784455, 0.026726829, -0.14788748, 0.080954306, -0.014779654, 0.0916871, -0.033020828, 0.15688324, -0.087824345, -0.00667976, 0.017843809, 0.104886964, 0.04352021, -0.07002363, -0.098162144, 0.13820893, 0.040109776, 0.042147223, -0.09541455, 0.014182688, 0.05330733, 0.037611835, -0.01787383, -0.01141746, 0.08515514, 0.053276047, 0.14726968, 0.09155669, 0.11714538, 0.019412078, -0.04152784, -0.057857852, -0.17125273, 0.15306346, 0.10218344, -0.05377873, 0.06610973, -0.08690712, 0.05104331, 0.024994664, 0.09381586, 0.098292515, -0.037359964, 0.12664028, 0.09382963, 0.08648526, 0.07914988, 0.06283235, -0.031923402, 0.023780026, -0.011159997, -0.1796598, -0.043982927, 0.13666394, 0.081003435, -0.05326385, -0.05594434, -0.09255407, -0.028557852, -0.04964749, 0.030945731, -0.09691805, -0.10376266, 0.03303008, 0.12997502, 0.08045868, -0.048047442, 0.04156331, 0.12193792, 0.08630946, -0.052440394, -0.097925216, -0.023861317, -0.077213414, -0.047486182, -0.10846934, 0.04601421, -0.17202023, -0.06936097, -0.010545786, -0.00093648327, -0.06124827, -0.017465688, -0.05432778, -0.0046393974, 0.20689383, -0.024860233, -0.047071658, -0.04197425, -0.01686691, 0.107582994, 0.10054123, -0.048519146, 0.10802887, -0.0041246004, 0.07265415, 0.10216596, -0.010131472, -0.0016456926, -0.009871309, -0.0461583, -0.13314286, -0.012210304, 0.04030931, 0.14423156, 0.13651143, -0.02660988, -0.11126333, -0.017280651, 0.026341762, -0.12388582, 0.055893328, 0.13293175, -0.0125883045, -0.10117754, 0.020861335, -0.06789286, 0.02239508, 0.1702935, 0.058573857, 0.13024619, -0.024063447, -0.065904975, -0.15549818, 0.13141476, -0.013106103, -0.029120872, 0.019681051, 0.13099551, 0.0045773583, 0.06256436, 0.18812767, -0.09519607, 0.05593007, -0.110832654, -0.0348807, 0.058323685, -0.07219002, 0.020871174, 0.11669448, 0.18904117, -0.12861319, 0.033931784, -0.044660795, -0.05153502, 0.09907083, -0.23259027, -0.0050615156, 0.094561115, 0.05487695, 0.05532829, -0.16217433, -0.028392784, -0.11008612, -0.04527913, -0.0074367938, -0.1399626, -0.104675904, -0.122028284, -0.09703207, -0.15354742, 0.03995169, -0.061878823, -0.030529637, -0.037351638, -0.028926924, 0.11808152, -0.038593683, -0.027696569, -0.0019455259, -0.10574528, -0.08571197, -0.04897161, 0.0058333576, -0.16004948, 0.032158785, -0.019090533, -0.0029527352, -0.024701359, -0.0317375, 0.017522972, -0.013952568, -0.075289674, -0.025712378, -0.07525258, 0.056235306, -0.1352997, 0.026924359, -0.05811907, 0.0006803791, 0.07913012, -0.0358487, 0.067696966, -0.022533517, 0.07631697, 0.0016821424, -0.04773285, 0.10536652, -0.04412638, -0.073569216, -0.0353962, -0.0017872895, 0.13540561, -0.004360608, -0.03633388, -0.10280446, -0.19888565, -0.054062404, -0.009068517, -0.014462444, -0.058246426, -0.04001401, -0.02940902, -0.12408405, -0.008734581, -0.11478495, 0.107668415, 0.09036727, 0.01318401, 0.14282286, -0.002968103, -0.06375864, -0.14736135, -0.14581624, 0.08290444, -0.08559413, 0.05415838, 0.053379945, -0.12407205, -0.017607836, -0.0034367011, 0.09156821, -0.14999756, -0.07980302, -0.07866595, 0.052238904, 0.061432663, 0.01983924, -0.096565634, 0.14562291, -0.050528776, -0.15878542, 0.08722414, 0.09645578, -0.1552335, 0.023184426, -0.097464316, 0.022468489, 0.07533122, -0.10085287, -0.08122565, 0.08295386, -0.11285721, 0.12621582, 0.0011322706, -0.021768367, 0.00701151, 0.040748015, -0.08964258, 0.09404307, 0.115252815, -0.010396858, -0.13143067, -0.14691085, -0.06993589, -0.17266674, 0.121574976, 0.044646237, -0.02092043, -0.11478154, 0.094345756, 0.028019994, 0.06327553, 0.14575793, -0.060840815, -0.049760953, -0.050513636, -0.14533019, 0.13466431, -0.05558011, -0.052338716, 0.03957663, -0.10364961, -0.051999222, -0.05008772, -0.08387885, -0.15869622, -0.029773813, 0.07916986, 0.018390423, -0.1456641, -0.0640361, -0.08043402, 0.16411498, 0.045827515, -0.042504817, 0.09674613, -0.017392075, -0.12997457, 0.0013063917, -0.105702795, 0.12260669, 0.08545497, -0.01582784, 0.015591132, -0.07419891, 0.1313467, 0.06021632, -0.036739077, 0.15805018, 0.027751725, 0.079749, 0.054359175, -0.0042599603, -0.057565976, -0.030625442, 0.07435019, -0.13155605, -0.0685898, -0.027347265, 0.06860925, 0.0037504416, 0.1058608, 0.02860071, -0.1024458, 0.09932638, -0.026798101, -0.048040427, -0.023015033, 0.16847867, 0.17633139, -0.0685427, 0.024603158, -0.10436399, -0.09457732, 0.08657617, -0.0064824596, 0.01608976, -0.018579762, -0.16776656, 0.090979666, 0.06278145, 0.19452848, -0.101124406, -0.06185995, -0.05297095, 0.016397193, 0.058416396, 0.071841896, 0.09750117, 0.031109069, 0.023535704, 0.13902204, 0.00062930846, 0.13515767, -0.15369982, -0.105735235, -0.07122355, -0.12433803, 0.009377087, -0.16506445, 0.123013504, -0.049624663, 0.14799614, 0.037372626, -0.13066232, 0.07140723, -0.15871881, -0.022012627, -0.17249495, 0.06693509, -0.057906218, 0.029701825, -0.12148694, -0.04582414, 0.0633283, -0.081861764, 0.07040989, 0.04747545, 0.02794215, 0.009414616, -0.10511982, -0.061679944, 0.027506676, -0.0035057121, 0.0385301, -0.14092933, -0.038057685, 0.10516848, 0.03442301, -0.0830533, -0.016637214, 0.17247736, 0.16240016, -0.03541965, 0.0040517836, -0.01137621, -0.12863933, 0.05390581, -0.0002513032, -0.002241566, -0.009748532, 0.18198618, 0.006327714, 0.026961418, 0.092626065, -0.029664563, -0.039491113, 0.020076176, -0.024587663, -0.15135273, 0.14962073, 0.12560925, -0.016845375, -0.038023163, 0.06639177, -0.1493678, 0.03408162, -0.0058343913, 0.16820006, 0.10724091, -0.07165306, 0.047125623, 0.065155394, -0.074065104, 0.053484008, 0.09943307, 0.08830075, -0.041693717, -0.04291889, -0.038665254, -0.018485103, 0.02501436, -0.06170342, -0.012723983, 0.07095703, 0.11504748, -0.10033298, -0.009718667, 0.024175227, -0.10788634, -0.037598245, 0.020741332, -0.05453094, -0.024251025, -0.0052809855, 0.13232489, 0.14942761, 0.019379437, 0.120528996, -0.0034224507, -0.07609538, 0.13250653, -0.015440532, 0.023169449, 0.1354736, 0.060855474, 0.111075856, -0.044800796, 0.15061167, -0.13705032, -0.079703555, -0.107333936, 0.094415195, 0.025879806, 0.027461823, 0.17969365, 0.119225435, 0.15694515, -0.050794214, 0.02600121, 0.02822432, -0.12513566, 0.1899626, -0.1420525, -0.07110475, -0.12550826, 0.16035438, -0.045365185, -0.018660625, 0.0068763057, 0.025233379, -0.034901034, 0.14780377, -0.018986184, -0.09475574, 0.12562107, -0.08278672, 0.02331657, -0.06476491, -0.08729594, -0.16293724, -0.09531041, -0.16245975, 0.004584607, -0.012293306, -0.06492296, -0.006071692, -0.06458037, 0.07360763, -0.07440872, -0.16453171, -0.032436974, 0.020531258, 0.052233808, -0.029570678, 0.059396107, 0.030881274, 0.09197753, 0.1669566, 0.20159882, 0.04992518, -0.075288765, -0.008863103, -0.004092343, -0.092314444, -0.059057515, -0.192929, 0.07181046, -0.07297674, 0.03818149, -0.06970984, 0.0041395207, 0.11788592, 0.14985637, -0.026181743, 0.049054, 0.06613076, -0.046448823, -0.06737252, 0.01623273, -0.072425455, 0.042537782, -0.014690666, -0.1659409, 0.0062385364, 0.0384331, -0.1086714, 0.15895139, 0.051706124, -0.023601351, 0.07513289, -0.110758245, -0.08267872, 0.07453659, 0.05898001, -0.07728788, 0.071920134, -0.06192673, -0.07329225, 0.09704141, -0.006519152, -0.056505974, -0.1591847, -0.016603198, -0.10909666, 0.0031203895, -0.03267899, 0.0066097844, -0.11246517, 0.042368032, 0.106232025, -0.059742015, -0.039567966, -0.0060487515, -0.03830197, 0.08244558, 0.123336956, -0.08079509, 0.109846175, -0.06816175, -0.069016926, 0.05493757, 0.043188345, 0.070245594, 0.0051606866, 0.015468345, 0.095525004, 0.10405718, -0.15040785, 0.079168014, 0.022148384, 0.08662467, 0.027433814, -0.13621148, -0.04895911, -0.10367874, 0.1656135, -0.025282051, 0.1116347, 0.09546172, 0.08508133, 0.19402745, -0.043961283, -0.14115903, -0.07578549, 0.10054286, 0.08209672, -0.03860978, 0.039981827, 0.032008596, 0.07266863, -0.04201149, -0.11795445, 0.04223735, -0.016293552, -0.13613978, 0.17987421, -0.11270645, -0.18930276, 0.10094524, 0.07263882, -0.20782414, 0.12289982, 0.1353903, 0.103317045, 0.0930982, -0.09930292, -0.062694274, 0.07801064, 0.024334496, 0.12573725, -0.0068435823, 0.06472126, -0.06632938, 0.041652046, 0.09802185, -0.08216391, 0.09422201, 0.00017177367, 0.010608518, 0.096517004, -0.06492987, -0.022785222, -0.07697646, 0.089004174, 0.097983584, -0.18687773, 0.13002978, -0.11989664, -0.013648953, 0.037924938, 0.05266811, -0.14362845, 0.14132613, 0.18216288, -0.1037426, 0.13517265, -0.04111561, -0.10453556, -0.01632134, -0.07935588, 0.02159502, 0.11643871, 0.13508691, 0.06942261, 0.1373596, -0.14180426, 0.15465494, -0.05129, 0.17354614, 0.16317236, 0.03420568, -0.043477528, 0.075108886, 0.040386558, 0.12013454, 0.14680636, -0.0073371623, -0.090301946, -0.15128712, -0.2053271, -0.02680021, -0.0834577, 0.028044883, -0.13865386, 0.0865025, -0.113247976, -0.18765064, 0.17329384, -0.047104165, 0.053024005, -0.00047112012, -0.08338461, 0.01872565, -0.0462262, -0.019220624, 0.05820984, 0.08473646, -0.13458002, -0.12645455, 0.10887713, 0.054950297, -0.014607915, 0.0547569, -0.10136751, 0.14221768, 0.12570268, -0.15916593, 0.0504684, 0.08894448, -0.042544134, 0.014859375, -0.03927311, -0.037197992, -0.0130383335, 0.010776678, -0.087373205, 0.042048603, 0.11248028, -0.114808425, 0.09597676, 0.14098577, 0.09583901, -0.1325152, 0.0685197, -0.015594995, -0.107620835, 0.02952596, 0.0064452942, -0.007795745, 0.0044691837, -0.03856699, -0.12193499, -0.18683425, 0.12593108, 0.025319645, -0.15888107, -0.04632577, 0.07096174, -0.07705601, -0.060089294, 0.11275683, 0.08277495, 0.052642766, -0.12447152, 0.13398246, 0.17197247, -0.024741309, -0.06535598, 0.039433572, 0.13153031, -0.015207357, -0.0634813, 0.0140382135, -0.114880405, 0.037973724, -0.08715193, -0.14018708, 0.13569847, 0.10752196, 0.12810071, 0.009947278, 0.17041413, -0.07098189, -0.106946565, -0.020670185, -0.062312134, 0.0340227, 0.10475409, 0.077898726, -0.068389244, -0.056425147, 0.012970652, -0.1411747, -0.05890731, 0.012083983, -0.1723965, -0.05768157, 0.09713576, 0.0269404, -0.07963299, -0.04844931, 0.06733561, -0.04463821, -0.04680383, -0.13695993, -0.07365214, -0.05168662, 0.1219051, 0.13705742, 0.046087414, 0.013252824, -0.046234835, 0.12856477, 0.077866554, -0.16590822, 0.09781467, 0.042904332, 0.0634582, -0.008575478, 0.07813578, -0.022814041, 0.0018843517, 0.015258709, 0.07412478, 0.044936407, -0.075713776, 0.043407146, -0.1090791, 0.005932425, 0.1398461, 0.08066457, 0.08733904, 0.14269932, 0.050559863, 0.12723933, -0.06258695, -0.007865443, 0.18020795, -0.013934577, -0.09388651, 0.010442703, -0.13783614, 0.057981946, 0.048473265, -0.039282653, -0.079051055, -0.12788366, 0.115727685, 0.017855639, 0.15637265, 0.04592884, -0.104992434, -0.07351587, -0.09677746, -0.12335491, 0.0037601807, -0.024662081, 0.046920497, -0.025876462, 0.05592308, -0.062196344, 0.06039143, 0.09051714, 0.15088964, 0.08054783, -0.07945425, 0.014548981, 0.18692583, 0.13019007, 0.1828255, -0.020133788, -0.021870015, -0.019176075, -0.09742134, -0.16959311, 0.08196383, -0.0738228, 0.042993516, 0.07737042, -0.13028283, 0.0449027, -0.0067047607, -0.15491587, 0.08331033, 0.101564795, -0.09260671, -0.02060869, -0.02042503, 0.035661962, 0.12626295, 0.027948333, -0.07830815, -0.08795679, -0.021695597, 0.13055296, 0.043925274, 0.0620642, -0.13559818, -0.0075020534, 0.12758051, -0.06172187, -0.083564624, -0.031024043, -0.094248265, 0.13781017, 0.12657933, 0.018755404, 0.10552201, -0.0079902075, -0.043037917, 0.0032123385, -0.118898734, 0.19114019, 0.10593353, 0.12351972, 0.08810216, -0.08842599, 0.12199095, -0.107798725, 0.09481542, -0.07516005, 0.09037093, -0.0446751, 0.16381454, 0.20120734, 0.05281487, 0.056193464, -0.16706273, 0.033678107, -0.007847347, -0.016436957, 0.031095851, 0.06242783, -0.08719844, -0.008522008, -0.055256955, -0.012704205, 0.15576895, -0.17331696, 0.06375519, -0.10099156, 0.057087805, -0.12850924, -0.02358055, -0.013970178, 0.011221544, 0.06375597, -0.02521586, 0.019263955, -0.019741053, 0.076710746, 0.15051506, 0.01811551, -0.104448795, -0.062155496, 0.053421352, -0.20331267, 0.034198947, 0.09735003, -0.027108544, -0.09856762, -0.12126192, -0.044876322, -0.10644371, 0.12481065, -0.15375288, -0.08232143, 0.002562172, 0.07415176, 0.12818916, -0.15244617, -0.16867658, 0.030821674, 0.027776761, 0.09567404, 0.05167968, -0.07423117, -0.031196117, 0.09566399, 0.1559209, -0.19349301, 0.12886474, 0.007575144, -0.114918835, -0.012440279, 0.10440221, 0.11717402, 0.020891538, -0.15389869, 0.04345886, -0.12244785, 0.0768672, 0.0011562477, -0.121918745, 0.06986952, -0.071911156, -0.11377123, -0.05405778, -0.06759236, -0.14299826, -0.053721372, 0.007543498, 0.17102309, -0.13801695, 0.10165583, -0.056420922, 0.01987336, 0.025594475, 0.20517075, 0.030777771, 0.034565303, 0.11282807, -0.14887756, 0.096743435, 0.10308097, -0.0907204, 0.033842243, -0.019442223, 0.0050607543, 0.12931627, 0.01869671, -0.14075439, -0.1144429, -0.100831494, 0.07944155, -0.11023991, 0.04086139, -0.08250019, -0.08951089, 0.089009695, 0.088654764, -0.027481891, -0.03015499, 0.023874147, 0.05868911, 0.016603574, -0.0045605707, -0.15659815, -0.0327118, 0.106735766, -0.10013284, -0.13264331, -0.13555902, 0.14332801, 0.05317083, -0.03980965, -0.12591602, 0.07379347, 0.12075431, -0.08649185, -0.100091875, -0.06718738, -0.16997564, 0.1611378, -0.035435695, 0.11556011, -0.026408289, -0.03211797, -0.10645729, 0.020417666, -0.0878588, 0.0033648342, 0.029835604, -0.038234603, 0.095423795, 0.05317799, -0.06767968, 0.039032336, 0.075045355, -0.123395465, 0.0245034, 0.008317328, 0.0026788926, -0.1899515, 0.06919643, -0.13549772, -0.06295792, -0.02230318, 0.05683553, 0.08545234, -0.0037259548, 0.083404064, -0.045616336, -0.13259895, -0.063636445, -0.05937645, -0.042418998, -0.04267244, 0.08568667, -0.051930603, 0.0033263143, -0.011831547, -0.04492829, 0.1391379, 0.046647023, -0.09682888, 0.096242875, 0.024553532, 0.026186733, 0.18196289, -0.06628946, -0.08187459, 0.01833207, -0.074296474, 0.025760554, 0.057956915, -0.07163868, -0.16102464, -0.021049699, -0.023141919, 0.17923498, 0.014762916, 0.06744273, 0.036658764, 0.018319571, 0.027976755, 0.0841894, -0.16312116, -0.03633069, -0.04722209, 0.044343606, -0.20400544, -0.0094933845, 0.021208046, -0.10192542, 0.046858873, -0.10415115, -0.13258134, 0.007943519, 0.08905711, 0.0037790167, 0.14035596, 0.2046885, -0.09346049, -0.109400265, -0.044754036, 0.04521547, -0.021707676, -0.0652838, -0.17583142, -0.07534345, -0.13767599, -0.07365239, -0.07275762, -0.029909575, -0.10243611, 0.022292152, -0.07300359, -0.060624827, -0.028316308, -0.008784104, -0.14379735, 0.09626814, -0.065015554, -0.1798357, -0.14112546, -0.07327868, -0.053864848, -0.1372008, -0.021327686, -0.030860184, -0.09260605, -0.1744174, 0.02476187, 0.09135428, 0.07775486, -0.13529648, 0.10911533, -0.07316912, 0.07407347, 0.1355089, 0.052664228, 0.08172012, 0.10935338, -0.20616205, -0.12798439, 0.03672065, 0.01648208, 0.08975773, 0.07838691, -0.02952483, -0.00908224, -0.030167192, -0.044355933, 0.0026514544, -0.10904656, 0.109345816, 0.041181758, 0.09976889, 0.027588107, -0.119001366, 0.09458787, -0.10847831, -0.0835609, -0.024681592, -0.19033247, 0.1757674, 0.030220205, -0.0055836174, -0.080530256, 0.034102626, 0.014748723, 0.002776102, 0.08056313, -0.1519738, -0.026455846, 0.013575711, 0.0089635, -0.025255412, -0.038281504, 0.08019866, -0.1418453, -0.09239372, -0.063495286, 0.026726387, -0.14302589, -0.056667216, 0.05857149, -0.009200725, -0.06270206, -0.038475093, -0.16212317, -0.044025782, 0.21040033, 0.08095147, -0.04534139, -0.17056331, 0.1143697, 0.03024264, 0.05507844, 0.07188432, -0.043407205, -0.06218909, -0.025427029, -0.14618415, -0.025159596, 0.12632889, 0.08888108, -0.06804311, 0.090947516, 0.009241624, 0.11701226, 0.022437774, 0.012412336, -0.03314577, 0.060785525, -0.12745592, -0.07283338, -0.11267726, 0.039064217, -0.019212892, 0.115860246, 0.03167005, 0.06912427, -0.18541671, 0.010419378, 0.09732518, 0.08861318, -0.003510664, -0.026353002, 0.023867114, -0.04859776, -0.17069906, -0.084555686, 0.027287215, -0.05871211, 0.07690879, -0.08287352, 0.00707698, 0.05612277, -0.026822703, 0.030378489, -0.14607698, 0.03254378, -0.026027167, -0.032292012, -0.0693168, 0.038337443, -0.14784813, 0.049610525, 0.07252604, 0.08338149, 0.086738616, -0.14126159, 0.19050567, -0.06737499, 0.08025558, 0.07579411, -0.06833128, -0.04827567, 0.034258317, 0.096875474, 0.15652914, 0.05532877, 0.09293243, -0.0034404371, -0.017795395, 0.17374215, -0.05229817, 0.15183493, 0.05334464, 0.069676735, -0.17064735, -0.06347085, 0.052661628, -0.032177147, 0.0402785, 0.04652543, -0.12125887, 0.021579802, 0.18526693, 0.029255778, 0.09842299, -0.12255911, 0.085616946, -0.06664348, 0.09308254, 0.09223668, 0.014933596, 0.06263197, 0.058747463, 0.17437766, -0.029348627, 0.048968945, -0.18580897, -0.08098839, -0.018591113, 0.10817796, -0.12036458, -0.03682197, 0.046328023, -0.092617705, 0.058350544, -0.09984271, -0.097438395, -0.055595092, -0.17911622, -0.061065476, -0.17834982, -0.033029836, 0.0015299638, 0.016757574, -0.098794825, -0.13475657, -0.09681211, -0.0513762, 0.054289997, -0.1851083, -0.09656244, 0.024845432, 0.021463988, 0.063175164, 0.11860351, -0.02027689, -0.021976488, 0.15047662, 0.013586216, 0.08951443, -0.08407596, -0.0080952365, 0.07765036, -0.037443154, 0.025733585, 0.046435595, -0.13564569, -0.12474609, 0.055455502, 0.07996217, -0.10164168, -0.17706835, 0.14648433, 0.10167419, -0.05000041, 0.028517174, 0.010395577, 0.008895682, -0.0036539878, -0.20684688, -0.056837182, 0.08946301, -0.10387627, -0.011202572, -0.092221975, -0.11457612, 0.074919164, 0.071145214, 0.14141908, -0.064761564, -0.13594063, 0.0033609679, 0.107734464, 0.16419373, -0.124001846, -0.12353168, -0.14256339, 0.014651805, 0.08763828, -0.04393342, 0.008519239, -0.016430443, 0.033250615, 0.11035436, -0.010804959, -0.022749526, -0.01318517, -0.017093873, -0.08102192, 0.12276617, 0.07172427, -0.11814795, 0.1145024, -0.06893788, -0.015424696, -0.11045182, 0.09014872, 0.13797335, -0.07963776, 0.016271343, -0.15433505, 0.06231095, 0.015632914, -0.10879305, 0.02681676, -0.0425991, 0.014164979, -0.06381814, 0.04235372, 0.02665701, -0.09020337, -0.12259956, -0.091012, -0.0789371, 0.08362946, -0.12020002, 0.029353278, 0.06880124, -0.06665223, -0.011477343, -0.07130764, -0.013623036, 0.0005409878, 0.026494078, -0.17887945, 0.08707574, 0.04203476, -0.16821298, 0.017582146, -0.16416903, -0.12009315, 0.025443595, -0.08119602, 0.012617041, 0.10168456, -0.06761305, 0.074035965, -0.037000783, -0.046045084, 0.14997788, -0.07178873, -0.12916118, -0.114179224, 0.050936133, 0.041272018, -0.17718078, 0.050226614, 0.019099608, -0.09694399, -0.0083743455, -0.020296462, 0.008789622, 0.13408917, -0.07924119, -0.06527428, 0.013034098, -0.08251624, 0.032803636, -0.026852934, -0.039740216, 0.15545928, 0.08480309, -0.014817024, -0.15844025, 0.06236805, 0.08469791, -0.07619923, -0.056386605, -0.22595379, -0.017921118, -0.1450223, 0.06999195, -0.064570285, 0.033654787, -0.026118584, -0.19618861, 0.057308026, 0.07453037, -0.15130931, 0.0040247156, -0.010269386, -0.06189981, 0.077167995, 0.030799715, 0.13500288, 0.003962844, -0.1129476, 0.012757077, 0.0011022337, -0.18614675, 0.0035184699, -0.018036015, -0.16873796, 0.03736165, -0.053128023, -0.08617124, 0.063368626, -0.030980118, -0.049410537, -0.016913285, 0.08437939, 0.04924799, 0.060491607, -0.18570903, 0.007181671, -0.05830695, 0.090277016, 0.08076627, 0.07920754, 0.16817388, -0.16143534, -0.101144135, 0.040543523, 0.022046426, -0.085661724, -0.15769917, -0.0588235, -0.17274053, 0.05109077, -0.047443166, 0.18396807, -0.021644592, -0.10456073, 0.0129872225, 0.06457604, 0.123280644, -0.02073735, 0.1079889, 0.076227024, 0.086828925, 0.011442059, -0.06635543, 0.015438567, -0.071482204, -0.10092529, 0.12586163, 0.04813837, -0.000101847094, -0.12810178, 0.06819295, 0.1289963, 0.061237868, 0.01922283, 0.053210095, -0.14003053, -0.12075479, -0.04745862, 0.094110034, -0.15272626, 0.05967639, -0.1982482, 0.019479405, 0.013963186, -0.09625395, -0.15853895, 0.02343071, -0.11086457, -0.0074258116, -0.040064294, 0.048563637, 0.039559025, -0.0060508447, -0.046787165, -0.01424574, -0.027329197, 0.10399395, -0.032136783, 0.13867451, 0.0603505, 0.12466891, 0.10518942, -0.019576717, -0.058581214, -0.085526064, 0.067508124, -0.028403535, 0.08971364, 0.0112870885, -0.030589959, 0.15433468, 0.0358262, -0.049469676, -0.08138912, -0.17790048, -0.12611032, -0.080392405, -0.07242091, -0.053157423, -0.062722094, -0.08588104, -0.11898233, -0.05819273, 0.14316975, -0.0565992, -0.11653959, -0.086585335, -0.011976969, -0.11630141, 0.037703723, -0.05825257, -0.070456475, -0.003992224, -0.12794046, 0.0070623574, -0.052863847, 0.07115435, 0.0740461, -0.04618128, -0.07366668, -0.11433779, 0.049760282, 0.046492305, -0.18508, -0.09802067, -0.043752164, 0.07572517, 0.1592006, 0.03065863, -0.057444666, -0.06628296, -0.07525466, 0.025309335, -0.025444666, -0.05680256, 0.07379567, -0.18491422, -0.11657774, -0.03052331, 0.19522643, -0.010527136, 0.06728551, 0.11304126, 0.035133235, 0.113274105, 0.08732929, -0.0015770973, 0.032438207, 0.22763063, -0.04216916, -0.08177441, 0.0016725574, -0.04665711, -0.01643447, -0.034132335, 0.12692204, -0.11550948, -0.2001739, -0.024609933, -0.18038571, -0.027201023, 0.08985393, -0.05429983, 0.019990647, 0.011315622, 0.092727624, -0.14780946, -0.017396469, 0.012118191, -0.14116035, -0.07981716, 0.07941395, -0.02240289, -0.010458392, -0.046435993, -0.085479915, 0.061254326, -0.032681547, -0.03496277, -0.0018040738, -0.07773053, -0.038739994, 0.10356709, -0.1312073, -0.060262594, -0.12401141, 0.10859482, -0.0015101354, 0.034703515, 0.119810134, -0.010046031, -0.0045000943, 0.04465269, -0.009907023, 0.0053798095, 0.09143326, -0.19511214, -0.087584384, 0.13012598, 0.11594465, 0.079787634, 0.024123471, -0.03224563, 0.039417893, -0.010858214, 0.056063794, -0.08213929, -0.036045685, -0.071818486, -0.002154355, -0.06666845, -0.07923758, -0.019515945, 0.15922481, -0.020438978, -0.014795391, -0.04743226, -0.0829341, 0.0064862273, 0.10211045, -0.005701798, -0.025144653, -0.03907679, 0.066299334, -0.106986485, -0.02264838, -0.044884868, 0.05801016, 0.029992472, -0.04550741, -0.1167434, -0.036584113, -0.105465524, 0.048868664, 0.092078894, -0.18057553, 0.108617626, 0.08071013, -0.05102001, 0.037479315, 0.1010623, -0.049610354, -0.071381085, 0.10373031, 0.11558333, -0.11673504, 0.0024974197, 0.014802772, -0.03059982, -0.07112957, -0.00981321, 0.12554336, 0.0074653784, -0.05344592, -0.1416851, 0.0109060155, 0.009142432, -0.102944456, -0.014183386, -0.080308095, 0.09619885, -0.22268498, 0.08195066, -0.028168064, 0.09142034, -0.03176855, -0.012627143, 0.115784556, -0.13956667, -0.06520065, -0.0501961, -0.18789978, -0.054848786, -0.1505137, 0.06812122, 0.075554505, 0.032269295, -0.05222409, 0.009779559, 0.031974863, -0.00049103313, -0.06051018, -0.09626005, -0.010119491, 0.045059912, -0.09686425, 0.04741148, 0.06675733, 0.020862976, 0.057086296, 0.023486672, 0.0517977, 0.0076776273, 0.06762662, -0.10612144, 0.008037144, 0.13160133, -0.123032905, 0.06395276, -0.10120893, -0.007849282, -0.058790945, 0.034676753, -0.075256124, 0.0113934465, 0.06462712, -0.15623741, -0.045711562, 0.060492814, 0.08469405, -0.13647458, 0.03019062, -0.10296678, 0.014652939, 0.09225313, 0.032816704, -0.043049783, 0.04287591, -0.17675039, 0.03600443, -0.049816813, 0.0019226315, 0.057259727, -0.030142402, 0.03934048, -0.042706586, 0.032075685, 0.11182667, -0.01926542, -0.1425493, -0.118978344, -0.046402402, 0.065250605, -0.008869789, 0.034377985, -0.22103417, -0.0050920425, 0.031645082, 0.02595556, -0.017161597, 0.011799675, 0.12980913, 0.12528536, -0.01673819, 0.088667035, -0.01840005, 0.003875364, 0.058894373, -0.052897513, -0.040907625, 0.004940382, 0.073809415, -0.10271032, 0.053721048, -0.2015601, 0.15477005, -0.13304502, -0.14343579, -0.007806893, 0.012192153, -0.17017637, -0.08481944, -0.015948132, -0.040881496, 0.035970192, 0.018507652, -0.043239444, -0.09918184, 0.07068525, 0.1488916, -0.17490014, 0.020558385, 0.008079667, 0.09851413, -0.08591576, 0.14466831, 0.15672955, 0.19864497, 0.04870481, 0.17105909, -0.03758505, -0.098599076, 0.096478656, 0.0018324611, -0.18617526, -0.08014596, 0.043873567, 0.010307977, -0.15014185, -0.070403814, 0.0023374406, -0.020298254, -0.013739072, 0.04211541, 0.067915216, 0.056370705, 0.053097304, 0.022795372, 0.073388256, 0.004769847, 0.11129229, 0.05761803, -0.065641575, 0.12487639, 0.044246208, 0.028181266, 0.07627508, -0.1389328, 0.072907075, 0.05918933, 0.08645615, -0.051763386, -0.07450604, 0.15505823, 0.1150549, -0.019373436, 0.15560865, -0.03277649, -0.05666541, 0.08169088, 0.16282253, 0.046833865, 0.079426385, -0.068266906, -0.028405437, -0.19555922, -0.17436543, 0.0049295286, 0.01145138, 